~o
<STREAMINFO> 1 25
<VECSIZE> 25<NULLD><MFCC_D_N_Z_0><DIAGC>
~s "silst"
<MEAN> 25
 -6.243190e+00 5.610335e-01 -1.813574e+00 -6.082474e-01 8.062167e-01 5.344643e+00 1.421481e+00 5.586050e+00 2.605864e+00 6.848274e-01 1.087179e+00 1.704039e+00 1.105493e-02 1.158640e-02 4.370282e-02 2.353393e-02 -2.078318e-02 1.452992e-01 -5.304413e-04 9.835598e-02 -6.881344e-02 -4.040033e-02 1.721743e-02 2.790125e-02 -2.030216e-01
<VARIANCE> 25
 1.860827e+01 3.436898e+01 3.250668e+01 4.763546e+01 3.313717e+01 3.405413e+01 2.893608e+01 2.806894e+01 2.504441e+01 2.016680e+01 2.198942e+01 1.720200e+01 1.683910e+00 2.216912e+00 3.098300e+00 3.839889e+00 2.909810e+00 3.017832e+00 2.630237e+00 2.602977e+00 2.258211e+00 2.079533e+00 2.327736e+00 1.547667e+00 3.158827e+00
<GCONST> 9.750979e+01
~h "B"
<BEGINHMM>
<NUMSTATES> 5
<STATE> 2
<MEAN> 25
 -1.755045e+00 4.671647e+00 1.394608e-01 1.328733e+00 2.479119e+00 5.769651e+00 1.576378e+00 2.818826e+00 1.597487e+00 -1.947262e+00 -1.956794e-01 1.953063e+00 -3.665127e-01 -2.684323e-01 -2.721773e-01 -2.127427e-01 -2.362628e-01 -1.602437e-01 -1.510110e-01 3.763576e-01 3.023527e-01 1.111356e-01 1.995426e-02 1.113650e-01 -5.458336e-01
<VARIANCE> 25
 2.530441e+01 2.716669e+01 3.319102e+01 3.550103e+01 1.737676e+01 1.983082e+01 1.696453e+01 1.856512e+01 1.581535e+01 1.252500e+01 1.174832e+01 1.350378e+01 1.871323e+00 2.141390e+00 1.679425e+00 1.860301e+00 1.668240e+00 2.866203e+00 1.698359e+00 2.147064e+00 1.867571e+00 1.282100e+00 1.180720e+00 1.144587e+00 2.482474e+00
<GCONST> 8.897127e+01
<STATE> 3
<MEAN> 25
 -1.322698e+00 2.945617e-01 1.063324e-01 -1.400982e+00 -4.094509e-01 -2.487501e+00 5.577539e-02 1.494273e+00 9.035593e-01 -3.494535e+00 -3.698035e-01 1.172705e+00 2.455062e+00 -1.185119e+00 1.714577e-01 -7.972259e-01 -1.744341e+00 -3.637894e+00 -3.642238e-01 -1.442807e+00 -9.265642e-01 -6.548867e-02 -2.678682e-01 -1.739302e-01 3.520466e+00
<VARIANCE> 25
 4.438799e+01 3.333966e+01 3.519790e+01 3.633114e+01 3.686661e+01 1.046690e+02 3.036231e+01 3.051159e+01 2.857535e+01 3.571903e+01 2.047681e+01 1.557877e+01 5.877505e+00 3.926265e+00 6.035068e+00 5.389898e+00 6.267105e+00 9.208077e+00 4.936186e+00 5.481112e+00 3.913636e+00 4.997616e+00 3.768536e+00 3.304605e+00 3.373534e+00
<GCONST> 1.088688e+02
<STATE> 4
<MEAN> 25
 6.698613e+00 2.547586e+00 2.978649e+00 -4.437234e-01 -8.081315e+00 -8.459055e+00 7.742808e-01 1.880790e+00 9.539330e-01 -6.499669e-01 -3.957022e+00 -2.403104e+00 1.036038e+00 -1.168797e-01 -3.936395e-01 2.083451e-02 -3.585775e-01 2.884795e-02 2.188170e-01 -4.175723e-01 -2.104693e-01 3.747973e-01 -1.265709e-01 -1.895925e-01 8.789126e-01
<VARIANCE> 25
 2.858611e+01 3.403423e+01 3.678715e+01 3.327676e+01 8.461593e+01 9.263311e+01 3.778253e+01 4.121162e+01 3.243901e+01 3.783971e+01 2.637513e+01 3.764824e+01 5.231737e+00 3.801727e+00 3.137108e+00 3.322606e+00 8.404636e+00 9.914896e+00 4.201908e+00 5.711908e+00 4.698005e+00 3.297051e+00 3.047218e+00 2.800347e+00 4.996849e+00
<GCONST> 1.096961e+02
<TRANSP> 5
 0.000000e+00 1.000000e+00 0.000000e+00 0.000000e+00 0.000000e+00
 0.000000e+00 8.121700e-01 1.878301e-01 0.000000e+00 0.000000e+00
 0.000000e+00 0.000000e+00 5.193554e-01 4.806447e-01 0.000000e+00
 0.000000e+00 0.000000e+00 0.000000e+00 6.299309e-01 3.700692e-01
 0.000000e+00 0.000000e+00 0.000000e+00 0.000000e+00 0.000000e+00
<ENDHMM>
~h "D"
<BEGINHMM>
<NUMSTATES> 5
<STATE> 2
<MEAN> 25
 2.196911e+00 -3.294281e-01 6.576548e-01 2.470405e+00 8.862365e-01 -2.949903e+00 -2.621837e+00 -7.810226e-01 -1.537286e+00 -2.183825e+00 1.245623e-01 2.347656e-01 7.926899e-01 -9.559739e-01 -4.536455e-01 2.739440e-01 -6.470321e-01 -8.140430e-01 -1.629986e-01 -4.098515e-01 -5.100253e-01 -1.318928e-01 4.536507e-02 -3.304359e-02 9.476271e-01
<VARIANCE> 25
 4.288496e+01 5.707384e+01 3.931598e+01 4.557780e+01 5.088771e+01 8.932757e+01 5.070293e+01 5.729004e+01 4.057008e+01 2.461812e+01 2.848742e+01 2.407310e+01 4.810805e+00 6.438760e+00 5.090195e+00 4.568658e+00 5.687145e+00 1.123909e+01 5.994961e+00 6.680225e+00 5.265836e+00 2.812143e+00 2.991898e+00 2.323041e+00 5.372326e+00
<GCONST> 1.118166e+02
<STATE> 3
<MEAN> 25
 5.724866e+00 2.597155e-01 -5.163303e-02 3.535968e+00 9.816891e-01 -3.622106e+00 -3.516555e+00 -3.924288e+00 -3.048114e+00 -1.512448e+00 -9.921246e-01 -5.539186e-01 -4.949734e-01 5.734994e-01 -8.302674e-02 -2.511915e-01 2.659304e-01 9.859060e-01 4.572187e-01 4.519424e-01 4.127297e-01 -6.699713e-02 -1.190107e-01 9.543918e-02 -7.597505e-01
<VARIANCE> 25
 2.019000e+01 4.463388e+01 2.521979e+01 3.549055e+01 4.966320e+01 5.308075e+01 3.935560e+01 4.044091e+01 2.695249e+01 3.163191e+01 2.078483e+01 2.544990e+01 2.055463e+00 3.280901e+00 2.498868e+00 2.528757e+00 2.872593e+00 3.619368e+00 2.748111e+00 3.885100e+00 2.844667e+00 2.068404e+00 2.181301e+00 1.945907e+00 2.637590e+00
<GCONST> 1.004657e+02
<STATE> 4
<MEAN> 25
 -4.314941e-01 1.281104e+00 -2.467325e+00 2.261225e+00 2.275435e+00 3.680399e+00 -3.353982e-01 2.161819e+00 8.130901e-01 -1.740485e+00 5.947127e-01 1.362319e+00 -2.309516e-01 -7.495147e-02 -1.110550e-01 -7.830751e-02 -1.816744e-02 1.527796e-01 2.360827e-01 2.515135e-01 1.011683e-01 2.339479e-02 4.357211e-02 -2.880925e-02 -2.035399e-01
<VARIANCE> 25
 3.470264e+01 2.656975e+01 2.495820e+01 3.273089e+01 2.651102e+01 3.873273e+01 2.872632e+01 3.390247e+01 2.131034e+01 2.033296e+01 1.698212e+01 2.466284e+01 9.110183e-01 1.753225e+00 1.379663e+00 1.777841e+00 1.435163e+00 2.406644e+00 2.110541e+00 2.081380e+00 1.442659e+00 1.532923e+00 1.430222e+00 1.419123e+00 7.541470e-01
<GCONST> 9.070782e+01
<TRANSP> 5
 0.000000e+00 1.000000e+00 0.000000e+00 0.000000e+00 0.000000e+00
 0.000000e+00 5.878094e-01 4.121906e-01 0.000000e+00 0.000000e+00
 0.000000e+00 0.000000e+00 4.440388e-01 5.559612e-01 0.000000e+00
 0.000000e+00 0.000000e+00 0.000000e+00 7.582742e-01 2.417258e-01
 0.000000e+00 0.000000e+00 0.000000e+00 0.000000e+00 0.000000e+00
<ENDHMM>
~h "F"
<BEGINHMM>
<NUMSTATES> 5
<STATE> 2
<MEAN> 25
 -5.363990e+00 -4.923903e+00 4.642112e-01 5.542188e-01 1.168464e+00 3.773221e+00 1.693516e+00 8.481935e-01 3.557148e+00 -1.244176e+00 2.570401e+00 1.504920e+00 -1.294634e+00 -1.160180e+00 -5.828732e-02 -2.093218e-01 -3.570230e-02 3.337915e-01 1.602268e-01 2.149309e-01 5.522406e-01 2.958942e-02 6.418939e-01 3.794162e-01 2.748903e-02
<VARIANCE> 25
 4.083010e+01 3.475951e+01 2.264960e+01 1.344908e+01 2.355457e+01 2.335897e+01 2.027821e+01 2.307084e+01 1.861250e+01 1.740920e+01 1.679976e+01 1.378237e+01 2.735392e+00 2.650012e+00 1.041659e+00 1.171965e+00 2.579309e+00 2.370515e+00 1.637005e+00 1.964593e+00 2.374922e+00 1.571873e+00 1.685348e+00 1.390927e+00 4.279638e-01
<GCONST> 8.908745e+01
<STATE> 3
<MEAN> 25
 -2.096789e+00 -7.420980e+00 -1.628669e+00 -1.045435e+00 -1.498296e+00 2.562408e+00 1.297340e+00 4.267723e-01 3.140547e+00 1.036928e-01 2.102677e+00 2.733702e+00 1.366186e+00 1.380913e+00 -4.264080e-01 -4.785046e-01 5.652305e-01 -1.004179e+00 4.367146e-02 -4.374222e-02 -7.021238e-01 3.829829e-02 -6.155220e-01 -3.448507e-01 -6.614462e-02
<VARIANCE> 25
 3.864600e+01 4.275685e+01 1.812061e+01 1.689257e+01 3.517337e+01 2.139996e+01 1.465608e+01 1.977126e+01 1.768100e+01 1.493442e+01 1.902697e+01 1.196642e+01 5.531083e+00 4.464028e+00 1.766093e+00 2.881199e+00 4.463738e+00 2.883984e+00 1.989657e+00 2.158491e+00 2.102398e+00 1.346559e+00 1.782468e+00 1.444300e+00 1.015691e+00
<GCONST> 9.322546e+01
<STATE> 4
<MEAN> 25
 -1.029930e+01 1.397357e+00 1.520280e+00 -1.016440e+01 1.050643e+01 -1.169062e+01 6.902527e+00 1.417236e+00 3.352113e+00 -3.909358e+00 4.705060e+00 -1.651229e+00 6.669438e-01 4.345401e-01 1.036955e-01 -3.913064e-01 -3.077449e-01 -7.065994e-01 -3.374211e-01 -4.569203e-01 -5.055794e-01 1.072710e-01 -1.052283e-01 -3.985887e-01 3.172928e-01
<VARIANCE> 25
 1.149090e+02 4.269332e+01 3.077955e+01 5.711293e+01 1.287419e+02 7.501885e+01 4.660291e+01 5.218844e+01 4.421684e+01 5.681076e+01 5.183023e+01 2.407057e+01 1.229718e+01 5.384796e+00 2.653710e+00 5.094368e+00 9.530951e+00 6.522861e+00 4.411395e+00 3.446574e+00 5.291362e+00 4.985940e+00 5.926892e+00 2.768350e+00 1.356421e+00
<GCONST> 1.138706e+02
<TRANSP> 5
 0.000000e+00 1.000000e+00 0.000000e+00 0.000000e+00 0.000000e+00
 0.000000e+00 7.986835e-01 2.013165e-01 0.000000e+00 0.000000e+00
 0.000000e+00 0.000000e+00 6.750097e-01 3.249902e-01 0.000000e+00
 0.000000e+00 0.000000e+00 0.000000e+00 7.795426e-01 2.204574e-01
 0.000000e+00 0.000000e+00 0.000000e+00 0.000000e+00 0.000000e+00
<ENDHMM>
~h "G"
<BEGINHMM>
<NUMSTATES> 5
<STATE> 2
<MEAN> 25
 1.425504e-01 1.874710e+00 -3.947441e+00 7.772179e-01 -3.100489e+00 1.713164e+00 -1.420820e+00 -6.699282e-02 1.369567e+00 4.411176e-01 -1.397539e+00 1.111158e+00 -2.346853e-01 4.264284e-02 5.165435e-02 -9.164777e-03 -4.636678e-02 5.679242e-02 1.374335e-01 2.668929e-01 2.863424e-01 -3.744942e-02 -9.934677e-02 2.146807e-02 -2.023137e-01
<VARIANCE> 25
 2.493560e+01 2.112149e+01 2.416714e+01 2.224780e+01 4.469011e+01 2.204323e+01 2.212766e+01 3.227522e+01 3.284367e+01 2.002618e+01 2.563614e+01 1.734267e+01 5.508656e-01 8.777869e-01 1.025420e+00 9.959918e-01 1.220535e+00 1.236659e+00 1.376869e+00 2.306761e+00 1.927194e+00 1.891985e+00 1.662126e+00 1.166781e+00 3.506348e-01
<GCONST> 8.632047e+01
<STATE> 3
<MEAN> 25
 2.341153e+00 2.609854e+00 -9.059565e-01 1.464038e-01 1.388708e-01 1.941277e+00 1.279266e+00 4.635996e-01 -3.215186e-01 -7.065479e-01 -2.144320e+00 -1.659049e+00 -3.211668e-01 9.650300e-02 -3.390012e-02 -1.237904e-01 1.381663e-01 8.293897e-03 5.025057e-01 2.906729e-01 -3.544793e-01 -2.479819e-01 2.530697e-01 1.147269e-02 -1.917777e-01
<VARIANCE> 25
 3.983842e+01 2.668808e+01 2.001031e+01 3.705178e+01 4.209796e+01 4.754339e+01 3.030505e+01 3.425259e+01 3.407287e+01 2.023907e+01 1.707210e+01 2.104060e+01 1.944374e+00 3.944538e+00 3.461560e+00 2.766360e+00 3.858802e+00 4.754996e+00 3.372315e+00 3.230583e+00 2.716192e+00 1.637910e+00 1.876503e+00 1.435481e+00 2.583251e+00
<GCONST> 9.951823e+01
<STATE> 4
<MEAN> 25
 3.291062e+00 2.315940e+00 -1.346244e+00 -2.467147e+00 2.594379e+00 -4.418398e+00 8.684759e-01 2.603763e+00 -1.417780e+00 -1.069627e+00 3.863956e-01 -2.262917e+00 2.377961e-01 -3.216967e-01 -2.963090e-01 -6.700792e-01 -1.619531e-01 -1.072558e+00 2.857403e-01 -4.387845e-01 -6.617323e-01 -3.219275e-01 3.333099e-01 -1.643594e-01 7.899005e-01
<VARIANCE> 25
 4.338008e+01 3.111180e+01 2.262737e+01 7.190125e+01 1.064962e+02 7.974194e+01 5.278619e+01 7.919706e+01 5.529768e+01 2.853458e+01 5.480997e+01 2.266757e+01 4.411453e+00 4.991097e+00 3.639691e+00 9.093203e+00 7.352972e+00 1.153057e+01 7.614384e+00 4.831532e+00 5.522200e+00 3.303618e+00 5.707556e+00 2.850022e+00 5.508483e+00
<GCONST> 1.144585e+02
<TRANSP> 5
 0.000000e+00 1.000000e+00 0.000000e+00 0.000000e+00 0.000000e+00
 0.000000e+00 8.209554e-01 1.790446e-01 0.000000e+00 0.000000e+00
 0.000000e+00 0.000000e+00 3.869974e-01 6.130026e-01 0.000000e+00
 0.000000e+00 0.000000e+00 0.000000e+00 6.491581e-01 3.508419e-01
 0.000000e+00 0.000000e+00 0.000000e+00 0.000000e+00 0.000000e+00
<ENDHMM>
~h "H"
<BEGINHMM>
<NUMSTATES> 5
<STATE> 2
<MEAN> 25
 4.658980e-08 2.254011e-09 -3.388772e-08 -2.344999e-08 1.757715e-08 -3.508193e-08 4.828548e-08 -5.175438e-08 4.547313e-08 -5.686726e-09 6.731016e-09 3.337591e-08 -5.632778e-05 7.898463e-03 2.425834e-03 3.135264e-03 6.230384e-04 5.361010e-03 1.481052e-03 3.023365e-03 -1.362992e-04 -2.310141e-03 -8.174087e-04 2.144668e-03 -9.013023e-03
<VARIANCE> 25
 7.958858e+01 6.425626e+01 6.059949e+01 5.530048e+01 5.800623e+01 6.818124e+01 5.787675e+01 6.044356e+01 5.161190e+01 3.488001e+01 3.120132e+01 2.801407e+01 2.511101e+00 3.145050e+00 2.522243e+00 2.623779e+00 2.932647e+00 3.648039e+00 2.942767e+00 2.875804e+00 2.816977e+00 2.180851e+00 2.154130e+00 1.786767e+00 1.760435e+00
<GCONST> 1.055061e+02
<STATE> 3
<MEAN> 25
 4.658980e-08 2.254011e-09 -3.388772e-08 -2.344999e-08 1.757715e-08 -3.508193e-08 4.828548e-08 -5.175438e-08 4.547313e-08 -5.686726e-09 6.731016e-09 3.337591e-08 -5.632778e-05 7.898463e-03 2.425834e-03 3.135264e-03 6.230384e-04 5.361010e-03 1.481052e-03 3.023365e-03 -1.362992e-04 -2.310141e-03 -8.174087e-04 2.144668e-03 -9.013023e-03
<VARIANCE> 25
 7.958858e+01 6.425626e+01 6.059949e+01 5.530048e+01 5.800623e+01 6.818124e+01 5.787675e+01 6.044356e+01 5.161190e+01 3.488001e+01 3.120132e+01 2.801407e+01 2.511101e+00 3.145050e+00 2.522243e+00 2.623779e+00 2.932647e+00 3.648039e+00 2.942767e+00 2.875804e+00 2.816977e+00 2.180851e+00 2.154130e+00 1.786767e+00 1.760435e+00
<GCONST> 1.055061e+02
<STATE> 4
<MEAN> 25
 4.658980e-08 2.254011e-09 -3.388772e-08 -2.344999e-08 1.757715e-08 -3.508193e-08 4.828548e-08 -5.175438e-08 4.547313e-08 -5.686726e-09 6.731016e-09 3.337591e-08 -5.632778e-05 7.898463e-03 2.425834e-03 3.135264e-03 6.230384e-04 5.361010e-03 1.481052e-03 3.023365e-03 -1.362992e-04 -2.310141e-03 -8.174087e-04 2.144668e-03 -9.013023e-03
<VARIANCE> 25
 7.958858e+01 6.425626e+01 6.059949e+01 5.530048e+01 5.800623e+01 6.818124e+01 5.787675e+01 6.044356e+01 5.161190e+01 3.488001e+01 3.120132e+01 2.801407e+01 2.511101e+00 3.145050e+00 2.522243e+00 2.623779e+00 2.932647e+00 3.648039e+00 2.942767e+00 2.875804e+00 2.816977e+00 2.180851e+00 2.154130e+00 1.786767e+00 1.760435e+00
<GCONST> 1.055061e+02
<TRANSP> 5
 0.000000e+00 1.000000e+00 0.000000e+00 0.000000e+00 0.000000e+00
 0.000000e+00 6.000000e-01 4.000000e-01 0.000000e+00 0.000000e+00
 0.000000e+00 0.000000e+00 6.000000e-01 4.000000e-01 0.000000e+00
 0.000000e+00 0.000000e+00 0.000000e+00 7.000000e-01 3.000000e-01
 0.000000e+00 0.000000e+00 0.000000e+00 0.000000e+00 0.000000e+00
<ENDHMM>
~h "I"
<BEGINHMM>
<NUMSTATES> 5
<STATE> 2
<MEAN> 25
 3.268864e+00 5.616673e+00 -2.014223e+00 -1.046633e+01 1.518766e+00 -4.605989e+00 4.250886e+00 2.914649e+00 -1.131054e+01 -7.498507e+00 6.358979e+00 -4.008949e+00 1.473806e+00 -8.044583e-02 -3.557348e-01 3.578632e-01 1.351127e+00 1.183952e+00 -1.008546e+00 -1.140911e+00 -1.957453e+00 -2.801609e-01 8.524480e-01 -9.173754e-02 8.067696e-01
<VARIANCE> 25
 5.119390e+01 3.493735e+01 2.260915e+01 6.036473e+01 3.702211e+01 1.773620e+02 5.800898e+01 4.732108e+01 1.032891e+02 7.338307e+01 9.489909e+01 5.366798e+01 2.657453e+00 3.103556e+00 1.844523e+00 4.540102e+00 2.559499e+00 1.816879e+01 3.206878e+00 2.880080e+00 5.578753e+00 9.393970e+00 1.777980e+01 8.704101e+00 3.497618e+00
<GCONST> 1.153817e+02
<STATE> 3
<MEAN> 25
 6.687481e+00 -8.065646e-01 -2.133801e-01 -1.896797e+00 8.737419e+00 1.912113e+00 -4.225152e+00 -7.712790e+00 -7.688568e+00 7.964828e-01 4.882073e+00 2.145976e+00 -1.296476e+00 -6.916313e-01 1.365673e+00 7.250438e-01 8.925778e-01 -1.787435e+00 1.199344e+00 -3.814491e-01 1.812003e+00 4.166780e-01 -9.714002e-01 1.812173e-01 3.745899e-01
<VARIANCE> 25
 4.245489e+01 3.105817e+01 4.064990e+01 2.557653e+01 5.051106e+01 4.200160e+01 2.984660e+01 2.923061e+01 6.838005e+01 1.562560e+01 1.908386e+01 2.453007e+01 1.395971e+01 5.282715e+00 4.471614e+00 2.373457e+00 2.100552e+00 5.481732e+00 4.826394e+00 3.574674e+00 1.011984e+01 4.545092e+00 1.871809e+00 2.164326e+00 1.303705e+00
<GCONST> 1.050789e+02
<STATE> 4
<MEAN> 25
 -9.809554e+00 -3.756742e+00 2.306731e+00 -1.236835e+00 1.248944e+01 -1.101356e+01 2.452828e+00 -8.157138e+00 4.621449e+00 -3.845237e+00 4.654713e+00 -3.326262e-01 1.058370e+00 4.419345e-01 -3.694967e-01 3.672463e-01 -6.025584e-01 -1.434473e-01 -2.572824e-01 4.422636e-01 -2.138585e-01 2.175487e-01 -5.098902e-01 -3.762970e-01 -3.061763e-01
<VARIANCE> 25
 1.037720e+02 3.153859e+01 1.440634e+01 1.169419e+01 5.406503e+01 2.051358e+01 4.073605e+01 1.283291e+01 3.029277e+01 2.452864e+01 1.952574e+01 2.654548e+01 1.406114e+01 4.425928e+00 1.442704e+00 1.176196e+00 2.587330e+00 3.068621e+00 4.675371e+00 1.436272e+00 3.825248e+00 3.711122e+00 2.763172e+00 1.996111e+00 4.376562e-01
<GCONST> 9.746897e+01
<TRANSP> 5
 0.000000e+00 1.000000e+00 0.000000e+00 0.000000e+00 0.000000e+00
 0.000000e+00 7.601385e-01 2.398615e-01 0.000000e+00 0.000000e+00
 0.000000e+00 0.000000e+00 6.625592e-01 3.374408e-01 0.000000e+00
 0.000000e+00 0.000000e+00 0.000000e+00 7.980375e-01 2.019624e-01
 0.000000e+00 0.000000e+00 0.000000e+00 0.000000e+00 0.000000e+00
<ENDHMM>
~h "K"
<BEGINHMM>
<NUMSTATES> 5
<STATE> 2
<MEAN> 25
 -3.362106e+00 -1.707637e+00 4.868273e-01 -7.891335e-01 1.171306e+00 1.651108e+00 4.341862e+00 -1.209491e+00 -7.556922e-01 4.880139e-01 7.811717e-01 2.906106e-01 -8.747587e-01 -3.087631e-02 -3.107143e-02 -6.687988e-01 -3.088613e-01 -1.026455e-01 5.346664e-01 5.254124e-01 2.895184e-01 -1.279134e-01 2.403732e-01 1.717348e-01 -3.876262e-01
<VARIANCE> 25
 5.023619e+01 6.733241e+01 6.786013e+01 4.739750e+01 4.327021e+01 3.909371e+01 9.995682e+01 4.731189e+01 3.898653e+01 3.368811e+01 2.231850e+01 2.211049e+01 3.587456e+00 6.140304e+00 5.015711e+00 4.723133e+00 4.994015e+00 6.143194e+00 5.433604e+00 3.830578e+00 3.595478e+00 2.934717e+00 3.236596e+00 2.115643e+00 3.842649e+00
<GCONST> 1.097690e+02
<STATE> 3
<MEAN> 25
 -4.631992e+00 -5.319885e-01 -3.433906e+00 -2.008116e+00 -5.252429e-01 3.034765e+00 3.132375e+00 2.237016e+00 7.529812e-01 -6.191300e-01 1.522889e+00 1.453537e+00 7.110617e-02 -6.260727e-01 -5.393228e-01 -9.905455e-01 -6.412566e-01 -1.490029e+00 4.070650e-02 -2.911047e-02 -1.251352e-01 -3.314407e-01 3.718166e-01 -9.053063e-02 8.190041e-01
<VARIANCE> 25
 1.701499e+01 2.606471e+01 3.570308e+01 3.252757e+01 3.175493e+01 2.677704e+01 2.562875e+01 2.964963e+01 2.626567e+01 2.080732e+01 1.667361e+01 1.466768e+01 2.809056e+00 3.640035e+00 3.252867e+00 6.752525e+00 5.811850e+00 9.271063e+00 4.464734e+00 4.226658e+00 3.814158e+00 2.800957e+00 3.474848e+00 2.512132e+00 5.061958e+00
<GCONST> 1.027766e+02
<STATE> 4
<MEAN> 25
 -3.482913e+00 -7.174542e+00 -3.028407e+00 -4.593416e+00 -8.619569e-01 -1.096099e+01 2.744289e+00 -4.983900e-02 -2.447527e+00 -9.359999e-02 5.195370e+00 -1.364989e+00 8.568950e-01 -2.415988e-01 1.293859e-01 4.134497e-01 -4.204511e-01 5.167887e-03 -4.578066e-01 -2.282462e-02 -1.204170e-01 5.213478e-01 -3.491522e-01 -2.180625e-01 4.097006e-01
<VARIANCE> 25
 3.648477e+01 5.378109e+01 4.701795e+01 1.011077e+02 8.817239e+01 1.377101e+02 5.515486e+01 6.909085e+01 5.426493e+01 7.404504e+01 4.307293e+01 4.379357e+01 3.718221e+00 5.691313e+00 3.588263e+00 6.223164e+00 5.811951e+00 1.617899e+01 4.686649e+00 5.024065e+00 4.193176e+00 5.393562e+00 4.046359e+00 3.075213e+00 4.826354e+00
<GCONST> 1.165611e+02
<TRANSP> 5
 0.000000e+00 1.000000e+00 0.000000e+00 0.000000e+00 0.000000e+00
 0.000000e+00 6.332045e-01 3.667956e-01 0.000000e+00 0.000000e+00
 0.000000e+00 0.000000e+00 6.713267e-01 3.286732e-01 0.000000e+00
 0.000000e+00 0.000000e+00 0.000000e+00 7.186886e-01 2.813114e-01
 0.000000e+00 0.000000e+00 0.000000e+00 0.000000e+00 0.000000e+00
<ENDHMM>
~h "L"
<BEGINHMM>
<NUMSTATES> 5
<STATE> 2
<MEAN> 25
 7.325074e+00 2.594251e+00 6.594641e-01 -3.082339e+00 -9.017227e+00 -5.549715e+00 2.022669e+00 2.856746e+00 1.460836e+00 -2.115176e+00 -5.277818e+00 -1.648947e+00 1.081180e+00 9.595888e-01 4.031109e-01 5.757372e-02 -1.052653e+00 -7.110399e-01 -4.760679e-02 3.166825e-01 2.055623e-01 -3.997976e-01 -1.018179e+00 -6.457580e-01 3.453264e-01
<VARIANCE> 25
 3.534373e+01 4.436320e+01 4.640678e+01 2.825682e+01 5.897953e+01 5.211406e+01 4.194614e+01 5.172126e+01 4.735629e+01 3.285531e+01 3.233630e+01 3.134955e+01 3.427382e+00 3.381696e+00 2.419848e+00 1.932429e+00 4.454431e+00 4.774010e+00 3.197421e+00 4.186380e+00 3.157226e+00 3.244258e+00 3.233533e+00 2.864035e+00 2.257800e+00
<GCONST> 1.054780e+02
<STATE> 3
<MEAN> 25
 1.091611e+01 5.529309e+00 2.770869e+00 -3.102993e+00 -1.435220e+01 -9.318736e+00 8.693537e-01 2.795236e+00 1.866854e+00 -1.978249e+00 -6.046066e+00 -2.906514e+00 -1.061757e-01 2.772269e-01 1.980124e-01 -1.089319e-02 -9.098370e-02 -1.126581e-02 2.695565e-02 -1.122595e-01 -1.016017e-01 1.098625e-01 1.822590e-01 -3.345310e-02 -1.815497e-01
<VARIANCE> 25
 8.057779e+00 4.059767e+01 1.843910e+01 2.085256e+01 5.736814e+01 4.795572e+01 5.568019e+01 3.615007e+01 3.682048e+01 3.889887e+01 3.135463e+01 2.821939e+01 2.906632e-01 9.841655e-01 8.277034e-01 7.424788e-01 1.423987e+00 1.574935e+00 1.329568e+00 1.266131e+00 1.519812e+00 1.224221e+00 1.246570e+00 1.364669e+00 3.699343e-01
<GCONST> 8.701655e+01
<STATE> 4
<MEAN> 25
 8.145932e+00 5.862585e+00 3.260975e+00 -2.848727e+00 -1.010344e+01 -4.852756e+00 1.431054e+00 1.080159e+00 9.047410e-01 -1.347705e+00 -4.774158e+00 -1.821646e+00 -6.773081e-01 -2.964805e-01 -4.785099e-01 3.202287e-01 1.795543e+00 9.637257e-01 -1.364527e-01 -3.899611e-01 -2.251444e-01 1.450591e-01 7.389655e-01 4.855071e-01 -3.586686e-01
<VARIANCE> 25
 1.400774e+01 3.239374e+01 2.638153e+01 3.781305e+01 6.959544e+01 5.261966e+01 4.052311e+01 3.729164e+01 4.571399e+01 4.727127e+01 3.765252e+01 3.579973e+01 9.641122e-01 2.317564e+00 1.647955e+00 2.455751e+00 3.868547e+00 4.450085e+00 3.624434e+00 2.588755e+00 2.987065e+00 2.665850e+00 2.250494e+00 2.247878e+00 1.567829e+00
<GCONST> 1.008132e+02
<TRANSP> 5
 0.000000e+00 1.000000e+00 0.000000e+00 0.000000e+00 0.000000e+00
 0.000000e+00 6.859437e-01 3.140563e-01 0.000000e+00 0.000000e+00
 0.000000e+00 0.000000e+00 8.012952e-01 1.987048e-01 0.000000e+00
 0.000000e+00 0.000000e+00 0.000000e+00 7.161491e-01 2.838509e-01
 0.000000e+00 0.000000e+00 0.000000e+00 0.000000e+00 0.000000e+00
<ENDHMM>
~h "M"
<BEGINHMM>
<NUMSTATES> 5
<STATE> 2
<MEAN> 25
 2.537452e+00 3.178108e+00 -1.701800e+00 1.024582e+00 4.142268e-01 2.803975e+00 -1.798092e-01 -3.011838e-01 -3.562408e-01 -1.638703e+00 -1.767890e+00 -8.422870e-01 -2.164923e-01 6.058434e-01 5.235335e-01 7.269579e-01 1.141376e+00 1.105731e+00 7.249297e-02 -3.280360e-01 -9.215627e-02 3.250153e-02 -3.030510e-01 -4.802457e-01 -4.553530e-01
<VARIANCE> 25
 5.217974e+01 2.352630e+01 1.950649e+01 1.834156e+01 3.272652e+01 2.081377e+01 2.188121e+01 3.004713e+01 2.385568e+01 1.728238e+01 1.816755e+01 1.765790e+01 1.502688e+00 1.556249e+00 1.558385e+00 2.066948e+00 2.489522e+00 2.538981e+00 1.836501e+00 1.972254e+00 1.783160e+00 1.640084e+00 1.113277e+00 1.380543e+00 8.955731e-01
<GCONST> 9.028716e+01
<STATE> 3
<MEAN> 25
 6.603980e+00 8.449404e+00 2.133177e+00 4.536407e+00 6.216623e+00 6.323556e+00 -1.538414e+00 -5.538912e+00 -3.701955e+00 -2.574471e+00 -3.741467e+00 -3.335021e+00 -2.666113e-02 2.706820e-01 2.387236e-01 2.935536e-01 3.377358e-01 2.774933e-01 -1.473960e-02 -2.598982e-01 -7.071648e-02 -4.713910e-02 -1.998719e-01 -2.286627e-01 -9.587931e-02
<VARIANCE> 25
 7.739343e+00 1.173089e+01 1.979659e+01 2.250921e+01 1.766974e+01 2.267827e+01 2.274725e+01 2.458307e+01 2.085534e+01 1.397905e+01 1.538922e+01 1.472986e+01 7.933766e-01 5.833120e-01 8.535793e-01 6.916426e-01 1.032541e+00 1.078096e+00 1.021119e+00 1.611621e+00 1.216641e+00 1.184129e+00 9.229445e-01 1.050901e+00 4.181931e-01
<GCONST> 7.874399e+01
<STATE> 4
<MEAN> 25
 7.230393e+00 7.396031e+00 1.077968e+00 4.311383e+00 4.965686e+00 6.026183e+00 -9.511284e-01 -4.899816e+00 -2.641870e+00 -7.420567e-01 -4.816324e+00 -5.673357e+00 3.726402e-01 -7.305132e-01 -6.219606e-01 -8.541620e-01 -1.357669e+00 -1.357502e+00 -7.125534e-02 6.202153e-01 5.362485e-01 9.891772e-02 5.344898e-01 4.706193e-01 8.271851e-01
<VARIANCE> 25
 1.600134e+01 1.696733e+01 1.724322e+01 2.969052e+01 1.993881e+01 2.762753e+01 2.278936e+01 4.908363e+01 3.159929e+01 4.105358e+01 2.254743e+01 3.552950e+01 1.187396e+00 1.665995e+00 1.462073e+00 2.511219e+00 3.327638e+00 2.954878e+00 2.053673e+00 2.291128e+00 2.033653e+00 1.939859e+00 1.696202e+00 2.084128e+00 1.628362e+00
<GCONST> 9.391439e+01
<TRANSP> 5
 0.000000e+00 1.000000e+00 0.000000e+00 0.000000e+00 0.000000e+00
 0.000000e+00 6.658330e-01 3.341670e-01 0.000000e+00 0.000000e+00
 0.000000e+00 0.000000e+00 7.295032e-01 2.704968e-01 0.000000e+00
 0.000000e+00 0.000000e+00 0.000000e+00 6.441088e-01 3.558912e-01
 0.000000e+00 0.000000e+00 0.000000e+00 0.000000e+00 0.000000e+00
<ENDHMM>
~h "N"
<BEGINHMM>
<NUMSTATES> 5
<STATE> 2
<MEAN> 25
 7.322993e+00 2.036169e+00 -1.450429e-01 3.141332e+00 3.782937e+00 -1.300459e+00 -3.538202e+00 -5.371850e+00 -2.844897e+00 -1.835771e-01 -8.114095e-01 -1.734046e+00 4.485805e-02 1.666812e+00 5.232663e-01 7.903548e-01 9.753631e-01 1.441473e+00 -3.364578e-01 -7.023287e-01 -1.784085e-01 -7.403191e-02 -8.739536e-01 -5.375972e-01 -1.152071e+00
<VARIANCE> 25
 1.636945e+01 2.756399e+01 3.082621e+01 2.584716e+01 2.726256e+01 5.702607e+01 3.011864e+01 2.718639e+01 3.039299e+01 2.676238e+01 2.493812e+01 2.868770e+01 1.654555e+00 1.806003e+00 2.205102e+00 2.585420e+00 2.589745e+00 3.421119e+00 3.161159e+00 2.345964e+00 2.799973e+00 2.017248e+00 2.066268e+00 2.023671e+00 1.284771e+00
<GCONST> 9.650344e+01
<STATE> 3
<MEAN> 25
 6.759856e+00 7.014271e+00 1.899945e+00 6.261218e+00 6.111538e+00 4.342923e+00 -4.376335e+00 -6.370039e+00 -1.650033e+00 -1.692743e-01 -3.315823e+00 -2.422278e+00 -3.394046e-01 4.427801e-01 3.228002e-01 2.129343e-01 1.144333e-01 1.788307e-01 1.805380e-01 2.724505e-01 1.918861e-01 -2.446002e-01 -6.336277e-02 9.245541e-02 -4.225636e-01
<VARIANCE> 25
 1.233651e+01 1.335815e+01 1.717317e+01 2.002950e+01 2.267271e+01 2.500776e+01 2.313015e+01 2.992101e+01 2.221503e+01 2.696578e+01 1.686709e+01 2.356636e+01 5.785548e-01 7.398306e-01 9.235398e-01 9.097625e-01 1.065481e+00 1.243850e+00 1.488228e+00 1.800114e+00 1.433187e+00 1.339144e+00 1.202193e+00 1.126668e+00 3.314116e-01
<GCONST> 8.224809e+01
<STATE> 4
<MEAN> 25
 4.461930e+00 6.584559e+00 1.330199e+00 4.106993e+00 5.231677e+00 2.183047e+00 -2.004735e+00 -2.403499e+00 -8.068243e-01 -8.376524e-01 -1.629637e+00 -5.293320e-01 -6.140515e-01 -1.321464e+00 -5.661914e-01 -5.302296e-01 -8.585759e-01 -1.068375e+00 5.774382e-01 1.176457e+00 3.365527e-01 -8.563618e-02 5.796617e-01 4.782439e-01 2.639240e-01
<VARIANCE> 25
 2.374317e+01 1.765498e+01 2.147921e+01 2.716174e+01 3.214247e+01 4.796428e+01 2.996800e+01 3.529591e+01 2.576466e+01 2.580993e+01 2.378105e+01 2.447919e+01 1.649309e+00 3.147823e+00 2.775019e+00 3.669498e+00 4.057440e+00 5.706116e+00 4.154767e+00 3.375653e+00 2.765987e+00 2.680898e+00 2.448822e+00 2.145365e+00 2.593691e+00
<GCONST> 9.989141e+01
<TRANSP> 5
 0.000000e+00 1.000000e+00 0.000000e+00 0.000000e+00 0.000000e+00
 0.000000e+00 6.685389e-01 3.314611e-01 0.000000e+00 0.000000e+00
 0.000000e+00 0.000000e+00 7.542855e-01 2.457145e-01 0.000000e+00
 0.000000e+00 0.000000e+00 0.000000e+00 6.002240e-01 3.997760e-01
 0.000000e+00 0.000000e+00 0.000000e+00 0.000000e+00 0.000000e+00
<ENDHMM>
~h "P"
<BEGINHMM>
<NUMSTATES> 5
<STATE> 2
<MEAN> 25
 -3.750355e-01 3.861940e+00 3.355738e-01 -2.456300e-01 1.396254e+00 1.836250e+00 -1.414990e-01 -5.240027e-01 -5.982131e-01 -2.681645e-01 -1.400042e-01 -1.978469e-01 -1.388691e+00 5.477245e-01 2.807506e-01 -5.667890e-01 1.152071e-01 8.711094e-01 9.653176e-02 1.257964e+00 9.722252e-01 3.796200e-01 3.916298e-01 1.035223e+00 -1.993084e+00
<VARIANCE> 25
 3.265911e+01 2.705328e+01 2.724106e+01 2.765422e+01 2.372516e+01 2.468274e+01 3.461626e+01 4.238519e+01 3.269011e+01 2.005545e+01 1.398109e+01 1.674132e+01 4.467659e+00 2.716043e+00 1.951768e+00 1.864935e+00 2.406077e+00 3.661420e+00 3.379357e+00 3.255256e+00 3.274042e+00 1.901001e+00 2.426473e+00 1.668161e+00 3.812917e+00
<GCONST> 9.788704e+01
<STATE> 3
<MEAN> 25
 4.220595e-01 3.125641e+00 -3.530099e-01 -2.282265e-01 6.159791e-02 1.690487e+00 -5.848676e-03 3.298669e-01 1.406672e+00 4.453000e-01 -6.315029e-01 5.802681e-01 1.151372e+00 -1.155697e+00 -7.629715e-01 1.112597e-01 -3.959148e-01 -2.321243e-01 1.844142e-01 1.302453e-02 2.300637e-01 -1.129304e-01 -1.102286e-01 -1.906778e-02 1.289120e+00
<VARIANCE> 25
 5.118731e+01 2.538321e+01 1.903188e+01 1.935005e+01 1.583223e+01 1.871945e+01 1.758978e+01 2.255482e+01 1.550389e+01 1.646395e+01 1.350935e+01 1.562849e+01 7.527102e+00 2.706476e+00 1.951794e+00 2.082458e+00 1.706222e+00 2.111278e+00 1.731938e+00 2.715843e+00 2.132844e+00 1.548752e+00 1.706803e+00 1.537361e+00 6.105199e+00
<GCONST> 9.281002e+01
<STATE> 4
<MEAN> 25
 -2.781730e-01 -2.285810e+00 -3.777551e+00 3.056078e-01 -1.210501e+00 1.753720e+00 2.187847e+00 3.063701e+00 2.291123e+00 2.554545e-01 5.440147e-01 9.904697e-01 3.053895e-01 -9.426320e-01 1.286639e-01 -3.173634e-01 -9.039383e-02 -1.033933e+00 -1.767606e-01 -1.125251e-01 5.615056e-02 -4.998992e-02 4.192035e-02 -1.461476e-01 1.076411e+00
<VARIANCE> 25
 4.088479e+01 3.057434e+01 2.460184e+01 1.938868e+01 2.245876e+01 3.801908e+01 2.530442e+01 2.915483e+01 2.497957e+01 1.579769e+01 2.009269e+01 2.377865e+01 2.105553e+00 3.654766e+00 3.440928e+00 3.764800e+00 1.993760e+00 6.032311e+00 3.720323e+00 3.661567e+00 3.152786e+00 2.009214e+00 2.392227e+00 2.323182e+00 3.650703e+00
<GCONST> 9.930280e+01
<TRANSP> 5
 0.000000e+00 1.000000e+00 0.000000e+00 0.000000e+00 0.000000e+00
 0.000000e+00 5.427079e-01 4.572921e-01 0.000000e+00 0.000000e+00
 0.000000e+00 0.000000e+00 6.811429e-01 3.188571e-01 0.000000e+00
 0.000000e+00 0.000000e+00 0.000000e+00 6.004651e-01 3.995349e-01
 0.000000e+00 0.000000e+00 0.000000e+00 0.000000e+00 0.000000e+00
<ENDHMM>
~h "R"
<BEGINHMM>
<NUMSTATES> 5
<STATE> 2
<MEAN> 25
 7.825431e+00 4.117197e+00 -5.160597e+00 -7.532015e+00 -2.221568e+00 1.007855e+00 2.342097e+00 -2.266740e+00 -6.862042e+00 -2.740096e+00 2.945438e-01 -7.274064e-01 1.106229e+00 6.276354e-01 -5.936957e-01 -4.771967e-01 2.755781e-01 3.381201e-01 2.361075e-01 -9.851144e-01 -1.558602e+00 -1.306555e-01 4.386213e-01 4.513487e-01 6.382563e-01
<VARIANCE> 25
 4.658387e+01 5.141090e+01 2.949181e+01 6.247214e+01 4.716956e+01 4.379567e+01 4.856608e+01 5.753479e+01 4.990620e+01 5.300884e+01 4.368987e+01 2.784343e+01 2.998929e+00 3.564688e+00 2.736307e+00 4.312551e+00 4.179886e+00 4.120044e+00 3.856568e+00 3.810445e+00 4.889819e+00 3.585954e+00 3.241615e+00 2.694487e+00 2.323517e+00
<GCONST> 1.080455e+02
<STATE> 3
<MEAN> 25
 1.148160e+01 4.414517e+00 -7.344166e+00 -7.148068e+00 3.387122e-01 3.245058e+00 1.755176e+00 -9.026849e+00 -1.266517e+01 -1.528796e+00 4.206574e+00 2.825226e+00 -1.666879e-01 -1.183415e-01 -8.453548e-02 5.986302e-01 6.846998e-01 6.233474e-02 -4.008389e-01 -5.692487e-01 -1.611167e-01 1.004058e-01 2.887876e-01 1.660538e-01 -1.085256e-01
<VARIANCE> 25
 1.063396e+01 2.555733e+01 1.727057e+01 3.265808e+01 2.953595e+01 3.107569e+01 3.339928e+01 4.162081e+01 4.219103e+01 4.957927e+01 2.668383e+01 2.917222e+01 4.736115e-01 1.402504e+00 8.194456e-01 1.755510e+00 2.105228e+00 1.544499e+00 2.495293e+00 2.046256e+00 2.388360e+00 2.125512e+00 1.651085e+00 1.569525e+00 5.336245e-01
<GCONST> 9.096205e+01
<STATE> 4
<MEAN> 25
 7.558948e+00 1.592570e+00 -6.183526e+00 -1.742117e-01 4.630154e+00 2.076693e-01 -2.662720e+00 -8.487337e+00 -7.911042e+00 4.005666e-01 4.194264e+00 7.072227e-01 -7.638735e-01 -4.694846e-01 6.127480e-01 1.349080e+00 3.978980e-01 -5.739055e-01 -8.308231e-01 7.533376e-01 1.416589e+00 1.073568e-01 -7.269992e-01 -6.027278e-01 -4.452159e-01
<VARIANCE> 25
 2.661481e+01 2.996787e+01 2.132688e+01 4.957737e+01 3.475356e+01 5.674401e+01 4.570647e+01 5.981002e+01 4.460234e+01 4.341478e+01 2.929271e+01 3.352863e+01 1.015183e+00 1.965060e+00 1.267583e+00 2.773869e+00 2.062821e+00 3.175500e+00 3.052358e+00 2.837782e+00 2.714081e+00 2.271995e+00 1.656071e+00 1.740317e+00 1.083263e+00
<GCONST> 9.849461e+01
<TRANSP> 5
 0.000000e+00 1.000000e+00 0.000000e+00 0.000000e+00 0.000000e+00
 0.000000e+00 6.418957e-01 3.581044e-01 0.000000e+00 0.000000e+00
 0.000000e+00 0.000000e+00 7.310572e-01 2.689427e-01 0.000000e+00
 0.000000e+00 0.000000e+00 0.000000e+00 6.917937e-01 3.082063e-01
 0.000000e+00 0.000000e+00 0.000000e+00 0.000000e+00 0.000000e+00
<ENDHMM>
~h "S"
<BEGINHMM>
<NUMSTATES> 5
<STATE> 2
<MEAN> 25
 -4.418751e+00 -6.782599e+00 7.106805e+00 2.276067e-01 -1.610332e+00 -4.349878e-01 4.010439e+00 2.961592e-02 -5.813255e-01 -7.042485e-01 1.197592e+00 2.026776e+00 -3.380282e+00 -3.342818e+00 3.368611e+00 -1.271942e+00 -9.898257e-01 -6.216164e-01 1.520814e+00 7.906697e-01 5.294381e-01 -3.653632e-01 1.146674e+00 2.682222e-01 1.570453e+00
<VARIANCE> 25
 5.059655e+01 6.818052e+01 7.278307e+01 9.041016e+01 6.364872e+01 7.163711e+01 8.625694e+01 5.538145e+01 4.938649e+01 4.047244e+01 2.777856e+01 2.530413e+01 3.443185e+00 6.484766e+00 3.687021e+00 6.429276e+00 8.289159e+00 7.585277e+00 6.249492e+00 5.158268e+00 4.485132e+00 3.497055e+00 3.257299e+00 2.719697e+00 1.543214e+00
<GCONST> 1.131907e+02
<STATE> 3
<MEAN> 25
 -9.058681e+00 -2.119983e+01 1.263956e+01 9.962373e-01 -1.135610e+01 -1.175112e+00 2.207632e+00 3.348525e+00 -1.290261e+00 -2.808261e+00 5.850847e+00 1.652058e+00 -2.394983e-01 6.864233e-02 -7.093259e-01 -1.211987e-01 3.244739e-01 -4.035039e-01 2.672269e-02 -1.793242e-01 1.867155e-01 -1.010252e-01 2.149617e-02 2.541042e-01 -6.459698e-02
<VARIANCE> 25
 2.010050e+01 6.495299e+01 3.234354e+01 4.903357e+01 6.375751e+01 3.427111e+01 5.250348e+01 3.434875e+01 3.284912e+01 2.664349e+01 1.676227e+01 1.640824e+01 2.278557e+00 3.797200e+00 5.111380e+00 2.766840e+00 3.296486e+00 1.733322e+00 2.366804e+00 2.069365e+00 1.820045e+00 1.522741e+00 1.641596e+00 1.689270e+00 1.000574e+00
<GCONST> 9.824705e+01
<STATE> 4
<MEAN> 25
 -1.608786e+01 -8.495755e+00 1.278519e+01 -6.792911e+00 6.337024e-01 -2.917273e+00 1.116729e+01 -1.303386e+00 2.404486e+00 -6.609730e-01 2.693668e+00 9.000666e-01 6.249540e-01 5.025439e-01 -6.464397e-01 3.412434e-01 8.228305e-02 3.428289e-01 -4.443286e-01 4.524492e-02 -1.637464e-01 1.915405e-01 -2.048946e-01 -1.609944e-01 -5.347436e-01
<VARIANCE> 25
 4.867887e+01 3.797230e+01 7.094456e+01 5.212787e+01 4.894490e+01 1.000072e+02 1.346470e+02 7.056380e+01 6.117272e+01 5.868625e+01 4.136447e+01 2.202905e+01 3.005533e+00 2.818127e+00 2.350931e+00 1.894738e+00 2.345737e+00 3.023943e+00 3.593803e+00 2.553251e+00 2.742934e+00 2.531316e+00 2.526942e+00 1.588244e+00 1.152238e+00
<GCONST> 1.056157e+02
<TRANSP> 5
 0.000000e+00 1.000000e+00 0.000000e+00 0.000000e+00 0.000000e+00
 0.000000e+00 7.141540e-01 2.858461e-01 0.000000e+00 0.000000e+00
 0.000000e+00 0.000000e+00 7.765512e-01 2.234488e-01 0.000000e+00
 0.000000e+00 0.000000e+00 0.000000e+00 8.883325e-01 1.116675e-01
 0.000000e+00 0.000000e+00 0.000000e+00 0.000000e+00 0.000000e+00
<ENDHMM>
~h "T"
<BEGINHMM>
<NUMSTATES> 5
<STATE> 2
<MEAN> 25
 -3.019011e+00 -6.062018e+00 4.919567e-01 -5.409916e-01 1.789027e-01 -4.230989e+00 -3.558021e-01 -3.485281e-01 1.728499e+00 -1.636726e+00 8.772137e-01 7.038704e-01 -8.476748e-01 -2.396494e+00 1.079170e+00 -4.342872e-01 -6.191741e-01 -1.700996e+00 -4.216952e-01 -5.796927e-01 5.885796e-01 -8.953468e-02 6.405384e-01 1.503448e-01 1.505737e+00
<VARIANCE> 25
 5.051835e+01 8.085847e+01 6.497208e+01 6.159835e+01 5.592634e+01 1.234351e+02 4.496398e+01 4.932962e+01 4.745789e+01 2.630920e+01 3.071640e+01 3.021935e+01 5.186932e+00 8.101521e+00 7.320132e+00 5.349830e+00 5.993772e+00 1.278022e+01 5.301399e+00 5.470885e+00 5.002240e+00 3.524466e+00 2.355332e+00 3.374580e+00 6.489160e+00
<GCONST> 1.149883e+02
<STATE> 3
<MEAN> 25
 -4.367089e+00 -1.252768e+01 4.587721e+00 1.333538e+00 1.847870e-01 -7.362536e+00 -3.350335e+00 -1.753467e+00 1.040817e+00 -7.454279e-01 2.249222e+00 2.223316e+00 6.915886e-01 2.018159e-01 -6.118689e-01 8.677790e-01 2.021560e-01 1.273475e+00 -6.291139e-01 4.270899e-02 -8.207964e-01 6.727101e-01 2.063698e-01 3.585271e-01 -7.386005e-01
<VARIANCE> 25
 5.413115e+01 9.793341e+01 5.430182e+01 5.522573e+01 7.225951e+01 9.390118e+01 5.381087e+01 4.759668e+01 4.026302e+01 2.949047e+01 3.058891e+01 2.584689e+01 4.787887e+00 5.469539e+00 4.682457e+00 3.661919e+00 4.178063e+00 5.282818e+00 4.842879e+00 3.796993e+00 4.132697e+00 3.088439e+00 2.713556e+00 2.173311e+00 2.501230e+00
<GCONST> 1.103027e+02
<STATE> 4
<MEAN> 25
 -8.379551e-01 -7.518650e+00 -2.501384e+00 1.374065e+00 -7.273757e-01 -7.976379e-01 -1.329436e+00 -6.407973e-01 -3.893966e-01 1.089520e-01 2.041113e+00 2.272455e+00 1.059199e+00 1.790173e+00 -6.506324e-01 -1.520890e-01 3.073714e-01 5.700788e-01 3.698712e-01 4.693608e-02 -4.395261e-01 -3.092063e-02 -4.203788e-01 -1.754791e-01 -4.223417e-01
<VARIANCE> 25
 2.659030e+01 7.831355e+01 3.568263e+01 4.162374e+01 3.600732e+01 5.283443e+01 4.399857e+01 5.256752e+01 3.020577e+01 2.960053e+01 2.431281e+01 2.087044e+01 3.990948e+00 7.855799e+00 3.370195e+00 3.410118e+00 4.088115e+00 4.523634e+00 3.554204e+00 3.705617e+00 3.447777e+00 2.925233e+00 2.321045e+00 1.860039e+00 1.674876e+00
<GCONST> 1.048857e+02
<TRANSP> 5
 0.000000e+00 1.000000e+00 0.000000e+00 0.000000e+00 0.000000e+00
 0.000000e+00 5.968081e-01 4.031919e-01 0.000000e+00 0.000000e+00
 0.000000e+00 0.000000e+00 4.694359e-01 5.305641e-01 0.000000e+00
 0.000000e+00 0.000000e+00 0.000000e+00 6.269878e-01 3.730122e-01
 0.000000e+00 0.000000e+00 0.000000e+00 0.000000e+00 0.000000e+00
<ENDHMM>
~h "V"
<BEGINHMM>
<NUMSTATES> 5
<STATE> 2
<MEAN> 25
 4.261652e+00 4.581229e+00 8.011334e-01 -4.820419e-01 2.222638e+00 8.278069e-01 -5.329494e-01 -1.215807e+00 -1.452060e+00 -1.717710e+00 -3.012744e+00 -1.601815e+00 -2.200702e+00 -4.860338e-02 7.824453e-01 -5.369666e-01 1.478921e+00 7.482221e-01 8.538743e-01 1.474485e+00 7.725548e-01 5.877969e-02 1.380963e+00 9.123122e-01 -7.371585e-01
<VARIANCE> 25
 2.443350e+01 1.610487e+01 2.067816e+01 1.900645e+01 5.221829e+01 2.439486e+01 1.984329e+01 5.185569e+01 3.074847e+01 1.993621e+01 3.049757e+01 2.358455e+01 2.183308e+00 4.207901e+00 2.391331e+00 3.480574e+00 5.064652e+00 4.470030e+00 4.121632e+00 4.838970e+00 2.912416e+00 2.645266e+00 3.046464e+00 2.104730e+00 7.609296e-01
<GCONST> 9.905481e+01
<STATE> 3
<MEAN> 25
 -5.436737e-01 1.626129e+00 1.331985e-01 1.103303e+00 1.871129e+00 1.732324e+00 6.242443e-01 -1.498218e-01 4.119450e-01 -6.604915e-01 5.366318e-01 1.612883e+00 -5.779566e-01 -3.040978e-01 1.080005e-01 -3.926324e-02 1.627980e-01 -1.156124e-01 1.084660e-01 3.018341e-01 2.715333e-01 -1.227610e-02 2.371217e-01 1.546533e-01 -7.307686e-02
<VARIANCE> 25
 1.965095e+01 3.482203e+01 2.739267e+01 2.037914e+01 3.541781e+01 2.485405e+01 1.286607e+01 2.241403e+01 2.226536e+01 1.807918e+01 1.372035e+01 1.237046e+01 1.581806e+00 2.742038e+00 1.325999e+00 1.442949e+00 2.397608e+00 1.637881e+00 1.659205e+00 1.866473e+00 1.540806e+00 1.371392e+00 1.454338e+00 1.303178e+00 4.769380e-01
<GCONST> 8.763811e+01
<STATE> 4
<MEAN> 25
 -1.920868e+00 2.035240e+00 3.182836e+00 -3.036206e+00 5.687701e+00 -4.107005e+00 2.424456e-01 1.702573e+00 -9.183319e-01 -2.584768e+00 6.125411e-01 -1.316876e-01 -8.550622e-04 -3.896714e-01 3.529337e-02 1.058198e-01 -2.968948e-02 -4.210997e-01 -9.361111e-02 -1.953276e-01 -2.942147e-01 -2.600816e-01 -1.292059e-01 -1.085778e-01 2.125599e-01
<VARIANCE> 25
 7.966486e+01 3.362484e+01 2.869457e+01 6.080144e+01 1.311080e+02 4.645411e+01 5.317752e+01 3.643367e+01 4.605376e+01 3.206853e+01 4.090496e+01 2.099490e+01 2.625783e+00 3.099718e+00 1.590132e+00 2.682971e+00 5.074143e+00 3.469053e+00 3.333898e+00 2.435029e+00 2.596299e+00 2.602655e+00 2.128124e+00 2.149873e+00 1.050632e+00
<GCONST> 1.036314e+02
<TRANSP> 5
 0.000000e+00 1.000000e+00 0.000000e+00 0.000000e+00 0.000000e+00
 0.000000e+00 4.911346e-01 5.088654e-01 0.000000e+00 0.000000e+00
 0.000000e+00 0.000000e+00 6.896091e-01 3.103909e-01 0.000000e+00
 0.000000e+00 0.000000e+00 0.000000e+00 6.665464e-01 3.334536e-01
 0.000000e+00 0.000000e+00 0.000000e+00 0.000000e+00 0.000000e+00
<ENDHMM>
~h "W"
<BEGINHMM>
<NUMSTATES> 5
<STATE> 2
<MEAN> 25
 3.588516e+00 5.179235e+00 -5.674539e-01 -3.424298e+00 -6.645956e-01 -3.334049e+00 2.252236e-01 7.438366e-01 -1.085751e+00 -1.135084e+00 -4.115831e-01 -3.181177e+00 2.432097e-01 1.631833e+00 4.003675e-01 -9.907681e-02 -3.492798e-01 -2.336325e-01 -2.920017e-01 3.408073e-01 3.868229e-01 1.983247e-01 -3.751361e-02 4.166186e-03 -7.246709e-01
<VARIANCE> 25
 3.330093e+01 4.992032e+01 3.565920e+01 4.419490e+01 1.217225e+02 6.207938e+01 5.110447e+01 4.288651e+01 4.638349e+01 2.725506e+01 3.372630e+01 3.199570e+01 3.264917e+00 3.953936e+00 2.133276e+00 4.604531e+00 6.372658e+00 5.031139e+00 3.798774e+00 3.462861e+00 3.715203e+00 2.678072e+00 3.981359e+00 2.958029e+00 1.751053e+00
<GCONST> 1.076852e+02
<STATE> 3
<MEAN> 25
 5.360790e+00 1.009921e+01 1.454380e+00 -1.043191e+00 -2.146266e+00 -3.167604e+00 -4.191522e+00 -1.249537e+00 -3.029334e-01 -6.690282e-01 -5.372140e-01 -8.563296e-01 5.410472e-01 7.077243e-01 1.549932e-01 -4.186553e-02 -6.699315e-01 -3.872752e-01 -4.761057e-01 -2.019328e-01 2.097114e-01 2.346431e-01 2.538875e-02 6.175332e-03 -9.981966e-03
<VARIANCE> 25
 1.940733e+01 3.761023e+01 1.999809e+01 2.244900e+01 3.143686e+01 3.510605e+01 3.557194e+01 3.099095e+01 2.075548e+01 1.966526e+01 1.192166e+01 2.003283e+01 2.218570e+00 2.403180e+00 1.776013e+00 2.071297e+00 3.556701e+00 3.761506e+00 2.362684e+00 2.575546e+00 2.564746e+00 2.026859e+00 1.656259e+00 2.206980e+00 1.007032e+00
<GCONST> 9.447298e+01
<STATE> 4
<MEAN> 25
 8.588507e+00 9.701357e+00 2.449561e-01 -4.565889e+00 -5.841740e+00 -5.596400e+00 -2.061879e+00 8.532647e-01 2.877160e-01 -4.119675e-01 -2.610404e+00 -4.722479e+00 6.427391e-01 -8.938910e-01 -8.026018e-01 -3.821329e-01 9.343749e-02 1.883209e-02 8.441922e-01 2.756519e-01 -9.051836e-01 -5.159051e-01 -5.976902e-01 -4.648690e-01 8.217110e-01
<VARIANCE> 25
 2.229885e+01 3.569216e+01 1.497611e+01 2.340714e+01 2.885288e+01 3.814811e+01 3.663999e+01 2.263763e+01 2.878281e+01 2.351898e+01 2.234181e+01 2.690148e+01 1.362576e+00 2.581849e+00 1.496898e+00 3.289067e+00 4.159667e+00 4.175337e+00 2.467140e+00 3.863374e+00 4.374712e+00 2.612571e+00 2.228086e+00 2.876735e+00 1.231197e+00
<GCONST> 9.758964e+01
<TRANSP> 5
 0.000000e+00 1.000000e+00 0.000000e+00 0.000000e+00 0.000000e+00
 0.000000e+00 4.413181e-01 5.586818e-01 0.000000e+00 0.000000e+00
 0.000000e+00 0.000000e+00 6.270900e-01 3.729099e-01 0.000000e+00
 0.000000e+00 0.000000e+00 0.000000e+00 6.046071e-01 3.953929e-01
 0.000000e+00 0.000000e+00 0.000000e+00 0.000000e+00 0.000000e+00
<ENDHMM>
~h "Y"
<BEGINHMM>
<NUMSTATES> 5
<STATE> 2
<MEAN> 25
 3.069981e+00 -3.555012e+00 1.071615e+01 1.658417e+01 5.345961e+00 -1.126174e+01 -6.788836e+00 -3.573807e+00 -3.433092e+00 -2.437103e+00 -4.780002e+00 -6.077512e+00 5.601912e-01 -2.245862e-01 2.194006e-01 8.200068e-01 6.620789e-01 -9.836775e-01 -1.138349e+00 -5.882381e-01 -4.101171e-01 5.769091e-01 -4.155807e-01 -1.052275e+00 3.731507e-01
<VARIANCE> 25
 1.221072e+01 1.709765e+01 4.894862e+01 4.341632e+01 5.039465e+01 3.014441e+01 5.306198e+01 4.385373e+01 2.584452e+01 2.658938e+01 3.153106e+01 3.036978e+01 1.793275e+00 2.293533e+00 5.406693e+00 5.601048e+00 2.780487e+00 3.415120e+00 4.363856e+00 3.296995e+00 2.436832e+00 4.145912e+00 2.621761e+00 2.222997e+00 1.298986e+00
<GCONST> 1.015041e+02
<STATE> 3
<MEAN> 25
 7.469730e+00 -3.511377e+00 1.378032e+00 9.708553e+00 5.801856e+00 -1.065156e+01 -8.695195e+00 -1.359065e+01 -8.594464e+00 5.635483e+00 4.013535e-01 -9.998446e+00 4.712749e-01 5.189672e-02 -9.672906e-01 -1.786076e+00 -5.549513e-01 8.807392e-01 6.297120e-01 -6.347655e-01 -9.929562e-01 2.380735e-01 1.282167e+00 1.152899e+00 4.787419e-01
<VARIANCE> 25
 1.058240e+01 1.681779e+01 2.361093e+01 2.948505e+01 4.335733e+01 2.451836e+01 3.968863e+01 4.005388e+01 4.236634e+01 2.881883e+01 2.361409e+01 3.979525e+01 8.097644e-01 1.312984e+00 2.528067e+00 3.103138e+00 2.038801e+00 2.928135e+00 2.884751e+00 2.781278e+00 3.386209e+00 3.506845e+00 2.437674e+00 3.024194e+00 8.280885e-01
<GCONST> 9.624102e+01
<STATE> 4
<MEAN> 25
 6.820727e+00 -1.310664e+00 1.062655e+00 7.100069e+00 1.149166e+01 -6.789441e+00 -1.635404e+01 -4.489120e+00 -3.791543e+00 1.542236e+00 4.151458e+00 -2.445055e+00 4.715184e-01 3.233824e-01 -7.292418e-01 -1.080995e+00 -9.719194e-01 1.146499e+00 1.277631e+00 -3.589092e-02 -4.316447e-01 1.080925e-02 1.485009e-01 4.300143e-01 -7.489147e-02
<VARIANCE> 25
 1.115644e+01 2.602967e+01 2.800331e+01 1.190210e+02 9.352624e+01 4.105220e+01 1.485217e+02 9.864250e+01 9.249033e+01 6.114269e+01 2.881027e+01 3.136513e+01 2.939081e-01 6.897204e-01 6.910740e-01 1.918692e+00 1.914730e+00 2.437987e+00 4.755452e+00 3.480343e+00 1.810139e+00 2.051440e+00 2.371660e+00 1.889974e+00 4.326511e-01
<GCONST> 9.802950e+01
<TRANSP> 5
 0.000000e+00 1.000000e+00 0.000000e+00 0.000000e+00 0.000000e+00
 0.000000e+00 8.557528e-01 1.442472e-01 0.000000e+00 0.000000e+00
 0.000000e+00 0.000000e+00 7.544949e-01 2.455051e-01 0.000000e+00
 0.000000e+00 0.000000e+00 0.000000e+00 6.656700e-01 3.343300e-01
 0.000000e+00 0.000000e+00 0.000000e+00 0.000000e+00 0.000000e+00
<ENDHMM>
~h "Z"
<BEGINHMM>
<NUMSTATES> 5
<STATE> 2
<MEAN> 25
 2.831779e+00 -2.567387e+00 9.693685e+00 5.362431e+00 -9.051474e-01 2.110384e-01 1.410839e+00 -4.911084e+00 -6.110738e+00 -2.848831e+00 -2.320756e+00 -5.485075e-01 -3.286288e+00 -2.271176e+00 3.902807e+00 -8.029957e-01 -1.336369e+00 7.881036e-01 2.079844e+00 1.233076e+00 8.557456e-01 -9.674977e-02 1.219817e+00 4.351698e-01 4.524336e-01
<VARIANCE> 25
 2.174082e+01 5.391940e+01 5.688811e+01 8.702458e+01 6.228464e+01 4.133438e+01 7.409029e+01 5.796838e+01 4.978092e+01 4.114974e+01 3.905960e+01 2.372430e+01 2.047873e+00 7.272431e+00 2.595460e+00 6.181826e+00 6.938725e+00 6.602282e+00 9.107441e+00 5.336738e+00 7.134813e+00 4.045736e+00 3.052650e+00 2.707163e+00 8.978343e-01
<GCONST> 1.107472e+02
<STATE> 3
<MEAN> 25
 -6.690487e+00 -1.550427e+01 1.421618e+01 3.335238e+00 -6.274446e+00 -2.125824e-01 2.442916e+00 2.384914e+00 -1.772817e+00 -3.714489e+00 3.275774e+00 1.705493e+00 -1.139343e+00 1.081442e-01 -3.624132e-01 -1.362126e+00 7.102903e-01 -2.738922e-01 2.604522e-01 -5.553588e-02 5.761644e-01 2.743591e-02 1.950668e-01 3.957708e-01 2.202954e-01
<VARIANCE> 25
 1.871834e+01 1.287196e+02 6.258292e+01 8.101927e+01 8.650762e+01 4.462864e+01 7.494180e+01 5.839452e+01 4.639910e+01 3.316434e+01 3.121827e+01 2.591198e+01 7.575881e+00 8.121443e+00 7.706020e+00 4.088751e+00 4.976853e+00 2.758600e+00 4.381211e+00 4.649521e+00 3.491625e+00 2.498009e+00 3.392576e+00 1.924110e+00 1.699597e+00
<GCONST> 1.107179e+02
<STATE> 4
<MEAN> 25
 -1.225620e+01 -4.084292e+00 1.518012e+01 -7.217778e+00 2.010920e+00 9.977037e-02 6.428293e+00 -3.226851e+00 1.899250e-01 -2.017932e+00 1.281406e+00 2.575766e-01 6.749983e-01 2.659510e-01 -1.131271e+00 2.593667e-01 -2.293609e-01 2.260359e-02 -5.026309e-01 1.669849e-01 -6.557276e-02 1.824847e-02 -1.684152e-01 -1.029565e-01 -5.833537e-01
<VARIANCE> 25
 4.865319e+01 3.796472e+01 6.936302e+01 5.588365e+01 5.425420e+01 8.055679e+01 1.369306e+02 7.397458e+01 7.342122e+01 3.693861e+01 2.922143e+01 2.492053e+01 5.551075e+00 3.248751e+00 3.271646e+00 2.955637e+00 3.251664e+00 3.443965e+00 5.370365e+00 3.936502e+00 4.005876e+00 2.709120e+00 2.889157e+00 2.053819e+00 1.611037e+00
<GCONST> 1.091030e+02
<TRANSP> 5
 0.000000e+00 1.000000e+00 0.000000e+00 0.000000e+00 0.000000e+00
 0.000000e+00 6.457475e-01 3.542525e-01 0.000000e+00 0.000000e+00
 0.000000e+00 0.000000e+00 6.708668e-01 3.291332e-01 0.000000e+00
 0.000000e+00 0.000000e+00 0.000000e+00 8.576015e-01 1.423985e-01
 0.000000e+00 0.000000e+00 0.000000e+00 0.000000e+00 0.000000e+00
<ENDHMM>
~h "AA"
<BEGINHMM>
<NUMSTATES> 5
<STATE> 2
<MEAN> 25
 -2.976078e+00 -5.606163e-01 -6.292745e+00 1.438770e+00 1.410118e-01 4.856921e+00 2.413984e+00 4.934529e+00 1.478956e+00 -1.226830e+00 9.106799e-01 1.420594e+00 -3.491102e-03 5.691715e-02 -1.387402e-01 -5.539365e-02 -1.229386e-01 7.228589e-02 1.765644e-01 1.116296e-01 9.054929e-02 -3.060053e-02 -1.417692e-01 -4.545790e-02 -1.083086e-01
<VARIANCE> 25
 2.512787e+01 2.287968e+01 1.568083e+01 1.780564e+01 2.119044e+01 2.606207e+01 1.616314e+01 2.408607e+01 2.242283e+01 1.691893e+01 1.240523e+01 1.104680e+01 4.991363e-01 1.007230e+00 8.743007e-01 1.078959e+00 1.197382e+00 1.617061e+00 1.442795e+00 1.788128e+00 1.488224e+00 1.275096e+00 1.140066e+00 1.038213e+00 1.865543e-01
<GCONST> 8.106292e+01
<STATE> 3
<MEAN> 25
 4.760520e+00 1.576966e+00 -1.682617e+00 -1.941901e+00 -6.830434e+00 -3.984410e+00 6.302071e-01 5.095470e+00 2.526730e+00 -1.848393e-01 -4.456086e-01 -8.459457e-01 1.951584e+00 8.419391e-01 2.072850e-01 -8.803845e-01 -1.405665e+00 -1.339474e+00 -9.324437e-02 -8.379675e-02 1.128382e-01 1.569529e-01 -8.044332e-01 -8.488153e-01 1.518982e+00
<VARIANCE> 25
 3.693038e+01 9.448988e+01 4.040575e+01 3.661671e+01 3.993292e+01 4.285114e+01 7.097070e+01 7.067340e+01 2.963887e+01 3.324983e+01 2.050245e+01 2.064680e+01 2.728145e+00 5.913136e+00 4.535828e+00 4.267703e+00 2.992886e+00 4.446910e+00 4.108900e+00 5.106656e+00 2.465417e+00 2.866242e+00 3.074618e+00 2.303858e+00 2.907101e+00
<GCONST> 1.066668e+02
<STATE> 4
<MEAN> 25
 1.054481e+01 5.534254e-01 -2.440187e+00 -7.309152e+00 -1.164608e+01 -5.351262e+00 4.802286e+00 5.263569e+00 3.494337e+00 -2.305424e+00 -6.439721e+00 -2.988677e+00 -1.335883e-01 -2.120065e-01 1.489466e-01 7.438521e-02 5.571210e-01 3.937992e-01 -2.629892e-02 -6.639233e-01 -4.592171e-01 -1.205525e-01 -1.552314e-01 2.122239e-01 1.668343e-01
<VARIANCE> 25
 1.129155e+01 4.234050e+01 3.698201e+01 3.068766e+01 4.301693e+01 3.404894e+01 8.131984e+01 4.810080e+01 5.344495e+01 4.686212e+01 3.979702e+01 3.000928e+01 1.106307e+00 2.428255e+00 1.634019e+00 2.593465e+00 3.133493e+00 2.646822e+00 2.802360e+00 3.124580e+00 3.232260e+00 1.999469e+00 3.041994e+00 2.468469e+00 1.450318e+00
<GCONST> 1.005947e+02
<TRANSP> 5
 0.000000e+00 1.000000e+00 0.000000e+00 0.000000e+00 0.000000e+00
 0.000000e+00 8.166353e-01 1.833648e-01 0.000000e+00 0.000000e+00
 0.000000e+00 0.000000e+00 7.097614e-01 2.902386e-01 0.000000e+00
 0.000000e+00 0.000000e+00 0.000000e+00 8.479606e-01 1.520395e-01
 0.000000e+00 0.000000e+00 0.000000e+00 0.000000e+00 0.000000e+00
<ENDHMM>
~h "AE"
<BEGINHMM>
<NUMSTATES> 5
<STATE> 2
<MEAN> 25
 5.866885e+00 -3.546372e+00 -4.595836e+00 -2.019654e+00 -1.495534e+00 -3.636155e-01 -1.085365e+00 -3.314843e+00 4.718233e+00 3.855816e+00 7.758498e-02 -6.238943e-01 1.084286e+00 -5.948719e-01 -7.096133e-01 -7.873957e-01 -6.499289e-01 -3.070703e-01 5.252966e-01 -4.538185e-01 9.701440e-01 9.977826e-01 -6.560608e-01 -3.630129e-01 1.224159e+00
<VARIANCE> 25
 3.226779e+01 3.946156e+01 3.728633e+01 3.569576e+01 4.081681e+01 4.607782e+01 5.449210e+01 5.824734e+01 8.844891e+01 5.407026e+01 3.094866e+01 2.409789e+01 2.599506e+00 4.187418e+00 3.759173e+00 4.401465e+00 4.551571e+00 4.722083e+00 4.954706e+00 6.332869e+00 7.660828e+00 4.890949e+00 3.542498e+00 2.170540e+00 3.302346e+00
<GCONST> 1.095446e+02
<STATE> 3
<MEAN> 25
 1.003954e+01 -6.107722e+00 -8.557920e+00 -3.054970e+00 -2.843317e+00 -1.684971e+00 4.587255e+00 -2.935303e+00 2.269578e+00 8.691518e-01 -2.353925e+00 -4.067106e-01 2.268449e-01 8.065958e-02 -1.973658e-02 -1.957573e-01 -2.121270e-01 3.776255e-02 2.913518e-01 -2.204099e-01 -8.374264e-02 -6.585784e-02 -1.731954e-01 5.990037e-02 1.665752e-01
<VARIANCE> 25
 1.211219e+01 2.835156e+01 3.304595e+01 3.422078e+01 2.535142e+01 2.241525e+01 6.466174e+01 3.590768e+01 3.620928e+01 4.636432e+01 1.256490e+01 1.360070e+01 7.060969e-01 1.334734e+00 1.099383e+00 1.135150e+00 1.441425e+00 1.456444e+00 1.511250e+00 1.754403e+00 1.366160e+00 1.101269e+00 9.144162e-01 8.320159e-01 6.999812e-01
<GCONST> 8.713345e+01
<STATE> 4
<MEAN> 25
 9.176070e+00 -2.497269e+00 -5.462278e+00 -6.079158e+00 -3.761836e+00 1.832315e+00 2.308496e+00 -5.212538e+00 3.064886e+00 6.641215e+00 -1.628645e+00 -2.235275e+00 -5.129049e-01 8.336217e-01 3.184324e-01 5.190955e-01 5.262974e-01 4.658209e-01 -1.402110e-01 5.105203e-01 -5.124991e-01 -6.626356e-01 3.423423e-01 2.616175e-01 -1.027212e+00
<VARIANCE> 25
 1.479302e+01 1.934400e+01 2.976398e+01 3.657011e+01 4.844058e+01 4.831443e+01 5.037388e+01 4.834430e+01 5.044074e+01 6.664731e+01 2.617575e+01 3.544418e+01 1.227404e+00 1.772987e+00 2.232458e+00 2.883421e+00 2.444234e+00 2.815705e+00 2.772815e+00 3.908725e+00 3.282436e+00 2.976303e+00 2.529478e+00 1.930008e+00 1.100672e+00
<GCONST> 1.000173e+02
<TRANSP> 5
 0.000000e+00 1.000000e+00 0.000000e+00 0.000000e+00 0.000000e+00
 0.000000e+00 6.626824e-01 3.373176e-01 0.000000e+00 0.000000e+00
 0.000000e+00 0.000000e+00 7.983990e-01 2.016010e-01 0.000000e+00
 0.000000e+00 0.000000e+00 0.000000e+00 7.858024e-01 2.141976e-01
 0.000000e+00 0.000000e+00 0.000000e+00 0.000000e+00 0.000000e+00
<ENDHMM>
~h "AH"
<BEGINHMM>
<NUMSTATES> 5
<STATE> 2
<MEAN> 25
 5.527258e+00 -2.874250e+00 1.801910e-01 1.960622e+00 -3.323900e-01 -3.972312e+00 -2.703091e+00 -5.149429e+00 -3.675670e+00 -2.011798e+00 -1.895659e+00 1.692799e-02 1.019769e+00 1.929995e-02 -7.126642e-01 1.027455e-01 -2.722009e-01 -6.447538e-01 -3.513120e-01 -2.142221e-01 -2.764235e-01 1.377075e-01 -4.269502e-01 -2.424958e-01 4.822416e-01
<VARIANCE> 25
 3.008345e+01 8.843095e+01 4.099362e+01 5.891945e+01 5.285913e+01 4.934837e+01 3.988059e+01 4.820965e+01 5.811958e+01 3.678312e+01 3.192226e+01 2.756039e+01 3.526243e+00 8.269368e+00 3.477282e+00 3.291444e+00 5.216740e+00 4.986814e+00 4.052854e+00 3.586983e+00 4.725001e+00 3.496104e+00 3.271911e+00 2.668253e+00 2.812420e+00
<GCONST> 1.092490e+02
<STATE> 3
<MEAN> 25
 6.738060e+00 -7.734244e-02 -1.315455e+00 1.074495e+00 -1.245043e-01 -2.928178e+00 -1.804294e+00 -4.263844e+00 -4.322911e+00 -1.699766e+00 -1.719345e+00 -9.852350e-04 -4.366510e-01 6.205357e-01 -9.416363e-02 -9.278041e-02 1.093011e-01 7.130607e-01 2.619369e-01 6.673497e-01 7.053847e-01 -9.325279e-02 -7.917701e-02 -1.702812e-02 -7.998977e-01
<VARIANCE> 25
 2.427563e+01 3.597322e+01 2.821522e+01 3.878005e+01 4.425051e+01 4.296711e+01 4.092251e+01 3.880634e+01 3.525151e+01 3.815849e+01 2.292948e+01 2.500701e+01 2.102900e+00 3.035805e+00 2.484028e+00 2.439569e+00 3.388432e+00 2.999362e+00 2.306783e+00 2.673476e+00 2.752978e+00 1.894077e+00 1.848646e+00 1.507220e+00 2.040414e+00
<GCONST> 9.937611e+01
<STATE> 4
<MEAN> 25
 5.955556e+00 -1.111828e-01 -9.626786e-01 -1.857137e+00 -3.279762e+00 -5.320939e-01 -1.410752e+00 -1.595734e+00 3.858633e-01 -5.785247e-01 -2.678647e+00 -8.775376e-01 -4.160229e-01 2.269083e-01 3.932818e-01 7.276168e-03 1.609295e-01 5.208884e-01 2.603358e-01 3.825892e-01 3.256264e-01 7.443127e-02 1.051978e-01 -5.583080e-02 -3.246368e-01
<VARIANCE> 25
 3.683831e+01 3.385447e+01 3.206580e+01 5.028671e+01 7.020226e+01 4.472770e+01 4.901943e+01 4.595646e+01 5.159903e+01 4.953074e+01 3.825806e+01 3.126811e+01 2.839376e+00 2.960876e+00 2.403005e+00 2.869668e+00 4.609917e+00 3.960846e+00 3.527800e+00 3.520700e+00 3.697696e+00 3.264324e+00 2.415521e+00 2.448052e+00 2.609241e+00
<GCONST> 1.058770e+02
<TRANSP> 5
 0.000000e+00 1.000000e+00 0.000000e+00 0.000000e+00 0.000000e+00
 0.000000e+00 4.714478e-01 5.285523e-01 0.000000e+00 0.000000e+00
 0.000000e+00 0.000000e+00 5.103082e-01 4.896918e-01 0.000000e+00
 0.000000e+00 0.000000e+00 0.000000e+00 5.654404e-01 4.345596e-01
 0.000000e+00 0.000000e+00 0.000000e+00 0.000000e+00 0.000000e+00
<ENDHMM>
~h "AO"
<BEGINHMM>
<NUMSTATES> 5
<STATE> 2
<MEAN> 25
 4.467502e+00 1.803728e+00 1.889727e+00 -4.546461e+00 -3.131738e+00 -7.926439e+00 -3.839543e-01 -2.467082e-01 -2.641818e+00 3.305562e-01 -1.723875e-01 -3.032986e+00 1.754099e+00 1.127786e+00 -3.104975e-01 -9.987448e-01 -1.545788e+00 -6.008074e-01 -1.124934e-01 -4.587371e-01 -3.343928e-01 6.099341e-01 -2.129998e-01 -8.353105e-01 7.947996e-01
<VARIANCE> 25
 8.228851e+01 8.214305e+01 6.486011e+01 6.458860e+01 9.593571e+01 6.532017e+01 6.691826e+01 5.404203e+01 6.477592e+01 4.956792e+01 4.018148e+01 3.582637e+01 4.609505e+00 5.800004e+00 3.735010e+00 4.544084e+00 5.999782e+00 8.066269e+00 5.753385e+00 4.715594e+00 6.042862e+00 4.187986e+00 4.950429e+00 3.386733e+00 1.814002e+00
<GCONST> 1.153321e+02
<STATE> 3
<MEAN> 25
 1.181250e+01 8.367352e+00 -2.521884e+00 -9.059826e+00 -8.775089e+00 -5.361596e+00 -1.722082e+00 -1.007363e+00 -1.699626e+00 1.287284e+00 9.316440e-02 -4.417995e+00 1.867149e-01 -1.773987e-01 -7.213690e-01 -4.901593e-01 3.548831e-02 9.685879e-01 1.050398e+00 -1.408303e-01 -8.103430e-01 -4.682787e-01 1.408437e-01 3.296710e-01 1.000510e-01
<VARIANCE> 25
 9.820574e+00 3.859386e+01 2.020864e+01 2.665676e+01 3.120092e+01 4.355376e+01 6.641463e+01 3.685094e+01 4.744610e+01 3.162608e+01 2.628969e+01 2.944194e+01 4.100575e-01 8.789457e-01 1.174340e+00 1.349472e+00 1.910451e+00 2.408236e+00 2.338033e+00 1.976102e+00 2.682585e+00 2.595639e+00 1.565843e+00 1.468073e+00 2.452732e-01
<GCONST> 9.102028e+01
<STATE> 4
<MEAN> 25
 8.412403e+00 2.985199e+00 -2.512061e+00 -5.680180e+00 -6.592675e+00 -2.449856e+00 2.955998e+00 1.398923e+00 3.240959e-01 1.068306e+00 -1.914584e+00 -3.943757e+00 -3.055011e-01 -5.891820e-02 -3.418412e-01 1.846574e-01 5.655600e-01 6.694191e-01 1.773480e-01 -1.423928e-01 -2.361655e-01 -2.412298e-01 3.302361e-01 5.684856e-01 -3.690317e-01
<VARIANCE> 25
 2.669059e+01 3.712447e+01 5.383585e+01 7.146482e+01 1.210677e+02 5.093637e+01 6.324627e+01 5.360342e+01 7.520314e+01 7.520177e+01 4.520272e+01 4.715049e+01 8.643941e-01 1.239142e+00 1.044062e+00 1.997942e+00 3.226147e+00 2.352290e+00 2.080851e+00 2.975180e+00 3.151874e+00 3.275736e+00 2.391582e+00 2.135290e+00 4.573931e-01
<GCONST> 1.020977e+02
<TRANSP> 5
 0.000000e+00 1.000000e+00 0.000000e+00 0.000000e+00 0.000000e+00
 0.000000e+00 6.314035e-01 3.685965e-01 0.000000e+00 0.000000e+00
 0.000000e+00 0.000000e+00 7.462083e-01 2.537918e-01 0.000000e+00
 0.000000e+00 0.000000e+00 0.000000e+00 6.488409e-01 3.511591e-01
 0.000000e+00 0.000000e+00 0.000000e+00 0.000000e+00 0.000000e+00
<ENDHMM>
~h "AW"
<BEGINHMM>
<NUMSTATES> 5
<STATE> 2
<MEAN> 25
 9.737736e+00 1.126798e+00 -7.924819e+00 -5.046331e+00 -2.818516e+00 -1.099107e+00 3.070096e+00 -1.995360e+00 -1.030749e+00 6.177535e-01 -4.280018e+00 1.536480e+00 2.509683e-01 4.360689e-02 -4.175511e-01 -1.443666e-01 -4.485368e-01 -6.565852e-02 -1.744327e-01 -2.187878e-01 -9.106947e-02 -4.370593e-01 -7.104915e-01 -1.287140e-01 -4.386845e-02
<VARIANCE> 25
 1.959778e+01 3.584860e+01 1.821855e+01 1.229958e+01 1.930858e+01 2.147053e+01 1.131146e+01 2.333208e+01 1.468389e+01 6.093946e+01 1.802261e+01 1.510722e+01 6.428877e-01 6.562134e-01 7.373133e-01 6.512703e-01 1.394852e+00 9.027238e-01 1.115806e+00 1.407286e+00 1.670635e+00 1.189932e+00 6.374694e-01 8.506719e-01 3.728180e-01
<GCONST> 8.009345e+01
<STATE> 3
<MEAN> 25
 1.137481e+01 9.974554e-03 -6.088667e+00 -5.102571e+00 -6.397116e+00 -1.632735e+00 2.603886e+00 -6.418003e-01 2.348940e-01 -2.641955e+00 -3.606257e+00 -3.587188e+00 -2.936592e-01 4.766558e-01 7.556888e-01 3.251572e-01 1.275305e-02 2.397268e-01 -1.405014e-01 2.835844e-01 2.160606e-01 -1.572104e-01 -1.713180e-01 1.653587e-01 -4.558574e-01
<VARIANCE> 25
 2.129296e+01 5.671158e+01 2.772154e+01 5.798160e+00 3.177906e+01 2.721572e+01 1.433646e+01 2.861480e+01 1.292048e+01 5.019208e+01 2.213252e+01 2.594234e+01 4.549075e-01 1.110397e+00 9.234580e-01 9.889804e-01 1.652824e+00 1.162661e+00 1.200130e+00 2.322917e+00 1.068591e+00 1.419128e+00 1.207649e+00 1.327357e+00 2.479807e-01
<GCONST> 8.412860e+01
<STATE> 4
<MEAN> 25
 7.745255e+00 -1.956450e+00 -6.094075e+00 -5.563778e+00 -7.738354e+00 -2.014001e+00 3.638097e+00 -9.107395e-01 5.524188e+00 4.789888e+00 -5.617999e+00 -1.077950e+00 -7.707655e-02 3.051344e-01 4.976798e-01 -2.692969e-02 -2.201013e-03 -4.866619e-02 9.828185e-02 2.038764e-01 -1.827920e-01 -3.221850e-01 1.359114e-01 9.527044e-02 5.097795e-02
<VARIANCE> 25
 3.554437e+01 9.713829e+01 6.118538e+01 2.110168e+01 4.641982e+01 5.897474e+01 6.069448e+01 4.582977e+01 3.066511e+01 6.358040e+01 4.209708e+01 2.438821e+01 2.956164e+00 4.453813e+00 3.815644e+00 2.388112e+00 4.464914e+00 5.664061e+00 3.394661e+00 4.547781e+00 2.692875e+00 3.136044e+00 3.733993e+00 3.174663e+00 2.517603e+00
<GCONST> 1.078963e+02
<TRANSP> 5
 0.000000e+00 1.000000e+00 0.000000e+00 0.000000e+00 0.000000e+00
 0.000000e+00 7.372990e-01 2.627009e-01 0.000000e+00 0.000000e+00
 0.000000e+00 0.000000e+00 7.739930e-01 2.260070e-01 0.000000e+00
 0.000000e+00 0.000000e+00 0.000000e+00 8.857204e-01 1.142796e-01
 0.000000e+00 0.000000e+00 0.000000e+00 0.000000e+00 0.000000e+00
<ENDHMM>
~h "AY"
<BEGINHMM>
<NUMSTATES> 5
<STATE> 2
<MEAN> 25
 1.208626e+01 -2.735571e+00 -4.137266e+00 -8.669822e+00 -1.156687e+01 -1.606292e+00 5.106485e+00 1.097889e+00 5.889224e+00 2.667381e+00 -4.380697e+00 -4.013058e+00 4.750724e-02 -7.040065e-01 -4.886077e-01 -1.037104e-01 3.183721e-01 3.085523e-01 5.825914e-02 -3.494740e-01 1.283717e-01 3.019332e-01 3.016155e-01 1.393750e-01 4.834134e-01
<VARIANCE> 25
 1.249561e+01 3.051039e+01 2.065337e+01 2.498522e+01 4.002811e+01 3.386041e+01 3.418732e+01 2.184118e+01 5.967082e+01 5.321018e+01 3.725201e+01 1.944985e+01 8.356150e-01 2.210300e+00 1.799230e+00 2.797712e+00 3.019382e+00 2.439453e+00 2.841736e+00 2.131994e+00 3.481565e+00 1.861466e+00 2.261123e+00 1.481253e+00 1.936103e+00
<GCONST> 9.637893e+01
<STATE> 3
<MEAN> 25
 1.127587e+01 -4.745540e+00 -6.425460e+00 -2.679758e+00 -4.006643e+00 -3.532134e+00 6.480935e-01 -4.758618e+00 1.434732e+00 4.917743e+00 -1.046299e+00 -2.481776e+00 -3.201288e-01 -2.095844e-01 4.721522e-01 1.404381e+00 1.052454e+00 -9.670047e-01 -1.367841e+00 -1.158243e+00 -3.730106e-01 6.296110e-01 4.761420e-01 -7.989121e-02 2.024778e-02
<VARIANCE> 25
 7.231614e+00 3.427011e+01 2.668648e+01 1.938437e+01 2.173074e+01 4.951187e+01 3.217236e+01 1.931993e+01 2.901549e+01 4.167350e+01 2.584509e+01 1.548694e+01 2.593789e-01 7.458341e-01 8.982615e-01 9.423951e-01 1.196343e+00 2.098973e+00 1.149532e+00 1.152328e+00 2.006653e+00 1.439729e+00 1.329034e+00 1.359499e+00 2.208542e-01
<GCONST> 8.374603e+01
<STATE> 4
<MEAN> 25
 7.629667e+00 -3.044699e+00 -1.139817e+00 4.734683e+00 3.551689e+00 -4.724317e+00 -7.992494e+00 -7.399911e+00 2.860620e-01 5.081254e+00 -7.941968e-01 -2.529038e+00 -5.358863e-01 4.236094e-01 4.684000e-01 6.201696e-01 8.270355e-01 2.071104e-01 -2.081022e-02 2.446330e-01 -2.917213e-01 -3.997334e-01 -2.369379e-01 1.086188e-01 -6.687012e-01
<VARIANCE> 25
 1.613786e+01 2.050942e+01 2.811510e+01 3.215079e+01 3.928927e+01 5.811321e+01 4.928202e+01 7.128882e+01 4.866225e+01 4.394368e+01 3.227049e+01 1.961345e+01 5.565207e-01 1.243218e+00 1.433329e+00 1.875090e+00 2.155847e+00 4.454361e+00 3.502679e+00 2.755774e+00 2.313407e+00 1.968147e+00 1.783999e+00 1.387378e+00 4.134579e-01
<GCONST> 9.526003e+01
<TRANSP> 5
 0.000000e+00 1.000000e+00 0.000000e+00 0.000000e+00 0.000000e+00
 0.000000e+00 8.170848e-01 1.829152e-01 0.000000e+00 0.000000e+00
 0.000000e+00 0.000000e+00 7.958596e-01 2.041404e-01 0.000000e+00
 0.000000e+00 0.000000e+00 0.000000e+00 8.198001e-01 1.801999e-01
 0.000000e+00 0.000000e+00 0.000000e+00 0.000000e+00 0.000000e+00
<ENDHMM>
~h "CH"
<BEGINHMM>
<NUMSTATES> 5
<STATE> 2
<MEAN> 25
 -5.209909e+00 -1.022856e+01 2.713789e+00 5.895945e+00 1.583267e+00 -3.156987e+00 -4.052870e+00 5.330413e+00 5.940281e+00 -3.506063e+00 -1.942717e+00 3.003881e+00 -2.029102e+00 -5.126339e+00 2.149306e+00 9.731939e-01 -6.957421e-01 -2.185943e-01 -6.782920e-01 5.923226e-01 2.160414e+00 1.341337e-01 1.631808e-01 6.335076e-01 2.055118e+00
<VARIANCE> 25
 2.962079e+01 1.249371e+02 7.167679e+01 3.876522e+01 3.368273e+01 4.782674e+01 3.978731e+01 5.046032e+01 5.851870e+01 1.932999e+01 1.585063e+01 1.556019e+01 2.605631e+00 7.823524e+00 4.802798e+00 4.041812e+00 6.347762e+00 7.380347e+00 5.420378e+00 4.638340e+00 3.719213e+00 2.835524e+00 1.467080e+00 1.917163e+00 3.265250e+00
<GCONST> 1.072465e+02
<STATE> 3
<MEAN> 25
 -9.961977e+00 -2.166344e+01 9.779723e+00 5.892371e+00 7.921815e-03 -9.969031e-01 -5.148337e+00 2.968323e+00 1.035578e+01 -1.077779e+00 5.721774e-01 2.421497e+00 7.165645e-01 1.349990e-01 -8.521163e-01 -6.349900e-01 5.499840e-01 1.660839e-01 -4.788458e-01 -1.039115e+00 3.018536e-02 7.176681e-01 7.872806e-02 -3.882439e-01 1.537224e-01
<VARIANCE> 25
 3.236208e+01 6.413475e+01 5.541568e+01 2.635479e+01 3.166947e+01 3.802166e+01 3.317696e+01 5.045765e+01 4.287065e+01 1.525650e+01 2.853111e+01 1.507041e+01 2.078664e+00 5.509733e+00 2.691119e+00 1.635628e+00 1.398699e+00 2.642503e+00 2.255789e+00 1.755996e+00 2.493261e+00 7.132730e-01 1.403117e+00 1.156235e+00 3.192329e+00
<GCONST> 9.675918e+01
<STATE> 4
<MEAN> 25
 -4.426812e+00 -1.577610e+01 4.061938e-01 6.752885e+00 1.467756e+00 -1.419489e+00 -8.623121e+00 8.975743e-01 9.100292e+00 -5.037664e-01 -3.197522e+00 2.812745e+00 1.352006e+00 2.814070e+00 -9.303472e-01 -2.481060e-01 1.221386e-01 5.813342e-02 1.314812e-01 -3.473103e-01 -1.100430e+00 -2.039675e-01 -1.390259e-01 -2.820491e-01 -8.148994e-01
<VARIANCE> 25
 2.836073e+01 1.003980e+02 5.638386e+01 2.619956e+01 2.261643e+01 4.483067e+01 2.975962e+01 9.356862e+01 1.661806e+01 2.566676e+01 3.052448e+01 2.039005e+01 2.747872e+00 5.606628e+00 2.011817e+00 2.120919e+00 2.589224e+00 3.004677e+00 2.286993e+00 2.871960e+00 2.167073e+00 1.262541e+00 1.787548e+00 2.130061e+00 9.960073e-01
<GCONST> 9.900059e+01
<TRANSP> 5
 0.000000e+00 1.000000e+00 0.000000e+00 0.000000e+00 0.000000e+00
 0.000000e+00 7.836672e-01 2.163328e-01 0.000000e+00 0.000000e+00
 0.000000e+00 0.000000e+00 7.462809e-01 2.537192e-01 0.000000e+00
 0.000000e+00 0.000000e+00 0.000000e+00 8.193235e-01 1.806765e-01
 0.000000e+00 0.000000e+00 0.000000e+00 0.000000e+00 0.000000e+00
<ENDHMM>
~h "DH"
<BEGINHMM>
<NUMSTATES> 5
<STATE> 2
<MEAN> 25
 -4.292660e+00 -3.595166e-01 3.752576e+00 -2.003791e+00 3.112251e+00 -1.245056e+00 -6.684700e-01 -1.088220e+00 -1.163875e+00 -1.516291e+00 2.511340e-01 -1.181174e+00 -1.718008e-01 -2.351236e-01 1.118757e-01 -2.240708e-01 -1.878133e-01 -6.122568e-03 1.802464e-01 7.194145e-02 -1.721533e-01 -3.020642e-01 1.095513e-03 -4.871634e-02 7.814087e-02
<VARIANCE> 25
 6.962395e+01 3.300600e+01 6.551754e+01 8.535528e+01 7.526060e+01 6.058672e+01 7.108138e+01 1.010682e+02 5.655823e+01 4.944171e+01 3.912986e+01 4.437077e+01 4.042152e+00 3.857191e+00 3.962580e+00 5.177188e+00 5.850141e+00 6.670428e+00 5.749247e+00 7.476856e+00 5.751059e+00 5.026250e+00 3.296965e+00 3.730570e+00 2.601983e+00
<GCONST> 1.150388e+02
<STATE> 3
<MEAN> 25
 -9.828753e-01 9.152418e-01 -3.934363e+00 -1.345711e-01 -1.269466e+00 3.696290e+00 -1.212973e+00 1.222961e+00 1.120233e+00 -1.090760e+00 -2.293716e+00 1.730355e+00 3.004564e-01 3.200316e-01 1.338975e-01 1.418969e-01 1.330120e-01 2.039452e-01 -1.192739e-01 -1.890171e-01 6.835359e-02 -1.544672e-01 7.688053e-02 8.529370e-02 1.406980e-01
<VARIANCE> 25
 2.423453e+01 2.653559e+01 4.188136e+01 1.996924e+01 3.074025e+01 2.320441e+01 1.733874e+01 2.703267e+01 2.362083e+01 1.904713e+01 1.769466e+01 1.527275e+01 1.255910e+00 2.073261e+00 2.236067e+00 1.922581e+00 2.037760e+00 2.260926e+00 2.133017e+00 2.923160e+00 2.284356e+00 1.857495e+00 1.843737e+00 1.527002e+00 1.066576e+00
<GCONST> 9.188858e+01
<STATE> 4
<MEAN> 25
 7.925752e-01 7.322596e+00 7.880692e+00 -6.579941e-01 5.191507e+00 3.860577e+00 -2.343253e+00 -1.352849e+00 -1.066402e+00 -3.708700e+00 -2.204457e+00 8.515969e-01 7.507056e-01 -4.305719e-01 2.807378e-01 -1.326396e-01 -1.143475e-01 -6.152786e-01 -4.984107e-01 -9.567791e-01 -5.683486e-01 -2.036101e-01 -2.096368e-01 -2.021406e-01 1.033069e+00
<VARIANCE> 25
 3.654695e+01 3.583959e+01 3.321758e+01 5.566854e+01 6.233476e+01 3.632659e+01 5.531138e+01 4.853978e+01 4.607599e+01 2.317050e+01 3.768216e+01 2.066326e+01 4.286046e+00 3.103010e+00 3.277821e+00 4.951006e+00 5.315244e+00 3.484168e+00 5.338651e+00 5.740311e+00 5.169639e+00 2.881569e+00 3.482580e+00 2.646276e+00 1.688693e+00
<GCONST> 1.070601e+02
<TRANSP> 5
 0.000000e+00 1.000000e+00 0.000000e+00 0.000000e+00 0.000000e+00
 0.000000e+00 6.998560e-01 3.001440e-01 0.000000e+00 0.000000e+00
 0.000000e+00 0.000000e+00 7.571959e-01 2.428041e-01 0.000000e+00
 0.000000e+00 0.000000e+00 0.000000e+00 7.513260e-01 2.486740e-01
 0.000000e+00 0.000000e+00 0.000000e+00 0.000000e+00 0.000000e+00
<ENDHMM>
~h "EA"
<BEGINHMM>
<NUMSTATES> 5
<STATE> 2
<MEAN> 25
 4.658980e-08 2.254011e-09 -3.388772e-08 -2.344999e-08 1.757715e-08 -3.508193e-08 4.828548e-08 -5.175438e-08 4.547313e-08 -5.686726e-09 6.731016e-09 3.337591e-08 -5.632778e-05 7.898463e-03 2.425834e-03 3.135264e-03 6.230384e-04 5.361010e-03 1.481052e-03 3.023365e-03 -1.362992e-04 -2.310141e-03 -8.174087e-04 2.144668e-03 -9.013023e-03
<VARIANCE> 25
 7.958858e+01 6.425626e+01 6.059949e+01 5.530048e+01 5.800623e+01 6.818124e+01 5.787675e+01 6.044356e+01 5.161190e+01 3.488001e+01 3.120132e+01 2.801407e+01 2.511101e+00 3.145050e+00 2.522243e+00 2.623779e+00 2.932647e+00 3.648039e+00 2.942767e+00 2.875804e+00 2.816977e+00 2.180851e+00 2.154130e+00 1.786767e+00 1.760435e+00
<GCONST> 1.055061e+02
<STATE> 3
<MEAN> 25
 4.658980e-08 2.254011e-09 -3.388772e-08 -2.344999e-08 1.757715e-08 -3.508193e-08 4.828548e-08 -5.175438e-08 4.547313e-08 -5.686726e-09 6.731016e-09 3.337591e-08 -5.632778e-05 7.898463e-03 2.425834e-03 3.135264e-03 6.230384e-04 5.361010e-03 1.481052e-03 3.023365e-03 -1.362992e-04 -2.310141e-03 -8.174087e-04 2.144668e-03 -9.013023e-03
<VARIANCE> 25
 7.958858e+01 6.425626e+01 6.059949e+01 5.530048e+01 5.800623e+01 6.818124e+01 5.787675e+01 6.044356e+01 5.161190e+01 3.488001e+01 3.120132e+01 2.801407e+01 2.511101e+00 3.145050e+00 2.522243e+00 2.623779e+00 2.932647e+00 3.648039e+00 2.942767e+00 2.875804e+00 2.816977e+00 2.180851e+00 2.154130e+00 1.786767e+00 1.760435e+00
<GCONST> 1.055061e+02
<STATE> 4
<MEAN> 25
 4.658980e-08 2.254011e-09 -3.388772e-08 -2.344999e-08 1.757715e-08 -3.508193e-08 4.828548e-08 -5.175438e-08 4.547313e-08 -5.686726e-09 6.731016e-09 3.337591e-08 -5.632778e-05 7.898463e-03 2.425834e-03 3.135264e-03 6.230384e-04 5.361010e-03 1.481052e-03 3.023365e-03 -1.362992e-04 -2.310141e-03 -8.174087e-04 2.144668e-03 -9.013023e-03
<VARIANCE> 25
 7.958858e+01 6.425626e+01 6.059949e+01 5.530048e+01 5.800623e+01 6.818124e+01 5.787675e+01 6.044356e+01 5.161190e+01 3.488001e+01 3.120132e+01 2.801407e+01 2.511101e+00 3.145050e+00 2.522243e+00 2.623779e+00 2.932647e+00 3.648039e+00 2.942767e+00 2.875804e+00 2.816977e+00 2.180851e+00 2.154130e+00 1.786767e+00 1.760435e+00
<GCONST> 1.055061e+02
<TRANSP> 5
 0.000000e+00 1.000000e+00 0.000000e+00 0.000000e+00 0.000000e+00
 0.000000e+00 6.000000e-01 4.000000e-01 0.000000e+00 0.000000e+00
 0.000000e+00 0.000000e+00 6.000000e-01 4.000000e-01 0.000000e+00
 0.000000e+00 0.000000e+00 0.000000e+00 7.000000e-01 3.000000e-01
 0.000000e+00 0.000000e+00 0.000000e+00 0.000000e+00 0.000000e+00
<ENDHMM>
~h "EH"
<BEGINHMM>
<NUMSTATES> 5
<STATE> 2
<MEAN> 25
 4.484716e+00 -3.276333e+00 -1.605299e+00 -1.050148e+00 -5.182331e-01 -4.253183e+00 -2.487432e+00 -3.265917e+00 1.346227e+00 1.517823e+00 5.655603e-02 1.615194e-01 2.375855e+00 -4.076880e-01 -5.548637e-01 1.326170e-02 -8.685483e-01 -1.169109e+00 -7.524075e-01 -1.703392e+00 -8.249977e-01 8.477017e-01 -2.579208e-01 -2.543314e-01 1.824340e+00
<VARIANCE> 25
 4.392065e+01 5.554834e+01 3.834566e+01 4.949665e+01 3.459012e+01 5.774486e+01 3.551163e+01 4.670915e+01 6.051793e+01 4.218834e+01 2.892747e+01 2.294478e+01 4.873793e+00 7.150852e+00 4.688534e+00 3.298237e+00 4.386611e+00 8.361859e+00 4.277164e+00 5.227832e+00 4.925159e+00 5.439223e+00 3.169361e+00 2.540299e+00 2.831763e+00
<GCONST> 1.100653e+02
<STATE> 3
<MEAN> 25
 9.585957e+00 -3.351895e+00 -3.360792e+00 2.403100e-01 -2.319767e+00 -6.400967e+00 -2.815814e+00 -6.538325e+00 -1.270199e+00 2.504531e+00 2.232938e-01 -4.344274e-01 1.131210e+00 -3.423369e-01 -7.329333e-01 1.391390e-01 -6.122165e-01 -2.263435e-01 1.282764e-01 -7.259971e-01 -6.143528e-01 5.566781e-01 4.377200e-01 -7.089071e-02 9.703799e-01
<VARIANCE> 25
 1.423872e+01 3.556584e+01 2.855177e+01 4.080027e+01 2.984468e+01 3.115421e+01 3.321417e+01 3.809265e+01 5.749616e+01 3.838598e+01 2.826207e+01 2.054980e+01 1.958796e+00 3.645369e+00 2.725147e+00 2.705296e+00 2.829441e+00 4.470613e+00 3.705629e+00 4.978239e+00 4.098611e+00 3.061692e+00 2.364616e+00 2.010072e+00 1.522740e+00
<GCONST> 1.012014e+02
<STATE> 4
<MEAN> 25
 9.248237e+00 -3.912214e+00 -4.000441e+00 -1.191308e+00 -1.874537e+00 -3.829684e+00 -2.776971e+00 -6.985770e+00 -4.329699e-01 5.815265e+00 2.214045e+00 1.696230e-01 -1.050458e-01 5.266178e-01 1.401447e-02 -3.346794e-02 3.364905e-01 6.374040e-01 2.325603e-01 2.003976e-01 -3.893182e-01 -4.161485e-01 2.513736e-01 3.271440e-01 -3.712293e-01
<VARIANCE> 25
 1.325663e+01 3.566399e+01 3.850506e+01 2.977828e+01 5.177988e+01 3.454023e+01 5.292523e+01 4.296754e+01 5.157127e+01 4.772044e+01 3.045872e+01 2.289974e+01 1.204454e+00 1.694682e+00 1.959448e+00 2.265016e+00 2.535070e+00 2.486203e+00 2.801936e+00 2.607277e+00 3.375412e+00 2.501769e+00 2.176066e+00 1.607269e+00 1.219318e+00
<GCONST> 9.834163e+01
<TRANSP> 5
 0.000000e+00 1.000000e+00 0.000000e+00 0.000000e+00 0.000000e+00
 0.000000e+00 3.802390e-01 6.197610e-01 0.000000e+00 0.000000e+00
 0.000000e+00 0.000000e+00 3.220161e-01 6.779839e-01 0.000000e+00
 0.000000e+00 0.000000e+00 0.000000e+00 7.442673e-01 2.557327e-01
 0.000000e+00 0.000000e+00 0.000000e+00 0.000000e+00 0.000000e+00
<ENDHMM>
~h "EN"
<BEGINHMM>
<NUMSTATES> 5
<STATE> 2
<MEAN> 25
 4.658980e-08 2.254011e-09 -3.388772e-08 -2.344999e-08 1.757715e-08 -3.508193e-08 4.828548e-08 -5.175438e-08 4.547313e-08 -5.686726e-09 6.731016e-09 3.337591e-08 -5.632778e-05 7.898463e-03 2.425834e-03 3.135264e-03 6.230384e-04 5.361010e-03 1.481052e-03 3.023365e-03 -1.362992e-04 -2.310141e-03 -8.174087e-04 2.144668e-03 -9.013023e-03
<VARIANCE> 25
 7.958858e+01 6.425626e+01 6.059949e+01 5.530048e+01 5.800623e+01 6.818124e+01 5.787675e+01 6.044356e+01 5.161190e+01 3.488001e+01 3.120132e+01 2.801407e+01 2.511101e+00 3.145050e+00 2.522243e+00 2.623779e+00 2.932647e+00 3.648039e+00 2.942767e+00 2.875804e+00 2.816977e+00 2.180851e+00 2.154130e+00 1.786767e+00 1.760435e+00
<GCONST> 1.055061e+02
<STATE> 3
<MEAN> 25
 4.658980e-08 2.254011e-09 -3.388772e-08 -2.344999e-08 1.757715e-08 -3.508193e-08 4.828548e-08 -5.175438e-08 4.547313e-08 -5.686726e-09 6.731016e-09 3.337591e-08 -5.632778e-05 7.898463e-03 2.425834e-03 3.135264e-03 6.230384e-04 5.361010e-03 1.481052e-03 3.023365e-03 -1.362992e-04 -2.310141e-03 -8.174087e-04 2.144668e-03 -9.013023e-03
<VARIANCE> 25
 7.958858e+01 6.425626e+01 6.059949e+01 5.530048e+01 5.800623e+01 6.818124e+01 5.787675e+01 6.044356e+01 5.161190e+01 3.488001e+01 3.120132e+01 2.801407e+01 2.511101e+00 3.145050e+00 2.522243e+00 2.623779e+00 2.932647e+00 3.648039e+00 2.942767e+00 2.875804e+00 2.816977e+00 2.180851e+00 2.154130e+00 1.786767e+00 1.760435e+00
<GCONST> 1.055061e+02
<STATE> 4
<MEAN> 25
 4.658980e-08 2.254011e-09 -3.388772e-08 -2.344999e-08 1.757715e-08 -3.508193e-08 4.828548e-08 -5.175438e-08 4.547313e-08 -5.686726e-09 6.731016e-09 3.337591e-08 -5.632778e-05 7.898463e-03 2.425834e-03 3.135264e-03 6.230384e-04 5.361010e-03 1.481052e-03 3.023365e-03 -1.362992e-04 -2.310141e-03 -8.174087e-04 2.144668e-03 -9.013023e-03
<VARIANCE> 25
 7.958858e+01 6.425626e+01 6.059949e+01 5.530048e+01 5.800623e+01 6.818124e+01 5.787675e+01 6.044356e+01 5.161190e+01 3.488001e+01 3.120132e+01 2.801407e+01 2.511101e+00 3.145050e+00 2.522243e+00 2.623779e+00 2.932647e+00 3.648039e+00 2.942767e+00 2.875804e+00 2.816977e+00 2.180851e+00 2.154130e+00 1.786767e+00 1.760435e+00
<GCONST> 1.055061e+02
<TRANSP> 5
 0.000000e+00 1.000000e+00 0.000000e+00 0.000000e+00 0.000000e+00
 0.000000e+00 6.000000e-01 4.000000e-01 0.000000e+00 0.000000e+00
 0.000000e+00 0.000000e+00 6.000000e-01 4.000000e-01 0.000000e+00
 0.000000e+00 0.000000e+00 0.000000e+00 7.000000e-01 3.000000e-01
 0.000000e+00 0.000000e+00 0.000000e+00 0.000000e+00 0.000000e+00
<ENDHMM>
~h "ER"
<BEGINHMM>
<NUMSTATES> 5
<STATE> 2
<MEAN> 25
 9.077492e+00 3.812462e-01 -4.145457e+00 -1.033800e+00 2.787318e+00 -1.659101e+00 -3.454659e+00 -7.282657e+00 -7.464483e+00 -1.313072e+00 2.284882e+00 1.459419e-01 1.859562e+00 1.198368e+00 -1.410397e+00 -9.547436e-01 1.927813e-01 1.116706e-02 1.231168e-01 -1.436624e+00 -2.372222e+00 2.841149e-01 1.089611e+00 1.387837e-01 7.611154e-01
<VARIANCE> 25
 1.994952e+01 4.904985e+01 3.613553e+01 5.519008e+01 3.398101e+01 5.682505e+01 5.249324e+01 5.789505e+01 4.894969e+01 4.239536e+01 4.061550e+01 2.596212e+01 2.477813e+00 6.171961e+00 3.648600e+00 3.976175e+00 4.029665e+00 6.274366e+00 3.349931e+00 4.303885e+00 4.425776e+00 4.907929e+00 2.707931e+00 3.004183e+00 2.404200e+00
<GCONST> 1.079671e+02
<STATE> 3
<MEAN> 25
 1.129187e+01 1.282030e+00 -7.042017e+00 -1.099231e+00 2.134236e+00 -2.429550e+00 -1.824030e+00 -1.133999e+01 -1.206711e+01 2.088522e+00 6.517978e+00 7.058516e-02 -9.240761e-02 4.149191e-01 -7.300349e-02 -3.323671e-01 8.971692e-02 3.962551e-01 3.853033e-01 -1.038367e-01 -4.413556e-01 -1.758058e-01 2.579433e-01 2.053170e-01 -3.040414e-01
<VARIANCE> 25
 6.466783e+00 4.673048e+01 2.169529e+01 4.804407e+01 2.687330e+01 5.711248e+01 4.582445e+01 3.655334e+01 3.614280e+01 4.372311e+01 2.819985e+01 2.944335e+01 2.950002e-01 1.091040e+00 1.010509e+00 1.410428e+00 1.241884e+00 1.341761e+00 1.654666e+00 1.387636e+00 1.777429e+00 1.440200e+00 1.440036e+00 1.311130e+00 4.065157e-01
<GCONST> 8.869199e+01
<STATE> 4
<MEAN> 25
 7.511395e+00 5.332022e+00 -5.377440e+00 -3.092533e+00 4.079364e+00 4.287142e+00 -8.201631e-01 -5.108320e+00 -9.601705e+00 -2.840943e+00 4.461258e+00 2.719924e+00 -6.838822e-01 -1.799532e-01 3.297276e-01 6.185812e-01 1.273920e-01 8.166866e-02 -1.604173e-01 4.060105e-01 9.643407e-01 1.082922e-01 -4.743287e-01 -1.778104e-01 -5.352888e-01
<VARIANCE> 25
 2.621502e+01 2.074453e+01 1.541403e+01 5.426947e+01 3.995303e+01 3.546945e+01 4.807003e+01 4.847305e+01 5.897079e+01 4.599840e+01 4.067434e+01 2.676192e+01 8.953426e-01 1.290739e+00 1.228360e+00 1.641987e+00 1.832884e+00 2.144260e+00 2.179747e+00 2.604467e+00 2.551499e+00 1.944199e+00 1.694296e+00 1.550094e+00 6.146693e-01
<GCONST> 9.491486e+01
<TRANSP> 5
 0.000000e+00 1.000000e+00 0.000000e+00 0.000000e+00 0.000000e+00
 0.000000e+00 6.137780e-01 3.862220e-01 0.000000e+00 0.000000e+00
 0.000000e+00 0.000000e+00 7.910970e-01 2.089030e-01 0.000000e+00
 0.000000e+00 0.000000e+00 0.000000e+00 8.560771e-01 1.439229e-01
 0.000000e+00 0.000000e+00 0.000000e+00 0.000000e+00 0.000000e+00
<ENDHMM>
~h "EY"
<BEGINHMM>
<NUMSTATES> 5
<STATE> 2
<MEAN> 25
 6.985673e+00 -6.545173e+00 2.348363e+00 1.154688e+01 3.666004e+00 -1.471839e+01 -9.530981e+00 -4.992679e+00 -2.705997e+00 3.026629e+00 -1.614287e+00 -6.279270e+00 -2.077178e-01 -2.605650e-01 5.858749e-01 8.718461e-01 2.005769e-01 -8.039690e-01 -3.749881e-01 5.116802e-01 3.960493e-01 -7.581258e-02 -7.507203e-01 -5.645553e-01 8.712777e-02
<VARIANCE> 25
 1.053941e+01 2.350185e+01 4.264146e+01 3.499921e+01 4.565107e+01 5.527352e+01 6.692961e+01 5.825186e+01 4.297520e+01 2.561024e+01 4.711325e+01 2.775781e+01 4.899143e-01 1.430040e+00 1.672320e+00 1.996994e+00 1.331884e+00 2.425184e+00 1.687609e+00 2.641176e+00 1.769734e+00 1.976250e+00 1.342123e+00 1.374725e+00 8.716871e-01
<GCONST> 9.429298e+01
<STATE> 3
<MEAN> 25
 6.476157e+00 -3.329987e+00 1.306366e+00 1.114258e+01 6.165918e+00 -1.029173e+01 -1.187466e+01 -6.477351e+00 -1.740114e+00 2.806311e+00 -2.464913e+00 -6.679104e+00 1.053018e-01 9.586367e-01 -6.357162e-01 -4.911570e-01 3.023444e-01 1.421262e+00 4.144089e-01 -6.328748e-01 -2.764634e-01 -5.002488e-03 3.582476e-01 3.503701e-01 -6.242122e-01
<VARIANCE> 25
 1.689740e+01 2.173857e+01 3.442235e+01 1.862849e+01 2.243446e+01 3.637447e+01 3.825827e+01 4.686372e+01 4.130668e+01 2.497227e+01 3.898690e+01 2.375853e+01 7.453936e-01 1.385711e+00 1.807755e+00 1.874971e+00 1.367742e+00 2.771735e+00 2.241519e+00 1.699380e+00 2.050584e+00 1.426467e+00 2.501493e+00 2.088469e+00 1.342039e+00
<GCONST> 9.322653e+01
<STATE> 4
<MEAN> 25
 4.588722e+00 1.412462e+00 -1.531831e+00 7.303818e+00 6.088704e+00 -1.870507e+00 -5.641227e+00 -4.280575e+00 -2.009428e+00 -3.832988e-03 -1.731932e+00 -2.776256e+00 -1.055958e+00 8.580304e-01 -4.118832e-02 -1.480102e+00 -2.657115e-01 1.832365e+00 1.622530e+00 1.182085e+00 4.046596e-01 -6.240044e-01 1.032825e-02 9.236716e-01 -1.216251e+00
<VARIANCE> 25
 2.707492e+01 1.715217e+01 2.617392e+01 2.665638e+01 1.599914e+01 3.503749e+01 3.493332e+01 5.410404e+01 5.018949e+01 1.786404e+01 1.996569e+01 1.552421e+01 1.194407e+00 1.774045e+00 1.509654e+00 1.849099e+00 1.381310e+00 2.387736e+00 1.562635e+00 2.253029e+00 2.306865e+00 1.854247e+00 2.947537e+00 2.090186e+00 8.516163e-01
<GCONST> 9.238426e+01
<TRANSP> 5
 0.000000e+00 1.000000e+00 0.000000e+00 0.000000e+00 0.000000e+00
 0.000000e+00 8.259087e-01 1.740913e-01 0.000000e+00 0.000000e+00
 0.000000e+00 0.000000e+00 7.123591e-01 2.876410e-01 0.000000e+00
 0.000000e+00 0.000000e+00 0.000000e+00 6.880048e-01 3.119952e-01
 0.000000e+00 0.000000e+00 0.000000e+00 0.000000e+00 0.000000e+00
<ENDHMM>
~h "HH"
<BEGINHMM>
<NUMSTATES> 5
<STATE> 2
<MEAN> 25
 -2.811717e+00 -4.385543e+00 -1.968261e+00 -6.957068e-01 -2.037722e-01 -2.834797e-01 5.833926e-01 4.034498e+00 2.731260e+00 -5.931194e-01 -7.575269e-02 2.853085e-01 1.716786e-01 -1.137804e+00 -5.248213e-01 1.244638e-01 -4.507795e-01 -2.536135e-01 2.760322e-01 5.859273e-01 3.765880e-01 -1.569042e-01 2.320816e-01 -4.941471e-02 3.377674e-01
<VARIANCE> 25
 3.963939e+01 4.405353e+01 3.170801e+01 4.074175e+01 3.801556e+01 5.067138e+01 4.366722e+01 3.882500e+01 4.942603e+01 3.311175e+01 2.791326e+01 2.270051e+01 2.304870e+00 3.339893e+00 5.192403e+00 3.410676e+00 3.195761e+00 5.444465e+00 3.587903e+00 3.931534e+00 2.601748e+00 2.501664e+00 2.660676e+00 2.457304e+00 1.104772e+00
<GCONST> 1.036954e+02
<STATE> 3
<MEAN> 25
 -1.638350e+00 -3.537412e+00 -5.694283e+00 -3.796560e-01 -2.156078e+00 1.104655e+00 2.883425e-01 2.688119e+00 3.499264e+00 6.761830e-02 1.046275e-01 1.663901e+00 1.880677e-01 -2.620901e-01 -4.521342e-01 -5.568786e-02 -8.302869e-03 -1.641493e-01 -2.507203e-02 9.092863e-02 4.073672e-01 3.030114e-01 2.905346e-01 2.673159e-01 1.260732e-01
<VARIANCE> 25
 1.283302e+01 3.790496e+01 1.160251e+01 2.076244e+01 3.712982e+01 2.821797e+01 2.610967e+01 2.186755e+01 2.501736e+01 2.143334e+01 2.283945e+01 1.606821e+01 3.981846e-01 1.115631e+00 1.153417e+00 1.280182e+00 1.703555e+00 1.489957e+00 1.313748e+00 1.540632e+00 1.546005e+00 1.631183e+00 2.003870e+00 1.315076e+00 3.076323e-01
<GCONST> 8.503990e+01
<STATE> 4
<MEAN> 25
 8.982327e-01 -1.175828e+01 -8.374852e+00 1.527416e+00 -3.265785e+00 -3.843122e+00 7.168623e-01 4.283507e+00 6.594894e+00 3.801164e+00 2.983780e+00 -6.527163e-01 8.819742e-01 8.890526e-02 -1.708512e-01 6.232152e-02 -1.055721e-01 -1.959085e-02 -8.738267e-02 -7.656582e-01 -2.573076e-01 3.137225e-01 -1.060022e-01 -5.568193e-01 5.011647e-01
<VARIANCE> 25
 1.350093e+01 5.366777e+01 2.333699e+01 5.522028e+01 3.912206e+01 5.730905e+01 4.255297e+01 4.290771e+01 5.315984e+01 5.063700e+01 3.360971e+01 2.751139e+01 1.050934e+00 4.190560e+00 1.946369e+00 1.883663e+00 2.019539e+00 2.326305e+00 1.636786e+00 3.199436e+00 2.387220e+00 2.780114e+00 2.230155e+00 1.114203e+00 6.023662e-01
<GCONST> 9.792670e+01
<TRANSP> 5
 0.000000e+00 1.000000e+00 0.000000e+00 0.000000e+00 0.000000e+00
 0.000000e+00 6.848409e-01 3.151591e-01 0.000000e+00 0.000000e+00
 0.000000e+00 0.000000e+00 7.489842e-01 2.510158e-01 0.000000e+00
 0.000000e+00 0.000000e+00 0.000000e+00 6.815243e-01 3.184757e-01
 0.000000e+00 0.000000e+00 0.000000e+00 0.000000e+00 0.000000e+00
<ENDHMM>
~h "IH"
<BEGINHMM>
<NUMSTATES> 5
<STATE> 2
<MEAN> 25
 3.263481e+00 -7.892461e-01 1.607799e-01 3.528148e+00 1.687679e+00 -2.932325e+00 -4.309120e+00 -4.073452e+00 -2.431505e+00 -1.457524e+00 -4.689618e-01 -4.624280e-01 1.444861e+00 -6.053383e-01 1.447333e-01 1.458120e+00 4.334297e-01 -1.664358e+00 -1.562429e+00 -1.504954e+00 -1.023458e+00 3.410093e-01 8.409509e-02 -4.223407e-01 1.280069e+00
<VARIANCE> 25
 4.869637e+01 4.385559e+01 4.952519e+01 4.451810e+01 4.117229e+01 6.795273e+01 5.189710e+01 6.376651e+01 4.720760e+01 3.360664e+01 2.780546e+01 2.627615e+01 4.309419e+00 6.456200e+00 3.984744e+00 4.361427e+00 4.262327e+00 8.793518e+00 5.413148e+00 5.898382e+00 6.080954e+00 4.054158e+00 3.967762e+00 2.944729e+00 3.555889e+00
<GCONST> 1.115162e+02
<STATE> 3
<MEAN> 25
 7.453759e+00 -3.845421e+00 3.473955e-01 8.156492e+00 2.444400e+00 -8.593619e+00 -7.137915e+00 -9.117528e+00 -5.349483e+00 1.408211e+00 -8.086155e-01 -3.264961e+00 3.837998e-01 -2.182868e-01 2.308977e-01 3.734185e-01 4.825517e-01 -2.965167e-01 -2.511508e-01 -5.296264e-01 -3.336761e-01 3.953542e-01 3.764407e-02 -1.923531e-01 6.216009e-01
<VARIANCE> 25
 1.592757e+01 4.976867e+01 3.022141e+01 4.425716e+01 3.154626e+01 4.813799e+01 4.251992e+01 4.425702e+01 3.878421e+01 4.759314e+01 2.672951e+01 3.117202e+01 2.008227e+00 3.561077e+00 2.697276e+00 3.609159e+00 2.536434e+00 3.918087e+00 3.097806e+00 3.087487e+00 3.391502e+00 3.123996e+00 2.432093e+00 1.666669e+00 2.211901e+00
<GCONST> 1.022837e+02
<STATE> 4
<MEAN> 25
 6.701243e+00 -9.295815e-01 2.212318e+00 5.498518e+00 4.857907e+00 -5.620933e+00 -7.124248e+00 -8.244508e+00 -4.771036e+00 1.134144e+00 -6.119104e-01 -1.775617e+00 -6.442103e-01 6.128106e-01 3.917196e-01 -5.964575e-01 1.640114e-01 1.107584e+00 6.592792e-01 5.975038e-01 2.778307e-01 -4.326611e-01 -7.261972e-02 3.794987e-01 -6.676962e-01
<VARIANCE> 25
 1.921888e+01 4.051003e+01 4.310795e+01 3.615476e+01 3.985098e+01 5.175708e+01 5.294624e+01 4.999270e+01 4.399099e+01 4.530584e+01 3.966222e+01 2.973446e+01 2.264464e+00 3.071809e+00 3.070394e+00 3.374390e+00 2.919641e+00 3.866584e+00 3.263994e+00 3.036972e+00 3.357641e+00 3.012430e+00 2.909795e+00 1.784038e+00 1.844984e+00
<GCONST> 1.037076e+02
<TRANSP> 5
 0.000000e+00 1.000000e+00 0.000000e+00 0.000000e+00 0.000000e+00
 0.000000e+00 4.623896e-01 5.376104e-01 0.000000e+00 0.000000e+00
 0.000000e+00 0.000000e+00 4.921775e-01 5.078225e-01 0.000000e+00
 0.000000e+00 0.000000e+00 0.000000e+00 6.711642e-01 3.288358e-01
 0.000000e+00 0.000000e+00 0.000000e+00 0.000000e+00 0.000000e+00
<ENDHMM>
~h "IY"
<BEGINHMM>
<NUMSTATES> 5
<STATE> 2
<MEAN> 25
 3.493222e+00 -2.316288e+00 4.067536e+00 8.573585e+00 6.000185e+00 -7.732894e+00 -7.128438e+00 -6.362347e+00 -3.167661e+00 4.437114e-01 -6.576341e-01 -4.985698e+00 8.823794e-01 -4.379664e-02 1.182060e+00 2.455346e+00 9.612989e-01 -2.194526e+00 -2.227346e+00 -1.250871e-01 3.579487e-01 6.363642e-01 -1.095277e+00 -1.888350e+00 8.672587e-01
<VARIANCE> 25
 2.928398e+01 3.386729e+01 4.774296e+01 4.399067e+01 4.627339e+01 6.194829e+01 4.228896e+01 4.692558e+01 4.785189e+01 3.567640e+01 3.520491e+01 3.988704e+01 3.809747e+00 7.087090e+00 2.306153e+00 3.470704e+00 4.263227e+00 5.919652e+00 4.533248e+00 4.796268e+00 4.571702e+00 4.487352e+00 3.594665e+00 2.733270e+00 1.896847e+00
<GCONST> 1.083697e+02
<STATE> 3
<MEAN> 25
 5.820299e+00 -2.043520e+00 6.031829e+00 1.441236e+01 6.629894e+00 -1.384299e+01 -1.078919e+01 -4.470543e+00 -3.465303e+00 1.371700e+00 -3.646301e+00 -8.953342e+00 -1.308357e-01 -1.348007e-01 2.825089e-01 2.570623e-01 -2.361065e-01 -3.250602e-01 -2.843023e-01 3.500658e-01 4.359111e-01 -1.845333e-02 -3.250222e-01 -1.208741e-01 -3.215686e-02
<VARIANCE> 25
 1.050841e+01 1.655954e+01 4.078112e+01 2.569355e+01 5.524235e+01 5.800757e+01 3.137225e+01 4.772197e+01 3.717621e+01 2.389430e+01 2.943148e+01 2.669291e+01 2.517000e-01 6.304883e-01 1.200134e+00 1.429454e+00 1.066462e+00 1.821432e+00 1.314937e+00 1.761387e+00 1.393137e+00 1.181318e+00 1.263789e+00 1.202044e+00 2.208412e-01
<GCONST> 8.650874e+01
<STATE> 4
<MEAN> 25
 3.542995e+00 -1.426271e+00 5.663674e+00 1.121733e+01 6.339886e+00 -7.791923e+00 -1.080811e+01 -3.881217e+00 1.100267e+00 2.609943e+00 -3.584851e+00 -7.324625e+00 -2.919165e-01 4.532782e-01 -7.384849e-01 -1.023046e+00 -1.870435e-01 1.647809e+00 1.024188e+00 5.969545e-02 -7.174716e-03 -1.996536e-01 5.013247e-01 9.797559e-01 -7.211992e-01
<VARIANCE> 25
 1.331948e+01 3.383497e+01 3.950585e+01 2.949851e+01 4.237140e+01 9.140569e+01 4.715368e+01 4.023047e+01 3.962307e+01 3.064525e+01 2.497222e+01 4.371873e+01 6.135134e-01 1.737875e+00 1.955776e+00 2.164623e+00 2.198026e+00 3.614402e+00 3.517646e+00 2.826521e+00 2.557565e+00 2.259708e+00 1.899565e+00 2.262487e+00 1.029520e+00
<GCONST> 9.814363e+01
<TRANSP> 5
 0.000000e+00 1.000000e+00 0.000000e+00 0.000000e+00 0.000000e+00
 0.000000e+00 6.711843e-01 3.288156e-01 0.000000e+00 0.000000e+00
 0.000000e+00 0.000000e+00 8.097364e-01 1.902635e-01 0.000000e+00
 0.000000e+00 0.000000e+00 0.000000e+00 8.162169e-01 1.837831e-01
 0.000000e+00 0.000000e+00 0.000000e+00 0.000000e+00 0.000000e+00
<ENDHMM>
~h "JH"
<BEGINHMM>
<NUMSTATES> 5
<STATE> 2
<MEAN> 25
 2.846719e+00 1.490311e+00 -5.804684e-01 8.435744e+00 5.764334e+00 -5.015872e-01 -3.736781e+00 2.290524e+00 3.998191e+00 -2.292405e+00 -4.128387e+00 1.451612e+00 -1.871887e+00 -3.827780e+00 1.225812e+00 9.010063e-01 -6.520965e-01 6.832290e-02 -6.129321e-01 1.347993e+00 2.280238e+00 -3.226769e-01 -2.813784e-01 6.832886e-01 5.686703e-01
<VARIANCE> 25
 1.967729e+01 5.882804e+01 2.572328e+01 3.112232e+01 2.039971e+01 2.675235e+01 2.953163e+01 3.634015e+01 2.361654e+01 1.721238e+01 1.988301e+01 1.949623e+01 2.476474e+00 9.368803e+00 4.396235e+00 4.640506e+00 2.863472e+00 3.603397e+00 3.594015e+00 3.692059e+00 2.979152e+00 3.475673e+00 1.622934e+00 1.753592e+00 2.496531e+00
<GCONST> 1.003119e+02
<STATE> 3
<MEAN> 25
 -5.928699e+00 -1.513514e+01 6.876078e+00 6.204222e+00 -6.325036e-01 -2.165294e+00 -5.366270e+00 5.775964e+00 8.338245e+00 -4.080296e+00 -1.641390e+00 3.757088e+00 -2.017746e+00 -4.293126e+00 2.694264e+00 -1.290502e-01 -7.325701e-01 -7.226522e-01 -1.100763e+00 -4.530833e-01 7.751191e-01 -1.698519e-01 4.820560e-01 -6.631486e-03 2.922152e+00
<VARIANCE> 25
 2.425504e+01 5.056726e+01 5.427012e+01 6.580713e+01 4.638182e+01 3.128936e+01 4.396951e+01 5.866600e+01 3.791091e+01 3.100543e+01 2.676771e+01 1.521599e+01 2.980816e+00 4.504439e+00 4.581163e+00 2.693542e+00 4.617938e+00 3.347034e+00 2.768477e+00 1.999580e+00 1.899599e+00 1.993064e+00 1.517724e+00 1.890556e+00 4.259271e+00
<GCONST> 1.028479e+02
<STATE> 4
<MEAN> 25
 -6.958861e+00 -1.740412e+01 6.659485e+00 7.487362e+00 3.799328e+00 -1.991348e+00 -6.811852e+00 3.749568e+00 8.748971e+00 -2.428255e+00 -1.893257e+00 2.014802e+00 1.338400e+00 1.720770e+00 -1.008007e+00 -1.227330e-01 3.967977e-01 2.587512e-01 -2.596365e-01 -1.104654e+00 -1.139049e+00 7.430021e-02 2.785437e-02 -1.343287e-02 -6.823416e-01
<VARIANCE> 25
 3.805604e+01 5.399756e+01 7.707166e+01 2.924614e+01 2.376660e+01 3.258680e+01 3.056727e+01 6.996755e+01 3.108847e+01 2.149705e+01 1.836911e+01 2.150434e+01 2.773683e+00 4.765127e+00 2.781882e+00 2.486867e+00 2.880919e+00 2.479919e+00 2.678341e+00 2.830950e+00 3.327297e+00 1.724312e+00 1.609902e+00 1.376879e+00 1.693059e+00
<GCONST> 9.967654e+01
<TRANSP> 5
 0.000000e+00 1.000000e+00 0.000000e+00 0.000000e+00 0.000000e+00
 0.000000e+00 6.626182e-01 3.373818e-01 0.000000e+00 0.000000e+00
 0.000000e+00 0.000000e+00 5.928777e-01 4.071223e-01 0.000000e+00
 0.000000e+00 0.000000e+00 0.000000e+00 7.891780e-01 2.108220e-01
 0.000000e+00 0.000000e+00 0.000000e+00 0.000000e+00 0.000000e+00
<ENDHMM>
~h "NG"
<BEGINHMM>
<NUMSTATES> 5
<STATE> 2
<MEAN> 25
 7.302020e+00 -1.702337e-01 5.151176e-01 5.947237e+00 5.681438e+00 -7.486078e+00 -7.400144e+00 -1.685806e+00 -2.212323e+00 2.104333e+00 9.004790e-01 -8.727494e+00 -1.002284e-01 1.538603e+00 2.192479e-01 -5.348647e-01 1.503168e-01 1.521605e+00 3.735837e-01 -3.393957e-02 3.802131e-01 -5.267135e-02 -6.824930e-01 -1.850010e-02 -1.026475e+00
<VARIANCE> 25
 7.029930e+00 2.993719e+01 2.284772e+01 2.194798e+01 4.241862e+01 3.940509e+01 3.795945e+01 7.008179e+01 3.611630e+01 2.110013e+01 3.831787e+01 3.000015e+01 7.551806e-01 1.447479e+00 8.913895e-01 2.107724e+00 1.879807e+00 3.528059e+00 2.405030e+00 4.669103e+00 1.954388e+00 1.210479e+00 1.239141e+00 2.951951e+00 3.418097e-01
<GCONST> 9.261913e+01
<STATE> 3
<MEAN> 25
 6.678771e+00 6.924044e+00 2.471341e-01 2.867657e+00 5.329463e+00 1.930174e+00 -6.302019e+00 -6.101260e+00 4.005916e-01 1.884526e+00 -2.525237e+00 -4.861411e+00 -3.350120e-01 4.651944e-01 2.422806e-01 -2.272585e-01 -3.364119e-02 7.612973e-01 4.354857e-01 1.906782e-01 3.942432e-01 -1.608717e-01 -1.987099e-01 5.076922e-01 -4.602450e-01
<VARIANCE> 25
 1.142902e+01 9.872967e+00 6.359537e+00 1.176594e+01 1.870299e+01 1.845589e+01 3.134047e+01 2.511201e+01 3.859271e+01 2.610254e+01 1.486426e+01 1.241728e+01 4.167096e-01 7.501111e-01 5.561601e-01 7.004405e-01 1.091850e+00 1.339807e+00 2.040695e+00 2.468050e+00 1.724110e+00 1.458542e+00 1.229170e+00 1.075863e+00 2.012087e-01
<GCONST> 7.912316e+01
<STATE> 4
<MEAN> 25
 1.351176e+00 4.988358e+00 -1.419700e+00 2.479407e+00 3.922446e+00 5.287744e+00 -8.290944e-02 -2.600305e-01 1.715544e+00 -3.440692e-01 -1.594272e+00 -1.322388e+00 -5.080397e-01 -2.700832e-01 -4.053322e-01 -1.493135e-02 -2.160096e-01 1.904526e-01 2.996196e-01 2.709612e-01 -1.985290e-01 -2.481822e-02 2.451655e-01 3.233126e-01 -4.935382e-01
<VARIANCE> 25
 2.620922e+01 1.966155e+01 2.585540e+01 1.153265e+01 2.324420e+01 2.359929e+01 4.190823e+01 4.714999e+01 2.777703e+01 2.092661e+01 1.918139e+01 2.632731e+01 8.965477e-01 1.535811e+00 9.843023e-01 9.205424e-01 2.378114e+00 2.351151e+00 3.967434e+00 3.635670e+00 2.959273e+00 1.603488e+00 2.884515e+00 1.469639e+00 1.041863e+00
<GCONST> 9.202914e+01
<TRANSP> 5
 0.000000e+00 1.000000e+00 0.000000e+00 0.000000e+00 0.000000e+00
 0.000000e+00 7.910561e-01 2.089439e-01 0.000000e+00 0.000000e+00
 0.000000e+00 0.000000e+00 7.505643e-01 2.494356e-01 0.000000e+00
 0.000000e+00 0.000000e+00 0.000000e+00 8.047192e-01 1.952809e-01
 0.000000e+00 0.000000e+00 0.000000e+00 0.000000e+00 0.000000e+00
<ENDHMM>
~h "OW"
<BEGINHMM>
<NUMSTATES> 5
<STATE> 2
<MEAN> 25
 3.432436e+00 2.632686e+00 4.948991e-01 -6.440006e+00 4.871396e-01 -5.782238e+00 2.154510e+00 8.003256e-01 -2.183504e+00 -4.229453e+00 3.360088e-01 -2.360654e+00 2.137215e+00 8.156961e-01 8.032173e-01 -5.310478e-01 -1.654466e+00 -2.674970e+00 -1.826997e+00 2.293306e-01 -2.814665e-01 1.092193e-02 -9.155825e-01 -4.027766e-01 1.374580e+00
<VARIANCE> 25
 4.985966e+01 3.341465e+01 5.295987e+01 7.635676e+01 1.028064e+02 8.880000e+01 9.892349e+01 5.134120e+01 4.941804e+01 3.774266e+01 6.424287e+01 2.781914e+01 5.794429e+00 5.086407e+00 3.847642e+00 8.643087e+00 1.054484e+01 8.241340e+00 9.509836e+00 5.754919e+00 4.752712e+00 4.891446e+00 8.475592e+00 5.005259e+00 2.821716e+00
<GCONST> 1.176278e+02
<STATE> 3
<MEAN> 25
 1.043117e+01 4.546103e+00 2.409020e+00 -3.547915e+00 -7.161465e+00 -9.270298e+00 -3.573894e+00 1.307567e+00 5.787706e-01 -7.535503e-01 -5.552152e+00 -2.848798e+00 1.202357e+00 1.150523e-01 3.194265e-01 7.160761e-01 -1.706492e+00 -1.249407e+00 -1.336409e+00 9.908213e-02 9.246327e-01 3.531176e-01 -9.097995e-01 -1.495065e-01 4.543494e-01
<VARIANCE> 25
 9.631754e+00 3.569868e+01 3.145193e+01 3.049185e+01 8.973494e+01 6.647848e+01 6.226921e+01 6.613426e+01 6.014344e+01 2.045470e+01 3.224897e+01 2.683117e+01 1.894527e+00 2.018784e+00 2.501636e+00 3.248194e+00 6.443670e+00 4.964678e+00 2.883593e+00 3.618585e+00 2.762065e+00 2.012563e+00 2.593830e+00 1.500763e+00 9.839889e-01
<GCONST> 1.018533e+02
<STATE> 4
<MEAN> 25
 1.094795e+01 6.257395e+00 3.383915e+00 1.396265e+00 -6.603202e+00 -8.072395e+00 -5.930253e+00 2.816292e+00 1.776625e+00 -2.675138e+00 -4.869595e+00 -2.727881e+00 -2.461485e-01 1.670755e-01 -1.151385e-01 4.622354e-01 3.530820e-01 3.102182e-01 3.114489e-01 -2.384001e-02 -1.361462e-01 -3.709174e-02 2.571874e-01 2.002914e-02 -3.651873e-01
<VARIANCE> 25
 8.929745e+00 3.651058e+01 3.364660e+01 5.071397e+01 1.095867e+02 9.044415e+01 4.116259e+01 6.343870e+01 3.125842e+01 2.604479e+01 2.706188e+01 3.331192e+01 4.678387e-01 1.089931e+00 1.102783e+00 1.153188e+00 2.129817e+00 1.888189e+00 1.778942e+00 1.684904e+00 1.467868e+00 1.166677e+00 1.453422e+00 1.418527e+00 4.713256e-01
<GCONST> 9.231678e+01
<TRANSP> 5
 0.000000e+00 1.000000e+00 0.000000e+00 0.000000e+00 0.000000e+00
 0.000000e+00 5.351080e-01 4.648919e-01 0.000000e+00 0.000000e+00
 0.000000e+00 0.000000e+00 4.089151e-01 5.910850e-01 0.000000e+00
 0.000000e+00 0.000000e+00 0.000000e+00 8.696278e-01 1.303722e-01
 0.000000e+00 0.000000e+00 0.000000e+00 0.000000e+00 0.000000e+00
<ENDHMM>
~h "OY"
<BEGINHMM>
<NUMSTATES> 5
<STATE> 2
<MEAN> 25
 9.381734e+00 8.336013e+00 4.823445e-01 -6.824238e+00 -1.198932e+01 -9.051008e+00 -2.441476e+00 3.263107e+00 1.871064e+00 -2.655891e+00 -4.646947e+00 -5.406559e+00 -3.402347e-02 7.056154e-02 -7.324991e-02 2.078143e-01 1.141153e-02 -2.624137e-01 1.344911e-01 5.927908e-01 4.483481e-01 -2.301221e-01 -9.651725e-02 1.313579e-01 -1.757044e-02
<VARIANCE> 25
 9.467697e+00 2.262877e+01 1.470856e+01 3.680769e+01 4.903916e+01 3.273349e+01 5.031552e+01 2.396387e+01 1.803880e+01 1.423806e+01 1.027010e+01 1.147842e+01 3.127212e-01 7.973146e-01 1.456223e+00 9.353153e-01 2.468758e+00 1.539180e+00 2.572341e+00 1.805468e+00 1.842721e+00 7.987749e-01 1.016883e+00 1.098082e+00 2.437813e-01
<GCONST> 8.327821e+01
<STATE> 3
<MEAN> 25
 6.015808e+00 1.995612e+00 -4.127217e+00 -5.468943e+00 -5.247947e+00 -4.003544e+00 -2.476817e+00 5.242405e+00 2.831401e+00 -2.812195e+00 -1.816579e+00 -2.828327e+00 1.330793e-01 -7.828683e-01 -1.043894e+00 3.597272e-01 1.367460e+00 1.425717e+00 2.532702e-01 -1.064805e+00 -6.674649e-01 2.934237e-01 3.811597e-01 6.487211e-01 2.365086e-01
<VARIANCE> 25
 4.715245e+01 2.406461e+01 1.935745e+01 3.223227e+01 5.385108e+01 6.402459e+01 5.379990e+01 2.041589e+01 4.311513e+01 2.227957e+01 1.517783e+01 2.269723e+01 2.028713e+00 2.622682e+00 2.776038e+00 1.793482e+00 3.041085e+00 1.794503e+00 2.703954e+00 4.025169e+00 2.739545e+00 2.854288e+00 1.484685e+00 2.966252e+00 1.786288e+00
<GCONST> 9.875405e+01
<STATE> 4
<MEAN> 25
 -4.043064e+00 -5.715866e+00 7.034055e+00 -1.750401e+00 1.285594e+00 -8.134109e+00 9.492254e+00 -7.113672e+00 -5.812382e+00 4.386668e+00 3.025355e+00 -2.875450e+00 -2.856987e-01 -2.975203e-01 3.629746e-01 9.446171e-01 5.389355e-01 -6.712129e-02 -3.508152e-01 -4.893973e-01 4.376777e-02 5.491688e-01 2.408780e-01 -2.987974e-01 -7.285595e-02
<VARIANCE> 25
 1.839186e+02 2.465806e+01 1.499255e+02 5.538614e+01 2.933783e+01 2.646357e+01 3.428840e+02 5.564655e+01 2.122177e+01 2.242659e+01 2.173990e+01 1.703625e+01 1.980524e+00 6.631450e-01 3.843819e+00 3.269213e+00 2.442027e+00 4.037216e+00 6.355228e+00 5.673903e+00 2.187042e+00 2.824310e+00 1.682700e+00 1.156256e+00 9.390821e-01
<GCONST> 1.030825e+02
<TRANSP> 5
 0.000000e+00 1.000000e+00 0.000000e+00 0.000000e+00 0.000000e+00
 0.000000e+00 8.338668e-01 1.661332e-01 0.000000e+00 0.000000e+00
 0.000000e+00 0.000000e+00 8.002519e-01 1.997481e-01 0.000000e+00
 0.000000e+00 0.000000e+00 0.000000e+00 8.192339e-01 1.807661e-01
 0.000000e+00 0.000000e+00 0.000000e+00 0.000000e+00 0.000000e+00
<ENDHMM>
~h "SH"
<BEGINHMM>
<NUMSTATES> 5
<STATE> 2
<MEAN> 25
 9.846788e+00 8.557171e+00 -4.258889e+00 -8.109762e+00 -5.122527e+00 -3.377475e+00 1.692445e+00 -1.671405e+00 -5.864849e+00 -2.718496e+00 -3.572209e-01 -2.492146e+00 -2.621771e-01 -2.781269e-01 3.162282e-02 3.433555e-01 3.583078e-01 5.614775e-01 4.622146e-01 1.053851e-01 -3.534139e-01 -3.903181e-01 -4.284248e-01 -1.854419e-02 -2.079755e-01
<VARIANCE> 25
 1.370021e+01 2.087374e+01 1.729342e+01 4.311495e+01 1.281450e+01 2.976218e+01 3.627075e+01 1.188359e+01 4.937871e+01 2.586089e+01 1.449626e+01 1.279937e+01 4.089709e-01 7.178789e-01 1.708309e+00 2.071700e+00 8.528582e-01 1.671781e+00 2.165421e+00 6.824998e-01 3.429785e+00 1.720938e+00 8.819519e-01 1.436005e+00 3.176698e-01
<GCONST> 8.425107e+01
<STATE> 3
<MEAN> 25
 5.586258e+00 3.215042e+00 1.900873e+00 8.071199e-01 -5.284190e+00 -9.074010e-01 5.169557e+00 -8.124358e-01 -2.490881e+00 -2.053888e+00 -6.524632e+00 -5.146082e+00 3.586994e-01 3.364050e-01 3.810442e-01 2.436953e-01 -5.970407e-01 -1.083772e+00 -4.481333e-01 -8.609018e-02 -2.751982e-01 3.872758e-01 3.283514e-01 -1.961750e-01 5.811894e-02
<VARIANCE> 25
 2.323419e+01 8.778538e+00 1.683888e+01 8.353956e+00 4.878781e+01 6.941562e+01 1.358526e+01 2.544937e+01 2.699750e+01 6.898048e+00 1.240206e+01 1.304598e+01 1.250164e+00 7.546165e-01 1.652289e+00 5.477598e-01 5.193319e+00 5.604951e+00 1.334750e+00 2.238265e+00 2.282559e+00 7.754746e-01 8.215225e-01 1.249346e+00 8.066583e-01
<GCONST> 8.518750e+01
<STATE> 4
<MEAN> 25
 8.789592e+00 7.521949e+00 9.994040e-01 -3.670440e-01 -9.145718e+00 -1.408700e+01 -1.842247e+00 3.117360e+00 -6.699257e-01 -1.902032e-01 -2.535877e+00 -1.600683e+00 8.981594e-02 2.454767e-01 -2.229425e-01 -1.556048e-01 4.468561e-01 1.773581e-01 -3.055237e-02 2.158522e-01 -1.115480e-01 -4.818102e-01 2.438608e-01 7.205686e-01 -9.466890e-02
<VARIANCE> 25
 7.063281e+00 1.628235e+01 7.973978e+00 2.652830e+01 3.538003e+01 5.842593e+01 2.252031e+01 3.895985e+01 4.413023e+01 1.229709e+01 6.206235e+00 1.335617e+01 2.887849e-01 6.095378e-01 2.451546e-01 6.996694e-01 3.050940e+00 1.081256e+00 2.858007e+00 6.669203e-01 7.090321e-01 7.427914e-01 1.349857e+00 2.963743e+00 2.750147e-01
<GCONST> 7.896400e+01
<TRANSP> 5
 0.000000e+00 1.000000e+00 0.000000e+00 0.000000e+00 0.000000e+00
 0.000000e+00 8.088003e-01 1.911997e-01 0.000000e+00 0.000000e+00
 0.000000e+00 0.000000e+00 7.321454e-01 2.678547e-01 0.000000e+00
 0.000000e+00 0.000000e+00 0.000000e+00 5.978042e-01 4.021957e-01
