~o
<STREAMINFO> 1 25
<VECSIZE> 25<NULLD><MFCC_D_N_Z_0><DIAGC>
~s "silst"
<MEAN> 25
 -6.950790e+00 2.843499e+00 -3.132193e+00 4.892263e-01 7.686830e-01 5.591926e+00 1.104853e+00 5.535308e+00 3.144032e+00 1.833527e+00 6.359040e-01 2.167233e+00 -1.061243e-02 3.406785e-02 -2.473436e-02 2.856354e-03 -1.989993e-02 -2.555681e-03 -5.424879e-03 6.338279e-03 1.483964e-03 1.678838e-03 -2.022670e-02 4.493052e-03 -4.481963e-02
<VARIANCE> 25
 9.390829e+00 1.249196e+01 1.792379e+01 1.357646e+01 9.148525e+00 1.078001e+01 9.702586e+00 1.022234e+01 1.519811e+01 1.241365e+01 9.063173e+00 8.370433e+00 7.199746e-02 1.807709e-01 2.718982e-01 3.595283e-01 4.847890e-01 5.638098e-01 6.606371e-01 7.178406e-01 7.504034e-01 7.338257e-01 7.153363e-01 6.712077e-01 2.910756e-02
<GCONST> 6.138620e+01
~h "B"
<BEGINHMM>
<NUMSTATES> 5
<STATE> 2
<MEAN> 25
 -5.194127e+00 3.240536e+00 -1.680267e+00 6.322762e-01 1.643988e+00 5.370422e+00 1.690751e+00 4.698720e+00 2.706905e+00 1.250857e+00 7.187469e-01 2.097770e+00 -1.613050e-01 -2.393892e-02 -9.023266e-02 -1.285401e-02 -3.636804e-02 4.920799e-02 3.328333e-02 1.360705e-01 8.404671e-02 2.803253e-02 9.148790e-03 3.985773e-02 -2.309784e-01
<VARIANCE> 25
 2.057444e+01 1.627848e+01 1.897480e+01 1.858036e+01 1.443448e+01 1.433963e+01 1.346623e+01 1.437244e+01 1.763190e+01 1.378332e+01 9.859266e+00 1.053831e+01 4.285136e-01 5.841521e-01 6.602158e-01 7.341924e-01 8.445894e-01 8.822412e-01 9.339440e-01 1.039790e+00 1.031355e+00 8.598009e-01 8.273155e-01 7.833147e-01 5.469764e-01
<GCONST> 7.477074e+01
<STATE> 3
<MEAN> 25
 -2.776843e+00 3.327398e+00 -8.040208e-01 2.044736e-01 1.735656e+00 4.413474e+00 1.414206e+00 3.562172e+00 2.205196e+00 -6.183811e-01 1.354913e-01 1.295216e+00 1.319618e+00 -1.556212e+00 -3.105736e-01 -4.803458e-01 -1.081243e+00 -2.126931e+00 -6.196520e-01 -1.121754e+00 -6.236696e-01 -4.633460e-01 1.471964e-02 -3.719532e-02 2.379223e+00
<VARIANCE> 25
 2.684161e+01 2.801114e+01 2.371386e+01 2.176589e+01 1.802463e+01 2.234261e+01 1.742188e+01 2.154697e+01 1.602016e+01 1.504254e+01 1.321219e+01 1.297977e+01 4.858485e+00 3.477485e+00 3.829443e+00 3.312841e+00 3.520145e+00 6.180961e+00 2.948866e+00 3.697931e+00 2.937849e+00 2.551080e+00 2.035029e+00 2.124136e+00 4.370934e+00
<GCONST> 9.716112e+01
<STATE> 4
<MEAN> 25
 3.118986e+00 -1.775358e-01 -2.554936e-01 -1.692756e+00 -2.830175e+00 -4.655516e+00 -1.576567e-02 3.938103e-01 -8.514814e-01 -3.388021e+00 -1.408549e+00 1.070184e+00 2.852119e+00 -5.189556e-01 -2.410740e-03 -6.001702e-01 -1.812768e+00 -2.350515e+00 -1.645178e-01 -1.286658e+00 -7.950991e-01 1.995947e-01 -8.150395e-01 -5.921686e-01 3.178416e+00
<VARIANCE> 25
 4.298157e+01 3.931728e+01 3.106122e+01 3.652000e+01 4.813673e+01 7.323756e+01 3.855509e+01 4.678336e+01 3.101759e+01 3.706945e+01 2.655416e+01 2.124114e+01 4.668618e+00 4.355051e+00 4.687399e+00 5.065852e+00 6.422040e+00 7.660942e+00 6.249170e+00 6.110268e+00 5.661403e+00 4.217106e+00 4.549367e+00 3.233212e+00 5.192578e+00
<GCONST> 1.106874e+02
<TRANSP> 5
 0.000000e+00 1.000000e+00 0.000000e+00 0.000000e+00 0.000000e+00
 0.000000e+00 9.209161e-01 7.908390e-02 0.000000e+00 0.000000e+00
 0.000000e+00 0.000000e+00 4.819767e-01 5.180233e-01 0.000000e+00
 0.000000e+00 0.000000e+00 0.000000e+00 4.160557e-01 5.839443e-01
 0.000000e+00 0.000000e+00 0.000000e+00 0.000000e+00 0.000000e+00
<ENDHMM>
~h "D"
<BEGINHMM>
<NUMSTATES> 5
<STATE> 2
<MEAN> 25
 3.891683e+00 3.763933e+00 1.528305e+00 5.394673e+00 4.224658e+00 -3.781703e-02 -3.565698e+00 -3.418187e+00 -2.653394e+00 -2.185212e+00 -7.607718e-01 1.608878e-02 -8.096713e-01 1.349314e-01 2.292858e-02 -5.421385e-02 2.809568e-01 7.046887e-01 3.948022e-01 7.593918e-01 6.525393e-01 -3.296324e-02 6.704518e-02 2.633461e-01 -7.949470e-01
<VARIANCE> 25
 2.947194e+01 3.561055e+01 2.837031e+01 3.505194e+01 3.582651e+01 5.422537e+01 4.268129e+01 4.217624e+01 3.810450e+01 2.740537e+01 2.790467e+01 2.355666e+01 2.015056e+00 3.987093e+00 2.766164e+00 2.675719e+00 3.474907e+00 6.879443e+00 3.941492e+00 4.189819e+00 3.663559e+00 2.668009e+00 2.504946e+00 2.055610e+00 2.393984e+00
<GCONST> 1.031672e+02
<STATE> 3
<MEAN> 25
 -4.584600e-01 2.270884e+00 1.069178e+00 2.520318e+00 3.255101e+00 2.683706e+00 -3.359137e-01 9.982055e-01 9.361838e-01 -1.188433e+00 -4.449345e-01 4.242808e-01 -5.199720e-01 -2.037046e+00 -4.028730e-01 -3.766821e-01 -7.273777e-01 -8.977359e-01 2.969576e-02 5.235091e-01 4.408965e-01 -1.036639e-01 3.727519e-01 4.630274e-01 7.574849e-01
<VARIANCE> 25
 2.867890e+01 5.036950e+01 3.553735e+01 3.437904e+01 2.979775e+01 3.375486e+01 2.798196e+01 2.931064e+01 2.125224e+01 1.946351e+01 1.968628e+01 1.601003e+01 3.319762e+00 6.616356e+00 5.217906e+00 4.102727e+00 4.293864e+00 8.584171e+00 4.223738e+00 4.261359e+00 2.927276e+00 2.878357e+00 2.182731e+00 1.907133e+00 4.939844e+00
<GCONST> 1.035371e+02
<STATE> 4
<MEAN> 25
 -3.348083e+00 -1.744787e+00 -1.160398e-01 2.782659e-01 4.477355e-01 1.254937e+00 1.439837e-01 3.119542e+00 1.978684e+00 -9.660454e-01 9.552100e-01 1.892130e+00 1.272191e-01 -1.674995e-01 -3.960109e-02 -4.123533e-02 -1.664817e-01 -2.166947e-01 -1.085589e-01 -5.035692e-02 -1.344848e-01 -5.551850e-02 -1.496710e-02 -2.534525e-03 1.628501e-01
<VARIANCE> 25
 5.451870e+01 5.482528e+01 5.641572e+01 5.136320e+01 3.901973e+01 7.022176e+01 4.623249e+01 4.615338e+01 2.872922e+01 2.912242e+01 2.275590e+01 1.648783e+01 1.881958e+00 2.821874e+00 2.417559e+00 2.166452e+00 2.436282e+00 4.059938e+00 2.779717e+00 2.564668e+00 2.065254e+00 1.903910e+00 1.731648e+00 1.399031e+00 2.321961e+00
<GCONST> 1.008373e+02
<TRANSP> 5
 0.000000e+00 1.000000e+00 0.000000e+00 0.000000e+00 0.000000e+00
 0.000000e+00 6.165197e-01 3.834803e-01 0.000000e+00 0.000000e+00
 0.000000e+00 0.000000e+00 4.380890e-01 5.619110e-01 0.000000e+00
 0.000000e+00 0.000000e+00 0.000000e+00 7.752117e-01 2.247883e-01
 0.000000e+00 0.000000e+00 0.000000e+00 0.000000e+00 0.000000e+00
<ENDHMM>
~h "F"
<BEGINHMM>
<NUMSTATES> 5
<STATE> 2
<MEAN> 25
 -5.789137e+00 -2.734230e-01 -1.808313e+00 -7.452606e-01 9.053938e-01 4.648010e+00 1.556991e+00 3.412821e+00 3.257846e+00 8.259572e-01 1.253027e+00 1.770971e+00 -4.450739e-01 -3.106204e-01 -8.760804e-02 -8.857295e-02 1.490386e-02 2.106655e-02 7.479402e-02 1.315159e-01 1.791006e-01 -8.354576e-03 1.519377e-01 1.442638e-01 -8.227591e-02
<VARIANCE> 25
 2.866534e+01 3.463186e+01 2.398331e+01 1.817298e+01 2.406773e+01 1.722202e+01 1.625765e+01 2.068840e+01 2.016679e+01 1.670090e+01 1.482431e+01 1.151562e+01 1.483621e+00 1.526860e+00 8.319988e-01 1.082661e+00 1.850471e+00 1.363237e+00 1.374199e+00 1.374416e+00 1.570231e+00 1.147952e+00 1.256727e+00 1.066203e+00 3.480692e-01
<GCONST> 8.383021e+01
<STATE> 3
<MEAN> 25
 -2.792731e+00 -5.985584e+00 -1.298257e+00 -2.335602e+00 -1.197472e+00 2.801001e+00 8.105818e-01 5.497886e-01 3.185045e+00 -4.088845e-01 1.413598e+00 1.909642e+00 4.366648e-01 6.251048e-01 -6.086155e-02 -3.586856e-01 5.367744e-01 -6.798379e-01 2.277709e-01 -5.570242e-02 -3.837080e-01 -1.808153e-01 -1.804376e-01 -1.048997e-01 -4.200296e-02
<VARIANCE> 25
 4.726133e+01 5.227290e+01 2.362158e+01 2.276174e+01 4.871341e+01 2.170224e+01 2.392060e+01 2.608096e+01 2.232148e+01 2.103319e+01 2.084639e+01 1.251933e+01 5.116836e+00 5.952366e+00 1.701105e+00 2.731502e+00 4.940329e+00 3.517619e+00 2.998323e+00 2.271869e+00 2.425264e+00 2.064219e+00 2.114378e+00 1.401110e+00 2.358858e+00
<GCONST> 9.844300e+01
<STATE> 4
<MEAN> 25
 -1.194337e+01 9.088581e-01 6.197698e-01 -9.767763e+00 1.126835e+01 -1.161880e+01 8.115056e+00 -4.033089e-01 5.240601e+00 -4.244778e+00 4.544046e+00 -1.448862e+00 4.142879e-01 3.273775e-01 1.376568e-01 -2.098150e-01 -1.753235e-01 -6.562452e-01 -2.205019e-01 -2.833569e-01 -2.287329e-01 -8.120366e-03 -4.491726e-03 -2.924658e-01 2.391390e-01
<VARIANCE> 25
 7.295589e+01 4.410543e+01 2.687311e+01 5.217268e+01 7.999849e+01 8.600996e+01 4.603178e+01 5.033350e+01 4.964379e+01 4.325532e+01 3.980790e+01 2.963142e+01 1.173202e+01 4.657850e+00 2.113541e+00 4.376361e+00 7.348096e+00 7.020517e+00 5.113250e+00 3.439513e+00 4.875854e+00 4.334658e+00 4.494617e+00 2.808233e+00 1.238144e+00
<GCONST> 1.114343e+02
<TRANSP> 5
 0.000000e+00 1.000000e+00 0.000000e+00 0.000000e+00 0.000000e+00
 0.000000e+00 8.755915e-01 1.244085e-01 0.000000e+00 0.000000e+00
 0.000000e+00 0.000000e+00 6.687748e-01 3.312252e-01 0.000000e+00
 0.000000e+00 0.000000e+00 0.000000e+00 8.045830e-01 1.954170e-01
 0.000000e+00 0.000000e+00 0.000000e+00 0.000000e+00 0.000000e+00
<ENDHMM>
~h "G"
<BEGINHMM>
<NUMSTATES> 5
<STATE> 2
<MEAN> 25
 3.879815e+00 4.447236e+00 1.041896e+00 1.901552e+00 3.039218e+00 -2.144032e-01 -2.068917e+00 -3.729954e+00 -3.639455e+00 -4.997065e-01 1.153650e-01 -2.722428e+00 -1.058861e+00 9.202155e-01 2.830281e-01 -2.105393e-01 4.246574e-01 1.241842e+00 4.171408e-01 8.799932e-01 9.597216e-01 1.749597e-03 4.615800e-02 4.695666e-01 -1.394421e+00
<VARIANCE> 25
 3.544337e+01 3.168196e+01 2.650988e+01 3.875967e+01 5.719154e+01 3.624879e+01 3.986572e+01 5.197638e+01 5.117787e+01 2.784088e+01 2.578264e+01 2.596878e+01 2.321983e+00 3.081163e+00 2.543000e+00 2.405018e+00 3.139307e+00 3.325920e+00 2.824740e+00 3.527498e+00 3.280704e+00 1.902784e+00 2.004264e+00 1.938016e+00 2.217204e+00
<GCONST> 1.013550e+02
<STATE> 3
<MEAN> 25
 -5.725195e+00 1.866122e+00 -2.845347e+00 7.523327e-01 1.171045e+00 4.955880e+00 1.149403e+00 4.365119e+00 2.806248e+00 8.836156e-01 7.642342e-01 1.784807e+00 -1.254201e-01 -8.554718e-02 -1.108258e-01 -8.345816e-02 -9.257338e-02 1.782741e-02 7.383824e-02 1.127097e-01 6.206314e-02 -1.198749e-03 2.415971e-02 5.375973e-02 -9.733730e-02
<VARIANCE> 25
 1.789532e+01 1.758851e+01 2.641835e+01 1.576136e+01 1.604544e+01 1.280229e+01 1.292954e+01 1.895786e+01 1.915364e+01 1.714315e+01 1.201324e+01 1.157879e+01 4.477682e-01 8.670920e-01 8.243663e-01 9.406640e-01 1.019421e+00 1.059833e+00 1.153122e+00 1.163919e+00 1.180534e+00 1.043801e+00 1.049811e+00 9.184135e-01 3.066927e-01
<GCONST> 7.744803e+01
<STATE> 4
<MEAN> 25
 -1.300310e-01 -3.428052e-01 -1.182632e+00 -1.926914e+00 1.110383e+00 -2.636608e+00 1.820758e+00 -2.388133e-01 -2.954775e+00 -1.489885e+00 2.295711e+00 -8.420622e-01 9.199133e-01 -1.009403e+00 -4.872388e-01 -7.056816e-01 -1.140510e+00 -1.124376e+00 3.033172e-01 -5.230734e-01 -9.061984e-01 -1.710275e-01 1.870893e-01 -2.751090e-01 1.535487e+00
<VARIANCE> 25
 4.764806e+01 5.271700e+01 4.907281e+01 9.372268e+01 8.031399e+01 8.916551e+01 7.762301e+01 4.559498e+01 5.524034e+01 4.107331e+01 3.634367e+01 3.129055e+01 4.432072e+00 6.097082e+00 6.569530e+00 9.055438e+00 7.770977e+00 9.801933e+00 7.293992e+00 4.606059e+00 5.408338e+00 3.866892e+00 4.532060e+00 2.885542e+00 3.786899e+00
<GCONST> 1.161936e+02
<TRANSP> 5
 0.000000e+00 1.000000e+00 0.000000e+00 0.000000e+00 0.000000e+00
 0.000000e+00 6.779562e-01 3.220438e-01 0.000000e+00 0.000000e+00
 0.000000e+00 0.000000e+00 9.122219e-01 8.777807e-02 0.000000e+00
 0.000000e+00 0.000000e+00 0.000000e+00 7.154362e-01 2.845639e-01
 0.000000e+00 0.000000e+00 0.000000e+00 0.000000e+00 0.000000e+00
<ENDHMM>
~h "H"
<BEGINHMM>
<NUMSTATES> 5
<STATE> 2
<MEAN> 25
 2.260269e-08 8.811305e-09 -3.170250e-08 -3.272399e-09 -8.275869e-09 9.510491e-09 8.899678e-09 -1.947844e-08 2.254810e-08 1.054238e-08 -2.218162e-08 1.487785e-08 2.782780e-04 8.105542e-03 3.354365e-03 3.784926e-03 1.671908e-03 4.445618e-03 2.719840e-03 2.226485e-03 9.320548e-04 -1.759579e-03 3.273624e-04 1.619040e-03 -6.760993e-03
<VARIANCE> 25
 7.968279e+01 6.358563e+01 6.087330e+01 5.505605e+01 5.724376e+01 6.726244e+01 5.734303e+01 6.000534e+01 5.110028e+01 3.368567e+01 3.032980e+01 2.671296e+01 2.506406e+00 3.079680e+00 2.529851e+00 2.541293e+00 2.896639e+00 3.554343e+00 2.927196e+00 2.849113e+00 2.789037e+00 2.151500e+00 2.086617e+00 1.716910e+00 1.698369e+00
<GCONST> 1.050970e+02
<STATE> 3
<MEAN> 25
 2.260269e-08 8.811305e-09 -3.170250e-08 -3.272399e-09 -8.275869e-09 9.510491e-09 8.899678e-09 -1.947844e-08 2.254810e-08 1.054238e-08 -2.218162e-08 1.487785e-08 2.782780e-04 8.105542e-03 3.354365e-03 3.784926e-03 1.671908e-03 4.445618e-03 2.719840e-03 2.226485e-03 9.320548e-04 -1.759579e-03 3.273624e-04 1.619040e-03 -6.760993e-03
<VARIANCE> 25
 7.968279e+01 6.358563e+01 6.087330e+01 5.505605e+01 5.724376e+01 6.726244e+01 5.734303e+01 6.000534e+01 5.110028e+01 3.368567e+01 3.032980e+01 2.671296e+01 2.506406e+00 3.079680e+00 2.529851e+00 2.541293e+00 2.896639e+00 3.554343e+00 2.927196e+00 2.849113e+00 2.789037e+00 2.151500e+00 2.086617e+00 1.716910e+00 1.698369e+00
<GCONST> 1.050970e+02
<STATE> 4
<MEAN> 25
 2.260269e-08 8.811305e-09 -3.170250e-08 -3.272399e-09 -8.275869e-09 9.510491e-09 8.899678e-09 -1.947844e-08 2.254810e-08 1.054238e-08 -2.218162e-08 1.487785e-08 2.782780e-04 8.105542e-03 3.354365e-03 3.784926e-03 1.671908e-03 4.445618e-03 2.719840e-03 2.226485e-03 9.320548e-04 -1.759579e-03 3.273624e-04 1.619040e-03 -6.760993e-03
<VARIANCE> 25
 7.968279e+01 6.358563e+01 6.087330e+01 5.505605e+01 5.724376e+01 6.726244e+01 5.734303e+01 6.000534e+01 5.110028e+01 3.368567e+01 3.032980e+01 2.671296e+01 2.506406e+00 3.079680e+00 2.529851e+00 2.541293e+00 2.896639e+00 3.554343e+00 2.927196e+00 2.849113e+00 2.789037e+00 2.151500e+00 2.086617e+00 1.716910e+00 1.698369e+00
<GCONST> 1.050970e+02
<TRANSP> 5
 0.000000e+00 1.000000e+00 0.000000e+00 0.000000e+00 0.000000e+00
 0.000000e+00 6.000000e-01 4.000000e-01 0.000000e+00 0.000000e+00
 0.000000e+00 0.000000e+00 6.000000e-01 4.000000e-01 0.000000e+00
 0.000000e+00 0.000000e+00 0.000000e+00 7.000000e-01 3.000000e-01
 0.000000e+00 0.000000e+00 0.000000e+00 0.000000e+00 0.000000e+00
<ENDHMM>
~h "I"
<BEGINHMM>
<NUMSTATES> 5
<STATE> 2
<MEAN> 25
 4.773278e+00 1.424155e+00 -1.852548e+00 -3.626614e+00 9.817041e+00 -6.886250e-02 2.751474e-01 -1.931464e+00 -1.405130e+01 -5.477495e+00 7.454421e+00 -8.228173e-01 -7.804000e-01 3.921278e-02 3.776138e-01 4.728981e-01 1.187039e+00 -8.284481e-01 3.154831e-02 -1.684748e+00 7.618027e-01 2.192884e-02 3.520169e-01 6.806125e-02 5.984941e-01
<VARIANCE> 25
 7.052656e+01 5.430303e+01 2.736600e+01 4.039088e+01 5.365556e+01 3.797167e+01 5.116467e+01 7.411996e+01 1.744215e+02 4.863789e+01 4.404186e+01 2.696993e+01 9.884421e+00 3.958990e+00 3.738306e+00 3.159140e+00 2.759131e+00 3.737104e+00 8.930846e+00 2.379850e+00 1.465056e+01 6.766907e+00 5.572541e+00 2.926113e+00 7.725812e-01
<GCONST> 1.118470e+02
<STATE> 3
<MEAN> 25
 -1.299310e+01 -1.507643e+00 2.707047e-01 -2.827066e+00 1.243221e+01 -1.062441e+01 5.002039e+00 -1.048280e+01 1.900544e+00 -4.897313e+00 7.285457e+00 -2.836174e+00 5.232843e-01 -2.350307e-01 3.153276e-02 4.566527e-01 -4.591200e-01 -4.207389e-01 -1.140616e+00 7.487965e-01 2.745628e-01 2.178054e-01 -3.990155e-01 -1.112173e-01 -4.146950e-01
<VARIANCE> 25
 5.901352e+01 4.488824e+01 1.090188e+01 2.358898e+01 5.190246e+01 5.659933e+01 4.913771e+01 3.946746e+01 2.743770e+01 2.019942e+01 1.681687e+01 2.637905e+01 8.281931e+00 6.489053e+00 1.131519e+00 1.762346e+00 2.053916e+00 1.466111e+00 2.702482e+00 1.693314e+00 1.535086e+00 1.670641e+00 1.740443e+00 2.393974e+00 4.421722e-01
<GCONST> 9.619702e+01
<STATE> 4
<MEAN> 25
 1.482444e+00 -2.310988e+00 2.271176e+00 1.294767e+00 7.657971e+00 -5.028895e+00 -4.020309e+00 -4.616740e+00 1.809818e+00 -7.523732e-01 2.274279e+00 5.535300e-01 3.362001e+00 1.995459e+00 9.266348e-01 6.956109e-01 -8.138439e-01 4.030166e-01 -8.459116e-01 8.479300e-01 -1.214308e+00 1.082628e-01 -1.598944e+00 -5.625488e-01 -2.737717e-02
<VARIANCE> 25
 4.992511e+01 2.967043e+01 1.923209e+01 1.711835e+01 4.463397e+01 6.217802e+01 1.795261e+01 2.092871e+01 2.107933e+01 1.830756e+01 1.211124e+01 7.283280e+00 6.807774e+00 3.631890e+00 1.575100e+00 1.647736e+00 3.243207e+00 3.175106e+00 3.285923e+00 2.438598e+00 2.250433e+00 3.632002e+00 1.940907e+00 3.349190e+00 9.415212e-01
<GCONST> 9.582405e+01
<TRANSP> 5
 0.000000e+00 1.000000e+00 0.000000e+00 0.000000e+00 0.000000e+00
 0.000000e+00 6.499902e-01 3.500097e-01 0.000000e+00 0.000000e+00
 0.000000e+00 0.000000e+00 6.598997e-01 3.401003e-01 0.000000e+00
 0.000000e+00 0.000000e+00 0.000000e+00 5.264372e-01 4.735629e-01
 0.000000e+00 0.000000e+00 0.000000e+00 0.000000e+00 0.000000e+00
<ENDHMM>
~h "K"
<BEGINHMM>
<NUMSTATES> 5
<STATE> 2
<MEAN> 25
 -2.305113e+00 -1.890057e+00 -4.938412e-01 -1.043692e+00 9.406530e-01 1.937255e+00 1.309757e+00 -1.971620e+00 -5.450771e-01 1.181581e+00 2.235466e+00 3.787631e-01 -4.577453e-01 2.369375e-01 -1.295724e-01 -2.304484e-01 -8.338691e-02 3.088548e-01 1.637916e-01 5.162721e-01 3.174709e-01 2.011885e-03 7.677373e-02 2.322169e-01 -6.526940e-01
<VARIANCE> 25
 5.581622e+01 5.634244e+01 6.269634e+01 5.943289e+01 5.957493e+01 5.481853e+01 6.087176e+01 5.386329e+01 4.368298e+01 3.832254e+01 3.308245e+01 2.577116e+01 2.744532e+00 3.920184e+00 3.000510e+00 3.517250e+00 3.303403e+00 4.127977e+00 3.030053e+00 4.327378e+00 3.157996e+00 2.634218e+00 2.790407e+00 2.025661e+00 3.941777e+00
<GCONST> 1.077221e+02
<STATE> 3
<MEAN> 25
 -6.304495e+00 2.286357e+00 -3.506924e+00 3.349439e-01 1.076973e+00 5.453523e+00 1.251540e+00 5.171324e+00 2.973349e+00 1.121616e+00 7.827752e-01 1.984415e+00 -6.379756e-02 1.488546e-02 -5.215202e-02 -1.295383e-02 -4.786269e-02 -5.361095e-03 -5.289198e-03 9.024420e-02 5.144499e-02 -2.855753e-02 -4.205405e-02 2.918008e-04 -1.101767e-01
<VARIANCE> 25
 1.098812e+01 1.593288e+01 2.002033e+01 1.782635e+01 1.243370e+01 1.313509e+01 1.169326e+01 1.466053e+01 1.568340e+01 1.461370e+01 1.071625e+01 9.405140e+00 2.507870e-01 4.830175e-01 5.676636e-01 7.827420e-01 7.912800e-01 8.677770e-01 8.998438e-01 9.838315e-01 9.777887e-01 9.361644e-01 9.242710e-01 8.360705e-01 3.233912e-01
<GCONST> 7.238212e+01
<STATE> 4
<MEAN> 25
 -4.225300e+00 -5.162864e+00 -9.054996e-01 -3.469698e+00 -8.212010e-01 -5.017118e+00 2.858116e+00 8.008832e-01 1.725607e-01 -4.466517e-02 2.058125e+00 -7.142484e-03 4.753403e-01 -7.517248e-01 6.603089e-02 -2.059153e-01 -5.664501e-01 -8.996671e-01 -5.560062e-02 -1.781508e-01 -1.106683e-01 8.685958e-02 1.394950e-02 -2.022306e-01 1.007005e+00
<VARIANCE> 25
 4.507029e+01 7.317412e+01 6.744204e+01 8.938911e+01 6.222555e+01 1.578885e+02 6.920272e+01 6.622346e+01 4.830214e+01 5.254333e+01 3.839909e+01 3.497943e+01 3.932012e+00 5.933717e+00 5.549411e+00 7.580615e+00 6.172965e+00 1.498584e+01 5.674207e+00 5.091229e+00 4.708683e+00 4.438466e+00 3.920697e+00 3.085894e+00 5.022186e+00
<GCONST> 1.173434e+02
<TRANSP> 5
 0.000000e+00 1.000000e+00 0.000000e+00 0.000000e+00 0.000000e+00
 0.000000e+00 8.530081e-01 1.469919e-01 0.000000e+00 0.000000e+00
 0.000000e+00 0.000000e+00 9.378558e-01 6.214421e-02 0.000000e+00
 0.000000e+00 0.000000e+00 0.000000e+00 7.801622e-01 2.198379e-01
 0.000000e+00 0.000000e+00 0.000000e+00 0.000000e+00 0.000000e+00
<ENDHMM>
~h "L"
<BEGINHMM>
<NUMSTATES> 5
<STATE> 2
<MEAN> 25
 5.686908e+00 2.878705e+00 2.930486e+00 -2.378476e+00 -7.322496e+00 -4.854582e+00 8.650981e-01 1.299362e+00 -1.003762e-01 -1.942059e+00 -4.179309e+00 -1.576736e+00 9.454586e-01 7.135605e-01 4.508896e-01 8.657775e-02 -1.285438e+00 -9.080235e-01 -2.074320e-02 2.801677e-01 3.965680e-03 -1.887347e-01 -6.531469e-01 -5.126722e-01 3.473640e-01
<VARIANCE> 25
 4.968034e+01 4.079072e+01 5.597987e+01 3.662930e+01 7.640114e+01 7.181580e+01 4.781517e+01 5.818156e+01 5.590299e+01 3.642362e+01 3.638225e+01 2.976515e+01 3.028763e+00 3.472018e+00 3.026663e+00 2.697648e+00 5.371966e+00 5.544371e+00 4.070060e+00 4.223051e+00 3.803856e+00 3.373768e+00 3.295565e+00 2.661798e+00 1.841904e+00
<GCONST> 1.083594e+02
<STATE> 3
<MEAN> 25
 9.712382e+00 6.137972e+00 4.198535e+00 -1.816486e+00 -1.319978e+01 -9.056395e+00 7.510613e-02 1.603065e+00 9.732388e-01 -8.761763e-01 -4.713644e+00 -2.864494e+00 -9.292248e-02 1.100579e-01 8.166826e-02 1.506610e-01 2.611604e-02 3.480940e-02 1.091263e-01 -3.839656e-02 -1.625479e-01 -5.133734e-02 1.130530e-01 4.638932e-02 -1.449748e-01
<VARIANCE> 25
 1.849020e+01 3.240423e+01 2.766452e+01 2.838352e+01 6.319808e+01 6.599267e+01 4.668589e+01 3.973599e+01 3.834663e+01 3.476722e+01 3.196704e+01 2.798649e+01 2.661057e-01 8.037896e-01 8.217872e-01 7.507587e-01 1.576355e+00 1.329853e+00 1.405060e+00 1.479136e+00 1.377177e+00 1.237776e+00 1.253827e+00 1.241888e+00 2.799629e-01
<GCONST> 8.801129e+01
<STATE> 4
<MEAN> 25
 7.335312e+00 5.063435e+00 4.167710e+00 -1.023445e+00 -8.686578e+00 -5.482164e+00 1.353842e+00 1.111407e+00 4.708038e-02 -2.164834e+00 -4.998520e+00 -2.402703e+00 -7.695911e-01 -3.791027e-01 -5.096907e-01 2.288337e-01 2.057381e+00 1.109370e+00 -2.162985e-01 -3.435109e-01 -1.589329e-01 -1.243243e-01 5.497156e-01 4.696596e-01 -3.054061e-01
<VARIANCE> 25
 2.630263e+01 3.092768e+01 3.429902e+01 4.205935e+01 7.436641e+01 6.797838e+01 4.103528e+01 4.912436e+01 5.354825e+01 4.306990e+01 4.153990e+01 2.715658e+01 1.705261e+00 2.382801e+00 1.731884e+00 2.728208e+00 4.422664e+00 5.867593e+00 3.529192e+00 3.181953e+00 3.946652e+00 2.666933e+00 3.116375e+00 2.086193e+00 1.748785e+00
<GCONST> 1.042455e+02
<TRANSP> 5
 0.000000e+00 1.000000e+00 0.000000e+00 0.000000e+00 0.000000e+00
 0.000000e+00 6.810488e-01 3.189512e-01 0.000000e+00 0.000000e+00
 0.000000e+00 0.000000e+00 7.940444e-01 2.059556e-01 0.000000e+00
 0.000000e+00 0.000000e+00 0.000000e+00 6.501548e-01 3.498452e-01
 0.000000e+00 0.000000e+00 0.000000e+00 0.000000e+00 0.000000e+00
<ENDHMM>
~h "M"
<BEGINHMM>
<NUMSTATES> 5
<STATE> 2
<MEAN> 25
 4.333003e+00 4.754336e+00 -4.647307e-01 3.676642e-01 2.051657e+00 2.830674e+00 -4.586552e-01 -1.615859e+00 -1.354233e+00 -1.654235e+00 -2.274755e+00 -1.661679e+00 -3.265463e-01 6.332626e-01 4.887536e-01 6.453864e-01 1.012816e+00 1.122401e+00 -1.754021e-01 -3.607267e-01 -5.914582e-02 2.450399e-02 -4.597334e-01 -4.334505e-01 -7.123229e-01
<VARIANCE> 25
 4.293700e+01 2.856674e+01 3.191668e+01 3.496000e+01 3.922765e+01 3.680760e+01 3.019936e+01 4.231178e+01 3.376488e+01 2.444174e+01 2.617679e+01 2.728744e+01 1.331906e+00 1.928134e+00 2.080862e+00 2.275404e+00 3.235591e+00 2.730481e+00 2.051580e+00 2.634289e+00 2.125498e+00 1.869031e+00 2.098518e+00 1.652230e+00 1.521063e+00
<GCONST> 9.719743e+01
<STATE> 3
<MEAN> 25
 -2.521237e+00 3.921910e+00 -2.798733e+00 2.137404e+00 1.772242e+00 5.846551e+00 4.899597e-02 3.073343e+00 9.180496e-01 2.077907e-02 -6.836932e-01 8.876982e-01 -6.022353e-02 4.640926e-02 1.940021e-02 4.300828e-02 1.372779e-02 9.909341e-03 1.840107e-03 1.034500e-02 3.204067e-02 -9.396560e-03 -1.129444e-02 -3.790114e-03 -7.219008e-02
<VARIANCE> 25
 4.028822e+01 2.004707e+01 2.290159e+01 1.558222e+01 1.862257e+01 1.726329e+01 1.515418e+01 3.775545e+01 2.013847e+01 1.624142e+01 1.469147e+01 1.781943e+01 1.775723e-01 3.074310e-01 4.275306e-01 5.243197e-01 6.498145e-01 7.090193e-01 8.471241e-01 9.175842e-01 8.857128e-01 8.435227e-01 8.107751e-01 7.721556e-01 8.501559e-02
<GCONST> 7.334361e+01
<STATE> 4
<MEAN> 25
 5.386905e+00 7.278052e+00 7.054628e-01 3.373954e+00 4.321913e+00 5.332777e+00 -1.113964e+00 -3.276098e+00 -1.989918e+00 -1.546301e+00 -3.332574e+00 -2.885420e+00 4.533977e-01 -6.466984e-01 -3.150868e-01 -5.967398e-01 -1.301416e+00 -1.313800e+00 -1.382255e-02 4.434706e-01 4.374497e-01 -3.222514e-02 3.907244e-01 4.502328e-01 9.156081e-01
<VARIANCE> 25
 3.647562e+01 2.108431e+01 1.986268e+01 2.734360e+01 2.421640e+01 2.754832e+01 2.472009e+01 4.228348e+01 3.037321e+01 2.106786e+01 2.482569e+01 2.636087e+01 1.835277e+00 2.926713e+00 2.319121e+00 2.810364e+00 4.195930e+00 3.383924e+00 2.767135e+00 2.971483e+00 2.902283e+00 1.959552e+00 2.260780e+00 2.026448e+00 1.732564e+00
<GCONST> 9.741490e+01
<TRANSP> 5
 0.000000e+00 1.000000e+00 0.000000e+00 0.000000e+00 0.000000e+00
 0.000000e+00 7.183611e-01 2.816389e-01 0.000000e+00 0.000000e+00
 0.000000e+00 0.000000e+00 9.112908e-01 8.870924e-02 0.000000e+00
 0.000000e+00 0.000000e+00 0.000000e+00 6.417456e-01 3.582545e-01
 0.000000e+00 0.000000e+00 0.000000e+00 0.000000e+00 0.000000e+00
<ENDHMM>
~h "N"
<BEGINHMM>
<NUMSTATES> 5
<STATE> 2
<MEAN> 25
 6.473941e+00 2.512397e+00 2.641426e-02 2.964021e+00 4.102233e+00 -1.465221e-01 -3.710445e+00 -4.401563e+00 -1.700426e+00 -2.048739e-01 -1.136908e+00 -1.065649e+00 -2.103311e-01 1.268074e+00 4.030097e-01 7.066565e-01 8.966820e-01 1.337714e+00 -1.873224e-01 -4.241549e-01 -3.745809e-02 1.277732e-01 -7.031154e-01 -4.962002e-01 -1.141274e+00
<VARIANCE> 25
 2.345104e+01 2.215750e+01 2.937543e+01 3.182728e+01 3.015370e+01 5.406894e+01 3.943537e+01 4.214656e+01 3.744357e+01 2.871926e+01 3.478934e+01 2.561770e+01 1.196682e+00 2.036928e+00 2.253049e+00 2.700487e+00 2.598799e+00 4.094712e+00 3.123144e+00 3.191986e+00 3.187120e+00 2.326276e+00 2.620625e+00 2.036300e+00 1.193830e+00
<GCONST> 9.884191e+01
<STATE> 3
<MEAN> 25
 6.303857e+00 6.932220e+00 2.242866e+00 6.342025e+00 5.728173e+00 3.701203e+00 -3.578566e+00 -5.200073e+00 -1.929402e+00 -8.559822e-01 -2.770896e+00 -1.874457e+00 -4.131415e-01 3.643911e-01 2.920562e-01 1.728480e-01 1.173583e-01 2.701660e-01 2.550172e-01 3.154873e-01 8.718026e-02 -2.236466e-01 9.194832e-03 9.369686e-02 -4.485820e-01
<VARIANCE> 25
 1.667274e+01 1.419275e+01 1.850325e+01 2.061293e+01 2.071299e+01 2.527109e+01 2.638569e+01 2.983874e+01 2.333795e+01 2.376410e+01 1.905891e+01 1.988088e+01 4.111379e-01 7.469940e-01 8.698848e-01 8.891153e-01 1.100119e+00 1.256146e+00 1.552551e+00 1.630765e+00 1.246282e+00 1.306901e+00 1.247075e+00 1.086870e+00 2.505070e-01
<GCONST> 8.176453e+01
<STATE> 4
<MEAN> 25
 -5.979810e+00 2.537231e+00 -2.382969e+00 3.941656e-01 1.223342e+00 5.026223e+00 1.113758e+00 4.480283e+00 2.758816e+00 1.293617e+00 6.680584e-01 1.851407e+00 -1.206273e-01 -5.888689e-02 -5.303618e-02 -4.923514e-02 -9.061341e-02 -2.251965e-02 3.690893e-02 9.614161e-02 4.371286e-02 1.895561e-02 3.661370e-02 2.254417e-02 -9.943177e-02
<VARIANCE> 25
 2.056839e+01 1.557726e+01 2.132750e+01 1.784537e+01 1.408404e+01 1.390109e+01 1.407312e+01 1.834464e+01 1.748494e+01 1.502740e+01 1.105804e+01 1.034051e+01 3.744946e-01 5.296315e-01 6.317798e-01 8.197360e-01 8.244433e-01 9.461952e-01 9.929774e-01 1.035315e+00 9.905047e-01 9.801500e-01 9.583774e-01 8.299778e-01 3.512640e-01
<GCONST> 7.499818e+01
<TRANSP> 5
 0.000000e+00 1.000000e+00 0.000000e+00 0.000000e+00 0.000000e+00
 0.000000e+00 6.548108e-01 3.451892e-01 0.000000e+00 0.000000e+00
 0.000000e+00 0.000000e+00 7.521100e-01 2.478900e-01 0.000000e+00
 0.000000e+00 0.000000e+00 0.000000e+00 9.318210e-01 6.817900e-02
 0.000000e+00 0.000000e+00 0.000000e+00 0.000000e+00 0.000000e+00
<ENDHMM>
~h "P"
<BEGINHMM>
<NUMSTATES> 5
<STATE> 2
<MEAN> 25
 -2.356923e+00 -8.077031e-01 1.672637e-01 -1.078475e+00 1.137099e-01 1.788054e+00 3.737718e-01 2.685173e-01 8.812627e-01 -3.592331e-01 1.013786e+00 1.020153e+00 -3.643661e-01 1.890524e-01 -5.308024e-02 -8.924104e-02 1.789411e-02 2.766910e-01 5.545948e-02 3.407837e-01 2.062391e-01 1.022265e-01 1.460869e-01 2.584467e-01 -6.620847e-01
<VARIANCE> 25
 6.479528e+01 6.188177e+01 6.377864e+01 5.215479e+01 4.860698e+01 5.173584e+01 5.524627e+01 4.369758e+01 3.838277e+01 2.618680e+01 2.566857e+01 2.245515e+01 3.084832e+00 3.130568e+00 2.871030e+00 2.630934e+00 2.671559e+00 3.265572e+00 3.071601e+00 2.873664e+00 2.784527e+00 1.833304e+00 1.877957e+00 1.713213e+00 2.750674e+00
<GCONST> 1.036859e+02
<STATE> 3
<MEAN> 25
 -6.138322e+00 2.669585e+00 -3.805856e+00 8.010231e-01 7.148564e-01 5.643213e+00 1.280416e+00 5.065116e+00 2.457618e+00 1.215454e+00 6.016055e-01 1.704546e+00 -4.262155e-02 2.139389e-02 -5.039347e-02 1.301859e-02 2.439622e-03 1.986021e-02 -5.440749e-04 5.223716e-02 3.284472e-02 -5.284608e-03 -8.804705e-03 -7.058440e-03 -8.178479e-02
<VARIANCE> 25
 9.583125e+00 1.553277e+01 2.008824e+01 1.592747e+01 1.066921e+01 1.309532e+01 1.262380e+01 1.392523e+01 1.614776e+01 1.330904e+01 9.755836e+00 9.889825e+00 1.692985e-01 3.250103e-01 4.091946e-01 5.088183e-01 6.461260e-01 7.671455e-01 8.999735e-01 9.053236e-01 8.550796e-01 8.232426e-01 8.083827e-01 7.708509e-01 1.209348e-01
<GCONST> 6.845409e+01
<STATE> 4
<MEAN> 25
 -3.947527e+00 -1.911434e+00 -1.203792e+00 -1.198246e+00 -8.888870e-01 -9.875175e-01 -4.204966e-01 2.120175e+00 2.166090e+00 1.483033e-01 7.342829e-01 1.055848e+00 1.288269e+00 -1.010145e+00 1.052482e-02 -2.472595e-01 -4.326009e-01 -1.271489e+00 -3.968841e-01 -3.838080e-01 2.106136e-01 -8.904301e-02 -1.996624e-01 -8.084569e-02 1.947759e+00
<VARIANCE> 25
 3.118067e+01 4.627782e+01 4.677359e+01 3.718313e+01 2.997386e+01 8.735140e+01 4.037997e+01 3.660221e+01 3.127972e+01 2.476003e+01 2.577444e+01 1.802946e+01 4.904271e+00 4.890692e+00 5.726435e+00 4.956745e+00 4.122397e+00 9.108561e+00 5.006853e+00 5.119797e+00 3.980326e+00 3.280971e+00 3.101706e+00 2.195711e+00 4.395533e+00
<GCONST> 1.080063e+02
<TRANSP> 5
 0.000000e+00 1.000000e+00 0.000000e+00 0.000000e+00 0.000000e+00
 0.000000e+00 8.700916e-01 1.299084e-01 0.000000e+00 0.000000e+00
 0.000000e+00 0.000000e+00 9.411592e-01 5.884079e-02 0.000000e+00
 0.000000e+00 0.000000e+00 0.000000e+00 7.440687e-01 2.559312e-01
 0.000000e+00 0.000000e+00 0.000000e+00 0.000000e+00 0.000000e+00
<ENDHMM>
~h "R"
<BEGINHMM>
<NUMSTATES> 5
<STATE> 2
<MEAN> 25
 6.919971e+00 2.037561e+00 -4.464806e+00 -5.313917e+00 -1.836821e+00 1.151308e+00 1.271168e+00 -2.720684e+00 -4.879539e+00 -2.045809e+00 1.116376e-01 -2.072076e-01 1.322411e+00 1.266505e+00 -5.914744e-01 -7.191349e-01 -2.293285e-02 1.358283e-01 4.852472e-01 -7.173939e-01 -1.650275e+00 -3.814820e-01 2.843739e-01 2.365694e-01 4.234985e-01
<VARIANCE> 25
 4.671507e+01 7.401437e+01 3.465358e+01 5.777251e+01 4.399951e+01 4.227240e+01 5.069909e+01 7.400642e+01 5.991232e+01 4.344032e+01 3.962656e+01 2.707899e+01 3.272213e+00 5.273888e+00 2.751063e+00 3.456588e+00 3.848901e+00 3.909477e+00 3.608709e+00 4.433728e+00 4.703860e+00 3.449927e+00 3.228238e+00 2.581100e+00 1.922276e+00
<GCONST> 1.084427e+02
<STATE> 3
<MEAN> 25
 1.133777e+01 5.095173e+00 -6.820367e+00 -7.740885e+00 -5.602323e-01 2.538390e+00 2.645746e+00 -6.278506e+00 -1.188113e+01 -2.585429e+00 3.488452e+00 2.077591e+00 -7.915252e-02 -6.793386e-02 -1.764907e-01 3.768499e-01 4.907665e-01 1.812085e-01 -2.520261e-01 -5.399380e-01 -2.651849e-01 3.389007e-02 3.340256e-01 2.431940e-01 -8.875453e-02
<VARIANCE> 25
 2.448490e+01 3.181277e+01 1.999777e+01 4.050026e+01 3.850429e+01 2.993917e+01 3.514843e+01 5.502139e+01 6.729922e+01 4.803664e+01 3.536041e+01 2.634178e+01 4.034286e-01 1.299346e+00 7.714438e-01 1.668789e+00 1.879345e+00 1.577155e+00 2.124001e+00 1.944287e+00 2.117630e+00 2.150261e+00 1.794090e+00 1.375833e+00 4.148157e-01
<GCONST> 9.248785e+01
<STATE> 4
<MEAN> 25
 7.952075e+00 2.163092e+00 -6.709077e+00 -1.990419e+00 2.976555e+00 1.141361e+00 -9.996544e-01 -7.958693e+00 -7.828022e+00 2.724966e-01 4.024928e+00 4.590983e-01 -7.685634e-01 -4.663837e-01 6.231953e-01 1.374747e+00 5.477037e-01 -5.034723e-01 -9.053466e-01 4.873360e-01 1.365432e+00 3.250545e-01 -6.013643e-01 -5.596411e-01 -4.202194e-01
<VARIANCE> 25
 3.714458e+01 3.389593e+01 2.327361e+01 4.532016e+01 3.652824e+01 5.419705e+01 4.059402e+01 6.696702e+01 5.203718e+01 4.629434e+01 3.051715e+01 3.331321e+01 8.084916e-01 1.767488e+00 1.196464e+00 2.219543e+00 1.812691e+00 2.526788e+00 2.807716e+00 2.404413e+00 2.507815e+00 2.287045e+00 1.740798e+00 1.672633e+00 8.732015e-01
<GCONST> 9.770077e+01
<TRANSP> 5
 0.000000e+00 1.000000e+00 0.000000e+00 0.000000e+00 0.000000e+00
 0.000000e+00 6.468393e-01 3.531607e-01 0.000000e+00 0.000000e+00
 0.000000e+00 0.000000e+00 6.895293e-01 3.104707e-01 0.000000e+00
 0.000000e+00 0.000000e+00 0.000000e+00 6.548980e-01 3.451020e-01
 0.000000e+00 0.000000e+00 0.000000e+00 0.000000e+00 0.000000e+00
<ENDHMM>
~h "S"
<BEGINHMM>
<NUMSTATES> 5
<STATE> 2
<MEAN> 25
 -3.660918e+00 -5.570139e+00 6.440670e+00 -3.679442e-02 1.209645e-01 -7.786669e-01 2.874919e+00 -6.545551e-01 -5.922086e-01 -9.536074e-01 9.426093e-01 1.511349e+00 -3.233801e+00 -2.601954e+00 2.841764e+00 -1.253467e+00 -5.758121e-01 -4.692128e-01 1.232601e+00 7.636645e-01 7.946844e-01 -2.922159e-01 9.825702e-01 2.851304e-01 1.182503e+00
<VARIANCE> 25
 5.860126e+01 7.722639e+01 8.214279e+01 8.950214e+01 5.459069e+01 6.912798e+01 8.137889e+01 7.247916e+01 5.868884e+01 3.709132e+01 2.774755e+01 2.532031e+01 4.541929e+00 7.686193e+00 4.649229e+00 6.068018e+00 7.096169e+00 8.056221e+00 6.469688e+00 5.559340e+00 5.236814e+00 3.485357e+00 3.517676e+00 2.412804e+00 1.829188e+00
<GCONST> 1.145936e+02
<STATE> 3
<MEAN> 25
 -7.430003e+00 -1.285358e+01 6.536494e+00 8.425961e-01 -6.276892e+00 1.173062e+00 9.076499e-01 3.949823e+00 5.069358e-01 -1.566313e+00 3.534359e+00 1.882985e+00 -2.447706e-01 9.324950e-02 -2.961670e-01 -1.911233e-01 2.422802e-01 -1.771765e-01 5.442247e-02 -1.418951e-01 1.476075e-01 -1.828213e-02 -5.882852e-03 1.137712e-01 -1.386489e-02
<VARIANCE> 25
 2.331998e+01 1.831938e+02 1.030003e+02 4.444592e+01 7.941406e+01 4.284693e+01 4.518805e+01 3.737004e+01 3.035159e+01 2.780802e+01 2.365987e+01 1.650770e+01 1.937850e+00 3.886565e+00 4.552054e+00 2.397359e+00 2.938655e+00 1.731065e+00 2.333191e+00 2.066813e+00 1.804004e+00 1.537504e+00 1.819528e+00 1.493078e+00 1.074625e+00
<GCONST> 1.007061e+02
<STATE> 4
<MEAN> 25
 -1.687630e+01 -8.020273e+00 1.432300e+01 -7.909951e+00 2.417094e+00 -3.498303e+00 1.025052e+01 -1.018678e+00 2.597286e+00 -1.722210e+00 3.522650e+00 8.703158e-01 6.373070e-01 2.493319e-01 -5.630085e-01 4.379101e-01 -3.456135e-02 3.224013e-01 -4.129621e-01 1.529609e-01 -2.042013e-01 1.831423e-01 -2.772427e-01 -1.144790e-01 -5.584243e-01
<VARIANCE> 25
 4.063301e+01 4.365265e+01 6.139695e+01 4.398613e+01 3.919846e+01 9.624592e+01 1.298472e+02 6.654847e+01 5.831217e+01 3.466510e+01 2.337174e+01 1.959208e+01 2.974921e+00 2.365872e+00 2.336603e+00 1.708831e+00 2.096540e+00 2.481486e+00 3.456186e+00 2.465428e+00 2.426949e+00 2.104898e+00 1.754010e+00 1.433493e+00 1.067711e+00
<GCONST> 1.021130e+02
<TRANSP> 5
 0.000000e+00 1.000000e+00 0.000000e+00 0.000000e+00 0.000000e+00
 0.000000e+00 7.070717e-01 2.929283e-01 0.000000e+00 0.000000e+00
 0.000000e+00 0.000000e+00 7.938208e-01 2.061792e-01 0.000000e+00
 0.000000e+00 0.000000e+00 0.000000e+00 8.525169e-01 1.474831e-01
 0.000000e+00 0.000000e+00 0.000000e+00 0.000000e+00 0.000000e+00
<ENDHMM>
~h "T"
<BEGINHMM>
<NUMSTATES> 5
<STATE> 2
<MEAN> 25
 -1.693848e+00 -1.768892e+00 -1.317323e+00 4.413376e-01 1.108222e+00 -5.866580e-02 -1.599087e-01 1.195497e+00 2.907105e-01 -1.269846e+00 -4.454702e-03 9.637191e-01 -9.309133e-01 -1.758172e+00 7.056564e-01 -4.715205e-01 -5.066977e-01 -1.122541e+00 -3.302326e-01 1.177822e-01 8.218792e-01 -1.658071e-01 1.351966e-01 1.896677e-01 8.487578e-01
<VARIANCE> 25
 4.334829e+01 5.966337e+01 4.218303e+01 4.031937e+01 3.712413e+01 6.428939e+01 3.635660e+01 4.926560e+01 3.658708e+01 2.671649e+01 2.067502e+01 1.821656e+01 4.712102e+00 8.558377e+00 6.261605e+00 4.887252e+00 5.503500e+00 1.246422e+01 5.089511e+00 4.381238e+00 4.006718e+00 3.466629e+00 2.743370e+00 2.531842e+00 6.892791e+00
<GCONST> 1.102789e+02
<STATE> 3
<MEAN> 25
 -6.957195e+00 -1.077716e+01 6.872856e+00 -1.756659e+00 -1.440121e+00 -5.594705e+00 1.373351e-03 -1.196199e+00 2.129055e+00 -1.143456e+00 1.262191e+00 1.369476e+00 9.529178e-02 -5.472613e-01 -4.181865e-02 4.827483e-01 -7.980461e-02 2.600011e-01 -2.926461e-01 -1.725054e-01 -1.450624e-01 3.020730e-01 2.925564e-01 1.666973e-01 8.609506e-02
<VARIANCE> 25
 6.336207e+01 8.100965e+01 6.872156e+01 7.215569e+01 7.668342e+01 1.328293e+02 1.065398e+02 6.511529e+01 5.226337e+01 3.649375e+01 3.902438e+01 2.471823e+01 4.721619e+00 5.579139e+00 6.078160e+00 4.020257e+00 3.929565e+00 7.137929e+00 4.812353e+00 4.726871e+00 3.764356e+00 3.053335e+00 2.859374e+00 2.205301e+00 4.004233e+00
<GCONST> 1.140941e+02
<STATE> 4
<MEAN> 25
 -5.567451e+00 -1.865607e+00 -2.862756e+00 1.583875e+00 1.464089e-01 3.772004e+00 9.157041e-01 3.931233e+00 2.258620e+00 3.005674e-01 1.045709e+00 1.564181e+00 1.621504e-01 3.938779e-01 -2.691237e-01 4.818222e-02 1.544058e-01 2.780559e-01 -1.679526e-02 3.333948e-02 -1.584560e-03 1.347067e-02 -4.168465e-02 -1.481491e-02 -2.903881e-01
<VARIANCE> 25
 1.976392e+01 5.033722e+01 3.025412e+01 2.590195e+01 2.491125e+01 3.601450e+01 2.575592e+01 2.495117e+01 2.090804e+01 1.776455e+01 1.658681e+01 1.365020e+01 1.066683e+00 1.553248e+00 1.325993e+00 1.306378e+00 1.407106e+00 1.654239e+00 1.468074e+00 1.514697e+00 1.448198e+00 1.303296e+00 1.303371e+00 1.003724e+00 6.397268e-01
<GCONST> 8.727354e+01
<TRANSP> 5
 0.000000e+00 1.000000e+00 0.000000e+00 0.000000e+00 0.000000e+00
 0.000000e+00 5.843630e-01 4.156369e-01 0.000000e+00 0.000000e+00
 0.000000e+00 0.000000e+00 6.841387e-01 3.158613e-01 0.000000e+00
 0.000000e+00 0.000000e+00 0.000000e+00 8.504986e-01 1.495014e-01
 0.000000e+00 0.000000e+00 0.000000e+00 0.000000e+00 0.000000e+00
<ENDHMM>
~h "V"
<BEGINHMM>
<NUMSTATES> 5
<STATE> 2
<MEAN> 25
 6.030211e+00 3.854327e+00 -1.988605e-01 -9.605368e-01 -4.675447e-01 -2.950255e-01 -1.860919e+00 -2.600580e+00 -1.954264e+00 -2.102566e+00 -3.143168e+00 -1.321887e+00 -1.182717e+00 1.238919e-01 3.966995e-01 1.085168e-01 5.817271e-01 6.929580e-01 5.893986e-01 7.302648e-01 5.364421e-01 -1.286043e-01 3.762601e-01 3.325835e-01 -6.600717e-01
<VARIANCE> 25
 3.708384e+01 2.726245e+01 2.433278e+01 2.624256e+01 6.763045e+01 3.820939e+01 1.966436e+01 3.790345e+01 4.176179e+01 2.730057e+01 3.839095e+01 2.347107e+01 2.211124e+00 3.197521e+00 1.512299e+00 1.728223e+00 3.157513e+00 2.952124e+00 2.379964e+00 3.223996e+00 3.410727e+00 2.682707e+00 2.567167e+00 2.024708e+00 1.160432e+00
<GCONST> 9.883569e+01
<STATE> 3
<MEAN> 25
 -5.446925e+00 1.483873e+00 -1.284568e+00 -2.203344e-01 1.087436e+00 3.842492e+00 1.188970e+00 3.738820e+00 2.965103e+00 1.311689e+00 1.120803e-01 1.374782e+00 -1.510904e-01 -3.376005e-02 -7.577322e-03 -1.414895e-02 2.972704e-02 2.757969e-02 5.276310e-02 9.006630e-02 6.657984e-02 2.482194e-02 4.673851e-02 3.679781e-02 -9.017085e-02
<VARIANCE> 25
 2.406017e+01 1.896350e+01 1.616545e+01 1.557007e+01 2.010006e+01 1.739937e+01 1.323314e+01 1.838390e+01 1.907828e+01 1.672743e+01 1.393509e+01 9.871287e+00 6.817064e-01 8.407328e-01 7.090539e-01 7.717341e-01 1.129081e+00 1.079085e+00 1.061307e+00 1.109021e+00 1.173974e+00 1.090438e+00 1.075184e+00 8.984142e-01 2.856508e-01
<GCONST> 7.779948e+01
<STATE> 4
<MEAN> 25
 -4.552956e+00 2.609404e+00 2.576658e+00 -4.575303e+00 8.574757e+00 -2.464262e+00 2.012900e+00 2.719136e+00 -4.419045e-01 -1.289483e+00 1.056098e+00 5.908743e-01 -9.537446e-02 -1.915489e-01 3.091187e-01 -3.757869e-01 -2.077563e-02 -7.194284e-01 -1.494796e-01 -7.180437e-02 -1.861104e-01 6.389948e-02 1.264911e-01 -1.400423e-02 2.697398e-01
<VARIANCE> 25
 5.114711e+01 3.349443e+01 3.522274e+01 6.503543e+01 1.106828e+02 7.821413e+01 5.570966e+01 4.602080e+01 4.358026e+01 2.843203e+01 3.450695e+01 2.060819e+01 5.607769e+00 3.561802e+00 3.033929e+00 5.103777e+00 9.167196e+00 5.413823e+00 4.807848e+00 3.607197e+00 3.566834e+00 2.418198e+00 3.332334e+00 2.248312e+00 1.333412e+00
<GCONST> 1.086823e+02
<TRANSP> 5
 0.000000e+00 1.000000e+00 0.000000e+00 0.000000e+00 0.000000e+00
 0.000000e+00 7.166668e-01 2.833333e-01 0.000000e+00 0.000000e+00
 0.000000e+00 0.000000e+00 8.999637e-01 1.000363e-01 0.000000e+00
 0.000000e+00 0.000000e+00 0.000000e+00 6.826069e-01 3.173931e-01
 0.000000e+00 0.000000e+00 0.000000e+00 0.000000e+00 0.000000e+00
<ENDHMM>
~h "W"
<BEGINHMM>
<NUMSTATES> 5
<STATE> 2
<MEAN> 25
 -1.899337e+00 1.106077e+00 -3.594291e+00 -6.226809e-01 9.353471e-01 2.230778e+00 1.381512e+00 2.991726e+00 3.111413e-01 -1.185744e+00 6.210904e-01 1.483988e-01 4.304615e-01 9.001108e-01 2.743652e-01 -2.519765e-02 -2.824815e-01 -2.774863e-01 -4.786078e-01 -1.306904e-01 7.455806e-02 1.720682e-02 -2.313285e-02 -7.765917e-02 -1.016613e-01
<VARIANCE> 25
 4.019965e+01 2.934394e+01 3.463832e+01 4.178120e+01 4.627873e+01 3.912532e+01 2.652074e+01 3.058995e+01 2.993744e+01 1.946045e+01 2.041354e+01 2.019752e+01 2.677378e+00 3.316454e+00 2.500545e+00 3.079425e+00 3.415811e+00 3.651450e+00 3.023860e+00 3.399539e+00 2.583549e+00 1.786598e+00 2.143564e+00 1.865390e+00 1.385505e+00
<GCONST> 9.920677e+01
<STATE> 3
<MEAN> 25
 7.136397e+00 1.143885e+01 3.251338e+00 2.532439e-01 -3.712309e+00 -5.597872e+00 -6.492508e+00 -2.873255e+00 -8.932773e-01 -3.378800e-01 7.157719e-01 -4.656017e-01 7.419282e-01 6.889755e-01 2.750875e-01 -3.770999e-01 -9.176497e-01 -8.277547e-01 -3.915237e-01 7.326464e-02 4.001769e-01 3.125528e-01 -8.290683e-02 -2.186524e-01 3.388679e-01
<VARIANCE> 25
 1.465236e+01 1.802149e+01 1.272240e+01 2.793367e+01 2.634259e+01 2.879281e+01 3.374548e+01 2.407062e+01 1.911715e+01 1.584689e+01 1.703003e+01 2.080410e+01 1.792657e+00 1.776893e+00 1.406511e+00 2.141275e+00 2.495159e+00 2.554711e+00 2.534773e+00 2.956095e+00 2.573307e+00 1.589785e+00 1.728728e+00 2.058841e+00 9.128939e-01
<GCONST> 9.102566e+01
<STATE> 4
<MEAN> 25
 1.029069e+01 9.484297e+00 5.175956e-01 -6.055526e+00 -7.902540e+00 -6.868867e+00 -2.441875e+00 2.108454e+00 6.324416e-01 -1.449585e+00 -4.461256e+00 -5.557111e+00 5.540941e-01 -1.260505e+00 -6.128332e-01 -5.656907e-01 4.465548e-01 5.180377e-01 7.136809e-01 -1.748335e-01 -9.643360e-01 -5.874000e-01 -1.076943e+00 -3.462587e-01 1.084463e+00
<VARIANCE> 25
 1.873572e+01 2.425608e+01 1.714843e+01 2.471529e+01 3.502697e+01 3.622994e+01 4.743781e+01 2.837185e+01 3.947301e+01 2.810404e+01 3.094155e+01 2.655555e+01 1.039746e+00 2.126376e+00 1.654214e+00 3.740093e+00 4.182465e+00 3.241099e+00 3.731419e+00 5.131408e+00 5.395132e+00 2.808621e+00 3.807885e+00 3.779420e+00 1.071271e+00
<GCONST> 9.981752e+01
<TRANSP> 5
 0.000000e+00 1.000000e+00 0.000000e+00 0.000000e+00 0.000000e+00
 0.000000e+00 7.689897e-01 2.310102e-01 0.000000e+00 0.000000e+00
 0.000000e+00 0.000000e+00 7.449389e-01 2.550611e-01 0.000000e+00
 0.000000e+00 0.000000e+00 0.000000e+00 6.366392e-01 3.633608e-01
 0.000000e+00 0.000000e+00 0.000000e+00 0.000000e+00 0.000000e+00
<ENDHMM>
~h "Y"
<BEGINHMM>
<NUMSTATES> 5
<STATE> 2
<MEAN> 25
 1.388238e+00 -3.113090e+00 5.382277e+00 1.005150e+01 3.971418e+00 -5.117140e+00 -5.236758e+00 -1.601928e+00 -9.896489e-01 -3.140095e+00 -2.564304e+00 -2.969172e+00 7.829863e-01 -3.815262e-01 9.023283e-01 2.082836e+00 7.106203e-01 -1.807210e+00 -1.336681e+00 -9.438474e-02 -3.443363e-01 3.342357e-02 -8.002906e-01 -1.141302e+00 6.436725e-01
<VARIANCE> 25
 4.154622e+01 4.250425e+01 7.665250e+01 4.564881e+01 4.260610e+01 6.681821e+01 5.371516e+01 5.849960e+01 3.209425e+01 2.868489e+01 3.263866e+01 2.459272e+01 3.576061e+00 4.955803e+00 4.770688e+00 4.221094e+00 3.428794e+00 4.813936e+00 5.518308e+00 4.265865e+00 4.092192e+00 3.197718e+00 2.748891e+00 2.722062e+00 2.532451e+00
<GCONST> 1.084564e+02
<STATE> 3
<MEAN> 25
 4.967062e+00 -4.143183e+00 6.635419e+00 1.636033e+01 4.391514e+00 -1.143609e+01 -8.290104e+00 -5.008625e+00 -4.943339e+00 3.427079e-01 -4.139342e+00 -1.036077e+01 5.869866e-01 -9.288102e-02 -1.069141e+00 -6.123232e-01 6.092622e-01 4.089515e-02 -6.190671e-01 -1.192491e+00 -3.203639e-01 1.245074e+00 6.634879e-01 -7.915616e-01 5.292363e-01
<VARIANCE> 25
 1.409103e+01 2.411868e+01 4.800810e+01 3.482277e+01 4.119432e+01 4.368712e+01 4.310996e+01 4.915142e+01 2.407726e+01 2.923106e+01 2.657203e+01 3.263044e+01 8.064417e-01 1.034479e+00 2.958140e+00 2.561438e+00 1.393528e+00 1.666387e+00 2.271583e+00 2.747384e+00 2.260206e+00 2.710191e+00 2.403630e+00 1.993069e+00 3.653309e-01
<GCONST> 9.456242e+01
<STATE> 4
<MEAN> 25
 7.055235e+00 -9.838691e-01 4.235718e+00 1.398534e+01 1.352833e+01 -8.154533e+00 -1.695284e+01 -3.963329e+00 -2.058451e+00 2.888179e+00 -3.038194e-01 -6.729575e+00 3.522110e-01 3.138339e-01 -5.269341e-01 -9.362960e-01 -4.813045e-02 6.204104e-01 3.429585e-01 -9.018713e-01 -5.380853e-01 3.439409e-01 4.364048e-01 4.976992e-01 1.751914e-01
<VARIANCE> 25
 1.524012e+01 2.755665e+01 3.032625e+01 5.197783e+01 6.514450e+01 4.943336e+01 9.441569e+01 8.576050e+01 4.757609e+01 4.382421e+01 3.324188e+01 3.885794e+01 2.692100e-01 1.201688e+00 1.218981e+00 2.726126e+00 2.500085e+00 2.158788e+00 3.341585e+00 2.241869e+00 3.150741e+00 2.981127e+00 2.351660e+00 2.341967e+00 6.245233e-01
<GCONST> 9.847993e+01
<TRANSP> 5
 0.000000e+00 1.000000e+00 0.000000e+00 0.000000e+00 0.000000e+00
 0.000000e+00 7.291847e-01 2.708153e-01 0.000000e+00 0.000000e+00
 0.000000e+00 0.000000e+00 6.702946e-01 3.297054e-01 0.000000e+00
 0.000000e+00 0.000000e+00 0.000000e+00 7.642916e-01 2.357084e-01
 0.000000e+00 0.000000e+00 0.000000e+00 0.000000e+00 0.000000e+00
<ENDHMM>
~h "Z"
<BEGINHMM>
<NUMSTATES> 5
<STATE> 2
<MEAN> 25
 1.101596e+00 -2.388082e+00 1.110062e+01 4.179487e+00 -3.240629e-01 2.222612e-01 2.422935e+00 -4.928770e+00 -6.193944e+00 -2.315304e+00 -1.824965e+00 -2.410677e-01 -3.279637e+00 -2.085916e+00 3.669513e+00 -1.078331e+00 -8.866403e-01 4.102112e-01 2.225431e+00 1.004252e+00 5.307129e-01 -5.667333e-03 1.226558e+00 4.178568e-01 5.621205e-01
<VARIANCE> 25
 3.602840e+01 5.617237e+01 7.731451e+01 8.164595e+01 5.768132e+01 4.909600e+01 9.087446e+01 7.028662e+01 5.623176e+01 4.708768e+01 4.013910e+01 2.809257e+01 2.333201e+00 6.798382e+00 3.204616e+00 5.974398e+00 7.033229e+00 6.598473e+00 8.059634e+00 5.691945e+00 6.564623e+00 4.898046e+00 3.228699e+00 2.804392e+00 9.476290e-01
<GCONST> 1.129295e+02
<STATE> 3
<MEAN> 25
 -8.357451e+00 -1.268126e+01 1.430925e+01 1.405502e-01 -4.040177e+00 9.967955e-01 1.858887e+00 1.517063e+00 -1.223275e+00 -3.190497e+00 3.451859e+00 1.024424e+00 -1.129269e+00 -7.941044e-02 -6.349702e-01 -9.271470e-01 4.505822e-01 -2.372569e-01 4.150884e-01 1.997119e-01 6.337090e-01 1.367614e-01 1.455073e-01 2.523884e-01 4.873336e-02
<VARIANCE> 25
 2.666358e+01 1.667889e+02 6.358241e+01 8.001849e+01 1.204766e+02 3.740844e+01 7.989137e+01 4.902853e+01 4.893567e+01 3.080808e+01 2.392517e+01 1.993638e+01 5.482524e+00 5.806468e+00 5.590803e+00 3.325493e+00 3.604068e+00 2.310779e+00 3.271026e+00 4.105561e+00 2.679021e+00 2.327467e+00 2.586266e+00 1.595096e+00 1.179884e+00
<GCONST> 1.075669e+02
<STATE> 4
<MEAN> 25
 -1.123911e+01 -5.253565e+00 1.416009e+01 -4.667788e+00 1.163465e+00 -1.567557e+00 8.909610e+00 -3.600742e+00 -2.094046e+00 -6.568871e-01 1.289401e+00 1.705185e-01 1.039976e+00 2.481165e-01 -1.400019e+00 5.446749e-01 -3.064611e-01 7.706444e-02 -8.537452e-01 1.390853e-01 -1.008594e-01 4.992457e-03 -1.749203e-01 -7.836867e-02 -6.614914e-01
<VARIANCE> 25
 5.394257e+01 4.160777e+01 9.782500e+01 5.606643e+01 4.522002e+01 8.115211e+01 1.421105e+02 8.077867e+01 7.121573e+01 4.316742e+01 3.125774e+01 2.507347e+01 4.781137e+00 3.277971e+00 3.473853e+00 2.742752e+00 2.885062e+00 3.930528e+00 6.040957e+00 3.842947e+00 4.219434e+00 3.042703e+00 2.750327e+00 2.000285e+00 1.297676e+00
<GCONST> 1.096212e+02
<TRANSP> 5
 0.000000e+00 1.000000e+00 0.000000e+00 0.000000e+00 0.000000e+00
 0.000000e+00 6.856560e-01 3.143440e-01 0.000000e+00 0.000000e+00
 0.000000e+00 0.000000e+00 6.761934e-01 3.238066e-01 0.000000e+00
 0.000000e+00 0.000000e+00 0.000000e+00 8.238564e-01 1.761436e-01
 0.000000e+00 0.000000e+00 0.000000e+00 0.000000e+00 0.000000e+00
<ENDHMM>
~h "AA"
<BEGINHMM>
<NUMSTATES> 5
<STATE> 2
<MEAN> 25
 -2.066254e+00 7.690716e-01 -4.483582e+00 2.451168e-01 -2.407608e-01 3.367743e+00 7.245826e-01 4.474597e+00 1.631274e+00 -2.940013e-01 5.964941e-02 9.377210e-01 2.125983e-01 1.180954e-01 -9.738426e-02 -4.065457e-02 -1.665305e-01 -6.163041e-02 8.969547e-02 1.043728e-01 9.557585e-02 -4.333304e-02 -1.619328e-01 -4.350917e-02 5.026339e-02
<VARIANCE> 25
 3.614093e+01 3.794390e+01 2.265548e+01 2.603330e+01 3.270934e+01 3.354795e+01 2.269764e+01 2.747397e+01 2.393872e+01 1.772749e+01 1.878525e+01 1.490790e+01 9.559190e-01 1.420910e+00 1.169052e+00 1.441392e+00 1.710055e+00 1.840563e+00 1.620007e+00 1.940909e+00 1.501043e+00 1.345679e+00 1.497593e+00 1.206373e+00 4.935412e-01
<GCONST> 8.838054e+01
<STATE> 3
<MEAN> 25
 7.556137e+00 -1.438725e-02 -2.905172e+00 -4.654002e+00 -9.043276e+00 -4.640542e+00 2.016486e+00 5.111287e+00 3.156607e+00 -2.691827e-01 -2.678297e+00 -2.203997e+00 1.548534e+00 7.427286e-02 -1.051098e-01 -7.801347e-01 -1.164717e+00 -5.723201e-01 4.641837e-01 -2.643566e-01 2.770586e-01 3.230299e-01 -9.319322e-01 -7.040296e-01 1.518666e+00
<VARIANCE> 25
 4.186556e+01 7.803017e+01 4.460844e+01 5.262767e+01 6.802837e+01 4.980480e+01 6.934341e+01 6.878821e+01 6.320528e+01 4.575637e+01 4.241874e+01 3.212701e+01 3.208456e+00 6.152135e+00 3.846893e+00 4.124167e+00 4.821289e+00 5.353145e+00 3.906975e+00 4.658073e+00 3.850018e+00 3.556898e+00 3.884140e+00 3.025779e+00 3.181623e+00
<GCONST> 1.117220e+02
<STATE> 4
<MEAN> 25
 1.098990e+01 6.726218e-01 -3.107308e+00 -7.306628e+00 -1.187130e+01 -4.136725e+00 4.713233e+00 4.192812e+00 3.891001e+00 -4.567395e-01 -6.109185e+00 -2.936857e+00 -3.023659e-01 1.245427e-01 7.327075e-02 3.729642e-01 7.636067e-01 4.417494e-01 -3.597409e-02 -3.831664e-01 -5.520988e-01 -1.882244e-01 2.191395e-01 1.947467e-01 -2.949957e-01
<VARIANCE> 25
 1.697640e+01 3.307787e+01 3.353682e+01 3.280839e+01 4.433816e+01 3.728992e+01 6.005438e+01 5.271550e+01 4.544754e+01 5.366770e+01 3.449018e+01 2.497812e+01 5.816521e-01 1.477782e+00 1.377712e+00 1.675131e+00 2.511410e+00 2.194690e+00 2.434592e+00 2.698517e+00 2.396481e+00 2.030221e+00 1.775400e+00 1.634801e+00 7.926670e-01
<GCONST> 9.599940e+01
<TRANSP> 5
 0.000000e+00 1.000000e+00 0.000000e+00 0.000000e+00 0.000000e+00
 0.000000e+00 8.188758e-01 1.811242e-01 0.000000e+00 0.000000e+00
 0.000000e+00 0.000000e+00 7.184375e-01 2.815626e-01 0.000000e+00
 0.000000e+00 0.000000e+00 0.000000e+00 8.438590e-01 1.561410e-01
 0.000000e+00 0.000000e+00 0.000000e+00 0.000000e+00 0.000000e+00
<ENDHMM>
~h "AE"
<BEGINHMM>
<NUMSTATES> 5
<STATE> 2
<MEAN> 25
 2.277818e+00 -4.642175e+00 -1.378911e+00 -9.604719e-01 -1.307053e+00 -5.724227e-01 1.235469e+00 -3.053943e+00 2.088218e+00 3.347030e+00 -1.511275e-01 -4.181579e-01 5.742195e-01 -3.449021e-01 -3.577567e-01 -3.808910e-01 -2.720181e-01 -1.023420e-01 3.499321e-01 -2.352616e-02 2.332038e-01 2.375664e-01 -1.498407e-01 -1.648706e-01 6.862218e-01
<VARIANCE> 25
 7.813179e+01 7.125745e+01 6.402855e+01 4.943462e+01 5.726973e+01 5.261745e+01 8.532210e+01 6.758837e+01 6.267764e+01 6.497977e+01 4.321799e+01 2.930148e+01 2.976716e+00 4.787036e+00 3.795352e+00 3.736399e+00 4.140753e+00 4.780671e+00 4.303023e+00 5.569148e+00 4.677613e+00 4.286271e+00 3.145365e+00 2.202955e+00 2.894216e+00
<GCONST> 1.122256e+02
<STATE> 3
<MEAN> 25
 1.038590e+01 -5.413770e+00 -8.012539e+00 -3.605709e+00 -3.686762e+00 -2.169332e+00 5.357839e+00 -2.183351e+00 2.052722e+00 7.638682e-01 -2.327615e+00 -6.220044e-01 6.323095e-02 1.012323e-01 3.587537e-02 -9.845245e-02 -1.618896e-01 1.788311e-03 1.597902e-01 -1.681243e-01 -3.700583e-02 3.314780e-02 -1.984097e-01 1.140875e-01 -1.690491e-02
<VARIANCE> 25
 1.628346e+01 3.714962e+01 2.906378e+01 3.055236e+01 3.067523e+01 2.463204e+01 6.578683e+01 4.104205e+01 3.730804e+01 4.881942e+01 1.711912e+01 1.710507e+01 4.119892e-01 1.007358e+00 1.091991e+00 1.094303e+00 1.342048e+00 1.344907e+00 1.641837e+00 1.667164e+00 1.311115e+00 1.204289e+00 9.532366e-01 1.001099e+00 3.832227e-01
<GCONST> 8.720340e+01
<STATE> 4
<MEAN> 25
 7.984076e+00 -1.739849e+00 -4.553308e+00 -4.876527e+00 -2.694477e+00 8.327840e-01 2.240973e+00 -3.163517e+00 2.228370e+00 4.690392e+00 -1.117540e+00 -1.229603e+00 -6.489525e-01 7.751498e-01 4.382298e-01 5.129906e-01 6.914710e-01 5.444610e-01 -3.491702e-01 3.020634e-01 -3.867971e-01 -5.249506e-01 3.652010e-01 1.748839e-01 -1.023404e+00
<VARIANCE> 25
 2.560141e+01 3.343887e+01 3.188733e+01 4.675677e+01 4.515932e+01 5.099877e+01 5.443124e+01 5.333269e+01 4.563647e+01 5.839910e+01 2.840684e+01 3.463664e+01 1.196588e+00 1.952567e+00 2.527819e+00 2.685261e+00 2.941060e+00 3.635738e+00 3.216407e+00 3.524605e+00 2.853572e+00 3.064017e+00 2.104947e+00 1.929314e+00 9.548602e-01
<GCONST> 1.015864e+02
<TRANSP> 5
 0.000000e+00 1.000000e+00 0.000000e+00 0.000000e+00 0.000000e+00
 0.000000e+00 8.308312e-01 1.691688e-01 0.000000e+00 0.000000e+00
 0.000000e+00 0.000000e+00 7.982973e-01 2.017027e-01 0.000000e+00
 0.000000e+00 0.000000e+00 0.000000e+00 7.537988e-01 2.462012e-01
 0.000000e+00 0.000000e+00 0.000000e+00 0.000000e+00 0.000000e+00
<ENDHMM>
~h "AH"
<BEGINHMM>
<NUMSTATES> 5
<STATE> 2
<MEAN> 25
 4.466096e+00 -1.834452e+00 9.518343e-01 5.506774e-01 -2.053062e+00 -3.517412e+00 -1.556674e+00 -3.131610e+00 -2.793649e+00 -1.902527e+00 -1.224079e+00 -1.327961e-01 1.304101e+00 6.578186e-02 -5.139098e-01 -1.829855e-02 -5.216333e-01 -6.964039e-01 -1.560087e-01 -4.551166e-01 -3.662776e-01 1.529654e-01 -4.129978e-01 -2.607546e-01 7.761323e-01
<VARIANCE> 25
 5.113620e+01 7.183914e+01 5.223200e+01 6.837830e+01 6.938367e+01 6.069626e+01 5.267142e+01 5.792900e+01 5.131783e+01 4.200142e+01 3.511385e+01 3.334643e+01 4.473519e+00 6.975707e+00 4.610673e+00 4.697519e+00 6.365612e+00 5.578745e+00 4.897820e+00 4.524659e+00 4.915820e+00 4.030354e+00 3.791682e+00 3.036351e+00 2.943015e+00
<GCONST> 1.131402e+02
<STATE> 3
<MEAN> 25
 8.167840e+00 -1.651587e-01 -2.098091e+00 7.626684e-01 -1.684402e+00 -3.856787e+00 -1.712605e+00 -4.029585e+00 -3.425648e+00 -1.161184e+00 -1.612589e+00 -9.086886e-01 -1.051348e-01 3.327115e-01 -8.260841e-03 4.697659e-02 2.134800e-01 3.221847e-01 7.865601e-02 1.876848e-01 1.646688e-01 -1.922009e-02 -4.555972e-02 -6.652224e-02 -2.965756e-01
<VARIANCE> 25
 2.677126e+01 4.412621e+01 3.299712e+01 4.798642e+01 5.922101e+01 4.545003e+01 5.463754e+01 5.370876e+01 4.313306e+01 3.866540e+01 3.319262e+01 2.483491e+01 9.183795e-01 1.863233e+00 1.525307e+00 2.070500e+00 2.318433e+00 2.270805e+00 2.234993e+00 2.290106e+00 2.198347e+00 1.827879e+00 1.630718e+00 1.438255e+00 7.727068e-01
<GCONST> 9.737112e+01
<STATE> 4
<MEAN> 25
 5.827590e+00 1.180048e+00 2.725289e-01 -1.844762e+00 -3.235978e+00 -1.196926e+00 -1.179849e+00 -2.104955e+00 7.667406e-01 5.917602e-01 -3.056023e+00 -1.053142e+00 -5.607780e-01 4.431321e-01 3.410655e-01 1.409591e-01 5.025359e-01 7.157460e-01 2.282001e-01 4.696455e-01 2.331163e-01 -2.772457e-02 2.321465e-01 1.034470e-01 -6.413318e-01
<VARIANCE> 25
 4.296820e+01 3.242567e+01 3.361868e+01 5.611226e+01 8.808963e+01 5.504657e+01 6.244053e+01 5.848665e+01 6.596085e+01 5.451889e+01 4.584012e+01 3.601451e+01 2.484879e+00 3.036144e+00 2.517793e+00 2.929378e+00 4.028850e+00 4.346519e+00 3.620959e+00 3.620839e+00 3.786356e+00 3.336636e+00 2.723406e+00 2.411160e+00 2.305383e+00
<GCONST> 1.077239e+02
<TRANSP> 5
 0.000000e+00 1.000000e+00 0.000000e+00 0.000000e+00 0.000000e+00
 0.000000e+00 6.493602e-01 3.506398e-01 0.000000e+00 0.000000e+00
 0.000000e+00 0.000000e+00 7.051328e-01 2.948672e-01 0.000000e+00
 0.000000e+00 0.000000e+00 0.000000e+00 6.223480e-01 3.776521e-01
 0.000000e+00 0.000000e+00 0.000000e+00 0.000000e+00 0.000000e+00
<ENDHMM>
~h "AO"
<BEGINHMM>
<NUMSTATES> 5
<STATE> 2
<MEAN> 25
 8.470417e+00 4.049408e+00 1.130682e-01 -5.658377e+00 -6.007832e+00 -6.288217e+00 -2.252172e+00 1.141348e+00 9.792073e-01 4.636272e-01 -3.081729e+00 -3.366815e+00 1.461520e+00 1.021022e+00 -2.260716e-01 -9.278284e-01 -1.534584e+00 -7.333521e-01 -2.332136e-03 -1.315663e-01 2.187282e-01 6.203300e-01 -3.702756e-01 -7.269008e-01 5.800031e-01
<VARIANCE> 25
 3.259355e+01 5.174488e+01 2.688668e+01 4.466074e+01 7.939184e+01 6.045387e+01 5.962986e+01 5.875832e+01 5.912803e+01 5.514077e+01 3.661711e+01 3.157106e+01 3.236558e+00 4.659381e+00 3.506207e+00 3.393147e+00 5.032535e+00 5.708364e+00 4.982308e+00 4.510990e+00 4.547719e+00 3.256783e+00 3.237717e+00 2.680688e+00 1.705689e+00
<GCONST> 1.092985e+02
<STATE> 3
<MEAN> 25
 1.120896e+01 7.579515e+00 -1.387473e+00 -8.386465e+00 -1.013119e+01 -5.692626e+00 -1.282261e+00 2.632889e-01 9.378712e-01 2.501014e+00 -1.725903e+00 -5.393826e+00 9.636167e-02 -1.731987e-01 -7.024269e-01 -5.552351e-01 1.454598e-01 9.420778e-01 9.662017e-01 -1.330144e-01 -8.554016e-01 -3.849767e-01 1.378348e-01 2.669268e-01 4.848324e-02
<VARIANCE> 25
 2.125720e+01 3.712688e+01 1.807627e+01 2.660094e+01 4.065239e+01 4.498201e+01 5.367102e+01 3.735174e+01 5.107994e+01 3.906626e+01 3.038925e+01 3.034569e+01 2.035520e-01 5.959771e-01 8.619893e-01 1.149253e+00 1.444341e+00 1.820530e+00 1.815151e+00 1.933244e+00 2.288567e+00 2.326949e+00 1.469927e+00 1.507025e+00 1.853665e-01
<GCONST> 8.921925e+01
<STATE> 4
<MEAN> 25
 5.223737e+00 3.705055e+00 -4.649269e+00 -6.449532e+00 -5.401485e+00 8.757005e-01 3.485714e+00 3.396005e+00 3.523756e-01 -1.135957e+00 -1.397727e+00 -2.116782e-01 -5.674753e-01 -1.853968e-01 -1.027461e-01 4.419936e-01 7.663190e-01 5.664383e-01 5.302704e-02 -6.459701e-02 -3.134890e-01 -3.086336e-01 2.626860e-01 4.076205e-01 -4.518883e-01
<VARIANCE> 25
 5.449383e+01 3.280471e+01 1.980208e+01 3.961436e+01 4.716727e+01 3.974471e+01 3.523659e+01 4.874147e+01 5.764550e+01 3.578758e+01 2.417684e+01 2.283439e+01 7.663898e-01 1.125396e+00 1.011072e+00 1.726145e+00 1.862184e+00 2.128520e+00 1.869357e+00 2.438684e+00 2.393910e+00 2.100925e+00 1.718579e+00 1.650303e+00 7.326661e-01
<GCONST> 9.468082e+01
<TRANSP> 5
 0.000000e+00 1.000000e+00 0.000000e+00 0.000000e+00 0.000000e+00
 0.000000e+00 6.659716e-01 3.340284e-01 0.000000e+00 0.000000e+00
 0.000000e+00 0.000000e+00 7.440556e-01 2.559443e-01 0.000000e+00
 0.000000e+00 0.000000e+00 0.000000e+00 7.269783e-01 2.730217e-01
 0.000000e+00 0.000000e+00 0.000000e+00 0.000000e+00 0.000000e+00
<ENDHMM>
~h "AW"
<BEGINHMM>
<NUMSTATES> 5
<STATE> 2
<MEAN> 25
 7.075786e+00 -3.095730e+00 -7.358154e+00 -6.871193e+00 -3.132833e+00 -4.088364e-02 4.609161e+00 -2.949970e+00 2.832358e+00 6.093207e+00 -4.212235e+00 -7.774241e-01 1.148247e+00 9.788825e-01 3.566478e-01 -6.263521e-01 -7.846622e-01 -7.575608e-01 3.923263e-01 -7.737845e-01 -6.724831e-01 2.366438e-01 -5.649493e-01 -2.515620e-01 7.810365e-01
<VARIANCE> 25
 5.003134e+01 4.086338e+01 3.459831e+01 3.711586e+01 4.146976e+01 3.885910e+01 4.529668e+01 4.358204e+01 5.722754e+01 1.056949e+02 3.932995e+01 2.395057e+01 2.677099e+00 3.993269e+00 3.985565e+00 3.462664e+00 4.028389e+00 4.840507e+00 2.352804e+00 5.319406e+00 4.664195e+00 4.040516e+00 3.427467e+00 2.554436e+00 1.702099e+00
<GCONST> 1.073852e+02
<STATE> 3
<MEAN> 25
 1.208319e+01 1.072763e+00 -6.065260e+00 -6.557607e+00 -7.701106e+00 -3.451705e+00 3.719110e+00 -1.172660e-02 3.840989e-01 1.899507e+00 -4.069406e+00 -2.245455e+00 -1.751195e-01 6.675854e-01 3.863278e-01 3.915994e-01 -1.216886e-01 9.804355e-02 -3.862787e-01 4.983743e-01 -8.227070e-02 -6.675041e-01 1.438256e-01 5.005841e-02 -6.321312e-01
<VARIANCE> 25
 1.853084e+01 4.046551e+01 1.800282e+01 1.295020e+01 3.346883e+01 3.737711e+01 2.619279e+01 3.679931e+01 2.288807e+01 6.497807e+01 2.084415e+01 2.256049e+01 5.814574e-01 1.071027e+00 1.245435e+00 9.793360e-01 1.670462e+00 2.155155e+00 1.782265e+00 2.528755e+00 1.896226e+00 2.091419e+00 1.539437e+00 1.959414e+00 6.103184e-01
<GCONST> 8.997861e+01
<STATE> 4
<MEAN> 25
 -2.078062e+00 1.112486e-01 -2.617548e+00 2.253982e+00 -1.903886e+00 3.177889e+00 1.510777e+00 3.617275e+00 3.070124e+00 -6.202886e-01 -1.057238e+00 1.961662e-01 -4.331595e-01 -2.088347e-01 1.374477e-01 3.005577e-01 3.571375e-01 2.807355e-01 6.408898e-02 9.822214e-02 -2.606971e-02 -1.083573e-01 1.411156e-01 2.350481e-01 -2.500301e-01
<VARIANCE> 25
 5.484667e+01 4.609584e+01 3.162715e+01 1.939242e+01 3.142136e+01 3.552476e+01 1.572196e+01 2.172242e+01 3.027482e+01 2.001473e+01 2.131495e+01 1.841249e+01 7.325822e-01 1.073513e+00 1.022062e+00 1.087474e+00 2.284354e+00 2.791211e+00 1.183717e+00 2.018908e+00 2.143908e+00 1.569058e+00 1.504656e+00 1.136182e+00 2.763389e-01
<GCONST> 8.848385e+01
<TRANSP> 5
 0.000000e+00 1.000000e+00 0.000000e+00 0.000000e+00 0.000000e+00
 0.000000e+00 8.000297e-01 1.999703e-01 0.000000e+00 0.000000e+00
 0.000000e+00 0.000000e+00 8.849455e-01 1.150545e-01 0.000000e+00
 0.000000e+00 0.000000e+00 0.000000e+00 8.217096e-01 1.782904e-01
 0.000000e+00 0.000000e+00 0.000000e+00 0.000000e+00 0.000000e+00
<ENDHMM>
~h "AY"
<BEGINHMM>
<NUMSTATES> 5
<STATE> 2
<MEAN> 25
 1.012458e+01 -7.022128e-01 -4.086954e+00 -6.193421e+00 -9.067263e+00 -3.526794e+00 2.750484e+00 3.537859e-01 4.247438e+00 1.797481e+00 -3.515764e+00 -1.595346e+00 1.050788e+00 -9.479960e-01 -9.593915e-01 -6.798472e-01 -7.313741e-01 1.497579e-01 4.731910e-01 -1.381410e-01 5.657544e-01 6.325910e-01 -4.301320e-01 -4.001386e-01 1.338904e+00
<VARIANCE> 25
 3.111787e+01 2.740967e+01 3.257774e+01 3.056853e+01 5.877283e+01 3.134367e+01 3.664174e+01 3.963703e+01 5.645168e+01 6.178631e+01 4.323552e+01 2.806808e+01 3.370144e+00 3.255399e+00 3.375046e+00 3.358932e+00 5.024147e+00 5.135222e+00 4.267977e+00 3.945590e+00 4.745940e+00 3.740091e+00 4.401415e+00 2.782101e+00 2.914357e+00
<GCONST> 1.070058e+02
<STATE> 3
<MEAN> 25
 1.160684e+01 -3.182041e+00 -6.380814e+00 -5.041096e+00 -6.693416e+00 -2.197798e+00 1.593684e+00 -3.256572e+00 2.180228e+00 4.442460e+00 -2.594677e+00 -2.787864e+00 -1.484761e-01 -3.137002e-01 7.080520e-02 9.993029e-01 1.022957e+00 -2.164942e-01 -9.132887e-01 -9.944264e-01 -4.276765e-01 4.308370e-01 5.735036e-01 1.487527e-01 8.742083e-03
<VARIANCE> 25
 1.585956e+01 2.530588e+01 2.292890e+01 2.782257e+01 4.163979e+01 3.719006e+01 4.507318e+01 3.894124e+01 3.898250e+01 7.078583e+01 2.587699e+01 2.359458e+01 3.009805e-01 7.335978e-01 8.471413e-01 1.556175e+00 1.428104e+00 2.022928e+00 1.951368e+00 1.680930e+00 1.450034e+00 1.793961e+00 1.383557e+00 1.365175e+00 2.147045e-01
<GCONST> 8.862066e+01
<STATE> 4
<MEAN> 25
 7.731700e+00 -1.628662e+00 -1.581439e+00 4.571286e+00 2.762426e+00 -5.180079e+00 -7.893258e+00 -7.633583e+00 -8.898997e-02 4.774354e+00 -1.062828e+00 -2.648740e+00 -5.216750e-01 4.996752e-01 5.556186e-01 6.000287e-01 7.745906e-01 1.811519e-01 -2.223085e-01 1.108082e-01 -2.646328e-01 -4.125751e-01 -3.113676e-02 -8.471791e-02 -6.257851e-01
<VARIANCE> 25
 2.069950e+01 2.613009e+01 2.682023e+01 2.734976e+01 3.151534e+01 4.961487e+01 4.489463e+01 4.549617e+01 4.372105e+01 3.477872e+01 2.495614e+01 1.911321e+01 5.788518e-01 1.119398e+00 1.571531e+00 1.618860e+00 1.933022e+00 3.194322e+00 2.907232e+00 2.184731e+00 2.071903e+00 1.758392e+00 1.985777e+00 1.496553e+00 4.706400e-01
<GCONST> 9.310644e+01
<TRANSP> 5
 0.000000e+00 1.000000e+00 0.000000e+00 0.000000e+00 0.000000e+00
 0.000000e+00 6.798213e-01 3.201787e-01 0.000000e+00 0.000000e+00
 0.000000e+00 0.000000e+00 8.233157e-01 1.766843e-01 0.000000e+00
 0.000000e+00 0.000000e+00 0.000000e+00 8.382977e-01 1.617023e-01
 0.000000e+00 0.000000e+00 0.000000e+00 0.000000e+00 0.000000e+00
<ENDHMM>
~h "CH"
<BEGINHMM>
<NUMSTATES> 5
<STATE> 2
<MEAN> 25
 -1.988889e+00 -2.999780e+00 -8.670652e-02 4.466684e+00 2.399323e+00 -5.813408e-01 -2.687736e+00 1.509319e+00 3.719232e+00 -2.182479e+00 -2.150163e+00 1.328293e+00 -1.411059e+00 -3.893217e+00 8.704630e-01 5.593257e-01 -9.947685e-01 -3.817149e-01 -5.736706e-01 5.273364e-01 1.791757e+00 -1.327221e-01 2.437922e-01 5.873512e-01 1.237667e+00
<VARIANCE> 25
 2.018212e+01 1.038996e+02 4.739377e+01 5.044180e+01 3.180624e+01 4.580995e+01 3.740478e+01 2.661351e+01 3.838505e+01 2.649120e+01 2.365802e+01 1.468304e+01 2.858198e+00 1.194021e+01 6.264938e+00 3.988456e+00 4.468096e+00 5.480827e+00 4.251885e+00 4.006393e+00 4.152888e+00 3.515500e+00 2.295778e+00 1.978168e+00 5.688418e+00
<GCONST> 1.070513e+02
<STATE> 3
<MEAN> 25
 -1.121338e+01 -1.992120e+01 1.218653e+01 4.598642e+00 1.548843e-01 -5.116121e+00 -3.493486e+00 4.773175e+00 8.057317e+00 -3.957362e+00 1.705145e+00 1.586317e+00 -1.065679e+00 -1.513996e+00 1.144232e+00 7.099946e-02 5.017375e-01 -1.827577e-02 1.196965e-01 -1.922370e-01 5.409048e-01 5.763602e-01 1.529567e-01 -6.494666e-02 8.947893e-01
<VARIANCE> 25
 2.397360e+01 5.481384e+01 4.383361e+01 3.013325e+01 5.201404e+01 3.653215e+01 6.496428e+01 4.118529e+01 3.740348e+01 3.040666e+01 2.702093e+01 1.517335e+01 3.319940e+00 4.130816e+00 6.210279e+00 1.812675e+00 2.528354e+00 2.284012e+00 2.865118e+00 2.572250e+00 1.482385e+00 1.760515e+00 1.582374e+00 1.084405e+00 2.383027e+00
<GCONST> 9.996595e+01
<STATE> 4
<MEAN> 25
 -5.127454e+00 -1.788690e+01 2.843466e+00 5.757898e+00 1.019573e+00 -1.773961e+00 -6.098181e+00 7.178660e-01 8.385332e+00 -7.009867e-01 -1.718418e+00 2.739581e+00 1.468927e+00 2.364485e+00 -1.268520e+00 -3.442313e-01 4.068314e-01 2.757776e-01 -1.119959e-01 -3.886847e-01 -1.164211e+00 1.180124e-01 -5.944973e-02 -6.319400e-02 -8.984241e-01
<VARIANCE> 25
 2.903600e+01 1.039349e+02 6.075297e+01 3.179578e+01 4.239672e+01 3.874582e+01 3.662068e+01 6.367661e+01 3.096089e+01 2.775673e+01 2.354104e+01 1.839140e+01 2.505363e+00 5.431056e+00 2.315934e+00 2.169364e+00 2.490373e+00 2.510793e+00 3.029658e+00 3.193547e+00 2.752597e+00 1.811311e+00 2.156978e+00 1.779471e+00 1.210769e+00
<GCONST> 1.009810e+02
<TRANSP> 5
 0.000000e+00 1.000000e+00 0.000000e+00 0.000000e+00 0.000000e+00
 0.000000e+00 7.390160e-01 2.609840e-01 0.000000e+00 0.000000e+00
 0.000000e+00 0.000000e+00 7.106606e-01 2.893393e-01 0.000000e+00
 0.000000e+00 0.000000e+00 0.000000e+00 7.991564e-01 2.008436e-01
 0.000000e+00 0.000000e+00 0.000000e+00 0.000000e+00 0.000000e+00
<ENDHMM>
~h "DH"
<BEGINHMM>
<NUMSTATES> 5
<STATE> 2
<MEAN> 25
 -3.133771e+00 -4.761787e-01 1.151648e+00 -1.359863e+00 -7.905466e-01 1.999664e+00 -6.304729e-01 -6.362056e-01 5.514835e-01 -1.477502e+00 -7.601158e-01 7.863029e-01 -2.560456e-01 1.883671e-01 -1.337440e-01 -1.048773e-01 -4.147628e-02 1.536670e-01 7.763201e-02 2.424394e-01 1.243520e-01 -4.609857e-02 1.354350e-01 1.708394e-01 -4.438109e-01
<VARIANCE> 25
 5.145818e+01 6.778291e+01 6.061937e+01 4.909975e+01 6.212988e+01 4.767633e+01 4.196934e+01 6.494125e+01 4.551709e+01 3.573886e+01 3.182611e+01 2.112863e+01 2.694180e+00 3.534099e+00 3.551576e+00 3.501021e+00 3.812146e+00 3.723115e+00 3.818474e+00 4.271550e+00 4.069043e+00 2.919130e+00 2.636609e+00 1.883715e+00 2.420226e+00
<GCONST> 1.070917e+02
<STATE> 3
<MEAN> 25
 -4.271480e+00 3.591539e+00 -3.224758e+00 1.451214e+00 8.054830e-02 5.829250e+00 -2.290578e-01 4.147131e+00 1.554195e+00 1.054608e+00 4.224810e-01 2.405358e+00 2.072262e-02 8.809674e-02 6.427608e-02 3.527512e-02 2.588968e-02 -7.457456e-03 -3.191195e-04 -3.105872e-02 2.579378e-02 -3.532255e-02 3.149107e-02 2.208196e-02 1.085865e-02
<VARIANCE> 25
 1.876374e+01 2.034452e+01 2.757669e+01 1.867318e+01 1.459669e+01 1.675237e+01 1.450961e+01 2.252482e+01 1.766954e+01 1.641250e+01 1.386626e+01 1.146353e+01 4.049555e-01 8.363588e-01 8.930946e-01 8.817937e-01 1.022571e+00 1.041250e+00 1.089741e+00 1.406558e+00 1.146419e+00 1.099902e+00 1.016222e+00 9.307247e-01 3.278006e-01
<GCONST> 7.839211e+01
<STATE> 4
<MEAN> 25
 -1.651961e+00 4.663077e+00 7.305333e+00 -1.723549e+00 4.321699e+00 5.058038e-01 -1.576285e+00 -1.357926e+00 6.346428e-01 -2.097567e+00 -1.073256e+00 2.838624e-01 8.476284e-01 -5.879628e-01 4.270870e-01 -3.313083e-01 -4.459365e-01 -1.015976e+00 -5.788053e-01 -9.332649e-01 -4.494350e-01 -1.312922e-01 -4.854285e-01 -2.307039e-01 1.344450e+00
<VARIANCE> 25
 5.699008e+01 4.965115e+01 5.499430e+01 8.628309e+01 9.737814e+01 7.192883e+01 7.296008e+01 6.014452e+01 4.813327e+01 3.944769e+01 4.187327e+01 3.053709e+01 5.585735e+00 3.807256e+00 3.898312e+00 5.714902e+00 7.201285e+00 6.543059e+00 6.095963e+00 6.116907e+00 5.594491e+00 3.822858e+00 4.099797e+00 2.924186e+00 2.785921e+00
<GCONST> 1.145066e+02
<TRANSP> 5
 0.000000e+00 1.000000e+00 0.000000e+00 0.000000e+00 0.000000e+00
 0.000000e+00 7.553020e-01 2.446981e-01 0.000000e+00 0.000000e+00
 0.000000e+00 0.000000e+00 9.232439e-01 7.675607e-02 0.000000e+00
 0.000000e+00 0.000000e+00 0.000000e+00 8.003924e-01 1.996076e-01
 0.000000e+00 0.000000e+00 0.000000e+00 0.000000e+00 0.000000e+00
<ENDHMM>
~h "EA"
<BEGINHMM>
<NUMSTATES> 5
<STATE> 2
<MEAN> 25
 2.260269e-08 8.811305e-09 -3.170250e-08 -3.272399e-09 -8.275869e-09 9.510491e-09 8.899678e-09 -1.947844e-08 2.254810e-08 1.054238e-08 -2.218162e-08 1.487785e-08 2.782780e-04 8.105542e-03 3.354365e-03 3.784926e-03 1.671908e-03 4.445618e-03 2.719840e-03 2.226485e-03 9.320548e-04 -1.759579e-03 3.273624e-04 1.619040e-03 -6.760993e-03
<VARIANCE> 25
 7.968279e+01 6.358563e+01 6.087330e+01 5.505605e+01 5.724376e+01 6.726244e+01 5.734303e+01 6.000534e+01 5.110028e+01 3.368567e+01 3.032980e+01 2.671296e+01 2.506406e+00 3.079680e+00 2.529851e+00 2.541293e+00 2.896639e+00 3.554343e+00 2.927196e+00 2.849113e+00 2.789037e+00 2.151500e+00 2.086617e+00 1.716910e+00 1.698369e+00
<GCONST> 1.050970e+02
<STATE> 3
<MEAN> 25
 2.260269e-08 8.811305e-09 -3.170250e-08 -3.272399e-09 -8.275869e-09 9.510491e-09 8.899678e-09 -1.947844e-08 2.254810e-08 1.054238e-08 -2.218162e-08 1.487785e-08 2.782780e-04 8.105542e-03 3.354365e-03 3.784926e-03 1.671908e-03 4.445618e-03 2.719840e-03 2.226485e-03 9.320548e-04 -1.759579e-03 3.273624e-04 1.619040e-03 -6.760993e-03
<VARIANCE> 25
 7.968279e+01 6.358563e+01 6.087330e+01 5.505605e+01 5.724376e+01 6.726244e+01 5.734303e+01 6.000534e+01 5.110028e+01 3.368567e+01 3.032980e+01 2.671296e+01 2.506406e+00 3.079680e+00 2.529851e+00 2.541293e+00 2.896639e+00 3.554343e+00 2.927196e+00 2.849113e+00 2.789037e+00 2.151500e+00 2.086617e+00 1.716910e+00 1.698369e+00
<GCONST> 1.050970e+02
<STATE> 4
<MEAN> 25
 2.260269e-08 8.811305e-09 -3.170250e-08 -3.272399e-09 -8.275869e-09 9.510491e-09 8.899678e-09 -1.947844e-08 2.254810e-08 1.054238e-08 -2.218162e-08 1.487785e-08 2.782780e-04 8.105542e-03 3.354365e-03 3.784926e-03 1.671908e-03 4.445618e-03 2.719840e-03 2.226485e-03 9.320548e-04 -1.759579e-03 3.273624e-04 1.619040e-03 -6.760993e-03
<VARIANCE> 25
 7.968279e+01 6.358563e+01 6.087330e+01 5.505605e+01 5.724376e+01 6.726244e+01 5.734303e+01 6.000534e+01 5.110028e+01 3.368567e+01 3.032980e+01 2.671296e+01 2.506406e+00 3.079680e+00 2.529851e+00 2.541293e+00 2.896639e+00 3.554343e+00 2.927196e+00 2.849113e+00 2.789037e+00 2.151500e+00 2.086617e+00 1.716910e+00 1.698369e+00
<GCONST> 1.050970e+02
<TRANSP> 5
 0.000000e+00 1.000000e+00 0.000000e+00 0.000000e+00 0.000000e+00
 0.000000e+00 6.000000e-01 4.000000e-01 0.000000e+00 0.000000e+00
 0.000000e+00 0.000000e+00 6.000000e-01 4.000000e-01 0.000000e+00
 0.000000e+00 0.000000e+00 0.000000e+00 7.000000e-01 3.000000e-01
 0.000000e+00 0.000000e+00 0.000000e+00 0.000000e+00 0.000000e+00
<ENDHMM>
~h "EH"
<BEGINHMM>
<NUMSTATES> 5
<STATE> 2
<MEAN> 25
 6.246973e-01 -4.609563e+00 -2.045222e-01 1.913228e-01 -1.500939e+00 -2.508225e+00 -7.907146e-01 -1.326823e-01 1.770729e+00 1.634691e+00 1.309560e+00 4.339085e-01 1.491527e+00 2.233657e-01 -2.483713e-01 -1.282171e-02 -1.299820e-01 -4.629110e-01 -3.143833e-01 -8.360455e-01 -3.945157e-01 3.945584e-01 -7.095300e-02 -1.266247e-01 1.042595e+00
<VARIANCE> 25
 6.051901e+01 8.894408e+01 6.390125e+01 5.295993e+01 5.338361e+01 5.772015e+01 4.069357e+01 4.739725e+01 5.148714e+01 4.703761e+01 3.245393e+01 2.219193e+01 5.438165e+00 8.062081e+00 5.772143e+00 3.978215e+00 4.766043e+00 5.517581e+00 3.868423e+00 4.444934e+00 3.709373e+00 3.734477e+00 2.999044e+00 2.446873e+00 2.974736e+00
<GCONST> 1.113746e+02
<STATE> 3
<MEAN> 25
 9.377804e+00 -2.111427e+00 -2.942196e+00 9.651421e-01 -1.192232e+00 -5.991645e+00 -3.069400e+00 -7.100638e+00 -1.032367e+00 3.680275e+00 6.244818e-01 -1.793285e+00 1.358944e+00 -5.964033e-02 -7.209637e-01 -2.207377e-01 -3.366517e-01 -4.571911e-01 -6.074343e-02 -1.030502e+00 -1.088899e+00 2.620845e-01 2.663723e-01 -2.018325e-01 1.117607e+00
<VARIANCE> 25
 2.172329e+01 2.815357e+01 2.835128e+01 4.003745e+01 3.422372e+01 3.865262e+01 3.604127e+01 4.187434e+01 5.571021e+01 4.344472e+01 2.539637e+01 2.442459e+01 1.695446e+00 2.930676e+00 2.421671e+00 2.786302e+00 2.495988e+00 3.200958e+00 3.225973e+00 3.994902e+00 3.707889e+00 2.738699e+00 2.386280e+00 1.850815e+00 1.296691e+00
<GCONST> 1.003361e+02
<STATE> 4
<MEAN> 25
 9.932473e+00 -2.517756e+00 -3.943444e+00 -1.001098e+00 -6.677718e-01 -4.399168e+00 -2.708902e+00 -6.967523e+00 -2.454552e+00 3.834191e+00 2.537702e+00 -1.256198e-01 -1.457569e-01 4.834132e-01 8.585810e-03 -5.553598e-03 3.124218e-01 4.766600e-01 4.031340e-01 1.277906e-01 -5.695382e-01 -4.649632e-01 1.309908e-01 3.764953e-01 -4.258097e-01
<VARIANCE> 25
 1.657100e+01 3.169147e+01 3.541319e+01 3.118094e+01 4.274458e+01 3.392865e+01 5.825765e+01 4.872365e+01 5.790752e+01 4.207473e+01 3.435732e+01 2.433496e+01 6.362055e-01 1.280878e+00 1.500722e+00 2.006924e+00 1.753245e+00 2.049408e+00 2.365871e+00 2.325227e+00 3.121192e+00 1.914397e+00 1.831389e+00 1.477181e+00 8.519034e-01
<GCONST> 9.547947e+01
<TRANSP> 5
 0.000000e+00 1.000000e+00 0.000000e+00 0.000000e+00 0.000000e+00
 0.000000e+00 6.747625e-01 3.252375e-01 0.000000e+00 0.000000e+00
 0.000000e+00 0.000000e+00 5.103484e-01 4.896515e-01 0.000000e+00
 0.000000e+00 0.000000e+00 0.000000e+00 7.705790e-01 2.294210e-01
 0.000000e+00 0.000000e+00 0.000000e+00 0.000000e+00 0.000000e+00
<ENDHMM>
~h "EN"
<BEGINHMM>
<NUMSTATES> 5
<STATE> 2
<MEAN> 25
 2.260269e-08 8.811305e-09 -3.170250e-08 -3.272399e-09 -8.275869e-09 9.510491e-09 8.899678e-09 -1.947844e-08 2.254810e-08 1.054238e-08 -2.218162e-08 1.487785e-08 2.782780e-04 8.105542e-03 3.354365e-03 3.784926e-03 1.671908e-03 4.445618e-03 2.719840e-03 2.226485e-03 9.320548e-04 -1.759579e-03 3.273624e-04 1.619040e-03 -6.760993e-03
<VARIANCE> 25
 7.968279e+01 6.358563e+01 6.087330e+01 5.505605e+01 5.724376e+01 6.726244e+01 5.734303e+01 6.000534e+01 5.110028e+01 3.368567e+01 3.032980e+01 2.671296e+01 2.506406e+00 3.079680e+00 2.529851e+00 2.541293e+00 2.896639e+00 3.554343e+00 2.927196e+00 2.849113e+00 2.789037e+00 2.151500e+00 2.086617e+00 1.716910e+00 1.698369e+00
<GCONST> 1.050970e+02
<STATE> 3
<MEAN> 25
 2.260269e-08 8.811305e-09 -3.170250e-08 -3.272399e-09 -8.275869e-09 9.510491e-09 8.899678e-09 -1.947844e-08 2.254810e-08 1.054238e-08 -2.218162e-08 1.487785e-08 2.782780e-04 8.105542e-03 3.354365e-03 3.784926e-03 1.671908e-03 4.445618e-03 2.719840e-03 2.226485e-03 9.320548e-04 -1.759579e-03 3.273624e-04 1.619040e-03 -6.760993e-03
<VARIANCE> 25
 7.968279e+01 6.358563e+01 6.087330e+01 5.505605e+01 5.724376e+01 6.726244e+01 5.734303e+01 6.000534e+01 5.110028e+01 3.368567e+01 3.032980e+01 2.671296e+01 2.506406e+00 3.079680e+00 2.529851e+00 2.541293e+00 2.896639e+00 3.554343e+00 2.927196e+00 2.849113e+00 2.789037e+00 2.151500e+00 2.086617e+00 1.716910e+00 1.698369e+00
<GCONST> 1.050970e+02
<STATE> 4
<MEAN> 25
 2.260269e-08 8.811305e-09 -3.170250e-08 -3.272399e-09 -8.275869e-09 9.510491e-09 8.899678e-09 -1.947844e-08 2.254810e-08 1.054238e-08 -2.218162e-08 1.487785e-08 2.782780e-04 8.105542e-03 3.354365e-03 3.784926e-03 1.671908e-03 4.445618e-03 2.719840e-03 2.226485e-03 9.320548e-04 -1.759579e-03 3.273624e-04 1.619040e-03 -6.760993e-03
<VARIANCE> 25
 7.968279e+01 6.358563e+01 6.087330e+01 5.505605e+01 5.724376e+01 6.726244e+01 5.734303e+01 6.000534e+01 5.110028e+01 3.368567e+01 3.032980e+01 2.671296e+01 2.506406e+00 3.079680e+00 2.529851e+00 2.541293e+00 2.896639e+00 3.554343e+00 2.927196e+00 2.849113e+00 2.789037e+00 2.151500e+00 2.086617e+00 1.716910e+00 1.698369e+00
<GCONST> 1.050970e+02
<TRANSP> 5
 0.000000e+00 1.000000e+00 0.000000e+00 0.000000e+00 0.000000e+00
 0.000000e+00 6.000000e-01 4.000000e-01 0.000000e+00 0.000000e+00
 0.000000e+00 0.000000e+00 6.000000e-01 4.000000e-01 0.000000e+00
 0.000000e+00 0.000000e+00 0.000000e+00 7.000000e-01 3.000000e-01
 0.000000e+00 0.000000e+00 0.000000e+00 0.000000e+00 0.000000e+00
<ENDHMM>
~h "ER"
<BEGINHMM>
<NUMSTATES> 5
<STATE> 2
<MEAN> 25
 5.838386e+00 -1.186173e+00 -1.847209e+00 -2.676741e-01 2.429989e+00 -1.921568e+00 -3.749526e+00 -5.028446e+00 -5.778322e+00 -8.719054e-01 1.237898e+00 4.339311e-01 2.082988e+00 1.549038e+00 -1.346899e+00 -5.291331e-01 3.110456e-01 1.306837e-01 -2.860321e-02 -1.413419e+00 -2.209149e+00 6.701829e-02 7.323789e-01 6.514890e-04 5.768196e-01
<VARIANCE> 25
 4.760678e+01 5.563379e+01 5.539157e+01 6.614607e+01 3.634702e+01 6.652879e+01 5.459468e+01 6.438996e+01 5.532499e+01 3.895996e+01 3.493962e+01 2.743203e+01 4.086807e+00 6.853558e+00 5.381490e+00 4.463106e+00 4.175776e+00 5.578785e+00 4.543859e+00 4.308465e+00 4.808826e+00 4.274600e+00 3.135807e+00 2.835723e+00 2.137735e+00
<GCONST> 1.111338e+02
<STATE> 3
<MEAN> 25
 1.076630e+01 1.693470e+00 -5.858720e+00 -9.997881e-01 2.115672e+00 -2.629691e+00 -1.984061e+00 -1.033245e+01 -1.143205e+01 1.357774e+00 5.438249e+00 -4.049830e-01 5.699714e-02 3.899423e-01 -3.054517e-01 -2.554034e-01 9.555140e-02 5.009800e-01 3.917492e-01 -2.249218e-01 -4.592272e-01 -1.299880e-01 3.797935e-01 1.630809e-01 -2.233384e-01
<VARIANCE> 25
 1.909214e+01 3.743272e+01 2.875393e+01 5.371186e+01 2.890801e+01 5.648434e+01 4.795291e+01 5.202051e+01 4.546929e+01 4.466803e+01 3.305777e+01 3.273951e+01 3.155163e-01 9.727860e-01 1.065542e+00 1.531290e+00 1.217334e+00 1.790030e+00 1.724044e+00 1.452235e+00 1.662858e+00 1.555598e+00 1.480417e+00 1.263339e+00 3.490844e-01
<GCONST> 9.121338e+01
<STATE> 4
<MEAN> 25
 7.015614e+00 5.615086e+00 -4.703436e+00 -2.070598e+00 3.608550e+00 4.323895e+00 -1.210959e+00 -5.195151e+00 -9.102949e+00 -3.095799e+00 3.790113e+00 3.154681e+00 -5.791308e-01 -1.603595e-01 2.727310e-01 6.624027e-01 1.797142e-01 1.356637e-01 -1.446960e-01 3.717840e-01 8.943922e-01 5.787245e-02 -4.456724e-01 -1.599778e-01 -4.929338e-01
<VARIANCE> 25
 3.953425e+01 1.967595e+01 1.980440e+01 5.793595e+01 3.437951e+01 3.519787e+01 4.575093e+01 5.683210e+01 5.854059e+01 3.219350e+01 3.288052e+01 2.379428e+01 8.795392e-01 1.184472e+00 1.058938e+00 1.596392e+00 1.695981e+00 1.970752e+00 2.146172e+00 2.171437e+00 2.375277e+00 1.798063e+00 1.628317e+00 1.370088e+00 5.603880e-01
<GCONST> 9.380112e+01
<TRANSP> 5
 0.000000e+00 1.000000e+00 0.000000e+00 0.000000e+00 0.000000e+00
 0.000000e+00 6.847009e-01 3.152991e-01 0.000000e+00 0.000000e+00
 0.000000e+00 0.000000e+00 7.578776e-01 2.421225e-01 0.000000e+00
 0.000000e+00 0.000000e+00 0.000000e+00 8.209838e-01 1.790162e-01
 0.000000e+00 0.000000e+00 0.000000e+00 0.000000e+00 0.000000e+00
<ENDHMM>
~h "EY"
<BEGINHMM>
<NUMSTATES> 5
<STATE> 2
<MEAN> 25
 6.567291e+00 -1.784761e+00 1.350030e+00 7.513263e+00 3.408252e+00 -7.441518e+00 -8.357643e+00 -5.941427e+00 -2.115571e+00 1.872891e+00 -6.465018e-01 -2.795511e+00 7.910235e-01 -6.798382e-01 1.546372e-01 1.332436e+00 2.730646e-01 -1.868322e+00 -1.269207e+00 -1.869822e-01 1.334732e-01 4.819920e-01 -5.212089e-01 -1.017196e+00 1.134165e+00
<VARIANCE> 25
 3.005825e+01 3.801179e+01 3.939113e+01 3.838880e+01 3.801027e+01 5.302566e+01 4.896946e+01 5.651970e+01 5.112330e+01 3.069644e+01 3.150974e+01 2.527270e+01 2.717430e+00 4.874167e+00 3.155182e+00 3.393713e+00 3.326800e+00 4.709028e+00 3.565190e+00 5.071013e+00 3.995087e+00 2.491679e+00 2.840494e+00 1.996222e+00 2.224966e+00
<GCONST> 1.053159e+02
<STATE> 3
<MEAN> 25
 7.496792e+00 -4.517934e+00 3.406872e+00 1.165165e+01 4.105276e+00 -1.426891e+01 -1.068840e+01 -5.256428e+00 -1.500161e+00 2.679187e+00 -3.634003e+00 -6.841954e+00 -1.622600e-01 9.018583e-02 2.877566e-01 2.521120e-01 3.145286e-01 -1.276198e-01 -1.462787e-01 8.700692e-02 1.885977e-01 1.861735e-01 -3.835103e-01 -3.438427e-01 -1.614956e-01
<VARIANCE> 25
 1.597348e+01 2.211593e+01 3.463799e+01 3.120241e+01 3.303891e+01 5.841351e+01 6.066240e+01 3.992354e+01 4.436807e+01 2.504103e+01 3.277774e+01 2.121980e+01 2.370889e-01 5.357704e-01 1.051059e+00 1.109877e+00 8.974294e-01 1.344067e+00 1.154493e+00 1.399140e+00 1.301518e+00 1.353644e+00 1.410202e+00 1.027388e+00 1.802498e-01
<GCONST> 8.569620e+01
<STATE> 4
<MEAN> 25
 6.344311e+00 -3.349841e-01 1.125133e+00 9.485161e+00 7.110507e+00 -6.948606e+00 -1.044145e+01 -6.705386e+00 -1.783306e+00 2.414038e+00 -2.271131e+00 -5.719389e+00 -6.825284e-01 1.094308e+00 -4.335301e-01 -1.024454e+00 5.854271e-02 2.151434e+00 1.276663e+00 8.063219e-02 -1.070006e-01 -6.783736e-01 4.701898e-01 8.200226e-01 -1.264856e+00
<VARIANCE> 25
 2.029987e+01 2.264389e+01 3.179154e+01 3.098010e+01 3.036662e+01 5.503963e+01 4.949540e+01 4.215422e+01 4.295788e+01 3.052962e+01 2.429411e+01 2.479268e+01 1.398078e+00 1.563761e+00 1.947418e+00 2.687598e+00 2.209447e+00 3.073045e+00 2.832289e+00 3.138548e+00 3.104518e+00 2.528338e+00 2.440824e+00 2.177748e+00 8.871329e-01
<GCONST> 9.776317e+01
<TRANSP> 5
 0.000000e+00 1.000000e+00 0.000000e+00 0.000000e+00 0.000000e+00
 0.000000e+00 6.756921e-01 3.243080e-01 0.000000e+00 0.000000e+00
 0.000000e+00 0.000000e+00 7.985616e-01 2.014384e-01 0.000000e+00
 0.000000e+00 0.000000e+00 0.000000e+00 7.440491e-01 2.559509e-01
 0.000000e+00 0.000000e+00 0.000000e+00 0.000000e+00 0.000000e+00
<ENDHMM>
~h "HH"
<BEGINHMM>
<NUMSTATES> 5
<STATE> 2
<MEAN> 25
 -1.532926e+00 -3.515020e+00 -3.166348e-02 -9.387181e-01 -4.830043e-01 4.549919e-01 6.557399e-01 2.202714e+00 2.548026e+00 -2.893057e-01 1.020724e-01 8.710990e-01 -5.484179e-02 -1.393718e-01 -3.656268e-01 -1.369096e-03 -7.942794e-02 1.507305e-01 1.282987e-01 3.571815e-01 2.001069e-01 8.469027e-02 1.018369e-01 4.094533e-02 -2.872869e-01
<VARIANCE> 25
 6.718729e+01 7.153497e+01 6.642017e+01 6.071471e+01 5.405979e+01 5.807525e+01 5.505981e+01 5.291372e+01 4.548166e+01 3.096902e+01 2.794276e+01 2.395947e+01 2.172363e+00 3.457598e+00 3.399899e+00 3.399566e+00 2.989326e+00 3.203274e+00 2.908296e+00 3.272841e+00 2.789732e+00 2.153508e+00 2.217189e+00 1.621463e+00 1.602902e+00
<GCONST> 1.050332e+02
<STATE> 3
<MEAN> 25
 -5.800408e+00 2.241376e+00 -3.090337e+00 3.727049e-01 6.948069e-01 5.088197e+00 9.790416e-01 5.152916e+00 2.680864e+00 1.898766e+00 6.767745e-01 2.190945e+00 1.396839e-02 1.051943e-02 -7.154822e-02 -2.454548e-03 -2.180304e-02 -3.795572e-02 -1.292636e-02 1.881302e-02 5.465407e-02 1.604502e-02 5.142208e-03 8.104349e-03 -2.027736e-02
<VARIANCE> 25
 1.392718e+01 2.370878e+01 1.647626e+01 1.647919e+01 1.451843e+01 1.652878e+01 1.355019e+01 1.378742e+01 1.884186e+01 1.347134e+01 1.178126e+01 1.124158e+01 1.824524e-01 4.728055e-01 5.192034e-01 6.060228e-01 7.344167e-01 8.208124e-01 9.635736e-01 1.032397e+00 9.521564e-01 9.174097e-01 9.862425e-01 8.392448e-01 1.164122e-01
<GCONST> 7.189112e+01
<STATE> 4
<MEAN> 25
 -7.280411e-01 -1.010175e+01 -8.615308e+00 1.957212e+00 -3.981484e+00 -3.728942e+00 -5.065438e-01 6.461521e+00 6.799945e+00 3.765434e+00 9.794304e-01 -4.297260e-01 6.155248e-01 -2.574225e-01 -7.960043e-02 4.872430e-02 -1.359337e-01 -2.448871e-01 -1.183936e-02 -3.411760e-01 9.443426e-02 2.293857e-01 -6.482487e-02 -2.056628e-01 6.125508e-01
<VARIANCE> 25
 2.147743e+01 6.327119e+01 3.677611e+01 4.929124e+01 4.792758e+01 6.703259e+01 4.301358e+01 4.315243e+01 4.912546e+01 4.054815e+01 2.943858e+01 2.356501e+01 1.039296e+00 3.933283e+00 3.097180e+00 2.610350e+00 3.366520e+00 4.459364e+00 2.209425e+00 3.197621e+00 2.489573e+00 2.337940e+00 2.092782e+00 1.798910e+00 7.858477e-01
<GCONST> 1.014121e+02
<TRANSP> 5
 0.000000e+00 1.000000e+00 0.000000e+00 0.000000e+00 0.000000e+00
 0.000000e+00 8.521947e-01 1.478053e-01 0.000000e+00 0.000000e+00
 0.000000e+00 0.000000e+00 9.364815e-01 6.351854e-02 0.000000e+00
 0.000000e+00 0.000000e+00 0.000000e+00 7.979613e-01 2.020387e-01
 0.000000e+00 0.000000e+00 0.000000e+00 0.000000e+00 0.000000e+00
<ENDHMM>
~h "IH"
<BEGINHMM>
<NUMSTATES> 5
<STATE> 2
<MEAN> 25
 1.395671e+00 -1.928384e+00 4.537332e-01 2.711020e+00 7.051330e-01 -2.000415e+00 -3.302734e+00 -2.988911e+00 -1.675562e+00 -8.473181e-01 -3.894881e-01 1.937344e-01 1.137461e+00 -3.124031e-01 2.016555e-01 9.322577e-01 3.100326e-01 -1.072668e+00 -1.117220e+00 -1.100107e+00 -6.222889e-01 3.251297e-01 -6.960727e-02 -3.324140e-01 9.966065e-01
<VARIANCE> 25
 5.655131e+01 6.461197e+01 5.852624e+01 5.400845e+01 5.255296e+01 6.109782e+01 5.683481e+01 6.134655e+01 4.925820e+01 3.429375e+01 2.910038e+01 2.499853e+01 4.826305e+00 6.731634e+00 4.382090e+00 4.337417e+00 4.429423e+00 6.773127e+00 5.489222e+00 6.018619e+00 5.290049e+00 3.636655e+00 3.240570e+00 2.642477e+00 4.410310e+00
<GCONST> 1.123746e+02
<STATE> 3
<MEAN> 25
 7.881159e+00 -4.224553e+00 1.716826e-01 7.618569e+00 2.047763e+00 -9.185079e+00 -6.566770e+00 -9.177936e+00 -5.420732e+00 2.382326e+00 -8.270917e-02 -3.788916e+00 2.396358e-01 -2.212153e-01 8.461712e-02 3.504060e-01 3.048926e-01 -2.785611e-01 -2.301778e-01 -3.321915e-01 -1.234425e-01 3.580149e-01 8.135341e-03 -2.174958e-01 3.992029e-01
<VARIANCE> 25
 1.886557e+01 4.401311e+01 3.858214e+01 4.738340e+01 3.212545e+01 5.394274e+01 4.047392e+01 4.530037e+01 3.792849e+01 4.362069e+01 3.230884e+01 3.067643e+01 1.298718e+00 2.358669e+00 2.092636e+00 2.871372e+00 2.177883e+00 3.040771e+00 2.335503e+00 2.586241e+00 2.634512e+00 2.401124e+00 2.089726e+00 1.689739e+00 1.739355e+00
<GCONST> 9.972277e+01
<STATE> 4
<MEAN> 25
 6.982453e+00 -6.528857e-01 1.436240e+00 4.822143e+00 5.049204e+00 -3.692695e+00 -7.409767e+00 -8.698519e+00 -4.543913e+00 1.459827e+00 -3.988615e-01 -1.898254e+00 -5.972590e-01 7.971272e-01 3.106644e-01 -6.407733e-01 1.370852e-01 1.398412e+00 8.046879e-01 4.246877e-01 1.093749e-01 -4.896235e-01 2.496693e-02 3.937019e-01 -7.549749e-01
<VARIANCE> 25
 1.792849e+01 2.882462e+01 4.204961e+01 4.028678e+01 3.790535e+01 5.221885e+01 4.569321e+01 4.958231e+01 5.754798e+01 4.089885e+01 4.067146e+01 3.363026e+01 1.319272e+00 2.470467e+00 2.441999e+00 2.829884e+00 2.558819e+00 2.719677e+00 2.591934e+00 2.714090e+00 3.214057e+00 2.416323e+00 2.538845e+00 1.701106e+00 1.308170e+00
<GCONST> 1.007171e+02
<TRANSP> 5
 0.000000e+00 1.000000e+00 0.000000e+00 0.000000e+00 0.000000e+00
 0.000000e+00 6.731668e-01 3.268332e-01 0.000000e+00 0.000000e+00
 0.000000e+00 0.000000e+00 6.092165e-01 3.907835e-01 0.000000e+00
 0.000000e+00 0.000000e+00 0.000000e+00 6.589054e-01 3.410946e-01
 0.000000e+00 0.000000e+00 0.000000e+00 0.000000e+00 0.000000e+00
<ENDHMM>
~h "IY"
<BEGINHMM>
<NUMSTATES> 5
<STATE> 2
<MEAN> 25
 4.007841e+00 -1.512686e+00 3.952178e+00 8.307555e+00 5.448945e+00 -6.802915e+00 -6.115624e+00 -5.634909e+00 -4.002879e+00 -2.043645e-01 -1.558442e+00 -4.824322e+00 6.838297e-01 -3.691719e-01 8.691560e-01 2.213079e+00 8.058530e-01 -2.232013e+00 -1.850023e+00 -1.108031e-01 1.999341e-01 5.635426e-01 -9.151866e-01 -1.562523e+00 8.984563e-01
<VARIANCE> 25
 3.618894e+01 3.871775e+01 4.481715e+01 5.356791e+01 5.010051e+01 7.542184e+01 4.420597e+01 5.725519e+01 5.381590e+01 3.434426e+01 3.186205e+01 3.578911e+01 3.503601e+00 5.200799e+00 2.744758e+00 3.432429e+00 4.194175e+00 6.004518e+00 4.349777e+00 4.649192e+00 4.518172e+00 3.746795e+00 3.147966e+00 2.480392e+00 2.488530e+00
<GCONST> 1.087845e+02
<STATE> 3
<MEAN> 25
 5.407379e+00 -2.218292e+00 6.017548e+00 1.359526e+01 5.901124e+00 -1.364596e+01 -1.011549e+01 -4.784474e+00 -3.792194e+00 6.538208e-01 -4.504497e+00 -9.174558e+00 -1.291457e-01 -1.387718e-01 2.247514e-01 1.660377e-01 -1.463970e-01 -1.646009e-01 -2.321241e-01 1.739118e-01 3.614877e-01 5.561937e-02 -2.860050e-01 -2.014609e-01 -4.256240e-02
<VARIANCE> 25
 1.532625e+01 2.460658e+01 3.721499e+01 3.086285e+01 4.659471e+01 7.342929e+01 3.611380e+01 4.425250e+01 3.561503e+01 2.886882e+01 2.758871e+01 2.932205e+01 2.479373e-01 7.048488e-01 1.108392e+00 1.494721e+00 1.218927e+00 1.621892e+00 1.314194e+00 1.673211e+00 1.336227e+00 1.326684e+00 1.231882e+00 1.258241e+00 2.305441e-01
<GCONST> 8.784496e+01
<STATE> 4
<MEAN> 25
 3.917999e+00 -1.995907e-01 3.934226e+00 9.760729e+00 5.985874e+00 -5.736600e+00 -9.037030e+00 -4.643541e+00 -5.505316e-01 9.266235e-01 -3.369282e+00 -6.308775e+00 -4.214589e-01 5.715293e-01 -6.517429e-01 -1.207951e+00 -3.211983e-01 1.714671e+00 1.049836e+00 1.543821e-01 1.190713e-01 -3.459289e-01 5.281490e-01 1.113514e+00 -8.176171e-01
<VARIANCE> 25
 1.896511e+01 2.821214e+01 3.643255e+01 4.194268e+01 3.359888e+01 7.416602e+01 5.236438e+01 4.756900e+01 4.458673e+01 2.754226e+01 2.249938e+01 3.363845e+01 8.776693e-01 1.759067e+00 1.847264e+00 2.345097e+00 2.005466e+00 3.397737e+00 3.338012e+00 3.132188e+00 2.891238e+00 2.419886e+00 1.986787e+00 2.039689e+00 1.116196e+00
<GCONST> 9.856564e+01
<TRANSP> 5
 0.000000e+00 1.000000e+00 0.000000e+00 0.000000e+00 0.000000e+00
 0.000000e+00 6.433080e-01 3.566920e-01 0.000000e+00 0.000000e+00
 0.000000e+00 0.000000e+00 8.065696e-01 1.934305e-01 0.000000e+00
 0.000000e+00 0.000000e+00 0.000000e+00 7.645208e-01 2.354791e-01
 0.000000e+00 0.000000e+00 0.000000e+00 0.000000e+00 0.000000e+00
<ENDHMM>
~h "JH"
<BEGINHMM>
<NUMSTATES> 5
<STATE> 2
<MEAN> 25
 -2.055197e+00 1.778926e+00 -1.281684e+00 3.763761e+00 3.456154e+00 3.158715e+00 -3.186159e-01 3.452580e+00 2.919990e+00 -4.033467e-01 -3.159215e-01 1.838548e+00 -8.320526e-01 -1.976778e+00 4.677803e-01 7.337931e-01 -1.633660e-01 -2.942243e-01 -4.997861e-01 6.582444e-01 1.214812e+00 -2.469538e-01 -2.263451e-01 2.942585e-01 3.854685e-01
<VARIANCE> 25
 3.845810e+01 4.312340e+01 3.752029e+01 4.314202e+01 2.983875e+01 2.747992e+01 3.204927e+01 3.253343e+01 2.861160e+01 2.628255e+01 2.522057e+01 1.645309e+01 2.476475e+00 9.681279e+00 4.118428e+00 3.349701e+00 2.569687e+00 3.216337e+00 3.669670e+00 4.166826e+00 3.874011e+00 3.004299e+00 1.834372e+00 1.661670e+00 1.841116e+00
<GCONST> 1.018795e+02
<STATE> 3
<MEAN> 25
 -6.169720e+00 -1.667720e+01 7.190839e+00 8.081894e+00 1.822202e+00 -1.716516e+00 -5.406076e+00 5.234197e+00 9.349195e+00 -3.587716e+00 -2.891668e+00 2.051759e+00 -1.445235e+00 -3.351061e+00 1.889174e+00 1.040633e-01 -6.219398e-01 -4.053255e-01 -6.786523e-01 -5.177524e-01 5.753322e-01 1.568628e-01 2.796391e-01 4.060523e-02 1.583888e+00
<VARIANCE> 25
 3.205270e+01 6.849456e+01 6.473337e+01 6.261605e+01 5.367798e+01 4.461874e+01 4.582621e+01 8.116427e+01 4.951149e+01 4.080364e+01 2.625332e+01 2.273846e+01 4.269384e+00 8.158850e+00 5.942889e+00 3.523188e+00 4.225051e+00 3.187620e+00 3.126184e+00 3.849105e+00 2.487980e+00 2.425802e+00 2.342154e+00 1.840214e+00 2.517088e+00
<GCONST> 1.078155e+02
<STATE> 4
<MEAN> 25
 -3.654273e+00 -1.302887e+01 6.744096e+00 7.445210e+00 3.607078e+00 -4.623476e-01 -7.612376e+00 -1.223204e-01 5.693963e+00 -2.176967e+00 -4.920250e-01 2.049835e+00 2.228652e+00 2.939667e+00 -1.144698e+00 -4.332094e-01 3.002760e-01 -1.651315e-02 -7.138693e-01 -1.372539e+00 -1.973916e+00 -1.629905e-01 3.184504e-01 -1.103079e-01 -4.805326e-01
<VARIANCE> 25
 4.674239e+01 1.027665e+02 8.417263e+01 3.607556e+01 3.731611e+01 4.440881e+01 7.837662e+01 8.396658e+01 4.276025e+01 3.772934e+01 2.463313e+01 1.962028e+01 3.773498e+00 5.968368e+00 2.830679e+00 3.859935e+00 3.140861e+00 2.201054e+00 4.574993e+00 6.067831e+00 4.213169e+00 2.040660e+00 1.919179e+00 1.925656e+00 1.189103e+00
<GCONST> 1.066086e+02
<TRANSP> 5
 0.000000e+00 1.000000e+00 0.000000e+00 0.000000e+00 0.000000e+00
 0.000000e+00 7.863408e-01 2.136592e-01 0.000000e+00 0.000000e+00
 0.000000e+00 0.000000e+00 6.033890e-01 3.966110e-01 0.000000e+00
 0.000000e+00 0.000000e+00 0.000000e+00 6.999187e-01 3.000813e-01
 0.000000e+00 0.000000e+00 0.000000e+00 0.000000e+00 0.000000e+00
<ENDHMM>
~h "NG"
<BEGINHMM>
<NUMSTATES> 5
<STATE> 2
<MEAN> 25
 7.122991e+00 2.091377e+00 2.185632e+00 7.420440e+00 6.609748e+00 -5.218653e+00 -9.918038e+00 -2.355076e+00 1.725907e+00 4.563850e+00 1.063468e+00 -6.490631e+00 -1.685453e-01 1.217963e+00 -7.131425e-02 -2.462589e-01 1.932301e-01 1.231888e+00 5.823844e-01 -1.882933e-01 2.959763e-01 -1.920737e-01 -4.224498e-01 1.257292e-01 -8.111262e-01
<VARIANCE> 25
 1.395028e+01 2.562407e+01 1.504908e+01 2.317602e+01 2.586172e+01 5.950668e+01 5.011079e+01 4.138090e+01 3.445636e+01 2.844326e+01 2.741356e+01 3.257907e+01 5.118575e-01 1.100031e+00 1.083712e+00 1.878762e+00 2.207475e+00 3.411284e+00 2.669621e+00 3.680600e+00 3.092627e+00 1.743473e+00 1.988716e+00 2.354748e+00 3.138274e-01
<GCONST> 9.284911e+01
<STATE> 3
<MEAN> 25
 5.663753e+00 8.632219e+00 2.903236e+00 4.729919e+00 5.154191e+00 8.838492e-01 -4.613277e+00 -4.118545e+00 -1.041025e+00 -5.342650e-01 -6.828046e-01 -1.320112e+00 -4.135624e-01 3.307788e-01 2.234186e-01 -1.492059e-01 -1.228345e-02 5.429962e-01 5.466830e-01 3.118826e-01 -6.406562e-02 -3.763380e-01 -3.811837e-02 4.756092e-01 -4.199304e-01
<VARIANCE> 25
 1.800026e+01 1.191301e+01 1.158114e+01 1.274086e+01 2.049019e+01 1.850824e+01 2.560554e+01 2.360411e+01 2.295875e+01 1.509574e+01 1.449012e+01 1.579447e+01 3.423750e-01 5.722567e-01 5.890518e-01 7.558452e-01 1.263698e+00 1.132189e+00 1.590034e+00 1.363495e+00 1.702628e+00 1.215385e+00 1.024762e+00 1.002236e+00 1.734924e-01
<GCONST> 7.762789e+01
<STATE> 4
<MEAN> 25
 -7.026942e+00 2.960866e+00 -4.307621e-01 -3.087552e-01 1.615398e+00 4.207878e+00 1.438043e+00 4.791470e+00 4.585664e+00 2.258862e+00 7.278732e-01 1.994404e+00 -1.335633e-01 -6.317761e-02 -3.785633e-02 -4.025287e-02 -6.185961e-02 1.736818e-02 6.484994e-02 9.854678e-02 6.633926e-02 2.949531e-02 8.596612e-03 -3.237169e-03 -1.031966e-01
<VARIANCE> 25
 1.919416e+01 1.128334e+01 1.263968e+01 1.411606e+01 9.043358e+00 1.322531e+01 1.377372e+01 1.602938e+01 1.734936e+01 1.210250e+01 8.743009e+00 7.767666e+00 2.824012e-01 3.322513e-01 4.402586e-01 5.411434e-01 6.816849e-01 7.162553e-01 9.648909e-01 8.304844e-01 9.158464e-01 8.837929e-01 8.414894e-01 7.336332e-01 2.029445e-01
<GCONST> 6.922779e+01
<TRANSP> 5
 0.000000e+00 1.000000e+00 0.000000e+00 0.000000e+00 0.000000e+00
 0.000000e+00 7.611445e-01 2.388554e-01 0.000000e+00 0.000000e+00
 0.000000e+00 0.000000e+00 7.805278e-01 2.194722e-01 0.000000e+00
 0.000000e+00 0.000000e+00 0.000000e+00 9.498449e-01 5.015508e-02
 0.000000e+00 0.000000e+00 0.000000e+00 0.000000e+00 0.000000e+00
<ENDHMM>
~h "OW"
<BEGINHMM>
<NUMSTATES> 5
<STATE> 2
<MEAN> 25
 7.001799e+00 2.934844e+00 1.341490e+00 -4.248216e+00 -4.712386e+00 -5.913819e+00 -2.002247e+00 4.694920e-01 -1.031584e+00 -2.073207e+00 -3.431732e+00 -1.609031e+00 1.740724e+00 5.325142e-01 3.333690e-01 -2.230732e-01 -2.044147e+00 -1.226788e+00 -8.521782e-01 1.866814e-01 2.376941e-01 2.664979e-01 -8.244434e-01 -6.680921e-01 8.074939e-01
<VARIANCE> 25
 3.889327e+01 4.707474e+01 3.590138e+01 3.873402e+01 9.783889e+01 6.575100e+01 5.657814e+01 5.274169e+01 5.229949e+01 2.392607e+01 3.266181e+01 3.231472e+01 3.759136e+00 3.975800e+00 3.444570e+00 4.384533e+00 1.052787e+01 8.413620e+00 5.348505e+00 4.771869e+00 3.878608e+00 2.435148e+00 3.380622e+00 2.643218e+00 1.586627e+00
<GCONST> 1.096008e+02
<STATE> 3
<MEAN> 25
 1.106023e+01 4.143734e+00 6.476628e-01 -5.524680e+00 -8.362124e+00 -5.291001e+00 -1.865431e+00 1.502285e+00 -3.248907e-01 -1.796954e+00 -5.407455e+00 -5.048548e+00 -1.143116e-01 3.530010e-01 2.481133e-03 2.873816e-01 1.654883e-01 6.719159e-02 1.280150e-01 7.543956e-02 6.704297e-03 -1.773452e-02 -1.560855e-02 -1.496007e-01 -3.472790e-01
<VARIANCE> 25
 1.310597e+01 3.500710e+01 2.528440e+01 2.814129e+01 7.265930e+01 5.087233e+01 6.153436e+01 4.737691e+01 5.716890e+01 3.381222e+01 2.702053e+01 3.229538e+01 3.522800e-01 9.136640e-01 8.844187e-01 1.238324e+00 2.347437e+00 1.756410e+00 1.922957e+00 1.963624e+00 1.686174e+00 1.345637e+00 1.403639e+00 1.597150e+00 4.261625e-01
<GCONST> 9.165040e+01
<STATE> 4
<MEAN> 25
 -1.378899e+00 3.875531e+00 -2.244564e+00 9.595550e-01 -5.070409e-01 3.325697e+00 -5.300173e-01 4.462403e+00 1.911282e+00 -1.084262e+00 -4.102576e-01 8.865759e-01 -3.325181e-01 -1.311713e-01 -7.265037e-02 2.083869e-01 2.551702e-01 2.264797e-01 5.622134e-02 2.393343e-02 -1.370383e-02 -5.424270e-02 1.307876e-01 1.398232e-01 -2.583182e-01
<VARIANCE> 25
 4.658671e+01 2.333303e+01 1.988022e+01 1.762526e+01 2.783940e+01 3.941320e+01 1.594106e+01 1.884950e+01 1.834111e+01 1.789300e+01 1.672749e+01 1.815431e+01 5.969419e-01 7.990379e-01 7.595307e-01 1.087624e+00 1.477452e+00 1.304975e+00 1.025524e+00 1.187482e+00 1.192803e+00 1.115096e+00 1.172112e+00 1.178504e+00 4.528579e-01
<GCONST> 8.275093e+01
<TRANSP> 5
 0.000000e+00 1.000000e+00 0.000000e+00 0.000000e+00 0.000000e+00
 0.000000e+00 6.714387e-01 3.285612e-01 0.000000e+00 0.000000e+00
 0.000000e+00 0.000000e+00 8.085198e-01 1.914802e-01 0.000000e+00
 0.000000e+00 0.000000e+00 0.000000e+00 8.608536e-01 1.391465e-01
 0.000000e+00 0.000000e+00 0.000000e+00 0.000000e+00 0.000000e+00
<ENDHMM>
~h "OY"
<BEGINHMM>
<NUMSTATES> 5
<STATE> 2
<MEAN> 25
 1.148215e+01 6.059667e+00 7.665942e-01 -7.439292e+00 -1.371360e+01 -1.054067e+01 1.088952e+00 4.537803e+00 -2.773810e+00 -3.038526e+00 -2.932726e+00 -5.866209e+00 5.438778e-01 -6.588984e-01 -1.257448e+00 1.613079e-01 3.617536e-01 6.259571e-01 5.592045e-01 -4.938198e-01 -1.002835e+00 -3.303479e-01 -3.227584e-02 4.526745e-01 5.029705e-01
<VARIANCE> 25
 1.965485e+01 5.484020e+01 2.650917e+01 1.977723e+01 5.112405e+01 4.780921e+01 4.160399e+01 3.887093e+01 4.116249e+01 4.869274e+01 1.361376e+01 1.918786e+01 6.958352e-01 1.367712e+00 1.062001e+00 1.405922e+00 5.081042e+00 3.572977e+00 2.008687e+00 4.541474e+00 2.691485e+00 2.588919e+00 1.832939e+00 2.002953e+00 5.259207e-01
<GCONST> 9.561031e+01
<STATE> 3
<MEAN> 25
 1.189143e+01 5.577870e+00 -5.206141e+00 -7.848120e+00 -4.181719e+00 -1.522442e+00 -2.634794e+00 -5.380100e+00 -7.171542e+00 -3.461137e+00 9.583909e-01 2.753842e-01 -2.342611e-01 -6.582730e-01 -4.113937e-02 1.203318e+00 1.397814e+00 7.238761e-02 -9.234682e-01 -1.158882e+00 2.958583e-01 9.476793e-01 6.303906e-01 6.567177e-02 5.240021e-02
<VARIANCE> 25
 1.154462e+01 3.494664e+01 9.966154e+00 3.820870e+01 3.029556e+01 1.802467e+01 2.603476e+01 2.515574e+01 2.390052e+01 2.873318e+01 1.012381e+01 2.221946e+01 8.723912e-02 4.796287e-01 4.825113e-01 1.346140e+00 2.088992e+00 1.070938e+00 1.718783e+00 2.530097e+00 1.749392e+00 1.630547e+00 1.097459e+00 1.292455e+00 6.589541e-02
<GCONST> 7.997206e+01
<STATE> 4
<MEAN> 25
 6.189072e+00 2.876174e-01 -6.454357e-01 6.145491e+00 3.772838e+00 -4.063978e+00 -7.713467e+00 -7.556119e+00 -2.743905e+00 3.821070e-01 2.214988e+00 -9.338634e-01 -6.347112e-01 1.573283e-01 4.557219e-01 2.698051e-01 7.845449e-02 2.115136e-01 8.255950e-02 3.297420e-01 2.151586e-01 -1.720022e-01 -2.369503e-01 3.337564e-02 -5.435372e-01
<VARIANCE> 25
 2.327322e+01 2.332085e+01 1.447108e+01 2.829041e+01 3.163248e+01 6.591493e+01 3.447041e+01 4.272132e+01 2.376630e+01 2.983540e+01 1.874952e+01 2.930506e+01 7.986545e-01 1.001722e+00 1.025130e+00 2.244738e+00 1.750276e+00 4.256866e+00 2.783137e+00 3.244545e+00 2.382235e+00 2.217097e+00 1.908772e+00 1.608023e+00 9.453914e-01
<GCONST> 9.361720e+01
<TRANSP> 5
 0.000000e+00 1.000000e+00 0.000000e+00 0.000000e+00 0.000000e+00
 0.000000e+00 7.287146e-01 2.712854e-01 0.000000e+00 0.000000e+00
 0.000000e+00 0.000000e+00 8.451383e-01 1.548618e-01 0.000000e+00
 0.000000e+00 0.000000e+00 0.000000e+00 8.931756e-01 1.068244e-01
 0.000000e+00 0.000000e+00 0.000000e+00 0.000000e+00 0.000000e+00
<ENDHMM>
~h "SH"
<BEGINHMM>
<NUMSTATES> 5
<STATE> 2
<MEAN> 25
 -4.859868e+00 -1.984816e+01 4.767867e+00 9.018398e+00 6.466625e+00 -1.494506e+00 -6.804692e+00 -1.450116e+00 6.643826e+00 -2.397107e+00 -8.728524e-01 3.050058e+00 -1.797677e+00 -3.656089e+00 1.117807e+00 1.789722e-01 -8.218908e-01 6.146298e-01 -2.898095e-01 2.618620e-01 1.930499e+00 2.022682e-01 8.548822e-02 4.202903e-01 7.947730e-01
<VARIANCE> 25
 5.396823e+01 1.028752e+02 5.375746e+01 2.683380e+01 4.512754e+01 3.574072e+01 2.862848e+01 6.160374e+01 4.929568e+01 1.927973e+01 1.978364e+01 2.146716e+01 1.901237e+00 8.952275e+00 3.138327e+00 2.788080e+00 3.330389e+00 3.267749e+00 3.751287e+00 3.542499e+00 4.011631e+00 1.865615e+00 2.064742e+00 2.450847e+00 7.153367e-01
<GCONST> 1.028890e+02
<STATE> 3
<MEAN> 25
 -3.447005e+00 -2.751152e+01 4.659103e-01 8.724265e+00 -1.268886e+00 3.287534e+00 -8.348223e+00 -9.371581e+00 9.363758e+00 1.550672e+00 -3.321910e+00 4.586493e+00 7.249473e-01 2.041371e+00 -7.135246e-01 -4.880644e-01 3.980497e-02 4.551014e-02 3.050446e-01 6.043445e-02 -1.036254e+00 -1.067636e-01 1.343047e-01 1.653675e-01 -5.841542e-01
<VARIANCE> 25
 2.484531e+01 4.204912e+01 3.830181e+01 1.123852e+01 3.194671e+01 3.042828e+01 1.954834e+01 5.378903e+01 2.505333e+01 1.661223e+01 1.600672e+01 1.447919e+01 2.089238e+00 7.557989e+00 1.236256e+00 1.670188e+00 4.394229e+00 2.390845e+00 2.649493e+00 3.927663e+00 1.815996e+00 1.695914e+00 1.191228e+00 1.458698e+00 8.253748e-01
<GCONST> 9.394182e+01
<STATE> 4
<MEAN> 25
 -6.168341e+00 -1.526811e+01 6.231444e+00 8.583108e+00 2.830670e+00 -2.377576e+00 -5.754070e+00 3.525432e+00 4.919145e+00 -4.512648e+00 5.879792e-01 2.661308e+00 1.589288e+00 2.627702e+00 -6.339893e-01 -4.765252e-01 -9.324908e-02 -4.645303e-01 2.337578e-02 -5.711868e-02 -7.073802e-01 -3.202507e-01 -2.728544e-01 -3.773074e-01 -6.163166e-01
<VARIANCE> 25
 4.463176e+01 7.946483e+01 6.247200e+01 1.839792e+01 2.386892e+01 1.984263e+01 3.936530e+01 3.872147e+01 3.596925e+01 1.671810e+01 1.247330e+01 1.636546e+01 4.579762e+00 8.910378e+00 2.399525e+00 1.595903e+00 2.453571e+00 1.917948e+00 2.322802e+00 4.474618e+00 2.847630e+00 1.104061e+00 1.181930e+00 1.753062e+00 7.146772e-01
<GCONST> 9.685488e+01
<TRANSP> 5
 0.000000e+00 1.000000e+00 0.000000e+00 0.000000e+00 0.000000e+00
 0.000000e+00 8.251418e-01 1.748583e-01 0.000000e+00 0.000000e+00
 0.000000e+00 0.000000e+00 7.831075e-01 2.168925e-01 0.000000e+00
 0.000000e+00 0.000000e+00 0.000000e+00 7.784639e-01 2.215360e-01
 0.000000e+00 0.000000e+00 0.000000e+00 0.000000e+00 0.000000e+00
<ENDHMM>
~h "TH"
<BEGINHMM>
