~o
<STREAMINFO> 1 25
<VECSIZE> 25<NULLD><MFCC_D_N_Z_0><DIAGC>
~h "proto"
<BEGINHMM>
<NUMSTATES> 5
<STATE> 2
<MEAN> 25
 3.976561e-08 8.846045e-09 -4.150570e-08 9.851277e-09 -9.480381e-09 -9.040158e-09 4.388359e-09 -2.685357e-08 3.480704e-08 1.597973e-08 -2.242015e-08 2.129013e-08 3.722793e-04 7.923713e-03 3.698459e-03 3.811123e-03 1.741378e-03 4.524965e-03 2.311711e-03 2.829416e-03 6.072323e-04 -1.784177e-03 7.417809e-04 1.540781e-03 -6.890739e-03
<VARIANCE> 25
 7.950354e+01 6.336303e+01 6.075738e+01 5.444224e+01 5.646172e+01 6.753802e+01 5.745654e+01 6.005213e+01 5.098071e+01 3.365104e+01 3.020065e+01 2.674260e+01 2.487893e+00 3.054487e+00 2.520922e+00 2.524429e+00 2.885740e+00 3.547910e+00 2.926855e+00 2.829731e+00 2.780176e+00 2.153205e+00 2.078670e+00 1.703429e+00 1.697168e+00
<GCONST> 1.050115e+02
<STATE> 3
<MEAN> 25
 3.976561e-08 8.846045e-09 -4.150570e-08 9.851277e-09 -9.480381e-09 -9.040158e-09 4.388359e-09 -2.685357e-08 3.480704e-08 1.597973e-08 -2.242015e-08 2.129013e-08 3.722793e-04 7.923713e-03 3.698459e-03 3.811123e-03 1.741378e-03 4.524965e-03 2.311711e-03 2.829416e-03 6.072323e-04 -1.784177e-03 7.417809e-04 1.540781e-03 -6.890739e-03
<VARIANCE> 25
 7.950354e+01 6.336303e+01 6.075738e+01 5.444224e+01 5.646172e+01 6.753802e+01 5.745654e+01 6.005213e+01 5.098071e+01 3.365104e+01 3.020065e+01 2.674260e+01 2.487893e+00 3.054487e+00 2.520922e+00 2.524429e+00 2.885740e+00 3.547910e+00 2.926855e+00 2.829731e+00 2.780176e+00 2.153205e+00 2.078670e+00 1.703429e+00 1.697168e+00
<GCONST> 1.050115e+02
<STATE> 4
<MEAN> 25
 3.976561e-08 8.846045e-09 -4.150570e-08 9.851277e-09 -9.480381e-09 -9.040158e-09 4.388359e-09 -2.685357e-08 3.480704e-08 1.597973e-08 -2.242015e-08 2.129013e-08 3.722793e-04 7.923713e-03 3.698459e-03 3.811123e-03 1.741378e-03 4.524965e-03 2.311711e-03 2.829416e-03 6.072323e-04 -1.784177e-03 7.417809e-04 1.540781e-03 -6.890739e-03
<VARIANCE> 25
 7.950354e+01 6.336303e+01 6.075738e+01 5.444224e+01 5.646172e+01 6.753802e+01 5.745654e+01 6.005213e+01 5.098071e+01 3.365104e+01 3.020065e+01 2.674260e+01 2.487893e+00 3.054487e+00 2.520922e+00 2.524429e+00 2.885740e+00 3.547910e+00 2.926855e+00 2.829731e+00 2.780176e+00 2.153205e+00 2.078670e+00 1.703429e+00 1.697168e+00
<GCONST> 1.050115e+02
<TRANSP> 5
 0.000000e+00 1.000000e+00 0.000000e+00 0.000000e+00 0.000000e+00
 0.000000e+00 6.000000e-01 4.000000e-01 0.000000e+00 0.000000e+00
 0.000000e+00 0.000000e+00 6.000000e-01 4.000000e-01 0.000000e+00
 0.000000e+00 0.000000e+00 0.000000e+00 7.000000e-01 3.000000e-01
 0.000000e+00 0.000000e+00 0.000000e+00 0.000000e+00 0.000000e+00
<ENDHMM>
