~o
<STREAMINFO> 1 25
<VECSIZE> 25<NULLD><MFCC_D_N_Z_0><DIAGC>
~h "proto"
<BEGINHMM>
<NUMSTATES> 5
<STATE> 2
<MEAN> 25
 3.100242e-08 3.549503e-10 -5.740592e-08 -1.126581e-08 -3.107101e-09 4.482319e-09 -9.166977e-09 -1.290853e-08 1.589903e-08 9.247570e-09 -3.250453e-08 1.145786e-08 2.460988e-04 8.156856e-03 3.390248e-03 3.727910e-03 1.454618e-03 4.700539e-03 2.994941e-03 2.434618e-03 1.191673e-03 -1.697439e-03 -1.292456e-04 1.460377e-03 -6.855034e-03
<VARIANCE> 25
 7.913105e+01 6.487138e+01 6.079932e+01 5.590904e+01 5.813534e+01 6.597726e+01 5.746590e+01 5.996876e+01 5.135567e+01 3.365238e+01 3.033123e+01 2.645851e+01 2.514258e+00 3.116155e+00 2.559762e+00 2.561820e+00 2.907001e+00 3.521123e+00 2.950677e+00 2.876045e+00 2.796699e+00 2.139048e+00 2.071121e+00 1.710983e+00 1.700290e+00
<GCONST> 1.051498e+02
<STATE> 3
<MEAN> 25
 3.100242e-08 3.549503e-10 -5.740592e-08 -1.126581e-08 -3.107101e-09 4.482319e-09 -9.166977e-09 -1.290853e-08 1.589903e-08 9.247570e-09 -3.250453e-08 1.145786e-08 2.460988e-04 8.156856e-03 3.390248e-03 3.727910e-03 1.454618e-03 4.700539e-03 2.994941e-03 2.434618e-03 1.191673e-03 -1.697439e-03 -1.292456e-04 1.460377e-03 -6.855034e-03
<VARIANCE> 25
 7.913105e+01 6.487138e+01 6.079932e+01 5.590904e+01 5.813534e+01 6.597726e+01 5.746590e+01 5.996876e+01 5.135567e+01 3.365238e+01 3.033123e+01 2.645851e+01 2.514258e+00 3.116155e+00 2.559762e+00 2.561820e+00 2.907001e+00 3.521123e+00 2.950677e+00 2.876045e+00 2.796699e+00 2.139048e+00 2.071121e+00 1.710983e+00 1.700290e+00
<GCONST> 1.051498e+02
<STATE> 4
<MEAN> 25
 3.100242e-08 3.549503e-10 -5.740592e-08 -1.126581e-08 -3.107101e-09 4.482319e-09 -9.166977e-09 -1.290853e-08 1.589903e-08 9.247570e-09 -3.250453e-08 1.145786e-08 2.460988e-04 8.156856e-03 3.390248e-03 3.727910e-03 1.454618e-03 4.700539e-03 2.994941e-03 2.434618e-03 1.191673e-03 -1.697439e-03 -1.292456e-04 1.460377e-03 -6.855034e-03
<VARIANCE> 25
 7.913105e+01 6.487138e+01 6.079932e+01 5.590904e+01 5.813534e+01 6.597726e+01 5.746590e+01 5.996876e+01 5.135567e+01 3.365238e+01 3.033123e+01 2.645851e+01 2.514258e+00 3.116155e+00 2.559762e+00 2.561820e+00 2.907001e+00 3.521123e+00 2.950677e+00 2.876045e+00 2.796699e+00 2.139048e+00 2.071121e+00 1.710983e+00 1.700290e+00
<GCONST> 1.051498e+02
<TRANSP> 5
 0.000000e+00 1.000000e+00 0.000000e+00 0.000000e+00 0.000000e+00
 0.000000e+00 6.000000e-01 4.000000e-01 0.000000e+00 0.000000e+00
 0.000000e+00 0.000000e+00 6.000000e-01 4.000000e-01 0.000000e+00
 0.000000e+00 0.000000e+00 0.000000e+00 7.000000e-01 3.000000e-01
 0.000000e+00 0.000000e+00 0.000000e+00 0.000000e+00 0.000000e+00
<ENDHMM>
