~o
<STREAMINFO> 1 25
<VECSIZE> 25<NULLD><MFCC_D_N_Z_0><DIAGC>
~s "silst"
<MEAN> 25
 -3.529474e+00 -2.840937e+00 -7.839572e+00 1.762638e-01 1.393481e+00 4.874790e+00 -3.202041e-01 2.116726e+00 6.766422e-01 9.295919e-01 -3.456015e-01 8.403070e-01 1.926774e-02 -2.618684e-02 5.493031e-02 -5.649818e-02 5.148293e-02 -4.520956e-02 3.851067e-02 2.571389e-02 -3.779791e-02 -4.844805e-03 -4.051310e-02 5.940491e-03 1.657914e-02
<VARIANCE> 25
 9.197651e+00 1.265323e+01 1.455196e+01 1.350951e+01 3.066061e+01 2.516866e+01 2.443076e+01 2.396981e+01 2.310039e+01 1.882181e+01 1.870338e+01 1.532170e+01 2.105611e-01 4.095358e-01 8.665839e-01 1.050347e+00 1.398076e+00 1.738598e+00 1.738200e+00 1.767875e+00 1.729448e+00 1.695419e+00 1.941562e+00 1.441733e+00 5.576822e-01
<GCONST> 8.172608e+01
~h "B"
<BEGINHMM>
<NUMSTATES> 5
<STATE> 2
<MEAN> 25
 -1.207484e+00 3.053452e+00 -2.607395e+00 4.289707e+00 2.738173e+00 6.638688e+00 3.166770e+00 4.331721e+00 1.477400e+00 -1.993433e+00 4.508148e-01 1.732070e+00 -3.918370e-01 -2.297309e-01 -2.846499e-01 -1.229022e-01 8.798687e-02 -8.535709e-03 5.016408e-03 2.419731e-01 1.766469e-01 3.415360e-03 6.360464e-02 -6.784630e-03 -2.617685e-01
<VARIANCE> 25
 2.164636e+01 2.905698e+01 2.670818e+01 2.312290e+01 2.377813e+01 1.802979e+01 1.525045e+01 1.720448e+01 1.427208e+01 1.324411e+01 1.013211e+01 1.117419e+01 6.441680e-01 1.028155e+00 1.191228e+00 1.180004e+00 1.212626e+00 1.319282e+00 1.362838e+00 1.335906e+00 1.158777e+00 9.983326e-01 9.829932e-01 8.657808e-01 1.792666e-01
<GCONST> 7.968162e+01
<STATE> 3
<MEAN> 25
 -2.527100e+00 1.857557e+00 -3.480472e+00 2.906544e+00 2.216790e+00 5.160437e+00 1.960166e+00 4.306572e+00 2.159205e+00 -1.977139e+00 4.365593e-01 1.245835e+00 5.436147e-01 -7.111697e-01 1.364981e+00 -1.659993e+00 -5.235429e-01 -5.108418e+00 -1.581610e+00 -1.460609e+00 -6.014393e-01 -3.663010e-01 4.709640e-02 1.382105e-01 2.502552e+00
<VARIANCE> 25
 1.541866e+01 1.462255e+01 2.019222e+01 1.787839e+01 2.012659e+01 2.306932e+01 1.729718e+01 1.510570e+01 1.415625e+01 1.402628e+01 1.262059e+01 1.107237e+01 3.992473e+00 3.470658e+00 3.206988e+00 3.864653e+00 6.586912e+00 5.843476e+00 5.346151e+00 4.160782e+00 3.559476e+00 4.253150e+00 3.008524e+00 3.205318e+00 2.373263e+00
<GCONST> 9.693724e+01
<STATE> 4
<MEAN> 25
 7.669076e-01 2.185779e-01 2.883904e+00 -2.549859e+00 1.305904e+00 -1.320254e+01 -3.136583e+00 -1.748135e+00 -8.470787e-02 -3.740957e+00 -9.699843e-01 1.326043e+00 3.248092e+00 -1.088088e-01 1.601059e+00 -9.536477e-01 -1.948148e+00 -3.397679e+00 -1.898639e+00 -1.748362e+00 3.402441e-02 8.694720e-01 -1.836198e+00 -6.652694e-01 3.466196e+00
<VARIANCE> 25
 5.049598e+01 4.273444e+01 3.759815e+01 5.756561e+01 6.542183e+01 7.833256e+01 6.499734e+01 5.505270e+01 4.036912e+01 4.579673e+01 4.698590e+01 3.394334e+01 4.217444e+00 3.669943e+00 4.020523e+00 6.930017e+00 9.630226e+00 1.008924e+01 4.914206e+00 5.690326e+00 6.359385e+00 5.780985e+00 6.138000e+00 4.670130e+00 2.919812e+00
<GCONST> 1.149306e+02
<TRANSP> 5
 0.000000e+00 1.000000e+00 0.000000e+00 0.000000e+00 0.000000e+00
 0.000000e+00 8.871453e-01 1.128548e-01 0.000000e+00 0.000000e+00
 0.000000e+00 0.000000e+00 4.389422e-01 5.610579e-01 0.000000e+00
 0.000000e+00 0.000000e+00 0.000000e+00 3.796692e-01 6.203307e-01
 0.000000e+00 0.000000e+00 0.000000e+00 0.000000e+00 0.000000e+00
<ENDHMM>
~h "D"
<BEGINHMM>
<NUMSTATES> 5
<STATE> 2
<MEAN> 25
 4.460360e+00 9.217811e-01 1.534018e+00 7.845730e+00 3.270932e+00 -6.047869e+00 -3.774482e+00 1.438731e-01 -1.941881e+00 -3.904541e+00 7.972397e-01 2.702358e+00 2.209951e-01 -6.372303e-01 -1.168988e-01 1.574310e-01 -1.898941e-01 -1.282643e+00 -8.682077e-01 -3.108326e-02 -3.449268e-01 -6.981929e-01 -1.419321e-01 3.314137e-01 4.821704e-01
<VARIANCE> 25
 2.786669e+01 4.877706e+01 3.329696e+01 5.149020e+01 6.202029e+01 1.272053e+02 7.512225e+01 6.319827e+01 5.621458e+01 3.870230e+01 3.215554e+01 3.014353e+01 2.443170e+00 6.194402e+00 3.903422e+00 4.498347e+00 6.122920e+00 1.971666e+01 7.497922e+00 7.042981e+00 6.039254e+00 4.389626e+00 3.599286e+00 3.456629e+00 3.234764e+00
<GCONST> 1.139239e+02
<STATE> 3
<MEAN> 25
 4.051861e+00 2.830465e+00 5.419282e-01 6.430520e+00 2.190501e+00 -8.595930e-01 -5.338094e+00 -3.587112e+00 -4.102022e+00 -4.102006e+00 5.747989e-01 2.467570e+00 -9.268259e-01 2.064475e-01 -5.842092e-01 -6.493621e-01 3.818806e-02 1.250682e+00 7.685413e-01 4.029632e-01 5.424088e-01 1.512360e-01 3.548115e-02 7.744838e-03 -9.731250e-01
<VARIANCE> 25
 2.151861e+01 2.257950e+01 2.062508e+01 3.121196e+01 3.192354e+01 4.239596e+01 4.373473e+01 4.600832e+01 3.337347e+01 2.826212e+01 2.644704e+01 2.193539e+01 6.976335e-01 1.151810e+00 1.353768e+00 1.829956e+00 2.170408e+00 2.594933e+00 2.616465e+00 3.029711e+00 2.247957e+00 2.059558e+00 1.886773e+00 1.620107e+00 5.189896e-01
<GCONST> 9.311131e+01
<STATE> 4
<MEAN> 25
 -2.665748e+00 2.115847e-01 -2.695550e+00 3.498400e+00 3.086447e+00 4.279510e+00 1.011385e+00 3.344188e+00 1.539542e+00 -2.022002e+00 1.266384e+00 1.853004e+00 -3.432131e-01 -3.085722e-01 -1.835826e-01 -1.848102e-01 -1.287988e-01 1.292198e-01 3.675258e-01 4.414655e-01 3.274545e-01 2.323333e-01 7.548741e-02 -1.248053e-01 -1.774061e-01
<VARIANCE> 25
 2.282517e+01 1.857932e+01 1.913054e+01 2.223867e+01 2.301269e+01 2.889722e+01 2.851015e+01 2.742261e+01 1.906055e+01 1.775642e+01 1.325183e+01 1.276677e+01 7.621626e-01 1.427571e+00 1.340159e+00 1.808078e+00 2.061445e+00 3.192354e+00 2.037894e+00 2.565405e+00 1.842623e+00 1.782645e+00 1.492877e+00 1.377858e+00 3.840019e-01
<GCONST> 8.762776e+01
<TRANSP> 5
 0.000000e+00 1.000000e+00 0.000000e+00 0.000000e+00 0.000000e+00
 0.000000e+00 7.203122e-01 2.796879e-01 0.000000e+00 0.000000e+00
 0.000000e+00 0.000000e+00 6.953414e-01 3.046585e-01 0.000000e+00
 0.000000e+00 0.000000e+00 0.000000e+00 7.530920e-01 2.469080e-01
 0.000000e+00 0.000000e+00 0.000000e+00 0.000000e+00 0.000000e+00
<ENDHMM>
~h "F"
<BEGINHMM>
<NUMSTATES> 5
<STATE> 2
<MEAN> 25
 -2.404901e+00 4.525232e-01 -4.465860e-02 -5.991079e+00 5.701115e+00 -5.362128e+00 4.766905e+00 2.896456e+00 1.797958e+00 5.601130e-01 -8.308902e-01 1.620016e+00 -3.294199e+00 1.514337e-01 5.208904e-01 -2.236936e+00 3.498943e+00 -3.931106e+00 2.112561e+00 -3.462800e-01 5.645067e-01 -1.112284e+00 1.121864e+00 -4.879140e-02 7.072984e-01
<VARIANCE> 25
 5.406350e+01 2.082749e+01 2.814069e+01 6.493404e+01 9.980912e+01 9.634903e+01 5.783794e+01 5.595348e+01 4.653943e+01 3.658400e+01 3.064549e+01 2.375019e+01 3.790821e+00 2.594279e+00 2.733191e+00 3.702736e+00 5.092450e+00 6.050957e+00 5.894458e+00 4.879679e+00 4.989917e+00 4.357194e+00 4.239630e+00 3.011972e+00 1.143224e+00
<GCONST> 1.089150e+02
<STATE> 3
<MEAN> 25
 -1.645536e+01 4.173710e+00 -3.662364e-01 -1.248512e+01 1.620108e+01 -1.646564e+01 1.179290e+01 -2.432877e+00 7.022099e+00 -6.877267e+00 6.612533e+00 -2.743328e+00 -1.422608e+00 8.432476e-02 -1.188831e-01 -1.314453e-01 4.087106e-01 -1.662468e-01 1.837873e-01 -1.568789e-01 7.223607e-01 -6.648908e-01 9.800091e-01 -7.775058e-01 9.656551e-02
<VARIANCE> 25
 2.561084e+01 3.903800e+01 2.459471e+01 3.381367e+01 4.345951e+01 2.991955e+01 2.624190e+01 4.139052e+01 4.019835e+01 3.951134e+01 3.760846e+01 3.355693e+01 1.266216e+00 1.737128e+00 1.255873e+00 1.952322e+00 2.110176e+00 2.117112e+00 2.512752e+00 2.636898e+00 2.850069e+00 2.858549e+00 2.934416e+00 2.054703e+00 5.925558e-01
<GCONST> 9.669342e+01
<STATE> 4
<MEAN> 25
 -1.570176e+01 -2.053963e+00 2.213670e+00 -1.117072e+01 1.188288e+01 -1.395953e+01 7.223892e+00 1.129188e-02 6.493856e+00 -4.964212e+00 6.205944e+00 -2.589786e+00 2.884053e+00 -3.207066e-01 3.440013e-01 8.665111e-01 -2.010469e+00 7.671413e-01 -1.807321e+00 6.530096e-02 -1.249214e+00 1.306658e+00 -1.269599e+00 7.103021e-01 -1.825909e-01
<VARIANCE> 25
 3.562387e+01 3.436028e+01 2.097804e+01 4.419321e+01 4.958247e+01 3.684456e+01 4.122514e+01 5.493832e+01 5.703056e+01 3.296769e+01 2.817093e+01 2.473558e+01 7.942391e+00 6.607974e+00 2.209958e+00 3.561221e+00 4.033679e+00 4.026671e+00 3.255850e+00 2.988856e+00 3.688905e+00 3.024843e+00 2.715521e+00 2.194418e+00 1.066526e+00
<GCONST> 1.045582e+02
<TRANSP> 5
 0.000000e+00 1.000000e+00 0.000000e+00 0.000000e+00 0.000000e+00
 0.000000e+00 7.470825e-01 2.529175e-01 0.000000e+00 0.000000e+00
 0.000000e+00 0.000000e+00 8.434587e-01 1.565413e-01 0.000000e+00
 0.000000e+00 0.000000e+00 0.000000e+00 7.963776e-01 2.036224e-01
 0.000000e+00 0.000000e+00 0.000000e+00 0.000000e+00 0.000000e+00
<ENDHMM>
~h "G"
<BEGINHMM>
<NUMSTATES> 5
<STATE> 2
<MEAN> 25
 3.056294e+00 1.881298e+00 2.466463e-01 -5.548165e-01 5.399333e+00 -3.957959e+00 -1.025127e+00 -1.242548e+00 -7.239580e+00 -1.038026e+00 4.494488e+00 1.949064e-01 4.465361e-01 3.957964e-01 -1.857243e-01 -2.818244e-01 -1.239390e-01 1.462527e-01 -3.561127e-01 -1.957014e-01 -8.005566e-02 -1.020524e-01 -1.605306e-01 5.356976e-02 6.972783e-02
<VARIANCE> 25
 3.671458e+01 2.997092e+01 3.393533e+01 8.762485e+01 8.849611e+01 9.110384e+01 5.607246e+01 5.183597e+01 7.118842e+01 4.867067e+01 3.984676e+01 2.554721e+01 3.271795e+00 3.476137e+00 2.960125e+00 8.048573e+00 6.709809e+00 1.292376e+01 5.006732e+00 3.904964e+00 7.442871e+00 4.061688e+00 4.833878e+00 2.190082e+00 3.417081e+00
<GCONST> 1.130284e+02
<STATE> 3
<MEAN> 25
 7.213015e+00 5.066904e+00 -1.608201e+00 9.310861e-01 9.981359e-01 1.529657e+00 -3.131821e+00 -3.037971e+00 -2.784470e+00 7.117112e-01 1.643046e+00 -7.107881e-01 -6.942042e-01 4.011683e-01 -2.235332e-01 2.398538e-01 1.018501e-02 8.820250e-01 6.828384e-01 9.504719e-01 9.987585e-01 -6.187997e-01 -1.211826e-01 4.177386e-01 -9.159740e-01
<VARIANCE> 25
 1.973111e+01 2.299237e+01 2.734872e+01 6.208206e+01 4.697395e+01 3.286174e+01 3.755886e+01 5.391551e+01 3.821015e+01 3.616286e+01 3.613446e+01 2.491006e+01 6.894587e-01 8.799558e-01 1.088731e+00 1.834505e+00 3.079246e+00 2.147383e+00 2.204010e+00 2.678401e+00 2.460829e+00 1.846376e+00 1.859066e+00 1.443044e+00 4.235376e-01
<GCONST> 9.398823e+01
<STATE> 4
<MEAN> 25
 -1.528007e+00 1.350774e+00 -3.506310e+00 1.754828e+00 -4.839766e-01 4.536520e+00 1.188974e+00 2.817243e+00 2.450367e+00 -6.083974e-01 -7.644582e-01 1.816795e+00 -4.219250e-01 -2.387654e-01 -1.407870e-01 -1.963463e-01 -1.750031e-01 -4.883663e-02 1.313232e-01 2.755107e-01 2.807864e-01 -7.929244e-02 -1.343267e-01 -2.922111e-02 -2.338587e-01
<VARIANCE> 25
 2.880031e+01 1.914094e+01 1.777909e+01 2.905347e+01 5.040123e+01 1.413288e+01 1.806628e+01 2.734306e+01 2.261198e+01 1.656209e+01 2.370467e+01 1.457932e+01 6.654154e-01 9.325308e-01 9.314181e-01 1.291515e+00 1.674483e+00 1.890246e+00 1.743689e+00 1.766890e+00 1.850659e+00 1.479490e+00 1.025500e+00 1.064825e+00 2.147808e-01
<GCONST> 8.459029e+01
<TRANSP> 5
 0.000000e+00 1.000000e+00 0.000000e+00 0.000000e+00 0.000000e+00
 0.000000e+00 7.525005e-01 2.474994e-01 0.000000e+00 0.000000e+00
 0.000000e+00 0.000000e+00 6.682522e-01 3.317478e-01 0.000000e+00
 0.000000e+00 0.000000e+00 0.000000e+00 7.759616e-01 2.240383e-01
 0.000000e+00 0.000000e+00 0.000000e+00 0.000000e+00 0.000000e+00
<ENDHMM>
~h "H"
<BEGINHMM>
<NUMSTATES> 5
<STATE> 2
<MEAN> 25
 3.746794e-09 5.162452e-09 -5.053322e-08 -1.176178e-09 -4.129961e-08 1.156777e-08 -2.488769e-09 -2.842228e-08 1.939481e-08 -4.165126e-09 -2.501501e-08 2.303551e-08 3.577962e-03 6.938920e-03 6.624806e-03 1.065556e-02 4.005769e-03 1.077135e-02 5.376180e-03 6.932783e-03 1.001439e-04 2.247728e-03 -5.551362e-03 1.996089e-03 -1.058563e-02
<VARIANCE> 25
 8.398923e+01 5.361852e+01 7.980668e+01 6.500343e+01 7.038336e+01 7.871307e+01 8.644672e+01 6.166912e+01 5.608315e+01 4.237015e+01 3.861844e+01 3.055560e+01 2.481388e+00 2.277276e+00 2.680743e+00 2.911283e+00 3.184309e+00 4.598707e+00 3.945391e+00 3.126148e+00 3.124175e+00 2.684262e+00 2.548065e+00 1.997868e+00 1.357808e+00
<GCONST> 1.080039e+02
<STATE> 3
<MEAN> 25
 3.746794e-09 5.162452e-09 -5.053322e-08 -1.176178e-09 -4.129961e-08 1.156777e-08 -2.488769e-09 -2.842228e-08 1.939481e-08 -4.165126e-09 -2.501501e-08 2.303551e-08 3.577962e-03 6.938920e-03 6.624806e-03 1.065556e-02 4.005769e-03 1.077135e-02 5.376180e-03 6.932783e-03 1.001439e-04 2.247728e-03 -5.551362e-03 1.996089e-03 -1.058563e-02
<VARIANCE> 25
 8.398923e+01 5.361852e+01 7.980668e+01 6.500343e+01 7.038336e+01 7.871307e+01 8.644672e+01 6.166912e+01 5.608315e+01 4.237015e+01 3.861844e+01 3.055560e+01 2.481388e+00 2.277276e+00 2.680743e+00 2.911283e+00 3.184309e+00 4.598707e+00 3.945391e+00 3.126148e+00 3.124175e+00 2.684262e+00 2.548065e+00 1.997868e+00 1.357808e+00
<GCONST> 1.080039e+02
<STATE> 4
<MEAN> 25
 3.746794e-09 5.162452e-09 -5.053322e-08 -1.176178e-09 -4.129961e-08 1.156777e-08 -2.488769e-09 -2.842228e-08 1.939481e-08 -4.165126e-09 -2.501501e-08 2.303551e-08 3.577962e-03 6.938920e-03 6.624806e-03 1.065556e-02 4.005769e-03 1.077135e-02 5.376180e-03 6.932783e-03 1.001439e-04 2.247728e-03 -5.551362e-03 1.996089e-03 -1.058563e-02
<VARIANCE> 25
 8.398923e+01 5.361852e+01 7.980668e+01 6.500343e+01 7.038336e+01 7.871307e+01 8.644672e+01 6.166912e+01 5.608315e+01 4.237015e+01 3.861844e+01 3.055560e+01 2.481388e+00 2.277276e+00 2.680743e+00 2.911283e+00 3.184309e+00 4.598707e+00 3.945391e+00 3.126148e+00 3.124175e+00 2.684262e+00 2.548065e+00 1.997868e+00 1.357808e+00
<GCONST> 1.080039e+02
<TRANSP> 5
 0.000000e+00 1.000000e+00 0.000000e+00 0.000000e+00 0.000000e+00
 0.000000e+00 6.000000e-01 4.000000e-01 0.000000e+00 0.000000e+00
 0.000000e+00 0.000000e+00 6.000000e-01 4.000000e-01 0.000000e+00
 0.000000e+00 0.000000e+00 0.000000e+00 7.000000e-01 3.000000e-01
 0.000000e+00 0.000000e+00 0.000000e+00 0.000000e+00 0.000000e+00
<ENDHMM>
~h "I"
<BEGINHMM>
<NUMSTATES> 5
<STATE> 2
<MEAN> 25
 3.571241e+00 5.500574e-01 1.372595e-01 -2.596820e+00 1.337243e+01 -4.109480e+00 -1.406039e+00 -1.429983e+00 -1.483073e+01 -4.317218e+00 9.133512e+00 -3.530432e+00 -6.937951e-01 -3.213035e-02 3.985640e-01 4.781119e-01 1.234262e+00 -8.514787e-02 -2.382738e-01 -1.042242e+00 7.585961e-01 8.300944e-02 -7.170378e-02 -2.010472e-01 5.737606e-01
<VARIANCE> 25
 7.009607e+01 2.932368e+01 1.579061e+01 6.620769e+01 9.205989e+01 4.976299e+01 9.526087e+01 6.878224e+01 1.176999e+02 6.693591e+01 5.210964e+01 2.894423e+01 9.203291e+00 4.021285e+00 2.579378e+00 2.345711e+00 3.806136e+00 6.961117e+00 1.133975e+01 3.463166e+00 1.297358e+01 7.394449e+00 7.992807e+00 4.929394e+00 1.148676e+00
<GCONST> 1.147700e+02
<STATE> 3
<MEAN> 25
 -1.115709e+01 -6.489950e-01 8.971757e-01 -2.569737e+00 1.453903e+01 -1.334815e+01 4.348292e+00 -9.432705e+00 1.322934e+00 -4.064344e+00 7.075134e+00 -3.632044e+00 2.008612e+00 -4.441242e-01 -1.850339e-02 4.081995e-01 -5.664004e-01 2.082216e-01 -1.281906e+00 1.373574e+00 -1.161104e-01 6.805214e-01 -3.779859e-01 9.515154e-01 -2.403874e-01
<VARIANCE> 25
 8.486274e+01 4.430426e+01 5.025183e+00 2.022392e+01 4.032036e+01 2.485995e+01 2.641903e+01 2.366006e+01 2.902254e+01 2.322679e+01 1.915925e+01 1.909619e+01 1.093423e+01 5.452727e+00 1.058720e+00 1.366335e+00 2.810568e+00 1.350140e+00 2.916143e+00 1.730330e+00 1.639160e+00 1.811727e+00 1.427485e+00 1.543927e+00 6.574344e-01
<GCONST> 9.343269e+01
<STATE> 4
<MEAN> 25
 6.567348e+00 -1.397135e+00 1.324092e+00 2.083523e+00 7.974044e+00 -3.562947e+00 -4.174382e+00 -9.144408e-01 -1.252942e+00 7.926308e-01 -2.709920e-01 8.368759e-01 1.045597e+00 3.843995e-01 -4.526531e-01 1.519467e+00 -8.698729e-01 2.999236e+00 -2.896172e-01 2.709576e-01 -1.303632e-01 5.661145e-01 -1.240065e+00 -1.163366e+00 -8.955913e-01
<VARIANCE> 25
 1.755707e+01 3.952949e+00 2.165892e+01 1.927525e+01 6.465319e+01 5.830913e+01 3.638276e+01 3.203334e+01 1.256909e+01 2.422534e+01 2.866429e+01 3.316825e+01 3.710218e+00 1.214647e+00 1.321100e+00 1.317882e+00 3.597233e+00 3.780121e+00 4.571523e+00 6.383754e+00 4.541210e+00 1.849067e+00 4.126597e+00 2.206797e+00 1.026193e+00
<GCONST> 9.649891e+01
<TRANSP> 5
 0.000000e+00 1.000000e+00 0.000000e+00 0.000000e+00 0.000000e+00
 0.000000e+00 8.023476e-01 1.976523e-01 0.000000e+00 0.000000e+00
 0.000000e+00 0.000000e+00 8.245093e-01 1.754907e-01 0.000000e+00
 0.000000e+00 0.000000e+00 0.000000e+00 7.115102e-01 2.884897e-01
 0.000000e+00 0.000000e+00 0.000000e+00 0.000000e+00 0.000000e+00
<ENDHMM>
~h "K"
<BEGINHMM>
<NUMSTATES> 5
<STATE> 2
<MEAN> 25
 -5.108933e+00 -2.499164e+00 -3.721969e+00 -5.293339e+00 1.159807e+00 -5.735250e+00 4.881280e+00 -2.478039e-01 -2.380276e-02 -1.511451e+00 2.321012e+00 2.684154e-01 -9.894500e-01 -1.208896e+00 6.034154e-01 -2.614967e+00 1.269958e-01 -4.676952e+00 1.190011e+00 -8.942970e-01 -3.380696e-01 -5.508818e-01 9.826704e-01 -4.761829e-01 2.395819e+00
<VARIANCE> 25
 2.871511e+01 3.461474e+01 5.029048e+01 9.029074e+01 6.779949e+01 1.915431e+02 6.895271e+01 7.169895e+01 4.898630e+01 4.535366e+01 4.965213e+01 4.603459e+01 2.249108e+00 3.522922e+00 4.917320e+00 8.787682e+00 1.015417e+01 1.920687e+01 8.169212e+00 7.790081e+00 6.042438e+00 5.624613e+00 6.507106e+00 4.619220e+00 4.217009e+00
<GCONST> 1.183180e+02
<STATE> 3
<MEAN> 25
 -7.804768e+00 -7.001933e+00 3.421825e+00 -9.059943e+00 -1.643123e+00 -1.145683e+01 8.460395e+00 -1.509312e+00 -1.326648e+00 -1.636326e+00 2.623328e+00 1.746081e-01 2.121804e-01 -6.081215e-01 1.812673e-01 6.987929e-01 -5.245855e-01 6.071688e-01 -6.048005e-01 2.089580e-01 -2.530432e-01 5.226405e-01 -2.760371e-01 2.567850e-01 -3.756903e-01
<VARIANCE> 25
 3.941375e+01 3.741235e+01 7.775192e+01 8.881392e+01 1.046960e+02 1.851825e+02 9.969922e+01 9.176514e+01 4.801379e+01 8.170334e+01 5.757836e+01 4.891352e+01 1.573310e+00 2.224853e+00 2.933698e+00 3.966823e+00 3.842514e+00 5.296601e+00 3.541461e+00 3.384449e+00 3.398685e+00 3.835993e+00 2.865984e+00 1.906131e+00 1.399074e+00
<GCONST> 1.111003e+02
<STATE> 4
<MEAN> 25
 -4.054162e+00 -7.728453e+00 -4.676318e+00 -1.455504e+00 4.337812e-01 -5.201704e+00 8.423625e-01 7.734525e-01 -2.065419e+00 1.692878e+00 3.922230e+00 -3.606603e-02 6.625008e-01 1.591197e-01 -2.156874e-01 8.945528e-01 -5.451864e-01 1.640971e+00 -3.150649e-01 5.710348e-01 4.066844e-01 6.631894e-01 -3.253916e-01 -8.128037e-02 -5.646103e-01
<VARIANCE> 25
 1.034506e+01 4.967704e+01 2.798800e+01 5.437829e+01 4.589677e+01 1.305898e+02 4.461916e+01 4.227221e+01 4.120317e+01 4.697679e+01 3.385323e+01 2.359923e+01 1.926650e+00 2.906503e+00 2.732136e+00 2.997330e+00 3.095063e+00 7.756998e+00 3.473085e+00 3.438797e+00 3.167026e+00 4.021831e+00 2.607228e+00 2.298470e+00 1.701050e+00
<GCONST> 1.043593e+02
<TRANSP> 5
 0.000000e+00 1.000000e+00 0.000000e+00 0.000000e+00 0.000000e+00
 0.000000e+00 6.756623e-01 3.243378e-01 0.000000e+00 0.000000e+00
 0.000000e+00 0.000000e+00 6.283514e-01 3.716485e-01 0.000000e+00
 0.000000e+00 0.000000e+00 0.000000e+00 7.568493e-01 2.431507e-01
 0.000000e+00 0.000000e+00 0.000000e+00 0.000000e+00 0.000000e+00
<ENDHMM>
~h "L"
<BEGINHMM>
<NUMSTATES> 5
<STATE> 2
<MEAN> 25
 4.212617e+00 4.638025e+00 6.139761e+00 -3.104596e+00 -6.059728e+00 -5.520110e+00 5.373843e-01 -6.115820e-01 2.076826e+00 -1.727248e-02 -5.036101e+00 -1.695643e+00 1.528209e+00 9.195656e-01 8.877116e-01 1.138888e-01 -2.154271e+00 -4.384845e-01 -3.733507e-01 -2.405999e-01 4.714523e-01 3.922926e-01 -9.495459e-01 -7.806769e-01 5.863909e-01
<VARIANCE> 25
 5.488919e+01 4.049554e+01 4.377905e+01 5.887974e+01 1.435228e+02 6.723947e+01 6.606988e+01 5.747071e+01 4.275188e+01 4.492261e+01 5.542813e+01 3.541188e+01 4.238452e+00 4.195703e+00 3.526159e+00 5.339706e+00 8.715874e+00 6.827818e+00 6.971090e+00 4.693835e+00 3.335078e+00 4.964479e+00 5.180954e+00 3.677259e+00 1.740650e+00
<GCONST> 1.137634e+02
<STATE> 3
<MEAN> 25
 1.003882e+01 7.015940e+00 7.836763e+00 -6.741445e-01 -1.755536e+01 -5.939970e+00 -7.943899e-01 -2.093344e+00 3.999133e+00 3.062258e+00 -6.322820e+00 -4.250988e+00 -6.837962e-02 2.123024e-01 -1.721791e-02 2.681903e-01 -3.474039e-02 6.547936e-02 1.854822e-01 -4.548255e-02 -1.406591e-01 2.123967e-02 2.470693e-01 -9.004994e-02 -2.148491e-01
<VARIANCE> 25
 8.786331e+00 2.278860e+01 2.237140e+01 4.101222e+01 4.459751e+01 5.576913e+01 3.563346e+01 3.606886e+01 3.457966e+01 3.296880e+01 4.320251e+01 3.285060e+01 2.927702e-01 9.115548e-01 9.496205e-01 1.082326e+00 2.530939e+00 1.421938e+00 1.431111e+00 1.543890e+00 1.761845e+00 1.421701e+00 1.795367e+00 1.373098e+00 3.539070e-01
<GCONST> 8.890392e+01
<STATE> 4
<MEAN> 25
 3.793881e+00 5.585949e+00 1.717643e+00 9.239122e-01 -6.493488e+00 -2.029841e-01 -1.336935e-01 5.709599e-01 2.423104e+00 1.328057e-01 -1.799957e+00 -9.181248e-01 -6.827892e-01 -3.541462e-01 -5.996076e-01 1.275102e-01 1.371153e+00 4.629834e-01 -8.669935e-02 1.836593e-01 -1.442981e-01 -3.434678e-01 3.564142e-01 3.857990e-01 -3.992735e-01
<VARIANCE> 25
 3.424876e+01 2.643003e+01 3.320360e+01 2.612051e+01 5.500067e+01 4.249805e+01 2.759526e+01 3.788992e+01 2.384123e+01 3.400793e+01 2.996949e+01 1.915785e+01 6.877645e-01 1.135717e+00 1.351088e+00 1.825100e+00 3.634336e+00 2.902919e+00 2.111513e+00 2.173537e+00 2.041663e+00 2.214039e+00 1.729514e+00 1.430489e+00 6.210260e-01
<GCONST> 9.375397e+01
<TRANSP> 5
 0.000000e+00 1.000000e+00 0.000000e+00 0.000000e+00 0.000000e+00
 0.000000e+00 7.134467e-01 2.865533e-01 0.000000e+00 0.000000e+00
 0.000000e+00 0.000000e+00 8.535646e-01 1.464353e-01 0.000000e+00
 0.000000e+00 0.000000e+00 0.000000e+00 8.068054e-01 1.931947e-01
 0.000000e+00 0.000000e+00 0.000000e+00 0.000000e+00 0.000000e+00
<ENDHMM>
~h "M"
<BEGINHMM>
<NUMSTATES> 5
<STATE> 2
<MEAN> 25
 7.621121e+00 6.075709e+00 6.028145e-02 3.994816e+00 1.418354e+00 4.780586e+00 -1.210587e+00 -1.738801e+00 -1.989679e+00 -1.940793e+00 -2.825666e+00 -2.578519e+00 5.380651e-01 8.890034e-01 5.145615e-01 1.177560e+00 1.055224e+00 1.432248e+00 -6.109533e-02 -1.124710e+00 -2.075744e-01 1.021946e-01 -8.112950e-01 -8.804765e-01 -1.260808e-01
<VARIANCE> 25
 2.897849e+01 2.206196e+01 2.234526e+01 3.672707e+01 3.415060e+01 2.785221e+01 3.155021e+01 3.545267e+01 2.431350e+01 2.624631e+01 2.270009e+01 3.413505e+01 2.182308e+00 1.855968e+00 2.241483e+00 2.434274e+00 2.840605e+00 2.326180e+00 2.304012e+00 3.079664e+00 1.954699e+00 1.945477e+00 1.431264e+00 2.423269e+00 1.151077e+00
<GCONST> 9.576960e+01
<STATE> 3
<MEAN> 25
 8.670265e+00 8.325190e+00 1.657972e+00 6.213473e+00 3.806102e+00 7.122115e+00 -2.141259e+00 -5.142305e+00 -2.407480e+00 -1.280573e+00 -4.117569e+00 -3.674109e+00 -9.640419e-02 1.105576e-01 1.144752e-01 1.658178e-01 1.992835e-01 9.122698e-02 -4.487005e-02 -1.138294e-01 5.288973e-03 -7.634783e-02 -4.000851e-02 -8.867896e-02 -9.167663e-02
<VARIANCE> 25
 8.058844e+00 1.204135e+01 1.747941e+01 1.963906e+01 1.883647e+01 2.083541e+01 2.799547e+01 3.952932e+01 1.843140e+01 3.015952e+01 1.931406e+01 2.742095e+01 1.446246e-01 3.243321e-01 5.399091e-01 5.944699e-01 9.531453e-01 7.932514e-01 1.045394e+00 1.184934e+00 9.582080e-01 1.033594e+00 8.734628e-01 7.861556e-01 1.230977e-01
<GCONST> 7.519292e+01
<STATE> 4
<MEAN> 25
 3.529705e+00 5.272175e+00 -7.460917e-01 3.554669e+00 1.919070e+00 4.899452e+00 -2.275646e-01 1.418443e+00 1.119708e+00 -1.621306e+00 -2.240794e+00 -1.787655e+00 -3.361468e-01 -2.417575e-01 -2.679822e-01 -3.959494e-01 -4.018953e-01 -4.755305e-01 -3.899065e-02 4.348722e-01 3.568584e-01 1.260244e-01 3.600732e-01 3.845345e-01 -1.563241e-01
<VARIANCE> 25
 3.704951e+01 1.955545e+01 1.597869e+01 2.112196e+01 1.991021e+01 2.355425e+01 2.480448e+01 3.520896e+01 2.302736e+01 1.792751e+01 1.942055e+01 2.984060e+01 7.203147e-01 7.446082e-01 7.803165e-01 1.604702e+00 1.561913e+00 2.236867e+00 2.039164e+00 2.131651e+00 1.721892e+00 1.684311e+00 1.619926e+00 1.657174e+00 4.827639e-01
<GCONST> 8.730848e+01
<TRANSP> 5
 0.000000e+00 1.000000e+00 0.000000e+00 0.000000e+00 0.000000e+00
 0.000000e+00 6.314809e-01 3.685190e-01 0.000000e+00 0.000000e+00
 0.000000e+00 0.000000e+00 8.385614e-01 1.614386e-01 0.000000e+00
 0.000000e+00 0.000000e+00 0.000000e+00 7.865673e-01 2.134327e-01
 0.000000e+00 0.000000e+00 0.000000e+00 0.000000e+00 0.000000e+00
<ENDHMM>
~h "N"
<BEGINHMM>
<NUMSTATES> 5
<STATE> 2
<MEAN> 25
 8.279552e+00 1.821478e+00 1.373214e+00 2.564656e-01 3.270594e+00 1.763960e+00 -6.305364e+00 -1.846825e+00 1.348199e+00 3.026007e-01 -8.853691e-01 -1.586617e+00 2.253053e-01 6.705140e-01 -1.927595e-01 1.128280e+00 5.490996e-01 8.655487e-01 1.203975e-02 -5.573859e-01 -4.510374e-01 2.046783e-01 -4.458931e-01 -2.670377e-01 -6.259376e-01
<VARIANCE> 25
 1.312448e+01 2.343073e+01 3.034858e+01 5.130649e+01 3.678366e+01 4.947718e+01 5.814251e+01 6.886858e+01 4.436127e+01 4.088995e+01 4.021310e+01 3.535151e+01 1.036815e+00 1.577198e+00 1.887110e+00 3.692955e+00 3.101248e+00 4.843801e+00 4.256102e+00 4.257801e+00 4.441297e+00 3.286812e+00 3.486964e+00 2.573937e+00 1.295213e+00
<GCONST> 1.027644e+02
<STATE> 3
<MEAN> 25
 8.188174e+00 6.706597e+00 2.405714e+00 7.822889e+00 4.747313e+00 4.964513e+00 -4.742167e+00 -6.376989e+00 -8.614143e-01 8.204778e-01 -3.540932e+00 -2.304569e+00 -2.969997e-01 5.223829e-01 3.531322e-01 3.810688e-01 7.754034e-02 1.092583e-01 1.757372e-01 3.537855e-02 -1.038342e-01 -3.518454e-01 3.979705e-03 1.629340e-01 -4.364461e-01
<VARIANCE> 25
 9.110508e+00 1.401368e+01 2.159955e+01 1.626661e+01 2.018933e+01 1.605834e+01 2.359842e+01 2.684031e+01 1.907839e+01 2.981285e+01 2.222601e+01 2.101192e+01 2.530694e-01 5.476214e-01 7.892950e-01 7.814360e-01 1.131585e+00 1.074242e+00 1.494903e+00 1.712594e+00 1.279921e+00 1.389792e+00 1.428394e+00 1.204145e+00 2.159799e-01
<GCONST> 7.964200e+01
<STATE> 4
<MEAN> 25
 1.165520e+00 4.788249e+00 -3.864149e-01 4.929158e+00 3.586569e+00 5.693887e+00 6.164656e-01 1.023563e+00 3.687773e-01 -2.105512e+00 -3.016975e-01 1.298692e+00 -5.694453e-01 -3.561207e-01 -2.764284e-01 -1.639450e-01 -1.290183e-01 -1.323578e-01 2.891633e-01 5.076690e-01 1.762320e-01 -4.982822e-02 1.697058e-01 1.107081e-01 -3.238474e-01
<VARIANCE> 25
 2.894344e+01 2.144532e+01 2.768123e+01 2.015653e+01 1.729349e+01 1.909746e+01 2.224367e+01 2.486200e+01 1.795143e+01 1.458685e+01 1.369866e+01 1.116112e+01 6.774991e-01 8.401250e-01 1.163460e+00 1.194651e+00 1.309078e+00 1.670802e+00 1.607371e+00 1.817544e+00 1.402156e+00 1.302898e+00 1.306382e+00 9.724762e-01 2.968514e-01
<GCONST> 8.266272e+01
<TRANSP> 5
 0.000000e+00 1.000000e+00 0.000000e+00 0.000000e+00 0.000000e+00
 0.000000e+00 7.692505e-01 2.307495e-01 0.000000e+00 0.000000e+00
 0.000000e+00 0.000000e+00 8.252267e-01 1.747733e-01 0.000000e+00
 0.000000e+00 0.000000e+00 0.000000e+00 8.236204e-01 1.763796e-01
 0.000000e+00 0.000000e+00 0.000000e+00 0.000000e+00 0.000000e+00
<ENDHMM>
~h "P"
<BEGINHMM>
<NUMSTATES> 5
<STATE> 2
<MEAN> 25
 -4.068093e+00 -2.841625e+00 -2.621668e+00 -4.747443e-01 -1.217159e+00 -3.138306e+00 9.191755e-01 7.192401e-01 -1.117175e+00 -1.410227e+00 3.596794e-01 -1.479202e-01 5.989338e-02 -8.422125e-01 6.094737e-01 -1.628895e+00 3.096111e-01 -3.397886e+00 -1.685635e+00 -6.198583e-01 4.004035e-01 -4.648926e-01 5.283514e-02 9.514335e-02 1.787755e+00
<VARIANCE> 25
 1.404571e+01 2.026059e+01 3.071295e+01 4.030294e+01 2.929985e+01 1.140310e+02 6.285429e+01 3.918425e+01 3.493447e+01 3.028654e+01 3.036828e+01 2.434137e+01 1.973920e+00 2.926285e+00 5.253283e+00 6.045543e+00 4.970926e+00 1.308179e+01 7.122399e+00 5.788735e+00 4.133060e+00 3.644101e+00 4.480456e+00 3.850323e+00 4.621455e+00
<GCONST> 1.084086e+02
<STATE> 3
<MEAN> 25
 -1.721242e+00 -6.271026e+00 -4.008598e+00 -4.081211e+00 -4.819671e+00 -8.605463e+00 -3.032558e+00 2.899385e+00 1.019479e+00 -2.429641e+00 -1.264979e+00 4.867001e-02 4.327256e-01 -4.437186e-01 -1.223869e+00 2.225777e-01 -7.390888e-01 9.952198e-01 2.680971e-01 9.583906e-01 5.887670e-01 2.030668e-01 -8.856137e-02 -4.392008e-02 -3.563651e-01
<VARIANCE> 25
 1.538334e+01 4.128561e+01 4.255301e+01 6.296859e+01 4.999610e+01 7.190603e+01 5.879352e+01 6.203173e+01 5.326607e+01 4.468470e+01 4.816919e+01 2.335894e+01 1.515048e+00 2.757869e+00 2.741335e+00 3.639812e+00 3.522226e+00 5.493762e+00 4.347488e+00 3.659604e+00 3.265038e+00 3.195709e+00 2.223848e+00 2.560893e+00 1.347022e+00
<GCONST> 1.053262e+02
<STATE> 4
<MEAN> 25
 -3.921114e+00 -2.113004e+00 -6.120979e+00 7.378799e-01 -1.359958e+00 2.308682e+00 1.441321e+00 2.594365e+00 5.857106e-01 -6.810915e-01 1.232375e+00 3.429058e-01 3.645809e-02 1.707407e-01 -8.844391e-03 1.135194e-01 2.011928e-01 1.298061e-01 -1.110102e-01 1.819360e-01 1.452765e-01 -3.616659e-02 5.960311e-02 6.614803e-02 -9.820496e-02
<VARIANCE> 25
 9.902036e+00 1.319806e+01 1.115901e+01 1.745490e+01 1.857122e+01 3.161601e+01 2.989290e+01 1.901139e+01 2.701450e+01 1.490217e+01 1.361409e+01 1.285537e+01 6.565992e-01 1.056699e+00 9.461566e-01 1.076486e+00 1.460441e+00 3.214658e+00 2.720587e+00 1.667801e+00 2.287090e+00 1.342120e+00 1.222162e+00 1.071513e+00 4.522388e-01
<GCONST> 8.328159e+01
<TRANSP> 5
 0.000000e+00 1.000000e+00 0.000000e+00 0.000000e+00 0.000000e+00
 0.000000e+00 4.899417e-01 5.100583e-01 0.000000e+00 0.000000e+00
 0.000000e+00 0.000000e+00 6.400603e-01 3.599397e-01 0.000000e+00
 0.000000e+00 0.000000e+00 0.000000e+00 8.161843e-01 1.838157e-01
 0.000000e+00 0.000000e+00 0.000000e+00 0.000000e+00 0.000000e+00
<ENDHMM>
~h "R"
<BEGINHMM>
<NUMSTATES> 5
<STATE> 2
<MEAN> 25
 5.574728e+00 3.934100e+00 -2.134615e+00 -5.384790e+00 -1.422778e+00 -9.629688e-01 -2.150709e+00 1.182250e+00 -4.290962e+00 -4.503452e+00 1.674456e+00 1.453109e+00 2.171224e+00 2.059331e+00 -2.892471e-01 -1.111149e+00 -7.903547e-01 2.892554e-01 5.439453e-01 -2.143168e-01 -1.618845e+00 -6.058907e-01 -1.834463e-01 2.903973e-01 6.458673e-01
<VARIANCE> 25
 4.801454e+01 5.808426e+01 4.252374e+01 6.923753e+01 5.058073e+01 4.992022e+01 5.783113e+01 5.214391e+01 5.451630e+01 4.249263e+01 4.286930e+01 2.922962e+01 4.962761e+00 5.752349e+00 3.169309e+00 6.163942e+00 4.504702e+00 6.831655e+00 5.900018e+00 4.694023e+00 5.147523e+00 4.540784e+00 3.584112e+00 3.232479e+00 1.974287e+00
<GCONST> 1.119479e+02
<STATE> 3
<MEAN> 25
 1.156418e+01 9.716374e+00 -3.330320e+00 -1.045401e+01 -3.615801e+00 6.740570e-02 1.201569e+00 1.274619e+00 -9.216474e+00 -4.944489e+00 6.478470e-01 2.366232e+00 2.473371e-01 -1.336704e-01 -5.790081e-01 -5.071419e-01 4.966068e-01 6.850843e-01 4.013348e-01 -7.323156e-01 -1.219684e+00 1.449319e-02 7.107360e-01 7.238264e-01 2.503464e-01
<VARIANCE> 25
 1.431220e+01 2.472848e+01 2.154586e+01 5.591786e+01 4.834580e+01 3.367704e+01 4.174424e+01 4.371139e+01 9.703346e+01 5.342009e+01 5.450893e+01 3.786298e+01 5.702866e-01 1.388332e+00 1.165534e+00 2.613183e+00 2.655478e+00 2.234016e+00 2.652496e+00 3.215765e+00 4.362810e+00 3.062624e+00 3.937489e+00 2.548877e+00 6.118191e-01
<GCONST> 9.921152e+01
<STATE> 4
<MEAN> 25
 8.671821e+00 5.546264e+00 -6.163963e+00 -5.661643e+00 2.711137e+00 5.333084e+00 -1.022925e+00 -5.006389e+00 -1.077295e+01 -2.818248e+00 5.809264e+00 5.346559e+00 -6.297314e-01 -3.805667e-01 1.404155e-01 9.613512e-01 3.729835e-01 3.010392e-02 -2.983909e-01 -1.130539e-01 7.913609e-01 2.776805e-01 -2.463987e-01 -2.776858e-01 -4.268644e-01
<VARIANCE> 25
 2.719974e+01 1.619435e+01 1.636175e+01 4.920772e+01 3.712957e+01 2.367672e+01 3.468437e+01 3.857577e+01 6.021267e+01 3.106482e+01 2.774559e+01 2.061938e+01 6.249344e-01 1.172854e+00 8.735299e-01 1.541294e+00 1.994272e+00 1.852755e+00 2.580322e+00 2.393345e+00 2.298890e+00 2.428697e+00 1.945998e+00 1.714489e+00 4.667604e-01
<GCONST> 9.186390e+01
<TRANSP> 5
 0.000000e+00 1.000000e+00 0.000000e+00 0.000000e+00 0.000000e+00
 0.000000e+00 6.050822e-01 3.949178e-01 0.000000e+00 0.000000e+00
 0.000000e+00 0.000000e+00 6.909103e-01 3.090897e-01 0.000000e+00
 0.000000e+00 0.000000e+00 0.000000e+00 8.213921e-01 1.786079e-01
 0.000000e+00 0.000000e+00 0.000000e+00 0.000000e+00 0.000000e+00
<ENDHMM>
~h "S"
<BEGINHMM>
<NUMSTATES> 5
<STATE> 2
<MEAN> 25
 -7.721084e+00 -6.830656e+00 1.094639e+01 -3.679624e+00 -1.004329e+00 -4.091946e+00 9.879481e+00 -1.097216e+00 -2.479534e+00 9.543825e-01 6.466591e-01 2.860930e+00 -3.630053e+00 -2.010251e+00 3.715571e+00 -2.089648e+00 4.821652e-01 -2.330770e+00 3.126848e+00 -6.353365e-01 2.452325e-01 -4.171095e-01 6.233900e-01 1.606017e-01 1.505252e+00
<VARIANCE> 25
 6.214864e+01 4.098598e+01 9.192266e+01 7.541455e+01 5.106941e+01 1.075284e+02 8.087083e+01 9.773444e+01 7.382231e+01 5.116875e+01 3.934351e+01 2.996426e+01 2.553563e+00 2.976178e+00 3.986849e+00 4.227968e+00 3.995799e+00 6.994953e+00 4.537099e+00 5.844298e+00 5.853126e+00 5.001851e+00 4.740970e+00 3.275436e+00 9.704785e-01
<GCONST> 1.130794e+02
<STATE> 3
<MEAN> 25
 -2.077437e+01 -1.057057e+01 2.059280e+01 -9.607068e+00 1.316716e+00 -1.031425e+01 2.058026e+01 -4.562019e+00 2.265604e+00 -2.779816e+00 4.975067e+00 4.825224e-01 -3.864067e-01 -1.678520e-01 2.426247e-02 1.526724e-01 5.879233e-02 -3.364317e-03 2.721701e-01 1.263442e-01 1.231007e-01 -5.121714e-02 1.371837e-01 -2.137252e-01 -6.432617e-02
<VARIANCE> 25
 1.329128e+01 1.761535e+01 1.354338e+01 2.577096e+01 2.257065e+01 6.982189e+01 3.212754e+01 7.388773e+01 6.213979e+01 3.550488e+01 2.492821e+01 2.259770e+01 1.062589e+00 5.799709e-01 8.484914e-01 9.127080e-01 1.045729e+00 1.530601e+00 1.880943e+00 1.956119e+00 2.008949e+00 1.881402e+00 1.524136e+00 1.345641e+00 2.862310e-01
<GCONST> 8.825609e+01
<STATE> 4
<MEAN> 25
 -1.215667e+01 -1.009363e+01 1.017936e+01 -1.795712e+00 -3.350380e+00 -6.300778e-01 1.454273e+01 -2.120840e+00 -3.429058e+00 3.973027e+00 6.438923e-01 -1.196869e+00 1.550232e+00 5.881508e-01 -1.647225e+00 1.004110e+00 -2.801772e-01 9.889294e-01 -1.721564e+00 5.509095e-01 -4.588461e-01 3.172629e-01 -4.136944e-01 -1.200844e-01 -8.961934e-01
<VARIANCE> 25
 2.903594e+01 1.814004e+01 5.411076e+01 4.829555e+01 4.675254e+01 9.395537e+01 4.802547e+01 6.938879e+01 5.906858e+01 7.148353e+01 5.257394e+01 3.403833e+01 2.252661e+00 1.657102e+00 1.823432e+00 1.977440e+00 2.600000e+00 3.517632e+00 4.131572e+00 2.777885e+00 3.629057e+00 3.624720e+00 3.237230e+00 2.387305e+00 7.088220e-01
<GCONST> 1.039498e+02
<TRANSP> 5
 0.000000e+00 1.000000e+00 0.000000e+00 0.000000e+00 0.000000e+00
 0.000000e+00 7.795291e-01 2.204709e-01 0.000000e+00 0.000000e+00
 0.000000e+00 0.000000e+00 8.827338e-01 1.172662e-01 0.000000e+00
 0.000000e+00 0.000000e+00 0.000000e+00 8.588200e-01 1.411800e-01
 0.000000e+00 0.000000e+00 0.000000e+00 0.000000e+00 0.000000e+00
<ENDHMM>
~h "T"
<BEGINHMM>
<NUMSTATES> 5
<STATE> 2
<MEAN> 25
 -5.450194e+00 -7.173415e+00 6.904846e-01 -8.868674e-01 -4.145500e-01 -8.430816e+00 2.026785e-01 1.806470e+00 1.246468e+00 -2.818252e+00 6.092564e-01 1.380902e+00 -1.145541e+00 -2.699326e+00 2.071092e+00 -6.384454e-01 -1.769861e-01 -4.133058e+00 -6.022785e-01 -3.606845e-01 5.574600e-01 -6.502262e-01 1.118269e-01 3.055599e-01 2.200537e+00
<VARIANCE> 25
 3.409921e+01 5.624070e+01 7.492847e+01 4.691086e+01 5.872892e+01 1.890457e+02 6.344233e+01 6.014645e+01 5.332676e+01 3.760519e+01 3.657239e+01 2.863515e+01 3.535703e+00 4.570332e+00 7.088702e+00 4.808996e+00 5.291147e+00 1.442148e+01 8.069017e+00 5.848066e+00 4.663146e+00 4.418445e+00 4.128173e+00 3.687889e+00 4.224436e+00
<GCONST> 1.154796e+02
<STATE> 3
<MEAN> 25
 -8.429882e+00 -1.478136e+01 5.831061e+00 -1.183091e+00 1.064097e+00 -1.207714e+01 -1.803206e+00 2.559039e+00 9.012731e-01 -1.500174e+00 2.040698e+00 2.935659e+00 9.735165e-01 4.717245e-01 -1.539265e+00 1.058935e+00 -2.980732e-01 2.280579e+00 -7.841178e-01 3.719137e-01 -4.094786e-01 6.495624e-01 3.501666e-01 5.908700e-02 -1.149990e+00
<VARIANCE> 25
 3.243293e+01 3.614512e+01 5.567756e+01 4.815115e+01 7.659063e+01 9.224084e+01 8.115014e+01 8.628079e+01 4.800002e+01 3.586734e+01 3.359725e+01 3.116712e+01 1.970574e+00 2.055490e+00 2.937175e+00 2.718079e+00 3.289930e+00 3.959984e+00 5.221667e+00 4.306322e+00 3.959159e+00 3.821435e+00 2.997658e+00 2.410826e+00 1.190012e+00
<GCONST> 1.070538e+02
<STATE> 4
<MEAN> 25
 -4.465668e+00 -4.788957e+00 -4.551925e+00 2.872702e+00 -9.651371e-01 7.158120e-01 6.548329e-01 3.625479e+00 -5.084698e-02 -1.099948e+00 2.248427e+00 1.316440e+00 4.406645e-01 9.391316e-01 -2.765229e-01 1.073691e-01 3.422378e-01 7.861613e-01 -3.276739e-02 -7.653859e-02 1.423986e-01 1.287995e-02 -1.258258e-01 -2.992642e-02 -3.019598e-01
<VARIANCE> 25
 8.436489e+00 3.088903e+01 2.025465e+01 2.447564e+01 2.593259e+01 4.634455e+01 3.681117e+01 2.437941e+01 2.185443e+01 2.042036e+01 2.050197e+01 1.584799e+01 2.241467e+00 2.497972e+00 1.683481e+00 1.945950e+00 2.037686e+00 2.920497e+00 2.754496e+00 1.999029e+00 2.354389e+00 2.065865e+00 1.755077e+00 1.212750e+00 4.653111e-01
<GCONST> 9.146249e+01
<TRANSP> 5
 0.000000e+00 1.000000e+00 0.000000e+00 0.000000e+00 0.000000e+00
 0.000000e+00 6.859111e-01 3.140889e-01 0.000000e+00 0.000000e+00
 0.000000e+00 0.000000e+00 7.145533e-01 2.854466e-01 0.000000e+00
 0.000000e+00 0.000000e+00 0.000000e+00 7.610120e-01 2.389881e-01
 0.000000e+00 0.000000e+00 0.000000e+00 0.000000e+00 0.000000e+00
<ENDHMM>
~h "V"
<BEGINHMM>
<NUMSTATES> 5
<STATE> 2
<MEAN> 25
 1.072035e+01 7.950586e-01 7.950265e-01 -3.765797e+00 -1.109959e+01 -7.195061e-01 -4.226754e+00 -2.650235e+00 4.040608e+00 2.884659e+00 -8.932611e+00 -3.218657e+00 -5.470020e-02 8.546083e-01 2.978392e-03 2.292762e-01 8.151655e-01 4.654235e-02 4.417852e-01 4.007540e-01 -5.715318e-01 -8.761911e-01 -3.623199e-01 -2.887447e-01 -3.747746e-01
<VARIANCE> 25
 1.425031e+01 2.158582e+01 2.002592e+01 3.152022e+01 7.802981e+01 2.984715e+01 3.210767e+01 4.258771e+01 5.034953e+01 3.857056e+01 3.681382e+01 2.627371e+01 1.194956e+00 1.149220e+00 1.031239e+00 9.570062e-01 1.456666e+00 1.529593e+00 2.401708e+00 2.349416e+00 1.991774e+00 2.132959e+00 1.582859e+00 1.631485e+00 1.002212e+00
<GCONST> 9.277615e+01
<STATE> 3
<MEAN> 25
 6.237438e+00 5.348928e+00 -1.661705e-01 -1.653339e+00 1.615221e+00 8.863705e-01 -7.800577e-01 1.057170e+00 -1.815361e+00 -1.129512e+00 -4.149238e+00 -8.342309e-01 -1.885288e+00 6.153122e-01 8.167940e-01 -1.289565e+00 2.863746e+00 -5.543909e-01 6.512705e-01 2.107401e+00 -6.934065e-01 2.289372e-02 1.421621e+00 5.919161e-01 -6.451749e-01
<VARIANCE> 25
 1.570186e+01 1.440092e+01 2.336947e+01 4.423747e+01 7.847657e+01 2.444403e+01 2.449779e+01 4.765278e+01 2.168664e+01 3.395358e+01 3.524403e+01 3.154060e+01 1.366809e+00 1.102679e+00 1.321910e+00 3.710323e+00 4.496754e+00 2.931711e+00 3.224970e+00 4.358840e+00 2.556453e+00 2.989521e+00 3.534454e+00 2.199411e+00 4.362144e-01
<GCONST> 9.702333e+01
<STATE> 4
<MEAN> 25
 -6.614571e+00 3.629871e+00 3.557731e+00 -9.262671e+00 1.425325e+01 -7.797185e+00 3.408910e+00 4.492980e+00 -2.328335e+00 -1.388775e+00 2.650659e+00 3.621766e-01 -3.188294e-01 -2.802599e-01 9.831347e-02 -5.354412e-02 -1.932423e-01 -4.945903e-01 -2.385112e-01 -1.178135e-01 4.648123e-03 -1.530795e-01 2.076666e-01 1.092980e-02 -1.572846e-02
<VARIANCE> 25
 5.342658e+01 2.612545e+01 2.372964e+01 7.145973e+01 7.862379e+01 5.807541e+01 6.187148e+01 6.401434e+01 4.476368e+01 3.230464e+01 3.197199e+01 2.056229e+01 5.963171e+00 1.777643e+00 1.923937e+00 5.858695e+00 7.757160e+00 5.684856e+00 5.056839e+00 3.316278e+00 3.668157e+00 2.433402e+00 3.128834e+00 2.117012e+00 6.404523e-01
<GCONST> 1.061228e+02
<TRANSP> 5
 0.000000e+00 1.000000e+00 0.000000e+00 0.000000e+00 0.000000e+00
 0.000000e+00 7.113093e-01 2.886907e-01 0.000000e+00 0.000000e+00
 0.000000e+00 0.000000e+00 6.408477e-01 3.591523e-01 0.000000e+00
 0.000000e+00 0.000000e+00 0.000000e+00 7.938601e-01 2.061399e-01
 0.000000e+00 0.000000e+00 0.000000e+00 0.000000e+00 0.000000e+00
<ENDHMM>
~h "W"
<BEGINHMM>
<NUMSTATES> 5
<STATE> 2
<MEAN> 25
 1.643784e+00 4.954199e+00 -1.105309e+00 1.200560e+00 1.257569e+00 -1.836532e-02 -1.262989e+00 9.935617e-01 -1.423599e+00 -1.450796e+00 2.178082e+00 9.185636e-01 -3.919528e-01 3.345374e-02 -3.581033e-01 8.818287e-02 3.847179e-02 6.455138e-01 3.045579e-02 1.886268e-01 3.616474e-01 -1.043580e-01 1.869619e-01 3.179275e-01 -5.588416e-01
<VARIANCE> 25
 3.143205e+01 3.468726e+01 2.997042e+01 3.666755e+01 6.259443e+01 4.636837e+01 4.411505e+01 4.708017e+01 3.986917e+01 1.906301e+01 2.414745e+01 2.480244e+01 1.241277e+00 1.352043e+00 1.240048e+00 2.774072e+00 3.776539e+00 3.089180e+00 3.076496e+00 3.142222e+00 2.414834e+00 1.859269e+00 2.436904e+00 1.829420e+00 3.616291e-01
<GCONST> 9.704172e+01
<STATE> 3
<MEAN> 25
 -5.098660e+00 -1.150699e+00 -6.718385e+00 2.169489e+00 1.041008e+00 5.458908e+00 1.627383e+00 4.669725e+00 1.534289e+00 -1.512608e+00 1.008405e+00 1.266981e+00 -1.809217e-02 9.259611e-02 -4.051835e-02 8.719039e-03 -5.614488e-02 1.897573e-02 -6.691375e-02 1.973984e-02 5.045540e-02 8.003300e-03 -1.593952e-02 3.037982e-02 -1.059387e-01
<VARIANCE> 25
 5.971791e+00 6.863899e+00 9.869503e+00 1.001013e+01 1.178452e+01 1.215303e+01 1.324954e+01 1.235759e+01 1.295115e+01 9.197043e+00 9.732759e+00 9.901950e+00 2.010935e-01 3.054851e-01 3.367984e-01 5.895704e-01 7.561474e-01 9.547074e-01 1.058252e+00 1.023839e+00 1.047463e+00 8.875799e-01 9.492313e-01 8.612106e-01 4.375713e-02
<GCONST> 6.560852e+01
<STATE> 4
<MEAN> 25
 5.226979e+00 1.060585e+01 2.190333e+00 2.669739e+00 -4.156650e+00 -4.275487e+00 -7.037570e+00 -1.428665e+00 2.142555e-01 -5.709837e-02 2.406660e+00 1.654642e+00 1.599746e+00 1.516762e+00 7.981732e-01 -7.567028e-01 -1.287926e+00 -1.464484e+00 -1.013602e+00 -1.029398e-01 3.584670e-01 2.993113e-01 -2.918363e-01 -5.838193e-01 8.704123e-01
<VARIANCE> 25
 2.964132e+01 3.364378e+01 2.399798e+01 2.072915e+01 2.615733e+01 4.053394e+01 3.474314e+01 2.361236e+01 1.583340e+01 1.170718e+01 1.275124e+01 1.307891e+01 1.830675e+00 2.771757e+00 2.315250e+00 2.780098e+00 2.010149e+00 2.574921e+00 3.530460e+00 3.583127e+00 2.152705e+00 1.511389e+00 2.331365e+00 1.986145e+00 3.937036e-01
<GCONST> 9.252451e+01
<TRANSP> 5
 0.000000e+00 1.000000e+00 0.000000e+00 0.000000e+00 0.000000e+00
 0.000000e+00 7.340652e-01 2.659348e-01 0.000000e+00 0.000000e+00
 0.000000e+00 0.000000e+00 9.014750e-01 9.852504e-02 0.000000e+00
 0.000000e+00 0.000000e+00 0.000000e+00 8.182374e-01 1.817625e-01
 0.000000e+00 0.000000e+00 0.000000e+00 0.000000e+00 0.000000e+00
<ENDHMM>
~h "Y"
<BEGINHMM>
<NUMSTATES> 5
<STATE> 2
<MEAN> 25
 -5.355938e+00 -8.470638e-01 -7.520834e+00 1.955859e+00 -3.673224e-01 6.303581e+00 1.615513e+00 4.184895e+00 2.269513e+00 -2.307199e+00 -1.129392e+00 2.035435e+00 -8.063002e-02 7.383712e-03 -3.005159e-02 1.577648e-02 4.283375e-02 -5.806084e-02 -1.991823e-01 1.220310e-01 5.202110e-02 -1.121785e-01 -2.923006e-02 -1.468963e-02 -1.114926e-01
<VARIANCE> 25
 8.278571e+00 7.035233e+00 7.699782e+00 7.494135e+00 1.225112e+01 8.776492e+00 1.108438e+01 1.191664e+01 1.017912e+01 8.086999e+00 1.046674e+01 1.336221e+01 1.157270e-01 1.959630e-01 2.984252e-01 6.160946e-01 7.381288e-01 1.017973e+00 8.221475e-01 9.060277e-01 9.073812e-01 9.237069e-01 1.223179e+00 8.670952e-01 2.683615e-02
<GCONST> 6.318325e+01
<STATE> 3
<MEAN> 25
 3.296608e-01 2.600965e+00 2.460053e+00 8.695094e+00 7.765793e+00 -3.297822e+00 -5.829785e+00 3.860571e+00 -1.376839e-01 -4.465553e+00 -1.850976e+00 -8.791456e-01 7.185692e-01 -3.415544e-01 2.394295e+00 2.302041e+00 1.758443e+00 -3.279865e+00 -2.164053e+00 6.229276e-01 -3.657708e-01 -3.381413e-01 -2.821278e-01 -6.745178e-01 1.641192e+00
<VARIANCE> 25
 5.127837e+01 4.696362e+01 6.255427e+01 6.204874e+01 6.388527e+01 1.071457e+02 8.544836e+01 5.528489e+01 3.166541e+01 5.031841e+01 3.423083e+01 2.263970e+01 5.465761e+00 4.903060e+00 4.093892e+00 5.199680e+00 4.514809e+00 7.622244e+00 1.182045e+01 4.736766e+00 3.599854e+00 3.669279e+00 3.554135e+00 3.299858e+00 2.476822e+00
<GCONST> 1.131756e+02
<STATE> 4
<MEAN> 25
 5.705246e+00 6.306680e-01 7.722224e+00 1.679064e+01 1.329709e+01 -9.559372e+00 -1.792521e+01 8.123068e-01 1.955651e-01 3.627250e-01 -2.284862e+00 -6.381319e+00 2.545606e-01 4.289249e-02 -2.515493e-01 -4.336871e-01 3.796762e-01 1.912433e-01 -4.910823e-01 -9.634520e-01 -1.005194e-01 8.118306e-01 2.070505e-01 -1.753394e-01 2.487768e-01
<VARIANCE> 25
 1.179171e+01 2.663973e+01 1.446131e+01 4.417359e+01 5.470288e+01 3.805005e+01 8.136891e+01 4.707555e+01 2.488629e+01 5.283540e+01 3.057003e+01 3.353847e+01 1.927630e-01 1.016702e+00 8.210561e-01 2.035585e+00 2.096081e+00 2.516479e+00 2.879104e+00 2.413033e+00 2.785106e+00 2.847234e+00 2.365350e+00 1.696975e+00 5.061287e-01
<GCONST> 9.342673e+01
<TRANSP> 5
 0.000000e+00 1.000000e+00 0.000000e+00 0.000000e+00 0.000000e+00
 0.000000e+00 9.081406e-01 9.185941e-02 0.000000e+00 0.000000e+00
 0.000000e+00 0.000000e+00 7.912040e-01 2.087960e-01 0.000000e+00
 0.000000e+00 0.000000e+00 0.000000e+00 9.183047e-01 8.169530e-02
 0.000000e+00 0.000000e+00 0.000000e+00 0.000000e+00 0.000000e+00
<ENDHMM>
~h "Z"
<BEGINHMM>
<NUMSTATES> 5
<STATE> 2
<MEAN> 25
 4.598593e+00 2.316384e+00 8.824708e+00 5.848441e+00 -1.580654e+00 3.031067e+00 2.124444e+00 -4.839639e+00 -6.522743e+00 -1.330078e+00 -3.812328e+00 -7.230513e-01 -2.440151e+00 -1.583518e+00 3.249305e+00 -4.006644e-01 -9.789729e-01 -3.996165e-01 3.979164e+00 3.876063e-01 -1.644399e+00 1.042218e+00 1.104471e+00 1.266013e-02 2.474812e-01
<VARIANCE> 25
 1.897905e+01 2.115121e+01 4.615271e+01 4.523357e+01 5.043082e+01 5.109636e+01 5.423271e+01 8.278392e+01 4.829696e+01 3.705655e+01 5.979509e+01 3.183930e+01 1.591054e+00 2.380646e+00 3.387264e+00 4.362189e+00 4.283879e+00 5.514343e+00 5.112163e+00 6.219604e+00 6.164760e+00 5.266115e+00 4.664097e+00 3.825417e+00 7.377039e-01
<GCONST> 1.075948e+02
<STATE> 3
<MEAN> 25
 -1.003882e+01 -4.653816e+00 2.318788e+01 -3.584152e+00 1.256817e-01 -3.009461e+00 1.783754e+01 -7.419474e+00 -6.718825e+00 2.734464e+00 -9.347673e-01 3.911967e-01 -3.222490e+00 -1.150458e+00 2.076328e+00 -2.192102e+00 7.991614e-01 -1.757440e+00 2.787848e+00 -7.536795e-01 9.705367e-01 -2.743215e-01 7.994924e-01 -2.975164e-03 8.308054e-01
<VARIANCE> 25
 3.955333e+01 2.042599e+01 4.992536e+01 5.780563e+01 4.230579e+01 8.819366e+01 7.247173e+01 1.099489e+02 1.031598e+02 5.843791e+01 5.361882e+01 4.992411e+01 2.088870e+00 1.448238e+00 5.395147e+00 3.592535e+00 2.858977e+00 3.560872e+00 6.326718e+00 5.325807e+00 5.078985e+00 5.507316e+00 4.565242e+00 3.823503e+00 5.688242e-01
<GCONST> 1.099491e+02
<STATE> 4
<MEAN> 25
 -1.117254e+01 -6.921000e+00 1.368206e+01 -2.472971e+00 -1.872728e+00 -3.295762e+00 1.397875e+01 -4.289114e+00 -4.728140e+00 1.287300e+00 1.080232e+00 -7.012593e-01 1.133708e+00 2.953941e-01 -1.793989e+00 8.256581e-01 -4.333474e-01 6.309690e-01 -1.716577e+00 5.676125e-01 -3.356106e-03 3.153661e-02 -2.345432e-01 -6.945733e-03 -7.878564e-01
<VARIANCE> 25
 4.545874e+01 2.728223e+01 1.172523e+02 5.344734e+01 3.495650e+01 8.509108e+01 9.534164e+01 8.531806e+01 6.612179e+01 4.585064e+01 4.348600e+01 3.367871e+01 2.733871e+00 1.568532e+00 2.444553e+00 2.036356e+00 2.122859e+00 3.739276e+00 5.573192e+00 3.239973e+00 4.166368e+00 3.234513e+00 2.946131e+00 2.199092e+00 6.462478e-01
<GCONST> 1.061798e+02
<TRANSP> 5
 0.000000e+00 1.000000e+00 0.000000e+00 0.000000e+00 0.000000e+00
 0.000000e+00 6.488104e-01 3.511896e-01 0.000000e+00 0.000000e+00
 0.000000e+00 0.000000e+00 7.800743e-01 2.199257e-01 0.000000e+00
 0.000000e+00 0.000000e+00 0.000000e+00 8.997748e-01 1.002251e-01
 0.000000e+00 0.000000e+00 0.000000e+00 0.000000e+00 0.000000e+00
<ENDHMM>
~h "AA"
<BEGINHMM>
<NUMSTATES> 5
<STATE> 2
<MEAN> 25
 1.831171e+00 9.347874e-01 -2.432007e+00 -2.337776e+00 -3.462684e+00 -3.608595e+00 -2.076579e+00 4.850863e+00 3.430400e+00 1.232795e-01 1.029566e+00 -3.885228e-01 1.725868e+00 8.528885e-01 3.911130e-01 -1.272515e+00 -1.300239e+00 -5.141571e-01 -3.744050e-01 5.771853e-02 7.618800e-01 7.180758e-01 -6.772986e-01 -5.184667e-01 1.172891e+00
<VARIANCE> 25
 6.391633e+01 8.685834e+01 3.535596e+01 5.317820e+01 9.200594e+01 6.112920e+01 5.178876e+01 6.006746e+01 5.802768e+01 3.730339e+01 3.024115e+01 2.942825e+01 4.556728e+00 6.224501e+00 3.761567e+00 5.482908e+00 6.965248e+00 7.753706e+00 4.901884e+00 4.853673e+00 4.202737e+00 4.067726e+00 4.634420e+00 3.195117e+00 2.424005e+00
<GCONST> 1.132059e+02
<STATE> 3
<MEAN> 25
 1.215330e+01 6.336451e+00 1.988614e+00 -9.778948e+00 -1.444048e+01 -6.742414e+00 -4.763855e+00 4.886535e+00 8.096539e+00 2.955250e+00 -6.764587e+00 -4.781842e+00 2.716266e-01 -1.282709e+00 2.596870e-01 -1.220205e+00 -5.105106e-01 8.164435e-01 5.355308e-01 -6.881779e-02 3.712507e-01 1.638839e-02 -1.654552e+00 -2.902388e-01 1.078323e+00
<VARIANCE> 25
 9.421262e+00 3.688340e+01 2.946938e+01 3.060612e+01 5.036618e+01 4.212367e+01 6.031462e+01 5.131174e+01 6.803815e+01 6.257953e+01 6.207832e+01 4.039112e+01 9.167228e-01 2.321365e+00 1.705524e+00 2.818017e+00 3.767518e+00 2.804461e+00 3.092062e+00 5.244612e+00 4.610513e+00 3.493562e+00 3.785823e+00 3.774826e+00 6.557028e-01
<GCONST> 1.029687e+02
<STATE> 4
<MEAN> 25
 1.014144e+01 2.683385e+00 -1.025332e+00 -1.066906e+01 -1.340912e+01 -1.473314e+00 2.324772e+00 5.087822e+00 6.859028e+00 2.806322e+00 -6.388660e+00 -3.290453e+00 -3.976806e-01 1.626697e-01 -2.737623e-01 7.275459e-01 8.450382e-01 3.971550e-01 3.511923e-01 -6.834994e-02 -5.990290e-01 -5.088026e-01 2.958896e-01 2.409351e-01 -5.247690e-01
<VARIANCE> 25
 1.698245e+01 1.710312e+01 2.801568e+01 3.126205e+01 4.416578e+01 3.506368e+01 4.788013e+01 5.622051e+01 4.122217e+01 6.266661e+01 4.588171e+01 3.192047e+01 5.521671e-01 1.321496e+00 1.295046e+00 1.794185e+00 2.496756e+00 2.598152e+00 2.503515e+00 2.417603e+00 2.863415e+00 2.429821e+00 2.123579e+00 2.030140e+00 5.867729e-01
<GCONST> 9.584890e+01
<TRANSP> 5
 0.000000e+00 1.000000e+00 0.000000e+00 0.000000e+00 0.000000e+00
 0.000000e+00 7.526641e-01 2.473359e-01 0.000000e+00 0.000000e+00
 0.000000e+00 0.000000e+00 7.242779e-01 2.757221e-01 0.000000e+00
 0.000000e+00 0.000000e+00 0.000000e+00 8.700640e-01 1.299361e-01
 0.000000e+00 0.000000e+00 0.000000e+00 0.000000e+00 0.000000e+00
<ENDHMM>
~h "AE"
<BEGINHMM>
<NUMSTATES> 5
<STATE> 2
<MEAN> 25
 6.268223e+00 -1.234424e+00 -1.460370e+00 -2.643458e+00 -2.327391e+00 -1.571183e+00 -1.963481e+00 -3.344419e+00 4.776011e+00 5.727060e+00 7.390604e-01 -1.622274e+00 1.209239e+00 -5.748158e-01 1.928107e-01 -1.622055e+00 -7.249487e-01 -2.410932e-01 1.365409e-01 -4.103808e-01 1.291133e+00 1.415456e+00 -4.466241e-01 -2.323791e-01 1.694941e+00
<VARIANCE> 25
 4.059005e+01 4.554340e+01 4.087992e+01 5.046790e+01 7.257809e+01 5.409882e+01 5.968147e+01 9.314928e+01 8.702939e+01 7.649443e+01 5.679407e+01 3.359955e+01 3.488016e+00 5.172017e+00 3.740142e+00 5.047658e+00 7.333673e+00 6.650342e+00 6.030911e+00 1.029648e+01 8.199091e+00 7.540416e+00 4.743155e+00 3.627559e+00 2.426943e+00
<GCONST> 1.160599e+02
<STATE> 3
<MEAN> 25
 1.006903e+01 -5.169583e+00 -2.059399e+00 -9.837434e+00 -5.702658e+00 -4.347367e-01 1.927296e+00 -5.156756e+00 5.750662e+00 1.242463e+01 -2.339416e+00 -3.338813e+00 9.875137e-02 -3.261559e-02 -2.089842e-01 -6.479147e-02 7.456780e-02 4.406593e-01 5.144551e-02 -2.561044e-02 -3.619173e-01 -4.510152e-02 7.575595e-02 -6.992301e-02 -2.586248e-02
<VARIANCE> 25
 8.448771e+00 1.658610e+01 2.339823e+01 2.593480e+01 5.070062e+01 3.931725e+01 5.928178e+01 4.274420e+01 5.640989e+01 3.997995e+01 4.344496e+01 3.870148e+01 4.163666e-01 1.262122e+00 1.356376e+00 2.360404e+00 2.014074e+00 2.371479e+00 2.242696e+00 2.345385e+00 2.273308e+00 2.010654e+00 2.195483e+00 1.659468e+00 5.892602e-01
<GCONST> 9.390905e+01
<STATE> 4
<MEAN> 25
 5.727999e+00 -1.870963e+00 -6.650673e+00 -4.847391e+00 -1.811198e+00 4.256240e+00 2.049850e+00 -8.013388e-01 2.292360e+00 6.160553e+00 1.109899e+00 -8.399391e-01 -7.116885e-01 6.264530e-01 -2.974811e-01 5.525725e-01 4.201342e-01 3.551994e-01 1.143051e-01 5.756497e-01 -3.280487e-01 -1.010306e+00 2.125436e-01 5.078932e-01 -1.134933e+00
<VARIANCE> 25
 3.804928e+01 2.007525e+01 3.598698e+01 2.829012e+01 4.036699e+01 3.382513e+01 4.556624e+01 5.686659e+01 3.004011e+01 4.499669e+01 3.129914e+01 2.767250e+01 9.409434e-01 1.203092e+00 1.594841e+00 2.239512e+00 2.724841e+00 3.169529e+00 2.482793e+00 2.791362e+00 2.980444e+00 3.009277e+00 2.582858e+00 1.793770e+00 7.346477e-01
<GCONST> 9.747080e+01
<TRANSP> 5
 0.000000e+00 1.000000e+00 0.000000e+00 0.000000e+00 0.000000e+00
 0.000000e+00 7.604245e-01 2.395755e-01 0.000000e+00 0.000000e+00
 0.000000e+00 0.000000e+00 8.350659e-01 1.649342e-01 0.000000e+00
 0.000000e+00 0.000000e+00 0.000000e+00 8.167523e-01 1.832478e-01
 0.000000e+00 0.000000e+00 0.000000e+00 0.000000e+00 0.000000e+00
<ENDHMM>
~h "AH"
<BEGINHMM>
<NUMSTATES> 5
<STATE> 2
<MEAN> 25
 4.889404e+00 8.475655e-02 4.096255e+00 1.095771e+00 -1.713311e-01 -3.263331e+00 -5.377478e+00 -6.887539e+00 -2.178251e+00 1.196042e+00 -2.632041e+00 -5.752845e-01 4.869934e-01 -2.027136e-01 -4.149570e-01 -1.642415e-02 -4.123641e-01 -2.723284e-01 -2.616177e-01 1.811737e-01 2.500559e-01 8.105573e-02 -1.321138e-01 -1.310956e-01 3.129052e-01
<VARIANCE> 25
 3.048983e+01 3.087407e+01 5.006750e+01 7.210895e+01 8.466119e+01 6.335615e+01 7.247614e+01 7.749368e+01 5.102216e+01 5.783276e+01 4.466448e+01 4.314381e+01 2.981530e+00 3.143708e+00 3.477569e+00 4.506518e+00 5.664912e+00 6.924996e+00 5.842610e+00 5.344831e+00 4.285123e+00 4.989744e+00 3.728792e+00 2.929873e+00 2.034274e+00
<GCONST> 1.120243e+02
<STATE> 3
<MEAN> 25
 3.090053e+00 1.076948e+00 -1.551060e+00 1.850069e-01 -1.292516e+00 7.577944e-01 -2.321218e+00 -8.914647e-01 -9.069539e-01 -1.579105e+00 -7.348170e-01 1.391959e+00 -3.455833e-02 7.184955e-02 -3.141339e-01 -9.813920e-02 -5.928555e-01 4.016285e-01 3.124502e-01 3.270501e-01 7.431201e-01 2.050894e-01 -1.385353e-01 -1.785763e-01 -2.892540e-01
<VARIANCE> 25
 3.947501e+01 2.650251e+01 3.261159e+01 3.269461e+01 4.372559e+01 3.954634e+01 3.237164e+01 4.372011e+01 3.298248e+01 3.331464e+01 3.197701e+01 2.565105e+01 2.317627e+00 1.869063e+00 2.180370e+00 2.795587e+00 4.603953e+00 3.329763e+00 3.418656e+00 3.971613e+00 3.554823e+00 3.291527e+00 3.260634e+00 2.269883e+00 2.150259e+00
<GCONST> 1.021324e+02
<STATE> 4
<MEAN> 25
 8.328401e+00 9.154664e-01 1.926079e-01 -5.205661e+00 -9.363049e+00 -9.601244e-01 -1.514408e+00 -7.899230e-01 4.512831e+00 2.543921e+00 -5.087203e+00 -1.818769e+00 1.883079e-01 1.169518e-01 9.466971e-02 -4.662409e-02 2.752695e-01 2.425640e-01 3.362513e-01 1.897143e-01 -1.513941e-02 1.926984e-02 -2.276052e-03 -2.148929e-02 1.634239e-01
<VARIANCE> 25
 2.819935e+01 3.496758e+01 3.349817e+01 4.441822e+01 8.112897e+01 4.743428e+01 4.531958e+01 5.102105e+01 5.960035e+01 5.173854e+01 4.620910e+01 3.600306e+01 3.096220e+00 2.448231e+00 2.388493e+00 3.017345e+00 5.798481e+00 4.198621e+00 4.219315e+00 3.755752e+00 3.861902e+00 3.384169e+00 3.514630e+00 2.859942e+00 2.632746e+00
<GCONST> 1.073997e+02
<TRANSP> 5
 0.000000e+00 1.000000e+00 0.000000e+00 0.000000e+00 0.000000e+00
 0.000000e+00 6.370614e-01 3.629386e-01 0.000000e+00 0.000000e+00
 0.000000e+00 0.000000e+00 6.299677e-01 3.700323e-01 0.000000e+00
 0.000000e+00 0.000000e+00 0.000000e+00 6.841263e-01 3.158737e-01
 0.000000e+00 0.000000e+00 0.000000e+00 0.000000e+00 0.000000e+00
<ENDHMM>
~h "AO"
<BEGINHMM>
<NUMSTATES> 5
<STATE> 2
<MEAN> 25
 8.940170e+00 5.794913e+00 1.528117e+00 -6.712204e+00 -6.674530e+00 -7.345371e+00 -4.530718e+00 4.307967e+00 4.273220e+00 2.223250e+00 -2.662438e+00 -2.833284e+00 1.317592e+00 8.708857e-01 -6.466419e-02 -7.649714e-01 -1.470672e+00 -3.087586e-01 -3.821529e-01 -2.561323e-01 3.952579e-01 4.663086e-01 -4.151176e-01 -2.394504e-01 4.805660e-01
<VARIANCE> 25
 2.651971e+01 4.074126e+01 2.363206e+01 6.583814e+01 7.786337e+01 5.874807e+01 6.399084e+01 6.528781e+01 5.859789e+01 6.122270e+01 5.915744e+01 3.272972e+01 4.463255e+00 3.726630e+00 2.011803e+00 5.108048e+00 5.886023e+00 6.948712e+00 5.430744e+00 4.437645e+00 5.388194e+00 3.351066e+00 4.303461e+00 2.788020e+00 1.485557e+00
<GCONST> 1.106099e+02
<STATE> 3
<MEAN> 25
 1.226268e+01 8.464799e+00 -1.191839e+00 -9.271994e+00 -1.236613e+01 -3.625659e+00 -2.945135e+00 2.531724e+00 5.145938e+00 2.970611e+00 -2.292219e+00 -3.930355e+00 -3.293107e-02 2.208965e-02 -5.497881e-01 -1.700619e-01 4.000615e-01 7.033733e-01 6.871471e-01 1.768029e-01 -6.143905e-01 -6.677126e-01 8.520689e-02 3.644598e-01 -1.583211e-01
<VARIANCE> 25
 8.762476e+00 2.758051e+01 1.825673e+01 2.518758e+01 4.096189e+01 3.914427e+01 4.911555e+01 3.424382e+01 3.695716e+01 5.307336e+01 3.323595e+01 2.989028e+01 2.516875e-01 6.029333e-01 8.262084e-01 1.538770e+00 1.584871e+00 1.653469e+00 1.767070e+00 1.926777e+00 2.268136e+00 1.917832e+00 1.457624e+00 1.295286e+00 2.185539e-01
<GCONST> 8.798364e+01
<STATE> 4
<MEAN> 25
 3.920949e+00 3.721954e+00 -5.440149e+00 -5.820864e+00 -4.596823e+00 1.268011e+00 1.433660e+00 4.059354e+00 -2.013700e-01 -2.657263e+00 -6.309258e-01 3.470656e-01 -8.303310e-01 -4.865858e-01 -1.613532e-01 5.551724e-01 6.507082e-01 3.863076e-01 4.751530e-02 -8.673891e-02 -2.823045e-01 -2.753856e-01 2.171907e-01 2.171390e-01 -5.361919e-01
<VARIANCE> 25
 4.335197e+01 2.323453e+01 1.471669e+01 2.764081e+01 2.548578e+01 2.983214e+01 2.655756e+01 3.646374e+01 3.773110e+01 3.045276e+01 2.030042e+01 1.746389e+01 7.148533e-01 7.510054e-01 6.666889e-01 1.683901e+00 1.684277e+00 2.348464e+00 1.741636e+00 2.302403e+00 2.106845e+00 1.486048e+00 1.617868e+00 1.452435e+00 3.558748e-01
<GCONST> 8.851700e+01
<TRANSP> 5
 0.000000e+00 1.000000e+00 0.000000e+00 0.000000e+00 0.000000e+00
 0.000000e+00 7.622123e-01 2.377877e-01 0.000000e+00 0.000000e+00
 0.000000e+00 0.000000e+00 8.504452e-01 1.495548e-01 0.000000e+00
 0.000000e+00 0.000000e+00 0.000000e+00 7.873588e-01 2.126412e-01
 0.000000e+00 0.000000e+00 0.000000e+00 0.000000e+00 0.000000e+00
<ENDHMM>
~h "AW"
<BEGINHMM>
<NUMSTATES> 5
<STATE> 2
<MEAN> 25
 8.398462e+00 -3.947152e+00 -7.184855e+00 -7.402292e+00 -4.425491e+00 1.266168e+00 6.808305e+00 -3.634390e+00 4.696537e+00 1.125301e+01 -5.504599e+00 1.033410e+00 1.564544e+00 1.211436e+00 8.943250e-01 -1.131273e+00 -4.808177e-01 -4.285422e-01 7.739264e-01 -1.976867e+00 -8.960121e-01 1.489057e+00 -1.029930e+00 -7.788017e-02 1.404362e+00
<VARIANCE> 25
 3.921562e+01 4.418199e+01 5.297711e+01 3.068831e+01 4.512899e+01 3.798736e+01 3.283916e+01 5.796186e+01 7.321954e+01 8.597105e+01 4.661633e+01 3.570385e+01 3.933427e+00 5.915441e+00 5.978384e+00 3.040424e+00 5.156101e+00 5.998338e+00 2.512539e+00 5.641932e+00 7.558146e+00 4.332560e+00 3.800331e+00 3.354379e+00 1.471971e+00
<GCONST> 1.105121e+02
<STATE> 3
<MEAN> 25
 1.232252e+01 2.725120e+00 -6.683190e+00 -8.685577e+00 -6.945840e+00 -7.806782e-01 4.216685e+00 -2.205173e+00 6.161699e-01 8.587625e+00 -3.680468e+00 -2.019528e+00 -2.114316e-01 9.219725e-01 8.753656e-02 5.120528e-01 1.388756e-02 3.396228e-01 -5.041469e-01 9.583976e-01 -3.624852e-02 -1.251264e+00 6.315593e-01 -6.501325e-02 -8.969710e-01
<VARIANCE> 25
 1.541948e+01 3.897872e+01 1.646988e+01 1.163014e+01 2.854990e+01 4.699049e+01 2.923716e+01 5.968773e+01 2.947609e+01 5.591547e+01 2.994931e+01 3.205397e+01 7.015777e-01 1.198466e+00 1.204544e+00 1.090458e+00 1.696483e+00 2.847668e+00 2.421300e+00 2.758512e+00 2.228097e+00 2.518372e+00 2.142845e+00 3.340554e+00 5.424042e-01
<GCONST> 9.319590e+01
<STATE> 4
<MEAN> 25
 -8.097301e-01 2.077589e-01 -1.649397e+00 5.766547e-01 -1.279691e+00 3.590638e+00 2.774730e+00 3.356600e+00 3.140371e+00 -1.375983e+00 8.897957e-01 -4.115031e-02 -7.586216e-01 -6.361963e-01 3.315921e-01 5.720320e-01 1.312522e-01 -4.543450e-01 2.224227e-01 5.817786e-01 -2.376358e-01 -4.753384e-01 1.061418e-01 2.588005e-01 -2.587616e-01
<VARIANCE> 25
 7.551563e+01 9.396931e+01 5.444027e+01 2.858701e+01 4.002134e+01 3.869176e+01 1.251033e+01 2.134228e+01 3.966643e+01 3.004715e+01 1.861513e+01 3.413454e+01 1.026270e+00 1.739585e+00 1.227077e+00 1.090246e+00 1.964367e+00 2.936289e+00 1.472148e+00 2.573561e+00 2.220994e+00 2.499910e+00 1.874556e+00 1.991784e+00 4.403904e-01
<GCONST> 9.480062e+01
<TRANSP> 5
 0.000000e+00 1.000000e+00 0.000000e+00 0.000000e+00 0.000000e+00
 0.000000e+00 8.186669e-01 1.813332e-01 0.000000e+00 0.000000e+00
 0.000000e+00 0.000000e+00 9.158880e-01 8.411200e-02 0.000000e+00
 0.000000e+00 0.000000e+00 0.000000e+00 8.259389e-01 1.740611e-01
 0.000000e+00 0.000000e+00 0.000000e+00 0.000000e+00 0.000000e+00
<ENDHMM>
~h "AY"
<BEGINHMM>
<NUMSTATES> 5
<STATE> 2
<MEAN> 25
 7.515234e+00 -1.242347e+00 -9.665772e-01 -4.620313e+00 -1.074746e+01 -5.052032e+00 1.476535e+00 6.898691e-01 5.007508e+00 4.338729e+00 -2.319515e+00 -2.580851e+00 2.161190e+00 -3.674132e-01 2.584161e-02 -1.201735e+00 -2.283795e+00 1.638371e-02 3.675528e-01 -7.646268e-01 1.473133e+00 1.794991e+00 -1.481968e+00 -7.437811e-01 1.844455e+00
<VARIANCE> 25
 5.284345e+01 4.146898e+01 3.566710e+01 7.352459e+01 6.887827e+01 8.534901e+01 4.742531e+01 5.125352e+01 8.166969e+01 6.216414e+01 6.225862e+01 3.264349e+01 4.915020e+00 4.923342e+00 3.572406e+00 4.664475e+00 6.370162e+00 1.386039e+01 5.318615e+00 4.982366e+00 9.493818e+00 5.097263e+00 5.028768e+00 3.755827e+00 2.015133e+00
<GCONST> 1.154112e+02
<STATE> 3
<MEAN> 25
 1.238951e+01 -2.738194e+00 -2.849965e+00 -8.362515e+00 -1.213330e+01 8.785521e-01 1.308041e+00 -3.137714e+00 6.151784e+00 1.128487e+01 -4.688640e+00 -5.229236e+00 -1.246990e-01 -3.328093e-01 -5.157128e-02 6.090502e-01 1.127105e+00 1.784822e-01 -8.995329e-01 -8.243253e-01 -4.826470e-01 2.856270e-02 6.937800e-01 2.088288e-01 9.457915e-02
<VARIANCE> 25
 6.516961e+00 1.397647e+01 1.293933e+01 2.177487e+01 4.019470e+01 3.136058e+01 3.990538e+01 3.972360e+01 3.409956e+01 4.127354e+01 3.702443e+01 2.857202e+01 2.513652e-01 8.290392e-01 1.041215e+00 1.805260e+00 1.706932e+00 1.818104e+00 2.507966e+00 1.546465e+00 1.503038e+00 1.787290e+00 1.949815e+00 1.611260e+00 2.584448e-01
<GCONST> 8.715156e+01
<STATE> 4
<MEAN> 25
 8.485851e+00 -1.226721e+00 -1.664442e+00 2.748591e+00 2.846176e+00 -1.346471e+00 -1.053502e+01 -9.206865e+00 -5.113261e-01 7.567270e+00 7.515976e-01 -1.598921e+00 -5.090746e-01 5.476287e-01 9.967266e-02 5.702418e-01 8.189603e-01 1.780930e-01 -1.366272e-01 7.238903e-02 -4.637748e-01 -8.521600e-01 3.061075e-01 3.525879e-01 -7.044737e-01
<VARIANCE> 25
 1.830024e+01 2.276908e+01 2.817610e+01 2.998260e+01 3.916403e+01 2.563427e+01 4.528281e+01 5.860096e+01 3.121818e+01 3.991071e+01 2.316928e+01 2.020840e+01 4.457679e-01 9.816813e-01 1.024085e+00 1.496726e+00 2.461374e+00 2.171105e+00 3.468382e+00 1.962018e+00 1.869896e+00 1.360244e+00 1.700951e+00 1.355455e+00 3.758180e-01
<GCONST> 9.077475e+01
<TRANSP> 5
 0.000000e+00 1.000000e+00 0.000000e+00 0.000000e+00 0.000000e+00
 0.000000e+00 7.551292e-01 2.448708e-01 0.000000e+00 0.000000e+00
 0.000000e+00 0.000000e+00 8.799021e-01 1.200979e-01 0.000000e+00
 0.000000e+00 0.000000e+00 0.000000e+00 8.850462e-01 1.149537e-01
 0.000000e+00 0.000000e+00 0.000000e+00 0.000000e+00 0.000000e+00
<ENDHMM>
~h "CH"
<BEGINHMM>
<NUMSTATES> 5
<STATE> 2
<MEAN> 25
 -7.455078e-02 1.239506e+00 -7.389975e+00 -1.004952e+00 1.946403e+00 3.325453e+00 -2.565450e+00 2.198329e+00 1.653101e+00 -3.499822e+00 -1.514191e+00 1.191313e+00 -1.023211e+00 -3.094117e+00 -5.225205e-01 9.612033e-01 8.123135e-01 -3.918540e+00 -2.621540e+00 1.467964e+00 2.639984e+00 -1.644392e+00 5.273867e-01 5.743343e-01 1.091768e+00
<VARIANCE> 25
 2.453472e+01 9.916084e+00 1.804546e+01 6.119164e+01 2.773052e+01 3.361449e+01 4.859481e+01 3.468251e+01 3.821807e+01 3.609911e+01 3.400686e+01 2.007828e+01 1.839196e+00 3.233464e+00 2.160851e+00 5.254953e+00 4.537177e+00 1.041414e+01 1.129056e+01 6.415252e+00 3.939022e+00 6.212173e+00 2.950027e+00 2.268593e+00 1.603648e+00
<GCONST> 1.043925e+02
<STATE> 3
<MEAN> 25
 -6.440675e+00 -1.787554e+01 9.343998e-01 5.482800e+00 3.669121e+00 -9.395769e+00 -1.315635e+01 8.939070e+00 1.095007e+01 -7.726296e+00 4.248294e-01 7.156069e-01 -2.528915e+00 -4.884766e+00 4.539786e+00 4.463094e-01 9.426169e-01 -7.588164e-01 -9.330661e-01 1.260650e+00 1.474540e+00 1.221074e-01 -8.602490e-02 -4.632902e-01 2.032641e+00
<VARIANCE> 25
 2.985917e+01 5.706498e+01 1.123865e+02 2.420868e+01 2.799098e+01 7.703001e+01 7.045565e+01 6.435133e+01 3.955978e+01 5.979161e+01 2.650656e+01 1.630855e+01 1.977426e+00 3.111735e+00 3.534036e+00 3.019160e+00 4.446430e+00 8.910584e+00 1.026264e+01 4.092537e+00 4.468504e+00 5.530457e+00 3.476631e+00 1.704244e+00 9.618866e-01
<GCONST> 1.077785e+02
<STATE> 4
<MEAN> 25
 -9.666432e+00 -2.025071e+01 4.962407e+00 4.770890e+00 5.226461e+00 -6.155953e+00 -8.634842e+00 7.337521e+00 1.057278e+01 -3.292680e+00 -1.914037e+00 2.044429e+00 8.106892e-01 1.301192e+00 -8.674445e-01 -3.462168e-02 -2.941554e-01 4.335697e-01 1.124450e-01 -5.327781e-01 -5.217813e-01 2.465568e-01 -1.002859e-01 3.109756e-01 -4.553344e-01
<VARIANCE> 25
 2.307728e+01 8.560918e+01 5.797015e+01 2.335953e+01 4.472738e+01 3.358672e+01 3.683302e+01 3.503677e+01 2.333868e+01 2.769340e+01 2.504407e+01 1.947249e+01 2.702452e+00 3.251504e+00 1.438567e+00 1.123609e+00 2.283459e+00 2.754447e+00 2.924981e+00 2.154019e+00 2.035360e+00 1.554310e+00 1.739447e+00 1.256170e+00 8.411033e-01
<GCONST> 9.597823e+01
<TRANSP> 5
 0.000000e+00 1.000000e+00 0.000000e+00 0.000000e+00 0.000000e+00
 0.000000e+00 5.421110e-01 4.578891e-01 0.000000e+00 0.000000e+00
 0.000000e+00 0.000000e+00 7.577499e-01 2.422501e-01 0.000000e+00
 0.000000e+00 0.000000e+00 0.000000e+00 9.164385e-01 8.356159e-02
 0.000000e+00 0.000000e+00 0.000000e+00 0.000000e+00 0.000000e+00
<ENDHMM>
~h "DH"
<BEGINHMM>
<NUMSTATES> 5
<STATE> 2
<MEAN> 25
 -4.832013e+00 1.877521e+00 5.118561e+00 -2.692665e+00 2.575526e+00 1.872657e+00 -1.324899e-01 -3.556324e+00 1.379169e+00 -3.837618e+00 -1.441669e-01 -6.202830e-01 2.009071e-01 7.383167e-01 7.159777e-01 2.960662e-01 1.499051e-01 -4.492747e-02 -2.821238e-02 8.764534e-02 -1.346386e-01 -4.319094e-01 1.907947e-01 1.160671e-01 6.246066e-02
<VARIANCE> 25
 8.001143e+01 5.639990e+01 4.788021e+01 7.459858e+01 5.972850e+01 6.735197e+01 5.468279e+01 7.827801e+01 5.095265e+01 4.481407e+01 4.413977e+01 2.765630e+01 6.431689e+00 4.611144e+00 5.097976e+00 4.882030e+00 3.886401e+00 5.971092e+00 5.087290e+00 6.418938e+00 5.007191e+00 4.300119e+00 3.848320e+00 2.855571e+00 1.639410e+00
<GCONST> 1.132399e+02
<STATE> 3
<MEAN> 25
 2.197233e+00 6.918144e+00 3.023472e+00 3.226363e+00 5.356014e-01 5.178481e+00 -3.164109e+00 -1.339566e+00 -2.241488e-01 -3.181105e+00 -2.103432e+00 2.083657e+00 -1.264293e-01 1.166808e-01 2.003498e-01 -6.389156e-03 3.471209e-01 9.341997e-02 9.667423e-02 3.570613e-01 2.495691e-01 -5.005350e-02 2.181107e-01 7.178367e-02 -9.801692e-03
<VARIANCE> 25
 1.563248e+01 3.100530e+01 5.157987e+01 2.821590e+01 2.780791e+01 2.248173e+01 2.445916e+01 2.422589e+01 2.501909e+01 2.046217e+01 2.356757e+01 1.467564e+01 8.350564e-01 9.333985e-01 1.692007e+00 1.538761e+00 1.766959e+00 1.652801e+00 1.797091e+00 2.223025e+00 1.707263e+00 1.552875e+00 1.798502e+00 1.226498e+00 4.046613e-01
<GCONST> 8.834608e+01
<STATE> 4
<MEAN> 25
 -1.748874e+00 6.104200e+00 8.956414e+00 -3.787128e+00 7.835071e+00 1.099692e+00 2.076215e-01 -3.118312e-01 2.273631e+00 -3.316171e+00 -1.221253e+00 1.788250e+00 6.965126e-01 -6.928566e-01 5.139837e-01 -1.034594e+00 -9.194391e-01 -1.141477e+00 -7.547333e-01 -1.027289e+00 -1.364410e-01 1.179628e-02 -8.852149e-01 -1.798968e-01 1.385800e+00
<VARIANCE> 25
 4.789372e+01 3.353297e+01 4.007182e+01 5.435847e+01 1.144216e+02 6.742960e+01 8.159493e+01 5.597306e+01 5.459723e+01 3.600676e+01 5.343183e+01 2.207243e+01 6.146435e+00 2.689688e+00 3.253258e+00 5.898351e+00 1.074545e+01 6.910293e+00 8.526179e+00 5.537648e+00 6.767287e+00 4.371620e+00 5.502693e+00 2.997452e+00 1.600787e+00
<GCONST> 1.136313e+02
<TRANSP> 5
 0.000000e+00 1.000000e+00 0.000000e+00 0.000000e+00 0.000000e+00
 0.000000e+00 7.134346e-01 2.865654e-01 0.000000e+00 0.000000e+00
 0.000000e+00 0.000000e+00 8.568164e-01 1.431837e-01 0.000000e+00
 0.000000e+00 0.000000e+00 0.000000e+00 8.118896e-01 1.881104e-01
 0.000000e+00 0.000000e+00 0.000000e+00 0.000000e+00 0.000000e+00
<ENDHMM>
~h "EA"
<BEGINHMM>
<NUMSTATES> 5
<STATE> 2
<MEAN> 25
 3.746794e-09 5.162452e-09 -5.053322e-08 -1.176178e-09 -4.129961e-08 1.156777e-08 -2.488769e-09 -2.842228e-08 1.939481e-08 -4.165126e-09 -2.501501e-08 2.303551e-08 3.577962e-03 6.938920e-03 6.624806e-03 1.065556e-02 4.005769e-03 1.077135e-02 5.376180e-03 6.932783e-03 1.001439e-04 2.247728e-03 -5.551362e-03 1.996089e-03 -1.058563e-02
<VARIANCE> 25
 8.398923e+01 5.361852e+01 7.980668e+01 6.500343e+01 7.038336e+01 7.871307e+01 8.644672e+01 6.166912e+01 5.608315e+01 4.237015e+01 3.861844e+01 3.055560e+01 2.481388e+00 2.277276e+00 2.680743e+00 2.911283e+00 3.184309e+00 4.598707e+00 3.945391e+00 3.126148e+00 3.124175e+00 2.684262e+00 2.548065e+00 1.997868e+00 1.357808e+00
<GCONST> 1.080039e+02
<STATE> 3
<MEAN> 25
 3.746794e-09 5.162452e-09 -5.053322e-08 -1.176178e-09 -4.129961e-08 1.156777e-08 -2.488769e-09 -2.842228e-08 1.939481e-08 -4.165126e-09 -2.501501e-08 2.303551e-08 3.577962e-03 6.938920e-03 6.624806e-03 1.065556e-02 4.005769e-03 1.077135e-02 5.376180e-03 6.932783e-03 1.001439e-04 2.247728e-03 -5.551362e-03 1.996089e-03 -1.058563e-02
<VARIANCE> 25
 8.398923e+01 5.361852e+01 7.980668e+01 6.500343e+01 7.038336e+01 7.871307e+01 8.644672e+01 6.166912e+01 5.608315e+01 4.237015e+01 3.861844e+01 3.055560e+01 2.481388e+00 2.277276e+00 2.680743e+00 2.911283e+00 3.184309e+00 4.598707e+00 3.945391e+00 3.126148e+00 3.124175e+00 2.684262e+00 2.548065e+00 1.997868e+00 1.357808e+00
<GCONST> 1.080039e+02
<STATE> 4
<MEAN> 25
 3.746794e-09 5.162452e-09 -5.053322e-08 -1.176178e-09 -4.129961e-08 1.156777e-08 -2.488769e-09 -2.842228e-08 1.939481e-08 -4.165126e-09 -2.501501e-08 2.303551e-08 3.577962e-03 6.938920e-03 6.624806e-03 1.065556e-02 4.005769e-03 1.077135e-02 5.376180e-03 6.932783e-03 1.001439e-04 2.247728e-03 -5.551362e-03 1.996089e-03 -1.058563e-02
<VARIANCE> 25
 8.398923e+01 5.361852e+01 7.980668e+01 6.500343e+01 7.038336e+01 7.871307e+01 8.644672e+01 6.166912e+01 5.608315e+01 4.237015e+01 3.861844e+01 3.055560e+01 2.481388e+00 2.277276e+00 2.680743e+00 2.911283e+00 3.184309e+00 4.598707e+00 3.945391e+00 3.126148e+00 3.124175e+00 2.684262e+00 2.548065e+00 1.997868e+00 1.357808e+00
<GCONST> 1.080039e+02
<TRANSP> 5
 0.000000e+00 1.000000e+00 0.000000e+00 0.000000e+00 0.000000e+00
 0.000000e+00 6.000000e-01 4.000000e-01 0.000000e+00 0.000000e+00
 0.000000e+00 0.000000e+00 6.000000e-01 4.000000e-01 0.000000e+00
 0.000000e+00 0.000000e+00 0.000000e+00 7.000000e-01 3.000000e-01
 0.000000e+00 0.000000e+00 0.000000e+00 0.000000e+00 0.000000e+00
<ENDHMM>
~h "EH"
<BEGINHMM>
<NUMSTATES> 5
<STATE> 2
<MEAN> 25
 4.649609e+00 -1.585691e+00 4.398669e-01 -1.628173e+00 3.674480e-01 -5.844664e+00 -3.679629e+00 -2.881932e+00 2.706133e+00 2.851408e+00 1.464757e+00 4.948611e-01 2.697488e+00 -2.261409e-01 4.475355e-01 -1.292772e+00 -8.894578e-01 -8.673093e-01 -1.568394e+00 -6.710894e-01 -1.906458e-01 1.419457e+00 -1.508932e-01 4.267648e-01 2.254869e+00
<VARIANCE> 25
 5.023875e+01 5.001867e+01 4.049346e+01 7.460152e+01 5.008411e+01 6.768925e+01 6.189536e+01 5.635171e+01 7.291788e+01 5.527589e+01 4.168767e+01 3.031194e+01 7.298284e+00 8.081918e+00 6.027216e+00 3.674761e+00 4.917563e+00 1.189677e+01 5.753296e+00 6.618465e+00 6.590396e+00 6.774282e+00 6.109246e+00 3.902237e+00 1.308330e+00
<GCONST> 1.156411e+02
<STATE> 3
<MEAN> 25
 6.796245e+00 -6.773735e+00 -2.308434e+00 -1.220709e+00 -2.566402e+00 -6.691903e+00 -4.660341e+00 -1.375495e+00 3.764791e+00 8.490755e+00 3.135571e+00 -1.049082e+00 1.193011e+00 7.714741e-02 1.811238e-01 -8.069134e-01 -1.865509e-01 6.559711e-01 -2.421742e-01 -5.918731e-01 -4.377524e-01 5.320191e-01 -2.109736e-01 6.677732e-02 9.745619e-01
<VARIANCE> 25
 2.632495e+01 5.983317e+01 5.461709e+01 4.282638e+01 4.811615e+01 4.304887e+01 5.549874e+01 6.505664e+01 5.771457e+01 5.665301e+01 4.000714e+01 3.099056e+01 1.524286e+00 5.882009e+00 5.138892e+00 4.576592e+00 3.550480e+00 4.185074e+00 4.052787e+00 3.907384e+00 3.601047e+00 3.890994e+00 2.431258e+00 2.712302e+00 7.555345e-01
<GCONST> 1.071671e+02
<STATE> 4
<MEAN> 25
 1.010484e+01 -2.076592e+00 -6.486268e-01 -3.260460e+00 3.031632e-02 -2.305673e+00 -6.365484e+00 -5.294879e+00 -1.219538e+00 6.617059e+00 2.654998e+00 1.243641e+00 -2.129686e-01 5.546241e-01 -3.105294e-01 2.966333e-01 2.720470e-01 6.581836e-01 6.652246e-01 2.209898e-01 -7.534054e-01 -5.438302e-01 3.262583e-01 4.501179e-01 -6.858606e-01
<VARIANCE> 25
 1.014857e+01 2.737332e+01 3.454276e+01 3.055690e+01 5.990796e+01 3.766515e+01 6.288141e+01 4.581538e+01 5.385639e+01 4.831137e+01 4.102206e+01 3.129923e+01 6.043989e-01 1.282497e+00 1.571471e+00 2.510842e+00 2.230964e+00 2.860134e+00 3.172661e+00 2.541582e+00 3.914678e+00 2.730814e+00 2.276897e+00 1.950484e+00 9.026128e-01
<GCONST> 9.806107e+01
<TRANSP> 5
 0.000000e+00 1.000000e+00 0.000000e+00 0.000000e+00 0.000000e+00
 0.000000e+00 4.909232e-01 5.090768e-01 0.000000e+00 0.000000e+00
 0.000000e+00 0.000000e+00 5.896652e-01 4.103349e-01 0.000000e+00
 0.000000e+00 0.000000e+00 0.000000e+00 8.454189e-01 1.545812e-01
 0.000000e+00 0.000000e+00 0.000000e+00 0.000000e+00 0.000000e+00
<ENDHMM>
~h "ER"
<BEGINHMM>
<NUMSTATES> 5
<STATE> 2
<MEAN> 25
 6.081779e+00 2.837393e-02 1.841411e+00 -4.360695e-01 2.336050e+00 -5.627327e+00 -5.189361e+00 -1.408563e+00 -5.147254e+00 -1.858336e+00 1.368361e+00 1.337984e+00 2.663398e+00 1.377025e+00 -1.495960e+00 -6.044224e-01 5.074624e-01 7.504320e-01 -9.681858e-01 -1.230134e+00 -2.129736e+00 -8.225680e-02 8.421190e-01 3.239302e-01 8.763018e-01
<VARIANCE> 25
 4.355424e+01 4.891235e+01 7.558659e+01 7.111365e+01 4.058060e+01 8.481605e+01 5.749799e+01 7.074558e+01 6.904404e+01 5.380412e+01 5.231413e+01 3.047230e+01 5.725916e+00 6.390635e+00 6.215999e+00 5.358657e+00 4.819791e+00 8.849650e+00 7.192717e+00 5.269018e+00 6.472629e+00 4.886813e+00 4.258795e+00 3.701528e+00 2.169418e+00
<GCONST> 1.157293e+02
<STATE> 3
<MEAN> 25
 1.180034e+01 5.311363e+00 -2.863175e+00 -4.701804e+00 2.897479e+00 1.468509e-03 -3.378309e+00 -4.400467e+00 -1.424304e+01 -2.751402e+00 6.440362e+00 3.747612e+00 1.414429e-01 5.937067e-01 -5.880287e-01 -3.513064e-01 1.445307e-01 1.016833e+00 6.135997e-01 -5.051201e-01 -9.248868e-01 -2.412250e-01 6.875861e-01 4.184710e-01 -3.551577e-01
<VARIANCE> 25
 8.436456e+00 2.718772e+01 2.728937e+01 8.803539e+01 4.055540e+01 3.314149e+01 4.738530e+01 5.465427e+01 4.367519e+01 3.955196e+01 3.772075e+01 3.498030e+01 4.218833e-01 1.021399e+00 1.088711e+00 1.878081e+00 2.209880e+00 2.078308e+00 1.857289e+00 1.896617e+00 2.561929e+00 1.786857e+00 2.404750e+00 1.736625e+00 4.897862e-01
<GCONST> 9.376256e+01
<STATE> 4
<MEAN> 25
 7.563871e+00 5.896698e+00 -4.204647e+00 9.267429e-02 5.121718e+00 5.204801e+00 -3.688555e+00 -6.359653e+00 -9.657729e+00 -2.460248e+00 6.209336e+00 4.566258e+00 -6.326196e-01 -2.137702e-01 1.386413e-01 6.840764e-01 2.603424e-02 1.595085e-01 4.266687e-02 3.650016e-01 9.628396e-01 6.570244e-02 -4.860404e-01 -2.727674e-01 -5.291751e-01
<VARIANCE> 25
 2.946413e+01 1.763771e+01 2.025241e+01 4.411972e+01 2.857006e+01 2.886046e+01 4.440791e+01 3.865714e+01 4.312981e+01 2.738706e+01 3.114078e+01 1.934876e+01 7.160194e-01 9.572893e-01 9.644966e-01 1.620684e+00 1.502412e+00 1.985502e+00 2.262851e+00 2.078529e+00 1.956491e+00 1.529235e+00 1.566909e+00 1.194214e+00 3.748049e-01
<GCONST> 9.008515e+01
<TRANSP> 5
 0.000000e+00 1.000000e+00 0.000000e+00 0.000000e+00 0.000000e+00
 0.000000e+00 7.059226e-01 2.940774e-01 0.000000e+00 0.000000e+00
 0.000000e+00 0.000000e+00 8.255511e-01 1.744489e-01 0.000000e+00
 0.000000e+00 0.000000e+00 0.000000e+00 8.941508e-01 1.058492e-01
 0.000000e+00 0.000000e+00 0.000000e+00 0.000000e+00 0.000000e+00
<ENDHMM>
~h "EY"
<BEGINHMM>
<NUMSTATES> 5
<STATE> 2
<MEAN> 25
 9.572268e+00 1.632999e-02 8.061964e-01 2.766972e+00 6.809684e+00 -5.500738e+00 -1.286282e+01 -6.672801e+00 -2.977144e+00 2.459680e+00 9.154431e-01 -5.162465e-01 -1.593224e-02 -1.331438e+00 6.587652e-01 1.134121e+00 1.185484e+00 -1.738928e+00 -2.218386e+00 5.182604e-01 1.039402e+00 6.966010e-01 -4.802583e-01 -1.181973e+00 8.414322e-01
<VARIANCE> 25
 1.205225e+01 2.837234e+01 5.138826e+01 5.361266e+01 6.466740e+01 5.181455e+01 5.990276e+01 5.664846e+01 7.461494e+01 4.376032e+01 6.137907e+01 4.384228e+01 1.163349e+00 3.324144e+00 3.685518e+00 6.140107e+00 4.029494e+00 3.400168e+00 4.119324e+00 4.448905e+00 4.166990e+00 3.363760e+00 3.941829e+00 3.158119e+00 1.104191e+00
<GCONST> 1.071966e+02
<STATE> 3
<MEAN> 25
 7.644100e+00 -3.298305e+00 4.995876e+00 9.180126e+00 1.026241e+01 -9.338395e+00 -1.929209e+01 -4.052762e+00 1.126108e+00 5.532771e+00 -2.246300e+00 -6.558761e+00 -1.827265e-01 4.636497e-01 -1.710745e-01 6.648753e-01 1.204427e-01 4.129907e-01 3.480377e-01 -2.445654e-01 1.088017e-01 5.547365e-02 -1.100077e-01 -1.691988e-01 -6.237648e-01
<VARIANCE> 25
 6.837201e+00 1.696966e+01 3.328676e+01 3.620940e+01 3.723619e+01 2.711110e+01 4.069894e+01 5.138343e+01 5.698907e+01 2.759186e+01 3.724590e+01 2.710665e+01 3.490272e-01 7.870686e-01 1.863687e+00 1.441248e+00 1.967619e+00 2.520919e+00 2.550920e+00 2.121291e+00 2.087194e+00 1.929557e+00 1.825769e+00 1.757980e+00 5.695626e-01
<GCONST> 9.161798e+01
<STATE> 4
<MEAN> 25
 4.263702e+00 2.662576e+00 -1.453806e+00 8.754684e+00 6.118571e+00 -3.028840e-01 -9.234060e+00 -4.649270e+00 -9.931703e-02 -9.648339e-02 -1.565109e+00 -3.177204e+00 -7.360203e-01 3.571043e-01 -5.217347e-01 -9.143505e-01 -8.453131e-01 1.266372e+00 1.794169e+00 5.477958e-01 -3.248367e-01 -1.000096e+00 1.508260e-01 8.201585e-01 -9.051174e-01
<VARIANCE> 25
 2.089610e+01 1.512565e+01 2.824646e+01 2.498961e+01 2.559776e+01 2.854162e+01 3.481585e+01 3.910894e+01 2.875422e+01 2.622497e+01 1.397467e+01 1.444925e+01 5.477117e-01 1.339344e+00 7.448001e-01 1.155296e+00 1.587767e+00 2.295616e+00 1.702428e+00 2.053597e+00 2.420555e+00 1.924736e+00 1.319917e+00 1.497728e+00 3.750074e-01
<GCONST> 8.733035e+01
<TRANSP> 5
 0.000000e+00 1.000000e+00 0.000000e+00 0.000000e+00 0.000000e+00
 0.000000e+00 7.825003e-01 2.174997e-01 0.000000e+00 0.000000e+00
 0.000000e+00 0.000000e+00 8.882073e-01 1.117927e-01 0.000000e+00
 0.000000e+00 0.000000e+00 0.000000e+00 7.867879e-01 2.132121e-01
 0.000000e+00 0.000000e+00 0.000000e+00 0.000000e+00 0.000000e+00
<ENDHMM>
~h "HH"
<BEGINHMM>
<NUMSTATES> 5
<STATE> 2
<MEAN> 25
 -3.210742e+00 -1.361943e+00 -5.274662e+00 -4.745572e-01 -1.711464e+00 1.982147e+00 5.215855e-02 3.361974e+00 2.034991e+00 4.140153e-02 8.460197e-01 1.849387e+00 4.812250e-02 -1.420807e-01 -3.638493e-01 -8.140783e-02 -1.824573e-01 -2.570392e-01 -2.365425e-01 1.863405e-01 3.254589e-01 4.798745e-02 2.521489e-02 -1.123230e-02 -2.279471e-02
<VARIANCE> 25
 1.172847e+01 1.712097e+01 1.639565e+01 2.458478e+01 2.758582e+01 2.861110e+01 2.684054e+01 2.647410e+01 2.721677e+01 1.853674e+01 2.773478e+01 1.564137e+01 4.220561e-01 7.896107e-01 9.006027e-01 1.526945e+00 1.725921e+00 1.926908e+00 1.983101e+00 1.779040e+00 1.711477e+00 1.421667e+00 1.799183e+00 1.269648e+00 1.848471e-01
<GCONST> 8.449096e+01
<STATE> 3
<MEAN> 25
 -1.122469e+00 -9.412003e+00 -8.185341e+00 3.288291e+00 -2.956107e+00 -4.857358e+00 -2.370545e+00 8.355547e+00 6.593225e+00 1.913648e+00 1.465796e+00 6.396774e-01 4.008785e-01 -1.627671e+00 -1.185282e+00 8.280728e-01 -6.194678e-01 -1.494434e+00 -2.884164e-01 6.847032e-01 7.144031e-01 6.784070e-01 1.783030e-01 -6.145688e-01 5.075027e-01
<VARIANCE> 25
 2.680260e+01 2.912107e+01 5.024020e+01 4.998598e+01 3.083079e+01 5.458274e+01 3.769294e+01 4.275781e+01 4.610329e+01 4.063805e+01 3.106839e+01 2.559288e+01 9.772170e-01 2.238878e+00 2.340933e+00 2.991623e+00 3.049706e+00 5.292641e+00 3.425046e+00 3.455564e+00 3.451720e+00 3.013688e+00 2.565211e+00 2.180595e+00 8.354427e-01
<GCONST> 1.013284e+02
<STATE> 4
<MEAN> 25
 8.554375e-01 -1.629161e+01 -1.159849e+01 3.794585e+00 -7.226937e+00 -8.775786e+00 -2.184543e+00 7.843103e+00 1.012724e+01 7.141643e+00 1.398278e+00 -2.894171e+00 6.897937e-01 7.672814e-01 9.790952e-01 -2.847423e-01 2.949755e-01 7.392989e-01 2.868106e-01 -6.948672e-01 6.839986e-02 3.854031e-01 -4.812951e-02 1.404579e-02 6.604131e-01
<VARIANCE> 25
 8.854398e+00 2.863810e+01 3.414577e+01 4.677405e+01 4.568914e+01 4.837101e+01 4.467248e+01 4.320960e+01 4.712397e+01 4.214282e+01 3.498019e+01 2.031037e+01 1.250791e+00 4.264039e+00 3.682820e+00 1.694494e+00 3.066655e+00 3.188293e+00 1.947028e+00 2.671661e+00 2.356548e+00 2.414223e+00 2.269707e+00 1.480072e+00 5.624358e-01
<GCONST> 9.809347e+01
<TRANSP> 5
 0.000000e+00 1.000000e+00 0.000000e+00 0.000000e+00 0.000000e+00
 0.000000e+00 8.668954e-01 1.331046e-01 0.000000e+00 0.000000e+00
 0.000000e+00 0.000000e+00 7.791956e-01 2.208044e-01 0.000000e+00
 0.000000e+00 0.000000e+00 0.000000e+00 8.072942e-01 1.927057e-01
 0.000000e+00 0.000000e+00 0.000000e+00 0.000000e+00 0.000000e+00
<ENDHMM>
~h "IH"
<BEGINHMM>
<NUMSTATES> 5
<STATE> 2
<MEAN> 25
 1.268542e+00 1.536408e+00 6.903965e-01 1.729339e-01 -7.894232e-02 -2.713417e+00 -9.455763e-01 -2.973077e-01 -4.748506e-02 -1.702686e+00 -1.669613e+00 -2.468863e-01 1.084741e+00 -6.591368e-01 1.004078e+00 5.659910e-01 6.797208e-01 -1.576306e+00 -1.832185e+00 -1.288502e+00 -4.541771e-01 2.290449e-01 -4.160297e-01 -2.672724e-02 1.683832e+00
<VARIANCE> 25
 6.254182e+01 6.172935e+01 6.287537e+01 6.974929e+01 5.170398e+01 8.804964e+01 5.682219e+01 5.513032e+01 4.723708e+01 3.603503e+01 5.552627e+01 3.408079e+01 4.235609e+00 5.743965e+00 4.968000e+00 6.901209e+00 5.325690e+00 1.224209e+01 8.507562e+00 7.781418e+00 7.075164e+00 4.682889e+00 6.072193e+00 4.309132e+00 2.643942e+00
<GCONST> 1.168836e+02
<STATE> 3
<MEAN> 25
 6.576586e+00 -9.532951e-01 5.432637e+00 6.905084e+00 2.659146e+00 -6.802945e+00 -1.261691e+01 -8.016023e+00 -1.109909e+00 2.196625e+00 -1.465789e+00 -6.977180e-01 1.200212e+00 -7.242152e-01 1.046250e+00 5.125821e-01 7.613757e-01 -4.904673e-01 -1.751990e+00 -1.136023e+00 -1.844297e-01 1.295215e+00 3.744365e-02 -1.989926e-01 1.563010e+00
<VARIANCE> 25
 2.165674e+01 2.740752e+01 3.497283e+01 8.016465e+01 4.912545e+01 5.337720e+01 6.062906e+01 7.586750e+01 5.671746e+01 4.747116e+01 5.964524e+01 3.304365e+01 3.221222e+00 3.331062e+00 3.850707e+00 4.902442e+00 3.992290e+00 6.533585e+00 7.252829e+00 7.506923e+00 4.885574e+00 3.996160e+00 3.892054e+00 3.271973e+00 2.365336e+00
<GCONST> 1.110082e+02
<STATE> 4
<MEAN> 25
 7.352904e+00 -1.101209e+00 4.795356e+00 5.138497e+00 5.114006e+00 -3.310889e+00 -1.051643e+01 -8.420310e+00 -2.873657e+00 2.892457e+00 -1.022351e+00 -6.178127e-01 -2.887646e-01 4.828125e-01 -2.440557e-01 -3.396983e-01 -7.473960e-02 1.302287e+00 9.365543e-01 5.757871e-02 -7.276898e-02 -3.490817e-01 -3.014812e-02 1.658669e-01 -6.089589e-01
<VARIANCE> 25
 1.352724e+01 2.176300e+01 4.030100e+01 4.318283e+01 4.609683e+01 5.479965e+01 4.728418e+01 7.164952e+01 5.437533e+01 4.383141e+01 5.414156e+01 3.903287e+01 8.215002e-01 1.168025e+00 2.017300e+00 2.781528e+00 2.576183e+00 2.949569e+00 2.884420e+00 2.600754e+00 2.758076e+00 2.306780e+00 2.781664e+00 1.689087e+00 9.510860e-01
<GCONST> 9.956235e+01
<TRANSP> 5
 0.000000e+00 1.000000e+00 0.000000e+00 0.000000e+00 0.000000e+00
 0.000000e+00 5.789485e-01 4.210515e-01 0.000000e+00 0.000000e+00
 0.000000e+00 0.000000e+00 5.326800e-01 4.673199e-01 0.000000e+00
 0.000000e+00 0.000000e+00 0.000000e+00 7.682252e-01 2.317748e-01
 0.000000e+00 0.000000e+00 0.000000e+00 0.000000e+00 0.000000e+00
<ENDHMM>
~h "IY"
<BEGINHMM>
<NUMSTATES> 5
<STATE> 2
<MEAN> 25
 4.926075e+00 8.024569e-01 4.548779e+00 7.117342e+00 9.809870e+00 -6.164155e+00 -8.029477e+00 -6.735998e+00 -4.942046e+00 1.690238e+00 -3.576620e-01 -3.729299e+00 5.148214e-01 -7.383476e-01 1.064025e+00 2.333872e+00 1.361716e+00 -1.631555e+00 -2.532366e+00 8.683460e-02 6.325195e-01 1.377733e+00 -8.876100e-01 -1.678663e+00 6.664019e-01
<VARIANCE> 25
 3.007395e+01 3.544600e+01 5.696955e+01 5.189314e+01 6.355753e+01 8.392690e+01 6.480080e+01 5.558448e+01 8.106592e+01 4.016019e+01 4.028297e+01 4.674218e+01 4.210424e+00 4.549380e+00 2.762271e+00 3.527269e+00 4.711959e+00 6.652997e+00 6.023407e+00 4.673974e+00 5.806228e+00 4.090506e+00 3.612239e+00 2.728746e+00 8.201382e-01
<GCONST> 1.105796e+02
<STATE> 3
<MEAN> 25
 5.716685e+00 -6.441938e-01 8.060369e+00 1.476049e+01 1.022690e+01 -9.000149e+00 -1.459370e+01 -4.609344e+00 -7.373807e-01 4.466633e+00 -3.629584e+00 -9.627712e+00 -1.159474e-01 6.857158e-02 6.014768e-03 1.630851e-01 -3.051709e-01 3.924851e-01 1.158153e-02 1.013772e-01 4.653518e-01 -4.930940e-02 -1.595239e-01 -9.735248e-02 -2.781858e-01
<VARIANCE> 25
 9.048134e+00 1.895617e+01 2.800533e+01 2.300776e+01 3.161789e+01 3.382177e+01 3.619048e+01 4.363060e+01 4.655153e+01 2.701902e+01 2.494061e+01 3.383297e+01 2.636442e-01 9.090876e-01 1.480932e+00 1.979497e+00 1.809715e+00 2.841037e+00 2.181028e+00 2.069100e+00 1.862427e+00 1.586864e+00 1.427622e+00 1.997952e+00 3.988135e-01
<GCONST> 8.977807e+01
<STATE> 4
<MEAN> 25
 8.764851e-01 1.628205e+00 6.637825e-01 8.207711e+00 5.947180e+00 1.690022e+00 -5.088490e+00 -6.813591e-01 2.096632e+00 -2.447853e-01 -2.225598e+00 -2.306793e+00 -5.284951e-01 7.634997e-02 -6.793842e-01 -7.801352e-01 -5.180903e-01 7.719795e-01 1.134649e+00 5.273737e-01 -5.576059e-02 -4.597424e-01 3.589995e-01 7.783351e-01 -6.204607e-01
<VARIANCE> 25
 1.712820e+01 1.488574e+01 2.931217e+01 3.035439e+01 2.300849e+01 3.332496e+01 6.138005e+01 3.590891e+01 2.579535e+01 1.842429e+01 1.967197e+01 2.172330e+01 5.192180e-01 1.109867e+00 1.319919e+00 1.554705e+00 1.464833e+00 2.355895e+00 3.017815e+00 1.877463e+00 1.989946e+00 1.863215e+00 1.384088e+00 1.593331e+00 3.891791e-01
<GCONST> 8.913905e+01
<TRANSP> 5
 0.000000e+00 1.000000e+00 0.000000e+00 0.000000e+00 0.000000e+00
 0.000000e+00 7.296696e-01 2.703305e-01 0.000000e+00 0.000000e+00
 0.000000e+00 0.000000e+00 8.870932e-01 1.129068e-01 0.000000e+00
 0.000000e+00 0.000000e+00 0.000000e+00 8.786005e-01 1.213995e-01
 0.000000e+00 0.000000e+00 0.000000e+00 0.000000e+00 0.000000e+00
<ENDHMM>
~h "JH"
<BEGINHMM>
<NUMSTATES> 5
<STATE> 2
<MEAN> 25
 1.576405e+00 2.080729e+00 9.221551e-01 8.406361e+00 5.236364e+00 8.764142e-01 -2.916117e+00 5.927835e+00 7.046925e+00 -3.994601e+00 -8.603117e-01 3.584884e+00 -1.555454e+00 -3.655295e+00 1.469079e+00 9.057018e-01 4.707372e-01 -1.503371e+00 -2.250637e+00 2.310629e+00 2.343432e+00 -1.523997e+00 -4.910034e-01 2.853417e-01 8.783941e-01
<VARIANCE> 25
 2.104178e+01 6.520801e+01 3.429897e+01 2.706869e+01 2.847542e+01 4.682361e+01 5.288667e+01 4.693327e+01 4.522155e+01 3.218280e+01 1.822492e+01 1.875228e+01 2.346572e+00 8.726184e+00 6.529723e+00 2.147161e+00 2.237883e+00 4.099949e+00 5.024259e+00 5.687609e+00 4.119688e+00 2.694257e+00 2.212122e+00 2.230410e+00 8.507748e-01
<GCONST> 1.032042e+02
<STATE> 3
<MEAN> 25
 -9.777121e+00 -2.070459e+01 9.708042e+00 8.985483e+00 7.780820e+00 -3.866407e+00 -1.062915e+01 1.261148e+01 1.380622e+01 -6.493995e+00 -1.501181e+00 1.181689e+00 7.516104e-02 -3.259966e-01 7.965586e-01 1.213652e-02 1.003228e-01 -1.798992e-01 -8.759355e-01 -1.498307e+00 -9.310235e-01 3.886295e-02 2.671462e-01 3.449830e-03 4.874590e-01
<VARIANCE> 25
 1.769568e+01 2.783106e+01 6.498248e+01 2.161240e+01 1.910924e+01 3.994167e+01 2.789738e+01 4.928854e+01 2.941177e+01 2.373246e+01 1.716996e+01 3.108239e+01 6.908327e+00 1.268074e+01 6.285516e+00 2.539770e+00 1.786850e+00 2.756864e+00 3.211045e+00 4.709930e+00 3.709902e+00 2.529953e+00 2.241273e+00 1.719308e+00 1.191360e+00
<GCONST> 1.014029e+02
<STATE> 4
<MEAN> 25
 3.431937e+00 -7.045127e+00 9.301469e+00 1.096095e+01 7.225841e+00 -2.856597e+00 -2.014075e+01 -3.023556e+00 2.840287e+00 -7.162218e+00 8.804930e-01 4.554343e+00 3.027332e+00 3.242236e+00 -1.757660e+00 -1.006217e-01 -3.316939e-01 8.853821e-02 -1.401501e+00 -2.581785e+00 -2.323310e+00 5.521148e-01 5.247449e-01 -5.037325e-02 9.013990e-02
<VARIANCE> 25
 2.547099e+01 1.979551e+01 6.446522e+01 1.827675e+01 2.742210e+01 5.042108e+01 3.530960e+01 5.512008e+01 2.695671e+01 2.548142e+01 1.876953e+01 2.392626e+01 3.918366e+00 3.264930e+00 2.157003e+00 2.877432e+00 3.084341e+00 1.997496e+00 6.672972e+00 8.187676e+00 4.455250e+00 2.291304e+00 1.747075e+00 3.292765e+00 5.158920e-01
<GCONST> 1.002910e+02
<TRANSP> 5
 0.000000e+00 1.000000e+00 0.000000e+00 0.000000e+00 0.000000e+00
 0.000000e+00 7.846947e-01 2.153053e-01 0.000000e+00 0.000000e+00
 0.000000e+00 0.000000e+00 8.059793e-01 1.940207e-01 0.000000e+00
 0.000000e+00 0.000000e+00 0.000000e+00 6.395865e-01 3.604135e-01
 0.000000e+00 0.000000e+00 0.000000e+00 0.000000e+00 0.000000e+00
<ENDHMM>
~h "NG"
<BEGINHMM>
<NUMSTATES> 5
<STATE> 2
<MEAN> 25
 8.450086e+00 -1.475375e-01 1.437879e+00 7.201702e+00 7.529982e+00 -7.718864e+00 -1.391741e+01 -1.325449e+00 1.068262e+00 5.915724e+00 3.590379e+00 -6.193763e+00 -6.319980e-02 8.664983e-01 -1.979842e-01 4.139599e-01 8.535095e-02 6.744441e-01 2.695791e-01 -1.800332e-01 6.981212e-01 1.163835e-01 -6.792917e-01 -3.954244e-01 -6.676601e-01
<VARIANCE> 25
 7.399674e+00 2.931120e+01 2.381680e+01 1.588183e+01 3.118748e+01 2.942410e+01 3.058455e+01 5.825393e+01 3.598308e+01 3.237540e+01 2.751082e+01 2.834141e+01 3.733740e-01 9.262434e-01 1.172161e+00 9.802782e-01 2.204966e+00 2.846660e+00 2.388269e+00 4.149517e+00 2.038139e+00 1.225689e+00 1.220081e+00 1.853025e+00 2.646882e-01
<GCONST> 8.889803e+01
<STATE> 3
<MEAN> 25
 6.644979e+00 6.526945e+00 1.735969e+00 7.004735e+00 6.481416e+00 2.713869e-01 -7.917679e+00 -5.584084e+00 3.301357e+00 4.127095e+00 -2.199773e-01 -4.694472e+00 -3.361696e-01 5.642046e-01 3.465521e-02 -3.028414e-01 -2.184033e-01 7.311250e-01 9.906131e-01 1.564852e-01 -4.713866e-02 -8.483925e-01 -3.365251e-01 7.735047e-01 -4.733554e-01
<VARIANCE> 25
 1.688508e+01 1.651422e+01 1.113681e+01 1.145364e+01 2.379161e+01 2.704697e+01 5.169489e+01 2.478022e+01 2.449048e+01 1.975716e+01 1.804119e+01 1.631036e+01 5.701053e-01 1.064939e+00 8.674217e-01 8.115006e-01 1.709099e+00 2.801440e+00 2.990575e+00 2.945581e+00 3.018436e+00 2.315355e+00 2.338780e+00 1.771883e+00 2.666362e-01
<GCONST> 8.685058e+01
<STATE> 4
<MEAN> 25
 2.175308e+00 5.542633e+00 7.128826e-01 3.811104e+00 1.516042e+00 1.431479e+00 -2.890539e+00 -1.592081e+00 -3.234794e-01 -1.671051e+00 7.448180e-01 1.669950e+00 -5.346718e-01 -4.134787e-01 -2.794282e-01 -2.641861e-01 -1.748776e-01 2.076674e-01 5.092198e-01 2.835653e-01 -1.797469e-01 -1.992470e-01 9.424953e-02 1.589122e-01 -2.943634e-01
<VARIANCE> 25
 2.676074e+01 2.687512e+01 2.723826e+01 1.194410e+01 1.842170e+01 2.708579e+01 2.734808e+01 2.354443e+01 1.530437e+01 1.256371e+01 1.032715e+01 8.374754e+00 6.934485e-01 1.265981e+00 7.933267e-01 8.753924e-01 1.654847e+00 1.772710e+00 1.949069e+00 1.662419e+00 1.418819e+00 1.231405e+00 9.617269e-01 8.812029e-01 2.772779e-01
<GCONST> 8.157571e+01
<TRANSP> 5
 0.000000e+00 1.000000e+00 0.000000e+00 0.000000e+00 0.000000e+00
 0.000000e+00 8.103574e-01 1.896426e-01 0.000000e+00 0.000000e+00
 0.000000e+00 0.000000e+00 8.443868e-01 1.556132e-01 0.000000e+00
 0.000000e+00 0.000000e+00 0.000000e+00 8.882580e-01 1.117419e-01
 0.000000e+00 0.000000e+00 0.000000e+00 0.000000e+00 0.000000e+00
<ENDHMM>
~h "OW"
<BEGINHMM>
<NUMSTATES> 5
<STATE> 2
<MEAN> 25
 1.043202e+01 4.126372e+00 4.522958e-01 -6.128623e+00 -5.734840e+00 -5.705001e-03 -6.435835e+00 3.632514e-01 3.483868e+00 -1.822028e+00 -6.531238e+00 -3.284364e+00 7.692684e-02 4.222815e-01 -1.420483e-01 -2.143068e-01 -3.458020e-01 -6.074056e-02 8.663620e-02 4.370131e-01 1.062408e-01 -2.894571e-02 -7.942650e-02 -4.493351e-01 -2.211455e-01
<VARIANCE> 25
 2.127711e+01 2.260390e+01 3.067317e+01 3.252144e+01 1.013194e+02 3.652834e+01 5.211987e+01 4.456701e+01 4.232632e+01 3.700135e+01 3.539897e+01 4.064470e+01 1.061305e+00 1.178375e+00 1.638538e+00 2.760728e+00 3.922639e+00 2.590216e+00 3.462031e+00 2.848662e+00 2.542463e+00 2.034252e+00 1.884730e+00 2.238916e+00 1.057854e+00
<GCONST> 9.910223e+01
<STATE> 3
<MEAN> 25
 7.795176e+00 8.973330e+00 1.000040e+00 -1.041998e+00 -5.220636e+00 -1.987092e+00 -2.340998e+00 2.675151e+00 2.303895e+00 -2.278163e+00 -3.810658e+00 -3.707517e+00 -6.689916e-01 -1.734382e-01 -9.478524e-02 6.993731e-01 7.933506e-01 5.665230e-01 3.067776e-01 1.545191e-01 7.263701e-02 2.563101e-02 4.821069e-01 5.421624e-01 -5.458124e-01
<VARIANCE> 25
 2.108751e+01 2.334139e+01 1.676816e+01 1.926467e+01 3.276487e+01 2.475352e+01 1.866278e+01 1.567001e+01 2.180736e+01 2.746751e+01 2.460769e+01 2.979226e+01 5.364075e-01 1.048857e+00 8.353976e-01 9.377562e-01 2.045074e+00 1.491904e+00 1.686148e+00 1.265971e+00 1.313230e+00 1.320688e+00 1.190527e+00 1.549360e+00 2.945408e-01
<GCONST> 8.428778e+01
<STATE> 4
<MEAN> 25
 -3.963801e+00 9.989905e-01 -3.626725e+00 2.411156e+00 2.080438e+00 4.779108e+00 5.994220e-01 3.559934e+00 2.714645e+00 -1.891190e+00 1.574712e-01 1.666062e+00 -2.909109e-01 -2.484241e-01 -1.106485e-01 2.849144e-02 1.126480e-01 6.503828e-02 6.609119e-02 5.769873e-02 -1.486190e-01 -1.712389e-02 4.618536e-02 -6.910682e-03 -1.551505e-01
<VARIANCE> 25
 1.482996e+01 1.010761e+01 1.556672e+01 1.223742e+01 2.888838e+01 1.723759e+01 1.693830e+01 1.548231e+01 1.512060e+01 1.286956e+01 1.390936e+01 1.168705e+01 4.918864e-01 7.695901e-01 6.957802e-01 9.467502e-01 1.563280e+00 1.060034e+00 1.140265e+00 1.303895e+00 1.228638e+00 1.078384e+00 1.159048e+00 1.084866e+00 1.380633e-01
<GCONST> 7.639152e+01
<TRANSP> 5
 0.000000e+00 1.000000e+00 0.000000e+00 0.000000e+00 0.000000e+00
 0.000000e+00 8.215461e-01 1.784540e-01 0.000000e+00 0.000000e+00
 0.000000e+00 0.000000e+00 8.246570e-01 1.753430e-01 0.000000e+00
 0.000000e+00 0.000000e+00 0.000000e+00 8.780181e-01 1.219819e-01
 0.000000e+00 0.000000e+00 0.000000e+00 0.000000e+00 0.000000e+00
<ENDHMM>
~h "OY"
<BEGINHMM>
<NUMSTATES> 5
<STATE> 2
<MEAN> 25
 1.355956e+01 1.224990e+01 -4.676216e-01 -8.255057e+00 -9.787280e+00 -5.636980e+00 -3.012550e+00 7.621956e-02 -3.109926e+00 -4.174953e+00 -2.761325e+00 -2.835098e+00 2.659283e-01 -5.476800e-03 -7.347009e-01 -2.691174e-01 1.651398e-01 5.646348e-01 4.377853e-01 -5.052072e-01 -8.584720e-01 5.924291e-02 -9.361250e-02 9.599880e-02 3.464069e-02
<VARIANCE> 25
 7.950399e+00 1.231491e+01 2.200164e+01 2.819296e+01 3.907565e+01 3.016375e+01 1.686565e+01 2.758158e+01 5.403218e+01 7.889604e+01 1.287103e+01 1.608665e+01 4.961129e-01 1.163777e+00 1.032847e+00 1.970725e+00 1.816075e+00 1.929027e+00 1.189092e+00 3.260029e+00 2.306863e+00 3.015883e+00 2.008349e+00 7.759982e-01 4.493745e-01
<GCONST> 8.822005e+01
<STATE> 3
<MEAN> 25
 1.212153e+01 6.899292e+00 -5.527553e+00 -7.902920e+00 -2.695921e+00 -5.629899e-02 -4.405830e+00 -5.870286e+00 -6.267931e+00 -3.218265e+00 1.472640e+00 9.900185e-01 -2.429540e-01 -6.858236e-01 5.624832e-02 1.280694e+00 1.328320e+00 8.017359e-02 -9.053711e-01 -6.478792e-01 4.382229e-01 8.070340e-01 3.370630e-01 -4.578999e-02 1.506860e-02
<VARIANCE> 25
 4.830503e+00 1.045207e+01 8.219537e+00 5.351713e+01 3.349965e+01 9.087674e+00 2.912538e+01 2.231255e+01 2.431211e+01 2.847038e+01 8.124108e+00 2.659495e+01 8.523548e-02 4.926947e-01 4.581816e-01 1.157907e+00 1.732936e+00 9.852132e-01 1.720957e+00 1.070425e+00 1.716461e+00 1.360271e+00 7.364786e-01 1.499075e+00 6.450132e-02
<GCONST> 7.561344e+01
<STATE> 4
<MEAN> 25
 7.576526e+00 1.525729e+00 -2.320784e+00 8.095647e+00 8.949717e+00 1.135893e+00 -9.513132e+00 -7.623741e+00 -1.742732e+00 4.684387e-01 2.378256e+00 5.213786e-01 -8.709115e-01 1.569052e-01 3.685020e-01 4.948308e-01 5.136194e-02 3.373395e-01 7.763287e-01 6.415245e-01 3.218420e-01 -1.700654e-01 2.304467e-01 3.439488e-01 -7.208384e-01
<VARIANCE> 25
 1.126334e+01 1.376222e+01 1.512166e+01 2.493738e+01 1.717689e+01 2.094904e+01 3.531107e+01 2.906385e+01 2.311023e+01 2.912217e+01 1.227868e+01 1.493427e+01 4.563484e-01 1.474032e+00 5.942444e-01 2.079557e+00 1.923874e+00 2.513793e+00 2.589539e+00 2.709236e+00 1.725083e+00 2.382159e+00 1.623590e+00 1.523919e+00 5.473500e-01
<GCONST> 8.652155e+01
<TRANSP> 5
 0.000000e+00 1.000000e+00 0.000000e+00 0.000000e+00 0.000000e+00
 0.000000e+00 7.620537e-01 2.379463e-01 0.000000e+00 0.000000e+00
 0.000000e+00 0.000000e+00 8.877532e-01 1.122467e-01 0.000000e+00
 0.000000e+00 0.000000e+00 0.000000e+00 8.551456e-01 1.448544e-01
 0.000000e+00 0.000000e+00 0.000000e+00 0.000000e+00 0.000000e+00
<ENDHMM>
~h "SH"
<BEGINHMM>
<NUMSTATES> 5
<STATE> 2
<MEAN> 25
 -1.079256e+01 -2.401949e+01 9.080776e+00 7.049433e+00 9.146806e+00 -5.027988e+00 -8.705333e+00 3.342431e+00 1.023420e+01 -4.437191e+00 -5.274334e-02 4.324886e+00 -1.090229e+00 -1.494095e+00 8.866806e-01 3.444970e-02 -8.581351e-03 -2.225956e-01 5.046149e-02 2.678792e-02 7.428153e-01 -6.685429e-02 -4.267342e-02 -1.729195e-01 2.787098e-01
<VARIANCE> 25
 2.405506e+01 4.001874e+01 3.561837e+01 3.051319e+01 3.252006e+01 2.055907e+01 2.846381e+01 5.412465e+01 3.574234e+01 1.517671e+01 1.311385e+01 2.134809e+01 1.989263e+00 4.534313e+00 3.398937e+00 2.345519e+00 2.178529e+00 1.639920e+00 2.613253e+00 1.992171e+00 2.084611e+00 1.304549e+00 1.260043e+00 1.615903e+00 8.581634e-01
<GCONST> 9.434048e+01
<STATE> 3
<MEAN> 25
 -5.142500e+00 -1.769500e+01 6.721194e+00 9.725809e+00 2.653653e+00 -4.027453e+00 -1.288154e+01 1.165022e+00 9.075477e+00 -4.942470e+00 -7.683737e-01 4.669616e+00 3.583735e+00 4.365077e+00 -1.291014e+00 3.828618e-01 -2.216251e+00 -9.987720e-02 -6.102491e-01 -6.723684e-01 -1.744791e+00 -5.429534e-01 3.931224e-02 5.829793e-01 -4.369648e-01
<VARIANCE> 25
 6.460682e+01 9.053513e+01 1.240976e+01 2.089585e+01 4.139310e+01 2.624367e+01 2.157379e+01 4.413296e+01 3.568446e+01 1.694842e+01 1.088327e+01 1.920102e+01 3.817069e+00 3.850249e+00 1.396749e+00 2.859382e+00 3.528508e+00 4.093351e+00 2.374656e+00 2.665145e+00 1.950651e+00 1.375614e+00 1.197525e+00 1.137798e+00 1.165779e+00
<GCONST> 9.581285e+01
<STATE> 4
<MEAN> 25
 -7.518293e-01 -4.768872e+00 -2.773414e+00 7.897552e+00 1.523515e+00 -3.502915e+00 -5.103125e+00 3.442288e+00 3.612724e+00 -5.992969e+00 -2.258248e+00 4.207226e+00 -4.609063e-02 1.077381e+00 -1.384391e+00 -1.709532e+00 -2.042305e-01 1.823342e-01 1.717095e+00 8.562702e-01 -8.124974e-01 7.893159e-01 1.447945e-01 -7.334805e-01 -6.172201e-01
<VARIANCE> 25
 2.762876e+01 1.340281e+01 1.968167e+01 2.270621e+01 2.198715e+01 1.466574e+01 3.498107e+01 2.631055e+01 1.590801e+01 7.764333e+00 1.659426e+01 1.169663e+01 1.897557e+00 9.408989e-01 2.263778e+00 1.021586e+00 9.490086e-01 3.444752e+00 2.235301e+00 2.152099e+00 2.146346e+00 1.240906e+00 1.188383e+00 1.050133e+00 9.176815e-01
<GCONST> 8.593762e+01
<TRANSP> 5
 0.000000e+00 1.000000e+00 0.000000e+00 0.000000e+00 0.000000e+00
 0.000000e+00 9.117315e-01 8.826849e-02 0.000000e+00 0.000000e+00
 0.000000e+00 0.000000e+00 7.870530e-01 2.129470e-01 0.000000e+00
 0.000000e+00 0.000000e+00 0.000000e+00 6.478000e-01 3.521999e-01
 0.000000e+00 0.000000e+00 0.000000e+00 0.000000e+00 0.000000e+00
<ENDHMM>
~h "TH"
<BEGINHMM>
<NUMSTATES> 5
<STATE> 2
<MEAN> 25
 -1.383753e+01 -2.298395e+00 5.819808e+00 -1.278304e+01 5.454596e+00 -3.814447e+00 6.687340e+00 -1.075923e+00 7.726821e+00 -6.629560e+00 4.603734e+00 -1.508779e+00 -2.023106e+00 -4.132573e-01 8.732809e-01 -8.363201e-01 1.266593e+00 -1.257136e+00 2.525587e-01 -2.028657e-01 8.238695e-01 -9.208283e-01 8.341854e-01 -5.518433e-01 4.320381e-01
<VARIANCE> 25
 6.086359e+01 1.343249e+01 2.842768e+01 3.367171e+01 4.302002e+01 5.994546e+01 4.022584e+01 3.188405e+01 3.038653e+01 2.957185e+01 5.030304e+01 3.503827e+01 3.249718e+00 2.132443e+00 2.424308e+00 4.700660e+00 4.725449e+00 6.036669e+00 3.517866e+00 2.696858e+00 3.373197e+00 3.708784e+00 3.768558e+00 2.563403e+00 6.260051e-01
<GCONST> 1.031004e+02
<STATE> 3
<MEAN> 25
 -1.045683e+01 -4.496249e+00 3.963567e+00 -6.979789e+00 3.941848e+00 -2.682699e+00 -2.633921e-01 -4.052615e-01 2.627141e+00 -2.782892e+00 3.665175e+00 3.780789e-01 1.484892e+00 8.150660e-01 -1.490917e+00 1.507995e+00 2.736270e-03 1.667106e+00 -1.002314e+00 7.892260e-01 -9.703661e-01 5.208799e-01 -4.987749e-01 6.703551e-01 -1.330079e+00
<VARIANCE> 25
 3.225991e+01 1.825973e+01 3.122229e+01 3.560305e+01 3.352268e+01 7.993734e+01 4.396806e+01 4.425126e+01 2.821735e+01 3.134194e+01 3.478681e+01 3.093534e+01 2.895547e+00 1.034858e+00 1.654533e+00 2.061049e+00 3.564419e+00 5.531921e+00 5.075160e+00 3.494998e+00 3.313938e+00 3.514704e+00 3.699283e+00 1.919041e+00 8.634765e-01
<GCONST> 1.010215e+02
<STATE> 4
<MEAN> 25
 -1.694737e+01 9.849067e-01 1.678395e+00 -1.121846e+01 1.271208e+01 -5.917302e+00 4.018568e+00 1.042766e+00 8.120956e+00 -5.530291e+00 5.031550e+00 -1.162829e+00 7.910844e-01 -3.934104e-01 1.991318e-01 6.058382e-01 -8.404713e-01 -5.652783e-01 -5.126634e-01 -6.078683e-01 -2.161271e-01 5.814488e-01 -3.963221e-01 7.348375e-02 2.303621e-01
<VARIANCE> 25
 4.003193e+01 2.242801e+01 3.464664e+01 3.793208e+01 4.220623e+01 5.556241e+01 4.583343e+01 3.689114e+01 4.117638e+01 3.666201e+01 1.637098e+01 3.381605e+01 3.829647e+00 1.791345e+00 1.991938e+00 3.388978e+00 4.951268e+00 5.821815e+00 3.049984e+00 2.728421e+00 2.123345e+00 2.035986e+00 1.979272e+00 1.716506e+00 4.599516e-01
<GCONST> 9.998288e+01
<TRANSP> 5
 0.000000e+00 1.000000e+00 0.000000e+00 0.000000e+00 0.000000e+00
 0.000000e+00 8.767210e-01 1.232790e-01 0.000000e+00 0.000000e+00
 0.000000e+00 0.000000e+00 7.364057e-01 2.635943e-01 0.000000e+00
 0.000000e+00 0.000000e+00 0.000000e+00 8.063270e-01 1.936729e-01
 0.000000e+00 0.000000e+00 0.000000e+00 0.000000e+00 0.000000e+00
<ENDHMM>
~h "UH"
<BEGINHMM>
