~o
<STREAMINFO> 1 25
<VECSIZE> 25<NULLD><MFCC_D_N_Z_0><DIAGC>
~h "proto"
<BEGINHMM>
<NUMSTATES> 5
<STATE> 2
<MEAN> 25
 3.775417e-09 1.618108e-08 -5.474229e-08 1.997155e-08 -1.478036e-08 2.960087e-08 -2.363652e-08 -2.620702e-08 1.857585e-09 5.102837e-08 -2.686972e-08 2.617689e-08 2.554969e-04 8.921730e-03 3.013610e-03 3.339416e-03 1.415289e-03 4.494441e-03 2.656440e-03 8.701694e-04 4.164455e-05 -2.680720e-03 2.008863e-03 1.527266e-03 -7.768044e-03
<VARIANCE> 25
 8.010428e+01 6.447190e+01 6.129801e+01 5.563667e+01 5.693787e+01 6.793896e+01 5.777367e+01 5.870519e+01 5.077291e+01 3.508834e+01 2.994463e+01 2.808895e+01 2.442041e+00 3.123486e+00 2.541938e+00 2.520905e+00 2.808165e+00 3.591736e+00 2.892799e+00 2.826015e+00 2.750362e+00 2.197500e+00 2.086234e+00 1.746541e+00 1.743600e+00
<GCONST> 1.051903e+02
<STATE> 3
<MEAN> 25
 3.775417e-09 1.618108e-08 -5.474229e-08 1.997155e-08 -1.478036e-08 2.960087e-08 -2.363652e-08 -2.620702e-08 1.857585e-09 5.102837e-08 -2.686972e-08 2.617689e-08 2.554969e-04 8.921730e-03 3.013610e-03 3.339416e-03 1.415289e-03 4.494441e-03 2.656440e-03 8.701694e-04 4.164455e-05 -2.680720e-03 2.008863e-03 1.527266e-03 -7.768044e-03
<VARIANCE> 25
 8.010428e+01 6.447190e+01 6.129801e+01 5.563667e+01 5.693787e+01 6.793896e+01 5.777367e+01 5.870519e+01 5.077291e+01 3.508834e+01 2.994463e+01 2.808895e+01 2.442041e+00 3.123486e+00 2.541938e+00 2.520905e+00 2.808165e+00 3.591736e+00 2.892799e+00 2.826015e+00 2.750362e+00 2.197500e+00 2.086234e+00 1.746541e+00 1.743600e+00
<GCONST> 1.051903e+02
<STATE> 4
<MEAN> 25
 3.775417e-09 1.618108e-08 -5.474229e-08 1.997155e-08 -1.478036e-08 2.960087e-08 -2.363652e-08 -2.620702e-08 1.857585e-09 5.102837e-08 -2.686972e-08 2.617689e-08 2.554969e-04 8.921730e-03 3.013610e-03 3.339416e-03 1.415289e-03 4.494441e-03 2.656440e-03 8.701694e-04 4.164455e-05 -2.680720e-03 2.008863e-03 1.527266e-03 -7.768044e-03
<VARIANCE> 25
 8.010428e+01 6.447190e+01 6.129801e+01 5.563667e+01 5.693787e+01 6.793896e+01 5.777367e+01 5.870519e+01 5.077291e+01 3.508834e+01 2.994463e+01 2.808895e+01 2.442041e+00 3.123486e+00 2.541938e+00 2.520905e+00 2.808165e+00 3.591736e+00 2.892799e+00 2.826015e+00 2.750362e+00 2.197500e+00 2.086234e+00 1.746541e+00 1.743600e+00
<GCONST> 1.051903e+02
<TRANSP> 5
 0.000000e+00 1.000000e+00 0.000000e+00 0.000000e+00 0.000000e+00
 0.000000e+00 6.000000e-01 4.000000e-01 0.000000e+00 0.000000e+00
 0.000000e+00 0.000000e+00 6.000000e-01 4.000000e-01 0.000000e+00
 0.000000e+00 0.000000e+00 0.000000e+00 7.000000e-01 3.000000e-01
 0.000000e+00 0.000000e+00 0.000000e+00 0.000000e+00 0.000000e+00
<ENDHMM>
