~o
<STREAMINFO> 1 25
<VECSIZE> 25<NULLD><MFCC_D_N_Z_0><DIAGC>
~h "proto"
<BEGINHMM>
<NUMSTATES> 5
<STATE> 2
<MEAN> 25
 1.529128e-08 5.544642e-08 2.330987e-11 -5.687609e-08 1.479400e-08 -2.641786e-08 -3.335902e-09 -1.095046e-08 2.749529e-08 -3.149941e-08 -6.594104e-09 5.441302e-08 1.712215e-04 6.711529e-03 3.427661e-03 2.513912e-03 3.097806e-03 6.069756e-03 4.218176e-03 2.471606e-03 1.147338e-03 -1.523782e-03 5.701977e-04 1.795387e-03 -5.400581e-03
<VARIANCE> 25
 8.087173e+01 6.463957e+01 6.007124e+01 5.547837e+01 5.850123e+01 6.752036e+01 5.726600e+01 5.889860e+01 4.996981e+01 3.366230e+01 3.008183e+01 2.617767e+01 2.550437e+00 3.081058e+00 2.507473e+00 2.488897e+00 2.957244e+00 3.561994e+00 2.928281e+00 2.843969e+00 2.766104e+00 2.155349e+00 2.071286e+00 1.693867e+00 1.717840e+00
<GCONST> 1.050703e+02
<STATE> 3
<MEAN> 25
 1.529128e-08 5.544642e-08 2.330987e-11 -5.687609e-08 1.479400e-08 -2.641786e-08 -3.335902e-09 -1.095046e-08 2.749529e-08 -3.149941e-08 -6.594104e-09 5.441302e-08 1.712215e-04 6.711529e-03 3.427661e-03 2.513912e-03 3.097806e-03 6.069756e-03 4.218176e-03 2.471606e-03 1.147338e-03 -1.523782e-03 5.701977e-04 1.795387e-03 -5.400581e-03
<VARIANCE> 25
 8.087173e+01 6.463957e+01 6.007124e+01 5.547837e+01 5.850123e+01 6.752036e+01 5.726600e+01 5.889860e+01 4.996981e+01 3.366230e+01 3.008183e+01 2.617767e+01 2.550437e+00 3.081058e+00 2.507473e+00 2.488897e+00 2.957244e+00 3.561994e+00 2.928281e+00 2.843969e+00 2.766104e+00 2.155349e+00 2.071286e+00 1.693867e+00 1.717840e+00
<GCONST> 1.050703e+02
<STATE> 4
<MEAN> 25
 1.529128e-08 5.544642e-08 2.330987e-11 -5.687609e-08 1.479400e-08 -2.641786e-08 -3.335902e-09 -1.095046e-08 2.749529e-08 -3.149941e-08 -6.594104e-09 5.441302e-08 1.712215e-04 6.711529e-03 3.427661e-03 2.513912e-03 3.097806e-03 6.069756e-03 4.218176e-03 2.471606e-03 1.147338e-03 -1.523782e-03 5.701977e-04 1.795387e-03 -5.400581e-03
<VARIANCE> 25
 8.087173e+01 6.463957e+01 6.007124e+01 5.547837e+01 5.850123e+01 6.752036e+01 5.726600e+01 5.889860e+01 4.996981e+01 3.366230e+01 3.008183e+01 2.617767e+01 2.550437e+00 3.081058e+00 2.507473e+00 2.488897e+00 2.957244e+00 3.561994e+00 2.928281e+00 2.843969e+00 2.766104e+00 2.155349e+00 2.071286e+00 1.693867e+00 1.717840e+00
<GCONST> 1.050703e+02
<TRANSP> 5
 0.000000e+00 1.000000e+00 0.000000e+00 0.000000e+00 0.000000e+00
 0.000000e+00 6.000000e-01 4.000000e-01 0.000000e+00 0.000000e+00
 0.000000e+00 0.000000e+00 6.000000e-01 4.000000e-01 0.000000e+00
 0.000000e+00 0.000000e+00 0.000000e+00 7.000000e-01 3.000000e-01
 0.000000e+00 0.000000e+00 0.000000e+00 0.000000e+00 0.000000e+00
<ENDHMM>
