~o
<STREAMINFO> 1 25
<VECSIZE> 25<NULLD><MFCC_D_N_Z_0><DIAGC>
~s "silst"
<MEAN> 25
 -1.066544e+01 1.866657e+00 9.581178e-01 -2.299903e+00 2.425315e+00 3.098228e+00 2.416679e+00 5.275139e+00 6.693724e+00 4.678312e+00 1.968482e+00 1.814379e+00 -2.482852e-02 -6.006115e-03 -4.573292e-03 -2.468928e-02 -9.075416e-03 -1.210825e-02 -1.113733e-02 3.516437e-03 3.129656e-02 2.948813e-02 1.326944e-02 1.204728e-02 -1.723068e-02
<VARIANCE> 25
 2.186623e+00 6.510881e+00 3.923202e+00 6.771123e+00 6.344244e+00 5.548536e+00 6.255926e+00 7.043597e+00 8.526814e+00 7.922248e+00 6.787251e+00 6.730714e+00 7.922395e-02 2.013827e-01 2.759576e-01 3.815717e-01 5.085402e-01 5.248325e-01 5.875255e-01 5.904660e-01 7.842370e-01 7.017643e-01 6.599188e-01 6.878249e-01 3.177100e-02
<GCONST> 5.365887e+01
~h "B"
<BEGINHMM>
<NUMSTATES> 5
<STATE> 2
<MEAN> 25
 -4.604267e+00 2.909830e+00 -5.076120e-01 2.136719e+00 2.003098e+00 4.993913e+00 1.845274e+00 4.129577e+00 1.344634e+00 8.066893e-02 9.880103e-01 1.969943e+00 -1.810908e-01 -6.973062e-02 -1.364584e-01 -4.867394e-02 -1.270691e-02 4.462576e-02 3.506540e-02 2.436921e-01 1.630982e-01 3.260077e-02 4.161105e-02 4.835129e-02 -2.039346e-01
<VARIANCE> 25
 2.477160e+01 1.744266e+01 1.489465e+01 2.676810e+01 1.525326e+01 1.486768e+01 1.056099e+01 1.519277e+01 1.882874e+01 1.769373e+01 9.206890e+00 9.617370e+00 6.526746e-01 9.090159e-01 9.562250e-01 9.777611e-01 9.028646e-01 1.059609e+00 9.960332e-01 1.214450e+00 1.337582e+00 9.996108e-01 8.370695e-01 7.385560e-01 4.099385e-01
<GCONST> 7.727238e+01
<STATE> 3
<MEAN> 25
 -1.364974e+00 7.334263e-01 -2.240441e+00 8.529264e-01 8.862537e-01 2.107339e+00 7.247131e-01 2.374848e+00 2.086878e-01 -1.983095e+00 5.170348e-01 1.437388e+00 1.341920e+00 -9.425333e-01 6.628751e-01 -9.615617e-01 -1.433587e+00 -2.728269e+00 -7.255813e-01 -1.721063e+00 -2.636530e-01 1.326840e-01 -2.400248e-01 8.889154e-02 2.597020e+00
<VARIANCE> 25
 2.580560e+01 2.923675e+01 1.479737e+01 2.328021e+01 2.147009e+01 3.502482e+01 2.050640e+01 3.550968e+01 1.202457e+01 1.671806e+01 9.864160e+00 1.083515e+01 5.055541e+00 4.648391e+00 5.040142e+00 3.125589e+00 3.754243e+00 5.556385e+00 3.213401e+00 4.247250e+00 2.688127e+00 2.542704e+00 2.793045e+00 2.401003e+00 3.135577e+00
<GCONST> 9.813682e+01
<STATE> 4
<MEAN> 25
 5.680382e+00 9.024162e-01 1.888198e+00 -2.869305e+00 -6.770381e+00 -7.803572e+00 2.925483e+00 3.619409e-01 5.898204e-01 -5.377914e-01 -5.864249e+00 -7.337875e-01 7.116963e-01 -2.558260e-02 6.307014e-02 -7.353191e-03 -2.217475e-01 -3.061611e-01 -1.698940e-02 -3.197747e-01 -1.220991e-01 2.614728e-01 -2.233974e-01 -1.346563e-01 6.506735e-01
<VARIANCE> 25
 5.863947e+01 6.134430e+01 3.768307e+01 3.912685e+01 1.014108e+02 9.266962e+01 4.294567e+01 4.932801e+01 2.518454e+01 2.966248e+01 4.399070e+01 6.856848e+01 4.445144e+00 3.043854e+00 3.472208e+00 3.636215e+00 8.701585e+00 9.729031e+00 3.512478e+00 5.161573e+00 2.828515e+00 2.324337e+00 4.095640e+00 3.522462e+00 3.738461e+00
<GCONST> 1.112132e+02
<TRANSP> 5
 0.000000e+00 1.000000e+00 0.000000e+00 0.000000e+00 0.000000e+00
 0.000000e+00 9.363919e-01 6.360809e-02 0.000000e+00 0.000000e+00
 0.000000e+00 0.000000e+00 5.087602e-01 4.912398e-01 0.000000e+00
 0.000000e+00 0.000000e+00 0.000000e+00 8.130656e-01 1.869343e-01
 0.000000e+00 0.000000e+00 0.000000e+00 0.000000e+00 0.000000e+00
<ENDHMM>
~h "D"
<BEGINHMM>
<NUMSTATES> 5
<STATE> 2
<MEAN> 25
 3.568871e+00 4.015648e+00 2.553819e-01 3.478681e+00 3.983749e+00 2.714481e+00 -2.153600e-01 -1.110253e+00 -1.292543e+00 -1.377909e+00 -3.392134e-02 7.886307e-01 -8.495284e-01 -1.736010e-01 -1.931937e-01 3.672499e-01 3.397191e-01 -6.369682e-02 -7.101969e-02 6.705694e-01 5.742719e-01 -4.295569e-01 3.840680e-02 7.304989e-01 -7.359147e-01
<VARIANCE> 25
 4.111910e+01 3.409273e+01 2.644157e+01 2.931042e+01 2.980947e+01 5.523933e+01 4.582299e+01 5.519302e+01 3.494328e+01 1.799734e+01 1.937749e+01 1.564299e+01 1.896014e+00 4.630274e+00 2.495096e+00 2.101770e+00 3.556223e+00 6.055400e+00 2.585556e+00 3.513785e+00 3.391800e+00 1.899577e+00 1.848461e+00 2.070538e+00 2.496965e+00
<GCONST> 1.004716e+02
<STATE> 3
<MEAN> 25
 6.794024e-01 6.718249e-01 3.243431e-01 2.548417e+00 2.590873e+00 2.454690e+00 -3.734101e-01 1.171772e-01 1.067349e-02 -1.445970e+00 1.403857e-01 1.806707e+00 -2.185421e-01 -1.743800e+00 -3.802592e-01 4.885279e-01 -5.698549e-01 -2.136628e+00 -8.015974e-01 6.924841e-01 4.417846e-01 -3.998029e-01 -2.143399e-02 5.544170e-01 5.776491e-01
<VARIANCE> 25
 4.086999e+01 4.989364e+01 3.743143e+01 3.733105e+01 4.463838e+01 6.028329e+01 4.222131e+01 3.444596e+01 2.308253e+01 2.155864e+01 2.225860e+01 1.530202e+01 2.143738e+00 6.764954e+00 3.370766e+00 2.999079e+00 4.310128e+00 1.508882e+01 4.819560e+00 4.388881e+00 4.435643e+00 2.906258e+00 2.907077e+00 2.257457e+00 3.933187e+00
<GCONST> 1.060519e+02
<STATE> 4
<MEAN> 25
 2.119417e+00 -3.842791e+00 -1.803364e+00 5.840847e+00 5.260694e-02 -5.241814e+00 -3.670240e+00 1.394157e+00 -1.241648e+00 -3.944736e+00 7.537955e-02 2.830388e+00 2.185344e-01 -2.380398e-01 -1.779529e-01 -1.472684e-01 -4.549602e-01 1.204491e-01 -1.900006e-01 -4.562080e-01 -6.641458e-01 -2.305463e-03 1.481392e-01 -2.747917e-01 1.361963e-01
<VARIANCE> 25
 5.627684e+01 4.272664e+01 4.191818e+01 4.101124e+01 3.413448e+01 1.078123e+02 7.504771e+01 5.524440e+01 3.943465e+01 2.922735e+01 3.265994e+01 2.502853e+01 2.266573e+00 3.418033e+00 2.768576e+00 3.245881e+00 1.990106e+00 9.380781e+00 4.960733e+00 5.100154e+00 4.001633e+00 3.132568e+00 2.432434e+00 2.306140e+00 2.214883e+00
<GCONST> 1.069271e+02
<TRANSP> 5
 0.000000e+00 1.000000e+00 0.000000e+00 0.000000e+00 0.000000e+00
 0.000000e+00 4.064766e-01 5.935234e-01 0.000000e+00 0.000000e+00
 0.000000e+00 0.000000e+00 3.115860e-01 6.884141e-01 0.000000e+00
 0.000000e+00 0.000000e+00 0.000000e+00 7.216927e-01 2.783073e-01
 0.000000e+00 0.000000e+00 0.000000e+00 0.000000e+00 0.000000e+00
<ENDHMM>
~h "F"
<BEGINHMM>
<NUMSTATES> 5
<STATE> 2
<MEAN> 25
 -2.603580e+00 -2.739776e-01 -1.386398e+00 -1.091839e+00 4.173729e+00 3.052670e+00 1.308090e+00 3.590717e+00 1.230245e+00 1.396052e+00 4.183866e-01 -9.131157e-01 -1.891402e+00 -9.659601e-01 9.973267e-02 -9.302981e-01 6.160715e-01 -3.986909e-01 6.078575e-01 6.207675e-01 7.896214e-01 6.832121e-02 1.023371e+00 5.572231e-01 2.374205e-01
<VARIANCE> 25
 4.214950e+01 2.653008e+01 5.516674e+01 5.977060e+01 6.816798e+01 5.582913e+01 3.656557e+01 5.531847e+01 2.914201e+01 2.560549e+01 2.311469e+01 1.906031e+01 5.220150e+00 3.010103e+00 2.027888e+00 6.361557e+00 9.916272e+00 8.082515e+00 4.520020e+00 3.739587e+00 5.082633e+00 2.292773e+00 3.108238e+00 3.030445e+00 2.245427e+00
<GCONST> 1.076572e+02
<STATE> 3
<MEAN> 25
 -7.669041e+00 -3.280275e+00 -1.560469e+00 -1.461769e+00 1.153279e+00 3.352539e+00 2.150854e+00 3.365041e+00 4.541682e+00 1.079908e+00 1.696842e+00 1.282859e+00 -7.292140e-02 -7.068527e-02 -1.405904e-01 -1.514222e-01 4.778136e-02 -1.524743e-01 2.937137e-02 -9.269976e-02 -1.278214e-01 -9.487268e-02 -1.931729e-02 4.697261e-02 -3.706193e-02
<VARIANCE> 25
 1.761655e+01 2.838849e+01 2.467881e+01 1.495279e+01 2.424394e+01 1.904661e+01 1.228256e+01 2.046832e+01 1.897134e+01 1.616940e+01 1.256965e+01 1.121477e+01 1.333117e+00 1.687125e+00 9.431649e-01 1.169678e+00 1.604726e+00 1.388502e+00 1.384832e+00 1.282948e+00 1.376998e+00 1.129325e+00 1.156356e+00 1.097345e+00 3.159526e-01
<GCONST> 8.222148e+01
<STATE> 4
<MEAN> 25
 -1.433803e+01 -3.287404e+00 4.043172e+00 -9.546088e+00 1.092943e+01 -1.101049e+01 9.513008e+00 -7.176040e-01 6.581022e+00 -3.763921e+00 2.737816e+00 8.384026e-01 8.394135e-01 3.381315e-01 9.240419e-02 -7.184315e-05 -4.970297e-01 -7.727832e-03 -4.788300e-01 -3.543972e-01 -1.840836e-01 -5.226117e-02 -2.961614e-02 -2.237517e-01 3.074951e-01
<VARIANCE> 25
 7.167290e+01 4.436594e+01 7.809286e+01 4.193851e+01 8.634229e+01 6.697795e+01 6.235654e+01 3.905289e+01 5.694839e+01 3.017185e+01 3.628263e+01 2.553586e+01 9.621196e+00 4.779028e+00 1.730417e+00 3.104267e+00 5.271867e+00 4.865644e+00 3.940999e+00 3.405386e+00 7.523640e+00 4.265814e+00 3.410637e+00 2.735004e+00 1.307595e+00
<GCONST> 1.101672e+02
<TRANSP> 5
 0.000000e+00 1.000000e+00 0.000000e+00 0.000000e+00 0.000000e+00
 0.000000e+00 7.132728e-01 2.867273e-01 0.000000e+00 0.000000e+00
 0.000000e+00 0.000000e+00 9.065908e-01 9.340926e-02 0.000000e+00
 0.000000e+00 0.000000e+00 0.000000e+00 8.336352e-01 1.663648e-01
 0.000000e+00 0.000000e+00 0.000000e+00 0.000000e+00 0.000000e+00
<ENDHMM>
~h "G"
<BEGINHMM>
<NUMSTATES> 5
<STATE> 2
<MEAN> 25
 7.924166e-01 5.557485e-01 -2.495217e+00 -7.155384e+00 -5.344543e+00 5.192527e-01 3.850302e+00 1.015175e+00 -1.426525e-01 2.186648e-01 5.358337e-01 -1.925746e+00 1.480904e+00 -9.160600e-01 -1.465539e+00 -9.378267e-01 -1.926546e+00 -2.123346e-01 1.495415e+00 -4.852193e-01 -8.365450e-01 2.539949e-01 -3.571503e-02 -4.311299e-01 1.163708e+00
<VARIANCE> 25
 6.990323e+01 3.733458e+01 2.840186e+01 2.775558e+01 5.565963e+01 3.604444e+01 3.295460e+01 2.872600e+01 3.347548e+01 3.650862e+01 1.639806e+01 2.099512e+01 3.408206e+00 2.392499e+00 4.751823e+00 3.873250e+00 4.963011e+00 4.024195e+00 3.140317e+00 4.006822e+00 3.078204e+00 2.827674e+00 2.404245e+00 1.679090e+00 2.519087e+00
<GCONST> 1.029116e+02
<STATE> 3
<MEAN> 25
 8.533863e+00 1.112179e+00 -3.632698e+00 -8.672637e+00 -8.679970e+00 -1.150827e+00 5.188973e+00 -6.480923e-01 -5.577146e+00 -5.907875e-01 -1.757085e+00 -4.576251e+00 2.230240e-01 8.134633e-01 5.829534e-01 5.304878e-01 9.463587e-01 1.379134e-01 -1.353276e-01 -3.633325e-01 -9.975235e-01 -4.042738e-01 1.173836e-01 -3.510618e-02 3.005299e-02
<VARIANCE> 25
 5.035365e+01 3.884919e+01 2.365482e+01 3.836051e+01 3.664704e+01 4.693790e+01 2.445585e+01 8.198336e+01 9.879263e+01 6.040467e+01 2.467280e+01 3.913979e+01 1.266444e+00 2.494907e+00 1.569524e+00 1.355037e+00 2.267829e+00 3.548067e+00 3.762708e+00 3.285234e+00 3.211956e+00 1.528652e+00 8.527762e-01 7.361981e-01 7.757921e-01
<GCONST> 9.833351e+01
<STATE> 4
<MEAN> 25
 5.780867e+00 5.475224e+00 -1.782666e+00 -4.280405e+00 -2.654461e+00 3.022545e-01 3.588207e+00 -1.978367e+00 -5.357358e+00 -1.108611e+00 -3.182178e-01 -3.503583e+00 -9.861216e-01 7.018654e-01 3.535622e-01 8.486422e-01 1.354072e+00 8.737257e-01 -2.203931e-01 7.468154e-01 8.284370e-01 -6.537846e-01 1.393925e-01 6.072921e-01 -1.105860e+00
<VARIANCE> 25
 6.229174e+01 3.027990e+01 2.026732e+01 3.618780e+01 4.618761e+01 3.342871e+01 3.794927e+01 7.501453e+01 6.154105e+01 6.346930e+01 2.192830e+01 3.409111e+01 1.650104e+00 2.269597e+00 1.439569e+00 1.173028e+00 1.576789e+00 1.647357e+00 1.512008e+00 3.435191e+00 4.530509e+00 3.063236e+00 1.289789e+00 2.829152e+00 1.513906e+00
<GCONST> 9.905601e+01
<TRANSP> 5
 0.000000e+00 1.000000e+00 0.000000e+00 0.000000e+00 0.000000e+00
 0.000000e+00 6.474541e-01 3.525459e-01 0.000000e+00 0.000000e+00
 0.000000e+00 0.000000e+00 5.702245e-01 4.297754e-01 0.000000e+00
 0.000000e+00 0.000000e+00 0.000000e+00 6.070777e-01 3.929224e-01
 0.000000e+00 0.000000e+00 0.000000e+00 0.000000e+00 0.000000e+00
<ENDHMM>
~h "H"
<BEGINHMM>
<NUMSTATES> 5
<STATE> 2
<MEAN> 25
 1.075846e-07 -7.216663e-09 -4.605741e-08 -4.951859e-08 -6.799529e-08 -1.392151e-08 -3.897510e-08 2.646110e-08 4.631972e-08 7.958802e-09 -2.974954e-08 2.518155e-08 -4.860638e-04 8.153617e-03 4.905981e-03 4.193924e-03 1.800585e-03 6.714790e-03 3.175257e-03 4.129817e-03 -1.605180e-03 -3.525185e-03 3.068766e-04 1.045863e-03 -9.411350e-03
<VARIANCE> 25
 8.362540e+01 6.506919e+01 6.022692e+01 5.937751e+01 5.605918e+01 6.612122e+01 5.843021e+01 6.047647e+01 5.068079e+01 3.617085e+01 3.064270e+01 2.652356e+01 2.619987e+00 3.038342e+00 2.477234e+00 2.576151e+00 2.849354e+00 3.578285e+00 2.923781e+00 2.949938e+00 2.840692e+00 2.177858e+00 2.038671e+00 1.752875e+00 1.698887e+00
<GCONST> 1.053634e+02
<STATE> 3
<MEAN> 25
 1.075846e-07 -7.216663e-09 -4.605741e-08 -4.951859e-08 -6.799529e-08 -1.392151e-08 -3.897510e-08 2.646110e-08 4.631972e-08 7.958802e-09 -2.974954e-08 2.518155e-08 -4.860638e-04 8.153617e-03 4.905981e-03 4.193924e-03 1.800585e-03 6.714790e-03 3.175257e-03 4.129817e-03 -1.605180e-03 -3.525185e-03 3.068766e-04 1.045863e-03 -9.411350e-03
<VARIANCE> 25
 8.362540e+01 6.506919e+01 6.022692e+01 5.937751e+01 5.605918e+01 6.612122e+01 5.843021e+01 6.047647e+01 5.068079e+01 3.617085e+01 3.064270e+01 2.652356e+01 2.619987e+00 3.038342e+00 2.477234e+00 2.576151e+00 2.849354e+00 3.578285e+00 2.923781e+00 2.949938e+00 2.840692e+00 2.177858e+00 2.038671e+00 1.752875e+00 1.698887e+00
<GCONST> 1.053634e+02
<STATE> 4
<MEAN> 25
 1.075846e-07 -7.216663e-09 -4.605741e-08 -4.951859e-08 -6.799529e-08 -1.392151e-08 -3.897510e-08 2.646110e-08 4.631972e-08 7.958802e-09 -2.974954e-08 2.518155e-08 -4.860638e-04 8.153617e-03 4.905981e-03 4.193924e-03 1.800585e-03 6.714790e-03 3.175257e-03 4.129817e-03 -1.605180e-03 -3.525185e-03 3.068766e-04 1.045863e-03 -9.411350e-03
<VARIANCE> 25
 8.362540e+01 6.506919e+01 6.022692e+01 5.937751e+01 5.605918e+01 6.612122e+01 5.843021e+01 6.047647e+01 5.068079e+01 3.617085e+01 3.064270e+01 2.652356e+01 2.619987e+00 3.038342e+00 2.477234e+00 2.576151e+00 2.849354e+00 3.578285e+00 2.923781e+00 2.949938e+00 2.840692e+00 2.177858e+00 2.038671e+00 1.752875e+00 1.698887e+00
<GCONST> 1.053634e+02
<TRANSP> 5
 0.000000e+00 1.000000e+00 0.000000e+00 0.000000e+00 0.000000e+00
 0.000000e+00 6.000000e-01 4.000000e-01 0.000000e+00 0.000000e+00
 0.000000e+00 0.000000e+00 6.000000e-01 4.000000e-01 0.000000e+00
 0.000000e+00 0.000000e+00 0.000000e+00 7.000000e-01 3.000000e-01
 0.000000e+00 0.000000e+00 0.000000e+00 0.000000e+00 0.000000e+00
<ENDHMM>
~h "I"
<BEGINHMM>
<NUMSTATES> 5
<STATE> 2
<MEAN> 25
 1.075846e-07 -7.216663e-09 -4.605741e-08 -4.951859e-08 -6.799529e-08 -1.392151e-08 -3.897510e-08 2.646110e-08 4.631972e-08 7.958802e-09 -2.974954e-08 2.518155e-08 -4.860638e-04 8.153617e-03 4.905981e-03 4.193924e-03 1.800585e-03 6.714790e-03 3.175257e-03 4.129817e-03 -1.605180e-03 -3.525185e-03 3.068766e-04 1.045863e-03 -9.411350e-03
<VARIANCE> 25
 8.362540e+01 6.506919e+01 6.022692e+01 5.937751e+01 5.605918e+01 6.612122e+01 5.843021e+01 6.047647e+01 5.068079e+01 3.617085e+01 3.064270e+01 2.652356e+01 2.619987e+00 3.038342e+00 2.477234e+00 2.576151e+00 2.849354e+00 3.578285e+00 2.923781e+00 2.949938e+00 2.840692e+00 2.177858e+00 2.038671e+00 1.752875e+00 1.698887e+00
<GCONST> 1.053634e+02
<STATE> 3
<MEAN> 25
 1.075846e-07 -7.216663e-09 -4.605741e-08 -4.951859e-08 -6.799529e-08 -1.392151e-08 -3.897510e-08 2.646110e-08 4.631972e-08 7.958802e-09 -2.974954e-08 2.518155e-08 -4.860638e-04 8.153617e-03 4.905981e-03 4.193924e-03 1.800585e-03 6.714790e-03 3.175257e-03 4.129817e-03 -1.605180e-03 -3.525185e-03 3.068766e-04 1.045863e-03 -9.411350e-03
<VARIANCE> 25
 8.362540e+01 6.506919e+01 6.022692e+01 5.937751e+01 5.605918e+01 6.612122e+01 5.843021e+01 6.047647e+01 5.068079e+01 3.617085e+01 3.064270e+01 2.652356e+01 2.619987e+00 3.038342e+00 2.477234e+00 2.576151e+00 2.849354e+00 3.578285e+00 2.923781e+00 2.949938e+00 2.840692e+00 2.177858e+00 2.038671e+00 1.752875e+00 1.698887e+00
<GCONST> 1.053634e+02
<STATE> 4
<MEAN> 25
 1.075846e-07 -7.216663e-09 -4.605741e-08 -4.951859e-08 -6.799529e-08 -1.392151e-08 -3.897510e-08 2.646110e-08 4.631972e-08 7.958802e-09 -2.974954e-08 2.518155e-08 -4.860638e-04 8.153617e-03 4.905981e-03 4.193924e-03 1.800585e-03 6.714790e-03 3.175257e-03 4.129817e-03 -1.605180e-03 -3.525185e-03 3.068766e-04 1.045863e-03 -9.411350e-03
<VARIANCE> 25
 8.362540e+01 6.506919e+01 6.022692e+01 5.937751e+01 5.605918e+01 6.612122e+01 5.843021e+01 6.047647e+01 5.068079e+01 3.617085e+01 3.064270e+01 2.652356e+01 2.619987e+00 3.038342e+00 2.477234e+00 2.576151e+00 2.849354e+00 3.578285e+00 2.923781e+00 2.949938e+00 2.840692e+00 2.177858e+00 2.038671e+00 1.752875e+00 1.698887e+00
<GCONST> 1.053634e+02
<TRANSP> 5
 0.000000e+00 1.000000e+00 0.000000e+00 0.000000e+00 0.000000e+00
 0.000000e+00 6.000000e-01 4.000000e-01 0.000000e+00 0.000000e+00
 0.000000e+00 0.000000e+00 6.000000e-01 4.000000e-01 0.000000e+00
 0.000000e+00 0.000000e+00 0.000000e+00 7.000000e-01 3.000000e-01
 0.000000e+00 0.000000e+00 0.000000e+00 0.000000e+00 0.000000e+00
<ENDHMM>
~h "K"
<BEGINHMM>
<NUMSTATES> 5
<STATE> 2
<MEAN> 25
 2.361273e+00 -2.443037e+00 -2.600997e+00 3.818331e+00 3.987566e+00 1.097780e+00 -2.616602e+00 -5.804737e+00 -2.186936e+00 2.027775e+00 1.475769e+00 -1.619594e+00 -6.774060e-01 7.546613e-01 -1.198541e-01 -4.952766e-01 1.224853e-01 6.457404e-01 3.453278e-01 6.963660e-01 2.451978e-01 -1.889740e-01 4.343811e-01 3.439448e-01 -9.987904e-01
<VARIANCE> 25
 3.317454e+01 6.542352e+01 4.939958e+01 6.147635e+01 3.556475e+01 4.389613e+01 4.614170e+01 4.808116e+01 5.227515e+01 3.254383e+01 3.706798e+01 3.038546e+01 2.903413e+00 7.854649e+00 2.855906e+00 3.711654e+00 3.612751e+00 4.128688e+00 3.377503e+00 4.604870e+00 4.267424e+00 1.955218e+00 2.033220e+00 2.262112e+00 4.062011e+00
<GCONST> 1.071554e+02
<STATE> 3
<MEAN> 25
 -5.691282e+00 2.349782e+00 -3.118626e+00 2.747098e-01 1.176915e+00 5.565652e+00 9.756478e-01 5.086717e+00 2.908347e+00 7.090223e-01 8.148174e-01 2.273806e+00 -1.165683e-01 3.151014e-03 -4.455328e-03 1.853307e-02 -6.903572e-02 -3.075932e-02 -2.520567e-02 6.086578e-02 5.276147e-02 -4.549943e-02 -7.167670e-02 7.030837e-03 -1.308050e-01
<VARIANCE> 25
 1.839890e+01 1.759408e+01 2.613002e+01 1.955513e+01 1.117022e+01 1.816791e+01 1.400113e+01 1.871936e+01 1.621745e+01 1.726628e+01 1.509004e+01 9.257480e+00 4.063055e-01 6.232224e-01 9.301767e-01 9.349598e-01 1.038948e+00 1.535886e+00 1.194977e+00 1.347336e+00 1.243960e+00 1.158924e+00 1.062948e+00 1.049192e+00 7.967734e-01
<GCONST> 7.909711e+01
<STATE> 4
<MEAN> 25
 -3.225786e+00 -3.397814e+00 -2.751166e+00 -2.192760e-02 2.118526e+00 -2.418175e+00 -3.835489e-01 -4.295335e+00 -3.773385e-01 -1.832437e-01 1.737736e+00 -1.644465e+00 6.488343e-01 -6.216888e-01 -3.676492e-02 -4.586599e-01 -8.294512e-01 -9.503669e-01 3.232904e-01 -5.296558e-01 -4.125984e-01 -8.943757e-02 -1.482462e-01 1.201759e-02 1.205628e+00
<VARIANCE> 25
 5.613042e+01 4.174588e+01 3.837103e+01 6.338195e+01 5.480547e+01 1.297473e+02 4.712186e+01 7.316298e+01 4.407130e+01 3.883584e+01 3.953344e+01 4.610865e+01 4.980849e+00 4.982318e+00 6.110407e+00 8.927938e+00 6.134868e+00 1.535443e+01 6.023382e+00 6.762859e+00 4.840703e+00 4.824414e+00 4.633241e+00 4.405613e+00 5.301512e+00
<GCONST> 1.167688e+02
<TRANSP> 5
 0.000000e+00 1.000000e+00 0.000000e+00 0.000000e+00 0.000000e+00
 0.000000e+00 7.956541e-01 2.043459e-01 0.000000e+00 0.000000e+00
 0.000000e+00 0.000000e+00 9.454031e-01 5.459687e-02 0.000000e+00
 0.000000e+00 0.000000e+00 0.000000e+00 7.040554e-01 2.959446e-01
 0.000000e+00 0.000000e+00 0.000000e+00 0.000000e+00 0.000000e+00
<ENDHMM>
~h "L"
<BEGINHMM>
<NUMSTATES> 5
<STATE> 2
<MEAN> 25
 7.529753e+00 3.496835e+00 4.673910e+00 -6.782916e-01 -9.538626e+00 -7.194919e+00 -4.851338e-01 8.172758e-02 1.743934e+00 1.263037e+00 -5.312857e+00 -3.631222e+00 4.441006e-01 5.276917e-01 1.640633e-01 1.415983e-01 -2.905961e-01 -4.419165e-01 -1.905194e-01 2.727552e-02 1.588598e-01 -1.087641e-01 -3.898743e-01 -3.186164e-01 7.621323e-02
<VARIANCE> 25
 2.448050e+01 4.173046e+01 4.138543e+01 6.170449e+01 9.083645e+01 6.847770e+01 5.184210e+01 8.176286e+01 4.265126e+01 3.840722e+01 3.993960e+01 3.871745e+01 1.914573e+00 3.091601e+00 2.403338e+00 3.286320e+00 5.147285e+00 4.123292e+00 4.068147e+00 4.243926e+00 3.385816e+00 2.995244e+00 3.544338e+00 2.797445e+00 1.438464e+00
<GCONST> 1.072767e+02
<STATE> 3
<MEAN> 25
 9.997927e+00 5.242349e+00 2.558209e+00 -2.600579e+00 -1.376069e+01 -9.508142e+00 1.514432e+00 2.122955e+00 1.760108e+00 -1.482847e+00 -5.179706e+00 -2.555442e+00 -3.420086e-01 1.503868e-01 1.068254e-01 3.137927e-01 5.522436e-01 4.613200e-01 -5.023642e-02 -1.865291e-01 -4.343035e-01 -2.026564e-01 5.247913e-01 3.806394e-01 -4.013604e-01
<VARIANCE> 25
 1.739671e+01 3.055358e+01 2.219748e+01 2.230329e+01 5.085176e+01 3.520213e+01 5.613014e+01 2.837263e+01 3.060927e+01 3.428071e+01 2.625179e+01 1.900261e+01 5.438442e-01 1.302374e+00 1.334724e+00 9.131683e-01 3.376073e+00 2.375114e+00 1.817402e+00 1.810193e+00 1.397946e+00 1.534479e+00 1.845709e+00 1.170398e+00 4.484501e-01
<GCONST> 9.031575e+01
<STATE> 4
<MEAN> 25
 -4.792216e+00 2.251667e+00 -1.452157e+00 -4.915661e-01 7.438298e-01 3.775155e+00 1.170682e+00 3.872362e+00 1.633897e+00 3.320312e-02 1.181652e+00 1.476866e+00 -1.952752e-01 -5.461802e-02 -4.778513e-02 8.176970e-02 1.966716e-01 2.159076e-01 2.827181e-02 3.000311e-02 -2.588322e-02 3.581733e-03 5.965616e-02 2.000982e-02 -1.868076e-01
<VARIANCE> 25
 4.027808e+01 2.245230e+01 2.215692e+01 2.357879e+01 1.992293e+01 2.250924e+01 1.916896e+01 2.224929e+01 3.517990e+01 1.879116e+01 1.186272e+01 9.383487e+00 5.935064e-01 7.448086e-01 5.917490e-01 8.654088e-01 1.229115e+00 1.375104e+00 1.124970e+00 1.050157e+00 1.302093e+00 8.982753e-01 8.978273e-01 7.630895e-01 4.899814e-01
<GCONST> 8.065135e+01
<TRANSP> 5
 0.000000e+00 1.000000e+00 0.000000e+00 0.000000e+00 0.000000e+00
 0.000000e+00 8.063987e-01 1.936013e-01 0.000000e+00 0.000000e+00
 0.000000e+00 0.000000e+00 7.815693e-01 2.184307e-01 0.000000e+00
 0.000000e+00 0.000000e+00 0.000000e+00 9.474512e-01 5.254883e-02
 0.000000e+00 0.000000e+00 0.000000e+00 0.000000e+00 0.000000e+00
<ENDHMM>
~h "M"
<BEGINHMM>
<NUMSTATES> 5
<STATE> 2
<MEAN> 25
 9.236643e-01 1.765129e+00 -2.933898e+00 1.022267e+00 1.050497e+00 3.245125e+00 7.376348e-01 7.739052e-01 -6.714948e-01 -2.784004e-01 8.236347e-01 -2.447288e-01 2.273652e-01 1.049278e+00 6.433751e-01 5.817533e-01 9.835538e-01 1.216889e+00 -4.515234e-01 -5.756415e-01 -2.276700e-01 1.248446e-02 -7.459394e-01 -2.293614e-01 -9.471991e-01
<VARIANCE> 25
 4.201709e+01 3.892077e+01 5.069026e+01 4.096788e+01 2.758281e+01 3.882098e+01 2.468535e+01 2.439216e+01 3.245187e+01 2.854066e+01 3.115954e+01 1.458666e+01 2.106696e+00 2.992710e+00 2.689323e+00 2.666479e+00 3.214099e+00 2.236836e+00 2.729322e+00 2.010243e+00 2.535708e+00 1.717689e+00 2.727593e+00 1.085905e+00 4.197830e+00
<GCONST> 9.879010e+01
<STATE> 3
<MEAN> 25
 7.246099e+00 9.031802e+00 1.741858e+00 4.294147e+00 5.444963e+00 4.388795e+00 -3.009127e+00 -5.024936e+00 -4.685128e+00 -3.896621e+00 -2.861029e+00 -1.423403e+00 -8.591482e-02 1.514025e-01 1.599771e-01 3.102269e-01 3.110290e-01 3.517593e-01 -5.845323e-02 -3.510004e-01 -2.112100e-02 1.232338e-01 -9.953186e-03 -1.990261e-01 -1.312248e-01
<VARIANCE> 25
 2.252200e+01 2.427123e+01 1.446385e+01 3.936653e+01 1.981811e+01 2.813523e+01 1.882350e+01 2.239674e+01 1.578725e+01 1.504774e+01 2.355464e+01 1.598447e+01 4.887540e-01 5.166810e-01 7.605290e-01 6.740848e-01 1.024796e+00 1.203683e+00 1.292987e+00 1.262620e+00 8.537487e-01 9.079867e-01 1.271115e+00 7.924985e-01 3.248368e-01
<GCONST> 7.964819e+01
<STATE> 4
<MEAN> 25
 -4.289969e+00 1.978287e+00 -2.896625e+00 2.371326e+00 7.815722e-01 5.767773e+00 2.088429e-01 3.664347e+00 7.583348e-01 6.943995e-01 6.258614e-01 1.303559e+00 -2.483967e-02 -3.434458e-02 -8.122391e-02 -7.825840e-02 -1.481401e-01 -9.959444e-02 -4.470926e-03 1.236936e-02 4.279298e-02 2.636686e-04 -1.073894e-02 -1.976214e-03 -1.444785e-02
<VARIANCE> 25
 3.561496e+01 2.223206e+01 2.895164e+01 1.296124e+01 1.506304e+01 1.520199e+01 1.265494e+01 3.638402e+01 2.106802e+01 1.645219e+01 1.452704e+01 1.293778e+01 4.555272e-01 6.524148e-01 7.079447e-01 7.439412e-01 9.536489e-01 1.014111e+00 1.167624e+00 1.313973e+00 1.201746e+00 9.334576e-01 8.170859e-01 9.425794e-01 3.091259e-01
<GCONST> 7.841883e+01
<TRANSP> 5
 0.000000e+00 1.000000e+00 0.000000e+00 0.000000e+00 0.000000e+00
 0.000000e+00 6.166364e-01 3.833635e-01 0.000000e+00 0.000000e+00
 0.000000e+00 0.000000e+00 6.649989e-01 3.350011e-01 0.000000e+00
 0.000000e+00 0.000000e+00 0.000000e+00 9.351652e-01 6.483485e-02
 0.000000e+00 0.000000e+00 0.000000e+00 0.000000e+00 0.000000e+00
<ENDHMM>
~h "N"
<BEGINHMM>
<NUMSTATES> 5
<STATE> 2
<MEAN> 25
 7.833804e+00 3.189586e+00 -3.274532e-01 1.237513e+00 2.628534e+00 1.769621e+00 -2.053413e+00 -2.437066e+00 -2.526065e+00 -3.559947e-01 -1.170971e+00 -1.486416e+00 -1.104268e-01 1.250097e+00 2.152890e-01 1.125309e+00 1.425616e+00 1.296587e+00 -2.589835e-01 -5.797620e-01 -2.586647e-01 7.781325e-02 -7.952368e-01 -4.711048e-01 -1.041538e+00
<VARIANCE> 25
 2.280804e+01 2.276181e+01 1.950985e+01 3.600452e+01 3.305177e+01 3.618435e+01 3.983216e+01 5.355855e+01 4.314164e+01 3.491369e+01 2.743700e+01 2.145259e+01 1.237400e+00 1.417923e+00 2.154700e+00 2.859449e+00 2.693321e+00 2.711845e+00 2.409481e+00 3.023489e+00 4.789757e+00 2.590913e+00 2.102088e+00 2.202157e+00 9.582651e-01
<GCONST> 9.756388e+01
<STATE> 3
<MEAN> 25
 5.043243e+00 7.500518e+00 1.150321e+00 5.204071e+00 4.572413e+00 4.708860e+00 -2.188559e+00 -3.251533e+00 -1.299441e+00 -4.724650e-01 -2.597639e+00 -9.616387e-01 -3.810280e-01 2.920196e-01 2.648369e-01 1.547116e-01 3.942337e-02 1.057505e-01 2.248283e-01 1.858744e-01 6.308457e-03 -1.744578e-01 9.785962e-02 7.878655e-02 -3.684313e-01
<VARIANCE> 25
 2.475680e+01 1.363343e+01 2.446812e+01 2.046277e+01 2.268150e+01 1.597147e+01 2.394614e+01 4.210406e+01 1.713858e+01 2.079131e+01 1.525849e+01 1.715109e+01 4.659480e-01 5.714592e-01 8.654161e-01 8.182978e-01 9.705546e-01 9.033663e-01 1.194265e+00 1.452118e+00 1.112500e+00 1.052305e+00 1.078459e+00 1.020554e+00 2.545334e-01
<GCONST> 7.987177e+01
<STATE> 4
<MEAN> 25
 4.610707e+00 5.855709e+00 2.032982e+00 6.510732e+00 3.837741e+00 2.641739e+00 -9.654717e-01 -3.973884e+00 -1.989131e+00 4.800938e-01 -2.366277e+00 -3.504588e+00 -6.438200e-01 -1.153150e+00 -4.666093e-01 -3.979042e-01 -6.829306e-01 -8.257555e-01 4.407066e-01 9.732948e-01 2.916313e-01 -3.338832e-02 6.285318e-01 6.130885e-01 1.815704e-01
<VARIANCE> 25
 3.054417e+01 2.090740e+01 2.499672e+01 3.930460e+01 2.453907e+01 3.694704e+01 2.892532e+01 5.248907e+01 2.022096e+01 3.568615e+01 2.183615e+01 3.344142e+01 1.257659e+00 2.226878e+00 1.834999e+00 2.615148e+00 2.280101e+00 4.170010e+00 2.922225e+00 2.075816e+00 2.226295e+00 2.857955e+00 1.704700e+00 2.235237e+00 1.092655e+00
<GCONST> 9.653604e+01
<TRANSP> 5
 0.000000e+00 1.000000e+00 0.000000e+00 0.000000e+00 0.000000e+00
 0.000000e+00 6.463646e-01 3.536354e-01 0.000000e+00 0.000000e+00
 0.000000e+00 0.000000e+00 8.119220e-01 1.880780e-01 0.000000e+00
 0.000000e+00 0.000000e+00 0.000000e+00 5.015807e-01 4.984193e-01
 0.000000e+00 0.000000e+00 0.000000e+00 0.000000e+00 0.000000e+00
<ENDHMM>
~h "P"
<BEGINHMM>
<NUMSTATES> 5
<STATE> 2
<MEAN> 25
 -2.906855e+00 5.254851e+00 -2.663060e-01 -5.836103e-01 2.607889e+00 3.410440e+00 7.098072e-01 1.524491e+00 7.538532e-01 7.627966e-01 3.503337e-01 7.443058e-01 -5.521822e-01 8.467785e-02 2.709906e-02 -1.920177e-01 -1.296676e-01 2.216595e-01 3.748373e-01 7.889905e-01 6.133190e-01 2.120035e-01 1.213740e-01 4.711394e-01 -7.867559e-01
<VARIANCE> 25
 3.458870e+01 1.606853e+01 1.848587e+01 1.668979e+01 1.574673e+01 2.237978e+01 2.376410e+01 3.734262e+01 3.151970e+01 1.964177e+01 1.106690e+01 1.278338e+01 2.160126e+00 1.799379e+00 1.849565e+00 1.422768e+00 1.429680e+00 1.831687e+00 1.943274e+00 2.393092e+00 2.347393e+00 1.388691e+00 1.103819e+00 1.308146e+00 2.768464e+00
<GCONST> 8.942477e+01
<STATE> 3
<MEAN> 25
 -5.819042e+00 8.311194e-01 -2.463282e+00 -2.275098e+00 9.171585e-01 3.679039e+00 1.269802e+00 2.999219e+00 3.826914e+00 1.953577e+00 1.955686e+00 1.169210e+00 5.342578e-01 -5.389239e-01 -1.225068e-01 -9.993821e-02 -2.582119e-01 -3.267568e-01 -2.084218e-01 -2.192946e-01 -1.760589e-01 -1.978723e-01 1.010596e-01 -9.969087e-02 6.966318e-01
<VARIANCE> 25
 3.945877e+01 3.254009e+01 2.981938e+01 2.233295e+01 1.912107e+01 2.319416e+01 1.391772e+01 2.043470e+01 1.859414e+01 1.675780e+01 1.551623e+01 9.445739e+00 4.032273e+00 2.562130e+00 1.909741e+00 1.606310e+00 1.854773e+00 2.002754e+00 1.991576e+00 3.142282e+00 1.789537e+00 1.316409e+00 1.805841e+00 1.016847e+00 3.448315e+00
<GCONST> 9.138485e+01
<STATE> 4
<MEAN> 25
 8.506624e-01 -1.752788e+00 -2.467651e+00 -4.199437e+00 -2.451109e+00 -2.503017e+00 -5.930196e-01 9.939929e-01 8.589127e-01 -2.034822e+00 -8.945669e-01 8.833821e-01 2.557478e+00 -4.600729e-02 -4.132563e-01 4.101374e-01 -1.468248e-01 -8.740332e-01 -7.699754e-01 -9.847218e-01 -9.974593e-01 -4.072237e-01 -6.282611e-01 -5.390238e-01 1.788739e+00
<VARIANCE> 25
 4.431384e+01 4.574784e+01 4.038567e+01 4.785359e+01 3.791208e+01 4.956171e+01 4.204422e+01 5.665997e+01 4.322640e+01 4.453906e+01 5.242545e+01 2.837103e+01 4.856994e+00 5.277753e+00 4.876603e+00 6.928155e+00 5.159140e+00 9.130975e+00 6.078238e+00 5.143085e+00 8.678341e+00 5.985991e+00 3.687963e+00 2.075667e+00 5.770123e+00
<GCONST> 1.131069e+02
<TRANSP> 5
 0.000000e+00 1.000000e+00 0.000000e+00 0.000000e+00 0.000000e+00
 0.000000e+00 8.271065e-01 1.728935e-01 0.000000e+00 0.000000e+00
 0.000000e+00 0.000000e+00 8.435237e-01 1.564762e-01 0.000000e+00
 0.000000e+00 0.000000e+00 0.000000e+00 5.431557e-01 4.568443e-01
 0.000000e+00 0.000000e+00 0.000000e+00 0.000000e+00 0.000000e+00
<ENDHMM>
~h "R"
<BEGINHMM>
<NUMSTATES> 5
<STATE> 2
<MEAN> 25
 8.313166e+00 4.141855e+00 -4.422841e+00 -4.913817e+00 3.023861e-01 -1.465912e+00 5.249559e-01 -4.077947e+00 -6.880279e+00 -1.211800e+00 2.129759e+00 3.137829e-01 7.395727e-01 5.449147e-01 -5.986370e-01 -6.679543e-01 1.419834e-01 3.367867e-01 4.136626e-01 -6.157863e-01 -1.484556e+00 -4.641438e-01 3.605471e-01 6.197388e-01 2.723293e-01
<VARIANCE> 25
 7.308895e+01 4.524316e+01 2.859387e+01 6.266843e+01 6.736382e+01 6.309792e+01 5.439516e+01 8.020145e+01 7.182161e+01 4.627365e+01 3.636003e+01 2.937206e+01 3.177137e+00 2.726331e+00 1.697977e+00 3.759895e+00 3.332434e+00 4.003520e+00 4.271924e+00 4.706124e+00 4.554705e+00 3.299729e+00 2.322179e+00 2.138756e+00 9.902255e-01
<GCONST> 1.072671e+02
<STATE> 3
<MEAN> 25
 9.798005e+00 3.828548e+00 -7.644103e+00 -4.948796e+00 -2.448723e+00 -3.085256e-02 2.186925e+00 -5.219336e+00 -7.510209e+00 -1.215090e+00 1.823105e+00 2.345072e-01 -2.645870e-02 3.301276e-02 -6.432893e-02 2.642769e-01 2.060985e-01 9.909429e-03 -2.119450e-01 -2.091356e-01 -5.215573e-02 1.814924e-03 1.026179e-01 1.818411e-01 -1.022690e-01
<VARIANCE> 25
 5.720427e+01 4.024282e+01 2.072064e+01 4.579765e+01 3.439781e+01 5.560228e+01 2.824805e+01 9.027769e+01 9.878750e+01 4.405011e+01 2.993720e+01 2.276998e+01 2.688239e-01 9.959565e-01 6.727898e-01 1.220205e+00 1.253614e+00 1.460472e+00 2.005598e+00 1.361466e+00 1.784563e+00 1.545694e+00 1.193993e+00 8.744614e-01 2.415264e-01
<GCONST> 9.057809e+01
<STATE> 4
<MEAN> 25
 8.787664e+00 4.279631e+00 -5.581070e+00 -1.174885e+00 3.100877e+00 2.432593e+00 -2.199963e+00 -8.118623e+00 -9.347159e+00 -1.481279e+00 4.272688e+00 2.382510e+00 -6.530397e-01 -1.444114e-01 5.628035e-01 1.043378e+00 4.130040e-01 -1.864590e-01 -5.343787e-01 2.095769e-01 1.031160e+00 2.233268e-01 -4.196218e-01 -4.076462e-01 -4.676225e-01
<VARIANCE> 25
 4.174527e+01 2.603652e+01 1.648479e+01 3.747983e+01 2.540901e+01 3.969870e+01 3.319583e+01 5.646011e+01 6.775084e+01 4.129043e+01 2.227486e+01 2.705386e+01 7.110554e-01 1.422131e+00 1.139250e+00 2.066387e+00 1.401221e+00 1.907653e+00 2.217005e+00 2.382562e+00 1.992413e+00 2.287564e+00 1.463220e+00 1.425303e+00 6.303825e-01
<GCONST> 9.345969e+01
<TRANSP> 5
 0.000000e+00 1.000000e+00 0.000000e+00 0.000000e+00 0.000000e+00
 0.000000e+00 5.986135e-01 4.013865e-01 0.000000e+00 0.000000e+00
 0.000000e+00 0.000000e+00 7.127918e-01 2.872082e-01 0.000000e+00
 0.000000e+00 0.000000e+00 0.000000e+00 7.236315e-01 2.763685e-01
 0.000000e+00 0.000000e+00 0.000000e+00 0.000000e+00 0.000000e+00
<ENDHMM>
~h "S"
<BEGINHMM>
<NUMSTATES> 5
<STATE> 2
<MEAN> 25
 -3.620850e+00 -4.891436e+00 4.240278e+00 1.244507e+00 -1.794130e-01 7.718691e-01 2.748283e+00 -5.324994e-01 -7.126005e-01 -1.704242e+00 8.545989e-02 2.089124e+00 -2.693295e+00 -2.660461e+00 2.892617e+00 -1.024911e+00 -8.971605e-01 -5.199565e-01 1.598632e+00 5.576230e-01 5.641848e-01 8.744594e-02 8.142181e-01 2.517555e-01 1.124861e+00
<VARIANCE> 25
 5.129974e+01 7.031342e+01 9.597803e+01 1.047027e+02 4.939500e+01 6.459544e+01 9.304845e+01 6.331234e+01 5.546886e+01 4.110626e+01 3.345765e+01 2.202871e+01 4.309022e+00 7.216423e+00 6.097429e+00 6.682376e+00 5.934596e+00 6.483436e+00 5.748017e+00 5.965945e+00 4.677864e+00 3.470618e+00 3.673278e+00 1.727325e+00 2.131634e+00
<GCONST> 1.141577e+02
<STATE> 3
<MEAN> 25
 -8.054211e+00 -2.030525e+01 1.132191e+01 2.506728e+00 -9.751171e+00 -1.874634e+00 1.548190e+00 4.449137e+00 -5.345632e-01 -3.842843e+00 5.001417e+00 2.546496e+00 -1.611754e-01 5.834122e-01 -7.892922e-01 -3.675493e-01 4.651347e-01 -2.238276e-01 1.166772e-01 -1.168938e-01 2.674197e-01 2.469156e-02 -1.638240e-01 1.422551e-01 -3.428195e-01
<VARIANCE> 25
 2.170834e+01 8.848978e+01 5.198012e+01 5.154742e+01 6.193197e+01 2.656260e+01 5.327464e+01 3.691667e+01 3.784798e+01 2.341914e+01 1.909935e+01 1.613832e+01 2.793492e+00 7.325576e+00 5.585662e+00 2.790247e+00 4.180234e+00 1.745922e+00 3.031312e+00 2.724100e+00 2.240085e+00 1.504885e+00 2.136982e+00 1.744890e+00 1.430114e+00
<GCONST> 1.016614e+02
<STATE> 4
<MEAN> 25
 -1.533830e+01 -6.242157e+00 1.152137e+01 -7.283407e+00 1.938021e+00 -1.991940e+00 1.003722e+01 -9.951636e-01 2.867368e+00 8.795008e-01 2.703388e+00 9.885026e-01 5.744277e-01 2.131695e-01 -5.293369e-01 3.262391e-01 -1.425346e-01 2.999249e-01 -3.716132e-01 9.117983e-02 -2.058680e-01 3.579434e-01 -2.056346e-01 -1.865024e-01 -3.722896e-01
<VARIANCE> 25
 4.655608e+01 4.648652e+01 7.955567e+01 4.149811e+01 2.683226e+01 6.100194e+01 1.111189e+02 6.531013e+01 5.084755e+01 4.600768e+01 2.219955e+01 1.616688e+01 2.967803e+00 2.453067e+00 1.978163e+00 1.522664e+00 1.774404e+00 2.191643e+00 2.968327e+00 2.507682e+00 2.360699e+00 1.947502e+00 1.693322e+00 1.483129e+00 1.032673e+00
<GCONST> 1.005916e+02
<TRANSP> 5
 0.000000e+00 1.000000e+00 0.000000e+00 0.000000e+00 0.000000e+00
 0.000000e+00 7.374486e-01 2.625515e-01 0.000000e+00 0.000000e+00
 0.000000e+00 0.000000e+00 7.545547e-01 2.454453e-01 0.000000e+00
 0.000000e+00 0.000000e+00 0.000000e+00 8.799673e-01 1.200328e-01
 0.000000e+00 0.000000e+00 0.000000e+00 0.000000e+00 0.000000e+00
<ENDHMM>
~h "T"
<BEGINHMM>
<NUMSTATES> 5
<STATE> 2
<MEAN> 25
 -3.609159e+00 -5.995341e+00 3.853190e+00 4.347722e-01 2.074947e+00 -5.125986e+00 -7.338132e-01 -9.762492e-01 1.440305e+00 5.597532e-01 -4.089929e-01 4.631955e-01 -5.623869e-01 -1.667879e+00 3.407805e-01 -1.011752e-02 -2.729246e-01 -7.380087e-01 -7.571348e-01 -5.965139e-01 9.046442e-01 -3.612714e-02 1.540408e-01 2.880620e-01 7.287908e-01
<VARIANCE> 25
 5.907250e+01 8.780379e+01 8.245329e+01 7.127870e+01 5.631562e+01 1.301326e+02 7.947861e+01 6.368353e+01 5.282314e+01 4.363576e+01 3.012499e+01 2.067557e+01 6.712551e+00 8.574789e+00 6.997627e+00 7.633522e+00 5.381020e+00 1.181855e+01 7.507943e+00 6.612374e+00 4.628012e+00 4.893416e+00 3.149310e+00 2.120864e+00 4.827723e+00
<GCONST> 1.174675e+02
<STATE> 3
<MEAN> 25
 -1.315127e+00 -7.724896e+00 -4.297634e-01 2.312200e+00 2.110956e+00 -1.695615e+00 -4.046597e+00 -4.920466e+00 1.677815e+00 2.154639e+00 6.813605e-01 1.437831e+00 4.352925e-01 1.224712e+00 -5.266371e-01 -4.440180e-02 1.316543e-01 1.004906e+00 2.690672e-01 2.701110e-01 -6.617562e-01 1.682133e-02 3.980539e-01 1.850922e-01 -7.233102e-01
<VARIANCE> 25
 5.631037e+01 8.159121e+01 5.865630e+01 4.001994e+01 4.879332e+01 5.924340e+01 6.686799e+01 6.305469e+01 3.246092e+01 4.592481e+01 2.012311e+01 2.102778e+01 4.073504e+00 7.676304e+00 3.248223e+00 3.795910e+00 3.422282e+00 3.524143e+00 3.143234e+00 4.367580e+00 3.348509e+00 2.583540e+00 1.904974e+00 2.086671e+00 2.487570e+00
<GCONST> 1.073244e+02
<STATE> 4
<MEAN> 25
 -2.980928e+00 -4.741479e+00 -1.372307e+00 2.587820e+00 -1.178501e+00 1.619287e-01 -1.974744e-02 3.309479e-01 -1.604075e-02 -8.223870e-01 1.401354e+00 1.740448e+00 6.275133e-01 5.212790e-01 -3.902324e-01 1.504082e-01 -6.324578e-02 -3.049341e-02 -7.299971e-02 1.981427e-01 -2.737015e-01 -1.895277e-01 1.871851e-02 -1.767050e-03 -1.426939e-01
<VARIANCE> 25
 5.020011e+01 4.624430e+01 5.071881e+01 3.348522e+01 3.862302e+01 1.075311e+02 4.269251e+01 2.916805e+01 2.434652e+01 2.583376e+01 1.742799e+01 2.007320e+01 4.353755e+00 4.166178e+00 2.700870e+00 2.771089e+00 2.574544e+00 6.711080e+00 2.450761e+00 2.639853e+00 3.186061e+00 2.154918e+00 2.141876e+00 1.707610e+00 1.685689e+00
<GCONST> 1.022674e+02
<TRANSP> 5
 0.000000e+00 1.000000e+00 0.000000e+00 0.000000e+00 0.000000e+00
 0.000000e+00 6.393871e-01 3.606129e-01 0.000000e+00 0.000000e+00
 0.000000e+00 0.000000e+00 5.587812e-01 4.412188e-01 0.000000e+00
 0.000000e+00 0.000000e+00 0.000000e+00 7.137318e-01 2.862681e-01
 0.000000e+00 0.000000e+00 0.000000e+00 0.000000e+00 0.000000e+00
<ENDHMM>
~h "V"
<BEGINHMM>
<NUMSTATES> 5
<STATE> 2
<MEAN> 25
 5.505425e+00 4.573977e+00 2.114074e+00 3.621037e+00 2.652709e+00 -3.034659e+00 -3.961149e+00 -9.232029e-01 -4.193913e+00 -4.061952e+00 -4.086674e-01 1.287504e+00 -4.991154e-01 3.474907e-01 2.864919e-01 3.340155e-01 2.711197e-01 4.135718e-01 3.258031e-01 4.592330e-01 4.071910e-01 -1.403323e-01 -4.994813e-02 1.861651e-02 -4.407161e-01
<VARIANCE> 25
 2.401154e+01 1.668653e+01 1.819968e+01 2.407845e+01 8.535670e+01 5.507759e+01 3.504049e+01 2.613403e+01 3.125628e+01 2.075523e+01 2.120207e+01 2.144272e+01 1.462057e+00 1.249189e+00 1.425300e+00 1.469546e+00 2.930951e+00 2.704828e+00 1.724261e+00 1.521204e+00 1.363877e+00 1.911670e+00 1.836501e+00 1.519604e+00 5.645075e-01
<GCONST> 9.168179e+01
<STATE> 3
<MEAN> 25
 4.172640e+00 -4.741878e-01 -1.402052e+00 2.317551e+00 3.417004e+00 9.750049e-01 -2.978110e+00 -4.107285e+00 -2.528717e+00 -2.008857e+00 -1.983594e+00 -8.292999e-01 -8.943750e-01 -8.202224e-01 -3.173374e-02 -1.488882e-01 9.494905e-02 5.471834e-01 2.641680e-01 3.339997e-01 4.492266e-01 -2.430904e-01 5.113714e-01 3.641211e-01 3.213701e-02
<VARIANCE> 25
 2.804746e+01 7.209564e+01 3.487071e+01 2.300301e+01 3.563793e+01 4.240247e+01 2.677949e+01 5.664655e+01 6.041582e+01 3.531287e+01 1.809534e+01 1.705980e+01 4.369102e+00 7.334848e+00 3.781467e+00 2.662739e+00 6.314280e+00 5.557356e+00 2.636234e+00 4.583200e+00 5.975033e+00 3.745545e+00 2.896654e+00 2.277604e+00 1.649374e+00
<GCONST> 1.056106e+02
<STATE> 4
<MEAN> 25
 1.038390e-01 -1.120412e+01 2.648657e+00 4.968311e+00 -4.028744e+00 5.048133e-01 1.477912e+00 -1.425453e+00 -7.806639e-02 -4.780169e+00 -2.563688e+00 1.661870e+00 -7.101363e-02 -3.740705e-01 -5.810782e-03 -3.929332e-01 -2.063104e-01 -8.474465e-03 2.229218e-01 -2.159172e-01 1.296586e-01 3.137320e-01 7.879457e-02 -3.138550e-02 2.324516e-01
<VARIANCE> 25
 2.901924e+01 2.222707e+02 4.686805e+01 4.428444e+01 8.344522e+01 4.686767e+01 3.518412e+01 8.034570e+01 7.322881e+01 7.043740e+01 3.230667e+01 3.248174e+01 4.628905e+00 1.060559e+01 5.015435e+00 2.572050e+00 6.668235e+00 5.626840e+00 3.660098e+00 2.694752e+00 6.456412e+00 5.022616e+00 2.170329e+00 3.712843e+00 2.429016e+00
<GCONST> 1.128973e+02
<TRANSP> 5
 0.000000e+00 1.000000e+00 0.000000e+00 0.000000e+00 0.000000e+00
 0.000000e+00 7.446457e-01 2.553543e-01 0.000000e+00 0.000000e+00
 0.000000e+00 0.000000e+00 6.086481e-01 3.913519e-01 0.000000e+00
 0.000000e+00 0.000000e+00 0.000000e+00 6.468267e-01 3.531732e-01
 0.000000e+00 0.000000e+00 0.000000e+00 0.000000e+00 0.000000e+00
<ENDHMM>
~h "W"
<BEGINHMM>
<NUMSTATES> 5
<STATE> 2
<MEAN> 25
 2.453537e+00 6.564831e+00 1.961562e+00 7.492887e-01 -2.392617e+00 1.752406e-03 -1.084899e+00 -1.742434e+00 -1.659180e+00 -4.611060e-01 8.396266e-01 -3.764703e-01 1.137721e+00 1.308898e+00 1.807453e-01 -1.076814e+00 -1.360375e+00 -1.658794e+00 -7.002667e-01 1.791942e-01 5.292243e-01 2.637326e-01 -2.113045e-01 -4.309010e-01 5.246646e-01
<VARIANCE> 25
 4.263361e+01 5.144899e+01 4.420989e+01 3.305128e+01 2.202612e+01 2.688187e+01 3.660254e+01 3.635340e+01 2.242554e+01 1.591936e+01 1.576144e+01 1.513670e+01 2.818653e+00 3.673684e+00 2.686946e+00 4.581837e+00 4.100148e+00 8.014333e+00 3.874020e+00 3.051606e+00 1.655375e+00 2.782724e+00 2.412644e+00 2.572746e+00 1.619341e+00
<GCONST> 1.005020e+02
<STATE> 3
<MEAN> 25
 5.760974e+00 8.737067e+00 9.705739e-01 -7.145796e+00 -8.328656e+00 -9.424942e+00 -1.283932e+00 2.199730e+00 6.992312e-01 -8.996316e-01 -7.197180e-01 -3.336031e+00 1.239663e+00 3.032664e-01 -6.639607e-02 -2.006841e+00 -1.624088e+00 -2.469138e+00 3.041334e-01 1.639443e+00 8.191884e-01 -2.438080e-01 -5.037569e-01 -6.825671e-01 1.506082e+00
<VARIANCE> 25
 4.821277e+01 5.131012e+01 2.518456e+01 6.696503e+01 3.500636e+01 1.006428e+02 6.753074e+01 4.120511e+01 2.150919e+01 3.666804e+01 3.501403e+01 2.938262e+01 3.380335e+00 4.451197e+00 3.977087e+00 5.202732e+00 4.754272e+00 1.050950e+01 4.081047e+00 3.558429e+00 2.675888e+00 2.477505e+00 5.346832e+00 3.335988e+00 3.236721e+00
<GCONST> 1.091709e+02
<STATE> 4
<MEAN> 25
 6.575537e+00 5.492100e+00 -1.908541e-01 -9.653072e+00 -1.073298e+01 -9.408857e+00 8.800768e-01 6.494939e+00 2.618793e+00 -8.514136e-01 9.790227e-03 -2.491976e+00 3.802128e-02 -6.775820e-01 -4.162727e-01 6.201012e-01 5.857741e-01 7.822915e-01 2.052288e-01 -8.533216e-03 2.985425e-02 -1.442553e-01 -4.842871e-01 1.869657e-01 -2.237669e-02
<VARIANCE> 25
 4.409747e+01 4.184479e+01 3.748521e+01 5.132646e+01 4.729808e+01 8.476645e+01 5.529058e+01 6.404895e+01 3.345116e+01 4.223182e+01 4.397334e+01 3.214761e+01 1.563277e+00 2.635505e+00 3.138118e+00 3.618964e+00 4.146300e+00 3.396922e+00 4.513131e+00 4.067055e+00 2.560926e+00 2.871158e+00 2.467053e+00 1.988739e+00 1.530394e+00
<GCONST> 1.054170e+02
<TRANSP> 5
 0.000000e+00 1.000000e+00 0.000000e+00 0.000000e+00 0.000000e+00
 0.000000e+00 5.902075e-01 4.097925e-01 0.000000e+00 0.000000e+00
 0.000000e+00 0.000000e+00 3.256609e-01 6.743391e-01 0.000000e+00
 0.000000e+00 0.000000e+00 0.000000e+00 7.593798e-01 2.406202e-01
 0.000000e+00 0.000000e+00 0.000000e+00 0.000000e+00 0.000000e+00
<ENDHMM>
~h "Y"
<BEGINHMM>
<NUMSTATES> 5
<STATE> 2
<MEAN> 25
 -2.979407e+00 -1.587360e+00 8.021086e+00 2.479412e+00 9.507374e+00 -6.589474e-01 -1.326170e+00 5.042222e-01 -2.042942e+00 -2.850651e-01 4.668300e+00 -1.181348e+00 2.734711e-01 -1.428193e+00 9.246584e-01 2.642697e+00 2.031634e+00 -2.778790e+00 -1.818175e+00 5.397604e-01 -2.618150e-01 -9.190270e-01 -1.513334e+00 -8.920141e-01 5.204580e-01
<VARIANCE> 25
 4.189892e+01 7.668890e+01 1.138411e+02 7.968475e+01 7.454739e+01 4.244979e+01 2.353084e+01 1.099749e+02 4.277410e+00 5.242704e+01 2.084041e+01 2.575893e+01 7.977506e+00 3.305292e+00 3.688613e+00 5.799743e+00 2.993852e+00 3.206051e+00 6.463603e+00 2.174547e+00 4.023674e+00 4.293718e+00 2.406710e+00 9.518248e-01 5.899352e-01
<GCONST> 1.051419e+02
<STATE> 3
<MEAN> 25
 1.965430e+00 -3.676294e+00 1.351160e+01 1.707689e+01 3.871073e+00 -8.527390e+00 -3.515522e+00 -5.721150e+00 -5.338050e+00 -5.379916e+00 -3.856711e+00 -5.466626e+00 8.733606e-01 -3.078018e-01 5.788491e-01 1.933385e+00 5.132788e-01 -1.239228e+00 -1.719101e+00 2.375352e-01 8.928426e-02 -5.065501e-01 -1.675203e+00 -6.619647e-01 3.364505e-01
<VARIANCE> 25
 5.811618e+00 2.048802e+01 7.523795e+01 2.998147e+01 5.390157e+01 3.653713e+01 7.361941e+01 3.332555e+01 2.145630e+01 1.809438e+01 3.200607e+01 1.034139e+01 4.118120e+00 2.400546e+00 5.483958e+00 4.797838e+00 1.756481e+00 1.894995e+00 1.031236e+01 1.570609e+00 1.982684e+00 5.470779e+00 2.053598e+00 1.340191e+00 6.120056e-01
<GCONST> 9.805596e+01
<STATE> 4
<MEAN> 25
 7.607370e+00 -2.574410e-01 5.046574e+00 1.866988e+01 1.251983e+01 -1.066976e+01 -1.795320e+01 -2.069921e+00 7.998415e-01 1.804616e+00 -3.742008e+00 -6.776069e+00 2.886037e-01 3.160800e-01 -4.020954e-01 -4.601524e-01 4.099723e-02 1.117306e-01 -6.411004e-02 -5.703002e-01 -7.041130e-02 4.460014e-01 3.425068e-01 8.426063e-02 9.619680e-02
<VARIANCE> 25
 9.216413e+00 1.459461e+01 1.429751e+01 3.253300e+01 3.476667e+01 2.770706e+01 6.158212e+01 5.278983e+01 3.186977e+01 5.728318e+01 3.600531e+01 2.877083e+01 4.180697e-01 1.051648e+00 1.625025e+00 2.472956e+00 2.182709e+00 3.062219e+00 2.700292e+00 2.146300e+00 1.884027e+00 1.875054e+00 2.821592e+00 2.338477e+00 7.497885e-01
<GCONST> 9.348751e+01
<TRANSP> 5
 0.000000e+00 1.000000e+00 0.000000e+00 0.000000e+00 0.000000e+00
 0.000000e+00 3.660794e-01 6.339207e-01 0.000000e+00 0.000000e+00
 0.000000e+00 0.000000e+00 7.020841e-01 2.979160e-01 0.000000e+00
 0.000000e+00 0.000000e+00 0.000000e+00 9.223313e-01 7.766873e-02
 0.000000e+00 0.000000e+00 0.000000e+00 0.000000e+00 0.000000e+00
<ENDHMM>
~h "Z"
<BEGINHMM>
<NUMSTATES> 5
<STATE> 2
<MEAN> 25
 4.429352e+00 -9.916511e-01 7.588982e+00 3.007318e+00 -8.665164e-01 -2.691080e+00 -1.353503e+00 -5.791645e+00 -5.266356e+00 -2.687823e+00 -5.342225e+00 -2.317506e+00 -2.402198e+00 -1.543306e+00 2.939536e+00 -4.209951e-01 -6.304064e-01 5.830554e-01 1.554069e+00 7.996345e-01 3.011098e-02 1.339301e-01 9.754702e-01 4.576410e-01 3.030592e-01
<VARIANCE> 25
 2.529068e+01 4.487486e+01 5.752669e+01 7.746751e+01 6.344820e+01 5.464874e+01 7.137390e+01 6.595768e+01 7.175909e+01 3.678133e+01 6.619016e+01 3.030773e+01 3.182326e+00 9.085098e+00 4.418732e+00 4.840482e+00 6.785244e+00 7.151710e+00 9.656712e+00 6.416709e+00 7.403672e+00 4.353181e+00 3.508132e+00 3.098042e+00 1.068412e+00
<GCONST> 1.138344e+02
<STATE> 3
<MEAN> 25
 -8.556233e+00 -4.759092e+00 1.477743e+01 -3.283634e+00 2.272221e+00 4.194634e-01 -1.787114e+00 -1.360088e-01 1.651157e-01 -3.846914e+00 1.615440e+00 7.985731e-01 -2.473752e+00 -3.246325e-01 3.371891e-01 -9.304042e-01 6.955121e-01 4.412001e-01 6.805790e-01 9.525923e-01 9.577909e-01 -1.303163e-01 4.648482e-01 4.236503e-01 2.610444e-01
<VARIANCE> 25
 4.754660e+01 1.302854e+02 5.354059e+01 9.358053e+01 1.166061e+02 3.320827e+01 6.203261e+01 6.733392e+01 3.360835e+01 2.676094e+01 2.407921e+01 1.327571e+01 6.729465e+00 3.303938e+00 5.771070e+00 2.634603e+00 2.743099e+00 3.777373e+00 3.843107e+00 5.961078e+00 3.376249e+00 1.936762e+00 2.384075e+00 1.726270e+00 6.810595e-01
<GCONST> 1.065669e+02
<STATE> 4
<MEAN> 25
 -1.097875e+01 -4.213282e+00 1.195837e+01 -4.929697e+00 1.941823e+00 -1.952042e+00 7.254518e+00 -8.020766e-01 -1.058419e+00 -6.359511e-01 1.845743e+00 2.259334e-01 9.247330e-01 5.424873e-02 -1.081422e+00 4.018307e-01 -3.548357e-01 6.116277e-02 -3.837757e-01 6.842025e-02 -2.914008e-01 9.206678e-02 1.229802e-01 -6.922443e-02 -7.220439e-01
<VARIANCE> 25
 4.827503e+01 4.005669e+01 8.475073e+01 7.455241e+01 4.940105e+01 7.466994e+01 1.393356e+02 8.599270e+01 8.099761e+01 5.058311e+01 3.040903e+01 2.238466e+01 5.226709e+00 3.453231e+00 3.633021e+00 3.019679e+00 3.609762e+00 4.497258e+00 5.398645e+00 4.857072e+00 4.221829e+00 3.285268e+00 3.324098e+00 2.113035e+00 2.041966e+00
<GCONST> 1.113456e+02
<TRANSP> 5
 0.000000e+00 1.000000e+00 0.000000e+00 0.000000e+00 0.000000e+00
 0.000000e+00 6.403803e-01 3.596197e-01 0.000000e+00 0.000000e+00
 0.000000e+00 0.000000e+00 6.983854e-01 3.016146e-01 0.000000e+00
 0.000000e+00 0.000000e+00 0.000000e+00 8.414742e-01 1.585257e-01
 0.000000e+00 0.000000e+00 0.000000e+00 0.000000e+00 0.000000e+00
<ENDHMM>
~h "AA"
<BEGINHMM>
<NUMSTATES> 5
<STATE> 2
<MEAN> 25
 -4.466735e+00 2.300354e+00 -4.364653e+00 1.364961e+00 7.365596e-01 4.775791e+00 7.038831e-01 4.510583e+00 1.535440e+00 7.578292e-01 6.376502e-02 1.469222e+00 2.634528e-02 1.274396e-01 -1.846406e-02 -4.412597e-02 -1.725957e-02 1.359060e-02 -4.518321e-02 1.486742e-02 7.380605e-02 -1.374467e-02 -3.364167e-02 2.131061e-02 -5.226374e-02
<VARIANCE> 25
 2.378152e+01 1.999949e+01 1.833077e+01 1.513475e+01 1.607825e+01 2.012755e+01 1.475374e+01 1.615233e+01 1.788959e+01 1.446294e+01 1.551270e+01 1.215211e+01 3.327813e-01 7.739982e-01 6.361597e-01 6.955225e-01 9.851584e-01 1.451240e+00 1.086180e+00 9.684651e-01 1.033946e+00 9.367955e-01 9.954423e-01 8.473614e-01 2.081010e-01
<GCONST> 7.624960e+01
<STATE> 3
<MEAN> 25
 6.410008e+00 5.558995e+00 -7.769910e-01 -1.425594e+00 -6.419506e+00 -3.466781e+00 -2.128252e+00 2.872064e+00 1.026335e+00 -8.643119e-01 -1.676080e+00 -9.449416e-01 1.846527e+00 1.360667e-01 -3.520325e-02 -9.570456e-01 -1.308710e+00 -8.459076e-01 4.624103e-01 -4.343070e-01 -1.758107e-01 -1.190477e-01 -8.302368e-01 -9.075075e-01 1.931078e+00
<VARIANCE> 25
 4.619926e+01 7.846622e+01 4.300373e+01 3.672493e+01 4.512236e+01 5.558577e+01 4.301479e+01 4.293412e+01 4.048277e+01 2.366840e+01 3.628247e+01 2.397235e+01 2.571190e+00 7.388466e+00 6.448171e+00 4.005641e+00 3.824132e+00 6.798438e+00 5.189524e+00 3.767142e+00 2.405286e+00 2.671178e+00 3.768492e+00 1.971997e+00 3.926138e+00
<GCONST> 1.081494e+02
<STATE> 4
<MEAN> 25
 1.009910e+01 -5.641743e-01 -4.329800e+00 -8.751756e+00 -1.049721e+01 -3.507810e+00 6.014092e+00 5.143953e+00 3.233431e+00 -1.521855e+00 -3.495961e+00 -4.011820e+00 2.316378e-02 -1.084729e-01 3.262019e-02 8.295098e-02 5.516034e-01 1.513026e-01 2.692031e-02 -4.741426e-01 -3.471131e-01 3.538704e-02 8.891048e-02 -1.900457e-04 3.530974e-01
<VARIANCE> 25
 2.853329e+01 4.939008e+01 3.129998e+01 4.214862e+01 4.449747e+01 4.488721e+01 4.862778e+01 5.149349e+01 3.685320e+01 7.134485e+01 3.581396e+01 3.399732e+01 1.394652e+00 2.597461e+00 1.780789e+00 2.588861e+00 3.298675e+00 3.073861e+00 2.921046e+00 3.600127e+00 2.340657e+00 3.197276e+00 2.873951e+00 3.132291e+00 3.006169e+00
<GCONST> 1.035826e+02
<TRANSP> 5
 0.000000e+00 1.000000e+00 0.000000e+00 0.000000e+00 0.000000e+00
 0.000000e+00 9.503057e-01 4.969434e-02 0.000000e+00 0.000000e+00
 0.000000e+00 0.000000e+00 6.582621e-01 3.417379e-01 0.000000e+00
 0.000000e+00 0.000000e+00 0.000000e+00 8.167592e-01 1.832408e-01
 0.000000e+00 0.000000e+00 0.000000e+00 0.000000e+00 0.000000e+00
<ENDHMM>
~h "AE"
<BEGINHMM>
<NUMSTATES> 5
<STATE> 2
<MEAN> 25
 6.961892e+00 -9.495121e-01 -3.261621e+00 -3.148496e+00 -3.470431e+00 -2.837882e+00 1.000150e-01 -2.571073e+00 7.406623e-01 4.018703e+00 8.228297e-01 -2.572223e+00 8.865336e-01 -8.366643e-01 -4.741734e-01 -1.324620e+00 -8.961594e-01 -1.869561e-01 6.627511e-01 6.919035e-02 5.315123e-01 5.111105e-01 -1.456355e-01 -2.288929e-01 1.569346e+00
<VARIANCE> 25
 3.501105e+01 9.990719e+01 3.576405e+01 6.187113e+01 4.441490e+01 3.653089e+01 3.967073e+01 4.736638e+01 6.692509e+01 4.412305e+01 3.822778e+01 3.369056e+01 2.230623e+00 4.454068e+00 3.640487e+00 3.830536e+00 4.983154e+00 4.108770e+00 3.782546e+00 5.396693e+00 5.999510e+00 4.263708e+00 3.362277e+00 3.275567e+00 2.708935e+00
<GCONST> 1.094945e+02
<STATE> 3
<MEAN> 25
 1.054100e+01 -3.613437e+00 -4.584490e+00 -6.741847e+00 -4.839885e+00 -2.923490e+00 4.644293e+00 -3.189161e+00 1.808385e+00 3.071872e+00 -2.925515e+00 -9.980183e-01 -2.649071e-02 -3.559867e-02 2.806626e-03 -1.613423e-01 -1.971019e-02 2.297919e-01 5.284872e-01 2.006897e-01 -7.532124e-02 1.843199e-01 -3.514033e-01 -2.756566e-03 -3.634320e-02
<VARIANCE> 25
 1.222011e+01 5.212410e+01 3.086229e+01 4.709872e+01 2.638317e+01 2.772276e+01 5.668385e+01 4.170368e+01 5.458648e+01 6.673924e+01 1.618878e+01 2.912443e+01 2.970864e-01 5.941981e-01 9.055706e-01 1.199787e+00 1.331442e+00 1.657369e+00 2.011793e+00 1.998379e+00 1.533197e+00 1.482080e+00 1.082774e+00 9.114587e-01 2.555818e-01
<GCONST> 8.837989e+01
<STATE> 4
<MEAN> 25
 4.065550e+00 -2.593171e+00 -5.048128e+00 -6.657283e+00 -3.639691e+00 3.551659e+00 5.049280e+00 2.344130e-01 2.498801e+00 6.446204e+00 -8.445362e-01 -1.923577e+00 -4.961400e-01 3.930605e-01 -1.227492e-02 1.272167e-01 4.291217e-01 1.444411e-01 -1.557191e-02 3.715439e-01 -2.975807e-01 -6.218494e-01 3.158956e-01 2.599169e-01 -6.159223e-01
<VARIANCE> 25
 3.454755e+01 2.081271e+01 1.700209e+01 4.538993e+01 4.269648e+01 3.409626e+01 3.402357e+01 4.514347e+01 3.458156e+01 7.788063e+01 2.855393e+01 4.502864e+01 1.585685e+00 1.096192e+00 2.002365e+00 2.576314e+00 3.810548e+00 3.677259e+00 2.671801e+00 2.526391e+00 2.249148e+00 4.482438e+00 3.072897e+00 2.684521e+00 1.338064e+00
<GCONST> 1.003063e+02
<TRANSP> 5
 0.000000e+00 1.000000e+00 0.000000e+00 0.000000e+00 0.000000e+00
 0.000000e+00 7.624598e-01 2.375402e-01 0.000000e+00 0.000000e+00
 0.000000e+00 0.000000e+00 7.856750e-01 2.143250e-01 0.000000e+00
 0.000000e+00 0.000000e+00 0.000000e+00 7.893271e-01 2.106729e-01
 0.000000e+00 0.000000e+00 0.000000e+00 0.000000e+00 0.000000e+00
<ENDHMM>
~h "AH"
<BEGINHMM>
<NUMSTATES> 5
<STATE> 2
<MEAN> 25
 8.754849e+00 -8.318952e-02 -9.042786e-01 3.309649e+00 -2.594734e-01 -5.643496e+00 -4.409445e+00 -5.971503e+00 -3.826108e+00 -1.321125e+00 -2.089637e+00 -1.094826e+00 4.836197e-01 3.106784e-01 -3.594176e-01 -1.263205e-01 -2.629129e-01 -3.432889e-01 -8.494793e-02 1.181521e-01 -1.270652e-01 -1.405376e-01 -3.071968e-01 -3.254482e-01 1.058975e-01
<VARIANCE> 25
 2.859378e+01 4.594054e+01 3.985132e+01 6.140553e+01 4.882251e+01 5.915679e+01 5.991982e+01 4.054081e+01 3.435354e+01 3.252594e+01 2.339144e+01 3.396295e+01 2.574264e+00 3.875684e+00 3.167763e+00 3.305874e+00 3.053919e+00 5.363208e+00 3.307707e+00 2.822364e+00 2.550458e+00 2.799025e+00 2.063032e+00 2.554368e+00 1.371394e+00
<GCONST> 1.040124e+02
<STATE> 3
<MEAN> 25
 5.938407e+00 2.228647e+00 -1.362197e+00 1.867139e+00 9.362944e-01 -7.273358e-01 -2.946888e+00 -3.180911e+00 -2.714781e+00 -2.439056e+00 -2.298872e+00 -5.975385e-01 -6.997123e-01 3.566919e-01 5.824822e-02 -3.174005e-01 1.088247e-01 7.851921e-01 7.147829e-01 6.728971e-01 5.023466e-01 7.744814e-02 1.406445e-01 1.726560e-02 -7.189270e-01
<VARIANCE> 25
 4.411624e+01 2.166093e+01 2.502952e+01 2.743179e+01 2.336018e+01 4.585929e+01 3.504587e+01 3.403300e+01 2.920772e+01 2.888178e+01 2.146784e+01 2.395721e+01 9.855905e-01 1.434356e+00 1.782349e+00 1.793423e+00 1.968664e+00 2.004341e+00 2.047515e+00 1.734746e+00 1.702589e+00 1.631370e+00 1.800568e+00 1.499264e+00 6.663882e-01
<GCONST> 9.213928e+01
<STATE> 4
<MEAN> 25
 4.047146e+00 3.009892e-01 -4.020351e-01 -2.910183e+00 -3.688645e+00 5.762297e-01 -1.024027e+00 -2.320577e+00 1.095385e+00 7.739664e-01 -3.844396e+00 -6.766899e-01 -1.577231e-01 -5.822235e-02 3.252263e-01 -1.645646e-01 -3.004151e-02 1.049798e-01 1.621742e-01 1.382444e-01 2.125369e-01 8.526402e-02 1.344030e-02 1.034616e-01 2.818722e-02
<VARIANCE> 25
 6.495014e+01 3.717494e+01 3.151089e+01 4.092513e+01 8.282707e+01 5.103119e+01 7.544081e+01 6.129166e+01 5.221023e+01 5.727111e+01 4.527539e+01 3.082874e+01 3.490411e+00 3.003892e+00 2.330413e+00 3.810681e+00 6.262121e+00 5.025274e+00 4.317609e+00 4.457062e+00 4.386799e+00 3.529782e+00 3.058428e+00 2.105656e+00 2.698511e+00
<GCONST> 1.094658e+02
<TRANSP> 5
 0.000000e+00 1.000000e+00 0.000000e+00 0.000000e+00 0.000000e+00
 0.000000e+00 5.895224e-01 4.104777e-01 0.000000e+00 0.000000e+00
 0.000000e+00 0.000000e+00 6.371311e-01 3.628689e-01 0.000000e+00
 0.000000e+00 0.000000e+00 0.000000e+00 7.361798e-01 2.638203e-01
 0.000000e+00 0.000000e+00 0.000000e+00 0.000000e+00 0.000000e+00
<ENDHMM>
~h "AO"
<BEGINHMM>
<NUMSTATES> 5
<STATE> 2
<MEAN> 25
 5.008032e+00 4.732947e+00 -2.998363e+00 -8.535043e+00 -4.954488e+00 -3.716584e+00 1.491075e+00 4.264851e+00 -3.604521e-01 -1.514890e+00 -7.473567e-02 -2.452093e+00 1.741431e+00 7.620293e-01 -4.175724e-02 -5.481665e-01 -1.070774e+00 -6.521480e-01 -4.206450e-01 -5.604422e-01 9.732573e-02 5.996557e-01 -3.213695e-01 -9.633086e-01 9.462169e-01
<VARIANCE> 25
 6.571480e+01 4.206401e+01 3.204998e+01 8.623053e+01 5.316214e+01 6.872807e+01 4.315971e+01 4.693258e+01 5.286040e+01 4.480446e+01 2.845189e+01 4.759269e+01 4.143694e+00 4.375468e+00 2.447451e+00 7.108398e+00 4.550142e+00 7.756149e+00 4.676905e+00 5.967640e+00 7.085630e+00 4.050534e+00 3.343666e+00 3.517899e+00 3.131664e+00
<GCONST> 1.122037e+02
<STATE> 3
<MEAN> 25
 1.171784e+01 9.560036e+00 -1.653943e+00 -7.825809e+00 -9.404825e+00 -6.307055e+00 -1.290797e+00 -5.702449e-01 -1.126050e+00 8.980326e-01 -6.990227e-01 -5.676363e+00 2.738637e-01 -1.124479e-01 -8.280728e-01 -7.950789e-01 -2.031889e-01 5.325668e-01 1.178517e+00 -1.849977e-01 -1.022183e+00 -1.906129e-01 1.254972e-03 3.552732e-01 1.169151e-01
<VARIANCE> 25
 3.023783e+01 3.313695e+01 1.529681e+01 2.041142e+01 2.830269e+01 4.024117e+01 4.741938e+01 3.873967e+01 5.082951e+01 3.375393e+01 1.718073e+01 3.463552e+01 8.919181e-01 7.654951e-01 9.826865e-01 1.663462e+00 1.807001e+00 2.442288e+00 1.503772e+00 2.289169e+00 2.380488e+00 2.590277e+00 1.494961e+00 1.938631e+00 5.263181e-01
<GCONST> 9.206227e+01
<STATE> 4
<MEAN> 25
 1.104628e+01 4.841686e+00 -5.689326e+00 -9.476718e+00 -8.389582e+00 8.279243e-01 5.800862e+00 4.963179e-01 -1.970247e+00 2.233378e+00 -3.495780e+00 -1.939900e+00 -4.399273e-01 -1.738828e-01 -2.564129e-01 5.580315e-01 8.003608e-01 7.253249e-01 2.550085e-01 -2.924676e-02 -3.257982e-01 -7.400032e-01 2.401855e-01 8.777924e-01 -4.042177e-01
<VARIANCE> 25
 4.449074e+01 3.678519e+01 1.563269e+01 3.030431e+01 4.194891e+01 4.094078e+01 3.023226e+01 5.738575e+01 1.446698e+02 1.264550e+02 4.288491e+01 3.526706e+01 3.440416e-01 9.163514e-01 1.049810e+00 1.435879e+00 1.741080e+00 1.996792e+00 1.719182e+00 3.437299e+00 2.314337e+00 2.838867e+00 1.703973e+00 1.796324e+00 4.204342e-01
<GCONST> 9.596444e+01
<TRANSP> 5
 0.000000e+00 1.000000e+00 0.000000e+00 0.000000e+00 0.000000e+00
 0.000000e+00 6.760296e-01 3.239703e-01 0.000000e+00 0.000000e+00
 0.000000e+00 0.000000e+00 7.108270e-01 2.891730e-01 0.000000e+00
 0.000000e+00 0.000000e+00 0.000000e+00 5.952995e-01 4.047005e-01
 0.000000e+00 0.000000e+00 0.000000e+00 0.000000e+00 0.000000e+00
<ENDHMM>
~h "AW"
<BEGINHMM>
<NUMSTATES> 5
<STATE> 2
<MEAN> 25
 -5.696974e+00 -8.134527e+00 8.843788e+00 -7.653722e+00 -1.088756e+00 6.947554e+00 3.525544e+00 -3.761657e+00 6.120622e+00 1.023891e+00 3.624679e+00 4.139160e+00 -3.717021e+00 -1.270591e+00 1.860193e+00 -2.138357e+00 9.607857e-01 1.082369e+00 -5.745390e-01 -1.091273e+00 1.032976e+00 2.419144e-01 5.029098e-01 -1.524014e-01 1.312750e+00
<VARIANCE> 25
 5.361297e+01 2.626859e+01 2.275786e+01 5.302048e+01 1.329571e+01 4.670414e+00 1.499918e+01 4.540607e+01 5.914054e+00 3.072338e+00 1.028361e+01 4.094228e+00 2.067835e+00 3.034175e+00 1.340240e+00 2.366685e+00 1.873899e+00 8.134879e-01 1.737531e+00 2.996058e+00 5.754977e-01 7.504075e-01 2.357295e+00 7.193892e-01 9.610732e-01
<GCONST> 8.229584e+01
<STATE> 3
<MEAN> 25
 -1.252223e+01 -6.260679e+00 1.540626e+01 -1.495762e+01 1.531431e-01 6.467646e+00 2.856987e+00 -1.622069e+00 9.582910e+00 -8.669554e-02 9.906101e-01 3.729713e+00 6.102313e-01 5.477328e-01 -4.725102e-01 2.400568e-01 6.304568e-02 -7.035952e-01 -2.908501e-01 9.333645e-01 1.417106e-01 -4.738097e-01 -1.080844e-01 2.308811e-01 -9.234876e-01
<VARIANCE> 25
 2.218328e+01 1.661175e+01 2.021700e+01 4.137735e+01 1.277466e+01 2.093657e+01 6.412527e+00 1.279562e+01 8.975840e+00 2.784033e+00 4.426225e+00 4.668455e+00 3.958369e+00 1.296805e+00 2.848764e+00 3.529341e+00 7.188129e-01 1.397682e+00 1.032770e+00 1.712876e+00 1.294378e+00 8.022056e-01 1.110062e+00 3.560150e-01 1.018538e-01
<GCONST> 7.617262e+01
<STATE> 4
<MEAN> 25
 -1.163503e+01 3.067595e+00 3.017768e+00 -1.261750e+00 4.024189e+00 3.520459e+00 1.262247e+00 3.358121e+00 5.311247e+00 3.023782e+00 2.140515e+00 2.508485e+00 5.833463e-02 -2.201521e-02 -1.491980e-01 4.792266e-02 -1.540260e-01 -2.426454e-02 -7.608792e-02 -5.942576e-02 -3.565055e-02 -3.312460e-02 -8.079874e-02 -4.354854e-02 -1.766614e-01
<VARIANCE> 25
 5.920929e+00 4.765263e+00 6.076172e+00 1.184575e+01 6.889359e+00 4.018684e+00 3.770537e+00 4.567214e+00 1.060518e+01 8.705629e+00 5.436424e+00 4.318613e+00 1.116918e+00 2.228316e-01 3.899315e-01 5.107039e-01 3.681757e-01 5.349982e-01 4.997998e-01 5.598120e-01 1.079414e+00 1.075965e+00 5.430425e-01 4.111581e-01 1.128675e-01
<GCONST> 5.797738e+01
<TRANSP> 5
 0.000000e+00 1.000000e+00 0.000000e+00 0.000000e+00 0.000000e+00
 0.000000e+00 7.277439e-01 2.722561e-01 0.000000e+00 0.000000e+00
 0.000000e+00 0.000000e+00 7.512860e-01 2.487139e-01 0.000000e+00
 0.000000e+00 0.000000e+00 0.000000e+00 9.188890e-01 8.111101e-02
 0.000000e+00 0.000000e+00 0.000000e+00 0.000000e+00 0.000000e+00
<ENDHMM>
~h "AY"
<BEGINHMM>
<NUMSTATES> 5
<STATE> 2
<MEAN> 25
 8.055564e+00 1.936022e+00 -8.266605e-01 -3.998927e+00 -6.127931e+00 -1.518627e+00 2.018376e+00 2.067893e-01 1.148216e+00 3.270578e-01 -2.110582e+00 -7.225044e-01 2.980084e+00 -9.113441e-01 -1.038008e+00 -1.080400e+00 -2.934690e+00 -6.709310e-01 1.043169e+00 -2.680908e-01 9.532170e-01 7.600179e-01 -1.125533e+00 -9.315756e-01 2.758882e+00
<VARIANCE> 25
 3.884529e+01 2.403192e+01 2.715295e+01 3.667626e+01 9.123972e+01 4.434181e+01 3.284853e+01 4.331776e+01 5.080471e+01 4.884646e+01 2.712761e+01 2.098939e+01 5.638177e+00 2.569799e+00 3.556284e+00 2.178541e+00 6.466547e+00 8.800117e+00 2.683632e+00 2.756050e+00 4.561785e+00 5.726582e+00 2.594262e+00 2.851699e+00 3.734496e+00
<GCONST> 1.067614e+02
<STATE> 3
<MEAN> 25
 1.092348e+01 -7.034204e+00 -7.001401e+00 -7.392019e+00 -7.248883e+00 -1.910597e+00 5.702331e+00 2.798863e+00 5.821220e+00 3.301989e-01 -3.187927e+00 -3.242096e+00 1.813642e-02 -4.650612e-01 -4.469734e-01 7.772725e-01 7.911344e-01 -2.510364e-01 -3.359059e-01 -1.005036e+00 9.662560e-02 5.673371e-01 5.928211e-01 -2.416278e-01 2.141971e-01
<VARIANCE> 25
 1.758391e+01 3.885860e+01 1.560825e+01 1.963890e+01 3.084795e+01 1.644676e+01 2.682235e+01 4.386160e+01 1.949335e+01 6.431985e+01 3.319243e+01 1.058092e+01 7.955906e-01 9.959267e-01 7.634029e-01 2.019802e+00 1.318564e+00 2.485305e+00 2.096478e+00 2.175349e+00 1.415273e+00 2.003930e+00 2.579382e+00 7.552657e-01 4.620056e-01
<GCONST> 8.833572e+01
<STATE> 4
<MEAN> 25
 1.101069e+01 -1.231296e+00 -1.762557e+00 2.436728e+00 -1.377654e+00 -5.530154e+00 -5.098530e+00 -8.259209e+00 4.606886e-01 8.649259e+00 -8.387820e-01 -3.622962e+00 -2.939326e-01 2.193805e-01 3.704874e-01 1.059708e+00 1.436944e+00 8.870448e-02 -1.136873e+00 -4.065369e-01 -5.770062e-01 -2.202004e-01 6.701497e-01 -1.556187e-02 -4.170957e-01
<VARIANCE> 25
 1.844450e+01 2.531867e+01 2.555833e+01 2.737101e+01 5.205832e+01 2.980566e+01 4.054116e+01 2.375616e+01 4.561566e+01 6.581109e+01 3.603250e+01 1.096435e+01 1.973668e-01 8.045066e-01 1.065633e+00 1.161904e+00 1.420557e+00 2.419046e+00 1.988895e+00 2.223194e+00 1.439313e+00 1.176240e+00 1.298762e+00 1.092395e+00 2.576100e-01
<GCONST> 8.746133e+01
<TRANSP> 5
 0.000000e+00 1.000000e+00 0.000000e+00 0.000000e+00 0.000000e+00
 0.000000e+00 6.124348e-01 3.875652e-01 0.000000e+00 0.000000e+00
 0.000000e+00 0.000000e+00 7.947584e-01 2.052416e-01 0.000000e+00
 0.000000e+00 0.000000e+00 0.000000e+00 8.396071e-01 1.603929e-01
 0.000000e+00 0.000000e+00 0.000000e+00 0.000000e+00 0.000000e+00
<ENDHMM>
~h "CH"
<BEGINHMM>
<NUMSTATES> 5
<STATE> 2
<MEAN> 25
 -2.480313e+00 -1.671378e+01 9.818652e-02 1.039762e+01 5.197746e-01 7.462575e-02 -4.609717e+00 -5.465410e+00 6.278518e+00 3.201579e+00 -3.311107e+00 4.743510e-01 1.680052e-01 -5.301293e-01 2.987689e-02 3.578126e-03 -8.368299e-02 3.249643e-01 1.604735e-01 -4.353824e-01 -2.284853e-01 3.399971e-01 3.933563e-01 5.938548e-02 3.234466e-01
<VARIANCE> 25
 2.160683e+01 1.579409e+02 2.140789e+01 1.918552e+01 5.632785e+01 2.222567e+01 1.898403e+01 5.036717e+01 3.975352e+01 3.409168e+01 1.406309e+01 1.239181e+01 3.264065e+00 1.564821e+01 4.613428e+00 1.864249e+00 4.952747e+00 2.024517e+00 1.868425e+00 4.149709e+00 6.119063e+00 3.841124e+00 1.674794e+00 1.783915e+00 3.927257e+00
<GCONST> 1.025260e+02
<STATE> 3
<MEAN> 25
 -4.295196e+00 -1.416047e+01 1.063475e+01 5.172259e+00 -2.216316e+00 -8.391465e-01 -9.031475e-01 2.677543e-01 1.012593e+00 -2.584244e+00 3.211291e+00 1.399330e+00 -2.454158e+00 -2.467351e+00 2.039695e+00 -7.239631e-01 -1.136980e-01 -1.823384e-02 6.899245e-01 1.313833e+00 9.139886e-01 2.695437e-02 7.665707e-01 9.011849e-01 1.388130e+00
<VARIANCE> 25
 3.986135e+01 5.928060e+01 1.027298e+02 2.804420e+01 5.187489e+01 1.569317e+01 6.303624e+01 6.400455e+01 3.222908e+01 2.400591e+01 1.951130e+01 8.279692e+00 3.387181e+00 9.998624e+00 7.078924e+00 2.029617e+00 3.960161e+00 1.444401e+00 4.570236e+00 3.039067e+00 3.180130e+00 2.196559e+00 8.138188e-01 9.254978e-01 2.522267e+00
<GCONST> 1.015692e+02
<STATE> 4
<MEAN> 25
 -7.553298e+00 -1.376828e+01 7.309023e+00 2.527997e+00 -5.307660e-01 -2.921681e+00 -1.257131e+00 3.342617e+00 4.497484e+00 -6.584545e-01 1.882284e+00 3.158132e+00 9.428998e-01 1.130121e+00 -1.154618e+00 -1.237974e-02 3.396767e-02 9.642203e-02 -2.557798e-01 -8.340973e-02 -2.044532e-01 -3.355519e-02 -3.236793e-01 -1.820671e-01 -8.779093e-01
<VARIANCE> 25
 4.395770e+01 1.256265e+02 6.510014e+01 1.352518e+01 4.596826e+01 2.823603e+01 3.965606e+01 2.277204e+01 2.929424e+01 1.428475e+01 2.340236e+01 9.006045e+00 3.009080e+00 3.861368e+00 2.351076e+00 1.868388e+00 1.567929e+00 2.116884e+00 2.912719e+00 2.582426e+00 2.131410e+00 1.574262e+00 1.504167e+00 8.928030e-01 1.531342e+00
<GCONST> 9.578728e+01
<TRANSP> 5
 0.000000e+00 1.000000e+00 0.000000e+00 0.000000e+00 0.000000e+00
 0.000000e+00 8.251222e-01 1.748778e-01 0.000000e+00 0.000000e+00
 0.000000e+00 0.000000e+00 7.513448e-01 2.486552e-01 0.000000e+00
 0.000000e+00 0.000000e+00 0.000000e+00 8.971084e-01 1.028915e-01
 0.000000e+00 0.000000e+00 0.000000e+00 0.000000e+00 0.000000e+00
<ENDHMM>
~h "DH"
<BEGINHMM>
<NUMSTATES> 5
<STATE> 2
<MEAN> 25
 -6.513002e+00 1.182900e+00 -4.877977e-01 -2.066509e+00 1.205081e+00 4.480838e+00 7.467721e-01 2.704578e+00 3.557032e+00 2.536408e+00 7.235862e-01 1.860177e+00 4.463230e-02 3.569707e-02 -7.859927e-02 7.639327e-02 -1.979925e-01 1.577207e-01 7.839697e-02 1.525408e-01 2.306938e-02 -5.333428e-02 1.449343e-01 1.100840e-01 -1.263833e-01
<VARIANCE> 25
 4.555120e+01 2.582304e+01 5.543642e+01 2.427331e+01 2.672997e+01 3.428046e+01 2.171330e+01 3.262782e+01 2.925431e+01 1.984196e+01 1.516566e+01 1.163042e+01 1.023457e+00 9.487128e-01 1.417945e+00 1.016662e+00 1.477552e+00 1.955443e+00 1.293686e+00 1.741486e+00 1.408625e+00 1.569025e+00 1.140756e+00 9.394387e-01 8.658115e-01
<GCONST> 8.806928e+01
<STATE> 3
<MEAN> 25
 -5.942985e-01 4.156880e+00 5.264891e+00 7.619856e-01 3.799234e+00 3.708198e+00 6.264523e-02 -1.726433e+00 6.618167e-01 -1.010316e+00 3.664216e-01 1.721645e+00 9.312525e-01 4.106745e-02 1.009738e+00 -3.227378e-02 -7.784522e-02 -8.652443e-01 -1.050937e+00 -1.144266e+00 -5.829419e-01 -4.870751e-01 -4.115183e-01 -1.369218e-01 1.155877e+00
<VARIANCE> 25
 2.909283e+01 2.739697e+01 4.413729e+01 3.423022e+01 5.731306e+01 4.066938e+01 2.926339e+01 5.170682e+01 2.102544e+01 2.624532e+01 1.808518e+01 1.174372e+01 4.354723e+00 2.978712e+00 3.392518e+00 3.243524e+00 3.007865e+00 4.565436e+00 4.115707e+00 6.093099e+00 3.552028e+00 3.010265e+00 2.721287e+00 1.599899e+00 1.498067e+00
<GCONST> 1.017433e+02
<STATE> 4
<MEAN> 25
 3.966680e+00 -1.194449e+00 1.053339e+01 7.544413e+00 3.841237e+00 -2.611719e+00 -1.048549e+01 -8.946600e+00 -8.430523e-01 3.183328e+00 -6.529204e+00 -6.220886e+00 8.299503e-01 -8.340028e-02 -7.482502e-01 5.338099e-01 -1.170297e-01 -6.765451e-01 -5.137490e-01 -5.715779e-01 -4.857507e-01 -5.051727e-02 -5.779595e-01 -7.352812e-01 3.463181e-01
<VARIANCE> 25
 1.315696e+01 2.632723e+01 4.546387e+01 6.687234e+01 6.087898e+01 4.891389e+01 4.790128e+01 3.668906e+01 2.970043e+01 3.748813e+01 2.115273e+01 6.860818e+01 2.944798e+00 1.958678e+00 2.338024e+00 4.194719e+00 2.648646e+00 4.998031e+00 5.709623e+00 3.450996e+00 2.833725e+00 4.592161e+00 2.875522e+00 3.108618e+00 1.889531e+00
<GCONST> 1.045721e+02
<TRANSP> 5
 0.000000e+00 1.000000e+00 0.000000e+00 0.000000e+00 0.000000e+00
 0.000000e+00 9.127937e-01 8.720629e-02 0.000000e+00 0.000000e+00
 0.000000e+00 0.000000e+00 7.248060e-01 2.751940e-01 0.000000e+00
 0.000000e+00 0.000000e+00 0.000000e+00 6.878793e-01 3.121207e-01
 0.000000e+00 0.000000e+00 0.000000e+00 0.000000e+00 0.000000e+00
<ENDHMM>
~h "EA"
<BEGINHMM>
<NUMSTATES> 5
<STATE> 2
<MEAN> 25
 1.075846e-07 -7.216663e-09 -4.605741e-08 -4.951859e-08 -6.799529e-08 -1.392151e-08 -3.897510e-08 2.646110e-08 4.631972e-08 7.958802e-09 -2.974954e-08 2.518155e-08 -4.860638e-04 8.153617e-03 4.905981e-03 4.193924e-03 1.800585e-03 6.714790e-03 3.175257e-03 4.129817e-03 -1.605180e-03 -3.525185e-03 3.068766e-04 1.045863e-03 -9.411350e-03
<VARIANCE> 25
 8.362540e+01 6.506919e+01 6.022692e+01 5.937751e+01 5.605918e+01 6.612122e+01 5.843021e+01 6.047647e+01 5.068079e+01 3.617085e+01 3.064270e+01 2.652356e+01 2.619987e+00 3.038342e+00 2.477234e+00 2.576151e+00 2.849354e+00 3.578285e+00 2.923781e+00 2.949938e+00 2.840692e+00 2.177858e+00 2.038671e+00 1.752875e+00 1.698887e+00
<GCONST> 1.053634e+02
<STATE> 3
<MEAN> 25
 1.075846e-07 -7.216663e-09 -4.605741e-08 -4.951859e-08 -6.799529e-08 -1.392151e-08 -3.897510e-08 2.646110e-08 4.631972e-08 7.958802e-09 -2.974954e-08 2.518155e-08 -4.860638e-04 8.153617e-03 4.905981e-03 4.193924e-03 1.800585e-03 6.714790e-03 3.175257e-03 4.129817e-03 -1.605180e-03 -3.525185e-03 3.068766e-04 1.045863e-03 -9.411350e-03
<VARIANCE> 25
 8.362540e+01 6.506919e+01 6.022692e+01 5.937751e+01 5.605918e+01 6.612122e+01 5.843021e+01 6.047647e+01 5.068079e+01 3.617085e+01 3.064270e+01 2.652356e+01 2.619987e+00 3.038342e+00 2.477234e+00 2.576151e+00 2.849354e+00 3.578285e+00 2.923781e+00 2.949938e+00 2.840692e+00 2.177858e+00 2.038671e+00 1.752875e+00 1.698887e+00
<GCONST> 1.053634e+02
<STATE> 4
<MEAN> 25
 1.075846e-07 -7.216663e-09 -4.605741e-08 -4.951859e-08 -6.799529e-08 -1.392151e-08 -3.897510e-08 2.646110e-08 4.631972e-08 7.958802e-09 -2.974954e-08 2.518155e-08 -4.860638e-04 8.153617e-03 4.905981e-03 4.193924e-03 1.800585e-03 6.714790e-03 3.175257e-03 4.129817e-03 -1.605180e-03 -3.525185e-03 3.068766e-04 1.045863e-03 -9.411350e-03
<VARIANCE> 25
 8.362540e+01 6.506919e+01 6.022692e+01 5.937751e+01 5.605918e+01 6.612122e+01 5.843021e+01 6.047647e+01 5.068079e+01 3.617085e+01 3.064270e+01 2.652356e+01 2.619987e+00 3.038342e+00 2.477234e+00 2.576151e+00 2.849354e+00 3.578285e+00 2.923781e+00 2.949938e+00 2.840692e+00 2.177858e+00 2.038671e+00 1.752875e+00 1.698887e+00
<GCONST> 1.053634e+02
<TRANSP> 5
 0.000000e+00 1.000000e+00 0.000000e+00 0.000000e+00 0.000000e+00
 0.000000e+00 6.000000e-01 4.000000e-01 0.000000e+00 0.000000e+00
 0.000000e+00 0.000000e+00 6.000000e-01 4.000000e-01 0.000000e+00
 0.000000e+00 0.000000e+00 0.000000e+00 7.000000e-01 3.000000e-01
 0.000000e+00 0.000000e+00 0.000000e+00 0.000000e+00 0.000000e+00
<ENDHMM>
~h "EH"
<BEGINHMM>
<NUMSTATES> 5
<STATE> 2
<MEAN> 25
 2.098148e-01 -5.251225e+00 6.323628e-01 3.838313e-01 -2.370920e+00 -1.973616e+00 -1.157223e+00 -1.109144e+00 2.051419e+00 2.171324e+00 -1.923932e-01 -3.734186e-01 1.461008e+00 -5.088300e-02 -3.684559e-01 -7.412664e-03 -3.189653e-01 -4.189681e-01 -6.957314e-01 -9.811475e-01 -3.073170e-01 6.224275e-01 -6.707694e-02 7.216564e-02 1.082452e+00
<VARIANCE> 25
 5.024379e+01 8.394715e+01 5.261162e+01 4.937457e+01 4.901679e+01 3.504639e+01 3.560506e+01 5.861306e+01 3.579734e+01 5.148464e+01 2.290239e+01 2.482552e+01 4.535237e+00 7.813595e+00 6.498818e+00 4.525525e+00 5.104286e+00 4.739664e+00 3.700857e+00 3.774446e+00 3.065434e+00 3.874905e+00 2.151305e+00 2.298679e+00 2.975110e+00
<GCONST> 1.090463e+02
<STATE> 3
<MEAN> 25
 7.443216e+00 -2.725494e+00 -3.777374e+00 4.545106e-01 1.344338e-01 -3.509250e+00 -4.224506e+00 -4.897087e+00 -4.029867e-01 3.914503e+00 1.096903e+00 2.355758e-01 1.671650e+00 1.027553e+00 1.239274e-02 2.454056e-01 3.332108e-01 -3.751741e-01 -1.277158e-01 -5.551683e-01 -1.336095e+00 -1.492781e-01 -4.801132e-02 -7.829673e-01 8.601997e-01
<VARIANCE> 25
 2.566232e+01 3.861113e+01 2.590490e+01 2.787371e+01 3.070835e+01 3.171250e+01 3.382062e+01 3.213402e+01 3.381040e+01 3.637163e+01 2.131352e+01 1.966128e+01 1.924404e+00 3.904512e+00 2.382322e+00 2.075823e+00 2.484143e+00 3.124158e+00 1.612691e+00 3.603824e+00 3.717814e+00 2.335630e+00 2.031467e+00 1.938503e+00 9.023101e-01
<GCONST> 9.730585e+01
<STATE> 4
<MEAN> 25
 1.110096e+01 -1.652600e+00 -2.592071e+00 -2.509448e-02 -9.530948e-01 -4.803763e+00 -4.632331e+00 -6.039687e+00 -5.230623e+00 3.359250e+00 1.635592e+00 -1.247314e+00 5.414926e-02 4.399360e-01 -2.435623e-01 3.263186e-01 1.983645e-01 -4.465809e-03 3.418491e-01 -1.697782e-02 -8.146959e-01 -7.152281e-01 3.092937e-01 2.980221e-01 -2.797449e-01
<VARIANCE> 25
 1.121488e+01 3.057704e+01 3.351016e+01 2.192270e+01 3.730965e+01 3.518306e+01 4.454445e+01 4.670319e+01 3.229283e+01 4.024252e+01 3.315269e+01 1.779374e+01 8.180469e-01 8.497239e-01 1.727678e+00 1.814738e+00 1.603335e+00 2.482748e+00 2.194513e+00 1.919783e+00 2.664643e+00 1.928766e+00 1.275260e+00 1.543723e+00 9.181250e-01
<GCONST> 9.258118e+01
<TRANSP> 5
 0.000000e+00 1.000000e+00 0.000000e+00 0.000000e+00 0.000000e+00
 0.000000e+00 6.746230e-01 3.253770e-01 0.000000e+00 0.000000e+00
 0.000000e+00 0.000000e+00 5.196711e-01 4.803289e-01 0.000000e+00
 0.000000e+00 0.000000e+00 0.000000e+00 6.762905e-01 3.237095e-01
 0.000000e+00 0.000000e+00 0.000000e+00 0.000000e+00 0.000000e+00
<ENDHMM>
~h "EN"
<BEGINHMM>
<NUMSTATES> 5
<STATE> 2
<MEAN> 25
 1.075846e-07 -7.216663e-09 -4.605741e-08 -4.951859e-08 -6.799529e-08 -1.392151e-08 -3.897510e-08 2.646110e-08 4.631972e-08 7.958802e-09 -2.974954e-08 2.518155e-08 -4.860638e-04 8.153617e-03 4.905981e-03 4.193924e-03 1.800585e-03 6.714790e-03 3.175257e-03 4.129817e-03 -1.605180e-03 -3.525185e-03 3.068766e-04 1.045863e-03 -9.411350e-03
<VARIANCE> 25
 8.362540e+01 6.506919e+01 6.022692e+01 5.937751e+01 5.605918e+01 6.612122e+01 5.843021e+01 6.047647e+01 5.068079e+01 3.617085e+01 3.064270e+01 2.652356e+01 2.619987e+00 3.038342e+00 2.477234e+00 2.576151e+00 2.849354e+00 3.578285e+00 2.923781e+00 2.949938e+00 2.840692e+00 2.177858e+00 2.038671e+00 1.752875e+00 1.698887e+00
<GCONST> 1.053634e+02
<STATE> 3
<MEAN> 25
 1.075846e-07 -7.216663e-09 -4.605741e-08 -4.951859e-08 -6.799529e-08 -1.392151e-08 -3.897510e-08 2.646110e-08 4.631972e-08 7.958802e-09 -2.974954e-08 2.518155e-08 -4.860638e-04 8.153617e-03 4.905981e-03 4.193924e-03 1.800585e-03 6.714790e-03 3.175257e-03 4.129817e-03 -1.605180e-03 -3.525185e-03 3.068766e-04 1.045863e-03 -9.411350e-03
<VARIANCE> 25
 8.362540e+01 6.506919e+01 6.022692e+01 5.937751e+01 5.605918e+01 6.612122e+01 5.843021e+01 6.047647e+01 5.068079e+01 3.617085e+01 3.064270e+01 2.652356e+01 2.619987e+00 3.038342e+00 2.477234e+00 2.576151e+00 2.849354e+00 3.578285e+00 2.923781e+00 2.949938e+00 2.840692e+00 2.177858e+00 2.038671e+00 1.752875e+00 1.698887e+00
<GCONST> 1.053634e+02
<STATE> 4
<MEAN> 25
 1.075846e-07 -7.216663e-09 -4.605741e-08 -4.951859e-08 -6.799529e-08 -1.392151e-08 -3.897510e-08 2.646110e-08 4.631972e-08 7.958802e-09 -2.974954e-08 2.518155e-08 -4.860638e-04 8.153617e-03 4.905981e-03 4.193924e-03 1.800585e-03 6.714790e-03 3.175257e-03 4.129817e-03 -1.605180e-03 -3.525185e-03 3.068766e-04 1.045863e-03 -9.411350e-03
<VARIANCE> 25
 8.362540e+01 6.506919e+01 6.022692e+01 5.937751e+01 5.605918e+01 6.612122e+01 5.843021e+01 6.047647e+01 5.068079e+01 3.617085e+01 3.064270e+01 2.652356e+01 2.619987e+00 3.038342e+00 2.477234e+00 2.576151e+00 2.849354e+00 3.578285e+00 2.923781e+00 2.949938e+00 2.840692e+00 2.177858e+00 2.038671e+00 1.752875e+00 1.698887e+00
<GCONST> 1.053634e+02
<TRANSP> 5
 0.000000e+00 1.000000e+00 0.000000e+00 0.000000e+00 0.000000e+00
 0.000000e+00 6.000000e-01 4.000000e-01 0.000000e+00 0.000000e+00
 0.000000e+00 0.000000e+00 6.000000e-01 4.000000e-01 0.000000e+00
 0.000000e+00 0.000000e+00 0.000000e+00 7.000000e-01 3.000000e-01
 0.000000e+00 0.000000e+00 0.000000e+00 0.000000e+00 0.000000e+00
<ENDHMM>
~h "ER"
<BEGINHMM>
<NUMSTATES> 5
<STATE> 2
<MEAN> 25
 1.023718e+01 -1.469191e+00 -6.642050e+00 1.027849e+00 2.249724e+00 -2.038227e+00 -3.564808e+00 -9.849007e+00 -7.466023e+00 3.220330e+00 6.486736e+00 -3.825589e-01 5.231364e-01 9.532239e-01 -6.899297e-01 -7.644050e-01 1.691059e-01 8.685222e-01 3.509490e-01 -6.853521e-01 -9.212734e-01 -8.176580e-02 7.779406e-01 3.873665e-02 -1.262953e-01
<VARIANCE> 25
 1.783563e+01 4.627919e+01 3.871898e+01 3.425654e+01 2.770645e+01 3.173226e+01 4.083174e+01 3.248957e+01 3.357069e+01 3.705087e+01 4.340446e+01 1.908887e+01 2.003779e+00 2.914753e+00 1.860305e+00 1.857254e+00 1.723877e+00 1.917615e+00 1.448822e+00 2.355387e+00 3.043221e+00 1.935763e+00 1.652787e+00 1.010861e+00 7.632584e-01
<GCONST> 9.511233e+01
<STATE> 3
<MEAN> 25
 1.094894e+01 5.921339e+00 -4.275280e+00 -4.170497e+00 1.682257e+00 4.683041e+00 -8.000562e-01 -6.997622e+00 -1.206469e+01 -4.437945e+00 4.475192e+00 3.283701e+00 -3.544193e-01 4.693036e-01 1.247510e-01 2.110590e-01 2.350313e-01 4.497926e-01 1.815323e-01 2.736425e-01 4.014505e-01 -1.987955e-01 -3.103178e-01 -7.967377e-02 -5.518429e-01
<VARIANCE> 25
 1.558247e+01 2.294069e+01 2.171096e+01 5.626489e+01 4.496591e+01 2.959015e+01 6.442129e+01 3.448526e+01 5.336650e+01 3.590482e+01 3.939831e+01 2.644763e+01 6.850981e-01 8.952922e-01 1.030913e+00 1.631660e+00 1.303560e+00 1.497211e+00 1.923462e+00 1.318843e+00 2.441176e+00 1.278408e+00 1.218887e+00 1.488086e+00 6.267179e-01
<GCONST> 9.123723e+01
<STATE> 4
<MEAN> 25
 -3.430475e+00 4.315535e+00 -4.072168e+00 9.993780e-01 1.226309e+00 6.128573e+00 8.560550e-01 4.094495e+00 2.594175e-01 8.080047e-01 1.184263e+00 1.643257e+00 -2.651833e-01 -5.503157e-02 1.114832e-01 9.122822e-02 -7.283370e-02 -5.097724e-02 6.200477e-03 2.880117e-01 2.231779e-01 1.707885e-02 -1.221822e-01 -2.960027e-02 -2.325375e-01
<VARIANCE> 25
 2.554849e+01 1.953665e+01 1.952588e+01 1.759727e+01 2.222583e+01 1.416628e+01 1.319213e+01 3.671890e+01 2.065582e+01 1.875047e+01 1.857510e+01 1.170623e+01 5.716847e-01 6.698869e-01 7.039089e-01 9.594988e-01 1.119859e+00 9.875450e-01 1.019709e+00 1.357215e+00 1.229820e+00 9.636567e-01 1.126288e+00 8.489658e-01 5.320112e-01
<GCONST> 7.984280e+01
<TRANSP> 5
 0.000000e+00 1.000000e+00 0.000000e+00 0.000000e+00 0.000000e+00
 0.000000e+00 7.256580e-01 2.743420e-01 0.000000e+00 0.000000e+00
 0.000000e+00 0.000000e+00 7.756795e-01 2.243205e-01 0.000000e+00
 0.000000e+00 0.000000e+00 0.000000e+00 9.379756e-01 6.202442e-02
 0.000000e+00 0.000000e+00 0.000000e+00 0.000000e+00 0.000000e+00
<ENDHMM>
~h "EY"
<BEGINHMM>
<NUMSTATES> 5
<STATE> 2
<MEAN> 25
 6.152947e+00 2.336588e-01 9.600017e-01 5.745912e+00 2.114316e+00 -2.330502e+00 -6.874125e+00 -5.570515e+00 -1.725419e+00 1.039560e+00 -6.442274e-01 -2.382619e+00 1.080778e+00 3.748903e-01 -1.514952e-01 1.350819e+00 8.139464e-01 -1.533407e+00 -1.535824e+00 -5.677863e-01 5.232799e-02 3.307445e-01 -4.267823e-01 -1.118620e+00 5.575521e-01
<VARIANCE> 25
 3.070172e+01 4.239779e+01 3.455227e+01 3.219777e+01 2.471423e+01 3.676291e+01 5.866745e+01 6.209295e+01 6.523440e+01 2.933471e+01 2.955432e+01 2.153353e+01 4.495465e+00 5.976672e+00 2.899974e+00 4.274059e+00 3.521797e+00 2.845485e+00 4.824477e+00 5.829775e+00 4.520917e+00 2.388895e+00 3.148178e+00 3.138796e+00 1.111511e+00
<GCONST> 1.053832e+02
<STATE> 3
<MEAN> 25
 8.677021e+00 -8.700964e-01 -1.635315e+00 9.962416e+00 4.931236e+00 -8.083201e+00 -1.037479e+01 -8.827063e+00 -4.564583e+00 5.457380e-01 -1.619324e+00 -5.299045e+00 -3.136315e-01 -9.913455e-02 5.758769e-01 1.008401e+00 4.641280e-01 -6.831572e-01 -7.599292e-01 2.043700e-01 7.036707e-01 2.621065e-02 -8.831046e-01 -8.637805e-01 -1.516612e-01
<VARIANCE> 25
 2.002477e+01 2.557888e+01 1.783647e+01 3.023615e+01 2.319988e+01 5.271758e+01 5.680210e+01 4.513944e+01 3.723619e+01 1.437358e+01 2.405647e+01 2.262276e+01 7.814479e-01 9.482456e-01 1.628632e+00 1.413435e+00 8.243382e-01 1.003905e+00 1.718696e+00 2.334140e+00 1.720305e+00 1.880843e+00 2.136819e+00 1.905622e+00 4.517385e-01
<GCONST> 8.953404e+01
<STATE> 4
<MEAN> 25
 7.310978e+00 4.431538e-01 1.644034e+00 1.166685e+01 5.702903e+00 -7.614586e+00 -1.271779e+01 -5.621019e+00 2.949834e-01 6.631174e-01 -4.201892e+00 -5.650140e+00 -7.001332e-01 7.576123e-01 6.279798e-02 -5.124136e-01 2.437498e-01 1.314022e+00 1.052891e+00 7.482868e-02 -4.126003e-01 -3.291082e-01 1.880837e-01 3.639222e-01 -9.033145e-01
<VARIANCE> 25
 1.360506e+01 2.206564e+01 3.408172e+01 3.582002e+01 2.714471e+01 3.833186e+01 6.635995e+01 4.792059e+01 5.310463e+01 2.513747e+01 4.011237e+01 2.589918e+01 5.829077e-01 7.669522e-01 1.574737e+00 1.872754e+00 2.059276e+00 1.416403e+00 2.885727e+00 1.825942e+00 2.190711e+00 1.914703e+00 2.263132e+00 1.814104e+00 4.355471e-01
<GCONST> 9.293704e+01
<TRANSP> 5
 0.000000e+00 1.000000e+00 0.000000e+00 0.000000e+00 0.000000e+00
 0.000000e+00 5.860716e-01 4.139284e-01 0.000000e+00 0.000000e+00
 0.000000e+00 0.000000e+00 5.311895e-01 4.688105e-01 0.000000e+00
 0.000000e+00 0.000000e+00 0.000000e+00 7.287816e-01 2.712183e-01
 0.000000e+00 0.000000e+00 0.000000e+00 0.000000e+00 0.000000e+00
<ENDHMM>
~h "HH"
<BEGINHMM>
<NUMSTATES> 5
<STATE> 2
<MEAN> 25
 -4.392523e+00 6.559871e-01 -4.356794e+00 -1.189086e+00 -1.431844e+00 3.765624e+00 1.852132e+00 4.684566e+00 3.720919e+00 1.059852e+00 2.367676e-01 1.428251e+00 -4.020585e-02 -1.496091e-01 -1.590987e-01 -6.951080e-02 4.553511e-02 1.819690e-01 1.092663e-01 1.569861e-01 2.582871e-01 7.263157e-02 -3.343686e-02 3.635316e-02 -4.036585e-02
<VARIANCE> 25
 4.205263e+01 3.966275e+01 2.542373e+01 1.939805e+01 3.301788e+01 2.899817e+01 2.318367e+01 1.711064e+01 3.788902e+01 2.684596e+01 1.743190e+01 1.974259e+01 3.211510e-01 5.746487e-01 6.880032e-01 7.264364e-01 8.087151e-01 1.178600e+00 1.315552e+00 1.473213e+00 1.520491e+00 1.290400e+00 1.201176e+00 1.055772e+00 3.534996e-01
<GCONST> 8.328241e+01
<STATE> 3
<MEAN> 25
 4.080442e+00 -7.535594e+00 -5.336967e+00 -2.697132e+00 -4.591010e+00 -1.766122e+00 3.166565e+00 1.132720e+00 5.728280e+00 1.340516e+00 4.940858e-01 -1.550788e+00 5.480366e-01 8.657854e-01 2.393757e-02 2.603186e-01 -2.627860e-01 -1.991339e-01 -2.002275e-01 -6.642773e-01 -4.670859e-01 -3.264694e-01 -3.375242e-01 2.021101e-01 -1.488128e-01
<VARIANCE> 25
 6.589227e+01 8.972357e+01 4.630138e+01 3.777027e+01 6.863577e+01 3.041429e+01 5.429622e+01 3.420485e+01 3.943066e+01 6.145446e+01 1.580162e+01 2.111954e+01 1.247153e+00 1.816712e+00 2.574394e+00 1.241124e+00 2.691307e+00 1.893910e+00 1.861993e+00 3.215624e+00 1.827540e+00 1.687483e+00 1.226408e+00 7.223061e-01 1.491670e+00
<GCONST> 9.767483e+01
<STATE> 4
<MEAN> 25
 -2.122521e+00 -4.801763e+00 -1.675725e+00 -2.077324e+00 -4.539869e+00 -1.071695e+00 8.423003e-01 3.501740e+00 2.196064e+00 -1.401763e+00 1.747626e+00 1.874204e+00 1.379023e-01 -1.165667e-02 3.846672e-02 1.111143e-01 4.844882e-02 1.597939e-02 -2.076263e-01 -1.686513e-03 3.313627e-02 7.449488e-02 7.838330e-02 -3.508724e-02 3.931579e-02
<VARIANCE> 25
 6.737133e+01 1.318756e+02 9.668842e+01 1.140041e+02 6.449894e+01 6.733374e+01 5.819396e+01 6.129252e+01 6.229932e+01 5.418686e+01 4.819181e+01 2.580301e+01 2.592990e+00 4.681281e+00 4.240676e+00 4.502709e+00 6.345662e+00 4.427814e+00 3.351037e+00 3.818430e+00 3.105440e+00 3.076270e+00 3.207141e+00 2.134655e+00 1.722470e+00
<GCONST> 1.122074e+02
<TRANSP> 5
 0.000000e+00 1.000000e+00 0.000000e+00 0.000000e+00 0.000000e+00
 0.000000e+00 9.088219e-01 9.117805e-02 0.000000e+00 0.000000e+00
 0.000000e+00 0.000000e+00 6.333472e-01 3.666528e-01 0.000000e+00
 0.000000e+00 0.000000e+00 0.000000e+00 9.093273e-01 9.067267e-02
 0.000000e+00 0.000000e+00 0.000000e+00 0.000000e+00 0.000000e+00
<ENDHMM>
~h "IH"
<BEGINHMM>
<NUMSTATES> 5
<STATE> 2
<MEAN> 25
 2.307191e+00 -6.496292e-01 2.193055e+00 1.848381e+00 -4.818000e-01 -2.722011e+00 -2.707053e+00 -1.893792e+00 -5.024163e-01 -2.568250e+00 -1.499841e+00 -1.044977e-01 2.058595e+00 5.082377e-01 5.708153e-01 9.483905e-01 7.412689e-01 -1.331655e+00 -1.862098e+00 -2.083840e+00 -1.000425e+00 5.939619e-01 -1.931189e-01 -2.621196e-01 1.565051e+00
<VARIANCE> 25
 5.720127e+01 5.757586e+01 5.756414e+01 5.153296e+01 4.094222e+01 5.986522e+01 5.011126e+01 5.596709e+01 4.253187e+01 3.073321e+01 3.153140e+01 1.904768e+01 5.554118e+00 8.102016e+00 4.821976e+00 4.432932e+00 3.583351e+00 7.449550e+00 5.079819e+00 5.085334e+00 5.209049e+00 3.088595e+00 3.292233e+00 2.820940e+00 5.755225e+00
<GCONST> 1.115204e+02
<STATE> 3
<MEAN> 25
 6.762298e+00 5.190648e-01 3.251183e+00 4.534726e+00 1.156541e+00 -7.898735e+00 -5.790008e+00 -6.039660e+00 -4.182316e+00 1.825581e-01 -3.429028e+00 -2.194684e+00 5.951813e-01 -3.894439e-01 -7.885279e-02 2.951803e-01 4.177860e-01 -4.284329e-01 -5.569258e-01 -7.850695e-01 -5.397539e-01 5.605212e-01 4.287580e-02 -4.211686e-01 8.484514e-01
<VARIANCE> 25
 1.717543e+01 6.471187e+01 3.750424e+01 5.638183e+01 3.829557e+01 7.005328e+01 3.960277e+01 5.985073e+01 3.006021e+01 4.027436e+01 3.649661e+01 2.716731e+01 2.284384e+00 4.888351e+00 2.547486e+00 3.905398e+00 3.475366e+00 5.713254e+00 3.948446e+00 4.633487e+00 3.472697e+00 4.356511e+00 3.592530e+00 3.338840e+00 4.193429e+00
<GCONST> 1.075206e+02
<STATE> 4
<MEAN> 25
 7.250173e+00 -2.797215e+00 2.174569e+00 5.228624e+00 3.726587e+00 -7.470513e+00 -7.852808e+00 -9.747746e+00 -3.252217e+00 2.215754e+00 -2.168094e+00 -2.778590e+00 -4.955755e-01 3.626722e-01 2.969321e-01 -4.269093e-01 4.009536e-01 9.491541e-01 5.802006e-01 1.403545e-01 1.309267e-01 -1.996381e-01 1.644602e-01 3.017461e-01 -4.092103e-01
<VARIANCE> 25
 2.095157e+01 4.360056e+01 2.546874e+01 4.404821e+01 4.454210e+01 5.949706e+01 4.344068e+01 4.341573e+01 4.204191e+01 3.089380e+01 2.464845e+01 2.487275e+01 1.447994e+00 1.861688e+00 2.010689e+00 3.116266e+00 2.550406e+00 3.886828e+00 2.936674e+00 1.980691e+00 2.574417e+00 2.130316e+00 1.640569e+00 1.383134e+00 9.223121e-01
<GCONST> 9.812100e+01
<TRANSP> 5
 0.000000e+00 1.000000e+00 0.000000e+00 0.000000e+00 0.000000e+00
 0.000000e+00 4.763396e-01 5.236604e-01 0.000000e+00 0.000000e+00
 0.000000e+00 0.000000e+00 6.239941e-01 3.760060e-01 0.000000e+00
 0.000000e+00 0.000000e+00 0.000000e+00 6.697872e-01 3.302127e-01
 0.000000e+00 0.000000e+00 0.000000e+00 0.000000e+00 0.000000e+00
<ENDHMM>
~h "IY"
<BEGINHMM>
<NUMSTATES> 5
<STATE> 2
<MEAN> 25
 6.620290e-01 -2.273142e-02 2.327872e+00 1.919367e+00 2.466749e+00 -1.975942e+00 -1.279256e+00 -1.602114e+00 -3.322019e+00 -2.608444e+00 3.674716e-01 -1.528013e+00 8.880571e-01 -2.201377e-01 6.972136e-01 1.541098e+00 9.043682e-01 -1.274686e+00 -1.289768e+00 -7.241528e-01 -7.464475e-01 6.023395e-01 -4.300359e-01 -1.017797e+00 8.138713e-01
<VARIANCE> 25
 7.941648e+01 8.793617e+01 8.844099e+01 4.163854e+01 5.377041e+01 5.883022e+01 3.653536e+01 1.013913e+02 7.349255e+01 3.320530e+01 3.662019e+01 3.237011e+01 5.822917e+00 5.072849e+00 4.976976e+00 5.565221e+00 5.008901e+00 6.238370e+00 7.490958e+00 6.405415e+00 7.629980e+00 3.277345e+00 4.228789e+00 4.672663e+00 3.359176e+00
<GCONST> 1.155983e+02
<STATE> 3
<MEAN> 25
 6.114949e+00 -1.467087e+00 3.510844e+00 9.429625e+00 8.470812e+00 -8.612452e+00 -8.905217e+00 -8.129807e+00 -5.514942e+00 3.398755e+00 -3.955057e-01 -8.035401e+00 -1.822069e-01 -6.171157e-01 1.450602e+00 1.999916e+00 -3.338414e-02 -2.200309e+00 -1.494596e+00 6.277056e-01 9.920268e-01 3.015832e-01 -1.552300e+00 -1.490169e+00 4.567598e-01
<VARIANCE> 25
 1.797878e+01 2.309609e+01 4.678318e+01 4.201441e+01 5.006934e+01 7.383019e+01 3.852419e+01 6.417895e+01 6.628426e+01 4.073931e+01 3.324035e+01 3.655235e+01 1.743255e+00 2.263693e+00 2.168013e+00 2.326567e+00 1.976365e+00 4.496134e+00 2.467757e+00 3.772169e+00 4.292969e+00 3.561617e+00 2.737180e+00 2.420921e+00 1.063592e+00
<GCONST> 1.026774e+02
<STATE> 4
<MEAN> 25
 4.845200e+00 -1.748904e+00 8.479563e+00 1.235253e+01 5.238506e+00 -1.407624e+01 -1.052697e+01 -5.016282e+00 -2.045020e+00 1.574131e+00 -6.171079e+00 -8.739743e+00 -1.845746e-01 4.045044e-01 -3.269841e-01 -5.366254e-01 2.546540e-02 7.738996e-01 2.436387e-01 2.603873e-02 2.756319e-01 -1.884190e-01 1.383461e-01 4.456816e-01 -4.187088e-01
<VARIANCE> 25
 7.712153e+00 2.454795e+01 3.153017e+01 4.384198e+01 3.946543e+01 8.678513e+01 3.248796e+01 3.091117e+01 4.333080e+01 3.592626e+01 2.574261e+01 2.355727e+01 3.812181e-01 1.506747e+00 1.688882e+00 2.203733e+00 1.425117e+00 4.276981e+00 2.425494e+00 2.466075e+00 2.274581e+00 1.958671e+00 1.629415e+00 2.123841e+00 9.433416e-01
<GCONST> 9.426377e+01
<TRANSP> 5
 0.000000e+00 1.000000e+00 0.000000e+00 0.000000e+00 0.000000e+00
 0.000000e+00 6.721399e-01 3.278601e-01 0.000000e+00 0.000000e+00
 0.000000e+00 0.000000e+00 6.043760e-01 3.956240e-01 0.000000e+00
 0.000000e+00 0.000000e+00 0.000000e+00 8.749129e-01 1.250871e-01
 0.000000e+00 0.000000e+00 0.000000e+00 0.000000e+00 0.000000e+00
<ENDHMM>
~h "JH"
<BEGINHMM>
<NUMSTATES> 5
<STATE> 2
<MEAN> 25
 -8.364244e-01 1.283227e+00 -2.257411e+00 6.285048e+00 4.355095e+00 6.796032e+00 -2.067214e+00 1.389548e+00 -8.293475e-01 5.963993e-02 2.131743e+00 2.383470e+00 -3.232016e-01 6.725354e-02 8.901387e-03 -1.007303e-01 2.449840e-01 3.494290e-01 2.757427e-01 4.159463e-01 4.687005e-01 1.638758e-01 -7.513262e-02 -1.435726e-01 -2.295335e-01
<VARIANCE> 25
 1.841734e+01 2.377466e+01 3.256689e+01 2.248059e+01 6.086798e+01 4.066248e+01 1.156660e+02 2.758384e+01 3.935572e+01 1.595339e+01 1.532603e+01 1.173163e+01 8.028631e-01 2.002012e+00 1.043017e+00 1.101570e+00 1.191514e+00 1.661920e+00 2.161277e+00 1.970853e+00 2.724554e+00 1.309937e+00 1.284356e+00 8.334778e-01 5.007532e-01
<GCONST> 8.953542e+01
<STATE> 3
<MEAN> 25
 -5.094398e+00 -4.145509e+00 4.501470e-01 6.161976e+00 5.221512e+00 5.261098e+00 -1.067331e+00 4.692233e+00 6.623152e+00 -1.017322e+00 -1.266932e+00 4.100493e-01 -5.147332e-01 -1.433951e+00 4.301535e-01 9.819420e-02 -4.288613e-01 -1.857473e-01 -2.979829e-01 2.385395e-01 6.461115e-01 -4.166255e-01 1.000576e-01 1.039933e-01 3.871282e-01
<VARIANCE> 25
 1.254078e+01 8.512605e+01 3.897730e+01 5.069702e+01 3.301752e+01 2.001786e+01 5.620421e+01 3.930583e+01 7.029004e+01 1.742950e+01 2.186202e+01 1.337945e+01 1.151745e+00 7.174381e+00 3.351356e+00 2.889376e+00 1.048653e+00 1.642237e+00 8.605076e+00 2.102284e+00 5.265615e+00 2.164463e+00 1.472627e+00 1.224806e+00 7.111344e-01
<GCONST> 9.799564e+01
<STATE> 4
<MEAN> 25
 -1.436713e+00 -7.774289e+00 4.588072e+00 4.952877e-01 4.264648e+00 -1.077778e+00 -7.507078e+00 -3.314208e-01 3.908082e+00 -7.534983e+00 -1.542429e+00 2.302539e+00 4.358434e-01 2.069641e-01 -6.911258e-02 -4.020102e-01 -5.875817e-01 -6.942261e-01 -5.325315e-02 -4.514168e-01 -6.454158e-01 -4.107505e-01 2.922317e-02 2.675839e-01 3.695333e-01
<VARIANCE> 25
 1.041268e+02 1.516438e+02 4.944243e+01 8.419991e+01 5.415744e+01 3.455972e+01 1.082572e+02 6.779773e+01 4.671936e+01 3.697654e+01 2.634668e+01 2.224469e+01 6.859571e+00 1.068984e+01 4.059750e+00 4.365973e+00 4.278623e+00 2.685002e+00 5.237264e+00 7.286606e+00 7.168417e+00 3.801309e+00 2.185757e+00 2.010153e+00 1.121966e+00
<GCONST> 1.123649e+02
<TRANSP> 5
 0.000000e+00 1.000000e+00 0.000000e+00 0.000000e+00 0.000000e+00
 0.000000e+00 9.143219e-01 8.567810e-02 0.000000e+00 0.000000e+00
 0.000000e+00 0.000000e+00 8.484435e-01 1.515565e-01 0.000000e+00
 0.000000e+00 0.000000e+00 0.000000e+00 8.586698e-01 1.413303e-01
 0.000000e+00 0.000000e+00 0.000000e+00 0.000000e+00 0.000000e+00
<ENDHMM>
~h "NG"
<BEGINHMM>
<NUMSTATES> 5
<STATE> 2
<MEAN> 25
 6.519391e+00 -2.483408e-01 1.848972e+00 1.021925e+00 7.089810e+00 -4.920481e+00 -1.186777e+01 4.519859e+00 3.699300e+00 -1.650723e+00 -8.992914e-02 -6.098836e+00 -7.252454e-02 3.215419e-01 2.131277e-01 5.147133e-01 -8.943697e-03 2.336427e-01 -6.402194e-02 -1.968780e-01 -1.457728e-02 3.317495e-01 1.392329e-01 -2.155451e-01 -4.313515e-01
<VARIANCE> 25
 2.154983e+01 2.175103e+01 9.467625e+00 5.808421e+01 4.620157e+01 9.857150e+01 5.031872e+01 6.130420e+01 2.277603e+01 6.071652e+01 5.280221e+01 3.874595e+01 6.362171e-01 1.308007e+00 7.232702e-01 1.530337e+00 1.845849e+00 7.434278e+00 3.853743e+00 5.309126e+00 2.119311e+00 3.170653e+00 3.766277e+00 2.719846e+00 1.837350e+00
<GCONST> 1.001156e+02
<STATE> 3
<MEAN> 25
 5.615384e+00 5.230859e+00 1.693366e+00 3.904248e+00 -2.415470e-01 1.862843e+00 -5.055751e+00 -4.023835e+00 9.279394e-01 2.059654e+00 -1.433797e+00 -4.062831e+00 -3.377694e-01 -2.526435e-01 -5.632678e-01 -3.195965e-01 -1.437003e-01 4.351729e-01 5.961699e-01 -9.502127e-02 -2.448834e-01 -2.029198e-01 3.164610e-02 3.470843e-01 -2.770151e-01
<VARIANCE> 25
 2.736779e+01 2.368307e+01 3.015760e+01 1.061424e+01 1.399283e+01 4.133643e+01 1.980063e+01 2.364517e+01 1.648062e+01 1.122440e+01 2.095758e+01 1.698924e+01 6.159470e-01 1.234215e+00 1.098953e+00 1.755478e+00 1.218634e+00 2.435397e+00 1.966724e+00 1.626505e+00 2.067201e+00 1.194868e+00 1.790086e+00 1.010035e+00 4.617026e-01
<GCONST> 8.515144e+01
<STATE> 4
<MEAN> 25
 7.607250e+00 6.239296e+00 -6.110664e+00 -1.583827e+01 3.739421e+00 5.026203e+00 2.923987e+00 6.218632e+00 -1.880180e+01 -6.412982e+00 8.977537e+00 -2.019690e+00 -1.094157e-01 1.077964e-01 -1.779205e-01 -5.516936e-01 1.358983e-01 -1.438197e-01 3.555634e-01 5.297873e-01 -6.366522e-01 -4.064102e-01 4.665869e-01 4.786241e-01 1.712144e-03
<VARIANCE> 25
 1.999377e+01 4.709439e+00 4.900765e+00 7.574299e+01 1.995515e+01 2.952720e+01 7.423355e+00 5.705509e+01 1.397946e+02 2.386115e+01 3.558411e+01 1.374554e+01 4.293858e-02 3.122420e-01 7.421318e-01 7.336055e+00 2.098825e+00 2.924353e+00 4.114659e-01 5.342015e+00 8.183982e+00 1.576740e+00 4.000399e+00 1.505932e+00 6.952003e-01
<GCONST> 8.711555e+01
<TRANSP> 5
 0.000000e+00 1.000000e+00 0.000000e+00 0.000000e+00 0.000000e+00
 0.000000e+00 9.476354e-01 5.236457e-02 0.000000e+00 0.000000e+00
 0.000000e+00 0.000000e+00 9.289306e-01 7.106940e-02 0.000000e+00
 0.000000e+00 0.000000e+00 0.000000e+00 8.395538e-01 1.604462e-01
 0.000000e+00 0.000000e+00 0.000000e+00 0.000000e+00 0.000000e+00
<ENDHMM>
~h "OW"
<BEGINHMM>
<NUMSTATES> 5
<STATE> 2
<MEAN> 25
 3.803830e+00 -2.158968e+00 1.042395e-01 -1.465917e+00 -3.376245e+00 -4.351679e+00 -2.529460e+00 4.829075e-01 1.248522e+00 -1.899271e+00 -1.148452e+00 1.147655e-01 3.044511e+00 1.607690e+00 -4.051227e-01 -8.089564e-01 -1.329750e+00 -1.179274e+00 -9.776706e-01 -7.861183e-01 -6.895974e-01 -2.086518e-01 -6.331303e-01 -4.524840e-01 1.188495e+00
<VARIANCE> 25
 6.271364e+01 6.625536e+01 5.222179e+01 4.233711e+01 9.567095e+01 3.007175e+01 5.237706e+01 4.856471e+01 7.586276e+01 1.934557e+01 2.260469e+01 1.909061e+01 5.207713e+00 9.152696e+00 5.042567e+00 5.581899e+00 8.515677e+00 4.192230e+00 4.768683e+00 2.709476e+00 8.166247e+00 2.897731e+00 2.611911e+00 8.778525e-01 2.197888e+00
<GCONST> 1.092616e+02
<STATE> 3
<MEAN> 25
 1.068704e+01 2.496015e+00 -6.356490e-01 -4.211426e+00 -2.771684e+00 -6.759857e+00 -2.956471e+00 -3.318618e+00 -5.346463e+00 -1.437584e+00 -4.097265e+00 -3.313894e+00 -6.019162e-02 3.264811e-01 1.813426e-01 -1.440193e-01 7.958817e-02 -3.783227e-02 -1.440129e-02 1.567238e-01 3.080312e-01 2.187202e-01 -3.970868e-01 -2.408172e-01 -1.311845e-01
<VARIANCE> 25
 1.776087e+01 2.161715e+01 1.097128e+01 7.256301e+01 6.606043e+01 1.642798e+01 6.031378e+01 6.799087e+01 6.872800e+01 2.928983e+01 2.495686e+01 2.091750e+01 7.357759e-01 1.527889e+00 1.279400e+00 2.231018e+00 2.700243e+00 1.570664e+00 1.533106e+00 2.800955e+00 2.313934e+00 1.684183e+00 1.332665e+00 1.019589e+00 4.874358e-01
<GCONST> 9.276700e+01
<STATE> 4
<MEAN> 25
 6.404977e+00 5.191049e+00 -2.737371e+00 -6.999999e+00 -8.839353e+00 -1.740166e+00 7.523068e-01 3.842285e+00 2.470900e+00 -2.371394e+00 -4.181519e+00 -2.809131e+00 -8.480484e-01 -2.808261e-01 -1.157474e-01 7.002606e-01 3.100825e-01 4.500689e-01 6.179551e-01 -3.003724e-02 -1.395518e-01 2.796152e-01 2.611557e-01 4.837599e-02 -7.365847e-01
<VARIANCE> 25
 3.337404e+01 2.862773e+01 2.540829e+01 4.362184e+01 5.403970e+01 2.197658e+01 5.834569e+01 3.052154e+01 4.181316e+01 3.874184e+01 1.713739e+01 2.105797e+01 9.317680e-01 1.413538e+00 1.215121e+00 1.179797e+00 2.959383e+00 1.665787e+00 1.910865e+00 2.068113e+00 2.354243e+00 2.611040e+00 1.816855e+00 1.971017e+00 4.480788e-01
<GCONST> 9.355682e+01
<TRANSP> 5
 0.000000e+00 1.000000e+00 0.000000e+00 0.000000e+00 0.000000e+00
 0.000000e+00 5.955716e-01 4.044284e-01 0.000000e+00 0.000000e+00
 0.000000e+00 0.000000e+00 8.087268e-01 1.912732e-01 0.000000e+00
 0.000000e+00 0.000000e+00 0.000000e+00 8.052061e-01 1.947939e-01
 0.000000e+00 0.000000e+00 0.000000e+00 0.000000e+00 0.000000e+00
<ENDHMM>
~h "OY"
<BEGINHMM>
<NUMSTATES> 5
<STATE> 2
<MEAN> 25
 1.075846e-07 -7.216663e-09 -4.605741e-08 -4.951859e-08 -6.799529e-08 -1.392151e-08 -3.897510e-08 2.646110e-08 4.631972e-08 7.958802e-09 -2.974954e-08 2.518155e-08 -4.860638e-04 8.153617e-03 4.905981e-03 4.193924e-03 1.800585e-03 6.714790e-03 3.175257e-03 4.129817e-03 -1.605180e-03 -3.525185e-03 3.068766e-04 1.045863e-03 -9.411350e-03
<VARIANCE> 25
 8.362540e+01 6.506919e+01 6.022692e+01 5.937751e+01 5.605918e+01 6.612122e+01 5.843021e+01 6.047647e+01 5.068079e+01 3.617085e+01 3.064270e+01 2.652356e+01 2.619987e+00 3.038342e+00 2.477234e+00 2.576151e+00 2.849354e+00 3.578285e+00 2.923781e+00 2.949938e+00 2.840692e+00 2.177858e+00 2.038671e+00 1.752875e+00 1.698887e+00
<GCONST> 1.053634e+02
<STATE> 3
<MEAN> 25
 1.075846e-07 -7.216663e-09 -4.605741e-08 -4.951859e-08 -6.799529e-08 -1.392151e-08 -3.897510e-08 2.646110e-08 4.631972e-08 7.958802e-09 -2.974954e-08 2.518155e-08 -4.860638e-04 8.153617e-03 4.905981e-03 4.193924e-03 1.800585e-03 6.714790e-03 3.175257e-03 4.129817e-03 -1.605180e-03 -3.525185e-03 3.068766e-04 1.045863e-03 -9.411350e-03
<VARIANCE> 25
 8.362540e+01 6.506919e+01 6.022692e+01 5.937751e+01 5.605918e+01 6.612122e+01 5.843021e+01 6.047647e+01 5.068079e+01 3.617085e+01 3.064270e+01 2.652356e+01 2.619987e+00 3.038342e+00 2.477234e+00 2.576151e+00 2.849354e+00 3.578285e+00 2.923781e+00 2.949938e+00 2.840692e+00 2.177858e+00 2.038671e+00 1.752875e+00 1.698887e+00
<GCONST> 1.053634e+02
<STATE> 4
<MEAN> 25
 1.075846e-07 -7.216663e-09 -4.605741e-08 -4.951859e-08 -6.799529e-08 -1.392151e-08 -3.897510e-08 2.646110e-08 4.631972e-08 7.958802e-09 -2.974954e-08 2.518155e-08 -4.860638e-04 8.153617e-03 4.905981e-03 4.193924e-03 1.800585e-03 6.714790e-03 3.175257e-03 4.129817e-03 -1.605180e-03 -3.525185e-03 3.068766e-04 1.045863e-03 -9.411350e-03
<VARIANCE> 25
 8.362540e+01 6.506919e+01 6.022692e+01 5.937751e+01 5.605918e+01 6.612122e+01 5.843021e+01 6.047647e+01 5.068079e+01 3.617085e+01 3.064270e+01 2.652356e+01 2.619987e+00 3.038342e+00 2.477234e+00 2.576151e+00 2.849354e+00 3.578285e+00 2.923781e+00 2.949938e+00 2.840692e+00 2.177858e+00 2.038671e+00 1.752875e+00 1.698887e+00
<GCONST> 1.053634e+02
<TRANSP> 5
 0.000000e+00 1.000000e+00 0.000000e+00 0.000000e+00 0.000000e+00
 0.000000e+00 6.000000e-01 4.000000e-01 0.000000e+00 0.000000e+00
 0.000000e+00 0.000000e+00 6.000000e-01 4.000000e-01 0.000000e+00
 0.000000e+00 0.000000e+00 0.000000e+00 7.000000e-01 3.000000e-01
 0.000000e+00 0.000000e+00 0.000000e+00 0.000000e+00 0.000000e+00
<ENDHMM>
~h "SH"
<BEGINHMM>
<NUMSTATES> 5
<STATE> 2
<MEAN> 25
 -6.342374e+00 -1.951259e+00 -5.114709e+00 6.974788e-01 2.362704e-01 4.952384e+00 4.941924e+00 3.892195e+00 -2.822673e-02 9.800532e-01 7.431527e-01 5.689463e-01 -1.053603e-01 2.324381e-01 -5.839751e-02 1.427797e-01 -3.183002e-02 1.455653e-01 -1.559445e-02 2.389123e-01 7.298306e-02 4.327685e-02 -1.123074e-01 1.008924e-01 -4.668029e-01
<VARIANCE> 25
 9.067167e+00 4.409140e+01 4.096024e+00 7.566746e+00 5.038541e+00 5.600088e+00 9.264879e+00 2.110150e+01 1.153251e+01 7.833445e+00 1.085102e+01 5.994297e+00 1.559364e-01 1.390919e+00 4.278127e-01 3.012369e-01 7.417522e-01 7.141535e-01 6.619158e-01 9.942014e-01 1.253783e+00 7.074252e-01 8.436199e-01 8.150992e-01 1.456133e+00
<GCONST> 6.791598e+01
<STATE> 3
<MEAN> 25
 -5.547081e+00 -1.801700e+01 2.485334e+00 1.074070e+01 -3.364099e+00 1.906463e+00 -3.785830e+00 -1.280721e+00 4.449372e+00 1.279145e+00 -2.384201e-01 1.194853e+00 -4.341497e-01 -2.207651e+00 1.435927e+00 4.669148e-01 -2.650343e-01 -9.456173e-01 -3.209814e-01 -5.994539e-02 5.866631e-01 -3.570027e-01 8.507145e-01 4.267436e-01 2.610211e+00
<VARIANCE> 25
 1.019990e+01 2.198402e+02 3.737872e+01 2.503077e+01 4.724378e+00 1.565201e+01 2.646094e+01 1.037269e+02 2.208948e+01 2.890483e+01 1.923856e+01 3.456857e+00 1.511122e+00 4.291636e+00 3.349587e+00 2.280996e+00 8.148283e-01 8.302074e-01 2.351094e+00 1.572984e+00 5.401202e-01 8.624715e-01 7.714399e-01 2.497385e-01 5.123724e+00
<GCONST> 8.742364e+01
<STATE> 4
<MEAN> 25
 -1.176838e+01 -2.214226e+01 9.562684e+00 9.423670e+00 7.031055e-02 -1.375521e+00 -1.315952e+00 4.859511e+00 4.972771e+00 -2.949357e+00 7.306968e-01 3.398721e+00 5.250601e-01 3.559299e-01 -4.925307e-01 -2.178151e-01 5.575130e-01 1.134925e-01 -4.209325e-01 -5.365449e-01 -3.058312e-01 5.097113e-03 -3.950931e-01 2.088092e-01 -2.565007e-02
<VARIANCE> 25
 1.878662e+01 5.722240e+01 4.278264e+01 1.065695e+01 1.047904e+01 9.167029e+00 1.344893e+01 7.072318e+01 1.130382e+01 1.834574e+01 1.370663e+01 1.092032e+00 1.237941e+00 1.339759e+00 5.934107e-01 1.546603e-01 4.510168e-01 1.783886e-01 7.652426e-01 4.324173e-01 6.380184e-01 2.130034e-01 6.991973e-01 1.644959e-01 5.376219e-01
<GCONST> 6.822495e+01
<TRANSP> 5
 0.000000e+00 1.000000e+00 0.000000e+00 0.000000e+00 0.000000e+00
 0.000000e+00 9.301627e-01 6.983733e-02 0.000000e+00 0.000000e+00
 0.000000e+00 0.000000e+00 7.613333e-01 2.386667e-01 0.000000e+00
 0.000000e+00 0.000000e+00 0.000000e+00 7.374651e-01 2.625349e-01
 0.000000e+00 0.000000e+00 0.000000e+00 0.000000e+00 0.000000e+00
<ENDHMM>
~h "TH"
