~o
<STREAMINFO> 1 25
<VECSIZE> 25<NULLD><MFCC_D_N_Z_0><DIAGC>
~s "silst"
<MEAN> 25
 -5.101451e+00 3.021744e+00 -5.037662e+00 2.703476e+00 7.646407e-02 6.763777e+00 -8.237847e-02 5.544656e+00 1.228817e+00 6.164282e-01 5.359906e-02 2.410529e+00 -6.928486e-03 6.567729e-02 -2.918052e-02 1.519490e-02 -3.112515e-02 2.871859e-03 2.147530e-03 3.065689e-03 -1.130174e-02 -1.509815e-02 -3.667134e-02 2.010165e-02 -6.483849e-02
<VARIANCE> 25
 3.223962e+00 1.409206e+01 1.202972e+01 6.901824e+00 9.331286e+00 9.313498e+00 9.966402e+00 1.218381e+01 9.983075e+00 9.949898e+00 9.391022e+00 9.562843e+00 7.109034e-02 1.960009e-01 2.740581e-01 3.706381e-01 4.888647e-01 5.957735e-01 6.933472e-01 7.464564e-01 7.628663e-01 7.797238e-01 7.675034e-01 7.033793e-01 3.463573e-02
<GCONST> 5.959114e+01
~h "B"
<BEGINHMM>
<NUMSTATES> 5
<STATE> 2
<MEAN> 25
 -4.471770e+00 3.653540e+00 -1.506465e+00 7.254745e-01 1.681870e+00 5.563346e+00 1.058153e+00 4.373508e+00 2.453001e+00 5.882071e-01 6.503338e-01 1.869018e+00 -1.157621e-01 3.214603e-02 -1.980933e-02 2.032204e-02 -3.954305e-02 1.246927e-02 -8.860338e-02 1.992515e-01 1.102056e-01 4.040173e-02 4.345782e-03 6.757990e-02 -3.581801e-01
<VARIANCE> 25
 2.839893e+01 2.287198e+01 2.954238e+01 2.842718e+01 1.752882e+01 1.649321e+01 1.666924e+01 1.978916e+01 1.928721e+01 1.566365e+01 1.124424e+01 1.155129e+01 1.203170e+00 1.396835e+00 1.266686e+00 1.353355e+00 1.315943e+00 1.278719e+00 1.393896e+00 1.712351e+00 1.404117e+00 9.295109e-01 1.106476e+00 8.628389e-01 2.051585e+00
<GCONST> 8.458641e+01
<STATE> 3
<MEAN> 25
 -1.592512e+00 1.505935e+00 6.094655e-01 2.141142e-01 2.042612e-01 4.706994e-01 -4.484529e-01 2.474964e+00 6.690527e-01 -2.067619e+00 2.620467e-01 1.634818e+00 2.352682e+00 -1.400911e+00 6.825610e-02 -4.781889e-01 -1.979505e+00 -3.272376e+00 -5.349554e-01 -1.712183e+00 -9.498448e-01 -1.019126e-01 -4.574944e-01 -3.482614e-01 3.340875e+00
<VARIANCE> 25
 2.480010e+01 3.103648e+01 2.465835e+01 2.628117e+01 2.671853e+01 5.949253e+01 2.309208e+01 3.060354e+01 1.886806e+01 2.401501e+01 1.226122e+01 1.441289e+01 4.209590e+00 4.058467e+00 4.937850e+00 4.672320e+00 3.955976e+00 5.905867e+00 5.015580e+00 4.085353e+00 3.755374e+00 3.006913e+00 3.297760e+00 3.176100e+00 3.872563e+00
<GCONST> 1.025642e+02
<STATE> 4
<MEAN> 25
 7.366062e+00 1.451157e+00 1.244718e+00 -1.878965e-01 -6.771151e+00 -6.766764e+00 -1.595483e+00 -1.858144e+00 -1.414069e+00 6.137340e-01 -3.506712e+00 -2.918974e+00 1.855609e+00 -5.198087e-01 -2.951305e-01 -4.876167e-01 -1.415186e+00 -7.322705e-01 2.183844e-01 -8.860025e-01 -4.186850e-01 6.949552e-01 -4.459756e-01 -6.351000e-01 1.978896e+00
<VARIANCE> 25
 3.253355e+01 4.428962e+01 2.912374e+01 3.805854e+01 6.049421e+01 7.609938e+01 5.463922e+01 5.227693e+01 4.296178e+01 4.233363e+01 3.434362e+01 4.535179e+01 4.356764e+00 5.039568e+00 3.664704e+00 3.467359e+00 6.221575e+00 7.914972e+00 6.074320e+00 5.338208e+00 6.096426e+00 3.449586e+00 3.657304e+00 3.389712e+00 4.917357e+00
<GCONST> 1.116424e+02
<TRANSP> 5
 0.000000e+00 1.000000e+00 0.000000e+00 0.000000e+00 0.000000e+00
 0.000000e+00 9.190247e-01 8.097532e-02 0.000000e+00 0.000000e+00
 0.000000e+00 0.000000e+00 5.011858e-01 4.988142e-01 0.000000e+00
 0.000000e+00 0.000000e+00 0.000000e+00 4.797681e-01 5.202318e-01
 0.000000e+00 0.000000e+00 0.000000e+00 0.000000e+00 0.000000e+00
<ENDHMM>
~h "D"
<BEGINHMM>
<NUMSTATES> 5
<STATE> 2
<MEAN> 25
 3.563606e+00 -1.581522e+00 1.004294e+00 5.508629e+00 2.294745e+00 -2.836457e+00 -4.027381e+00 -3.946819e+00 -1.823686e+00 -1.158135e+00 -2.709530e-01 9.690334e-01 -3.071029e-02 -2.223690e-01 -1.600825e-01 1.832485e-03 1.698278e-01 3.271237e-03 -1.721146e-01 -1.746636e-01 -8.473168e-02 -8.056554e-02 -5.650521e-02 6.178845e-02 3.747305e-02
<VARIANCE> 25
 3.718118e+01 7.068544e+01 5.433537e+01 5.660676e+01 6.095076e+01 6.921272e+01 6.352683e+01 7.664347e+01 5.959616e+01 3.907135e+01 3.016774e+01 2.544181e+01 3.333781e+00 6.944321e+00 4.190074e+00 3.511458e+00 5.323913e+00 7.683136e+00 5.284639e+00 5.697469e+00 4.601414e+00 3.804610e+00 2.534086e+00 2.247066e+00 3.174114e+00
<GCONST> 1.117902e+02
<STATE> 3
<MEAN> 25
 2.858826e+00 7.997327e-01 3.724420e-02 2.454820e+00 2.842231e+00 -4.642290e-02 -3.593480e+00 -2.998947e+00 -1.257015e+00 -1.388296e+00 -5.542060e-01 2.859600e-02 -9.810036e-01 5.252092e-01 3.396671e-01 -4.719309e-01 3.802959e-01 1.440520e+00 7.351506e-01 6.263149e-01 4.299161e-01 -9.960995e-02 1.409139e-01 2.107810e-01 -8.313465e-01
<VARIANCE> 25
 3.417738e+01 4.724054e+01 3.549931e+01 3.685023e+01 4.700119e+01 4.711108e+01 4.445543e+01 3.842228e+01 3.503566e+01 2.899888e+01 2.862823e+01 1.709229e+01 2.244358e+00 3.884465e+00 3.243805e+00 2.879377e+00 3.978379e+00 3.535098e+00 2.862861e+00 3.549877e+00 2.208176e+00 2.491768e+00 1.963297e+00 1.630929e+00 2.167464e+00
<GCONST> 1.017771e+02
<STATE> 4
<MEAN> 25
 -5.144349e+00 2.607489e+00 -1.387210e+00 1.426529e+00 2.130074e+00 4.615822e+00 1.548724e-01 3.967746e+00 2.615315e+00 9.574597e-01 7.905246e-01 1.709719e+00 -1.099903e-01 -1.788149e-02 -2.351881e-02 -7.816893e-02 -7.023662e-02 5.036362e-02 7.293415e-02 1.071024e-01 5.327734e-02 4.833902e-03 9.630099e-04 1.864232e-02 -1.018489e-01
<VARIANCE> 25
 2.728680e+01 1.853329e+01 1.841766e+01 2.058679e+01 1.622091e+01 1.817526e+01 1.848846e+01 1.989763e+01 1.844282e+01 1.925368e+01 1.298485e+01 1.013203e+01 5.082275e-01 8.768650e-01 7.606744e-01 8.799956e-01 9.964013e-01 1.051242e+00 1.153854e+00 1.125368e+00 1.175050e+00 1.128736e+00 1.087128e+00 8.812587e-01 4.186100e-01
<GCONST> 7.892352e+01
<TRANSP> 5
 0.000000e+00 1.000000e+00 0.000000e+00 0.000000e+00 0.000000e+00
 0.000000e+00 7.593405e-01 2.406595e-01 0.000000e+00 0.000000e+00
 0.000000e+00 0.000000e+00 4.059377e-01 5.940623e-01 0.000000e+00
 0.000000e+00 0.000000e+00 0.000000e+00 9.278923e-01 7.210767e-02
 0.000000e+00 0.000000e+00 0.000000e+00 0.000000e+00 0.000000e+00
<ENDHMM>
~h "F"
<BEGINHMM>
<NUMSTATES> 5
<STATE> 2
<MEAN> 25
 -8.512924e+00 -6.699200e-01 -8.361272e-01 -1.680383e+00 1.878562e+00 4.187858e+00 2.430411e+00 4.346442e+00 4.841239e+00 2.362787e+00 1.713150e+00 1.477450e+00 -2.820284e-01 -2.667398e-01 -5.578094e-02 -7.966772e-02 -5.775486e-02 5.659527e-02 5.459879e-02 4.336893e-02 1.197174e-01 -1.569245e-02 1.070950e-01 9.598643e-02 -3.766621e-02
<VARIANCE> 25
 2.167746e+01 2.316776e+01 2.258942e+01 1.546978e+01 1.654130e+01 1.248032e+01 1.479265e+01 1.826038e+01 1.837917e+01 1.537208e+01 1.138885e+01 1.079326e+01 1.248644e+00 1.099853e+00 7.853143e-01 1.139813e+00 1.626200e+00 1.119231e+00 1.350296e+00 1.380777e+00 1.295819e+00 1.168499e+00 1.182416e+00 9.583888e-01 2.992096e-01
<GCONST> 8.016812e+01
<STATE> 3
<MEAN> 25
 -1.388319e+00 -8.927638e+00 -2.569480e+00 -2.705945e+00 -3.268850e+00 2.366990e+00 2.044740e-01 -3.945739e-01 2.217939e+00 2.993197e-01 1.697529e+00 2.593862e+00 1.501518e+00 1.074500e+00 -2.841640e-01 -2.679152e-01 3.078492e-01 -7.634927e-01 1.497186e-02 -4.887817e-01 -7.794130e-01 -2.535957e-02 -3.499528e-01 -2.556753e-01 2.812908e-01
<VARIANCE> 25
 3.257357e+01 5.149438e+01 2.230311e+01 1.683509e+01 4.065953e+01 1.792216e+01 2.363721e+01 2.853551e+01 1.873072e+01 1.590739e+01 1.702336e+01 1.065098e+01 5.241942e+00 6.824485e+00 1.758166e+00 3.067727e+00 5.999458e+00 3.358440e+00 2.566290e+00 2.515879e+00 2.797508e+00 2.222069e+00 1.954074e+00 1.630758e+00 1.404427e+00
<GCONST> 9.675893e+01
<STATE> 4
<MEAN> 25
 -8.190413e+00 1.051539e+00 1.974521e-01 -9.655882e+00 7.102180e+00 -1.049878e+01 7.139600e+00 -1.806499e+00 4.659782e+00 -2.531423e+00 3.060927e+00 -1.330175e+00 5.344644e-01 4.155012e-01 9.098388e-02 -1.574221e-01 -2.714497e-01 -5.194555e-01 -2.115921e-01 -3.456666e-01 -2.200871e-01 4.863295e-02 -4.053480e-02 -3.079977e-01 2.391690e-01
<VARIANCE> 25
 1.294628e+02 5.577130e+01 2.262387e+01 4.766430e+01 1.064532e+02 7.220718e+01 6.009143e+01 3.782855e+01 6.958672e+01 5.769201e+01 5.058586e+01 2.816394e+01 1.135516e+01 4.543112e+00 2.392271e+00 3.849801e+00 7.168139e+00 6.466904e+00 4.325856e+00 2.905380e+00 4.880791e+00 4.838033e+00 4.789099e+00 2.697668e+00 1.438824e+00
<GCONST> 1.126658e+02
<TRANSP> 5
 0.000000e+00 1.000000e+00 0.000000e+00 0.000000e+00 0.000000e+00
 0.000000e+00 9.368211e-01 6.317887e-02 0.000000e+00 0.000000e+00
 0.000000e+00 0.000000e+00 6.475554e-01 3.524446e-01 0.000000e+00
 0.000000e+00 0.000000e+00 0.000000e+00 8.127931e-01 1.872069e-01
 0.000000e+00 0.000000e+00 0.000000e+00 0.000000e+00 0.000000e+00
<ENDHMM>
~h "G"
<BEGINHMM>
<NUMSTATES> 5
<STATE> 2
<MEAN> 25
 -8.646679e-02 1.995369e-01 -1.692212e+00 -4.077071e+00 -1.284548e+00 -2.516667e+00 3.893037e+00 1.698093e+00 -2.931721e+00 -2.005201e+00 1.535903e+00 -2.676309e+00 8.913364e-01 -5.031308e-01 -1.014893e+00 -9.231852e-01 -1.235949e+00 -4.515902e-01 3.800940e-01 1.885317e-01 -5.576693e-01 6.269202e-03 2.029245e-01 -3.627654e-01 5.314579e-01
<VARIANCE> 25
 6.468901e+01 6.142398e+01 4.524221e+01 9.213844e+01 6.645518e+01 8.537450e+01 5.309112e+01 4.298333e+01 5.856118e+01 6.561674e+01 4.145409e+01 1.926140e+01 4.515654e+00 5.703930e+00 5.324344e+00 8.687430e+00 6.685715e+00 9.762821e+00 4.222323e+00 3.980952e+00 4.951722e+00 5.670098e+00 5.195940e+00 1.985201e+00 5.120618e+00
<GCONST> 1.152678e+02
<STATE> 3
<MEAN> 25
 -1.370877e+00 1.786532e+00 -2.498009e+00 -1.290915e+00 -1.752595e+00 2.561308e+00 5.330560e-01 2.820807e+00 2.477472e+00 1.001208e+00 -1.093848e+00 3.318870e-01 -9.650768e-02 9.147871e-02 4.575469e-03 9.711635e-02 6.994218e-02 1.116783e-01 2.068952e-02 -1.919901e-02 2.628788e-03 1.933550e-02 6.684510e-02 7.032866e-02 -1.530996e-01
<VARIANCE> 25
 5.514882e+01 2.611895e+01 2.857830e+01 2.531357e+01 4.122939e+01 4.081951e+01 2.484016e+01 3.614310e+01 2.945616e+01 2.023547e+01 2.104364e+01 2.170042e+01 6.171104e-01 1.111254e+00 1.086633e+00 1.249108e+00 1.884691e+00 1.834713e+00 1.522546e+00 1.769488e+00 1.759011e+00 1.422679e+00 1.607388e+00 1.130471e+00 4.141726e-01
<GCONST> 8.933924e+01
<STATE> 4
<MEAN> 25
 4.181875e+00 9.673716e-01 -3.882744e+00 -5.108221e+00 -3.511013e+00 -5.858479e-01 1.568333e+00 -2.215904e+00 -1.906059e+00 3.212193e+00 1.371320e+00 -1.869549e+00 -3.590661e-01 3.976879e-01 3.083461e-01 -7.185441e-02 4.273591e-01 1.533788e-01 2.063751e-01 9.926721e-03 3.357982e-01 4.983751e-02 -5.566955e-02 3.767660e-01 -2.446592e-01
<VARIANCE> 25
 4.825434e+01 3.333804e+01 2.228144e+01 6.735171e+01 4.711121e+01 4.657840e+01 3.997045e+01 9.163662e+01 4.725957e+01 4.912842e+01 2.651921e+01 3.442636e+01 1.757316e+00 2.331743e+00 1.880554e+00 4.527480e+00 3.811921e+00 5.399845e+00 2.822831e+00 4.232199e+00 4.555760e+00 3.049042e+00 1.780926e+00 3.135645e+00 1.612788e+00
<GCONST> 1.049965e+02
<TRANSP> 5
 0.000000e+00 1.000000e+00 0.000000e+00 0.000000e+00 0.000000e+00
 0.000000e+00 6.450087e-01 3.549913e-01 0.000000e+00 0.000000e+00
 0.000000e+00 0.000000e+00 8.831834e-01 1.168166e-01 0.000000e+00
 0.000000e+00 0.000000e+00 0.000000e+00 5.780891e-01 4.219109e-01
 0.000000e+00 0.000000e+00 0.000000e+00 0.000000e+00 0.000000e+00
<ENDHMM>
~h "H"
<BEGINHMM>
<NUMSTATES> 5
<STATE> 2
<MEAN> 25
 -2.322871e-08 1.126217e-08 1.883025e-08 6.810512e-09 1.110002e-08 3.984960e-08 -3.788347e-08 -2.810349e-08 7.132795e-08 2.029978e-08 -1.756342e-08 1.758875e-08 3.318722e-04 7.891263e-03 1.789097e-03 3.328641e-03 6.375481e-04 3.762332e-03 1.233980e-03 2.462655e-03 -1.105810e-03 -3.231633e-03 2.765345e-04 1.806994e-03 -8.567597e-03
<VARIANCE> 25
 7.973236e+01 6.283217e+01 5.770475e+01 5.273573e+01 5.570308e+01 6.517128e+01 5.845628e+01 5.916846e+01 4.848422e+01 3.409101e+01 3.021548e+01 2.573606e+01 2.501548e+00 3.082744e+00 2.480528e+00 2.474501e+00 2.854813e+00 3.463008e+00 2.941408e+00 2.931458e+00 2.687757e+00 2.139890e+00 2.135985e+00 1.677117e+00 1.727884e+00
<GCONST> 1.047741e+02
<STATE> 3
<MEAN> 25
 -2.322871e-08 1.126217e-08 1.883025e-08 6.810512e-09 1.110002e-08 3.984960e-08 -3.788347e-08 -2.810349e-08 7.132795e-08 2.029978e-08 -1.756342e-08 1.758875e-08 3.318722e-04 7.891263e-03 1.789097e-03 3.328641e-03 6.375481e-04 3.762332e-03 1.233980e-03 2.462655e-03 -1.105810e-03 -3.231633e-03 2.765345e-04 1.806994e-03 -8.567597e-03
<VARIANCE> 25
 7.973236e+01 6.283217e+01 5.770475e+01 5.273573e+01 5.570308e+01 6.517128e+01 5.845628e+01 5.916846e+01 4.848422e+01 3.409101e+01 3.021548e+01 2.573606e+01 2.501548e+00 3.082744e+00 2.480528e+00 2.474501e+00 2.854813e+00 3.463008e+00 2.941408e+00 2.931458e+00 2.687757e+00 2.139890e+00 2.135985e+00 1.677117e+00 1.727884e+00
<GCONST> 1.047741e+02
<STATE> 4
<MEAN> 25
 -2.322871e-08 1.126217e-08 1.883025e-08 6.810512e-09 1.110002e-08 3.984960e-08 -3.788347e-08 -2.810349e-08 7.132795e-08 2.029978e-08 -1.756342e-08 1.758875e-08 3.318722e-04 7.891263e-03 1.789097e-03 3.328641e-03 6.375481e-04 3.762332e-03 1.233980e-03 2.462655e-03 -1.105810e-03 -3.231633e-03 2.765345e-04 1.806994e-03 -8.567597e-03
<VARIANCE> 25
 7.973236e+01 6.283217e+01 5.770475e+01 5.273573e+01 5.570308e+01 6.517128e+01 5.845628e+01 5.916846e+01 4.848422e+01 3.409101e+01 3.021548e+01 2.573606e+01 2.501548e+00 3.082744e+00 2.480528e+00 2.474501e+00 2.854813e+00 3.463008e+00 2.941408e+00 2.931458e+00 2.687757e+00 2.139890e+00 2.135985e+00 1.677117e+00 1.727884e+00
<GCONST> 1.047741e+02
<TRANSP> 5
 0.000000e+00 1.000000e+00 0.000000e+00 0.000000e+00 0.000000e+00
 0.000000e+00 6.000000e-01 4.000000e-01 0.000000e+00 0.000000e+00
 0.000000e+00 0.000000e+00 6.000000e-01 4.000000e-01 0.000000e+00
 0.000000e+00 0.000000e+00 0.000000e+00 7.000000e-01 3.000000e-01
 0.000000e+00 0.000000e+00 0.000000e+00 0.000000e+00 0.000000e+00
<ENDHMM>
~h "I"
<BEGINHMM>
<NUMSTATES> 5
<STATE> 2
<MEAN> 25
 5.982763e+00 -1.898984e+00 8.598232e-02 1.342931e+00 1.992908e+00 -5.996906e+00 -3.896481e+00 -3.253380e+00 -4.455081e+00 7.903617e-01 9.734684e-01 9.988332e-01 1.127483e+00 5.372496e-01 -3.359944e-02 9.576356e-02 -5.889480e-01 1.085675e+00 -9.341518e-02 -2.683664e-02 -2.934469e-01 4.673707e-01 -5.233477e-01 1.207752e-01 -6.582457e-02
<VARIANCE> 25
 5.750406e+01 1.885066e+01 3.371351e+01 1.925539e+01 3.543099e+01 3.282340e+01 5.829538e+00 5.199811e+01 1.544967e+01 1.895225e+01 1.591052e+01 1.047625e+01 2.716540e+00 1.036293e+00 1.516581e+00 1.792996e+00 1.878371e+00 4.101075e+00 2.408150e+00 8.945481e+00 1.117587e+00 2.718337e+00 1.288764e+00 3.599964e+00 1.130761e+00
<GCONST> 9.289522e+01
<STATE> 3
<MEAN> 25
 -6.680775e-02 -4.336430e+00 2.423227e-01 1.827757e+00 6.794598e-01 2.024755e+00 1.234842e+00 -1.655137e+00 5.826607e-01 3.029445e+00 2.863368e+00 1.864085e+00 -5.235137e-01 -8.711514e-01 6.106661e-01 8.747153e-01 4.258261e-01 9.194953e-01 -3.523197e-01 -3.913466e-01 1.437264e+00 1.067903e+00 1.383464e-01 -3.359100e-01 -4.471216e-01
<VARIANCE> 25
 6.222807e+01 3.154779e+01 6.490805e+00 1.324253e+01 6.189999e+00 1.115947e+01 1.399303e+01 1.638526e+01 1.910174e+01 9.163043e+00 1.368969e+01 7.174937e+00 6.614009e+00 6.043651e+00 1.665761e+00 1.318210e+00 1.208680e+00 1.039145e+00 3.956438e+00 3.682490e+00 1.328723e+00 5.278575e-01 2.467146e+00 1.636839e+00 2.447368e-01
<GCONST> 8.442059e+01
<STATE> 4
<MEAN> 25
 -7.527456e-01 -1.059451e+01 -1.291426e+00 4.590262e+00 3.188462e+00 1.381392e+00 -4.489198e+00 -3.325320e+00 1.288330e+00 8.297855e-02 1.243699e+00 4.919512e-01 1.246654e+00 2.146301e+00 3.605521e-02 5.105239e-01 4.584441e-01 -7.544563e-01 1.045648e-01 3.981841e-01 -3.512290e-01 -6.455114e-01 -1.059819e+00 -5.929934e-01 -4.083109e-01
<VARIANCE> 25
 4.017854e+01 1.187284e+02 2.110672e+01 1.316648e+01 1.537722e+01 3.216705e+01 1.747276e+01 1.912176e+01 6.866593e+00 1.344543e+01 1.193201e+01 1.555194e+01 4.066582e+00 1.339631e+01 2.360168e+00 2.255343e+00 3.810248e+00 4.311685e+00 3.040311e+00 1.283807e+00 1.266507e+00 9.551463e-01 9.078573e-01 2.242198e+00 6.054073e-01
<GCONST> 9.203831e+01
<TRANSP> 5
 0.000000e+00 1.000000e+00 0.000000e+00 0.000000e+00 0.000000e+00
 0.000000e+00 7.368053e-01 2.631948e-01 0.000000e+00 0.000000e+00
 0.000000e+00 0.000000e+00 3.764458e-01 6.235542e-01 0.000000e+00
 0.000000e+00 0.000000e+00 0.000000e+00 7.066647e-01 2.933352e-01
 0.000000e+00 0.000000e+00 0.000000e+00 0.000000e+00 0.000000e+00
<ENDHMM>
~h "K"
<BEGINHMM>
<NUMSTATES> 5
<STATE> 2
<MEAN> 25
 -5.243966e+00 -1.886949e+00 1.655369e+00 -2.175534e+00 2.315799e+00 8.937252e-01 4.015211e+00 -8.044649e-01 7.276089e-01 1.681511e+00 4.535878e-02 -1.500757e-01 -8.152152e-01 -1.308497e-01 -3.297507e-01 -1.490472e+00 -4.618185e-01 -8.471597e-01 1.071458e+00 8.613858e-01 -1.635955e-02 -4.039981e-01 4.637729e-01 2.500686e-01 -2.608366e-03
<VARIANCE> 25
 4.998155e+01 4.888838e+01 7.488356e+01 7.671592e+01 6.490092e+01 6.310696e+01 8.613461e+01 4.815350e+01 3.447723e+01 5.923778e+01 4.057318e+01 3.677548e+01 4.336697e+00 4.782077e+00 6.311692e+00 8.086278e+00 8.735226e+00 1.258541e+01 5.847375e+00 5.172517e+00 3.963132e+00 4.321095e+00 5.241238e+00 4.200982e+00 6.001940e+00
<GCONST> 1.167803e+02
<STATE> 3
<MEAN> 25
 -4.076459e+00 -2.339779e+00 -2.604742e+00 -2.136199e+00 -1.377495e+00 1.036514e+00 2.172596e+00 1.973923e+00 3.381125e-01 -5.404759e-01 1.031712e+00 1.367236e+00 2.026898e-01 -8.712898e-01 -5.473980e-01 -4.481038e-01 -5.617788e-01 -1.077981e+00 8.482200e-02 -1.463978e-01 -3.839096e-01 -1.764726e-01 3.719549e-01 -2.503828e-02 7.776694e-01
<VARIANCE> 25
 2.076690e+01 4.573800e+01 4.666517e+01 5.898926e+01 4.376332e+01 9.272549e+01 4.006302e+01 4.244233e+01 3.174818e+01 3.508819e+01 2.914825e+01 2.660525e+01 2.711065e+00 4.666909e+00 3.606167e+00 4.796008e+00 4.605560e+00 6.814904e+00 2.807093e+00 4.075665e+00 3.386118e+00 2.206832e+00 3.097112e+00 1.858172e+00 5.746032e+00
<GCONST> 1.069215e+02
<STATE> 4
<MEAN> 25
 -3.406735e+00 -1.794194e+00 -4.061966e+00 -7.012761e-01 -6.218565e-02 9.209499e-01 1.709846e+00 4.438842e+00 8.666555e-01 -4.503652e-02 1.796669e+00 7.287008e-01 1.512332e-01 2.037196e-01 2.135070e-02 3.036550e-01 -4.665025e-02 4.411690e-01 -1.497323e-01 2.301900e-01 1.967288e-01 1.277954e-01 -1.848142e-01 4.565384e-02 -3.024165e-01
<VARIANCE> 25
 2.306679e+01 4.901159e+01 2.445305e+01 4.915469e+01 5.020717e+01 7.532334e+01 3.338524e+01 4.337142e+01 3.439354e+01 2.205976e+01 2.657071e+01 2.047288e+01 1.495436e+00 2.238900e+00 1.403980e+00 1.749227e+00 2.387107e+00 3.129605e+00 2.214382e+00 2.405035e+00 2.152864e+00 1.963044e+00 1.909917e+00 1.658988e+00 1.229554e+00
<GCONST> 9.710714e+01
<TRANSP> 5
 0.000000e+00 1.000000e+00 0.000000e+00 0.000000e+00 0.000000e+00
 0.000000e+00 6.172448e-01 3.827552e-01 0.000000e+00 0.000000e+00
 0.000000e+00 0.000000e+00 7.025054e-01 2.974945e-01 0.000000e+00
 0.000000e+00 0.000000e+00 0.000000e+00 9.001665e-01 9.983350e-02
 0.000000e+00 0.000000e+00 0.000000e+00 0.000000e+00 0.000000e+00
<ENDHMM>
~h "L"
<BEGINHMM>
<NUMSTATES> 5
<STATE> 2
<MEAN> 25
 4.433683e+00 2.973315e+00 3.384039e+00 -2.302091e+00 -6.277762e+00 -5.218643e+00 1.712808e+00 1.493521e+00 -1.085706e+00 -2.449540e+00 -3.933851e+00 -1.077227e+00 1.492002e+00 1.028290e+00 5.047836e-01 4.555656e-02 -1.319396e+00 -1.029544e+00 -2.964070e-01 1.545542e-01 -1.712920e-01 -2.815696e-01 -8.013427e-01 -5.386244e-01 6.123648e-01
<VARIANCE> 25
 5.140782e+01 3.826308e+01 5.263370e+01 3.479361e+01 8.065952e+01 6.459157e+01 4.536806e+01 5.092816e+01 5.861802e+01 3.771006e+01 3.594590e+01 2.942378e+01 3.470313e+00 3.872602e+00 3.165722e+00 3.201985e+00 5.020068e+00 5.414103e+00 4.851866e+00 4.995142e+00 4.754335e+00 3.361415e+00 3.591438e+00 2.790794e+00 1.967561e+00
<GCONST> 1.091700e+02
<STATE> 3
<MEAN> 25
 9.853790e+00 6.936259e+00 4.036324e+00 -8.402780e-01 -1.146206e+01 -1.025873e+01 -1.071673e+00 2.417056e+00 6.456244e-01 -1.908280e+00 -4.168279e+00 -2.413317e+00 -1.087038e-02 5.449358e-02 7.879622e-02 8.405027e-02 -9.811831e-02 -1.003816e-01 1.330706e-02 2.584811e-03 -7.016078e-02 3.235074e-02 6.186771e-02 -4.907513e-02 -3.853933e-02
<VARIANCE> 25
 1.712221e+01 2.841572e+01 2.844506e+01 2.657501e+01 5.553047e+01 6.184966e+01 5.218809e+01 3.700325e+01 3.655678e+01 2.921515e+01 3.083281e+01 2.904752e+01 3.715737e-01 8.143618e-01 9.383342e-01 8.490133e-01 1.551652e+00 1.650785e+00 1.541087e+00 1.742368e+00 1.578450e+00 1.286821e+00 1.266177e+00 1.301737e+00 3.622717e-01
<GCONST> 8.893935e+01
<STATE> 4
<MEAN> 25
 8.799919e+00 4.083455e+00 4.431333e+00 -2.179577e+00 -1.165910e+01 -5.787610e+00 1.587249e+00 7.494643e-01 1.487060e+00 3.815463e-01 -6.669079e+00 -3.711449e+00 -5.296243e-01 -2.139501e-01 -5.430881e-01 2.015286e-01 1.612230e+00 9.240276e-01 -2.062070e-01 -1.265235e-01 -8.962230e-02 -1.459315e-02 3.936416e-01 2.856241e-01 -2.993900e-01
<VARIANCE> 25
 2.321559e+01 2.831282e+01 3.614457e+01 3.972605e+01 9.004116e+01 6.446609e+01 3.818871e+01 5.645237e+01 5.326690e+01 6.511927e+01 4.182819e+01 3.628832e+01 1.362796e+00 2.029892e+00 1.750721e+00 2.583053e+00 4.326859e+00 4.367774e+00 2.942167e+00 2.781237e+00 3.608582e+00 2.854377e+00 2.666067e+00 1.998064e+00 1.431786e+00
<GCONST> 1.034551e+02
<TRANSP> 5
 0.000000e+00 1.000000e+00 0.000000e+00 0.000000e+00 0.000000e+00
 0.000000e+00 6.616720e-01 3.383280e-01 0.000000e+00 0.000000e+00
 0.000000e+00 0.000000e+00 7.744166e-01 2.255833e-01 0.000000e+00
 0.000000e+00 0.000000e+00 0.000000e+00 6.813159e-01 3.186841e-01
 0.000000e+00 0.000000e+00 0.000000e+00 0.000000e+00 0.000000e+00
<ENDHMM>
~h "M"
<BEGINHMM>
<NUMSTATES> 5
<STATE> 2
<MEAN> 25
 7.199078e+00 6.135608e+00 -3.916637e-01 -1.000533e+00 2.338871e+00 2.524986e+00 -3.378335e-01 -2.201241e+00 -3.259309e+00 -2.183219e+00 -2.546707e+00 -2.919235e+00 -4.264751e-01 9.260545e-01 8.697557e-01 1.218689e+00 1.780167e+00 1.624397e+00 -3.202087e-01 -9.463787e-01 -7.423621e-02 1.679287e-01 -9.272144e-01 -7.691136e-01 -1.107235e+00
<VARIANCE> 25
 3.128886e+01 1.493831e+01 1.966971e+01 3.231437e+01 3.982195e+01 3.735265e+01 3.553139e+01 3.944706e+01 3.552147e+01 1.951600e+01 3.069283e+01 2.100558e+01 1.310202e+00 1.840100e+00 1.783028e+00 2.143188e+00 3.117732e+00 2.634775e+00 2.170337e+00 2.209004e+00 2.688293e+00 1.611335e+00 2.446243e+00 1.730348e+00 1.752346e+00
<GCONST> 9.547284e+01
<STATE> 3
<MEAN> 25
 6.665746e+00 8.081535e+00 1.892535e+00 3.623576e+00 5.681334e+00 5.692934e+00 -1.538630e+00 -5.384207e+00 -2.583664e+00 -1.557312e+00 -4.945490e+00 -4.036429e+00 -1.108236e-01 1.009068e-01 1.214388e-01 2.947118e-01 2.810904e-01 2.807645e-01 -7.890527e-02 -2.157753e-01 3.010437e-02 -3.667216e-02 -1.504155e-01 -2.032095e-02 -1.497184e-01
<VARIANCE> 25
 1.660461e+01 1.351678e+01 1.650429e+01 2.100301e+01 2.275896e+01 2.896993e+01 2.412862e+01 3.214798e+01 2.238606e+01 2.111924e+01 1.770903e+01 1.915799e+01 3.965713e-01 4.777251e-01 5.664797e-01 6.225294e-01 1.196980e+00 8.217141e-01 9.649509e-01 1.131874e+00 1.046502e+00 1.057671e+00 1.002723e+00 6.736389e-01 1.594372e-01
<GCONST> 7.757804e+01
<STATE> 4
<MEAN> 25
 4.068487e+00 5.810544e+00 -1.295451e+00 2.391590e+00 3.261476e+00 5.584249e+00 -1.091805e+00 -2.196524e+00 -1.838468e+00 -1.252714e+00 -2.440166e+00 -1.532538e+00 1.316158e-01 -6.170813e-01 -4.745554e-01 -4.981993e-01 -1.076392e+00 -1.110622e+00 -6.983467e-02 5.875363e-01 3.473236e-01 -1.128817e-01 5.475380e-01 5.707365e-01 5.274740e-01
<VARIANCE> 25
 4.067472e+01 1.843449e+01 2.974704e+01 2.908682e+01 2.409460e+01 2.561715e+01 2.141870e+01 5.078496e+01 2.975572e+01 3.962604e+01 2.777934e+01 4.425285e+01 1.318832e+00 1.616883e+00 1.452723e+00 2.572100e+00 3.338081e+00 3.281543e+00 2.233531e+00 3.184664e+00 2.120534e+00 2.176354e+00 2.601284e+00 2.273675e+00 1.307484e+00
<GCONST> 9.693948e+01
<TRANSP> 5
 0.000000e+00 1.000000e+00 0.000000e+00 0.000000e+00 0.000000e+00
 0.000000e+00 5.570015e-01 4.429985e-01 0.000000e+00 0.000000e+00
 0.000000e+00 0.000000e+00 7.148030e-01 2.851970e-01 0.000000e+00
 0.000000e+00 0.000000e+00 0.000000e+00 7.041060e-01 2.958939e-01
 0.000000e+00 0.000000e+00 0.000000e+00 0.000000e+00 0.000000e+00
<ENDHMM>
~h "N"
<BEGINHMM>
<NUMSTATES> 5
<STATE> 2
<MEAN> 25
 6.423411e+00 2.480981e+00 7.433209e-02 3.360595e+00 4.130231e+00 2.467891e-01 -4.231813e+00 -6.255783e+00 -2.744791e+00 -3.270518e-01 -1.130008e+00 -1.935508e+00 -2.987645e-01 1.237670e+00 4.921830e-01 6.296656e-01 9.641505e-01 1.221653e+00 -1.615580e-01 -4.794089e-01 1.524023e-01 3.110655e-01 -8.756226e-01 -4.753380e-01 -1.155933e+00
<VARIANCE> 25
 2.496227e+01 2.597851e+01 2.735934e+01 2.758200e+01 2.828333e+01 6.083544e+01 3.240944e+01 3.896444e+01 3.196786e+01 2.325778e+01 2.713825e+01 2.337538e+01 1.270561e+00 2.062747e+00 2.114240e+00 2.647486e+00 2.291079e+00 3.698839e+00 2.903546e+00 2.725407e+00 2.631996e+00 1.975070e+00 2.418697e+00 1.927405e+00 1.247626e+00
<GCONST> 9.700371e+01
<STATE> 3
<MEAN> 25
 -2.516791e+00 3.622315e+00 -2.026497e+00 2.852606e+00 2.412089e+00 5.413928e+00 -5.040288e-01 1.485881e+00 1.128021e+00 1.050831e+00 -5.748575e-01 1.043451e+00 -1.643674e-01 1.083898e-01 4.871061e-02 1.638541e-02 -7.938571e-03 4.494734e-02 1.090432e-01 1.663605e-01 3.929149e-02 -7.102156e-02 -9.207674e-03 1.142911e-02 -1.835880e-01
<VARIANCE> 25
 3.817680e+01 1.853157e+01 2.383886e+01 2.180528e+01 2.057107e+01 1.736245e+01 2.164938e+01 3.723417e+01 1.823655e+01 1.454295e+01 1.482972e+01 1.660785e+01 2.794095e-01 4.860685e-01 5.684907e-01 6.608226e-01 7.419435e-01 8.357610e-01 1.054227e+00 1.161933e+00 9.541019e-01 9.549770e-01 9.160485e-01 8.468194e-01 1.803066e-01
<GCONST> 7.710892e+01
<STATE> 4
<MEAN> 25
 1.411039e+00 5.272577e+00 1.266374e+00 3.759135e+00 4.076064e+00 3.114997e+00 -4.889473e-01 -1.172353e+00 -9.844641e-01 -1.490196e+00 -1.860473e+00 -5.433855e-01 -3.233975e-01 -1.162954e+00 -2.839042e-01 -3.278255e-01 -6.871737e-01 -8.522794e-01 3.697183e-01 7.638199e-01 1.582130e-01 -1.913118e-01 5.535695e-01 4.383708e-01 6.463305e-01
<VARIANCE> 25
 3.835039e+01 2.886791e+01 2.865033e+01 3.149409e+01 3.106552e+01 4.007276e+01 2.858485e+01 4.491652e+01 2.813857e+01 2.118978e+01 2.364016e+01 1.929422e+01 2.245360e+00 4.127902e+00 3.255089e+00 3.578918e+00 3.432492e+00 4.373082e+00 3.164489e+00 3.961403e+00 2.821535e+00 2.971497e+00 2.863578e+00 1.954280e+00 2.728496e+00
<GCONST> 1.013307e+02
<TRANSP> 5
 0.000000e+00 1.000000e+00 0.000000e+00 0.000000e+00 0.000000e+00
 0.000000e+00 6.848904e-01 3.151096e-01 0.000000e+00 0.000000e+00
 0.000000e+00 0.000000e+00 9.177276e-01 8.227237e-02 0.000000e+00
 0.000000e+00 0.000000e+00 0.000000e+00 6.334561e-01 3.665438e-01
 0.000000e+00 0.000000e+00 0.000000e+00 0.000000e+00 0.000000e+00
<ENDHMM>
~h "P"
<BEGINHMM>
<NUMSTATES> 5
<STATE> 2
<MEAN> 25
 -5.567120e+00 2.673620e+00 -2.571066e+00 3.646083e-01 2.845929e-01 4.518540e+00 7.140491e-01 4.263069e+00 2.506226e+00 1.271973e+00 5.959240e-01 1.227166e+00 -1.377507e-01 4.984568e-02 -6.817401e-02 5.940331e-03 -3.696743e-02 7.569480e-02 2.367884e-03 1.117051e-01 6.211618e-02 1.921541e-02 -2.774391e-04 7.481858e-02 -2.752563e-01
<VARIANCE> 25
 1.635363e+01 2.021318e+01 2.411522e+01 1.767683e+01 1.264634e+01 2.041420e+01 1.671100e+01 1.994284e+01 2.176229e+01 1.590003e+01 1.055432e+01 1.000720e+01 5.893059e-01 6.877946e-01 7.527002e-01 7.218568e-01 8.601077e-01 1.221178e+00 1.134225e+00 1.317326e+00 1.457168e+00 8.723602e-01 8.692334e-01 8.651245e-01 8.618798e-01
<GCONST> 7.841554e+01
<STATE> 3
<MEAN> 25
 -2.250089e+00 3.213485e+00 -2.038600e+00 -6.843761e-01 -9.374323e-01 2.736520e+00 1.661514e+00 2.675004e+00 1.922034e+00 1.001730e+00 -2.321135e-01 1.080022e+00 1.594642e+00 -1.016985e+00 -3.525886e-01 -1.528173e-01 -4.170716e-01 -9.649434e-01 3.795847e-03 -6.311503e-01 -1.621678e-01 -4.352334e-01 1.793164e-01 -1.833711e-01 2.056317e+00
<VARIANCE> 25
 4.363062e+01 2.382889e+01 1.952748e+01 1.574349e+01 2.780494e+01 1.821178e+01 1.984004e+01 2.670717e+01 1.752084e+01 1.358585e+01 1.185980e+01 1.324749e+01 7.623956e+00 4.449567e+00 3.095136e+00 3.048943e+00 2.600366e+00 5.017029e+00 2.931856e+00 4.467049e+00 3.540511e+00 1.413179e+00 2.321875e+00 1.366474e+00 4.815975e+00
<GCONST> 9.689738e+01
<STATE> 4
<MEAN> 25
 -1.919259e+00 -6.782707e+00 -3.083983e+00 1.796270e-01 -2.478832e+00 -4.347402e+00 8.436227e-02 1.119190e+00 2.604238e+00 3.483953e-01 1.209743e+00 -7.405522e-01 1.271016e+00 -4.024849e-01 -3.067208e-01 1.944249e-01 -2.406602e-02 -5.330999e-01 -2.109109e-01 -5.031667e-01 -2.231002e-01 -5.927777e-02 -4.041804e-01 -4.848162e-01 1.203869e+00
<VARIANCE> 25
 4.366091e+01 6.602390e+01 3.997004e+01 3.491837e+01 4.047893e+01 8.682673e+01 4.149717e+01 7.832861e+01 6.792065e+01 3.272062e+01 3.490908e+01 1.909143e+01 4.449629e+00 5.835206e+00 5.291626e+00 3.554463e+00 3.840885e+00 9.491315e+00 5.285562e+00 8.093922e+00 5.289989e+00 4.015355e+00 3.397637e+00 2.576368e+00 4.949892e+00
<GCONST> 1.119821e+02
<TRANSP> 5
 0.000000e+00 1.000000e+00 0.000000e+00 0.000000e+00 0.000000e+00
 0.000000e+00 9.503477e-01 4.965233e-02 0.000000e+00 0.000000e+00
 0.000000e+00 0.000000e+00 5.753607e-01 4.246394e-01 0.000000e+00
 0.000000e+00 0.000000e+00 0.000000e+00 6.882895e-01 3.117105e-01
 0.000000e+00 0.000000e+00 0.000000e+00 0.000000e+00 0.000000e+00
<ENDHMM>
~h "R"
<BEGINHMM>
<NUMSTATES> 5
<STATE> 2
<MEAN> 25
 8.036067e+00 4.089566e+00 -5.195592e+00 -6.626832e+00 -1.360040e+00 1.469639e+00 2.182901e+00 -3.146845e+00 -6.813588e+00 -2.837130e+00 8.804884e-01 3.073470e-01 8.596056e-01 6.372066e-01 -4.906487e-01 -4.724551e-01 7.578165e-02 2.079323e-01 2.762836e-01 -7.926475e-01 -1.300805e+00 -2.172549e-01 4.067739e-01 4.185437e-01 3.774606e-01
<VARIANCE> 25
 3.862212e+01 4.944851e+01 3.127394e+01 4.724705e+01 4.045937e+01 3.878949e+01 5.717951e+01 6.371273e+01 5.629781e+01 4.641297e+01 4.518399e+01 2.280763e+01 2.499327e+00 3.652000e+00 1.975984e+00 2.683808e+00 3.294272e+00 2.911888e+00 3.224986e+00 3.858517e+00 3.518723e+00 3.141386e+00 3.422956e+00 2.207467e+00 1.946338e+00
<GCONST> 1.049178e+02
<STATE> 3
<MEAN> 25
 1.039822e+01 3.506539e+00 -7.356277e+00 -5.937358e+00 8.506524e-01 2.568357e+00 1.631145e+00 -8.351337e+00 -1.084267e+01 -5.500050e-01 4.993049e+00 2.234631e+00 -3.159947e-01 -9.252379e-02 1.530679e-01 7.038013e-01 5.270012e-01 -5.351361e-02 -5.120821e-01 -2.185618e-01 5.141309e-01 3.884770e-01 6.486262e-02 -1.381333e-01 -2.501977e-01
<VARIANCE> 25
 2.377355e+01 3.475133e+01 2.329185e+01 4.084162e+01 3.281540e+01 4.029988e+01 4.673481e+01 5.155788e+01 4.685469e+01 5.113715e+01 3.755457e+01 2.639837e+01 6.708239e-01 1.618936e+00 1.035788e+00 1.911655e+00 1.800081e+00 1.882319e+00 2.734739e+00 2.187035e+00 1.996494e+00 2.060688e+00 1.589542e+00 1.307211e+00 7.041154e-01
<GCONST> 9.474615e+01
<STATE> 4
<MEAN> 25
 -8.658042e-01 2.510606e+00 -4.584203e+00 -2.531431e-01 1.328301e+00 4.572394e+00 4.800508e-01 8.369846e-01 -7.526970e-01 5.892946e-01 1.956944e+00 1.664822e+00 -5.321856e-01 -1.583440e-01 3.440963e-01 4.271529e-01 1.016605e-01 -1.606828e-01 -1.418336e-01 3.952206e-01 6.492969e-01 6.250499e-02 -3.274004e-01 -1.748451e-01 -2.836405e-01
<VARIANCE> 25
 5.561567e+01 2.522452e+01 2.500266e+01 2.546138e+01 2.273225e+01 3.297928e+01 2.380267e+01 6.148988e+01 3.727380e+01 2.515050e+01 2.109260e+01 1.728107e+01 1.009519e+00 1.072315e+00 1.159607e+00 1.699201e+00 1.232482e+00 1.472692e+00 1.563407e+00 1.678657e+00 1.945904e+00 1.460383e+00 1.452956e+00 1.067591e+00 9.151068e-01
<GCONST> 9.001263e+01
<TRANSP> 5
 0.000000e+00 1.000000e+00 0.000000e+00 0.000000e+00 0.000000e+00
 0.000000e+00 6.140994e-01 3.859006e-01 0.000000e+00 0.000000e+00
 0.000000e+00 0.000000e+00 6.660405e-01 3.339595e-01 0.000000e+00
 0.000000e+00 0.000000e+00 0.000000e+00 8.255265e-01 1.744735e-01
 0.000000e+00 0.000000e+00 0.000000e+00 0.000000e+00 0.000000e+00
<ENDHMM>
~h "S"
<BEGINHMM>
<NUMSTATES> 5
<STATE> 2
<MEAN> 25
 -3.644479e+00 -4.754809e+00 4.878001e+00 5.747412e-02 -1.038189e-01 -6.422182e-01 2.798820e+00 -2.084664e-01 -1.039513e+00 -6.545986e-01 9.007185e-01 1.479816e+00 -2.800244e+00 -2.422740e+00 2.601601e+00 -1.037936e+00 -6.969072e-01 -4.955152e-01 1.183080e+00 6.267369e-01 6.768646e-01 -3.203236e-01 8.350475e-01 3.179418e-01 1.026171e+00
<VARIANCE> 25
 5.583880e+01 7.128564e+01 9.293436e+01 8.472179e+01 5.056620e+01 6.464027e+01 8.705499e+01 6.473978e+01 5.372254e+01 3.999687e+01 3.037922e+01 2.318750e+01 5.568960e+00 8.302433e+00 5.177825e+00 5.900207e+00 6.221360e+00 8.030480e+00 6.229382e+00 5.948799e+00 4.839198e+00 3.322810e+00 3.683517e+00 2.310125e+00 1.812254e+00
<GCONST> 1.144566e+02
<STATE> 3
<MEAN> 25
 -8.008183e+00 -1.956517e+01 1.061044e+01 1.425056e+00 -8.873011e+00 -1.276367e+00 1.093482e+00 4.667664e+00 -5.683547e-01 -3.784277e+00 4.703335e+00 2.038114e+00 -2.776596e-01 3.876044e-01 -6.368552e-01 -3.706876e-01 4.345573e-01 -1.993378e-01 1.399990e-01 -1.211114e-01 3.197981e-01 -2.620977e-02 -1.129127e-01 1.718837e-01 -1.644189e-01
<VARIANCE> 25
 2.169889e+01 1.059086e+02 6.668349e+01 4.659863e+01 7.737567e+01 3.357249e+01 5.473817e+01 4.071779e+01 3.367882e+01 2.521103e+01 2.344398e+01 1.742629e+01 3.019785e+00 5.866716e+00 5.708429e+00 2.979023e+00 3.791698e+00 2.006523e+00 2.875247e+00 2.342144e+00 2.204000e+00 1.761171e+00 2.247087e+00 1.717336e+00 1.249177e+00
<GCONST> 1.026302e+02
<STATE> 4
<MEAN> 25
 -1.713293e+01 -6.951334e+00 1.401155e+01 -8.290806e+00 2.888966e+00 -3.955039e+00 1.054792e+01 -1.576227e+00 3.830362e+00 -1.918077e+00 3.601410e+00 5.031914e-01 6.587164e-01 1.927269e-01 -5.157553e-01 3.628378e-01 -5.189516e-02 2.317351e-01 -4.748678e-01 1.699040e-01 -1.719704e-01 2.437421e-01 -3.321054e-01 -1.039608e-01 -4.349943e-01
<VARIANCE> 25
 4.016175e+01 4.479762e+01 6.641788e+01 3.578241e+01 3.493628e+01 8.945103e+01 1.276430e+02 6.493976e+01 5.011280e+01 3.576311e+01 2.312657e+01 1.856662e+01 3.709586e+00 2.408129e+00 2.054789e+00 1.591176e+00 1.982063e+00 2.681462e+00 3.753237e+00 2.484569e+00 2.617869e+00 1.969931e+00 1.918882e+00 1.524169e+00 9.201369e-01
<GCONST> 1.017468e+02
<TRANSP> 5
 0.000000e+00 1.000000e+00 0.000000e+00 0.000000e+00 0.000000e+00
 0.000000e+00 7.370528e-01 2.629472e-01 0.000000e+00 0.000000e+00
 0.000000e+00 0.000000e+00 7.491772e-01 2.508228e-01 0.000000e+00
 0.000000e+00 0.000000e+00 0.000000e+00 8.660613e-01 1.339387e-01
 0.000000e+00 0.000000e+00 0.000000e+00 0.000000e+00 0.000000e+00
<ENDHMM>
~h "T"
<BEGINHMM>
<NUMSTATES> 5
<STATE> 2
<MEAN> 25
 -3.009100e+00 -4.744699e+00 2.627013e-01 -1.355349e-01 1.012324e+00 -2.722482e+00 -5.079957e-01 1.011047e+00 1.059050e+00 -1.357811e+00 2.241618e-01 3.753744e-01 -8.108239e-01 -1.741503e+00 9.637794e-01 -1.986106e-01 -1.847259e-01 -9.843653e-01 -4.651054e-01 -5.392103e-01 4.659016e-01 -1.715244e-02 4.469511e-01 8.664815e-02 1.139239e+00
<VARIANCE> 25
 4.850019e+01 8.321692e+01 6.163064e+01 4.435291e+01 4.734104e+01 1.038609e+02 5.101010e+01 5.892983e+01 4.328830e+01 3.394852e+01 2.996897e+01 3.316790e+01 4.698775e+00 8.162939e+00 7.217326e+00 4.027224e+00 4.898481e+00 1.354235e+01 5.128602e+00 6.599177e+00 4.239833e+00 3.526952e+00 3.789958e+00 3.619810e+00 6.455246e+00
<GCONST> 1.147882e+02
<STATE> 3
<MEAN> 25
 -4.487932e+00 -1.015909e+01 3.821835e+00 -4.194042e-02 1.336106e+00 -1.838220e+00 -2.169586e+00 -4.107708e+00 7.121246e-01 -5.219318e-02 2.314521e+00 1.202424e+00 1.507476e-01 6.016167e-01 -2.415282e-01 -1.576329e-01 1.476649e-01 7.162810e-01 2.701725e-01 -2.788801e-01 -5.902898e-01 2.842902e-01 5.510541e-01 3.717416e-01 -3.528318e-01
<VARIANCE> 25
 7.045467e+01 1.143036e+02 8.037596e+01 5.169875e+01 4.219636e+01 1.007672e+02 1.033683e+02 7.810863e+01 4.868485e+01 3.445070e+01 3.319486e+01 2.072678e+01 6.082677e+00 8.127167e+00 4.447565e+00 2.986133e+00 3.971723e+00 4.062150e+00 4.345521e+00 6.405931e+00 5.388798e+00 2.913826e+00 2.758281e+00 2.061481e+00 2.816802e+00
<GCONST> 1.127049e+02
<STATE> 4
<MEAN> 25
 -5.321571e+00 -4.232123e+00 -1.232137e-01 4.784563e-01 3.226028e-01 4.018610e-01 6.454273e-01 2.037223e+00 1.404046e+00 8.186985e-01 1.768486e+00 1.510655e+00 5.831784e-01 6.549066e-01 -4.956946e-01 1.910980e-01 -5.909744e-02 2.600907e-01 3.017186e-02 1.032021e-01 -1.600097e-01 1.965209e-02 -5.790768e-02 -4.886072e-02 -3.761851e-01
<VARIANCE> 25
 3.449994e+01 5.985705e+01 3.765567e+01 3.836370e+01 3.690341e+01 6.277773e+01 3.302430e+01 3.447433e+01 3.214274e+01 2.139629e+01 2.263371e+01 1.481537e+01 2.907365e+00 4.699034e+00 2.986635e+00 2.571247e+00 2.804480e+00 3.986490e+00 2.549605e+00 2.972900e+00 2.402317e+00 2.020667e+00 2.313598e+00 1.287150e+00 1.696894e+00
<GCONST> 1.002820e+02
<TRANSP> 5
 0.000000e+00 1.000000e+00 0.000000e+00 0.000000e+00 0.000000e+00
 0.000000e+00 6.062716e-01 3.937284e-01 0.000000e+00 0.000000e+00
 0.000000e+00 0.000000e+00 4.581682e-01 5.418319e-01 0.000000e+00
 0.000000e+00 0.000000e+00 0.000000e+00 8.058322e-01 1.941678e-01
 0.000000e+00 0.000000e+00 0.000000e+00 0.000000e+00 0.000000e+00
<ENDHMM>
~h "V"
<BEGINHMM>
<NUMSTATES> 5
<STATE> 2
<MEAN> 25
 4.225818e+00 3.145692e+00 -1.758081e+00 -5.480805e-02 -2.073431e+00 -1.167759e+00 -1.497829e+00 -3.211972e-01 -1.205713e+00 -1.956119e+00 -1.689826e+00 -4.487449e-02 -5.250257e-01 2.385611e-01 2.554527e-01 7.322207e-02 1.962002e-01 3.022431e-01 2.430636e-01 4.101919e-01 3.957151e-01 -4.309866e-02 -8.660264e-02 -1.108451e-01 -4.479156e-01
<VARIANCE> 25
 5.684562e+01 2.328610e+01 2.813470e+01 1.242858e+01 3.466322e+01 6.028092e+01 1.802617e+01 3.425852e+01 3.361629e+01 2.112745e+01 2.985695e+01 1.994872e+01 1.471048e+00 2.060810e+00 9.289812e-01 8.654648e-01 1.830946e+00 2.947766e+00 1.613556e+00 1.896317e+00 1.925633e+00 1.799573e+00 1.554515e+00 1.480212e+00 7.020828e-01
<GCONST> 9.143536e+01
<STATE> 3
<MEAN> 25
 -4.882874e+00 3.592830e-01 3.311694e-01 -4.835608e-01 1.175057e+00 3.166235e+00 1.689268e+00 2.008078e+00 2.463130e+00 9.351916e-01 4.360495e-01 1.166691e+00 -1.662242e-01 -5.499214e-02 -6.001101e-02 -7.231925e-02 3.442027e-02 1.306146e-01 8.778326e-02 9.650514e-02 1.635440e-02 -3.449374e-02 3.600755e-02 4.844142e-02 -9.363837e-02
<VARIANCE> 25
 5.214411e+01 4.600280e+01 1.493261e+01 2.118116e+01 2.728203e+01 1.830324e+01 1.452391e+01 2.436443e+01 2.811378e+01 2.286688e+01 1.829695e+01 1.103117e+01 1.510107e+00 2.295951e+00 1.123739e+00 1.199408e+00 1.441500e+00 1.602659e+00 1.290735e+00 1.337825e+00 1.941455e+00 1.440354e+00 1.210504e+00 1.179598e+00 7.183630e-01
<GCONST> 8.732112e+01
<STATE> 4
<MEAN> 25
 1.135610e+00 4.651152e-01 3.070274e-01 -1.622030e+00 5.805976e+00 -1.278312e+00 -2.413918e+00 -1.026948e+00 -3.464530e+00 -4.319870e-01 2.239241e+00 -8.472759e-01 -7.632807e-02 -2.410665e-01 6.856795e-02 -6.787637e-02 1.795609e-01 -3.295039e-01 -5.500831e-02 -1.544763e-01 -2.403014e-01 1.298921e-01 3.348615e-01 8.319115e-02 1.594276e-01
<VARIANCE> 25
 8.596825e+01 6.878300e+01 4.401828e+01 6.875766e+01 1.318635e+02 7.750284e+01 8.520633e+01 6.831209e+01 5.770568e+01 5.171296e+01 4.366748e+01 2.699542e+01 3.693626e+00 3.735114e+00 3.637051e+00 5.252333e+00 6.623034e+00 6.666824e+00 5.589784e+00 4.715135e+00 3.846354e+00 3.052619e+00 3.953825e+00 2.506070e+00 1.651309e+00
<GCONST> 1.135134e+02
<TRANSP> 5
 0.000000e+00 1.000000e+00 0.000000e+00 0.000000e+00 0.000000e+00
 0.000000e+00 7.928066e-01 2.071933e-01 0.000000e+00 0.000000e+00
 0.000000e+00 0.000000e+00 8.982388e-01 1.017611e-01 0.000000e+00
 0.000000e+00 0.000000e+00 0.000000e+00 8.187173e-01 1.812827e-01
 0.000000e+00 0.000000e+00 0.000000e+00 0.000000e+00 0.000000e+00
<ENDHMM>
~h "W"
<BEGINHMM>
<NUMSTATES> 5
<STATE> 2
<MEAN> 25
 1.672880e+00 1.865055e+00 -5.541354e-01 -2.426305e+00 -9.896231e-02 -8.407229e-02 1.161060e+00 -3.246662e-01 -1.252514e+00 -1.478459e+00 -1.336329e+00 -3.557279e-01 5.940269e-01 2.122278e+00 7.923887e-02 -3.077915e-01 -5.728878e-01 -2.959557e-01 1.954196e-01 6.122212e-01 3.557094e-01 -4.527867e-01 -6.324739e-01 -3.557401e-01 -8.307983e-01
<VARIANCE> 25
 5.985500e+01 5.775842e+01 2.800252e+01 4.024728e+01 2.901549e+01 3.489286e+01 3.212714e+01 4.755722e+01 4.903775e+01 2.761640e+01 2.176448e+01 2.711398e+01 3.075130e+00 5.737241e+00 2.979907e+00 4.295575e+00 3.825192e+00 3.581607e+00 4.731180e+00 3.940941e+00 3.625987e+00 2.348172e+00 2.855901e+00 2.789773e+00 1.223913e+00
<GCONST> 1.043475e+02
<STATE> 3
<MEAN> 25
 5.497331e+00 6.176990e+00 -3.525907e-01 -2.462834e+00 -2.897695e+00 -2.381223e+00 -7.577970e-01 1.232891e-01 -2.247579e-01 -2.050439e+00 -2.766966e+00 -2.184676e+00 1.654223e+00 1.929157e+00 5.811311e-01 -4.714938e-01 -1.245219e+00 -1.685062e+00 -7.789903e-01 -3.939657e-01 -4.506161e-02 -1.389446e-01 -5.739548e-01 -1.063290e+00 7.165985e-01
<VARIANCE> 25
 3.512976e+01 4.269082e+01 2.372817e+01 2.648625e+01 2.549443e+01 3.109205e+01 4.003538e+01 3.174915e+01 2.145342e+01 1.973337e+01 2.351810e+01 2.363535e+01 3.254433e+00 3.478907e+00 2.845105e+00 2.907991e+00 4.389829e+00 3.662581e+00 4.425560e+00 5.309592e+00 5.658442e+00 2.156119e+00 2.368205e+00 2.340744e+00 3.426741e+00
<GCONST> 1.018148e+02
<STATE> 4
<MEAN> 25
 8.612187e+00 1.057416e+01 2.194615e+00 -3.432689e+00 -4.858257e+00 -6.963306e+00 -4.062109e+00 -1.184886e+00 -7.837506e-02 -1.829241e+00 -3.885912e+00 -4.131795e+00 3.627575e-01 -2.940695e-01 -1.867645e-01 9.752356e-03 -1.492504e-01 -3.693551e-01 1.939136e-01 7.951891e-02 -3.275680e-01 -1.085659e-01 -1.907755e-01 -4.090090e-02 4.087795e-01
<VARIANCE> 25
 1.564794e+01 2.702574e+01 1.862590e+01 1.983319e+01 2.143837e+01 2.935841e+01 4.210416e+01 3.086673e+01 2.492476e+01 1.954936e+01 2.650468e+01 2.716180e+01 1.020571e+00 2.378664e+00 2.021298e+00 2.112277e+00 2.625012e+00 2.521402e+00 3.034645e+00 3.530198e+00 4.054515e+00 2.272773e+00 2.800092e+00 2.378138e+00 1.105048e+00
<GCONST> 9.510494e+01
<TRANSP> 5
 0.000000e+00 1.000000e+00 0.000000e+00 0.000000e+00 0.000000e+00
 0.000000e+00 4.715444e-01 5.284556e-01 0.000000e+00 0.000000e+00
 0.000000e+00 0.000000e+00 2.913321e-01 7.086679e-01 0.000000e+00
 0.000000e+00 0.000000e+00 0.000000e+00 7.558686e-01 2.441314e-01
 0.000000e+00 0.000000e+00 0.000000e+00 0.000000e+00 0.000000e+00
<ENDHMM>
~h "Y"
<BEGINHMM>
<NUMSTATES> 5
<STATE> 2
<MEAN> 25
 6.579504e-01 -2.995749e-01 -7.697074e+00 1.190574e+00 2.417536e+00 6.027605e+00 1.090290e+00 -3.735243e+00 -6.038774e+00 1.310918e+00 3.225180e+00 9.388158e-01 -1.011542e-01 2.431436e-01 -2.490343e-02 -1.081191e-01 1.440477e-02 3.019291e-01 1.743734e-01 3.053865e-01 2.796829e-03 -3.375044e-01 -1.018271e-01 1.975826e-01 -2.669184e-01
<VARIANCE> 25
 6.171595e+01 1.875167e+01 2.083244e+01 3.137396e+01 9.707882e+00 5.373236e+01 2.135806e+01 1.504918e+02 7.895716e+01 3.248344e+01 1.898759e+01 1.975771e+01 9.835293e-01 1.260138e+00 1.030747e+00 1.858004e+00 8.664624e-01 1.392464e+00 2.943061e+00 2.887843e+00 4.039817e+00 1.604448e+00 1.696707e+00 1.434998e+00 1.012805e+00
<GCONST> 9.355615e+01
<STATE> 3
<MEAN> 25
 1.113455e+00 -1.446950e+00 8.432317e-01 8.853122e+00 2.708814e+00 -9.860990e-01 -4.489796e+00 1.329325e-01 -1.285046e+00 -4.301801e+00 -1.550565e+00 1.853330e-01 1.117096e+00 -9.445654e-01 2.033348e+00 2.672564e+00 -2.324134e-01 -2.841881e+00 -1.885564e+00 5.135992e-01 9.791360e-01 -7.707921e-02 -1.255522e+00 -1.101212e+00 1.627576e+00
<VARIANCE> 25
 2.184418e+01 4.390382e+01 6.254896e+01 7.280930e+01 4.101809e+01 7.158991e+01 5.744283e+01 5.841483e+01 3.017579e+01 3.868801e+01 3.160574e+01 2.225089e+01 3.474890e+00 6.526000e+00 4.854411e+00 2.613227e+00 5.628163e+00 2.943633e+00 7.413544e+00 3.476061e+00 3.907904e+00 4.180746e+00 3.220163e+00 1.937470e+00 3.244521e+00
<GCONST> 1.084780e+02
<STATE> 4
<MEAN> 25
 7.448265e+00 9.386227e-01 7.297031e+00 9.321139e+00 5.908581e+00 -7.293112e+00 -9.354007e+00 -2.588924e+00 -1.468386e+00 2.507152e+00 -2.650885e+00 -6.794844e+00 1.733376e-01 -5.229031e-02 -1.924854e-01 -3.363541e-01 1.204926e-02 5.923912e-02 -3.482538e-02 -2.648727e-01 -8.078138e-02 1.696393e-01 1.823847e-01 8.643497e-02 1.605213e-01
<VARIANCE> 25
 1.373314e+01 3.390402e+01 2.613813e+01 1.334648e+02 1.159898e+02 8.713211e+01 1.577174e+02 5.410942e+01 3.047231e+01 4.035146e+01 4.053600e+01 4.097255e+01 9.546033e-01 1.530992e+00 1.819894e+00 4.132033e+00 4.081395e+00 5.726039e+00 4.562171e+00 3.822460e+00 3.102542e+00 3.703811e+00 3.210980e+00 3.233352e+00 1.078898e+00
<GCONST> 1.063146e+02
<TRANSP> 5
 0.000000e+00 1.000000e+00 0.000000e+00 0.000000e+00 0.000000e+00
 0.000000e+00 8.640040e-01 1.359961e-01 0.000000e+00 0.000000e+00
 0.000000e+00 0.000000e+00 6.958076e-01 3.041924e-01 0.000000e+00
 0.000000e+00 0.000000e+00 0.000000e+00 9.262169e-01 7.378310e-02
 0.000000e+00 0.000000e+00 0.000000e+00 0.000000e+00 0.000000e+00
<ENDHMM>
~h "Z"
<BEGINHMM>
<NUMSTATES> 5
<STATE> 2
<MEAN> 25
 1.047714e+00 -3.875510e+00 9.978624e+00 4.955831e+00 -1.399329e+00 -3.437907e-01 3.553184e+00 -4.535811e+00 -5.663098e+00 -1.596224e+00 -2.016954e+00 -2.195690e-01 -3.247720e+00 -2.365316e+00 3.531249e+00 -1.013879e+00 -1.045884e+00 4.854196e-01 2.045069e+00 9.622568e-01 6.729886e-01 -1.556376e-03 1.450675e+00 4.632761e-01 5.437607e-01
<VARIANCE> 25
 3.379254e+01 6.734116e+01 7.243541e+01 7.021092e+01 6.928605e+01 3.955596e+01 8.790874e+01 7.747531e+01 5.247297e+01 5.288440e+01 3.672096e+01 2.746505e+01 2.179161e+00 6.971579e+00 3.584258e+00 6.016791e+00 7.316140e+00 6.700950e+00 8.825571e+00 5.619063e+00 6.264681e+00 4.615785e+00 2.721719e+00 2.785795e+00 1.042355e+00
<GCONST> 1.128177e+02
<STATE> 3
<MEAN> 25
 -1.166243e+01 -3.058367e+00 1.139441e+01 -6.208807e+00 3.214418e+00 4.184721e+00 -5.757955e-01 1.934130e+00 2.643855e+00 -2.686094e+00 2.616506e+00 1.145204e+00 -8.080740e-01 -4.756955e-01 5.760968e-02 -5.305468e-01 -2.551196e-01 -8.922251e-02 3.512515e-01 2.696923e-01 2.647102e-01 2.318581e-02 2.842601e-01 6.380652e-02 -6.579763e-02
<VARIANCE> 25
 3.823829e+01 9.558749e+01 6.373166e+01 5.501172e+01 7.698174e+01 3.080268e+01 5.456984e+01 4.798025e+01 3.994358e+01 2.076390e+01 1.637363e+01 1.309033e+01 6.370290e+00 1.887760e+00 2.735023e+00 3.452262e+00 2.827457e+00 2.221381e+00 2.800750e+00 3.420093e+00 2.933862e+00 2.053554e+00 1.798528e+00 1.172240e+00 2.496390e+00
<GCONST> 1.023286e+02
<STATE> 4
<MEAN> 25
 -1.037309e+01 -1.013431e+01 1.421391e+01 -1.542211e+00 -3.012769e+00 -4.160262e+00 1.093964e+01 -2.849731e+00 -3.129404e+00 -6.294009e-01 2.442983e+00 6.680933e-01 1.177779e+00 6.237290e-01 -1.710703e+00 4.272043e-01 -7.314812e-04 1.480671e-01 -1.123614e+00 -5.032256e-03 -5.987343e-02 -3.540881e-02 -3.256639e-01 3.627525e-02 -5.745494e-01
<VARIANCE> 25
 5.337097e+01 8.053433e+01 1.051370e+02 6.325044e+01 5.212224e+01 8.738383e+01 1.368933e+02 9.150179e+01 5.507352e+01 5.198351e+01 3.525510e+01 2.874638e+01 4.485357e+00 4.066398e+00 4.137406e+00 3.184267e+00 3.705671e+00 4.362407e+00 5.331449e+00 4.261733e+00 4.084907e+00 3.517460e+00 3.277087e+00 2.106248e+00 1.249451e+00
<GCONST> 1.120631e+02
<TRANSP> 5
 0.000000e+00 1.000000e+00 0.000000e+00 0.000000e+00 0.000000e+00
 0.000000e+00 6.651186e-01 3.348814e-01 0.000000e+00 0.000000e+00
 0.000000e+00 0.000000e+00 7.965584e-01 2.034415e-01 0.000000e+00
 0.000000e+00 0.000000e+00 0.000000e+00 7.896047e-01 2.103953e-01
 0.000000e+00 0.000000e+00 0.000000e+00 0.000000e+00 0.000000e+00
<ENDHMM>
~h "AA"
<BEGINHMM>
<NUMSTATES> 5
<STATE> 2
<MEAN> 25
 -2.975416e+00 9.442143e-01 -3.063750e+00 3.572991e-01 -1.267256e+00 2.236195e+00 1.013171e+00 4.400296e+00 2.564477e+00 1.026186e-01 5.569540e-01 1.714187e+00 6.608369e-01 2.847732e-01 -2.043457e-01 -2.708373e-01 -3.953474e-01 -1.740956e-01 8.565973e-02 -1.649246e-01 -8.224488e-02 2.352753e-02 -2.315252e-01 -1.712268e-01 4.172867e-01
<VARIANCE> 25
 3.830675e+01 4.265641e+01 1.954819e+01 2.159715e+01 1.810685e+01 2.857926e+01 2.064632e+01 2.887860e+01 2.324039e+01 1.874284e+01 1.602438e+01 1.439953e+01 2.150003e+00 2.854546e+00 2.363009e+00 2.102982e+00 1.979522e+00 2.340793e+00 2.201423e+00 2.152508e+00 2.003644e+00 1.717960e+00 1.859927e+00 1.272981e+00 1.912192e+00
<GCONST> 9.280179e+01
<STATE> 3
<MEAN> 25
 1.037439e+01 3.000784e+00 -2.960299e+00 -5.714362e+00 -1.053356e+01 -6.769198e+00 3.252182e+00 4.152132e+00 2.139355e+00 -5.623639e-01 -4.427364e+00 -4.171356e+00 9.237676e-01 -3.704940e-01 -2.672989e-01 -6.845289e-01 -8.016343e-01 -4.907357e-01 6.692218e-01 1.603604e-01 -2.755291e-01 -2.084757e-01 -8.963412e-01 -3.073398e-01 1.099766e+00
<VARIANCE> 25
 1.524761e+01 6.100045e+01 3.961269e+01 2.881227e+01 3.346760e+01 3.625440e+01 7.262661e+01 4.869598e+01 4.358321e+01 3.961379e+01 3.120206e+01 1.602177e+01 1.474991e+00 3.196369e+00 1.778014e+00 2.989357e+00 2.368327e+00 2.847419e+00 2.340711e+00 3.919445e+00 2.871092e+00 2.490132e+00 2.619960e+00 2.131402e+00 1.170835e+00
<GCONST> 9.995344e+01
<STATE> 4
<MEAN> 25
 9.817265e+00 5.563154e-02 -3.934951e+00 -7.774525e+00 -1.040867e+01 -3.138963e+00 5.708773e+00 3.415066e+00 2.121581e+00 -1.213608e+00 -6.169050e+00 -1.220786e+00 -3.213397e-01 1.557563e-01 6.229386e-02 3.737793e-01 8.185755e-01 6.215493e-01 -2.186837e-01 -8.381470e-01 -6.031355e-01 -7.959551e-02 3.516251e-01 3.053642e-01 -3.284234e-01
<VARIANCE> 25
 2.043855e+01 3.695364e+01 2.889665e+01 3.788927e+01 4.196970e+01 3.521914e+01 5.210382e+01 5.130303e+01 5.395655e+01 6.625084e+01 3.555523e+01 1.917341e+01 5.814070e-01 1.799682e+00 1.362135e+00 1.752726e+00 2.462199e+00 2.326607e+00 2.513608e+00 2.210227e+00 2.343883e+00 2.142206e+00 1.820447e+00 1.708002e+00 6.742249e-01
<GCONST> 9.619785e+01
<TRANSP> 5
 0.000000e+00 1.000000e+00 0.000000e+00 0.000000e+00 0.000000e+00
 0.000000e+00 8.492220e-01 1.507780e-01 0.000000e+00 0.000000e+00
 0.000000e+00 0.000000e+00 6.773362e-01 3.226637e-01 0.000000e+00
 0.000000e+00 0.000000e+00 0.000000e+00 8.146525e-01 1.853475e-01
 0.000000e+00 0.000000e+00 0.000000e+00 0.000000e+00 0.000000e+00
<ENDHMM>
~h "AE"
<BEGINHMM>
<NUMSTATES> 5
<STATE> 2
<MEAN> 25
 5.228077e+00 -3.039793e+00 -4.719645e+00 -2.281545e+00 -2.085362e+00 -7.612523e-01 -5.724459e-01 -2.588678e+00 1.381671e+00 2.808518e+00 5.557070e-01 -1.965473e-01 7.406049e-01 -8.167865e-01 -9.194624e-01 -4.093678e-01 -5.239940e-01 -4.363205e-01 7.440177e-01 1.592830e-02 4.016371e-01 1.487148e-01 -1.410910e-01 -2.649987e-01 1.306798e+00
<VARIANCE> 25
 5.171958e+01 4.295317e+01 3.615519e+01 3.354142e+01 4.415755e+01 4.062698e+01 5.149525e+01 5.236657e+01 3.948410e+01 5.215957e+01 3.872147e+01 1.955162e+01 2.850485e+00 4.070845e+00 3.921322e+00 3.417663e+00 3.881314e+00 3.495984e+00 5.109735e+00 5.208416e+00 3.802032e+00 3.215025e+00 3.237207e+00 1.802051e+00 3.226686e+00
<GCONST> 1.067795e+02
<STATE> 3
<MEAN> 25
 1.080109e+01 -5.513228e+00 -8.837227e+00 -4.204664e+00 -4.243106e+00 -2.541070e+00 7.167058e+00 -1.916271e+00 1.251426e+00 -1.334993e-01 -2.100308e+00 -9.810700e-01 -4.200239e-02 -2.579509e-02 4.864229e-02 -1.110876e-01 -1.265346e-01 7.230990e-02 3.201980e-01 -1.298442e-01 8.579835e-02 3.368947e-02 -3.120735e-01 1.065830e-01 -1.679030e-02
<VARIANCE> 25
 1.593762e+01 2.810630e+01 3.053527e+01 2.830272e+01 3.201672e+01 1.971252e+01 6.367400e+01 4.497144e+01 3.495115e+01 4.693252e+01 1.860734e+01 1.445473e+01 2.969652e-01 7.256092e-01 9.457725e-01 9.720772e-01 1.228106e+00 1.148217e+00 1.552123e+00 1.691269e+00 1.258948e+00 1.155054e+00 8.940663e-01 1.017845e+00 2.803539e-01
<GCONST> 8.491624e+01
<STATE> 4
<MEAN> 25
 7.819944e+00 -2.325259e+00 -4.896442e+00 -3.717473e+00 -3.311536e+00 4.529804e-01 3.550848e+00 -3.307481e+00 1.718436e+00 4.321223e+00 -1.460538e+00 -7.856643e-01 -8.014687e-01 9.763013e-01 7.099499e-01 4.902155e-01 7.572430e-01 6.630331e-01 -4.241243e-01 5.858313e-01 1.122209e-02 -2.606047e-01 4.249787e-01 2.061729e-01 -1.279029e+00
<VARIANCE> 25
 2.315325e+01 2.661597e+01 2.418816e+01 3.625979e+01 5.065867e+01 3.703466e+01 3.701146e+01 5.699888e+01 3.323783e+01 5.218852e+01 2.184908e+01 2.316472e+01 1.129853e+00 1.768668e+00 2.503808e+00 2.407641e+00 2.513347e+00 2.523373e+00 3.185741e+00 4.641433e+00 2.375958e+00 2.886543e+00 1.966670e+00 1.691276e+00 9.191501e-01
<GCONST> 9.809639e+01
<TRANSP> 5
 0.000000e+00 1.000000e+00 0.000000e+00 0.000000e+00 0.000000e+00
 0.000000e+00 6.937026e-01 3.062974e-01 0.000000e+00 0.000000e+00
 0.000000e+00 0.000000e+00 7.913731e-01 2.086268e-01 0.000000e+00
 0.000000e+00 0.000000e+00 0.000000e+00 7.329826e-01 2.670174e-01
 0.000000e+00 0.000000e+00 0.000000e+00 0.000000e+00 0.000000e+00
<ENDHMM>
~h "AH"
<BEGINHMM>
<NUMSTATES> 5
<STATE> 2
<MEAN> 25
 3.397921e+00 -1.583202e+00 6.732898e-01 -1.070606e+00 -1.503283e+00 -3.444537e+00 -1.447792e+00 -2.578524e+00 -2.335533e+00 -1.617424e+00 -7.134098e-01 4.949199e-01 1.552734e+00 -4.073482e-01 -5.415252e-01 -1.335980e-01 -6.978754e-01 -1.131909e+00 -1.461691e-01 -6.097273e-01 -4.157860e-01 1.053319e-01 -4.144993e-01 -2.533846e-01 1.392965e+00
<VARIANCE> 25
 4.830022e+01 4.514261e+01 4.885686e+01 6.475235e+01 5.899425e+01 5.845021e+01 5.325133e+01 5.321203e+01 4.528264e+01 3.822451e+01 3.602347e+01 2.315906e+01 4.258875e+00 5.704619e+00 4.525055e+00 5.193978e+00 6.517106e+00 6.458808e+00 5.588845e+00 4.748041e+00 4.431924e+00 3.586915e+00 3.452064e+00 2.739553e+00 3.540225e+00
<GCONST> 1.116144e+02
<STATE> 3
<MEAN> 25
 7.071414e+00 -6.419784e-02 -2.052822e+00 1.044452e+00 -9.348671e-01 -2.639565e+00 -2.153495e+00 -3.861047e+00 -3.009372e+00 -1.262421e+00 -1.079541e+00 2.023617e-01 -1.913955e-01 3.516630e-01 -1.523531e-02 -4.705966e-03 1.437691e-01 3.258183e-01 7.706030e-02 3.062473e-01 2.968884e-01 -1.036984e-01 -5.798052e-02 -5.707019e-02 -3.612446e-01
<VARIANCE> 25
 2.825433e+01 4.569513e+01 3.003394e+01 5.439661e+01 5.345587e+01 4.843490e+01 5.612796e+01 4.977140e+01 4.787117e+01 3.666489e+01 3.088788e+01 2.614207e+01 1.131985e+00 2.008238e+00 1.724548e+00 2.261958e+00 2.359028e+00 2.142534e+00 2.364944e+00 2.434887e+00 2.114959e+00 1.922278e+00 1.622141e+00 1.425024e+00 1.172635e+00
<GCONST> 9.842026e+01
<STATE> 4
<MEAN> 25
 3.822889e+00 1.026793e+00 8.599553e-01 -3.056410e+00 -2.519845e+00 -1.513275e+00 -4.275690e-01 -8.865139e-01 6.076349e-01 3.588214e-01 -2.059160e+00 -1.328213e+00 -2.306075e-01 2.904430e-01 2.792592e-01 -1.693824e-02 2.417840e-01 5.382023e-01 1.468323e-01 2.427133e-01 9.157421e-02 9.051703e-02 1.075298e-01 -5.270365e-02 -2.981008e-01
<VARIANCE> 25
 7.120292e+01 3.956091e+01 4.722288e+01 6.402047e+01 1.083251e+02 5.502841e+01 7.214553e+01 4.942510e+01 7.180248e+01 6.026950e+01 3.858226e+01 2.799626e+01 2.858416e+00 2.800884e+00 2.448004e+00 3.282953e+00 5.427126e+00 4.016642e+00 3.688281e+00 3.451586e+00 3.825534e+00 3.602581e+00 2.777026e+00 2.010492e+00 2.484780e+00
<GCONST> 1.091775e+02
<TRANSP> 5
 0.000000e+00 1.000000e+00 0.000000e+00 0.000000e+00 0.000000e+00
 0.000000e+00 5.479030e-01 4.520971e-01 0.000000e+00 0.000000e+00
 0.000000e+00 0.000000e+00 7.345182e-01 2.654818e-01 0.000000e+00
 0.000000e+00 0.000000e+00 0.000000e+00 6.653761e-01 3.346239e-01
 0.000000e+00 0.000000e+00 0.000000e+00 0.000000e+00 0.000000e+00
<ENDHMM>
~h "AO"
<BEGINHMM>
<NUMSTATES> 5
<STATE> 2
<MEAN> 25
 1.012414e+01 6.229193e+00 1.956041e-01 -5.970604e+00 -8.094968e+00 -8.362983e+00 -3.820660e+00 1.081189e+00 1.124361e+00 8.593060e-01 -1.738912e+00 -3.397720e+00 5.303209e-01 2.051021e-01 -3.298998e-01 -7.532028e-01 -9.840047e-01 -2.565471e-01 4.613729e-01 1.318063e-01 -8.250484e-02 4.072305e-01 1.854894e-01 -4.447629e-01 2.016713e-01
<VARIANCE> 25
 2.286365e+01 3.665018e+01 1.795361e+01 3.275827e+01 4.390886e+01 4.094341e+01 5.687174e+01 5.638840e+01 2.736846e+01 3.960027e+01 2.890572e+01 2.116492e+01 9.849588e-01 1.492617e+00 1.220575e+00 1.925169e+00 3.167093e+00 3.084123e+00 3.033397e+00 2.746732e+00 2.108335e+00 1.602706e+00 1.668683e+00 1.466444e+00 6.308731e-01
<GCONST> 9.531753e+01
<STATE> 3
<MEAN> 25
 1.136308e+01 6.416436e+00 -2.233268e+00 -9.364057e+00 -1.143822e+01 -5.090700e+00 1.828204e+00 9.328193e-01 8.387291e-02 2.120226e+00 -2.001308e+00 -5.068413e+00 1.475947e-02 -1.363321e-01 -5.605133e-01 -2.237975e-01 4.707888e-01 9.406207e-01 6.903414e-01 -2.054971e-01 -8.663183e-01 -6.941499e-01 4.742346e-02 4.910026e-01 -2.232542e-02
<VARIANCE> 25
 1.893573e+01 3.394158e+01 1.305457e+01 2.460061e+01 4.818568e+01 3.406934e+01 4.917260e+01 4.376029e+01 4.584280e+01 3.437584e+01 2.184413e+01 2.560040e+01 1.623211e-01 5.481485e-01 8.109564e-01 8.327858e-01 1.189308e+00 1.439882e+00 1.782097e+00 1.668916e+00 1.834325e+00 1.834777e+00 1.257912e+00 1.040994e+00 1.341200e-01
<GCONST> 8.524136e+01
<STATE> 4
<MEAN> 25
 8.600352e+00 3.670978e+00 -3.315298e+00 -8.497283e+00 -6.224540e+00 -5.786258e-01 4.259528e+00 9.666473e-02 -4.048167e+00 -6.863863e-01 -1.028104e+00 -1.027656e+00 -6.246573e-01 -3.254366e-01 7.492118e-03 5.746718e-01 9.807426e-01 8.161631e-01 4.094606e-02 -4.405833e-01 -5.365164e-01 -4.119292e-01 2.601121e-01 4.400706e-01 -3.838054e-01
<VARIANCE> 25
 3.030960e+01 3.718834e+01 2.695285e+01 4.011524e+01 2.839803e+01 3.760057e+01 4.386742e+01 6.384164e+01 6.124920e+01 5.511802e+01 2.424452e+01 1.842072e+01 4.062388e-01 1.142062e+00 8.348438e-01 1.215061e+00 2.251862e+00 1.864228e+00 1.582741e+00 2.469169e+00 2.411080e+00 2.182350e+00 2.003823e+00 1.612788e+00 6.713060e-01
<GCONST> 9.357616e+01
<TRANSP> 5
 0.000000e+00 1.000000e+00 0.000000e+00 0.000000e+00 0.000000e+00
 0.000000e+00 6.922638e-01 3.077361e-01 0.000000e+00 0.000000e+00
 0.000000e+00 0.000000e+00 7.470094e-01 2.529906e-01 0.000000e+00
 0.000000e+00 0.000000e+00 0.000000e+00 6.471078e-01 3.528922e-01
 0.000000e+00 0.000000e+00 0.000000e+00 0.000000e+00 0.000000e+00
<ENDHMM>
~h "AW"
<BEGINHMM>
<NUMSTATES> 5
<STATE> 2
<MEAN> 25
 8.070899e+00 -9.265317e+00 -1.166632e+01 -4.405632e+00 -4.269805e+00 -6.279296e-02 4.663868e+00 1.303697e-02 7.193574e+00 1.293742e+01 -6.564691e+00 -4.399372e-01 1.157808e+00 9.296408e-01 -1.518170e-01 -9.856610e-01 -7.667000e-02 2.802309e-02 7.494421e-01 -1.056029e+00 -6.296212e-01 8.031661e-01 -9.275032e-01 -4.298268e-02 8.363593e-01
<VARIANCE> 25
 2.550854e+01 4.723927e+01 5.437262e+01 3.988710e+01 3.695024e+01 3.003249e+01 1.873845e+01 7.041265e+01 4.460352e+01 4.053090e+01 4.190203e+01 2.137959e+01 2.702006e+00 3.584648e+00 4.394374e+00 1.746072e+00 1.686747e+00 5.477782e+00 1.877243e+00 5.282268e+00 3.606824e+00 3.044094e+00 4.118562e+00 2.581609e+00 6.942512e-01
<GCONST> 1.024386e+02
<STATE> 3
<MEAN> 25
 2.091988e+00 3.142932e+00 -5.468419e+00 -1.240535e+00 -2.586839e+00 3.102010e+00 2.392565e+00 1.584237e+00 2.752519e+00 2.374838e+00 -1.424257e+00 8.648630e-01 -2.902900e-01 1.929480e-01 1.617643e-01 3.030152e-01 -1.566795e-02 2.226362e-01 -1.833808e-01 4.047981e-01 5.070003e-02 -4.834538e-01 2.917389e-01 1.004617e-01 -4.461420e-01
<VARIANCE> 25
 6.252356e+01 1.797860e+01 1.208668e+01 4.268755e+01 4.043684e+01 5.114442e+01 1.974971e+01 3.655763e+01 3.559705e+01 4.032964e+01 2.540507e+01 2.160528e+01 5.755504e-01 1.507405e+00 8.362671e-01 1.006731e+00 1.977894e+00 2.681702e+00 1.428530e+00 1.905348e+00 2.466859e+00 2.319331e+00 1.858343e+00 1.989599e+00 4.549786e-01
<GCONST> 9.163131e+01
<STATE> 4
<MEAN> 25
 -8.701641e+00 -7.427125e+00 4.019279e+00 2.660359e+00 -7.792497e-01 -3.202989e+00 5.339944e+00 5.838545e+00 1.873618e+00 -2.512331e+00 -3.855835e-01 9.258316e-01 -1.133970e-01 -4.607945e-02 4.861154e-03 3.235459e-03 4.474388e-02 3.760454e-02 -1.191008e-01 -9.819426e-02 1.356770e-02 -5.730901e-02 -3.163621e-02 2.492145e-03 -7.124304e-02
<VARIANCE> 25
 4.569550e+01 7.397221e+01 8.908742e+01 1.643097e+01 1.604443e+01 1.049016e+02 3.875100e+01 2.349014e+01 5.028557e+01 1.728893e+01 2.117347e+01 4.508088e+01 1.550259e+00 2.364241e+00 2.776868e+00 1.401866e+00 1.490010e+00 2.877813e+00 1.239799e+00 1.214780e+00 1.462391e+00 1.427346e+00 1.232572e+00 1.390755e+00 6.351830e-01
<GCONST> 9.457686e+01
<TRANSP> 5
 0.000000e+00 1.000000e+00 0.000000e+00 0.000000e+00 0.000000e+00
 0.000000e+00 8.591071e-01 1.408928e-01 0.000000e+00 0.000000e+00
 0.000000e+00 0.000000e+00 9.542381e-01 4.576191e-02 0.000000e+00
 0.000000e+00 0.000000e+00 0.000000e+00 9.253316e-01 7.466844e-02
 0.000000e+00 0.000000e+00 0.000000e+00 0.000000e+00 0.000000e+00
<ENDHMM>
~h "AY"
<BEGINHMM>
<NUMSTATES> 5
<STATE> 2
<MEAN> 25
 3.540200e+00 -2.281564e+00 -3.142557e+00 -1.580946e+00 -5.422504e+00 -2.286281e+00 1.107054e+00 -1.556820e-01 5.614562e-01 2.068629e-01 -1.558801e+00 -1.396675e+00 1.151205e+00 -3.243575e-01 -6.235208e-01 -4.870902e-01 -1.013103e+00 -3.452157e-01 -1.714528e-02 -3.837773e-02 2.787825e-01 5.447319e-01 -3.543502e-01 -1.586627e-01 8.447300e-01
<VARIANCE> 25
 4.591648e+01 2.607660e+01 4.152713e+01 4.427215e+01 5.347427e+01 5.564000e+01 3.446149e+01 3.758972e+01 5.236460e+01 4.118030e+01 5.302095e+01 2.165048e+01 2.573378e+00 2.660748e+00 4.309010e+00 3.642890e+00 4.195161e+00 7.584545e+00 3.451624e+00 3.503647e+00 5.180871e+00 2.772006e+00 4.079381e+00 2.269108e+00 2.853742e+00
<GCONST> 1.070066e+02
<STATE> 3
<MEAN> 25
 1.145101e+01 -2.373281e+00 -5.488264e+00 -4.826708e+00 -7.113742e+00 -2.781978e+00 2.823190e+00 -2.333916e+00 1.419811e+00 4.321417e+00 -3.072530e+00 -2.050457e+00 -7.065912e-02 -3.114695e-01 7.133551e-03 9.895030e-01 1.027839e+00 -2.682287e-01 -9.469019e-01 -9.267074e-01 -3.269910e-01 5.538326e-01 3.380038e-01 -6.025751e-02 6.898887e-02
<VARIANCE> 25
 1.370427e+01 2.011057e+01 2.309316e+01 3.120464e+01 3.875763e+01 3.853762e+01 3.801919e+01 2.791768e+01 3.218975e+01 5.471954e+01 2.408304e+01 2.327387e+01 2.571764e-01 7.331020e-01 9.786129e-01 1.719268e+00 1.139915e+00 1.992706e+00 2.235613e+00 1.883201e+00 1.449563e+00 1.631379e+00 1.960378e+00 1.632238e+00 2.313326e-01
<GCONST> 8.789462e+01
<STATE> 4
<MEAN> 25
 9.159453e+00 -2.726263e-01 -5.380247e-01 4.278402e+00 1.767873e+00 -5.254210e+00 -9.453876e+00 -7.398182e+00 5.316023e-01 6.191744e+00 -8.772940e-01 -3.240100e+00 -5.526287e-01 5.939114e-01 6.496755e-01 5.312285e-01 8.379036e-01 3.257687e-01 -4.494306e-01 -9.189825e-02 -1.931123e-01 -5.077643e-01 2.055497e-02 6.799122e-02 -5.868025e-01
<VARIANCE> 25
 1.400517e+01 3.089758e+01 2.528437e+01 2.405351e+01 3.620670e+01 4.319841e+01 3.822063e+01 4.508234e+01 3.775762e+01 4.018915e+01 2.050263e+01 1.929578e+01 4.890062e-01 1.129194e+00 1.505111e+00 1.583984e+00 1.550395e+00 2.607793e+00 3.445362e+00 1.628925e+00 2.107519e+00 1.260198e+00 1.639682e+00 1.240795e+00 5.338085e-01
<GCONST> 9.099586e+01
<TRANSP> 5
 0.000000e+00 1.000000e+00 0.000000e+00 0.000000e+00 0.000000e+00
 0.000000e+00 7.858276e-01 2.141724e-01 0.000000e+00 0.000000e+00
 0.000000e+00 0.000000e+00 8.323805e-01 1.676196e-01 0.000000e+00
 0.000000e+00 0.000000e+00 0.000000e+00 8.373933e-01 1.626067e-01
 0.000000e+00 0.000000e+00 0.000000e+00 0.000000e+00 0.000000e+00
<ENDHMM>
~h "CH"
<BEGINHMM>
<NUMSTATES> 5
<STATE> 2
<MEAN> 25
 1.237581e+00 3.750816e+00 -2.024130e+00 4.100212e+00 1.813573e+00 2.214604e+00 -2.494876e+00 1.326866e+00 -7.080632e-01 -1.383107e+00 -5.905465e-01 1.863348e-01 -1.016242e+00 -5.027992e-01 -1.101836e+00 -4.212843e-01 -2.031769e-01 4.045344e-01 3.922806e-01 5.950859e-01 9.415175e-01 -1.843904e-01 -1.725170e-01 6.529973e-01 -9.391732e-01
<VARIANCE> 25
 2.176759e+01 1.432432e+01 3.903067e+01 3.364689e+01 1.985445e+01 2.269773e+01 1.878543e+01 1.964629e+01 1.907845e+01 2.211070e+01 1.160014e+01 2.791557e+01 5.178095e-01 3.867318e+00 1.862358e+00 2.824005e+00 1.577051e+00 3.371018e+00 2.306586e+00 2.701523e+00 2.402827e+00 1.161821e+00 1.541290e+00 2.174062e+00 1.334804e+00
<GCONST> 9.109547e+01
<STATE> 3
<MEAN> 25
 -4.523342e+00 -1.074848e+01 -1.833831e+00 5.000580e+00 3.860792e+00 -5.408163e+00 -7.553591e+00 7.541823e+00 8.410227e+00 -5.549317e+00 -9.630883e-01 2.254975e+00 -2.079093e+00 -4.930019e+00 2.964050e+00 6.340420e-01 3.082114e-01 -1.363310e+00 -1.493631e+00 1.260170e+00 1.623135e+00 -6.500253e-01 5.566732e-01 1.831972e-01 1.917433e+00
<VARIANCE> 25
 2.174654e+01 1.163569e+02 9.225420e+01 4.230973e+01 2.902499e+01 1.093665e+02 6.496454e+01 9.378831e+01 5.470564e+01 4.829573e+01 2.442233e+01 2.017039e+01 1.805291e+00 5.858299e+00 8.102601e+00 3.455481e+00 5.620243e+00 1.403527e+01 8.143781e+00 6.891392e+00 3.359798e+00 5.593462e+00 1.491655e+00 2.205049e+00 1.009849e+00
<GCONST> 1.111295e+02
<STATE> 4
<MEAN> 25
 -7.834432e+00 -1.364273e+01 1.487355e+00 4.972254e+00 2.485872e+00 -2.619205e+00 -6.798542e+00 7.738889e+00 9.233222e+00 -2.904665e+00 -1.727741e+00 2.210262e+00 5.234402e-01 8.921638e-01 -5.231916e-01 -3.375310e-02 -2.157952e-01 3.058646e-01 8.720396e-02 -5.385445e-01 -3.619228e-01 2.347586e-01 -8.587853e-02 1.320512e-01 -2.811340e-01
<VARIANCE> 25
 2.265658e+01 1.866815e+02 6.672767e+01 1.982686e+01 4.613168e+01 4.758189e+01 4.203742e+01 3.115264e+01 3.043506e+01 2.403521e+01 1.790299e+01 1.850122e+01 2.328491e+00 3.085065e+00 1.846964e+00 1.202426e+00 2.120645e+00 2.320205e+00 2.346204e+00 2.014792e+00 1.732091e+00 1.176498e+00 1.662891e+00 1.151855e+00 8.838385e-01
<GCONST> 9.590845e+01
<TRANSP> 5
 0.000000e+00 1.000000e+00 0.000000e+00 0.000000e+00 0.000000e+00
 0.000000e+00 7.829522e-01 2.170478e-01 0.000000e+00 0.000000e+00
 0.000000e+00 0.000000e+00 7.287905e-01 2.712095e-01 0.000000e+00
 0.000000e+00 0.000000e+00 0.000000e+00 9.214314e-01 7.856862e-02
 0.000000e+00 0.000000e+00 0.000000e+00 0.000000e+00 0.000000e+00
<ENDHMM>
~h "DH"
<BEGINHMM>
<NUMSTATES> 5
<STATE> 2
<MEAN> 25
 -4.055882e+00 -1.168072e+00 7.754753e-01 -9.324551e-01 -2.481147e+00 4.727148e+00 1.025005e+00 4.992421e-01 2.356186e-01 -4.234796e-01 5.491657e-01 -1.947534e-01 -2.229869e-01 -2.973612e-02 -1.244698e-01 -2.691991e-01 -2.145031e-01 7.996389e-02 2.334222e-02 3.886208e-01 1.139133e-01 -3.645450e-03 3.259372e-02 1.599965e-01 -4.275797e-01
<VARIANCE> 25
 4.762989e+01 2.978881e+01 8.993982e+01 4.456208e+01 4.384536e+01 4.273391e+01 5.884601e+01 7.620773e+01 5.158781e+01 2.976147e+01 3.296031e+01 1.644039e+01 2.533905e+00 3.055367e+00 5.668147e+00 4.010127e+00 3.461293e+00 3.835903e+00 5.791384e+00 4.336109e+00 4.918517e+00 2.817231e+00 2.685686e+00 1.648175e+00 3.470572e+00
<GCONST> 1.074166e+02
<STATE> 3
<MEAN> 25
 -3.847023e+00 2.836768e+00 -4.033103e+00 1.667847e+00 -8.923860e-01 5.217005e+00 -9.305691e-01 3.394647e+00 1.224041e+00 1.160402e+00 -3.433176e-01 2.623415e+00 1.094422e-02 1.435061e-01 -1.174469e-03 7.537293e-02 9.775619e-02 -4.065781e-02 -9.477369e-03 -1.022383e-02 -2.402318e-02 -6.901956e-02 5.736020e-02 6.012344e-02 -4.456748e-02
<VARIANCE> 25
 1.353900e+01 1.770648e+01 1.783688e+01 1.629254e+01 2.508513e+01 2.062602e+01 1.326950e+01 2.771315e+01 1.787726e+01 1.371453e+01 1.575114e+01 1.264150e+01 5.140975e-01 8.658233e-01 1.096120e+00 1.247666e+00 1.152379e+00 1.080032e+00 1.103297e+00 1.813535e+00 1.320520e+00 1.329124e+00 1.285975e+00 1.139368e+00 6.795667e-01
<GCONST> 8.102476e+01
<STATE> 4
<MEAN> 25
 1.188295e+00 8.181026e+00 5.872557e+00 2.748142e+00 4.981956e+00 5.744820e+00 -2.218111e+00 4.946002e-01 -1.693079e+00 -3.280953e+00 -5.275787e-01 1.783382e+00 3.920259e-01 -2.258237e-01 6.966943e-01 -3.043474e-01 1.124522e-01 -3.925371e-01 -3.134883e-01 -5.411307e-01 -2.097481e-01 -1.335146e-01 -3.087758e-02 5.036493e-02 9.354793e-01
<VARIANCE> 25
 2.750841e+01 5.516331e+01 5.173645e+01 4.351790e+01 4.250459e+01 2.969156e+01 3.749901e+01 3.077419e+01 2.820254e+01 1.956914e+01 1.939060e+01 1.348318e+01 2.321121e+00 3.379122e+00 3.111681e+00 3.571447e+00 3.169933e+00 2.872724e+00 3.430287e+00 3.916648e+00 3.174052e+00 2.091075e+00 2.064293e+00 1.513461e+00 1.541365e+00
<GCONST> 9.980128e+01
<TRANSP> 5
 0.000000e+00 1.000000e+00 0.000000e+00 0.000000e+00 0.000000e+00
 0.000000e+00 7.761548e-01 2.238452e-01 0.000000e+00 0.000000e+00
 0.000000e+00 0.000000e+00 9.289340e-01 7.106607e-02 0.000000e+00
 0.000000e+00 0.000000e+00 0.000000e+00 7.797703e-01 2.202297e-01
 0.000000e+00 0.000000e+00 0.000000e+00 0.000000e+00 0.000000e+00
<ENDHMM>
~h "EA"
<BEGINHMM>
<NUMSTATES> 5
<STATE> 2
<MEAN> 25
 -2.322871e-08 1.126217e-08 1.883025e-08 6.810512e-09 1.110002e-08 3.984960e-08 -3.788347e-08 -2.810349e-08 7.132795e-08 2.029978e-08 -1.756342e-08 1.758875e-08 3.318722e-04 7.891263e-03 1.789097e-03 3.328641e-03 6.375481e-04 3.762332e-03 1.233980e-03 2.462655e-03 -1.105810e-03 -3.231633e-03 2.765345e-04 1.806994e-03 -8.567597e-03
<VARIANCE> 25
 7.973236e+01 6.283217e+01 5.770475e+01 5.273573e+01 5.570308e+01 6.517128e+01 5.845628e+01 5.916846e+01 4.848422e+01 3.409101e+01 3.021548e+01 2.573606e+01 2.501548e+00 3.082744e+00 2.480528e+00 2.474501e+00 2.854813e+00 3.463008e+00 2.941408e+00 2.931458e+00 2.687757e+00 2.139890e+00 2.135985e+00 1.677117e+00 1.727884e+00
<GCONST> 1.047741e+02
<STATE> 3
<MEAN> 25
 -2.322871e-08 1.126217e-08 1.883025e-08 6.810512e-09 1.110002e-08 3.984960e-08 -3.788347e-08 -2.810349e-08 7.132795e-08 2.029978e-08 -1.756342e-08 1.758875e-08 3.318722e-04 7.891263e-03 1.789097e-03 3.328641e-03 6.375481e-04 3.762332e-03 1.233980e-03 2.462655e-03 -1.105810e-03 -3.231633e-03 2.765345e-04 1.806994e-03 -8.567597e-03
<VARIANCE> 25
 7.973236e+01 6.283217e+01 5.770475e+01 5.273573e+01 5.570308e+01 6.517128e+01 5.845628e+01 5.916846e+01 4.848422e+01 3.409101e+01 3.021548e+01 2.573606e+01 2.501548e+00 3.082744e+00 2.480528e+00 2.474501e+00 2.854813e+00 3.463008e+00 2.941408e+00 2.931458e+00 2.687757e+00 2.139890e+00 2.135985e+00 1.677117e+00 1.727884e+00
<GCONST> 1.047741e+02
<STATE> 4
<MEAN> 25
 -2.322871e-08 1.126217e-08 1.883025e-08 6.810512e-09 1.110002e-08 3.984960e-08 -3.788347e-08 -2.810349e-08 7.132795e-08 2.029978e-08 -1.756342e-08 1.758875e-08 3.318722e-04 7.891263e-03 1.789097e-03 3.328641e-03 6.375481e-04 3.762332e-03 1.233980e-03 2.462655e-03 -1.105810e-03 -3.231633e-03 2.765345e-04 1.806994e-03 -8.567597e-03
<VARIANCE> 25
 7.973236e+01 6.283217e+01 5.770475e+01 5.273573e+01 5.570308e+01 6.517128e+01 5.845628e+01 5.916846e+01 4.848422e+01 3.409101e+01 3.021548e+01 2.573606e+01 2.501548e+00 3.082744e+00 2.480528e+00 2.474501e+00 2.854813e+00 3.463008e+00 2.941408e+00 2.931458e+00 2.687757e+00 2.139890e+00 2.135985e+00 1.677117e+00 1.727884e+00
<GCONST> 1.047741e+02
<TRANSP> 5
 0.000000e+00 1.000000e+00 0.000000e+00 0.000000e+00 0.000000e+00
 0.000000e+00 6.000000e-01 4.000000e-01 0.000000e+00 0.000000e+00
 0.000000e+00 0.000000e+00 6.000000e-01 4.000000e-01 0.000000e+00
 0.000000e+00 0.000000e+00 0.000000e+00 7.000000e-01 3.000000e-01
 0.000000e+00 0.000000e+00 0.000000e+00 0.000000e+00 0.000000e+00
<ENDHMM>
~h "EH"
<BEGINHMM>
<NUMSTATES> 5
<STATE> 2
<MEAN> 25
 6.620466e+00 -2.424511e+00 -1.769583e+00 4.722194e-01 -7.384686e-01 -4.663073e+00 -3.180409e+00 -4.627944e+00 -6.949316e-01 5.387755e-01 -9.129705e-01 -8.878732e-01 2.199507e+00 -1.678629e-01 -9.423133e-01 2.283133e-01 -6.085693e-01 -9.364161e-01 -6.349809e-01 -1.358709e+00 -7.003562e-01 6.962293e-01 -1.068322e-02 -1.234455e-01 1.547837e+00
<VARIANCE> 25
 3.703139e+01 3.698922e+01 4.216314e+01 6.371757e+01 3.225847e+01 4.225890e+01 4.114448e+01 4.059898e+01 4.254687e+01 3.493024e+01 2.874912e+01 2.724187e+01 3.745007e+00 6.555308e+00 3.753984e+00 3.983187e+00 3.358274e+00 5.199947e+00 5.656051e+00 4.407965e+00 4.047153e+00 3.857000e+00 3.161213e+00 2.617712e+00 2.439703e+00
<GCONST> 1.074059e+02
<STATE> 3
<MEAN> 25
 1.010243e+01 -4.520841e+00 -5.291882e+00 1.424846e+00 -2.407529e+00 -6.533529e+00 -1.168707e+00 -7.090432e+00 -3.175939e-01 3.544448e+00 1.113006e+00 -1.826031e+00 5.300862e-01 3.576418e-02 -3.589072e-01 -1.300372e-01 -6.613838e-02 8.926909e-02 3.915570e-01 -8.621967e-01 -6.994581e-01 4.059344e-01 4.198985e-01 2.931436e-01 3.503694e-01
<VARIANCE> 25
 1.620387e+01 3.421547e+01 2.684996e+01 4.188083e+01 2.432388e+01 2.609490e+01 5.046787e+01 4.261250e+01 5.509869e+01 2.836121e+01 2.893801e+01 2.340134e+01 1.057160e+00 1.855294e+00 2.150546e+00 2.270315e+00 1.550809e+00 2.245869e+00 2.479001e+00 2.769090e+00 3.084895e+00 1.780236e+00 2.343545e+00 1.570143e+00 9.302709e-01
<GCONST> 9.565604e+01
<STATE> 4
<MEAN> 25
 1.024285e+01 2.845028e-01 -3.045763e+00 6.390978e-01 2.461542e-01 -2.357382e+00 -1.964266e+00 -7.800449e+00 -4.333285e+00 2.704733e+00 4.863225e-01 5.080172e-01 -4.059697e-01 6.902442e-01 3.511669e-01 1.357137e-01 6.197245e-01 4.037919e-01 2.374678e-01 3.668213e-01 -3.646981e-01 -6.523191e-01 1.070715e-01 3.063553e-01 -5.683838e-01
<VARIANCE> 25
 1.510815e+01 3.258421e+01 2.843405e+01 2.741008e+01 3.630389e+01 3.455192e+01 4.409679e+01 3.562505e+01 4.552171e+01 4.498039e+01 3.387648e+01 3.226004e+01 1.084464e+00 1.622423e+00 1.825712e+00 1.635435e+00 2.057776e+00 1.887619e+00 2.275692e+00 2.488473e+00 2.937256e+00 2.202415e+00 2.283681e+00 2.046892e+00 1.193437e+00
<GCONST> 9.625503e+01
<TRANSP> 5
 0.000000e+00 1.000000e+00 0.000000e+00 0.000000e+00 0.000000e+00
 0.000000e+00 4.268273e-01 5.731727e-01 0.000000e+00 0.000000e+00
 0.000000e+00 0.000000e+00 6.222408e-01 3.777593e-01 0.000000e+00
 0.000000e+00 0.000000e+00 0.000000e+00 7.615914e-01 2.384086e-01
 0.000000e+00 0.000000e+00 0.000000e+00 0.000000e+00 0.000000e+00
<ENDHMM>
~h "EN"
<BEGINHMM>
<NUMSTATES> 5
<STATE> 2
<MEAN> 25
 -2.322871e-08 1.126217e-08 1.883025e-08 6.810512e-09 1.110002e-08 3.984960e-08 -3.788347e-08 -2.810349e-08 7.132795e-08 2.029978e-08 -1.756342e-08 1.758875e-08 3.318722e-04 7.891263e-03 1.789097e-03 3.328641e-03 6.375481e-04 3.762332e-03 1.233980e-03 2.462655e-03 -1.105810e-03 -3.231633e-03 2.765345e-04 1.806994e-03 -8.567597e-03
<VARIANCE> 25
 7.973236e+01 6.283217e+01 5.770475e+01 5.273573e+01 5.570308e+01 6.517128e+01 5.845628e+01 5.916846e+01 4.848422e+01 3.409101e+01 3.021548e+01 2.573606e+01 2.501548e+00 3.082744e+00 2.480528e+00 2.474501e+00 2.854813e+00 3.463008e+00 2.941408e+00 2.931458e+00 2.687757e+00 2.139890e+00 2.135985e+00 1.677117e+00 1.727884e+00
<GCONST> 1.047741e+02
<STATE> 3
<MEAN> 25
 -2.322871e-08 1.126217e-08 1.883025e-08 6.810512e-09 1.110002e-08 3.984960e-08 -3.788347e-08 -2.810349e-08 7.132795e-08 2.029978e-08 -1.756342e-08 1.758875e-08 3.318722e-04 7.891263e-03 1.789097e-03 3.328641e-03 6.375481e-04 3.762332e-03 1.233980e-03 2.462655e-03 -1.105810e-03 -3.231633e-03 2.765345e-04 1.806994e-03 -8.567597e-03
<VARIANCE> 25
 7.973236e+01 6.283217e+01 5.770475e+01 5.273573e+01 5.570308e+01 6.517128e+01 5.845628e+01 5.916846e+01 4.848422e+01 3.409101e+01 3.021548e+01 2.573606e+01 2.501548e+00 3.082744e+00 2.480528e+00 2.474501e+00 2.854813e+00 3.463008e+00 2.941408e+00 2.931458e+00 2.687757e+00 2.139890e+00 2.135985e+00 1.677117e+00 1.727884e+00
<GCONST> 1.047741e+02
<STATE> 4
<MEAN> 25
 -2.322871e-08 1.126217e-08 1.883025e-08 6.810512e-09 1.110002e-08 3.984960e-08 -3.788347e-08 -2.810349e-08 7.132795e-08 2.029978e-08 -1.756342e-08 1.758875e-08 3.318722e-04 7.891263e-03 1.789097e-03 3.328641e-03 6.375481e-04 3.762332e-03 1.233980e-03 2.462655e-03 -1.105810e-03 -3.231633e-03 2.765345e-04 1.806994e-03 -8.567597e-03
<VARIANCE> 25
 7.973236e+01 6.283217e+01 5.770475e+01 5.273573e+01 5.570308e+01 6.517128e+01 5.845628e+01 5.916846e+01 4.848422e+01 3.409101e+01 3.021548e+01 2.573606e+01 2.501548e+00 3.082744e+00 2.480528e+00 2.474501e+00 2.854813e+00 3.463008e+00 2.941408e+00 2.931458e+00 2.687757e+00 2.139890e+00 2.135985e+00 1.677117e+00 1.727884e+00
<GCONST> 1.047741e+02
<TRANSP> 5
 0.000000e+00 1.000000e+00 0.000000e+00 0.000000e+00 0.000000e+00
 0.000000e+00 6.000000e-01 4.000000e-01 0.000000e+00 0.000000e+00
 0.000000e+00 0.000000e+00 6.000000e-01 4.000000e-01 0.000000e+00
 0.000000e+00 0.000000e+00 0.000000e+00 7.000000e-01 3.000000e-01
 0.000000e+00 0.000000e+00 0.000000e+00 0.000000e+00 0.000000e+00
<ENDHMM>
~h "ER"
<BEGINHMM>
<NUMSTATES> 5
<STATE> 2
<MEAN> 25
 6.801134e+00 6.043264e-01 -1.468765e+00 1.331203e-01 2.900590e+00 -2.391842e+00 -2.860104e+00 -5.019028e+00 -5.770490e+00 -2.418499e+00 1.329333e-01 5.545784e-01 2.344103e+00 1.487538e+00 -1.507160e+00 -5.224364e-01 3.121404e-01 -2.737296e-01 -1.761361e-01 -1.660562e+00 -2.457109e+00 2.118826e-02 5.981120e-01 -1.016213e-01 8.514350e-01
<VARIANCE> 25
 3.521432e+01 5.487979e+01 4.741845e+01 5.841251e+01 4.330517e+01 5.919738e+01 4.244045e+01 6.813213e+01 5.425757e+01 4.221672e+01 3.171925e+01 2.300611e+01 2.938623e+00 6.470576e+00 4.585248e+00 4.740457e+00 5.926314e+00 6.975772e+00 4.344412e+00 4.538247e+00 4.136801e+00 5.310237e+00 4.274674e+00 3.481122e+00 1.978506e+00
<GCONST> 1.107874e+02
<STATE> 3
<MEAN> 25
 1.148654e+01 4.514004e+00 -5.497929e+00 -3.537924e+00 8.225551e-01 -1.642359e-01 -2.659780e-01 -7.977860e+00 -1.203906e+01 -1.900769e+00 3.699426e+00 7.273596e-01 1.176038e-01 1.005894e-01 -3.170054e-01 -1.259596e-01 3.037710e-02 4.428717e-01 2.848415e-01 -3.452357e-01 -6.118678e-01 2.762483e-02 5.154102e-01 1.456042e-01 -8.469878e-02
<VARIANCE> 25
 1.677488e+01 3.952844e+01 2.164621e+01 5.754387e+01 4.464388e+01 4.450307e+01 4.981966e+01 5.589808e+01 5.433316e+01 5.803563e+01 3.216999e+01 2.337823e+01 5.738245e-01 1.408932e+00 9.697425e-01 1.771657e+00 1.906216e+00 1.980146e+00 1.864797e+00 1.746651e+00 2.000265e+00 2.051775e+00 1.482968e+00 1.425832e+00 4.866309e-01
<GCONST> 9.405471e+01
<STATE> 4
<MEAN> 25
 6.183695e+00 3.065038e+00 -5.389920e+00 -5.232553e-02 4.300397e+00 2.673210e+00 -1.882754e+00 -6.258061e+00 -7.865954e+00 -8.822675e-01 5.014255e+00 2.538903e+00 -7.131333e-01 -2.426088e-01 3.580516e-01 6.250141e-01 1.942704e-01 -1.264943e-02 -2.345735e-01 5.898733e-01 1.105891e+00 8.555830e-02 -4.376458e-01 -1.772206e-01 -5.359799e-01
<VARIANCE> 25
 4.346271e+01 3.654242e+01 2.327846e+01 4.396343e+01 3.030917e+01 6.465270e+01 3.638997e+01 5.649657e+01 5.018544e+01 4.091484e+01 2.947062e+01 2.486695e+01 7.599456e-01 1.254358e+00 1.166489e+00 1.598825e+00 1.754580e+00 1.842140e+00 1.958918e+00 1.843854e+00 1.694601e+00 1.753308e+00 1.485938e+00 1.190668e+00 6.412947e-01
<GCONST> 9.392934e+01
<TRANSP> 5
 0.000000e+00 1.000000e+00 0.000000e+00 0.000000e+00 0.000000e+00
 0.000000e+00 5.997204e-01 4.002797e-01 0.000000e+00 0.000000e+00
 0.000000e+00 0.000000e+00 7.755504e-01 2.244496e-01 0.000000e+00
 0.000000e+00 0.000000e+00 0.000000e+00 8.106863e-01 1.893136e-01
 0.000000e+00 0.000000e+00 0.000000e+00 0.000000e+00 0.000000e+00
<ENDHMM>
~h "EY"
<BEGINHMM>
<NUMSTATES> 5
<STATE> 2
<MEAN> 25
 7.386587e+00 -2.443274e+00 6.307592e-01 6.194370e+00 5.588678e+00 -7.617822e+00 -1.048914e+01 -7.880697e+00 -2.939517e+00 3.342679e+00 -1.307259e+00 -2.927792e+00 2.970781e-01 -6.305414e-01 6.240387e-01 1.210695e+00 6.904173e-01 -1.519343e+00 -1.481407e+00 3.474054e-01 3.256965e-01 3.552437e-01 -6.982839e-01 -1.183663e+00 6.082268e-01
<VARIANCE> 25
 3.434557e+01 2.062289e+01 4.086386e+01 3.658508e+01 4.402855e+01 4.302088e+01 5.402149e+01 6.453184e+01 4.966671e+01 3.115450e+01 4.070905e+01 2.452671e+01 1.703289e+00 1.774525e+00 2.378279e+00 3.164892e+00 3.062068e+00 2.988296e+00 3.686007e+00 4.008569e+00 3.017628e+00 2.754605e+00 2.087832e+00 1.703959e+00 1.093985e+00
<GCONST> 1.012813e+02
<STATE> 3
<MEAN> 25
 7.060159e+00 -3.157664e+00 3.557283e+00 1.093968e+01 5.276579e+00 -1.167663e+01 -1.178825e+01 -5.620550e+00 -3.572865e-01 3.125657e+00 -4.946247e+00 -6.858614e+00 -1.532579e-01 2.827861e-01 1.640412e-01 4.998947e-01 3.445111e-01 2.688238e-02 -1.336581e-01 1.658418e-01 3.899398e-01 1.678628e-01 -3.775152e-01 -4.711518e-01 -2.970020e-01
<VARIANCE> 25
 2.179800e+01 1.483100e+01 4.457153e+01 2.413037e+01 3.381506e+01 4.925575e+01 8.234192e+01 5.452174e+01 3.710878e+01 2.949849e+01 2.903230e+01 2.508975e+01 2.131088e-01 4.358692e-01 8.934504e-01 1.016243e+00 1.015845e+00 1.163954e+00 9.871784e-01 1.485453e+00 1.167946e+00 8.776067e-01 1.141917e+00 9.526109e-01 1.886765e-01
<GCONST> 8.464108e+01
<STATE> 4
<MEAN> 25
 6.231256e+00 1.728615e+00 1.462495e-01 8.881344e+00 7.230368e+00 -3.605005e+00 -1.053067e+01 -6.122776e+00 -1.352277e+00 1.355058e+00 -2.416519e+00 -5.400157e+00 -6.990031e-01 1.005425e+00 -3.481328e-01 -1.046787e+00 -2.482712e-01 2.081517e+00 1.512961e+00 2.865126e-01 -3.357504e-01 -8.650265e-01 3.879321e-01 7.608444e-01 -1.166089e+00
<VARIANCE> 25
 2.728763e+01 1.812429e+01 2.490174e+01 3.310614e+01 3.148400e+01 4.589377e+01 5.149996e+01 4.861063e+01 4.683222e+01 2.758258e+01 2.221132e+01 2.438310e+01 1.175297e+00 1.610570e+00 1.876262e+00 2.767411e+00 2.157659e+00 3.178112e+00 2.728079e+00 2.447780e+00 2.231269e+00 1.769896e+00 2.161086e+00 2.088536e+00 6.988645e-01
<GCONST> 9.605643e+01
<TRANSP> 5
 0.000000e+00 1.000000e+00 0.000000e+00 0.000000e+00 0.000000e+00
 0.000000e+00 6.063211e-01 3.936789e-01 0.000000e+00 0.000000e+00
 0.000000e+00 0.000000e+00 7.309549e-01 2.690451e-01 0.000000e+00
 0.000000e+00 0.000000e+00 0.000000e+00 7.239621e-01 2.760379e-01
 0.000000e+00 0.000000e+00 0.000000e+00 0.000000e+00 0.000000e+00
<ENDHMM>
~h "HH"
<BEGINHMM>
<NUMSTATES> 5
<STATE> 2
<MEAN> 25
 2.595260e+00 -5.141805e+00 -1.556660e+00 3.325858e-01 -1.911588e+00 -4.267522e-01 2.862505e+00 5.335832e+00 5.472270e+00 1.500167e+00 -5.758815e-02 -1.261655e+00 -2.172661e-01 -8.059703e-01 -9.931855e-01 7.912186e-02 -8.599192e-02 4.572454e-01 4.151088e-01 8.152695e-01 5.629158e-01 2.352356e-01 2.076060e-01 3.307189e-02 -4.667026e-01
<VARIANCE> 25
 3.402612e+01 7.506602e+01 3.170852e+01 5.737555e+01 4.075469e+01 5.332399e+01 3.944867e+01 4.199807e+01 6.225531e+01 3.379486e+01 2.216016e+01 1.751105e+01 1.094554e+00 2.288359e+00 1.645238e+00 2.688059e+00 2.177641e+00 3.665365e+00 2.959927e+00 2.896321e+00 2.828737e+00 1.604148e+00 2.602250e+00 1.334397e+00 1.196681e+00
<GCONST> 9.957539e+01
<STATE> 3
<MEAN> 25
 -5.515428e+00 -3.420534e-01 -3.311378e+00 -2.045059e-01 -5.825135e-01 3.668356e+00 1.638231e+00 5.654037e+00 3.143232e+00 2.378424e+00 1.504785e+00 2.126316e+00 8.777077e-02 1.570233e-02 -1.336199e-01 -2.422983e-02 -3.415900e-02 -5.467579e-02 -1.022822e-01 -9.677827e-02 5.411012e-02 3.714670e-02 -6.861135e-03 2.949880e-02 1.577220e-02
<VARIANCE> 25
 2.719454e+01 3.565293e+01 1.878833e+01 2.401635e+01 2.145269e+01 2.580901e+01 2.025123e+01 1.802440e+01 2.883250e+01 1.264856e+01 1.665169e+01 1.460917e+01 4.170856e-01 6.707661e-01 6.512929e-01 7.526976e-01 7.084104e-01 9.280433e-01 1.113537e+00 1.135738e+00 9.273222e-01 9.155753e-01 9.454303e-01 9.306247e-01 2.074647e-01
<GCONST> 7.850973e+01
<STATE> 4
<MEAN> 25
 2.915781e+00 -5.468252e+00 -6.057830e+00 -9.698363e-01 -2.320443e+00 -8.494940e-01 1.388304e+00 2.912231e+00 6.208370e+00 3.903809e+00 6.747032e-01 -4.546635e-01 1.559789e+00 1.520484e+00 5.846359e-01 2.653164e-02 -2.532112e-01 -3.207050e-01 -3.105258e-01 -1.572529e+00 -4.660866e-01 -1.030661e-01 -6.862631e-01 -4.461268e-01 8.352373e-01
<VARIANCE> 25
 2.180136e+01 8.414191e+01 2.908304e+01 3.457740e+01 5.623729e+01 6.495181e+01 5.983651e+01 4.331004e+01 4.825267e+01 4.083656e+01 3.259465e+01 2.108769e+01 1.549221e+00 4.130640e+00 2.791840e+00 2.198385e+00 2.703238e+00 3.000681e+00 1.771925e+00 2.931746e+00 2.140749e+00 1.627060e+00 2.023844e+00 1.693829e+00 6.669397e-01
<GCONST> 1.000433e+02
<TRANSP> 5
 0.000000e+00 1.000000e+00 0.000000e+00 0.000000e+00 0.000000e+00
 0.000000e+00 6.991408e-01 3.008592e-01 0.000000e+00 0.000000e+00
 0.000000e+00 0.000000e+00 9.112952e-01 8.870482e-02 0.000000e+00
 0.000000e+00 0.000000e+00 0.000000e+00 5.771839e-01 4.228161e-01
 0.000000e+00 0.000000e+00 0.000000e+00 0.000000e+00 0.000000e+00
<ENDHMM>
~h "IH"
<BEGINHMM>
<NUMSTATES> 5
<STATE> 2
<MEAN> 25
 -3.388764e-01 -3.503862e+00 1.488277e+00 2.911079e+00 4.829478e-02 -3.549466e-01 -1.182547e+00 -1.417054e+00 -3.656787e-01 -1.376632e+00 -6.936930e-01 8.731136e-01 6.353805e-01 -4.702208e-01 1.988951e-01 7.515291e-01 2.423079e-01 -9.301784e-01 -9.703531e-01 -9.151558e-01 -4.245755e-01 1.153447e-01 5.763304e-02 -1.600279e-01 8.080027e-01
<VARIANCE> 25
 5.514137e+01 1.120896e+02 7.296714e+01 4.590285e+01 4.526659e+01 5.340649e+01 5.297187e+01 6.805020e+01 5.155527e+01 3.730080e+01 2.673629e+01 1.997585e+01 4.325425e+00 8.232422e+00 3.984087e+00 3.713580e+00 3.982409e+00 5.490718e+00 5.577109e+00 5.470158e+00 4.663791e+00 3.343753e+00 3.547975e+00 2.380061e+00 3.496391e+00
<GCONST> 1.115174e+02
<STATE> 3
<MEAN> 25
 6.112254e+00 -2.234524e+00 1.366762e+00 6.772944e+00 3.050523e+00 -6.018466e+00 -7.895427e+00 -8.339216e+00 -4.005400e+00 7.604158e-01 -8.278093e-01 -2.051250e+00 9.536172e-01 -2.453985e-01 2.872511e-01 7.428458e-01 3.754589e-01 -9.756356e-01 -7.193938e-01 -5.170929e-01 -6.521083e-01 5.230194e-01 3.617273e-02 -4.672160e-01 1.024816e+00
<VARIANCE> 25
 2.573421e+01 4.456331e+01 3.815704e+01 5.381866e+01 3.591690e+01 5.382672e+01 5.836139e+01 6.563623e+01 4.518491e+01 4.235957e+01 3.825926e+01 2.783644e+01 2.815525e+00 4.802113e+00 3.457245e+00 4.063741e+00 3.108671e+00 5.215106e+00 4.081141e+00 5.099102e+00 3.328991e+00 4.055605e+00 3.242454e+00 2.474113e+00 3.272545e+00
<GCONST> 1.079030e+02
<STATE> 4
<MEAN> 25
 7.401692e+00 -1.329743e+00 1.411996e+00 7.051546e+00 4.810226e+00 -6.196647e+00 -7.647659e+00 -7.978113e+00 -4.688963e+00 1.793732e+00 2.589087e-01 -3.080013e+00 -2.765073e-01 5.014789e-01 1.083286e-01 -4.560723e-01 1.214440e-01 9.636109e-01 6.405355e-01 2.969311e-01 8.185453e-02 -1.853790e-01 -3.565454e-02 2.158384e-01 -4.406143e-01
<VARIANCE> 25
 1.548891e+01 3.727011e+01 3.297387e+01 3.788048e+01 4.097664e+01 5.604740e+01 3.887419e+01 5.214752e+01 4.458127e+01 3.779273e+01 4.245000e+01 2.666201e+01 1.178888e+00 2.316777e+00 1.818547e+00 2.684118e+00 2.104891e+00 3.013312e+00 2.458752e+00 2.450756e+00 2.526706e+00 2.277098e+00 2.260237e+00 1.661111e+00 1.214147e+00
<GCONST> 9.875031e+01
<TRANSP> 5
 0.000000e+00 1.000000e+00 0.000000e+00 0.000000e+00 0.000000e+00
 0.000000e+00 6.909407e-01 3.090593e-01 0.000000e+00 0.000000e+00
 0.000000e+00 0.000000e+00 3.833519e-01 6.166481e-01 0.000000e+00
 0.000000e+00 0.000000e+00 0.000000e+00 7.525724e-01 2.474276e-01
 0.000000e+00 0.000000e+00 0.000000e+00 0.000000e+00 0.000000e+00
<ENDHMM>
~h "IY"
<BEGINHMM>
<NUMSTATES> 5
<STATE> 2
<MEAN> 25
 4.165186e+00 -9.728149e-01 4.109752e+00 6.387661e+00 4.281117e+00 -5.703761e+00 -6.082409e+00 -5.939580e+00 -3.979881e+00 -6.638509e-01 -1.467790e+00 -5.098848e+00 9.876865e-01 -2.672850e-01 6.056069e-01 2.485521e+00 7.980077e-01 -2.488020e+00 -2.195006e+00 -3.575044e-01 1.704714e-01 5.681567e-01 -8.926356e-01 -1.681097e+00 8.554241e-01
<VARIANCE> 25
 4.041563e+01 3.500166e+01 4.614379e+01 4.697198e+01 3.555909e+01 6.144155e+01 5.060924e+01 5.225127e+01 4.473211e+01 3.364032e+01 2.476204e+01 2.985576e+01 4.477911e+00 5.263102e+00 2.702182e+00 2.378309e+00 4.622962e+00 5.073226e+00 4.525597e+00 4.924459e+00 5.022432e+00 3.468562e+00 3.138364e+00 1.990313e+00 2.043600e+00
<GCONST> 1.070581e+02
<STATE> 3
<MEAN> 25
 6.270739e+00 -1.781824e+00 4.435466e+00 1.229734e+01 4.377738e+00 -1.357628e+01 -9.748239e+00 -5.432725e+00 -4.560958e+00 5.842170e-01 -3.686231e+00 -9.861273e+00 -8.494406e-02 -1.526155e-01 2.417566e-01 4.088114e-01 -1.864580e-01 -4.943595e-01 -1.699955e-01 3.984569e-01 1.386770e-01 -7.119137e-02 -3.950731e-01 -2.973165e-01 1.888988e-02
<VARIANCE> 25
 1.498144e+01 2.146480e+01 4.712115e+01 2.962200e+01 3.756846e+01 5.657278e+01 3.999913e+01 6.653703e+01 3.828558e+01 2.285827e+01 3.535006e+01 2.659324e+01 2.563532e-01 5.753477e-01 1.212949e+00 1.336307e+00 1.021524e+00 1.924591e+00 1.695686e+00 1.536097e+00 1.224225e+00 1.148041e+00 1.430565e+00 8.857817e-01 1.749402e-01
<GCONST> 8.716621e+01
<STATE> 4
<MEAN> 25
 4.074044e+00 -5.947420e-01 5.692784e+00 9.886361e+00 4.238764e+00 -1.112517e+01 -8.884398e+00 -4.684372e+00 -1.807965e+00 -3.831691e-02 -4.864518e+00 -8.127822e+00 -2.526243e-01 4.876555e-01 -5.566248e-01 -1.165715e+00 -6.370193e-02 1.498824e+00 5.657184e-01 -3.214383e-01 3.341670e-02 -8.876983e-02 4.888956e-01 9.098959e-01 -5.475854e-01
<VARIANCE> 25
 1.697469e+01 3.342703e+01 3.022729e+01 3.853384e+01 4.198573e+01 1.016548e+02 4.259231e+01 3.576294e+01 3.463522e+01 2.611871e+01 2.788780e+01 2.763003e+01 5.876825e-01 1.602600e+00 1.639335e+00 2.165933e+00 1.769644e+00 4.159248e+00 3.010690e+00 3.058191e+00 2.434397e+00 2.634956e+00 1.685803e+00 2.152707e+00 9.444446e-01
<GCONST> 9.700407e+01
<TRANSP> 5
 0.000000e+00 1.000000e+00 0.000000e+00 0.000000e+00 0.000000e+00
 0.000000e+00 6.205405e-01 3.794596e-01 0.000000e+00 0.000000e+00
 0.000000e+00 0.000000e+00 7.933794e-01 2.066206e-01 0.000000e+00
 0.000000e+00 0.000000e+00 0.000000e+00 7.721295e-01 2.278706e-01
 0.000000e+00 0.000000e+00 0.000000e+00 0.000000e+00 0.000000e+00
<ENDHMM>
~h "JH"
<BEGINHMM>
<NUMSTATES> 5
<STATE> 2
<MEAN> 25
 -1.594161e+00 -6.340077e+00 2.308834e+00 7.382086e+00 5.325646e+00 1.494839e-01 -3.392414e+00 2.793427e+00 6.568624e+00 -2.761863e+00 -3.589000e+00 9.879036e-01 -2.387278e+00 -4.645741e+00 1.869401e+00 6.510121e-01 -8.274629e-01 -3.615285e-02 -1.072980e+00 1.270450e+00 2.193660e+00 -4.154771e-01 1.297936e-01 5.422728e-01 1.474255e+00
<VARIANCE> 25
 2.754150e+01 8.871912e+01 3.086218e+01 4.498534e+01 3.272279e+01 3.394925e+01 3.802051e+01 4.353848e+01 3.847506e+01 2.594291e+01 2.206726e+01 1.626586e+01 2.851968e+00 8.371006e+00 5.594026e+00 4.458218e+00 2.910294e+00 2.381357e+00 5.804521e+00 4.967968e+00 4.446332e+00 3.600194e+00 1.791930e+00 2.015932e+00 3.154328e+00
<GCONST> 1.050908e+02
<STATE> 3
<MEAN> 25
 -8.871733e+00 -1.977036e+01 1.050592e+01 8.428677e+00 3.028101e+00 -6.215682e-01 -7.451755e+00 6.218132e+00 1.018960e+01 -2.914648e+00 -1.557629e-01 6.928554e-01 6.654619e-01 9.389728e-02 8.860409e-03 4.778042e-03 5.710351e-02 -8.986216e-02 -7.766359e-01 -1.357709e+00 -8.118341e-01 2.289872e-01 4.727718e-01 -2.576583e-02 -3.933086e-02
<VARIANCE> 25
 1.780144e+01 4.590965e+01 4.311245e+01 3.026839e+01 3.932627e+01 2.939097e+01 4.859803e+01 5.805715e+01 4.399235e+01 2.932836e+01 1.599729e+01 2.240626e+01 4.072288e+00 6.660934e+00 4.770970e+00 2.481180e+00 2.990228e+00 1.694715e+00 2.200136e+00 3.732042e+00 3.290398e+00 1.559302e+00 1.307854e+00 1.954697e+00 1.614060e+00
<GCONST> 1.004214e+02
<STATE> 4
<MEAN> 25
 1.232479e-01 -6.389388e+00 -1.393344e-01 3.781627e+00 1.617962e+00 1.347635e+00 -4.567010e+00 -6.128623e-01 3.192974e+00 -9.727136e-01 -4.361805e-02 2.385285e+00 1.561577e+00 2.432237e+00 -1.743469e+00 -1.067664e+00 1.537025e-01 -2.335259e-01 1.554029e-01 -6.419542e-01 -1.209245e+00 -1.101999e-01 -1.022469e-01 7.727043e-02 -5.313646e-01
<VARIANCE> 25
 3.803480e+01 1.076392e+02 7.272372e+01 3.272110e+01 2.556575e+01 3.266185e+01 6.967355e+01 7.062667e+01 2.301642e+01 3.045741e+01 2.189661e+01 1.363342e+01 4.252470e+00 6.537107e+00 3.427704e+00 2.826517e+00 2.744265e+00 2.143287e+00 2.886620e+00 5.212669e+00 4.354455e+00 1.841599e+00 2.083637e+00 1.369620e+00 1.672516e+00
<GCONST> 1.032428e+02
<TRANSP> 5
 0.000000e+00 1.000000e+00 0.000000e+00 0.000000e+00 0.000000e+00
 0.000000e+00 7.065319e-01 2.934681e-01 0.000000e+00 0.000000e+00
 0.000000e+00 0.000000e+00 6.753742e-01 3.246258e-01 0.000000e+00
 0.000000e+00 0.000000e+00 0.000000e+00 7.457973e-01 2.542027e-01
 0.000000e+00 0.000000e+00 0.000000e+00 0.000000e+00 0.000000e+00
<ENDHMM>
~h "NG"
<BEGINHMM>
<NUMSTATES> 5
<STATE> 2
<MEAN> 25
 8.334878e+00 2.642111e+00 3.242527e-01 2.891314e+00 4.462497e+00 -1.458975e+00 -1.083375e+01 -4.781038e+00 1.871552e+00 4.954617e+00 -7.727861e-02 -6.055849e+00 -4.602549e-01 9.579452e-01 -1.948649e-02 2.665783e-01 4.745484e-01 1.212683e+00 1.786745e-02 -5.242299e-01 6.678073e-01 -4.918532e-01 -4.013255e-01 3.514595e-01 -8.985833e-01
<VARIANCE> 25
 1.671376e+01 2.358991e+01 1.311723e+01 3.377530e+01 1.658626e+01 2.758699e+01 5.786400e+01 2.925191e+01 4.485682e+01 4.392995e+01 2.343913e+01 2.741105e+01 5.595832e-01 8.265424e-01 1.015201e+00 2.158471e+00 1.565608e+00 2.992703e+00 2.721136e+00 3.294601e+00 1.582954e+00 1.309396e+00 2.820618e+00 2.198880e+00 2.605843e-01
<GCONST> 9.058914e+01
<STATE> 3
<MEAN> 25
 6.255931e+00 5.943851e+00 2.549039e-01 2.523631e+00 6.103362e+00 2.693638e+00 -4.718219e+00 -6.982991e+00 -3.881493e+00 -3.146758e-01 -3.946602e-01 -3.007771e+00 -7.629688e-01 4.596626e-01 3.356328e-01 -2.734726e-01 1.571404e-01 8.758156e-01 7.883291e-01 2.846586e-01 4.700855e-02 1.544772e-02 2.462752e-01 3.643860e-01 -6.442365e-01
<VARIANCE> 25
 1.954550e+01 1.541618e+01 8.320621e+00 1.401584e+01 1.903429e+01 2.279619e+01 3.476324e+01 3.586489e+01 5.799849e+01 1.512496e+01 1.645684e+01 1.520366e+01 4.785081e-01 7.669018e-01 7.790765e-01 9.637359e-01 1.086840e+00 2.232377e+00 2.771492e+00 2.904813e+00 2.920031e+00 1.417267e+00 1.178147e+00 1.030362e+00 2.635546e-01
<GCONST> 8.387791e+01
<STATE> 4
<MEAN> 25
 -6.670343e+00 1.185597e+00 -1.677391e+00 -3.837061e-02 1.394488e+00 4.085003e+00 8.141258e-01 4.855551e+00 4.305563e+00 1.515773e+00 1.059231e+00 1.823719e+00 -1.234038e-01 -4.316860e-02 -3.750302e-02 -1.631127e-02 -6.973662e-02 1.839156e-02 9.372646e-02 1.073466e-01 6.527463e-02 1.545688e-02 -1.731968e-02 7.202953e-03 -1.104571e-01
<VARIANCE> 25
 1.265965e+01 7.224937e+00 1.853373e+01 1.000895e+01 8.654766e+00 1.662493e+01 1.064624e+01 1.428758e+01 1.577393e+01 1.122303e+01 6.953344e+00 6.653886e+00 1.980304e-01 2.900522e-01 3.962889e-01 4.119387e-01 5.501333e-01 6.431311e-01 1.002443e+00 7.533172e-01 8.058682e-01 8.595322e-01 8.414826e-01 7.174218e-01 1.440907e-01
<GCONST> 6.589178e+01
<TRANSP> 5
 0.000000e+00 1.000000e+00 0.000000e+00 0.000000e+00 0.000000e+00
 0.000000e+00 5.756913e-01 4.243087e-01 0.000000e+00 0.000000e+00
 0.000000e+00 0.000000e+00 7.278306e-01 2.721694e-01 0.000000e+00
 0.000000e+00 0.000000e+00 0.000000e+00 9.671462e-01 3.285381e-02
 0.000000e+00 0.000000e+00 0.000000e+00 0.000000e+00 0.000000e+00
<ENDHMM>
~h "OW"
<BEGINHMM>
<NUMSTATES> 5
<STATE> 2
<MEAN> 25
 4.347483e+00 4.471833e+00 -7.875215e-01 -1.676464e+00 -3.953713e+00 -1.812496e+00 -1.336448e+00 2.477037e+00 1.206507e-01 -1.250749e+00 -3.177774e+00 -1.844678e+00 -3.704842e-01 1.264530e-01 -1.187667e-01 2.563381e-01 3.183776e-01 2.662170e-01 2.075795e-01 3.123925e-01 2.056347e-01 3.404509e-02 2.584942e-01 7.632352e-03 -4.403498e-01
<VARIANCE> 25
 5.587104e+01 3.226432e+01 1.748441e+01 4.742678e+01 6.434313e+01 4.002283e+01 4.538558e+01 2.962119e+01 3.622686e+01 3.460217e+01 2.761842e+01 4.268923e+01 8.385934e-01 1.346071e+00 1.350940e+00 1.896924e+00 2.902675e+00 2.174688e+00 2.272602e+00 1.881408e+00 2.403128e+00 1.796248e+00 1.228558e+00 1.961605e+00 5.555344e-01
<GCONST> 9.553984e+01
<STATE> 3
<MEAN> 25
 -6.433896e+00 1.214109e+00 -2.929553e+00 1.109169e+00 1.066555e+00 4.736960e+00 4.662217e-01 4.395354e+00 2.629587e+00 1.705237e+00 7.274893e-01 1.663592e+00 -1.954675e-02 1.317787e-02 -4.624021e-02 -2.972182e-02 -3.704227e-02 -1.311740e-02 -1.862596e-02 1.122588e-02 2.982470e-03 -2.473153e-02 -2.800655e-02 -3.410973e-03 -4.744101e-02
<VARIANCE> 25
 9.972416e+00 9.086544e+00 1.200025e+01 1.445075e+01 9.965499e+00 1.411030e+01 1.172418e+01 1.106218e+01 1.822093e+01 1.584301e+01 1.144155e+01 8.876962e+00 1.088135e-01 2.324693e-01 3.076609e-01 4.446073e-01 5.569625e-01 6.548666e-01 8.210073e-01 8.612693e-01 8.242154e-01 8.488346e-01 8.403298e-01 7.483302e-01 4.655927e-02
<GCONST> 6.479675e+01
<STATE> 4
<MEAN> 25
 5.525634e+00 3.525794e+00 -7.981095e-01 -2.772399e+00 -1.720782e+00 -8.081071e-01 -4.847431e-01 2.702806e+00 -2.397919e+00 -2.608197e+00 -2.455552e+00 -3.648024e+00 2.400370e-01 -5.045179e-02 2.216473e-01 8.102085e-02 4.192024e-01 -8.648580e-02 -2.098583e-01 -4.175526e-01 -2.948943e-01 -1.469087e-01 4.826381e-02 -1.096127e-01 4.505459e-01
<VARIANCE> 25
 5.823454e+01 3.384471e+01 1.463494e+01 3.826759e+01 4.704070e+01 7.788342e+01 5.508671e+01 6.465719e+01 4.393080e+01 2.380002e+01 2.087955e+01 2.302974e+01 1.624369e+00 1.711864e+00 1.035178e+00 2.331562e+00 2.655853e+00 3.322501e+00 2.839998e+00 3.375937e+00 1.993261e+00 1.916390e+00 2.115834e+00 1.805872e+00 1.676943e+00
<GCONST> 9.891276e+01
<TRANSP> 5
 0.000000e+00 1.000000e+00 0.000000e+00 0.000000e+00 0.000000e+00
 0.000000e+00 8.723270e-01 1.276731e-01 0.000000e+00 0.000000e+00
 0.000000e+00 0.000000e+00 9.631225e-01 3.687743e-02 0.000000e+00
 0.000000e+00 0.000000e+00 0.000000e+00 8.115674e-01 1.884326e-01
 0.000000e+00 0.000000e+00 0.000000e+00 0.000000e+00 0.000000e+00
<ENDHMM>
~h "OY"
<BEGINHMM>
<NUMSTATES> 5
<STATE> 2
<MEAN> 25
 9.113283e+00 5.959404e+00 2.124661e+00 -8.071381e+00 -1.488245e+01 -9.746796e+00 9.109931e-01 5.564156e+00 -4.548575e+00 -6.646965e+00 -1.423648e+00 -4.282297e+00 1.778440e+00 1.106075e+00 -5.435412e-01 -1.256210e+00 -3.319040e+00 -2.435342e+00 1.248948e+00 9.293209e-01 -7.422624e-01 3.891782e-02 -9.003424e-01 -1.014092e+00 1.063971e+00
<VARIANCE> 25
 2.773660e+01 1.136201e+01 2.634316e+01 2.795744e+01 4.776074e+01 7.924448e+01 8.615226e+00 2.139948e+01 1.946268e+01 2.743579e+01 1.427821e+01 3.617106e+01 3.145281e+00 2.402834e+00 4.638218e-01 7.530771e-01 5.146328e+00 4.469056e+00 9.002889e-01 1.751819e+00 1.338062e+00 1.012505e+00 1.776088e+00 2.661519e+00 8.797210e-01
<GCONST> 9.057543e+01
<STATE> 3
<MEAN> 25
 1.188508e+01 5.941231e+00 -3.596822e+00 -1.023356e+01 -1.020050e+01 -5.287175e+00 1.326156e-02 7.502311e-02 -5.564353e+00 -6.724995e+00 -1.215114e+00 -8.311727e-01 3.369265e-02 -6.369443e-01 -6.177468e-01 4.458240e-01 1.234228e+00 5.989350e-01 -4.187732e-01 -1.354517e+00 -2.076830e-01 6.006533e-01 3.316155e-01 5.978793e-01 3.018888e-01
<VARIANCE> 25
 8.522822e+00 1.882843e+01 1.578920e+01 1.772045e+01 4.248491e+01 5.003598e+01 3.007219e+01 5.517457e+01 2.403567e+01 2.175485e+01 1.002653e+01 4.184244e+01 1.169859e-01 6.156691e-01 1.294997e+00 7.719043e-01 1.993677e+00 1.184152e+00 1.731492e+00 3.204440e+00 1.887879e+00 2.077616e+00 1.077129e+00 1.726938e+00 1.808536e-01
<GCONST> 8.425226e+01
<STATE> 4
<MEAN> 25
 9.278479e+00 -1.255572e+00 -2.462838e+00 2.783820e+00 2.351136e+00 -5.456647e+00 -8.143319e+00 -1.064092e+01 -3.314369e+00 1.684507e+00 1.484969e+00 -2.369923e+00 -5.924600e-01 -3.723607e-01 5.689899e-01 1.473926e+00 1.135636e+00 1.869660e-04 -6.312582e-01 -3.065163e-01 4.013918e-01 5.855714e-01 -7.336007e-02 -4.593794e-01 -1.924385e-01
<VARIANCE> 25
 1.015726e+01 1.819950e+01 1.924575e+01 3.391800e+01 4.506776e+01 5.231190e+01 3.768324e+01 2.756561e+01 2.054113e+01 3.065088e+01 1.810345e+01 3.802152e+01 2.425968e-01 9.253970e-01 5.422139e-01 2.103250e+00 2.002310e+00 2.463241e+00 3.423748e+00 3.594371e+00 2.094934e+00 2.885811e+00 2.537398e+00 1.936868e+00 3.091015e-01
<GCONST> 9.029910e+01
<TRANSP> 5
 0.000000e+00 1.000000e+00 0.000000e+00 0.000000e+00 0.000000e+00
 0.000000e+00 2.953186e-01 7.046813e-01 0.000000e+00 0.000000e+00
 0.000000e+00 0.000000e+00 8.625796e-01 1.374203e-01 0.000000e+00
 0.000000e+00 0.000000e+00 0.000000e+00 8.715863e-01 1.284137e-01
 0.000000e+00 0.000000e+00 0.000000e+00 0.000000e+00 0.000000e+00
<ENDHMM>
~h "SH"
<BEGINHMM>
<NUMSTATES> 5
<STATE> 2
<MEAN> 25
 -7.560135e+00 -2.028897e+01 7.846229e+00 8.193427e+00 9.445949e+00 -2.979634e+00 -5.801672e+00 -1.698203e+00 5.103023e+00 -2.020372e+00 -1.413168e+00 4.782044e+00 -1.007825e+00 -2.343770e+00 4.129675e-01 2.430284e-01 -8.105457e-01 2.695924e-01 -1.956836e-01 7.325040e-01 1.024314e+00 -4.436286e-03 1.985732e-01 3.044387e-01 3.821777e-01
<VARIANCE> 25
 4.977430e+01 1.022378e+02 3.865331e+01 4.395356e+01 2.495890e+01 2.918703e+01 2.973867e+01 3.083237e+01 2.329320e+01 9.349833e+00 1.689348e+01 1.803444e+01 5.136706e+00 1.260026e+01 3.656840e+00 2.563759e+00 5.368050e+00 2.803927e+00 3.279713e+00 3.508543e+00 2.759011e+00 1.145368e+00 1.730983e+00 1.390247e+00 1.160312e+00
<GCONST> 1.001743e+02
<STATE> 3
<MEAN> 25
 2.082997e+00 -1.412698e+01 -9.574825e-01 5.762441e+00 -4.136021e+00 -4.253954e+00 -6.848986e+00 -2.405178e+00 5.593328e+00 -1.833111e+00 -3.310424e-01 5.103900e+00 1.464626e+00 2.917367e+00 -1.618139e+00 -1.365274e+00 -4.773616e-01 -1.426374e-01 1.027789e+00 3.321783e-01 -7.612180e-01 -8.110533e-02 7.315866e-01 -1.946504e-01 -4.735693e-01
<VARIANCE> 25
 4.019530e+01 1.192896e+02 4.135741e+01 5.965702e+01 4.702423e+01 2.249146e+01 3.877522e+01 5.301331e+01 2.504421e+01 2.620711e+01 1.258231e+01 1.779973e+01 6.718195e+00 6.984288e+00 4.306664e+00 1.564503e+00 5.385162e+00 2.264004e+00 2.363628e+00 2.633996e+00 2.711745e+00 1.479110e+00 6.826541e-01 1.104760e+00 9.375294e-01
<GCONST> 9.985147e+01
<STATE> 4
<MEAN> 25
 -6.177723e+00 -1.575057e+01 4.189111e+00 8.908969e+00 3.246447e+00 -1.307795e+00 -7.066680e+00 7.426138e+00 5.629981e+00 -6.756666e+00 7.515185e-01 1.208861e+00 1.172363e-01 6.184877e-01 -3.722533e-01 -5.057241e-02 -8.549657e-02 1.376620e-01 7.569825e-01 7.730642e-02 -1.044999e-01 2.098205e-01 -4.234712e-02 -1.905929e-01 -4.155551e-01
<VARIANCE> 25
 2.500932e+01 9.470554e+01 7.698809e+01 2.432720e+01 9.353016e+00 8.192397e+00 5.511521e+01 1.632511e+01 3.356690e+01 2.133337e+01 6.103944e+00 6.621624e+00 1.240415e+00 2.308034e+00 1.542613e+00 1.299895e+00 8.427895e-01 1.060604e+00 1.825404e+00 1.779818e+00 2.146963e+00 1.259741e+00 7.496312e-01 1.063274e+00 2.224184e-01
<GCONST> 8.474497e+01
<TRANSP> 5
 0.000000e+00 1.000000e+00 0.000000e+00 0.000000e+00 0.000000e+00
 0.000000e+00 8.727921e-01 1.272079e-01 0.000000e+00 0.000000e+00
 0.000000e+00 0.000000e+00 7.678368e-01 2.321632e-01 0.000000e+00
 0.000000e+00 0.000000e+00 0.000000e+00 8.578637e-01 1.421363e-01
 0.000000e+00 0.000000e+00 0.000000e+00 0.000000e+00 0.000000e+00
<ENDHMM>
~h "TH"
