~o
<STREAMINFO> 1 25
<VECSIZE> 25<NULLD><MFCC_D_N_Z_0><DIAGC>
~h "proto"
<BEGINHMM>
<NUMSTATES> 5
<STATE> 2
<MEAN> 25
 -3.655948e-08 3.520881e-08 -4.008341e-08 -2.538853e-09 -4.311988e-08 -7.718112e-09 1.188183e-08 1.129282e-08 7.769905e-08 7.037700e-09 -4.610556e-09 2.538853e-09 1.627106e-03 8.588775e-03 3.624697e-03 4.296580e-03 2.789586e-03 4.490179e-03 3.298831e-03 2.386568e-03 1.399336e-04 -1.949411e-03 6.544712e-04 1.414264e-03 -5.051720e-03
<VARIANCE> 25
 8.227534e+01 6.515874e+01 6.340704e+01 5.579796e+01 5.567104e+01 6.825542e+01 5.761943e+01 6.079045e+01 5.340959e+01 3.299059e+01 2.950022e+01 2.521621e+01 2.578133e+00 3.036736e+00 2.590291e+00 2.553755e+00 2.876150e+00 3.638128e+00 2.925776e+00 2.885491e+00 2.858336e+00 2.095043e+00 2.038079e+00 1.672569e+00 1.721841e+00
<GCONST> 1.051832e+02
<STATE> 3
<MEAN> 25
 -3.655948e-08 3.520881e-08 -4.008341e-08 -2.538853e-09 -4.311988e-08 -7.718112e-09 1.188183e-08 1.129282e-08 7.769905e-08 7.037700e-09 -4.610556e-09 2.538853e-09 1.627106e-03 8.588775e-03 3.624697e-03 4.296580e-03 2.789586e-03 4.490179e-03 3.298831e-03 2.386568e-03 1.399336e-04 -1.949411e-03 6.544712e-04 1.414264e-03 -5.051720e-03
<VARIANCE> 25
 8.227534e+01 6.515874e+01 6.340704e+01 5.579796e+01 5.567104e+01 6.825542e+01 5.761943e+01 6.079045e+01 5.340959e+01 3.299059e+01 2.950022e+01 2.521621e+01 2.578133e+00 3.036736e+00 2.590291e+00 2.553755e+00 2.876150e+00 3.638128e+00 2.925776e+00 2.885491e+00 2.858336e+00 2.095043e+00 2.038079e+00 1.672569e+00 1.721841e+00
<GCONST> 1.051832e+02
<STATE> 4
<MEAN> 25
 -3.655948e-08 3.520881e-08 -4.008341e-08 -2.538853e-09 -4.311988e-08 -7.718112e-09 1.188183e-08 1.129282e-08 7.769905e-08 7.037700e-09 -4.610556e-09 2.538853e-09 1.627106e-03 8.588775e-03 3.624697e-03 4.296580e-03 2.789586e-03 4.490179e-03 3.298831e-03 2.386568e-03 1.399336e-04 -1.949411e-03 6.544712e-04 1.414264e-03 -5.051720e-03
<VARIANCE> 25
 8.227534e+01 6.515874e+01 6.340704e+01 5.579796e+01 5.567104e+01 6.825542e+01 5.761943e+01 6.079045e+01 5.340959e+01 3.299059e+01 2.950022e+01 2.521621e+01 2.578133e+00 3.036736e+00 2.590291e+00 2.553755e+00 2.876150e+00 3.638128e+00 2.925776e+00 2.885491e+00 2.858336e+00 2.095043e+00 2.038079e+00 1.672569e+00 1.721841e+00
<GCONST> 1.051832e+02
<TRANSP> 5
 0.000000e+00 1.000000e+00 0.000000e+00 0.000000e+00 0.000000e+00
 0.000000e+00 6.000000e-01 4.000000e-01 0.000000e+00 0.000000e+00
 0.000000e+00 0.000000e+00 6.000000e-01 4.000000e-01 0.000000e+00
 0.000000e+00 0.000000e+00 0.000000e+00 7.000000e-01 3.000000e-01
 0.000000e+00 0.000000e+00 0.000000e+00 0.000000e+00 0.000000e+00
<ENDHMM>
