~o
<STREAMINFO> 1 25
<VECSIZE> 25<NULLD><MFCC_D_N_Z_0><DIAGC>
~h "proto"
<BEGINHMM>
<NUMSTATES> 5
<STATE> 2
<MEAN> 25
 -2.322871e-08 1.126217e-08 1.883025e-08 6.810512e-09 1.110002e-08 3.984960e-08 -3.788347e-08 -2.810349e-08 7.132795e-08 2.029978e-08 -1.756342e-08 1.758875e-08 3.318722e-04 7.891263e-03 1.789097e-03 3.328641e-03 6.375481e-04 3.762332e-03 1.233980e-03 2.462655e-03 -1.105810e-03 -3.231633e-03 2.765345e-04 1.806994e-03 -8.567597e-03
<VARIANCE> 25
 7.973236e+01 6.283217e+01 5.770475e+01 5.273573e+01 5.570308e+01 6.517128e+01 5.845628e+01 5.916846e+01 4.848422e+01 3.409101e+01 3.021548e+01 2.573606e+01 2.501548e+00 3.082744e+00 2.480528e+00 2.474501e+00 2.854813e+00 3.463008e+00 2.941408e+00 2.931458e+00 2.687757e+00 2.139890e+00 2.135985e+00 1.677117e+00 1.727884e+00
<GCONST> 1.047741e+02
<STATE> 3
<MEAN> 25
 -2.322871e-08 1.126217e-08 1.883025e-08 6.810512e-09 1.110002e-08 3.984960e-08 -3.788347e-08 -2.810349e-08 7.132795e-08 2.029978e-08 -1.756342e-08 1.758875e-08 3.318722e-04 7.891263e-03 1.789097e-03 3.328641e-03 6.375481e-04 3.762332e-03 1.233980e-03 2.462655e-03 -1.105810e-03 -3.231633e-03 2.765345e-04 1.806994e-03 -8.567597e-03
<VARIANCE> 25
 7.973236e+01 6.283217e+01 5.770475e+01 5.273573e+01 5.570308e+01 6.517128e+01 5.845628e+01 5.916846e+01 4.848422e+01 3.409101e+01 3.021548e+01 2.573606e+01 2.501548e+00 3.082744e+00 2.480528e+00 2.474501e+00 2.854813e+00 3.463008e+00 2.941408e+00 2.931458e+00 2.687757e+00 2.139890e+00 2.135985e+00 1.677117e+00 1.727884e+00
<GCONST> 1.047741e+02
<STATE> 4
<MEAN> 25
 -2.322871e-08 1.126217e-08 1.883025e-08 6.810512e-09 1.110002e-08 3.984960e-08 -3.788347e-08 -2.810349e-08 7.132795e-08 2.029978e-08 -1.756342e-08 1.758875e-08 3.318722e-04 7.891263e-03 1.789097e-03 3.328641e-03 6.375481e-04 3.762332e-03 1.233980e-03 2.462655e-03 -1.105810e-03 -3.231633e-03 2.765345e-04 1.806994e-03 -8.567597e-03
<VARIANCE> 25
 7.973236e+01 6.283217e+01 5.770475e+01 5.273573e+01 5.570308e+01 6.517128e+01 5.845628e+01 5.916846e+01 4.848422e+01 3.409101e+01 3.021548e+01 2.573606e+01 2.501548e+00 3.082744e+00 2.480528e+00 2.474501e+00 2.854813e+00 3.463008e+00 2.941408e+00 2.931458e+00 2.687757e+00 2.139890e+00 2.135985e+00 1.677117e+00 1.727884e+00
<GCONST> 1.047741e+02
<TRANSP> 5
 0.000000e+00 1.000000e+00 0.000000e+00 0.000000e+00 0.000000e+00
 0.000000e+00 6.000000e-01 4.000000e-01 0.000000e+00 0.000000e+00
 0.000000e+00 0.000000e+00 6.000000e-01 4.000000e-01 0.000000e+00
 0.000000e+00 0.000000e+00 0.000000e+00 7.000000e-01 3.000000e-01
 0.000000e+00 0.000000e+00 0.000000e+00 0.000000e+00 0.000000e+00
<ENDHMM>
