~o
<STREAMINFO> 1 25
<VECSIZE> 25<NULLD><MFCC_D_N_Z_0><DIAGC>
~h "proto"
<BEGINHMM>
<NUMSTATES> 5
<STATE> 2
<MEAN> 25
 2.010413e-08 -3.198292e-08 -4.598112e-08 4.567835e-08 2.257929e-08 -3.184163e-08 4.170698e-08 -6.541915e-08 1.475514e-08 4.931163e-08 -3.273985e-08 1.467944e-08 4.441974e-04 8.183749e-03 3.022204e-03 4.256361e-03 2.223500e-03 4.778260e-03 1.537727e-03 1.677096e-03 2.847518e-04 -2.265146e-03 9.724164e-04 1.323327e-03 -7.388861e-03
<VARIANCE> 25
 7.684358e+01 6.689525e+01 5.945784e+01 5.404900e+01 5.873673e+01 6.696369e+01 5.555362e+01 5.806508e+01 5.146426e+01 3.288235e+01 2.985974e+01 2.663321e+01 2.445809e+00 3.145698e+00 2.547365e+00 2.536797e+00 2.968301e+00 3.530446e+00 2.895702e+00 2.823811e+00 2.830596e+00 2.164772e+00 2.139806e+00 1.721732e+00 1.690159e+00
<GCONST> 1.050344e+02
<STATE> 3
<MEAN> 25
 2.010413e-08 -3.198292e-08 -4.598112e-08 4.567835e-08 2.257929e-08 -3.184163e-08 4.170698e-08 -6.541915e-08 1.475514e-08 4.931163e-08 -3.273985e-08 1.467944e-08 4.441974e-04 8.183749e-03 3.022204e-03 4.256361e-03 2.223500e-03 4.778260e-03 1.537727e-03 1.677096e-03 2.847518e-04 -2.265146e-03 9.724164e-04 1.323327e-03 -7.388861e-03
<VARIANCE> 25
 7.684358e+01 6.689525e+01 5.945784e+01 5.404900e+01 5.873673e+01 6.696369e+01 5.555362e+01 5.806508e+01 5.146426e+01 3.288235e+01 2.985974e+01 2.663321e+01 2.445809e+00 3.145698e+00 2.547365e+00 2.536797e+00 2.968301e+00 3.530446e+00 2.895702e+00 2.823811e+00 2.830596e+00 2.164772e+00 2.139806e+00 1.721732e+00 1.690159e+00
<GCONST> 1.050344e+02
<STATE> 4
<MEAN> 25
 2.010413e-08 -3.198292e-08 -4.598112e-08 4.567835e-08 2.257929e-08 -3.184163e-08 4.170698e-08 -6.541915e-08 1.475514e-08 4.931163e-08 -3.273985e-08 1.467944e-08 4.441974e-04 8.183749e-03 3.022204e-03 4.256361e-03 2.223500e-03 4.778260e-03 1.537727e-03 1.677096e-03 2.847518e-04 -2.265146e-03 9.724164e-04 1.323327e-03 -7.388861e-03
<VARIANCE> 25
 7.684358e+01 6.689525e+01 5.945784e+01 5.404900e+01 5.873673e+01 6.696369e+01 5.555362e+01 5.806508e+01 5.146426e+01 3.288235e+01 2.985974e+01 2.663321e+01 2.445809e+00 3.145698e+00 2.547365e+00 2.536797e+00 2.968301e+00 3.530446e+00 2.895702e+00 2.823811e+00 2.830596e+00 2.164772e+00 2.139806e+00 1.721732e+00 1.690159e+00
<GCONST> 1.050344e+02
<TRANSP> 5
 0.000000e+00 1.000000e+00 0.000000e+00 0.000000e+00 0.000000e+00
 0.000000e+00 6.000000e-01 4.000000e-01 0.000000e+00 0.000000e+00
 0.000000e+00 0.000000e+00 6.000000e-01 4.000000e-01 0.000000e+00
 0.000000e+00 0.000000e+00 0.000000e+00 7.000000e-01 3.000000e-01
 0.000000e+00 0.000000e+00 0.000000e+00 0.000000e+00 0.000000e+00
<ENDHMM>
