~o
<STREAMINFO> 1 25
<VECSIZE> 25<NULLD><MFCC_D_N_Z_0><DIAGC>
~h "proto"
<BEGINHMM>
<NUMSTATES> 5
<STATE> 2
<MEAN> 25
 4.658980e-08 2.254011e-09 -3.388772e-08 -2.344999e-08 1.757715e-08 -3.508193e-08 4.828548e-08 -5.175438e-08 4.547313e-08 -5.686726e-09 6.731016e-09 3.337591e-08 -5.632778e-05 7.898463e-03 2.425834e-03 3.135264e-03 6.230384e-04 5.361010e-03 1.481052e-03 3.023365e-03 -1.362992e-04 -2.310141e-03 -8.174087e-04 2.144668e-03 -9.013023e-03
<VARIANCE> 25
 7.958858e+01 6.425626e+01 6.059949e+01 5.530048e+01 5.800623e+01 6.818124e+01 5.787675e+01 6.044356e+01 5.161190e+01 3.488001e+01 3.120132e+01 2.801407e+01 2.511101e+00 3.145050e+00 2.522243e+00 2.623779e+00 2.932647e+00 3.648039e+00 2.942767e+00 2.875804e+00 2.816977e+00 2.180851e+00 2.154130e+00 1.786767e+00 1.760435e+00
<GCONST> 1.055061e+02
<STATE> 3
<MEAN> 25
 4.658980e-08 2.254011e-09 -3.388772e-08 -2.344999e-08 1.757715e-08 -3.508193e-08 4.828548e-08 -5.175438e-08 4.547313e-08 -5.686726e-09 6.731016e-09 3.337591e-08 -5.632778e-05 7.898463e-03 2.425834e-03 3.135264e-03 6.230384e-04 5.361010e-03 1.481052e-03 3.023365e-03 -1.362992e-04 -2.310141e-03 -8.174087e-04 2.144668e-03 -9.013023e-03
<VARIANCE> 25
 7.958858e+01 6.425626e+01 6.059949e+01 5.530048e+01 5.800623e+01 6.818124e+01 5.787675e+01 6.044356e+01 5.161190e+01 3.488001e+01 3.120132e+01 2.801407e+01 2.511101e+00 3.145050e+00 2.522243e+00 2.623779e+00 2.932647e+00 3.648039e+00 2.942767e+00 2.875804e+00 2.816977e+00 2.180851e+00 2.154130e+00 1.786767e+00 1.760435e+00
<GCONST> 1.055061e+02
<STATE> 4
<MEAN> 25
 4.658980e-08 2.254011e-09 -3.388772e-08 -2.344999e-08 1.757715e-08 -3.508193e-08 4.828548e-08 -5.175438e-08 4.547313e-08 -5.686726e-09 6.731016e-09 3.337591e-08 -5.632778e-05 7.898463e-03 2.425834e-03 3.135264e-03 6.230384e-04 5.361010e-03 1.481052e-03 3.023365e-03 -1.362992e-04 -2.310141e-03 -8.174087e-04 2.144668e-03 -9.013023e-03
<VARIANCE> 25
 7.958858e+01 6.425626e+01 6.059949e+01 5.530048e+01 5.800623e+01 6.818124e+01 5.787675e+01 6.044356e+01 5.161190e+01 3.488001e+01 3.120132e+01 2.801407e+01 2.511101e+00 3.145050e+00 2.522243e+00 2.623779e+00 2.932647e+00 3.648039e+00 2.942767e+00 2.875804e+00 2.816977e+00 2.180851e+00 2.154130e+00 1.786767e+00 1.760435e+00
<GCONST> 1.055061e+02
<TRANSP> 5
 0.000000e+00 1.000000e+00 0.000000e+00 0.000000e+00 0.000000e+00
 0.000000e+00 6.000000e-01 4.000000e-01 0.000000e+00 0.000000e+00
 0.000000e+00 0.000000e+00 6.000000e-01 4.000000e-01 0.000000e+00
 0.000000e+00 0.000000e+00 0.000000e+00 7.000000e-01 3.000000e-01
 0.000000e+00 0.000000e+00 0.000000e+00 0.000000e+00 0.000000e+00
<ENDHMM>
