~o
<STREAMINFO> 1 25
<VECSIZE> 25<NULLD><MFCC_D_N_Z_0><DIAGC>
~h "proto"
<BEGINHMM>
<NUMSTATES> 5
<STATE> 2
<MEAN> 25
 2.260269e-08 8.811305e-09 -3.170250e-08 -3.272399e-09 -8.275869e-09 9.510491e-09 8.899678e-09 -1.947844e-08 2.254810e-08 1.054238e-08 -2.218162e-08 1.487785e-08 2.782780e-04 8.105542e-03 3.354365e-03 3.784926e-03 1.671908e-03 4.445618e-03 2.719840e-03 2.226485e-03 9.320548e-04 -1.759579e-03 3.273624e-04 1.619040e-03 -6.760993e-03
<VARIANCE> 25
 7.968279e+01 6.358563e+01 6.087330e+01 5.505605e+01 5.724376e+01 6.726244e+01 5.734302e+01 6.000534e+01 5.110028e+01 3.368567e+01 3.032980e+01 2.671296e+01 2.506406e+00 3.079680e+00 2.529851e+00 2.541293e+00 2.896639e+00 3.554343e+00 2.927196e+00 2.849113e+00 2.789037e+00 2.151500e+00 2.086617e+00 1.716910e+00 1.698369e+00
<GCONST> 1.050970e+02
<STATE> 3
<MEAN> 25
 2.260269e-08 8.811305e-09 -3.170250e-08 -3.272399e-09 -8.275869e-09 9.510491e-09 8.899678e-09 -1.947844e-08 2.254810e-08 1.054238e-08 -2.218162e-08 1.487785e-08 2.782780e-04 8.105542e-03 3.354365e-03 3.784926e-03 1.671908e-03 4.445618e-03 2.719840e-03 2.226485e-03 9.320548e-04 -1.759579e-03 3.273624e-04 1.619040e-03 -6.760993e-03
<VARIANCE> 25
 7.968279e+01 6.358563e+01 6.087330e+01 5.505605e+01 5.724376e+01 6.726244e+01 5.734302e+01 6.000534e+01 5.110028e+01 3.368567e+01 3.032980e+01 2.671296e+01 2.506406e+00 3.079680e+00 2.529851e+00 2.541293e+00 2.896639e+00 3.554343e+00 2.927196e+00 2.849113e+00 2.789037e+00 2.151500e+00 2.086617e+00 1.716910e+00 1.698369e+00
<GCONST> 1.050970e+02
<STATE> 4
<MEAN> 25
 2.260269e-08 8.811305e-09 -3.170250e-08 -3.272399e-09 -8.275869e-09 9.510491e-09 8.899678e-09 -1.947844e-08 2.254810e-08 1.054238e-08 -2.218162e-08 1.487785e-08 2.782780e-04 8.105542e-03 3.354365e-03 3.784926e-03 1.671908e-03 4.445618e-03 2.719840e-03 2.226485e-03 9.320548e-04 -1.759579e-03 3.273624e-04 1.619040e-03 -6.760993e-03
<VARIANCE> 25
 7.968279e+01 6.358563e+01 6.087330e+01 5.505605e+01 5.724376e+01 6.726244e+01 5.734302e+01 6.000534e+01 5.110028e+01 3.368567e+01 3.032980e+01 2.671296e+01 2.506406e+00 3.079680e+00 2.529851e+00 2.541293e+00 2.896639e+00 3.554343e+00 2.927196e+00 2.849113e+00 2.789037e+00 2.151500e+00 2.086617e+00 1.716910e+00 1.698369e+00
<GCONST> 1.050970e+02
<TRANSP> 5
 0.000000e+00 1.000000e+00 0.000000e+00 0.000000e+00 0.000000e+00
 0.000000e+00 6.000000e-01 4.000000e-01 0.000000e+00 0.000000e+00
 0.000000e+00 0.000000e+00 6.000000e-01 4.000000e-01 0.000000e+00
 0.000000e+00 0.000000e+00 0.000000e+00 7.000000e-01 3.000000e-01
 0.000000e+00 0.000000e+00 0.000000e+00 0.000000e+00 0.000000e+00
<ENDHMM>
