~o
<STREAMINFO> 1 25
<VECSIZE> 25<NULLD><MFCC_D_N_Z_0><DIAGC>
~h "proto"
<BEGINHMM>
<NUMSTATES> 5
<STATE> 2
<MEAN> 25
 2.109515e-08 1.022787e-08 -2.999093e-08 2.022182e-09 -4.662974e-09 5.616882e-09 9.518288e-09 -1.529892e-08 1.900409e-08 1.129095e-08 -2.211144e-08 1.431642e-08 2.782786e-04 8.105464e-03 3.354377e-03 3.784914e-03 1.671908e-03 4.445605e-03 2.719858e-03 2.226481e-03 9.320594e-04 -1.759577e-03 3.273644e-04 1.619055e-03 -6.761058e-03
<VARIANCE> 25
 7.968272e+01 6.358567e+01 6.087299e+01 5.505626e+01 5.724400e+01 6.726244e+01 5.734284e+01 6.000591e+01 5.110065e+01 3.368585e+01 3.032993e+01 2.671303e+01 2.506397e+00 3.079668e+00 2.529860e+00 2.541265e+00 2.896652e+00 3.554364e+00 2.927182e+00 2.849109e+00 2.789012e+00 2.151489e+00 2.086615e+00 1.716902e+00 1.698384e+00
<GCONST> 1.050969e+02
<STATE> 3
<MEAN> 25
 2.109515e-08 1.022787e-08 -2.999093e-08 2.022182e-09 -4.662974e-09 5.616882e-09 9.518288e-09 -1.529892e-08 1.900409e-08 1.129095e-08 -2.211144e-08 1.431642e-08 2.782786e-04 8.105464e-03 3.354377e-03 3.784914e-03 1.671908e-03 4.445605e-03 2.719858e-03 2.226481e-03 9.320594e-04 -1.759577e-03 3.273644e-04 1.619055e-03 -6.761058e-03
<VARIANCE> 25
 7.968272e+01 6.358567e+01 6.087299e+01 5.505626e+01 5.724400e+01 6.726244e+01 5.734284e+01 6.000591e+01 5.110065e+01 3.368585e+01 3.032993e+01 2.671303e+01 2.506397e+00 3.079668e+00 2.529860e+00 2.541265e+00 2.896652e+00 3.554364e+00 2.927182e+00 2.849109e+00 2.789012e+00 2.151489e+00 2.086615e+00 1.716902e+00 1.698384e+00
<GCONST> 1.050969e+02
<STATE> 4
<MEAN> 25
 2.109515e-08 1.022787e-08 -2.999093e-08 2.022182e-09 -4.662974e-09 5.616882e-09 9.518288e-09 -1.529892e-08 1.900409e-08 1.129095e-08 -2.211144e-08 1.431642e-08 2.782786e-04 8.105464e-03 3.354377e-03 3.784914e-03 1.671908e-03 4.445605e-03 2.719858e-03 2.226481e-03 9.320594e-04 -1.759577e-03 3.273644e-04 1.619055e-03 -6.761058e-03
<VARIANCE> 25
 7.968272e+01 6.358567e+01 6.087299e+01 5.505626e+01 5.724400e+01 6.726244e+01 5.734284e+01 6.000591e+01 5.110065e+01 3.368585e+01 3.032993e+01 2.671303e+01 2.506397e+00 3.079668e+00 2.529860e+00 2.541265e+00 2.896652e+00 3.554364e+00 2.927182e+00 2.849109e+00 2.789012e+00 2.151489e+00 2.086615e+00 1.716902e+00 1.698384e+00
<GCONST> 1.050969e+02
<TRANSP> 5
 0.000000e+00 1.000000e+00 0.000000e+00 0.000000e+00 0.000000e+00
 0.000000e+00 6.000000e-01 4.000000e-01 0.000000e+00 0.000000e+00
 0.000000e+00 0.000000e+00 6.000000e-01 4.000000e-01 0.000000e+00
 0.000000e+00 0.000000e+00 0.000000e+00 7.000000e-01 3.000000e-01
 0.000000e+00 0.000000e+00 0.000000e+00 0.000000e+00 0.000000e+00
<ENDHMM>
