~o
<STREAMINFO> 1 25
<VECSIZE> 25<NULLD><MFCC_D_N_Z_0><DIAGC>
~h "proto"
<BEGINHMM>
<NUMSTATES> 5
<STATE> 2
<MEAN> 25
 2.418300e-08 1.212529e-08 -3.081617e-08 2.963094e-10 -7.787218e-09 1.018369e-08 8.327853e-09 -2.532665e-08 2.178654e-08 1.100503e-08 -2.347602e-08 1.710797e-08 2.782750e-04 8.105545e-03 3.354383e-03 3.784855e-03 1.671906e-03 4.445595e-03 2.719863e-03 2.226474e-03 9.320664e-04 -1.759573e-03 3.273567e-04 1.619050e-03 -6.761040e-03
<VARIANCE> 25
 7.968251e+01 6.358575e+01 6.087215e+01 5.505664e+01 5.724403e+01 6.726138e+01 5.734249e+01 6.000503e+01 5.110011e+01 3.368562e+01 3.032968e+01 2.671275e+01 2.506403e+00 3.079681e+00 2.529860e+00 2.541271e+00 2.896666e+00 3.554363e+00 2.927221e+00 2.849120e+00 2.789016e+00 2.151508e+00 2.086617e+00 1.716903e+00 1.698387e+00
<GCONST> 1.050969e+02
<STATE> 3
<MEAN> 25
 2.418300e-08 1.212529e-08 -3.081617e-08 2.963094e-10 -7.787218e-09 1.018369e-08 8.327853e-09 -2.532665e-08 2.178654e-08 1.100503e-08 -2.347602e-08 1.710797e-08 2.782750e-04 8.105545e-03 3.354383e-03 3.784855e-03 1.671906e-03 4.445595e-03 2.719863e-03 2.226474e-03 9.320664e-04 -1.759573e-03 3.273567e-04 1.619050e-03 -6.761040e-03
<VARIANCE> 25
 7.968251e+01 6.358575e+01 6.087215e+01 5.505664e+01 5.724403e+01 6.726138e+01 5.734249e+01 6.000503e+01 5.110011e+01 3.368562e+01 3.032968e+01 2.671275e+01 2.506403e+00 3.079681e+00 2.529860e+00 2.541271e+00 2.896666e+00 3.554363e+00 2.927221e+00 2.849120e+00 2.789016e+00 2.151508e+00 2.086617e+00 1.716903e+00 1.698387e+00
<GCONST> 1.050969e+02
<STATE> 4
<MEAN> 25
 2.418300e-08 1.212529e-08 -3.081617e-08 2.963094e-10 -7.787218e-09 1.018369e-08 8.327853e-09 -2.532665e-08 2.178654e-08 1.100503e-08 -2.347602e-08 1.710797e-08 2.782750e-04 8.105545e-03 3.354383e-03 3.784855e-03 1.671906e-03 4.445595e-03 2.719863e-03 2.226474e-03 9.320664e-04 -1.759573e-03 3.273567e-04 1.619050e-03 -6.761040e-03
<VARIANCE> 25
 7.968251e+01 6.358575e+01 6.087215e+01 5.505664e+01 5.724403e+01 6.726138e+01 5.734249e+01 6.000503e+01 5.110011e+01 3.368562e+01 3.032968e+01 2.671275e+01 2.506403e+00 3.079681e+00 2.529860e+00 2.541271e+00 2.896666e+00 3.554363e+00 2.927221e+00 2.849120e+00 2.789016e+00 2.151508e+00 2.086617e+00 1.716903e+00 1.698387e+00
<GCONST> 1.050969e+02
<TRANSP> 5
 0.000000e+00 1.000000e+00 0.000000e+00 0.000000e+00 0.000000e+00
 0.000000e+00 6.000000e-01 4.000000e-01 0.000000e+00 0.000000e+00
 0.000000e+00 0.000000e+00 6.000000e-01 4.000000e-01 0.000000e+00
 0.000000e+00 0.000000e+00 0.000000e+00 7.000000e-01 3.000000e-01
 0.000000e+00 0.000000e+00 0.000000e+00 0.000000e+00 0.000000e+00
<ENDHMM>
