~o
<STREAMINFO> 1 25
<VECSIZE> 25<NULLD><MFCC_D_N_Z_0><DIAGC>
~h "proto"
<BEGINHMM>
<NUMSTATES> 5
<STATE> 2
<MEAN> 25
 1.689483e-08 1.162624e-08 -3.139190e-08 -4.429046e-09 -4.312081e-09 1.346908e-08 8.988051e-09 -1.950963e-08 1.790333e-08 1.120517e-08 -2.177874e-08 1.819963e-08 2.782758e-04 8.105535e-03 3.354370e-03 3.784933e-03 1.671912e-03 4.445614e-03 2.719851e-03 2.226481e-03 9.320690e-04 -1.759566e-03 3.273608e-04 1.619051e-03 -6.761047e-03
<VARIANCE> 25
 7.968314e+01 6.358461e+01 6.087235e+01 5.505641e+01 5.724427e+01 6.726183e+01 5.734314e+01 6.000649e+01 5.110040e+01 3.368589e+01 3.032985e+01 2.671327e+01 2.506405e+00 3.079661e+00 2.529853e+00 2.541256e+00 2.896642e+00 3.554353e+00 2.927191e+00 2.849111e+00 2.789020e+00 2.151486e+00 2.086598e+00 1.716880e+00 1.698363e+00
<GCONST> 1.050969e+02
<STATE> 3
<MEAN> 25
 1.689483e-08 1.162624e-08 -3.139190e-08 -4.429046e-09 -4.312081e-09 1.346908e-08 8.988051e-09 -1.950963e-08 1.790333e-08 1.120517e-08 -2.177874e-08 1.819963e-08 2.782758e-04 8.105535e-03 3.354370e-03 3.784933e-03 1.671912e-03 4.445614e-03 2.719851e-03 2.226481e-03 9.320690e-04 -1.759566e-03 3.273608e-04 1.619051e-03 -6.761047e-03
<VARIANCE> 25
 7.968314e+01 6.358461e+01 6.087235e+01 5.505641e+01 5.724427e+01 6.726183e+01 5.734314e+01 6.000649e+01 5.110040e+01 3.368589e+01 3.032985e+01 2.671327e+01 2.506405e+00 3.079661e+00 2.529853e+00 2.541256e+00 2.896642e+00 3.554353e+00 2.927191e+00 2.849111e+00 2.789020e+00 2.151486e+00 2.086598e+00 1.716880e+00 1.698363e+00
<GCONST> 1.050969e+02
<STATE> 4
<MEAN> 25
 1.689483e-08 1.162624e-08 -3.139190e-08 -4.429046e-09 -4.312081e-09 1.346908e-08 8.988051e-09 -1.950963e-08 1.790333e-08 1.120517e-08 -2.177874e-08 1.819963e-08 2.782758e-04 8.105535e-03 3.354370e-03 3.784933e-03 1.671912e-03 4.445614e-03 2.719851e-03 2.226481e-03 9.320690e-04 -1.759566e-03 3.273608e-04 1.619051e-03 -6.761047e-03
<VARIANCE> 25
 7.968314e+01 6.358461e+01 6.087235e+01 5.505641e+01 5.724427e+01 6.726183e+01 5.734314e+01 6.000649e+01 5.110040e+01 3.368589e+01 3.032985e+01 2.671327e+01 2.506405e+00 3.079661e+00 2.529853e+00 2.541256e+00 2.896642e+00 3.554353e+00 2.927191e+00 2.849111e+00 2.789020e+00 2.151486e+00 2.086598e+00 1.716880e+00 1.698363e+00
<GCONST> 1.050969e+02
<TRANSP> 5
 0.000000e+00 1.000000e+00 0.000000e+00 0.000000e+00 0.000000e+00
 0.000000e+00 6.000000e-01 4.000000e-01 0.000000e+00 0.000000e+00
 0.000000e+00 0.000000e+00 6.000000e-01 4.000000e-01 0.000000e+00
 0.000000e+00 0.000000e+00 0.000000e+00 7.000000e-01 3.000000e-01
 0.000000e+00 0.000000e+00 0.000000e+00 0.000000e+00 0.000000e+00
<ENDHMM>
