~o
<STREAMINFO> 1 25
<VECSIZE> 25<NULLD><MFCC_D_N_Z_0><DIAGC>
~s "silst"
<MEAN> 25
 -5.152124e+00 3.288232e+00 -5.603549e+00 2.533917e+00 -2.279100e-01 7.266594e+00 1.386731e-01 5.942195e+00 1.615812e+00 2.503679e-01 -1.428991e-01 2.700741e+00 -2.690716e-03 7.479624e-02 -3.731590e-02 1.651183e-02 -2.822929e-02 5.844806e-03 1.900090e-03 -3.723870e-03 -7.066210e-03 -1.934810e-02 -2.276794e-02 1.070167e-02 -6.695405e-02
<VARIANCE> 25
 4.146851e+00 1.626858e+01 1.153026e+01 6.188121e+00 9.251572e+00 8.788791e+00 9.542774e+00 1.175283e+01 9.642085e+00 1.036904e+01 9.013722e+00 9.527678e+00 7.695340e-02 1.988257e-01 2.793241e-01 3.708674e-01 5.008986e-01 5.923432e-01 7.014530e-01 7.739805e-01 8.014281e-01 8.088641e-01 7.767026e-01 7.264659e-01 3.813992e-02
<GCONST> 6.005693e+01
~h "B"
<BEGINHMM>
<NUMSTATES> 5
<STATE> 2
<MEAN> 25
 -3.022634e+00 3.777015e+00 -1.345915e+00 1.048092e+00 2.816593e+00 5.517900e+00 7.907486e-01 3.465227e+00 1.674471e+00 -1.573640e+00 6.578553e-01 1.769441e+00 -4.058457e-01 -9.416024e-02 -2.061231e-01 -6.877004e-02 -1.345546e-01 1.361026e-01 -1.081800e-01 3.579733e-01 1.941582e-01 8.526835e-02 2.707694e-02 1.593538e-01 -7.947682e-01
<VARIANCE> 25
 2.217015e+01 2.202098e+01 3.566442e+01 2.525643e+01 1.685715e+01 2.014946e+01 1.351270e+01 1.701378e+01 1.458893e+01 1.242188e+01 1.076802e+01 1.396035e+01 1.632462e+00 2.051853e+00 1.274904e+00 1.562727e+00 1.638664e+00 1.933281e+00 1.617940e+00 1.705058e+00 1.807737e+00 1.196134e+00 1.020041e+00 1.093231e+00 2.849907e+00
<GCONST> 8.641246e+01
<STATE> 3
<MEAN> 25
 -9.406597e-01 1.990201e+00 -5.015608e-01 -1.504682e-01 6.750677e-01 2.040485e+00 -5.988216e-02 1.908125e+00 5.771985e-01 -1.961853e+00 1.385243e-01 1.799571e+00 2.593063e+00 -1.528133e+00 -4.646696e-01 -3.027838e-01 -1.605708e+00 -2.807321e+00 -7.037675e-01 -1.546947e+00 -1.133733e+00 -4.587984e-01 -3.391049e-01 -1.253902e-01 3.385569e+00
<VARIANCE> 25
 3.100969e+01 3.346732e+01 2.378664e+01 2.176829e+01 2.251984e+01 3.560866e+01 1.667846e+01 2.433787e+01 1.959379e+01 1.673414e+01 1.361810e+01 1.441541e+01 4.362746e+00 3.351257e+00 3.742524e+00 3.645931e+00 4.565856e+00 5.728030e+00 3.390760e+00 3.024444e+00 2.985362e+00 2.431138e+00 2.129088e+00 2.303318e+00 4.205612e+00
<GCONST> 9.880297e+01
<STATE> 4
<MEAN> 25
 7.620123e+00 2.389179e-01 -3.716187e-01 -1.660128e+00 -6.366659e+00 -6.068303e+00 7.380211e-02 -3.322099e-01 -1.922359e+00 -2.236557e+00 -2.295510e+00 6.786134e-01 2.546017e+00 -5.134619e-01 -7.720515e-01 -5.122393e-01 -1.792876e+00 -1.692015e+00 5.563056e-01 -4.011880e-01 -1.752631e-01 9.114635e-01 -5.054407e-01 -6.270509e-01 2.599687e+00
<VARIANCE> 25
 2.961566e+01 3.094818e+01 2.766783e+01 2.935384e+01 6.218453e+01 6.662899e+01 4.351534e+01 4.151638e+01 3.732411e+01 5.044967e+01 2.424257e+01 2.204936e+01 3.600924e+00 3.412325e+00 3.158415e+00 3.977633e+00 6.466155e+00 9.678621e+00 6.910472e+00 6.337687e+00 5.999627e+00 3.712168e+00 3.980135e+00 3.054366e+00 4.171406e+00
<GCONST> 1.091025e+02
<TRANSP> 5
 0.000000e+00 1.000000e+00 0.000000e+00 0.000000e+00 0.000000e+00
 0.000000e+00 8.131574e-01 1.868425e-01 0.000000e+00 0.000000e+00
 0.000000e+00 0.000000e+00 5.058520e-01 4.941480e-01 0.000000e+00
 0.000000e+00 0.000000e+00 0.000000e+00 3.832582e-01 6.167418e-01
 0.000000e+00 0.000000e+00 0.000000e+00 0.000000e+00 0.000000e+00
<ENDHMM>
~h "D"
<BEGINHMM>
<NUMSTATES> 5
<STATE> 2
<MEAN> 25
 2.487373e+00 1.428452e-01 1.655716e+00 3.510098e+00 1.453927e+00 -2.300709e+00 -2.322594e+00 -9.082711e-01 -1.332488e+00 -3.369024e+00 -5.761414e-01 6.705554e-01 1.940624e-02 -1.132489e+00 -3.691010e-01 -1.750783e-01 -1.380229e-01 -4.027625e-01 -3.519904e-01 -1.706773e-02 1.144821e-01 -1.959870e-01 2.777562e-01 3.092924e-01 6.942667e-01
<VARIANCE> 25
 4.005891e+01 6.450330e+01 5.415842e+01 5.527670e+01 5.205333e+01 8.474442e+01 4.599642e+01 4.920023e+01 4.393021e+01 3.821151e+01 2.532603e+01 2.662062e+01 5.411144e+00 8.579609e+00 6.146017e+00 4.788623e+00 5.782100e+00 1.374395e+01 5.189034e+00 5.243790e+00 4.871202e+00 4.068187e+00 2.657468e+00 2.181977e+00 7.608441e+00
<GCONST> 1.135361e+02
<STATE> 3
<MEAN> 25
 3.693101e+00 6.679410e-01 2.751375e-01 3.174294e+00 2.848612e+00 -2.281651e-01 -3.137078e+00 -2.617498e+00 -2.061546e+00 -2.104893e+00 2.702691e-01 5.368305e-01 -5.643004e-01 1.673686e-01 -1.713969e-01 -5.016845e-02 3.669364e-02 7.151210e-01 5.369155e-01 5.044065e-01 3.130376e-01 5.775027e-02 1.988133e-01 3.843046e-01 -6.002707e-01
<VARIANCE> 25
 3.517366e+01 6.770511e+01 5.020761e+01 4.655951e+01 4.123140e+01 5.326898e+01 3.225222e+01 3.727189e+01 3.081032e+01 2.546391e+01 3.044496e+01 1.816374e+01 3.131462e+00 4.498537e+00 3.150644e+00 3.191660e+00 2.680583e+00 4.435013e+00 3.024369e+00 4.143329e+00 3.099135e+00 1.956319e+00 1.802755e+00 1.746582e+00 3.793186e+00
<GCONST> 1.034857e+02
<STATE> 4
<MEAN> 25
 -2.357858e-02 1.681795e+00 -7.845156e-01 2.914965e+00 2.099707e+00 2.567963e+00 -8.567703e-02 1.565093e+00 3.348247e-01 -1.593797e+00 5.843480e-01 1.473196e+00 -1.082120e-01 -2.518947e-01 -1.235883e-01 -6.982124e-02 -3.205853e-01 -3.677097e-01 9.692941e-02 2.237990e-01 -5.057819e-02 -7.443707e-02 -1.274014e-01 -6.558394e-02 -2.855323e-02
<VARIANCE> 25
 3.305077e+01 4.345720e+01 2.994208e+01 3.023303e+01 2.699129e+01 5.508869e+01 3.379235e+01 3.760156e+01 2.641027e+01 1.715884e+01 2.074206e+01 1.592180e+01 2.114945e+00 4.183937e+00 2.712673e+00 2.424088e+00 3.086250e+00 5.068545e+00 3.288265e+00 3.174971e+00 3.199205e+00 2.108444e+00 2.048782e+00 1.553088e+00 2.450808e+00
<GCONST> 9.951490e+01
<TRANSP> 5
 0.000000e+00 1.000000e+00 0.000000e+00 0.000000e+00 0.000000e+00
 0.000000e+00 4.808521e-01 5.191479e-01 0.000000e+00 0.000000e+00
 0.000000e+00 0.000000e+00 2.908152e-01 7.091848e-01 0.000000e+00
 0.000000e+00 0.000000e+00 0.000000e+00 6.062602e-01 3.937399e-01
 0.000000e+00 0.000000e+00 0.000000e+00 0.000000e+00 0.000000e+00
<ENDHMM>
~h "F"
<BEGINHMM>
<NUMSTATES> 5
<STATE> 2
<MEAN> 25
 -2.929315e-01 -3.801533e+00 2.471322e-01 -3.201680e-01 4.795509e-01 2.941966e+00 1.778536e+00 1.037143e+00 2.655835e+00 -5.787263e-01 3.722619e-01 7.196862e-01 -2.427861e+00 -2.297079e+00 3.175227e-01 -2.418000e-01 2.418927e-02 4.017617e-01 5.106874e-01 4.966390e-01 1.585353e+00 3.928722e-01 1.201380e+00 8.480906e-01 1.290209e-01
<VARIANCE> 25
 3.701902e+01 4.052873e+01 1.802717e+01 1.325641e+01 2.806587e+01 1.882904e+01 2.093507e+01 2.548017e+01 2.487814e+01 2.083488e+01 1.785439e+01 1.522418e+01 2.390923e+00 4.310535e+00 1.616135e+00 1.822305e+00 6.122421e+00 5.629459e+00 3.694067e+00 2.801311e+00 3.222727e+00 2.269039e+00 1.888114e+00 1.514383e+00 1.129876e+00
<GCONST> 9.559372e+01
<STATE> 3
<MEAN> 25
 -4.023884e+00 -8.373260e+00 -4.606258e-01 -2.214174e+00 -1.674053e+00 2.625017e+00 1.528024e+00 -2.634256e-01 4.135840e+00 -1.120812e+00 2.327100e+00 1.719813e+00 3.736640e-01 5.876846e-01 -2.450571e-01 -1.667158e-01 4.003056e-01 -4.149922e-01 1.670492e-01 -1.918492e-01 -3.237156e-01 -1.134938e-01 -2.446906e-01 -1.705634e-01 -1.241507e-01
<VARIANCE> 25
 5.217875e+01 4.575914e+01 1.918452e+01 1.308249e+01 4.437297e+01 1.837391e+01 2.104753e+01 1.750818e+01 1.729699e+01 1.793853e+01 1.683922e+01 1.112595e+01 4.266778e+00 4.185735e+00 1.171687e+00 1.503641e+00 3.061956e+00 2.904460e+00 2.217053e+00 1.345363e+00 1.954808e+00 1.608197e+00 1.619645e+00 1.282069e+00 7.355962e-01
<GCONST> 9.112988e+01
<STATE> 4
<MEAN> 25
 -9.677384e+00 1.573821e+00 4.555518e-01 -8.591281e+00 9.441989e+00 -1.037803e+01 7.443627e+00 -1.235687e+00 4.628433e+00 -2.542477e+00 2.955741e+00 -1.532318e+00 6.423917e-01 3.126116e-01 4.694869e-02 -1.712602e-01 -4.560370e-01 -3.786539e-01 -2.745114e-01 -1.570174e-01 -3.682309e-01 1.365302e-02 -1.122201e-01 -2.401756e-01 1.491163e-01
<VARIANCE> 25
 1.068829e+02 5.999297e+01 3.185892e+01 4.943778e+01 1.236495e+02 7.908960e+01 5.695489e+01 3.588270e+01 3.381306e+01 5.336220e+01 5.293890e+01 3.237255e+01 9.961508e+00 4.795677e+00 2.449960e+00 3.828718e+00 6.286142e+00 5.143540e+00 5.226112e+00 3.532873e+00 4.132190e+00 4.293012e+00 4.329020e+00 2.677758e+00 1.070024e+00
<GCONST> 1.117206e+02
<TRANSP> 5
 0.000000e+00 1.000000e+00 0.000000e+00 0.000000e+00 0.000000e+00
 0.000000e+00 5.844672e-01 4.155328e-01 0.000000e+00 0.000000e+00
 0.000000e+00 0.000000e+00 7.906370e-01 2.093630e-01 0.000000e+00
 0.000000e+00 0.000000e+00 0.000000e+00 8.110409e-01 1.889591e-01
 0.000000e+00 0.000000e+00 0.000000e+00 0.000000e+00 0.000000e+00
<ENDHMM>
~h "G"
<BEGINHMM>
<NUMSTATES> 5
<STATE> 2
<MEAN> 25
 2.670192e+00 9.497988e-01 -3.603594e+00 2.197126e+00 8.685420e-01 2.001973e+00 -2.832769e+00 -1.032009e+00 4.775587e-01 -5.107753e-01 -5.035856e-01 9.848988e-01 -4.679755e-01 -4.786077e-02 9.576614e-02 4.588012e-01 3.443197e-01 3.977833e-01 4.094619e-02 -1.483454e-01 4.219278e-02 1.443555e-01 9.499013e-02 1.874900e-02 -4.602926e-01
<VARIANCE> 25
 5.767587e+01 4.119390e+01 2.502225e+01 2.117678e+01 3.829062e+01 4.169395e+01 2.320017e+01 6.098518e+01 3.789736e+01 1.998680e+01 1.503468e+01 2.717773e+01 8.521165e-01 1.701841e+00 1.139596e+00 1.324968e+00 2.162932e+00 1.861271e+00 1.318089e+00 1.688153e+00 1.759571e+00 1.176734e+00 1.401635e+00 1.440864e+00 9.546750e-01
<GCONST> 9.162637e+01
<STATE> 3
<MEAN> 25
 1.646433e+00 3.611684e+00 1.814123e+00 4.425699e+00 4.643432e+00 2.466405e+00 -2.480767e+00 -3.483805e+00 -1.675889e+00 -1.507863e-01 -4.038888e-02 -2.044922e+00 -7.481540e-01 6.409240e-02 3.828628e-02 -3.911919e-01 4.750493e-02 5.079213e-01 4.991381e-01 6.532198e-01 5.454960e-01 -2.250588e-01 9.047030e-02 3.033577e-01 -5.282874e-01
<VARIANCE> 25
 3.397468e+01 5.081480e+01 2.331962e+01 3.381845e+01 4.502059e+01 3.284808e+01 3.304924e+01 4.659619e+01 3.153582e+01 1.940479e+01 1.934571e+01 2.465216e+01 2.290516e+00 5.507789e+00 4.437450e+00 3.000901e+00 2.963989e+00 2.769396e+00 2.606150e+00 2.143444e+00 3.033079e+00 1.284381e+00 1.646471e+00 1.687448e+00 2.176241e+00
<GCONST> 9.940224e+01
<STATE> 4
<MEAN> 25
 -3.523391e-01 -2.685865e-02 4.522779e-01 5.099723e-01 4.974944e+00 -2.555643e+00 -2.201693e-01 5.131862e-01 2.239700e-01 -1.711540e+00 2.553465e+00 -4.363079e+00 4.542357e-01 -4.575530e-01 -6.227486e-01 -1.535078e+00 -1.085733e+00 -1.088549e+00 1.134366e+00 -2.940416e-02 -1.191701e+00 -5.276449e-01 5.132176e-01 -3.899386e-01 1.135436e+00
<VARIANCE> 25
 3.606057e+01 3.848041e+01 7.275935e+01 1.268083e+02 5.790865e+01 8.018044e+01 8.706498e+01 5.197660e+01 6.653339e+01 6.139663e+01 5.546341e+01 5.523228e+01 4.760718e+00 5.280372e+00 6.318683e+00 8.547284e+00 8.173448e+00 8.843052e+00 6.610064e+00 3.959685e+00 5.975943e+00 5.309431e+00 7.025931e+00 3.358569e+00 5.950200e+00
<GCONST> 1.186756e+02
<TRANSP> 5
 0.000000e+00 1.000000e+00 0.000000e+00 0.000000e+00 0.000000e+00
 0.000000e+00 7.681651e-01 2.318350e-01 0.000000e+00 0.000000e+00
 0.000000e+00 0.000000e+00 6.036599e-01 3.963400e-01 0.000000e+00
 0.000000e+00 0.000000e+00 0.000000e+00 6.151156e-01 3.848844e-01
 0.000000e+00 0.000000e+00 0.000000e+00 0.000000e+00 0.000000e+00
<ENDHMM>
~h "H"
<BEGINHMM>
<NUMSTATES> 5
<STATE> 2
<MEAN> 25
 3.775417e-09 1.618108e-08 -5.474229e-08 1.997155e-08 -1.478036e-08 2.960087e-08 -2.363652e-08 -2.620702e-08 1.857585e-09 5.102837e-08 -2.686972e-08 2.617689e-08 2.554969e-04 8.921730e-03 3.013610e-03 3.339416e-03 1.415289e-03 4.494441e-03 2.656440e-03 8.701694e-04 4.164455e-05 -2.680720e-03 2.008863e-03 1.527266e-03 -7.768044e-03
<VARIANCE> 25
 8.010428e+01 6.447190e+01 6.129801e+01 5.563667e+01 5.693787e+01 6.793896e+01 5.777367e+01 5.870519e+01 5.077291e+01 3.508834e+01 2.994463e+01 2.808895e+01 2.442041e+00 3.123486e+00 2.541938e+00 2.520905e+00 2.808165e+00 3.591736e+00 2.892799e+00 2.826015e+00 2.750362e+00 2.197500e+00 2.086234e+00 1.746541e+00 1.743600e+00
<GCONST> 1.051903e+02
<STATE> 3
<MEAN> 25
 3.775417e-09 1.618108e-08 -5.474229e-08 1.997155e-08 -1.478036e-08 2.960087e-08 -2.363652e-08 -2.620702e-08 1.857585e-09 5.102837e-08 -2.686972e-08 2.617689e-08 2.554969e-04 8.921730e-03 3.013610e-03 3.339416e-03 1.415289e-03 4.494441e-03 2.656440e-03 8.701694e-04 4.164455e-05 -2.680720e-03 2.008863e-03 1.527266e-03 -7.768044e-03
<VARIANCE> 25
 8.010428e+01 6.447190e+01 6.129801e+01 5.563667e+01 5.693787e+01 6.793896e+01 5.777367e+01 5.870519e+01 5.077291e+01 3.508834e+01 2.994463e+01 2.808895e+01 2.442041e+00 3.123486e+00 2.541938e+00 2.520905e+00 2.808165e+00 3.591736e+00 2.892799e+00 2.826015e+00 2.750362e+00 2.197500e+00 2.086234e+00 1.746541e+00 1.743600e+00
<GCONST> 1.051903e+02
<STATE> 4
<MEAN> 25
 3.775417e-09 1.618108e-08 -5.474229e-08 1.997155e-08 -1.478036e-08 2.960087e-08 -2.363652e-08 -2.620702e-08 1.857585e-09 5.102837e-08 -2.686972e-08 2.617689e-08 2.554969e-04 8.921730e-03 3.013610e-03 3.339416e-03 1.415289e-03 4.494441e-03 2.656440e-03 8.701694e-04 4.164455e-05 -2.680720e-03 2.008863e-03 1.527266e-03 -7.768044e-03
<VARIANCE> 25
 8.010428e+01 6.447190e+01 6.129801e+01 5.563667e+01 5.693787e+01 6.793896e+01 5.777367e+01 5.870519e+01 5.077291e+01 3.508834e+01 2.994463e+01 2.808895e+01 2.442041e+00 3.123486e+00 2.541938e+00 2.520905e+00 2.808165e+00 3.591736e+00 2.892799e+00 2.826015e+00 2.750362e+00 2.197500e+00 2.086234e+00 1.746541e+00 1.743600e+00
<GCONST> 1.051903e+02
<TRANSP> 5
 0.000000e+00 1.000000e+00 0.000000e+00 0.000000e+00 0.000000e+00
 0.000000e+00 6.000000e-01 4.000000e-01 0.000000e+00 0.000000e+00
 0.000000e+00 0.000000e+00 6.000000e-01 4.000000e-01 0.000000e+00
 0.000000e+00 0.000000e+00 0.000000e+00 7.000000e-01 3.000000e-01
 0.000000e+00 0.000000e+00 0.000000e+00 0.000000e+00 0.000000e+00
<ENDHMM>
~h "I"
<BEGINHMM>
<NUMSTATES> 5
<STATE> 2
<MEAN> 25
 5.814984e-01 -1.098626e+01 -2.643329e-02 2.276270e+00 1.959353e+00 6.506439e+00 -2.435593e+00 -5.100841e+00 2.260041e+00 5.034675e-01 2.680600e+00 -2.345896e-01 3.119138e+00 2.778935e+00 -1.850730e-01 1.716872e+00 1.356780e+00 -8.148218e-01 -7.853929e-01 -3.855440e-01 -1.108832e+00 -2.778308e-02 -7.102538e-01 -2.063141e-01 4.472121e-02
<VARIANCE> 25
 1.035280e+01 9.005955e+00 3.746167e+01 1.564858e+01 5.047566e+00 3.098581e+01 1.030157e+01 8.514135e+00 2.165983e+00 1.629534e+01 1.137444e+00 4.607662e+00 3.431600e+00 2.429598e+00 2.408791e+00 1.760270e-01 2.526425e+00 9.678389e-01 3.350609e-01 1.183362e+00 1.888528e+00 3.781669e+00 3.641188e+00 1.499691e+00 1.428284e-01
<GCONST> 7.455168e+01
<STATE> 3
<MEAN> 25
 6.138157e+00 -5.081526e+00 1.268275e+00 4.794250e+00 3.693022e+00 4.275947e+00 -3.775635e+00 -6.681816e+00 -1.039455e+00 -1.211421e+00 1.644017e-01 -5.604270e-01 2.772573e+00 3.619437e+00 -8.149415e-02 1.369173e+00 1.413848e+00 -2.214142e+00 -2.585461e-01 -3.434481e-01 -1.913338e+00 -4.565472e-01 -9.034527e-01 -4.779955e-01 3.211715e-02
<VARIANCE> 25
 1.809705e+00 1.041290e+01 2.857938e+01 2.991253e+01 7.221277e+00 6.649502e+00 2.335850e+01 6.737720e+00 1.634981e+01 1.645293e+00 9.445568e+00 6.668349e+00 2.904461e+00 2.313279e+00 7.536283e-01 4.837348e-01 3.289487e+00 4.560054e-01 4.279048e+00 3.047748e+00 1.492631e+00 5.404630e+00 2.511811e+00 1.389920e+00 9.519289e-02
<GCONST> 7.685506e+01
<STATE> 4
<MEAN> 25
 7.032234e+00 -7.512760e-02 -2.756696e+00 3.408766e+00 6.679430e+00 -6.745325e-01 -4.694731e+00 -6.002048e+00 -2.904742e+00 8.050091e-01 3.530636e-01 9.110309e-01 6.641903e-01 2.990734e+00 -3.419806e-01 -2.951765e-02 1.150433e+00 -2.310273e+00 -1.024484e+00 -2.638417e-02 -1.163076e+00 -1.490533e-01 -8.142782e-01 -7.509705e-01 -6.278712e-01
<VARIANCE> 25
 1.183709e+01 1.250624e+01 1.231749e+01 9.600019e+00 1.366725e+01 1.305816e+01 1.424307e+01 1.528146e+01 8.804056e+00 2.123803e+01 1.581460e+01 6.613293e+00 2.222263e+00 1.046601e+00 6.779671e-01 2.563147e+00 1.062018e+00 3.973535e-01 5.647052e+00 1.856172e+00 2.303642e+00 9.952094e-01 1.127994e+00 1.038187e+00 4.235941e-01
<GCONST> 7.917769e+01
<TRANSP> 5
 0.000000e+00 1.000000e+00 0.000000e+00 0.000000e+00 0.000000e+00
 0.000000e+00 1.185020e-01 8.814980e-01 0.000000e+00 0.000000e+00
 0.000000e+00 0.000000e+00 3.350645e-02 9.664935e-01 0.000000e+00
 0.000000e+00 0.000000e+00 0.000000e+00 3.746707e-01 6.253293e-01
 0.000000e+00 0.000000e+00 0.000000e+00 0.000000e+00 0.000000e+00
<ENDHMM>
~h "K"
<BEGINHMM>
<NUMSTATES> 5
<STATE> 2
<MEAN> 25
 -1.614178e+00 -2.567666e+00 8.652726e-02 -1.286034e+00 1.727467e+00 1.550696e-01 3.139689e+00 -2.412512e+00 -2.583458e+00 -1.524359e-01 2.360399e+00 -8.204398e-01 -6.008888e-01 5.094734e-01 -5.949778e-01 -7.369911e-01 -4.242344e-01 8.223918e-02 4.531904e-01 9.971971e-01 2.250709e-01 6.649785e-02 3.795027e-01 2.586683e-01 -1.030310e+00
<VARIANCE> 25
 4.911488e+01 5.495987e+01 3.935465e+01 5.160586e+01 3.856301e+01 4.255592e+01 6.433539e+01 6.893784e+01 6.121138e+01 4.452411e+01 2.932991e+01 3.644154e+01 5.016756e+00 7.015741e+00 3.729782e+00 5.415509e+00 5.095412e+00 6.610888e+00 4.763245e+00 5.912817e+00 7.214016e+00 4.281373e+00 4.149083e+00 2.975106e+00 5.705978e+00
<GCONST> 1.132557e+02
<STATE> 3
<MEAN> 25
 -1.687955e+00 2.084085e-01 -3.741275e+00 -2.217463e+00 1.714403e-01 2.786570e+00 2.395015e+00 9.177175e-01 1.018302e+00 1.228055e+00 2.097881e+00 1.531068e+00 -2.612564e-01 -1.806595e-02 -3.147212e-01 -2.422562e-01 -2.831087e-01 -1.430798e-01 2.193619e-04 3.943298e-01 4.055655e-01 -1.823788e-01 -1.174362e-01 1.685296e-01 -3.112924e-01
<VARIANCE> 25
 1.674495e+01 3.474293e+01 2.860080e+01 3.283899e+01 3.195172e+01 2.640491e+01 3.119398e+01 3.689230e+01 2.169156e+01 1.661519e+01 1.840116e+01 1.637247e+01 1.359780e+00 3.807479e+00 2.619075e+00 3.368820e+00 3.698420e+00 3.445705e+00 3.097078e+00 3.250109e+00 2.462325e+00 1.790856e+00 1.760692e+00 1.823529e+00 4.063933e+00
<GCONST> 9.726761e+01
<STATE> 4
<MEAN> 25
 -5.102012e+00 -7.732520e+00 -8.027386e-01 -3.056885e+00 -2.026047e+00 -8.144502e+00 3.813878e+00 -6.638068e-02 3.528458e-01 1.213499e-01 2.124561e+00 -3.583382e-01 7.629970e-01 -3.097450e-01 3.457979e-01 1.357742e-01 -5.716352e-01 -7.341680e-01 -2.959022e-01 -2.741702e-01 -2.483205e-01 8.641116e-02 -3.466153e-01 -4.019739e-01 8.724847e-01
<VARIANCE> 25
 4.152562e+01 5.786185e+01 7.580354e+01 8.359513e+01 8.035630e+01 1.552271e+02 6.913829e+01 6.078147e+01 4.875674e+01 7.800691e+01 4.119134e+01 3.813116e+01 4.689154e+00 6.161536e+00 5.222085e+00 6.741619e+00 5.723787e+00 1.651299e+01 5.981154e+00 4.209225e+00 4.330655e+00 5.276780e+00 3.151576e+00 2.668725e+00 4.418148e+00
<GCONST> 1.173068e+02
<TRANSP> 5
 0.000000e+00 1.000000e+00 0.000000e+00 0.000000e+00 0.000000e+00
 0.000000e+00 5.013878e-01 4.986122e-01 0.000000e+00 0.000000e+00
 0.000000e+00 0.000000e+00 7.798917e-01 2.201082e-01 0.000000e+00
 0.000000e+00 0.000000e+00 0.000000e+00 7.451568e-01 2.548432e-01
 0.000000e+00 0.000000e+00 0.000000e+00 0.000000e+00 0.000000e+00
<ENDHMM>
~h "L"
<BEGINHMM>
<NUMSTATES> 5
<STATE> 2
<MEAN> 25
 8.437149e+00 3.610668e+00 2.563063e+00 -3.371871e+00 -9.319319e+00 -6.844594e+00 1.079645e+00 8.989693e-01 7.020603e-01 -2.350567e+00 -5.391653e+00 -2.206905e+00 8.431791e-01 8.799503e-01 7.435854e-01 3.781463e-01 -1.424425e+00 -9.983113e-01 -9.321476e-02 4.531150e-01 1.543703e-01 -1.466944e-01 -7.986705e-01 -6.879362e-01 7.825789e-02
<VARIANCE> 25
 2.452061e+01 3.532586e+01 3.941121e+01 2.884930e+01 5.872265e+01 5.265632e+01 4.991045e+01 5.775665e+01 5.242587e+01 3.991622e+01 3.137678e+01 3.351381e+01 2.904664e+00 2.404207e+00 2.140481e+00 2.484367e+00 3.310815e+00 4.491610e+00 3.811231e+00 3.581678e+00 3.807593e+00 3.488157e+00 3.019696e+00 2.630680e+00 1.788808e+00
<GCONST> 1.045226e+02
<STATE> 3
<MEAN> 25
 8.827107e+00 6.189559e+00 3.506395e+00 -1.431503e+00 -1.184410e+01 -8.449675e+00 -2.849549e-01 1.496642e+00 1.269323e+00 -1.094945e+00 -3.624283e+00 -2.240738e+00 -1.370288e-01 1.043904e-01 1.094915e-01 1.855862e-01 5.662884e-02 8.480270e-02 3.760125e-02 -1.942580e-01 -2.038173e-01 -1.808363e-03 1.016119e-01 1.061266e-01 -1.820084e-01
<VARIANCE> 25
 2.390113e+01 3.288157e+01 2.409284e+01 2.057069e+01 6.317841e+01 5.820241e+01 4.855422e+01 2.965537e+01 2.888264e+01 3.075614e+01 2.458925e+01 2.401126e+01 3.545640e-01 8.983703e-01 7.875689e-01 7.226609e-01 1.486308e+00 1.414244e+00 1.489062e+00 1.456364e+00 1.310803e+00 1.203150e+00 1.204141e+00 1.354269e+00 3.514602e-01
<GCONST> 8.718019e+01
<STATE> 4
<MEAN> 25
 7.897397e+00 5.030800e+00 5.819707e+00 -2.147378e-01 -1.132001e+01 -5.914174e+00 1.521474e+00 -7.845677e-01 4.140956e-01 -7.187827e-02 -5.377275e+00 -3.541632e+00 -5.538130e-01 -3.612910e-01 -4.608952e-01 9.681541e-02 1.659496e+00 8.956158e-01 -1.724475e-01 -1.122146e-01 -1.853013e-01 -3.984156e-02 5.054315e-01 3.091321e-01 -1.756264e-01
<VARIANCE> 25
 1.947024e+01 2.712736e+01 3.236785e+01 4.308746e+01 7.444669e+01 5.325698e+01 3.676688e+01 4.222313e+01 5.398032e+01 5.955397e+01 4.171116e+01 3.427515e+01 1.282522e+00 1.770477e+00 1.564948e+00 2.360028e+00 4.785372e+00 5.395132e+00 3.296680e+00 2.555571e+00 3.231826e+00 2.721860e+00 2.568362e+00 1.952003e+00 1.466108e+00
<GCONST> 1.021082e+02
<TRANSP> 5
 0.000000e+00 1.000000e+00 0.000000e+00 0.000000e+00 0.000000e+00
 0.000000e+00 5.934387e-01 4.065613e-01 0.000000e+00 0.000000e+00
 0.000000e+00 0.000000e+00 7.854909e-01 2.145090e-01 0.000000e+00
 0.000000e+00 0.000000e+00 0.000000e+00 6.859126e-01 3.140874e-01
 0.000000e+00 0.000000e+00 0.000000e+00 0.000000e+00 0.000000e+00
<ENDHMM>
~h "M"
<BEGINHMM>
<NUMSTATES> 5
<STATE> 2
<MEAN> 25
 8.129459e+00 7.148118e+00 1.256559e-01 1.859706e+00 3.789621e+00 4.282994e+00 -8.726335e-01 -4.720414e+00 -3.705599e+00 -1.971512e+00 -3.664571e+00 -2.948807e+00 -3.932034e-01 9.514341e-01 6.550457e-01 8.539655e-01 1.839968e+00 1.799851e+00 -1.964551e-01 -8.417517e-01 -3.077854e-01 -1.736370e-01 -6.491053e-01 -8.344502e-01 -7.421725e-01
<VARIANCE> 25
 1.253516e+01 9.633917e+00 1.526229e+01 2.382486e+01 3.385607e+01 3.309671e+01 2.438724e+01 2.339623e+01 3.453475e+01 2.024288e+01 2.125414e+01 1.973868e+01 1.283085e+00 1.485606e+00 1.184547e+00 1.516859e+00 2.289428e+00 2.585790e+00 2.117848e+00 1.839187e+00 2.061396e+00 1.851675e+00 1.407700e+00 1.422842e+00 9.479829e-01
<GCONST> 8.894375e+01
<STATE> 3
<MEAN> 25
 6.771420e+00 7.915817e+00 1.402734e+00 4.067927e+00 6.079960e+00 6.239855e+00 -1.097892e+00 -4.218682e+00 -2.121696e+00 -1.821700e+00 -4.131664e+00 -3.652339e+00 -1.713176e-01 9.255747e-02 7.951802e-02 1.279788e-01 -3.507081e-05 -6.166409e-02 1.080972e-01 1.702662e-01 2.321962e-01 2.966583e-02 4.302264e-03 -3.253384e-02 -1.541285e-01
<VARIANCE> 25
 1.085195e+01 1.275589e+01 1.607515e+01 1.819907e+01 1.273867e+01 2.104096e+01 2.175419e+01 2.754433e+01 2.358326e+01 1.849870e+01 1.915326e+01 2.143326e+01 4.707694e-01 4.599523e-01 6.883876e-01 6.519465e-01 6.598554e-01 6.322920e-01 8.681841e-01 1.385275e+00 1.040534e+00 9.207770e-01 1.004228e+00 7.847910e-01 2.238191e-01
<GCONST> 7.583963e+01
<STATE> 4
<MEAN> 25
 7.329482e+00 7.285764e+00 2.991049e-01 1.810746e+00 3.751143e+00 3.961749e+00 -6.197141e-01 -3.789332e+00 -1.901727e+00 -2.127888e+00 -3.575160e+00 -3.333211e+00 3.326748e-01 -1.581645e+00 -9.624394e-01 -1.252931e+00 -2.138576e+00 -2.214491e+00 2.539238e-01 1.201896e+00 1.053632e+00 1.207498e-01 9.803187e-01 8.480678e-01 1.404338e+00
<VARIANCE> 25
 1.489408e+01 1.581454e+01 2.174909e+01 2.600819e+01 2.899212e+01 3.812592e+01 2.047335e+01 3.307047e+01 2.761120e+01 1.945164e+01 2.086627e+01 1.838595e+01 1.316813e+00 3.560946e+00 2.284058e+00 3.213226e+00 3.091907e+00 3.454316e+00 3.642036e+00 2.302646e+00 3.518110e+00 2.473884e+00 2.324718e+00 1.673399e+00 2.508087e+00
<GCONST> 9.598354e+01
<TRANSP> 5
 0.000000e+00 1.000000e+00 0.000000e+00 0.000000e+00 0.000000e+00
 0.000000e+00 5.689207e-01 4.310793e-01 0.000000e+00 0.000000e+00
 0.000000e+00 0.000000e+00 7.274385e-01 2.725615e-01 0.000000e+00
 0.000000e+00 0.000000e+00 0.000000e+00 5.227891e-01 4.772109e-01
 0.000000e+00 0.000000e+00 0.000000e+00 0.000000e+00 0.000000e+00
<ENDHMM>
~h "N"
<BEGINHMM>
<NUMSTATES> 5
<STATE> 2
<MEAN> 25
 8.112014e+00 1.184659e+00 -1.774538e-01 3.021099e+00 3.689425e+00 -1.464231e+00 -4.406950e+00 -5.176221e+00 -1.867702e+00 1.197135e+00 -4.934621e-01 -2.099685e+00 -1.118190e-01 1.326119e+00 4.386745e-01 6.408713e-01 7.821904e-01 1.305627e+00 -1.564163e-01 -6.006303e-01 -1.167813e-01 -1.538596e-01 -7.517868e-01 -2.797633e-01 -1.023925e+00
<VARIANCE> 25
 8.974941e+00 2.584415e+01 2.355406e+01 3.228277e+01 2.505742e+01 5.835968e+01 3.541813e+01 3.616072e+01 3.792212e+01 3.299557e+01 3.401937e+01 2.992627e+01 1.076808e+00 1.612485e+00 2.106595e+00 2.631142e+00 2.113408e+00 3.844032e+00 2.962706e+00 2.772052e+00 2.755867e+00 2.205121e+00 2.303822e+00 1.962976e+00 1.091297e+00
<GCONST> 9.639352e+01
<STATE> 3
<MEAN> 25
 6.651861e+00 7.345119e+00 2.743780e+00 6.377912e+00 5.551101e+00 3.708615e+00 -3.880928e+00 -6.186695e+00 -1.960926e+00 -7.206533e-01 -3.667685e+00 -2.344368e+00 -4.017098e-01 4.300440e-01 3.628260e-01 1.975341e-01 1.343617e-01 1.857968e-01 1.762945e-01 2.784972e-01 4.657289e-02 -3.237323e-01 2.093895e-02 8.535638e-02 -4.422467e-01
<VARIANCE> 25
 8.508960e+00 1.289382e+01 1.595475e+01 1.935028e+01 1.840784e+01 2.148600e+01 1.961045e+01 2.448244e+01 2.222196e+01 2.287491e+01 1.946702e+01 1.647263e+01 3.415379e-01 6.253737e-01 8.202739e-01 8.587373e-01 1.000032e+00 1.260739e+00 1.365882e+00 1.465612e+00 1.269304e+00 1.225080e+00 1.287362e+00 9.365365e-01 2.552440e-01
<GCONST> 7.882764e+01
<STATE> 4
<MEAN> 25
 -2.116007e-01 3.691689e+00 -1.676422e+00 3.106067e+00 4.277142e+00 5.321541e+00 3.019938e-01 5.975829e-01 5.576681e-01 -2.145010e+00 -6.865188e-01 9.311597e-01 -6.050183e-01 -5.670083e-01 -3.507057e-01 -2.590513e-01 -3.205042e-01 -2.208733e-01 4.521321e-01 6.309548e-01 1.826075e-01 3.995671e-02 3.229935e-01 2.358319e-01 -2.515558e-01
<VARIANCE> 25
 3.006142e+01 2.212973e+01 2.711839e+01 2.044577e+01 2.017022e+01 2.589512e+01 2.145461e+01 2.837256e+01 2.152436e+01 1.455753e+01 1.457732e+01 1.628615e+01 9.125592e-01 1.387315e+00 1.547059e+00 1.959133e+00 1.699871e+00 2.323723e+00 2.231154e+00 2.244845e+00 1.735419e+00 1.649261e+00 1.644647e+00 1.176181e+00 8.382726e-01
<GCONST> 8.851634e+01
<TRANSP> 5
 0.000000e+00 1.000000e+00 0.000000e+00 0.000000e+00 0.000000e+00
 0.000000e+00 7.162761e-01 2.837239e-01 0.000000e+00 0.000000e+00
 0.000000e+00 0.000000e+00 7.549982e-01 2.450018e-01 0.000000e+00
 0.000000e+00 0.000000e+00 0.000000e+00 7.453367e-01 2.546634e-01
 0.000000e+00 0.000000e+00 0.000000e+00 0.000000e+00 0.000000e+00
<ENDHMM>
~h "P"
<BEGINHMM>
<NUMSTATES> 5
<STATE> 2
<MEAN> 25
 -1.709242e+00 3.207790e+00 -1.973596e+00 -2.638028e-01 6.415305e-02 3.062288e+00 1.384797e+00 1.199430e+00 1.398595e+00 -2.557359e-01 -3.829905e-01 1.408041e-01 -7.906063e-01 1.328110e-01 -3.397560e-01 -1.383953e-01 8.961687e-02 4.190307e-01 -5.730996e-03 1.031671e+00 6.528366e-01 1.974996e-01 3.257998e-01 5.732880e-01 -1.316419e+00
<VARIANCE> 25
 2.170557e+01 2.321785e+01 2.195631e+01 2.206597e+01 2.272685e+01 2.107896e+01 2.375042e+01 3.146529e+01 2.511980e+01 1.525166e+01 1.180420e+01 1.516984e+01 2.378546e+00 2.295972e+00 1.659113e+00 1.735945e+00 1.476044e+00 1.641900e+00 1.787250e+00 2.614111e+00 2.332335e+00 1.527996e+00 1.415057e+00 1.259926e+00 3.171121e+00
<GCONST> 9.046236e+01
<STATE> 3
<MEAN> 25
 -3.754591e+00 -3.730661e-02 -3.049972e+00 -2.817218e-01 -1.046432e+00 2.480873e+00 1.659420e+00 3.501378e+00 1.339558e+00 -6.267087e-01 8.942821e-01 2.053647e+00 7.300513e-01 -9.778046e-01 -5.151398e-03 -3.237941e-01 -4.791240e-01 -6.876534e-01 -2.881617e-02 -4.806150e-01 -2.251221e-01 -3.597638e-01 1.137637e-01 -5.208854e-02 1.293937e+00
<VARIANCE> 25
 1.159023e+01 2.735776e+01 2.071902e+01 1.594512e+01 2.222731e+01 2.201021e+01 2.274012e+01 2.044039e+01 1.531375e+01 1.374450e+01 1.474047e+01 1.592435e+01 3.942857e+00 3.561218e+00 2.657164e+00 2.284096e+00 2.479464e+00 4.197261e+00 3.054976e+00 3.640327e+00 2.298588e+00 1.445750e+00 2.604816e+00 2.086939e+00 3.377949e+00
<GCONST> 9.395642e+01
<STATE> 4
<MEAN> 25
 -5.738649e-01 -5.833395e+00 -2.349445e+00 -7.522965e-01 -9.400753e-01 -6.749646e+00 -7.232462e-01 1.229185e+00 2.469712e+00 2.485538e-02 1.874962e+00 1.352492e+00 1.544594e+00 -9.587163e-01 -4.009764e-02 -1.010308e-01 -3.415032e-01 -1.480843e+00 -4.523117e-01 -3.592848e-01 3.881108e-01 5.881764e-01 -5.742591e-01 -4.520537e-01 1.969492e+00
<VARIANCE> 25
 3.534029e+01 5.861335e+01 3.876531e+01 3.494461e+01 5.459932e+01 1.084632e+02 4.555168e+01 5.591568e+01 3.540107e+01 4.175802e+01 3.585255e+01 2.600202e+01 4.285436e+00 5.503992e+00 5.533624e+00 6.512408e+00 5.680282e+00 9.311829e+00 4.999761e+00 7.458950e+00 4.748026e+00 5.236108e+00 4.046241e+00 3.198293e+00 4.634328e+00
<GCONST> 1.130991e+02
<TRANSP> 5
 0.000000e+00 1.000000e+00 0.000000e+00 0.000000e+00 0.000000e+00
 0.000000e+00 7.473840e-01 2.526160e-01 0.000000e+00 0.000000e+00
 0.000000e+00 0.000000e+00 6.277672e-01 3.722328e-01 0.000000e+00
 0.000000e+00 0.000000e+00 0.000000e+00 6.172259e-01 3.827741e-01
 0.000000e+00 0.000000e+00 0.000000e+00 0.000000e+00 0.000000e+00
<ENDHMM>
~h "R"
<BEGINHMM>
<NUMSTATES> 5
<STATE> 2
<MEAN> 25
 8.352068e+00 2.975054e+00 -4.547692e+00 -6.712070e+00 -2.280503e+00 1.155816e+00 1.333729e+00 -2.759870e+00 -5.279193e+00 -2.152721e+00 -9.838122e-02 -6.117979e-01 1.488895e+00 1.166242e+00 -7.612330e-01 -8.645537e-01 -1.010429e-01 3.881975e-01 6.762726e-01 -6.952197e-01 -1.830626e+00 -4.326640e-01 3.242339e-01 2.534522e-01 5.836951e-01
<VARIANCE> 25
 2.962615e+01 6.334389e+01 3.305685e+01 6.247135e+01 5.122423e+01 4.694278e+01 5.597303e+01 6.546059e+01 5.113351e+01 5.650345e+01 5.032706e+01 3.102246e+01 3.383018e+00 4.886985e+00 3.271700e+00 3.992718e+00 4.212586e+00 4.387175e+00 4.248147e+00 4.475056e+00 4.854703e+00 3.817083e+00 4.000630e+00 2.661377e+00 2.095601e+00
<GCONST> 1.096920e+02
<STATE> 3
<MEAN> 25
 1.257278e+01 5.197023e+00 -7.191633e+00 -8.098232e+00 -1.397267e+00 2.147243e+00 2.706293e+00 -7.030115e+00 -1.220534e+01 -2.300352e+00 3.209369e+00 1.072590e+00 2.315595e-01 -7.732575e-02 -4.698002e-01 1.893813e-01 5.282769e-01 1.172337e-01 -1.008367e-01 -6.855951e-01 -7.637450e-01 -1.769339e-02 5.808185e-01 5.093881e-01 1.214005e-01
<VARIANCE> 25
 1.268346e+01 4.060413e+01 2.003536e+01 4.606237e+01 3.952835e+01 2.894521e+01 4.208596e+01 5.120883e+01 4.232359e+01 6.363468e+01 3.434249e+01 2.666066e+01 5.407342e-01 1.847772e+00 1.051910e+00 1.888438e+00 2.344311e+00 1.904179e+00 2.628596e+00 2.127091e+00 2.572209e+00 2.571875e+00 1.763869e+00 1.774004e+00 5.491480e-01
<GCONST> 9.478824e+01
<STATE> 4
<MEAN> 25
 1.002450e+01 2.635543e+00 -7.417263e+00 -4.078451e+00 2.234582e+00 1.704474e+00 3.920541e-01 -8.789795e+00 -9.846037e+00 1.255855e-01 4.662510e+00 1.515483e+00 -6.193202e-01 -3.733475e-01 5.143372e-01 1.232613e+00 4.618173e-01 -4.097154e-01 -7.197820e-01 2.536111e-01 1.078819e+00 3.189625e-01 -4.320515e-01 -4.437897e-01 -3.145212e-01
<VARIANCE> 25
 2.246428e+01 3.901000e+01 2.015396e+01 5.849495e+01 3.935844e+01 5.711326e+01 4.229559e+01 5.158247e+01 6.411446e+01 5.281044e+01 2.789582e+01 4.713360e+01 5.867594e-01 1.575758e+00 9.093062e-01 1.975273e+00 1.629878e+00 2.090857e+00 2.301151e+00 2.288716e+00 2.476452e+00 2.444100e+00 1.697425e+00 1.650023e+00 6.405874e-01
<GCONST> 9.628921e+01
<TRANSP> 5
 0.000000e+00 1.000000e+00 0.000000e+00 0.000000e+00 0.000000e+00
 0.000000e+00 6.307081e-01 3.692919e-01 0.000000e+00 0.000000e+00
 0.000000e+00 0.000000e+00 6.368641e-01 3.631359e-01 0.000000e+00
 0.000000e+00 0.000000e+00 0.000000e+00 7.568241e-01 2.431759e-01
 0.000000e+00 0.000000e+00 0.000000e+00 0.000000e+00 0.000000e+00
<ENDHMM>
~h "S"
<BEGINHMM>
<NUMSTATES> 5
<STATE> 2
<MEAN> 25
 -4.550837e+00 -7.660700e+00 7.660156e+00 -1.465719e-01 -1.205643e+00 -1.204329e+00 3.765478e+00 -6.092356e-01 -4.589693e-01 -9.606710e-01 1.296390e+00 2.113417e+00 -3.476030e+00 -3.186764e+00 3.318129e+00 -1.281406e+00 -9.378819e-01 -6.237196e-01 1.315677e+00 1.015913e+00 5.796618e-01 -3.750159e-01 1.217642e+00 1.141221e-01 1.470483e+00
<VARIANCE> 25
 5.283071e+01 7.886300e+01 6.347915e+01 1.018940e+02 7.685141e+01 6.148808e+01 9.317880e+01 5.926937e+01 5.453857e+01 3.716928e+01 3.141364e+01 2.208900e+01 2.885917e+00 7.290566e+00 3.678752e+00 5.872965e+00 7.446209e+00 6.699687e+00 6.236531e+00 5.051938e+00 4.442458e+00 3.301528e+00 3.264920e+00 2.413951e+00 1.621178e+00
<GCONST> 1.130030e+02
<STATE> 3
<MEAN> 25
 -8.656105e+00 -2.115197e+01 1.215929e+01 1.467234e+00 -1.072613e+01 -1.460047e+00 1.796868e+00 4.179440e+00 -9.171752e-01 -3.804234e+00 5.224633e+00 1.999148e+00 -1.412042e-01 5.251609e-01 -7.606442e-01 -9.506787e-02 6.984687e-01 -1.820728e-01 6.038242e-02 -1.113450e-01 2.607160e-01 -3.543108e-02 -1.918404e-01 1.623435e-01 -2.119672e-01
<VARIANCE> 25
 2.256487e+01 7.681508e+01 4.413575e+01 5.058618e+01 7.505891e+01 2.935632e+01 5.858905e+01 3.221703e+01 3.479923e+01 2.245344e+01 1.861335e+01 1.661158e+01 2.471434e+00 5.277185e+00 5.164485e+00 2.560757e+00 3.699035e+00 1.698076e+00 2.819249e+00 2.285589e+00 2.016028e+00 1.638033e+00 1.971958e+00 1.589381e+00 1.033476e+00
<GCONST> 9.997240e+01
<STATE> 4
<MEAN> 25
 -1.623970e+01 -7.692045e+00 1.366615e+01 -7.362531e+00 2.216286e+00 -2.606112e+00 9.508760e+00 -3.129152e-01 2.786739e+00 -1.387790e+00 2.924572e+00 4.093691e-01 7.718580e-01 3.291356e-01 -5.872424e-01 4.878343e-01 -1.214304e-01 3.375168e-01 -4.186874e-01 4.743930e-03 -2.027540e-01 2.251243e-01 -2.787542e-01 -1.431149e-01 -5.450082e-01
<VARIANCE> 25
 4.146587e+01 3.892407e+01 5.346406e+01 4.779478e+01 4.720245e+01 1.000715e+02 1.370044e+02 5.028665e+01 5.549487e+01 4.181210e+01 2.416421e+01 2.233511e+01 3.189955e+00 2.765170e+00 2.302867e+00 1.801758e+00 1.976582e+00 2.501189e+00 3.438340e+00 2.497452e+00 2.634724e+00 2.008278e+00 1.806756e+00 1.676728e+00 1.196807e+00
<GCONST> 1.028204e+02
<TRANSP> 5
 0.000000e+00 1.000000e+00 0.000000e+00 0.000000e+00 0.000000e+00
 0.000000e+00 6.987819e-01 3.012181e-01 0.000000e+00 0.000000e+00
 0.000000e+00 0.000000e+00 7.609394e-01 2.390606e-01 0.000000e+00
 0.000000e+00 0.000000e+00 0.000000e+00 8.771096e-01 1.228903e-01
 0.000000e+00 0.000000e+00 0.000000e+00 0.000000e+00 0.000000e+00
<ENDHMM>
~h "T"
<BEGINHMM>
<NUMSTATES> 5
<STATE> 2
<MEAN> 25
 1.815497e+00 7.129303e-01 -7.310576e-01 -3.569792e-01 1.515130e-01 8.802832e-01 -5.082541e-01 -1.233438e+00 -1.867832e+00 -8.244900e-01 -9.842769e-01 -7.997255e-01 -7.106515e-01 -6.105120e-01 -8.326807e-02 -2.457478e-01 -2.442163e-01 -1.177415e-01 -5.133641e-02 5.323135e-01 7.722757e-01 -3.753716e-02 2.939117e-01 4.716729e-01 -3.160519e-01
<VARIANCE> 25
 5.663724e+01 5.881577e+01 4.379085e+01 4.416483e+01 5.067366e+01 5.510139e+01 3.657753e+01 3.965506e+01 4.023325e+01 4.153043e+01 2.365680e+01 2.969818e+01 4.273467e+00 6.171036e+00 4.465105e+00 3.646014e+00 4.386668e+00 8.388474e+00 4.797366e+00 3.701546e+00 3.736331e+00 3.843314e+00 2.463400e+00 2.442419e+00 4.001610e+00
<GCONST> 1.092056e+02
<STATE> 3
<MEAN> 25
 -7.678687e-01 -8.755216e+00 -2.263574e+00 1.728032e+00 4.173861e-01 2.071602e-01 -2.204532e+00 -2.676907e+00 2.793283e+00 3.155404e-02 3.036917e-01 1.892369e+00 -5.181071e-01 -1.219774e+00 5.441319e-01 -3.799649e-01 -6.045068e-02 -6.398326e-01 1.392254e-01 -5.936871e-01 -2.576536e-02 -1.386328e-01 3.645179e-01 3.593828e-01 8.997425e-01
<VARIANCE> 25
 4.167015e+01 1.046692e+02 5.096934e+01 4.579963e+01 5.215473e+01 6.187254e+01 4.604247e+01 7.282024e+01 4.028573e+01 2.688811e+01 2.619366e+01 2.023000e+01 4.844559e+00 1.505448e+01 4.822770e+00 4.385429e+00 6.336262e+00 1.021027e+01 5.314894e+00 5.811066e+00 4.898795e+00 3.374032e+00 2.653862e+00 2.222059e+00 5.995596e+00
<GCONST> 1.128519e+02
<STATE> 4
<MEAN> 25
 -6.216726e+00 -8.939528e+00 1.538481e+00 -4.294917e-01 -4.153492e-01 -5.723663e+00 1.258214e+00 1.838168e+00 1.555608e+00 -1.805716e+00 1.451489e+00 2.369838e+00 4.858530e-01 4.191606e-01 -7.015650e-02 8.666486e-02 -6.712554e-02 1.618553e-01 -1.832027e-01 -9.464648e-02 -3.307212e-01 8.682033e-02 4.585155e-02 -1.979882e-02 -1.039687e-01
<VARIANCE> 25
 3.880815e+01 5.389618e+01 6.996212e+01 4.774231e+01 5.066988e+01 1.389724e+02 6.516716e+01 5.419005e+01 3.215704e+01 3.243368e+01 2.535995e+01 2.180944e+01 4.569855e+00 6.585514e+00 6.223261e+00 4.118375e+00 3.422250e+00 9.926656e+00 4.398829e+00 3.902385e+00 3.106223e+00 3.371765e+00 2.536851e+00 2.040757e+00 3.123029e+00
<GCONST> 1.101492e+02
<TRANSP> 5
 0.000000e+00 1.000000e+00 0.000000e+00 0.000000e+00 0.000000e+00
 0.000000e+00 5.785388e-01 4.214611e-01 0.000000e+00 0.000000e+00
 0.000000e+00 0.000000e+00 5.014110e-01 4.985890e-01 0.000000e+00
 0.000000e+00 0.000000e+00 0.000000e+00 7.504243e-01 2.495756e-01
 0.000000e+00 0.000000e+00 0.000000e+00 0.000000e+00 0.000000e+00
<ENDHMM>
~h "V"
<BEGINHMM>
<NUMSTATES> 5
<STATE> 2
<MEAN> 25
 3.634754e+00 4.693594e+00 5.748668e-01 5.814919e-01 -1.420819e+00 -1.759540e+00 -1.602899e+00 -1.244201e+00 -1.899887e+00 -1.977667e+00 -1.635227e+00 -4.597602e-01 -3.879468e-01 3.574782e-01 8.064762e-03 5.466598e-02 3.412744e-01 3.290823e-01 1.260538e-01 1.011854e-01 1.418220e-01 -1.612522e-01 -3.571625e-02 9.327918e-02 -4.228704e-01
<VARIANCE> 25
 4.749218e+01 2.603466e+01 1.647964e+01 1.983842e+01 4.621677e+01 2.246225e+01 2.179325e+01 2.264721e+01 2.709437e+01 2.492577e+01 2.335593e+01 1.372217e+01 1.764658e+00 1.428570e+00 1.003317e+00 1.008834e+00 1.530519e+00 1.324777e+00 1.455611e+00 1.535685e+00 1.433441e+00 1.966903e+00 1.069832e+00 1.416706e+00 8.093551e-01
<GCONST> 8.797742e+01
<STATE> 3
<MEAN> 25
 8.353399e-01 3.520300e+00 1.178567e+00 5.858203e-01 2.873967e+00 8.988974e-01 -3.704812e-01 -1.052006e+00 -1.034593e+00 -2.425320e+00 -8.254171e-01 -5.371397e-01 -1.442936e+00 -8.732451e-01 1.260922e-01 -3.425108e-01 7.010370e-01 2.696794e-01 7.436373e-01 8.527335e-01 6.963719e-01 4.000459e-01 4.100766e-01 4.706416e-01 -2.365412e-01
<VARIANCE> 25
 3.821187e+01 2.115969e+01 2.339617e+01 1.878209e+01 4.112249e+01 2.373015e+01 2.555197e+01 2.532334e+01 2.765843e+01 2.470799e+01 2.313672e+01 1.069724e+01 2.296309e+00 3.125268e+00 1.342603e+00 1.616220e+00 3.611083e+00 2.357358e+00 2.490957e+00 2.279733e+00 3.121435e+00 2.462888e+00 1.973191e+00 1.210032e+00 9.880603e-01
<GCONST> 9.364356e+01
<STATE> 4
<MEAN> 25
 6.370730e-01 2.272978e+00 2.958687e+00 -2.793475e+00 9.042171e+00 -4.578516e+00 -1.456054e+00 -1.556456e-02 -3.551932e+00 -1.490927e+00 -6.440315e-01 1.279500e+00 -1.246251e-01 -4.914451e-01 -1.104229e-01 -2.822014e-01 1.708549e-01 -5.163502e-01 -1.463654e-01 -3.091201e-02 -4.958787e-02 1.392206e-01 2.925019e-01 2.341771e-01 2.254072e-01
<VARIANCE> 25
 5.443716e+01 3.472508e+01 3.464356e+01 7.769221e+01 9.268446e+01 5.877745e+01 6.745615e+01 8.364710e+01 4.759091e+01 3.761507e+01 4.586068e+01 2.538813e+01 5.045722e+00 3.821321e+00 3.187619e+00 5.584535e+00 8.675267e+00 7.441477e+00 6.220172e+00 4.909581e+00 3.572419e+00 3.932400e+00 5.024491e+00 2.832191e+00 1.955366e+00
<GCONST> 1.125737e+02
<TRANSP> 5
 0.000000e+00 1.000000e+00 0.000000e+00 0.000000e+00 0.000000e+00
 0.000000e+00 7.524928e-01 2.475072e-01 0.000000e+00 0.000000e+00
 0.000000e+00 0.000000e+00 4.933313e-01 5.066687e-01 0.000000e+00
 0.000000e+00 0.000000e+00 0.000000e+00 7.427831e-01 2.572169e-01
 0.000000e+00 0.000000e+00 0.000000e+00 0.000000e+00 0.000000e+00
<ENDHMM>
~h "W"
<BEGINHMM>
<NUMSTATES> 5
<STATE> 2
<MEAN> 25
 2.313726e+00 3.033560e+00 -1.147537e+00 3.362018e-01 5.662824e-01 3.005186e-01 5.276230e-01 -6.563920e-01 -1.199428e+00 -1.671033e+00 -3.476015e-01 2.598255e-01 1.009262e+00 1.452532e+00 3.956643e-01 -3.835108e-01 -7.570269e-01 -9.183602e-01 -6.082684e-01 -1.030220e-01 1.255738e-02 -1.305277e-01 -2.185984e-01 -4.278671e-01 2.628744e-01
<VARIANCE> 25
 3.763097e+01 3.704610e+01 3.095531e+01 3.644348e+01 5.667207e+01 6.364165e+01 4.153443e+01 3.874115e+01 3.324054e+01 2.055402e+01 2.142505e+01 2.873903e+01 2.474529e+00 4.974389e+00 2.573096e+00 2.506195e+00 4.602712e+00 6.308065e+00 5.430306e+00 4.640897e+00 3.228829e+00 2.073329e+00 2.463824e+00 2.463293e+00 2.686933e+00
<GCONST> 1.044013e+02
<STATE> 3
<MEAN> 25
 7.794945e+00 9.762894e+00 2.077022e+00 -2.095484e+00 -6.037102e+00 -6.691957e+00 -3.967007e+00 -1.776817e+00 -5.341493e-01 -8.717234e-01 -1.113480e+00 -2.319503e+00 5.345436e-01 3.380794e-01 3.666297e-02 -5.879276e-01 -7.585351e-01 -4.799849e-01 7.957719e-02 3.052731e-01 2.063484e-01 8.787394e-02 -4.369634e-01 -5.413566e-01 3.282958e-01
<VARIANCE> 25
 1.340986e+01 2.259906e+01 1.952788e+01 2.917276e+01 3.303781e+01 2.929969e+01 3.693869e+01 2.440002e+01 2.162635e+01 1.727517e+01 1.943653e+01 2.370881e+01 1.247322e+00 1.764786e+00 1.531374e+00 2.111600e+00 2.336087e+00 2.379765e+00 2.539721e+00 2.870606e+00 3.368320e+00 1.815079e+00 2.132123e+00 2.144173e+00 1.193035e+00
<GCONST> 9.291279e+01
<STATE> 4
<MEAN> 25
 9.246719e+00 4.128277e+00 5.691549e-02 -4.472896e+00 -5.342112e+00 -6.824845e+00 -2.375655e-01 -3.204566e+00 -3.782766e+00 -1.435316e+00 -4.035752e+00 -5.264974e+00 2.979366e-01 -1.034351e+00 -3.357050e-01 2.821381e-01 1.361275e+00 2.531432e-01 -1.165838e-01 -1.134752e+00 -1.379342e+00 2.148062e-01 2.071290e-01 4.163553e-01 8.195090e-01
<VARIANCE> 25
 1.569496e+01 4.088349e+01 1.970036e+01 2.463727e+01 5.161692e+01 3.583666e+01 4.209492e+01 4.825834e+01 4.868841e+01 3.755427e+01 3.485358e+01 3.002257e+01 1.234568e+00 2.665544e+00 1.598488e+00 2.914090e+00 4.427227e+00 3.435718e+00 2.709429e+00 4.225639e+00 4.992731e+00 3.851252e+00 3.203780e+00 2.552179e+00 1.790257e+00
<GCONST> 1.017292e+02
<TRANSP> 5
 0.000000e+00 1.000000e+00 0.000000e+00 0.000000e+00 0.000000e+00
 0.000000e+00 6.269779e-01 3.730221e-01 0.000000e+00 0.000000e+00
 0.000000e+00 0.000000e+00 7.117059e-01 2.882942e-01 0.000000e+00
 0.000000e+00 0.000000e+00 0.000000e+00 5.944133e-01 4.055868e-01
 0.000000e+00 0.000000e+00 0.000000e+00 0.000000e+00 0.000000e+00
<ENDHMM>
~h "Y"
<BEGINHMM>
<NUMSTATES> 5
<STATE> 2
<MEAN> 25
 2.694082e+00 -3.961169e+00 1.049648e+01 1.455602e+01 4.472025e+00 -1.065320e+01 -9.145018e+00 -2.974701e+00 -3.889945e+00 -1.368651e+00 -4.231539e+00 -8.215374e+00 7.483350e-01 -3.842574e-01 7.266441e-02 5.581529e-01 7.958048e-01 -1.266558e+00 -1.550320e+00 -8.496938e-01 -3.905626e-01 7.469713e-01 -5.621212e-01 -1.429081e+00 9.466108e-01
<VARIANCE> 25
 2.023403e+01 2.570311e+01 4.761984e+01 4.700098e+01 4.238846e+01 5.458869e+01 8.285097e+01 3.524421e+01 3.366798e+01 3.416520e+01 3.695259e+01 3.438140e+01 2.438073e+00 2.146507e+00 5.600764e+00 3.919667e+00 1.777672e+00 5.190892e+00 4.653646e+00 2.974763e+00 2.235668e+00 4.903967e+00 2.559172e+00 2.470478e+00 2.443602e+00
<GCONST> 1.045614e+02
<STATE> 3
<MEAN> 25
 5.503700e+00 -1.670020e+00 5.383196e+00 9.620636e+00 9.221603e+00 -7.366125e+00 -1.225991e+01 -9.481847e+00 -5.217559e+00 4.298758e+00 -1.915811e+00 -1.085734e+01 2.205422e-01 7.625049e-01 -5.233926e-01 -1.136118e+00 -2.040946e-01 9.424067e-01 5.048174e-01 -6.835771e-01 -3.653123e-01 -1.295057e-01 5.308772e-01 6.793098e-01 -5.866855e-02
<VARIANCE> 25
 1.389062e+01 2.656660e+01 2.185885e+01 3.092988e+01 6.876341e+01 5.311028e+01 6.206189e+01 3.868405e+01 5.678358e+01 3.514605e+01 2.062511e+01 2.934723e+01 4.145667e-01 1.176458e+00 2.066693e+00 2.801956e+00 2.497604e+00 3.078650e+00 2.142766e+00 2.956827e+00 3.398575e+00 3.091564e+00 2.752938e+00 2.376566e+00 7.187020e-01
<GCONST> 9.718951e+01
<STATE> 4
<MEAN> 25
 3.910850e+00 2.737354e+00 5.598363e+00 2.679470e-01 7.816929e+00 -6.611612e+00 -5.398295e+00 -2.659905e+00 -2.715100e+00 1.560329e+00 1.055252e+00 -5.224714e+00 1.385185e-01 5.468662e-02 -1.445467e-01 -2.109051e-01 1.141975e-01 2.343084e-01 -5.623262e-02 1.223038e-01 -1.953078e-01 -1.314077e-02 1.995997e-01 1.796580e-01 6.817468e-03
<VARIANCE> 25
 5.683538e+01 3.208727e+01 3.635274e+01 9.489115e+01 1.394992e+02 1.275099e+02 2.429428e+02 7.763127e+01 4.326116e+01 6.316823e+01 4.336587e+01 4.906185e+01 2.097312e+00 1.751857e+00 2.224305e+00 6.794710e+00 7.433347e+00 1.145917e+01 1.012829e+01 6.543293e+00 3.869003e+00 4.481444e+00 3.692507e+00 3.942831e+00 1.575312e+00
<GCONST> 1.154495e+02
<TRANSP> 5
 0.000000e+00 1.000000e+00 0.000000e+00 0.000000e+00 0.000000e+00
 0.000000e+00 7.687445e-01 2.312555e-01 0.000000e+00 0.000000e+00
 0.000000e+00 0.000000e+00 7.730690e-01 2.269310e-01 0.000000e+00
 0.000000e+00 0.000000e+00 0.000000e+00 8.133838e-01 1.866163e-01
 0.000000e+00 0.000000e+00 0.000000e+00 0.000000e+00 0.000000e+00
<ENDHMM>
~h "Z"
<BEGINHMM>
<NUMSTATES> 5
<STATE> 2
<MEAN> 25
 2.202264e+00 -2.765330e+00 9.421838e+00 6.310588e+00 5.687967e-01 -1.659534e-01 -1.030810e-01 -5.087005e+00 -5.269834e+00 -2.597053e+00 -1.601655e+00 -3.043702e-01 -3.194674e+00 -2.663152e+00 3.667119e+00 -5.794512e-01 -1.219820e+00 5.099864e-01 2.044065e+00 1.453787e+00 5.131724e-01 -1.753321e-01 1.414092e+00 5.873992e-01 6.038191e-01
<VARIANCE> 25
 2.852330e+01 6.691138e+01 6.491187e+01 7.870139e+01 6.489665e+01 5.083055e+01 8.030454e+01 6.813425e+01 4.938311e+01 4.157471e+01 3.744587e+01 2.864673e+01 2.050501e+00 6.422118e+00 2.794188e+00 6.324075e+00 7.007574e+00 7.384814e+00 6.872497e+00 5.417097e+00 6.485219e+00 4.665654e+00 3.235214e+00 3.489388e+00 8.129730e-01
<GCONST> 1.119931e+02
<STATE> 3
<MEAN> 25
 -1.024301e+01 -1.175661e+01 1.434050e+01 -1.248525e+00 -1.770415e+00 1.318797e+00 1.346327e-01 1.976223e+00 1.469417e-01 -3.534791e+00 4.037919e+00 1.735890e+00 -1.030468e+00 -3.384857e-01 -3.032424e-01 -9.230185e-01 1.451521e-01 -1.162022e-01 5.212768e-01 1.783192e-01 3.525761e-01 1.905583e-01 2.089586e-01 3.010941e-01 1.317489e-01
<VARIANCE> 25
 3.271782e+01 1.613131e+02 3.924236e+01 1.057165e+02 1.369873e+02 4.490941e+01 5.040265e+01 4.317896e+01 4.884436e+01 2.457438e+01 2.135216e+01 1.879179e+01 5.050289e+00 4.513339e+00 5.154869e+00 3.201952e+00 3.952891e+00 2.220970e+00 3.475060e+00 3.546296e+00 2.634900e+00 2.113223e+00 2.127665e+00 1.485543e+00 1.461505e+00
<GCONST> 1.062050e+02
<STATE> 4
<MEAN> 25
 -1.144757e+01 -6.782370e+00 1.389472e+01 -4.026254e+00 -1.502684e-01 -2.814098e+00 1.076946e+01 -2.934154e+00 -3.235502e+00 -1.588600e-01 2.046008e+00 1.324271e-01 7.877718e-01 4.029016e-01 -1.350059e+00 2.199737e-01 -2.316881e-01 1.156880e-01 -6.973087e-01 4.282319e-02 -2.349240e-02 -3.376478e-02 -2.150389e-01 -1.247119e-01 -7.111191e-01
<VARIANCE> 25
 4.743039e+01 3.985528e+01 1.023936e+02 6.270166e+01 4.108823e+01 9.444126e+01 1.440802e+02 8.764752e+01 7.924346e+01 4.764143e+01 3.954884e+01 3.554092e+01 5.288512e+00 3.536519e+00 3.957321e+00 3.632395e+00 3.002522e+00 4.106134e+00 6.790509e+00 3.830745e+00 4.452520e+00 3.384468e+00 3.416158e+00 2.314635e+00 1.543291e+00
<GCONST> 1.120295e+02
<TRANSP> 5
 0.000000e+00 1.000000e+00 0.000000e+00 0.000000e+00 0.000000e+00
 0.000000e+00 6.664575e-01 3.335424e-01 0.000000e+00 0.000000e+00
 0.000000e+00 0.000000e+00 7.758482e-01 2.241518e-01 0.000000e+00
 0.000000e+00 0.000000e+00 0.000000e+00 8.465812e-01 1.534188e-01
 0.000000e+00 0.000000e+00 0.000000e+00 0.000000e+00 0.000000e+00
<ENDHMM>
~h "AA"
<BEGINHMM>
<NUMSTATES> 5
<STATE> 2
<MEAN> 25
 1.751609e-01 6.504871e-01 -4.479493e+00 8.048203e-01 -2.858773e+00 1.558890e+00 2.880132e-01 2.370943e+00 1.004653e+00 -4.166389e-01 3.163715e-01 7.127922e-01 5.461524e-01 3.910172e-01 -1.611208e-01 -2.248809e-01 -3.798130e-01 -2.602745e-01 -8.609084e-02 1.517792e-01 3.274196e-01 8.208615e-02 -3.091481e-01 -9.527048e-02 1.828826e-01
<VARIANCE> 25
 3.896196e+01 3.868280e+01 1.803533e+01 2.918704e+01 2.525904e+01 2.954830e+01 3.080986e+01 3.094083e+01 2.709656e+01 1.640560e+01 2.037236e+01 1.584982e+01 1.797337e+00 2.272733e+00 1.848451e+00 1.861622e+00 2.955588e+00 2.674683e+00 2.443664e+00 2.936496e+00 1.894643e+00 1.693444e+00 2.272863e+00 1.616816e+00 8.922690e-01
<GCONST> 9.391508e+01
<STATE> 3
<MEAN> 25
 9.625658e+00 1.154577e+00 -3.151773e+00 -7.159245e+00 -1.212852e+01 -6.457180e+00 2.050422e+00 6.073739e+00 4.212279e+00 5.955858e-01 -3.033582e+00 -3.574817e+00 1.174341e+00 -3.270976e-01 -1.543938e-01 -8.753436e-01 -1.013826e+00 -5.642863e-02 9.358332e-01 3.597795e-01 3.864681e-01 1.024506e-01 -1.281168e+00 -7.706057e-01 1.343286e+00
<VARIANCE> 25
 2.113988e+01 6.990320e+01 4.052105e+01 3.415112e+01 5.270795e+01 3.551775e+01 7.354135e+01 7.623542e+01 4.682812e+01 6.520506e+01 3.229524e+01 2.297388e+01 2.233181e+00 4.147566e+00 2.775946e+00 4.240930e+00 3.857184e+00 3.895216e+00 3.185997e+00 5.570127e+00 3.239029e+00 4.229866e+00 3.336777e+00 2.779220e+00 2.017632e+00
<GCONST> 1.071017e+02
<STATE> 4
<MEAN> 25
 1.081391e+01 8.245218e-02 -3.803735e+00 -8.700933e+00 -1.280165e+01 -3.861025e+00 5.977615e+00 5.373680e+00 4.616462e+00 -3.176508e-01 -6.142952e+00 -3.014415e+00 -2.441757e-01 1.704116e-01 1.197230e-01 4.355520e-01 7.261286e-01 4.430095e-01 -1.036772e-01 -4.986187e-01 -4.471504e-01 -1.330438e-01 1.283207e-01 2.635296e-01 -2.742791e-01
<VARIANCE> 25
 1.591581e+01 2.735331e+01 3.037530e+01 3.454758e+01 3.787923e+01 3.722139e+01 5.784121e+01 4.847652e+01 4.338953e+01 6.335245e+01 2.892664e+01 2.439033e+01 5.159229e-01 1.430149e+00 1.487214e+00 1.793812e+00 2.661506e+00 2.642608e+00 2.505618e+00 2.819504e+00 1.928717e+00 2.126500e+00 1.724215e+00 1.530527e+00 7.936704e-01
<GCONST> 9.538059e+01
<TRANSP> 5
 0.000000e+00 1.000000e+00 0.000000e+00 0.000000e+00 0.000000e+00
 0.000000e+00 7.881198e-01 2.118802e-01 0.000000e+00 0.000000e+00
 0.000000e+00 0.000000e+00 6.689498e-01 3.310502e-01 0.000000e+00
 0.000000e+00 0.000000e+00 0.000000e+00 8.544031e-01 1.455969e-01
 0.000000e+00 0.000000e+00 0.000000e+00 0.000000e+00 0.000000e+00
<ENDHMM>
~h "AE"
<BEGINHMM>
<NUMSTATES> 5
<STATE> 2
<MEAN> 25
 1.052232e+01 -7.643204e+00 -1.060283e+01 -3.809704e+00 -4.040107e+00 -1.668620e+00 7.227231e+00 -1.643079e+00 3.045578e+00 5.180638e-01 -2.435667e+00 -8.610731e-01 2.998580e-01 -1.949356e-01 -2.007238e-01 -1.309760e-01 -3.835123e-01 4.382275e-02 5.445834e-01 -2.440081e-01 1.353896e-01 1.124988e-01 -3.250884e-01 5.060012e-02 3.115172e-01
<VARIANCE> 25
 1.113950e+01 2.871593e+01 2.709088e+01 2.522659e+01 2.711596e+01 2.771096e+01 5.376554e+01 3.653154e+01 3.117295e+01 4.986638e+01 1.638111e+01 1.242772e+01 9.403855e-01 1.905052e+00 1.426409e+00 1.403403e+00 1.578923e+00 1.633964e+00 2.408669e+00 1.975518e+00 1.639974e+00 1.396952e+00 1.117342e+00 8.569692e-01 1.131491e+00
<GCONST> 8.980556e+01
<STATE> 3
<MEAN> 25
 7.046323e+00 -1.234965e+00 -6.976779e+00 -1.394917e+00 -2.291725e+00 -1.421265e-01 2.334508e+00 -1.177252e+00 -6.668385e-01 5.834368e-01 -1.206320e+00 1.107881e+00 -2.377978e-01 3.270866e-01 2.648426e-01 -6.039766e-03 8.886171e-02 1.692188e-01 -6.574929e-02 1.530583e-01 -9.740411e-02 -3.529829e-01 -5.720329e-03 1.377081e-01 -3.054734e-01
<VARIANCE> 25
 4.656796e+01 2.013852e+01 1.186341e+01 2.689611e+01 2.092902e+01 2.907985e+01 3.583372e+01 4.390039e+01 2.992392e+01 3.037705e+01 1.395779e+01 1.355218e+01 4.247379e-01 9.762236e-01 8.831779e-01 1.175294e+00 9.626741e-01 1.181659e+00 1.405686e+00 1.508925e+00 1.162382e+00 1.395827e+00 1.111932e+00 9.073162e-01 2.960992e-01
<GCONST> 8.369631e+01
<STATE> 4
<MEAN> 25
 6.970624e+00 -3.067388e+00 -5.060752e+00 -5.099145e+00 -4.351065e+00 1.909998e+00 4.039329e+00 -2.153867e+00 2.881467e+00 6.116621e+00 -1.419385e-01 -2.362713e+00 -6.261573e-01 6.765946e-01 6.749955e-01 3.402940e-01 5.822749e-01 3.158537e-01 -2.793552e-01 3.953930e-01 -1.419382e-01 -2.808302e-01 4.184092e-01 1.100852e-01 -8.619260e-01
<VARIANCE> 25
 2.559558e+01 2.292756e+01 2.681712e+01 3.897811e+01 6.013847e+01 4.332397e+01 5.575883e+01 4.810288e+01 3.915358e+01 7.696171e+01 2.875721e+01 3.460840e+01 2.537373e+00 2.950954e+00 2.794929e+00 3.023422e+00 3.058525e+00 3.592604e+00 4.094924e+00 5.304384e+00 3.201529e+00 4.591576e+00 2.636083e+00 2.451440e+00 2.196896e+00
<GCONST> 1.049107e+02
<TRANSP> 5
 0.000000e+00 1.000000e+00 0.000000e+00 0.000000e+00 0.000000e+00
 0.000000e+00 7.548010e-01 2.451990e-01 0.000000e+00 0.000000e+00
 0.000000e+00 0.000000e+00 7.286269e-01 2.713731e-01 0.000000e+00
 0.000000e+00 0.000000e+00 0.000000e+00 7.206065e-01 2.793935e-01
 0.000000e+00 0.000000e+00 0.000000e+00 0.000000e+00 0.000000e+00
<ENDHMM>
~h "AH"
<BEGINHMM>
<NUMSTATES> 5
<STATE> 2
<MEAN> 25
 7.627264e+00 -1.634118e+00 -4.900054e-01 6.685743e-01 -1.342137e+00 -4.978657e+00 -2.553447e+00 -4.775533e+00 -3.808338e+00 -6.342620e-01 -1.449427e+00 -5.909094e-01 1.065370e+00 2.718746e-01 -4.414658e-01 -1.595995e-01 -5.121543e-01 -5.080188e-01 5.733002e-02 -1.396774e-01 -3.678028e-01 -3.331593e-02 -3.867020e-01 -3.162888e-01 5.270961e-01
<VARIANCE> 25
 2.359067e+01 4.704301e+01 5.155024e+01 7.017376e+01 7.416853e+01 5.166608e+01 6.222890e+01 5.773505e+01 4.277599e+01 4.952628e+01 3.179383e+01 3.117636e+01 2.931914e+00 5.562159e+00 3.312478e+00 4.108462e+00 5.222958e+00 5.081913e+00 4.419344e+00 4.693315e+00 3.222530e+00 3.508582e+00 3.057874e+00 2.572229e+00 2.429199e+00
<GCONST> 1.092363e+02
<STATE> 3
<MEAN> 25
 7.838356e+00 -7.531089e-02 -1.482093e+00 -1.546276e-01 -2.522580e+00 -3.735455e+00 -1.235155e+00 -3.651650e+00 -3.507271e+00 -1.953383e+00 -2.164650e+00 -3.700143e-01 -2.111541e-01 7.236406e-01 1.352762e-01 3.064985e-02 2.858549e-01 4.484970e-01 1.009073e-01 4.115500e-01 2.796732e-01 -2.694956e-01 -1.434755e-01 -1.368818e-02 -5.586339e-01
<VARIANCE> 25
 2.630177e+01 4.573002e+01 2.978504e+01 4.500454e+01 5.247466e+01 4.091695e+01 4.823769e+01 4.345666e+01 3.932644e+01 3.899747e+01 2.891002e+01 2.583726e+01 1.183516e+00 2.355007e+00 1.765505e+00 2.347572e+00 2.925660e+00 2.562643e+00 2.207604e+00 2.253429e+00 2.203061e+00 1.767583e+00 1.759185e+00 1.564489e+00 1.160645e+00
<GCONST> 9.809788e+01
<STATE> 4
<MEAN> 25
 7.071554e+00 1.826667e+00 -4.253589e-02 -7.724192e-01 -7.374067e-01 -1.776735e+00 -2.255808e+00 -3.296800e+00 -1.021891e+00 -1.377193e+00 -3.024280e+00 -4.142202e-01 -7.157125e-01 6.250881e-01 7.586790e-01 1.793000e-01 5.698763e-01 9.681091e-01 3.994998e-01 4.746437e-01 6.740725e-01 1.851722e-01 7.654094e-02 -3.541574e-02 -6.477811e-01
<VARIANCE> 25
 2.579803e+01 3.805773e+01 2.992547e+01 4.821740e+01 5.871728e+01 4.430096e+01 4.040337e+01 4.659701e+01 6.473618e+01 5.188103e+01 3.265371e+01 2.738472e+01 3.412697e+00 4.125025e+00 2.532225e+00 3.480471e+00 4.371772e+00 4.738762e+00 3.828347e+00 3.789454e+00 4.518885e+00 3.569800e+00 2.740100e+00 2.244733e+00 3.030869e+00
<GCONST> 1.066628e+02
<TRANSP> 5
 0.000000e+00 1.000000e+00 0.000000e+00 0.000000e+00 0.000000e+00
 0.000000e+00 4.597726e-01 5.402275e-01 0.000000e+00 0.000000e+00
 0.000000e+00 0.000000e+00 5.555639e-01 4.444362e-01 0.000000e+00
 0.000000e+00 0.000000e+00 0.000000e+00 3.442551e-01 6.557449e-01
 0.000000e+00 0.000000e+00 0.000000e+00 0.000000e+00 0.000000e+00
<ENDHMM>
~h "AO"
<BEGINHMM>
<NUMSTATES> 5
<STATE> 2
<MEAN> 25
 9.040923e+00 5.138734e+00 -5.088677e-01 -3.952812e+00 -5.528582e+00 -6.041057e+00 -5.290732e-01 7.050151e-02 -2.226088e-01 8.339022e-01 -3.297193e+00 -4.466164e+00 1.692294e+00 1.418496e+00 -6.687772e-02 -9.572679e-01 -1.521412e+00 -1.392642e+00 -3.348184e-01 -8.091477e-02 -6.475173e-02 8.111939e-01 -2.444085e-01 -8.734282e-01 6.564488e-01
<VARIANCE> 25
 2.102588e+01 4.556553e+01 3.113070e+01 5.273981e+01 7.480755e+01 6.490108e+01 5.380510e+01 7.262304e+01 4.911250e+01 5.858732e+01 3.554488e+01 3.386013e+01 2.963964e+00 5.492171e+00 3.049606e+00 3.798589e+00 4.960305e+00 5.037940e+00 4.053523e+00 3.852890e+00 4.641447e+00 3.097226e+00 2.760185e+00 2.893594e+00 1.589613e+00
<GCONST> 1.084447e+02
<STATE> 3
<MEAN> 25
 1.184270e+01 8.580008e+00 -1.059751e+00 -7.220723e+00 -9.048720e+00 -7.197741e+00 -1.298159e+00 -1.854380e+00 -2.020267e+00 2.792172e+00 -6.067942e-01 -5.579181e+00 2.589748e-01 -2.452878e-01 -8.325473e-01 -7.711390e-01 -2.787509e-01 9.596101e-01 1.120750e+00 -1.796146e-01 -7.824243e-01 -2.236975e-01 1.346716e-01 1.698827e-01 1.609998e-01
<VARIANCE> 25
 7.158074e+00 3.170857e+01 2.032127e+01 2.269609e+01 2.789380e+01 3.256059e+01 3.999957e+01 4.247342e+01 4.168094e+01 3.823796e+01 1.930047e+01 3.516162e+01 3.244537e-01 7.022499e-01 8.779627e-01 9.609562e-01 1.789420e+00 2.247966e+00 1.871305e+00 2.254565e+00 2.522633e+00 2.229343e+00 1.302315e+00 1.589940e+00 2.407478e-01
<GCONST> 8.786213e+01
<STATE> 4
<MEAN> 25
 9.165751e+00 3.308631e+00 -3.672375e+00 -9.075060e+00 -9.833820e+00 -1.246845e+00 3.719917e+00 1.563627e+00 5.083725e-01 1.739019e+00 -2.830973e+00 -1.924615e+00 -5.112827e-01 3.562784e-02 -1.099744e-01 3.962302e-01 6.600805e-01 5.176502e-01 1.532561e-01 -8.357953e-02 -3.710867e-01 -6.381433e-01 1.938737e-01 3.727328e-01 -4.616114e-01
<VARIANCE> 25
 2.158364e+01 2.695841e+01 3.018672e+01 2.614607e+01 6.853186e+01 3.512063e+01 4.228802e+01 4.348553e+01 7.228567e+01 6.694785e+01 2.499774e+01 3.387344e+01 6.356220e-01 1.024745e+00 1.118083e+00 1.637324e+00 2.123813e+00 1.876650e+00 2.181388e+00 2.158832e+00 2.629435e+00 2.355344e+00 1.362507e+00 1.747603e+00 4.669263e-01
<GCONST> 9.455089e+01
<TRANSP> 5
 0.000000e+00 1.000000e+00 0.000000e+00 0.000000e+00 0.000000e+00
 0.000000e+00 5.638564e-01 4.361436e-01 0.000000e+00 0.000000e+00
 0.000000e+00 0.000000e+00 7.128733e-01 2.871266e-01 0.000000e+00
 0.000000e+00 0.000000e+00 0.000000e+00 7.626789e-01 2.373212e-01
 0.000000e+00 0.000000e+00 0.000000e+00 0.000000e+00 0.000000e+00
<ENDHMM>
~h "AW"
<BEGINHMM>
<NUMSTATES> 5
<STATE> 2
<MEAN> 25
 1.055050e+01 -2.355597e+00 -3.792257e+00 -9.325561e+00 -7.249002e+00 -4.503860e-01 6.580615e+00 -5.699898e+00 -1.453173e+00 8.314057e+00 -3.857998e+00 2.288860e+00 1.261995e+00 2.185248e-01 -5.600340e-01 -1.899588e-01 -6.096300e-01 -5.551534e-01 -4.727495e-02 -4.735946e-01 -9.758791e-01 3.401317e-01 -4.172577e-01 -8.398502e-01 7.134849e-01
<VARIANCE> 25
 2.093201e+01 1.598538e+01 2.165709e+01 3.075666e+01 1.983398e+01 1.395554e+01 4.405149e+01 3.929346e+01 3.208659e+01 7.118254e+01 2.586600e+01 5.114747e+01 2.143270e+00 2.743343e+00 2.805489e+00 1.917163e+00 2.230945e+00 3.590004e+00 3.482946e+00 3.300425e+00 2.829799e+00 4.288664e+00 1.970942e+00 2.956211e+00 1.997056e+00
<GCONST> 9.918906e+01
<STATE> 3
<MEAN> 25
 1.197027e+01 2.483572e+00 -4.498411e+00 -5.335685e+00 -7.483930e+00 -1.420593e+00 1.727878e+00 -1.308804e+00 -1.382568e+00 -4.331956e-01 -4.678070e+00 -1.966107e+00 -3.804936e-01 6.946099e-01 3.864259e-01 2.879632e-01 2.772213e-01 3.756009e-02 -4.067136e-01 5.726096e-01 3.970661e-01 -6.617961e-01 -2.142902e-01 1.565023e-01 -6.332413e-01
<VARIANCE> 25
 1.467329e+01 2.685293e+01 2.414140e+01 8.004940e+00 2.118881e+01 4.315407e+01 2.922721e+01 2.328367e+01 1.575155e+01 5.571751e+01 1.618153e+01 2.706006e+01 4.169531e-01 9.983569e-01 9.044763e-01 7.112556e-01 1.435841e+00 2.162376e+00 9.216092e-01 1.685218e+00 1.334042e+00 1.716086e+00 1.531523e+00 1.914408e+00 3.765184e-01
<GCONST> 8.457039e+01
<STATE> 4
<MEAN> 25
 9.423254e+00 -2.314026e+00 -9.481809e+00 -2.122927e+00 -1.429399e+00 -1.837440e+00 3.668105e-01 6.522725e+00 3.253190e+00 2.490247e+00 -4.094961e+00 -4.221690e-01 -4.326315e-01 -3.657063e-01 1.272382e-01 3.138354e-01 4.505349e-01 7.843170e-02 2.111412e-01 -3.577502e-02 -8.054113e-02 -5.772561e-03 2.346958e-01 3.791426e-01 -7.758372e-02
<VARIANCE> 25
 2.823507e+01 1.166632e+02 1.025777e+02 6.034312e+01 2.575274e+01 2.214110e+01 2.062780e+01 8.734116e+01 1.796549e+01 4.396637e+01 5.353302e+01 1.969061e+01 2.817843e+00 4.423676e+00 5.357427e+00 3.798429e+00 3.868657e+00 4.437886e+00 2.384990e+00 5.324296e+00 1.331439e+00 3.115860e+00 3.619386e+00 2.209276e+00 1.411505e+00
<GCONST> 1.050192e+02
<TRANSP> 5
 0.000000e+00 1.000000e+00 0.000000e+00 0.000000e+00 0.000000e+00
 0.000000e+00 7.822621e-01 2.177379e-01 0.000000e+00 0.000000e+00
 0.000000e+00 0.000000e+00 8.810947e-01 1.189053e-01 0.000000e+00
 0.000000e+00 0.000000e+00 0.000000e+00 7.330150e-01 2.669849e-01
 0.000000e+00 0.000000e+00 0.000000e+00 0.000000e+00 0.000000e+00
<ENDHMM>
~h "AY"
<BEGINHMM>
<NUMSTATES> 5
<STATE> 2
<MEAN> 25
 1.157103e+01 8.073642e-01 -3.314602e+00 -6.070485e+00 -9.955806e+00 -4.456253e+00 4.879367e+00 3.542483e+00 3.698083e+00 4.135847e-03 -6.220076e+00 -1.579117e+00 4.499986e-01 -6.371595e-01 -7.611315e-01 -3.431415e-01 -1.358067e-01 2.481362e-01 4.310896e-01 -3.492328e-01 3.963739e-01 4.864540e-01 -3.268181e-01 -1.413500e-01 5.118350e-01
<VARIANCE> 25
 7.850143e+00 2.474252e+01 1.201058e+01 2.070135e+01 4.376695e+01 2.236992e+01 1.782349e+01 2.610489e+01 2.979736e+01 3.281483e+01 4.508047e+01 2.465500e+01 1.053105e+00 1.751020e+00 1.263358e+00 1.846950e+00 3.376791e+00 3.979931e+00 2.324706e+00 2.647327e+00 3.110379e+00 2.312379e+00 3.443169e+00 1.725128e+00 6.241015e-01
<GCONST> 9.281777e+01
<STATE> 3
<MEAN> 25
 1.294086e+01 -1.339123e+00 -6.949831e+00 -4.195031e+00 -6.564828e+00 -2.128649e+00 2.784792e+00 -3.741661e+00 -2.683670e-01 2.837767e+00 -3.683758e+00 -2.216606e+00 -1.819713e-01 -3.822514e-01 -4.981755e-02 8.516418e-01 1.301979e+00 4.209062e-01 -9.937282e-01 -1.623081e+00 -7.638174e-01 4.842505e-01 1.176546e+00 3.299193e-01 3.776846e-02
<VARIANCE> 25
 8.669652e+00 2.956363e+01 1.937729e+01 1.245778e+01 3.633216e+01 2.384920e+01 1.793691e+01 2.648912e+01 3.597247e+01 5.288136e+01 1.795160e+01 1.534794e+01 1.992880e-01 7.832220e-01 6.946908e-01 1.217725e+00 8.364124e-01 1.821168e+00 1.565517e+00 1.148038e+00 1.460240e+00 1.712426e+00 8.868605e-01 1.311098e+00 1.825467e-01
<GCONST> 8.142628e+01
<STATE> 4
<MEAN> 25
 1.039960e+01 -2.725124e+00 -1.680340e+00 1.810216e+00 1.429897e+00 -2.992539e+00 -7.138318e+00 -6.777679e+00 -3.570453e-01 4.825730e+00 6.054783e-01 -2.825890e+00 -4.527864e-01 2.274742e-01 4.914343e-01 9.224226e-01 1.333438e+00 -4.290234e-01 -1.081252e+00 2.210380e-01 -4.367877e-01 -1.772758e-01 2.847409e-01 -2.460141e-01 -4.152972e-01
<VARIANCE> 25
 9.960107e+00 1.849768e+01 2.275085e+01 2.880417e+01 3.862927e+01 1.778843e+01 4.760969e+01 8.604977e+01 6.610811e+01 5.808676e+01 1.717021e+01 1.517213e+01 4.291584e-01 1.061285e+00 1.035814e+00 1.459944e+00 1.787378e+00 2.919127e+00 2.643379e+00 2.677212e+00 2.827712e+00 2.322181e+00 1.568491e+00 1.387680e+00 4.046903e-01
<GCONST> 9.130576e+01
<TRANSP> 5
 0.000000e+00 1.000000e+00 0.000000e+00 0.000000e+00 0.000000e+00
 0.000000e+00 7.564790e-01 2.435209e-01 0.000000e+00 0.000000e+00
 0.000000e+00 0.000000e+00 7.798985e-01 2.201015e-01 0.000000e+00
 0.000000e+00 0.000000e+00 0.000000e+00 8.235912e-01 1.764088e-01
 0.000000e+00 0.000000e+00 0.000000e+00 0.000000e+00 0.000000e+00
<ENDHMM>
~h "CH"
<BEGINHMM>
<NUMSTATES> 5
<STATE> 2
<MEAN> 25
 1.408483e+00 5.864191e-01 1.746087e+00 6.016419e+00 3.949411e+00 -2.096352e+00 -4.086050e+00 -2.584501e+00 -1.634349e+00 -2.195731e+00 -1.104048e+00 1.592867e-01 -2.116764e+00 -1.662239e+00 8.706422e-01 -3.703833e-01 -3.299769e-01 6.574908e-01 -1.100064e-01 1.711237e+00 2.033775e+00 -4.918673e-01 4.161679e-01 8.431782e-01 -4.834373e-01
<VARIANCE> 25
 1.826120e+01 3.250914e+01 5.029127e+01 3.417591e+01 1.959620e+01 3.334485e+01 2.151711e+01 3.280627e+01 9.324151e+00 1.422799e+01 1.749614e+01 1.599538e+01 3.560591e+00 1.046888e+01 6.227150e+00 4.122567e+00 3.316394e+00 8.121694e+00 5.201574e+00 3.307669e+00 1.985780e+00 5.347061e+00 3.135115e+00 2.472017e+00 5.481030e+00
<GCONST> 1.024603e+02
<STATE> 3
<MEAN> 25
 -5.426484e+00 -1.520302e+01 3.411494e+00 4.045678e+00 -2.632867e-01 -4.804645e+00 -6.796266e+00 2.663453e+00 7.745659e+00 -5.210525e+00 -1.546990e-01 2.240246e+00 -2.306716e+00 -5.063313e+00 2.631891e+00 4.887656e-01 -6.831588e-02 -5.967106e-01 -4.421768e-01 3.284305e-01 1.901350e+00 2.276855e-01 1.331411e-01 1.838648e-01 2.634105e+00
<VARIANCE> 25
 3.699960e+01 7.642271e+01 9.578337e+01 5.948151e+01 2.372408e+01 7.628696e+01 6.780901e+01 4.823655e+01 3.509951e+01 5.166724e+01 4.348073e+01 9.494640e+00 3.435087e+00 7.153724e+00 6.156972e+00 5.025172e+00 4.549378e+00 8.078948e+00 7.130102e+00 3.446722e+00 4.306861e+00 4.433089e+00 2.912809e+00 1.947847e+00 3.131487e+00
<GCONST> 1.109281e+02
<STATE> 4
<MEAN> 25
 -7.114806e+00 -1.787004e+01 4.675005e+00 4.002117e+00 9.284438e-01 -2.425867e+00 -5.299273e+00 2.736357e+00 8.057814e+00 -9.930687e-01 -1.096003e+00 2.216820e+00 1.181586e+00 1.260787e+00 -1.142952e+00 -3.413048e-01 9.115165e-02 4.524837e-01 1.459055e-01 -3.228881e-01 -4.842021e-01 2.002985e-01 -8.110093e-02 -1.102712e-03 -3.537674e-01
<VARIANCE> 25
 3.549322e+01 9.300854e+01 6.809402e+01 2.706249e+01 2.196057e+01 3.832353e+01 3.276641e+01 7.549709e+01 2.324699e+01 1.600878e+01 3.944503e+01 1.807742e+01 2.952255e+00 5.773485e+00 2.963669e+00 2.470647e+00 1.548798e+00 2.907900e+00 3.256395e+00 2.903549e+00 2.714913e+00 2.279453e+00 2.105340e+00 1.487131e+00 2.100396e+00
<GCONST> 1.008901e+02
<TRANSP> 5
 0.000000e+00 1.000000e+00 0.000000e+00 0.000000e+00 0.000000e+00
 0.000000e+00 5.406565e-01 4.593435e-01 0.000000e+00 0.000000e+00
 0.000000e+00 0.000000e+00 7.345608e-01 2.654392e-01 0.000000e+00
 0.000000e+00 0.000000e+00 0.000000e+00 8.957312e-01 1.042688e-01
 0.000000e+00 0.000000e+00 0.000000e+00 0.000000e+00 0.000000e+00
<ENDHMM>
~h "DH"
<BEGINHMM>
<NUMSTATES> 5
<STATE> 2
<MEAN> 25
 1.195066e+00 6.789887e+00 5.018170e+00 2.751800e+00 1.486867e+00 4.856628e+00 -1.045949e+00 -1.186022e+00 -6.761124e-01 -2.585702e+00 -1.584471e+00 1.172123e+00 -3.796057e-01 -2.695663e-01 7.485105e-02 -2.811125e-01 2.783676e-01 1.878474e-01 1.849798e-01 5.408754e-01 5.943918e-01 9.965675e-02 5.537992e-01 3.508531e-01 1.365783e-02
<VARIANCE> 25
 2.263050e+01 3.919708e+01 3.418319e+01 3.025139e+01 2.754118e+01 2.436487e+01 3.453789e+01 3.025186e+01 2.872159e+01 2.068189e+01 2.188489e+01 1.574973e+01 1.615546e+00 2.399603e+00 2.965244e+00 1.678332e+00 2.057966e+00 1.874954e+00 1.516674e+00 2.742913e+00 2.403300e+00 1.648253e+00 1.449324e+00 1.108060e+00 1.444961e+00
<GCONST> 9.332000e+01
<STATE> 3
<MEAN> 25
 -1.631239e+00 1.832441e+00 3.646557e+00 -1.121468e+00 -4.778919e-02 3.461972e+00 4.060766e-01 -2.824534e-01 1.843173e+00 -1.220856e+00 6.006825e-02 1.753195e+00 1.209863e+00 -7.907835e-01 2.661153e-01 -3.873317e-01 -5.187109e-01 -1.457638e+00 -1.304887e+00 -1.555924e+00 -9.264582e-01 -5.257261e-01 -2.041438e-01 -6.177136e-02 1.889131e+00
<VARIANCE> 25
 2.712832e+01 3.653934e+01 3.908021e+01 2.852975e+01 3.236160e+01 2.836621e+01 1.925943e+01 2.885082e+01 2.017322e+01 2.597391e+01 1.837251e+01 1.258109e+01 3.292564e+00 4.301715e+00 4.396081e+00 2.878060e+00 4.487477e+00 4.770930e+00 2.605453e+00 4.859066e+00 4.118073e+00 2.546884e+00 2.095524e+00 1.186363e+00 1.883649e+00
<GCONST> 9.939421e+01
<STATE> 4
<MEAN> 25
 3.158734e+00 2.529056e+00 8.982259e+00 8.140739e-01 2.370234e+00 1.233186e-01 -7.002071e+00 -4.029522e+00 -2.102587e+00 -2.476045e+00 -3.799265e+00 -9.482502e-01 1.487905e+00 -7.005301e-01 -1.264948e-01 2.265828e-01 -2.671394e-01 -1.434763e+00 -7.229146e-01 -1.169847e+00 -1.241671e+00 1.910019e-01 -7.047479e-01 -6.464588e-01 1.712531e+00
<VARIANCE> 25
 2.608068e+01 4.321568e+01 4.341879e+01 6.697485e+01 5.265715e+01 7.341016e+01 4.233289e+01 4.870903e+01 4.512049e+01 2.475026e+01 3.656704e+01 3.450969e+01 3.109558e+00 3.285141e+00 3.204758e+00 5.180339e+00 4.884195e+00 5.362587e+00 3.339754e+00 5.088485e+00 4.059521e+00 3.025112e+00 3.916733e+00 3.042875e+00 2.668830e+00
<GCONST> 1.081988e+02
<TRANSP> 5
 0.000000e+00 1.000000e+00 0.000000e+00 0.000000e+00 0.000000e+00
 0.000000e+00 6.583914e-01 3.416085e-01 0.000000e+00 0.000000e+00
 0.000000e+00 0.000000e+00 3.655726e-01 6.344274e-01 0.000000e+00
 0.000000e+00 0.000000e+00 0.000000e+00 6.708223e-01 3.291778e-01
 0.000000e+00 0.000000e+00 0.000000e+00 0.000000e+00 0.000000e+00
<ENDHMM>
~h "EA"
<BEGINHMM>
<NUMSTATES> 5
<STATE> 2
<MEAN> 25
 3.775417e-09 1.618108e-08 -5.474229e-08 1.997155e-08 -1.478036e-08 2.960087e-08 -2.363652e-08 -2.620702e-08 1.857585e-09 5.102837e-08 -2.686972e-08 2.617689e-08 2.554969e-04 8.921730e-03 3.013610e-03 3.339416e-03 1.415289e-03 4.494441e-03 2.656440e-03 8.701694e-04 4.164455e-05 -2.680720e-03 2.008863e-03 1.527266e-03 -7.768044e-03
<VARIANCE> 25
 8.010428e+01 6.447190e+01 6.129801e+01 5.563667e+01 5.693787e+01 6.793896e+01 5.777367e+01 5.870519e+01 5.077291e+01 3.508834e+01 2.994463e+01 2.808895e+01 2.442041e+00 3.123486e+00 2.541938e+00 2.520905e+00 2.808165e+00 3.591736e+00 2.892799e+00 2.826015e+00 2.750362e+00 2.197500e+00 2.086234e+00 1.746541e+00 1.743600e+00
<GCONST> 1.051903e+02
<STATE> 3
<MEAN> 25
 3.775417e-09 1.618108e-08 -5.474229e-08 1.997155e-08 -1.478036e-08 2.960087e-08 -2.363652e-08 -2.620702e-08 1.857585e-09 5.102837e-08 -2.686972e-08 2.617689e-08 2.554969e-04 8.921730e-03 3.013610e-03 3.339416e-03 1.415289e-03 4.494441e-03 2.656440e-03 8.701694e-04 4.164455e-05 -2.680720e-03 2.008863e-03 1.527266e-03 -7.768044e-03
<VARIANCE> 25
 8.010428e+01 6.447190e+01 6.129801e+01 5.563667e+01 5.693787e+01 6.793896e+01 5.777367e+01 5.870519e+01 5.077291e+01 3.508834e+01 2.994463e+01 2.808895e+01 2.442041e+00 3.123486e+00 2.541938e+00 2.520905e+00 2.808165e+00 3.591736e+00 2.892799e+00 2.826015e+00 2.750362e+00 2.197500e+00 2.086234e+00 1.746541e+00 1.743600e+00
<GCONST> 1.051903e+02
<STATE> 4
<MEAN> 25
 3.775417e-09 1.618108e-08 -5.474229e-08 1.997155e-08 -1.478036e-08 2.960087e-08 -2.363652e-08 -2.620702e-08 1.857585e-09 5.102837e-08 -2.686972e-08 2.617689e-08 2.554969e-04 8.921730e-03 3.013610e-03 3.339416e-03 1.415289e-03 4.494441e-03 2.656440e-03 8.701694e-04 4.164455e-05 -2.680720e-03 2.008863e-03 1.527266e-03 -7.768044e-03
<VARIANCE> 25
 8.010428e+01 6.447190e+01 6.129801e+01 5.563667e+01 5.693787e+01 6.793896e+01 5.777367e+01 5.870519e+01 5.077291e+01 3.508834e+01 2.994463e+01 2.808895e+01 2.442041e+00 3.123486e+00 2.541938e+00 2.520905e+00 2.808165e+00 3.591736e+00 2.892799e+00 2.826015e+00 2.750362e+00 2.197500e+00 2.086234e+00 1.746541e+00 1.743600e+00
<GCONST> 1.051903e+02
<TRANSP> 5
 0.000000e+00 1.000000e+00 0.000000e+00 0.000000e+00 0.000000e+00
 0.000000e+00 6.000000e-01 4.000000e-01 0.000000e+00 0.000000e+00
 0.000000e+00 0.000000e+00 6.000000e-01 4.000000e-01 0.000000e+00
 0.000000e+00 0.000000e+00 0.000000e+00 7.000000e-01 3.000000e-01
 0.000000e+00 0.000000e+00 0.000000e+00 0.000000e+00 0.000000e+00
<ENDHMM>
~h "EH"
<BEGINHMM>
<NUMSTATES> 5
<STATE> 2
<MEAN> 25
 5.757223e+00 -2.823723e+00 -2.151515e+00 2.161158e-01 -1.667228e+00 -4.496038e+00 -2.614034e+00 -3.822034e+00 -6.001020e-01 1.514012e+00 1.380548e+00 -3.482701e-01 2.268601e+00 -9.889743e-02 -1.148371e+00 8.303951e-02 -6.385809e-01 -1.417923e+00 -2.944111e-01 -1.161541e+00 -6.536340e-01 7.808160e-01 3.370841e-01 -3.921692e-01 1.855763e+00
<VARIANCE> 25
 4.008064e+01 6.165711e+01 4.149262e+01 3.597147e+01 3.578111e+01 5.597486e+01 3.192553e+01 4.678256e+01 5.582618e+01 2.892168e+01 2.535180e+01 1.740137e+01 4.096117e+00 1.037076e+01 6.547242e+00 3.570886e+00 4.577165e+00 5.888777e+00 3.668107e+00 5.490300e+00 4.104025e+00 4.462783e+00 2.811809e+00 2.517630e+00 3.732584e+00
<GCONST> 1.088348e+02
<STATE> 3
<MEAN> 25
 9.424097e+00 -3.513319e+00 -4.425958e+00 1.484079e+00 -2.427554e+00 -6.782604e+00 -2.327890e+00 -5.735653e+00 -1.657207e+00 2.776371e+00 1.465343e+00 -1.346081e+00 1.024032e+00 1.446853e-01 -3.866576e-01 2.154313e-02 1.600501e-01 -4.244848e-01 3.983351e-02 -6.185795e-01 -3.897763e-01 2.853585e-01 -2.958912e-02 -3.022655e-01 9.779226e-01
<VARIANCE> 25
 1.951142e+01 4.305478e+01 2.529776e+01 3.090993e+01 3.404456e+01 3.508063e+01 3.211372e+01 3.935509e+01 6.192432e+01 3.352728e+01 2.696211e+01 1.788762e+01 1.769469e+00 4.762806e+00 4.031948e+00 2.797420e+00 2.901933e+00 3.816972e+00 2.921401e+00 3.629046e+00 3.611865e+00 2.963111e+00 2.441805e+00 2.115592e+00 1.609836e+00
<GCONST> 1.011952e+02
<STATE> 4
<MEAN> 25
 9.236437e+00 -3.464463e+00 -3.602171e+00 -9.175014e-01 -1.726706e+00 -4.965959e+00 -3.496474e+00 -6.024339e+00 6.982803e-02 5.582504e+00 1.666105e+00 -9.845820e-01 -7.535041e-02 5.726889e-01 3.772346e-01 -2.969710e-01 3.344772e-01 5.295682e-01 2.570830e-01 -1.037830e-01 -4.226126e-01 -2.441046e-01 3.457403e-02 3.044694e-01 -1.728239e-01
<VARIANCE> 25
 1.557695e+01 4.485651e+01 4.175172e+01 3.946030e+01 3.315953e+01 3.601367e+01 6.183181e+01 5.234283e+01 6.931637e+01 4.946293e+01 3.170947e+01 3.042298e+01 1.138796e+00 1.884091e+00 2.476933e+00 2.245131e+00 2.112536e+00 2.786542e+00 2.685592e+00 2.450165e+00 3.912210e+00 2.025190e+00 2.223433e+00 1.832335e+00 1.069020e+00
<GCONST> 9.975950e+01
<TRANSP> 5
 0.000000e+00 1.000000e+00 0.000000e+00 0.000000e+00 0.000000e+00
 0.000000e+00 2.916448e-01 7.083552e-01 0.000000e+00 0.000000e+00
 0.000000e+00 0.000000e+00 3.297088e-01 6.702912e-01 0.000000e+00
 0.000000e+00 0.000000e+00 0.000000e+00 7.773185e-01 2.226816e-01
 0.000000e+00 0.000000e+00 0.000000e+00 0.000000e+00 0.000000e+00
<ENDHMM>
~h "EN"
<BEGINHMM>
<NUMSTATES> 5
<STATE> 2
<MEAN> 25
 3.775417e-09 1.618108e-08 -5.474229e-08 1.997155e-08 -1.478036e-08 2.960087e-08 -2.363652e-08 -2.620702e-08 1.857585e-09 5.102837e-08 -2.686972e-08 2.617689e-08 2.554969e-04 8.921730e-03 3.013610e-03 3.339416e-03 1.415289e-03 4.494441e-03 2.656440e-03 8.701694e-04 4.164455e-05 -2.680720e-03 2.008863e-03 1.527266e-03 -7.768044e-03
<VARIANCE> 25
 8.010428e+01 6.447190e+01 6.129801e+01 5.563667e+01 5.693787e+01 6.793896e+01 5.777367e+01 5.870519e+01 5.077291e+01 3.508834e+01 2.994463e+01 2.808895e+01 2.442041e+00 3.123486e+00 2.541938e+00 2.520905e+00 2.808165e+00 3.591736e+00 2.892799e+00 2.826015e+00 2.750362e+00 2.197500e+00 2.086234e+00 1.746541e+00 1.743600e+00
<GCONST> 1.051903e+02
<STATE> 3
<MEAN> 25
 3.775417e-09 1.618108e-08 -5.474229e-08 1.997155e-08 -1.478036e-08 2.960087e-08 -2.363652e-08 -2.620702e-08 1.857585e-09 5.102837e-08 -2.686972e-08 2.617689e-08 2.554969e-04 8.921730e-03 3.013610e-03 3.339416e-03 1.415289e-03 4.494441e-03 2.656440e-03 8.701694e-04 4.164455e-05 -2.680720e-03 2.008863e-03 1.527266e-03 -7.768044e-03
<VARIANCE> 25
 8.010428e+01 6.447190e+01 6.129801e+01 5.563667e+01 5.693787e+01 6.793896e+01 5.777367e+01 5.870519e+01 5.077291e+01 3.508834e+01 2.994463e+01 2.808895e+01 2.442041e+00 3.123486e+00 2.541938e+00 2.520905e+00 2.808165e+00 3.591736e+00 2.892799e+00 2.826015e+00 2.750362e+00 2.197500e+00 2.086234e+00 1.746541e+00 1.743600e+00
<GCONST> 1.051903e+02
<STATE> 4
<MEAN> 25
 3.775417e-09 1.618108e-08 -5.474229e-08 1.997155e-08 -1.478036e-08 2.960087e-08 -2.363652e-08 -2.620702e-08 1.857585e-09 5.102837e-08 -2.686972e-08 2.617689e-08 2.554969e-04 8.921730e-03 3.013610e-03 3.339416e-03 1.415289e-03 4.494441e-03 2.656440e-03 8.701694e-04 4.164455e-05 -2.680720e-03 2.008863e-03 1.527266e-03 -7.768044e-03
<VARIANCE> 25
 8.010428e+01 6.447190e+01 6.129801e+01 5.563667e+01 5.693787e+01 6.793896e+01 5.777367e+01 5.870519e+01 5.077291e+01 3.508834e+01 2.994463e+01 2.808895e+01 2.442041e+00 3.123486e+00 2.541938e+00 2.520905e+00 2.808165e+00 3.591736e+00 2.892799e+00 2.826015e+00 2.750362e+00 2.197500e+00 2.086234e+00 1.746541e+00 1.743600e+00
<GCONST> 1.051903e+02
<TRANSP> 5
 0.000000e+00 1.000000e+00 0.000000e+00 0.000000e+00 0.000000e+00
 0.000000e+00 6.000000e-01 4.000000e-01 0.000000e+00 0.000000e+00
 0.000000e+00 0.000000e+00 6.000000e-01 4.000000e-01 0.000000e+00
 0.000000e+00 0.000000e+00 0.000000e+00 7.000000e-01 3.000000e-01
 0.000000e+00 0.000000e+00 0.000000e+00 0.000000e+00 0.000000e+00
<ENDHMM>
~h "ER"
<BEGINHMM>
<NUMSTATES> 5
<STATE> 2
<MEAN> 25
 8.311983e+00 5.904462e-01 -3.040961e+00 -1.766694e+00 2.824479e+00 -3.145463e+00 -3.775262e+00 -5.259427e+00 -7.576887e+00 -2.514002e+00 1.258146e+00 1.004790e+00 2.225057e+00 1.243953e+00 -1.493412e+00 -7.590804e-01 1.263633e-01 3.677052e-01 3.387337e-02 -1.556433e+00 -2.604206e+00 2.192899e-01 9.687833e-01 -5.246349e-03 7.902714e-01
<VARIANCE> 25
 2.192047e+01 4.720804e+01 4.576933e+01 5.585962e+01 3.553277e+01 5.935617e+01 5.781225e+01 5.810604e+01 4.606001e+01 4.092671e+01 3.772265e+01 2.412646e+01 3.946019e+00 5.030656e+00 5.092613e+00 4.090217e+00 3.995746e+00 6.578680e+00 5.253786e+00 4.001005e+00 4.895558e+00 5.329119e+00 3.424598e+00 2.342541e+00 1.444969e+00
<GCONST> 1.089152e+02
<STATE> 3
<MEAN> 25
 1.118889e+01 -2.674255e-01 -8.312434e+00 -9.595586e-01 1.856978e+00 -2.697634e+00 -1.283782e+00 -1.125974e+01 -1.047613e+01 2.108725e+00 5.328478e+00 -5.756559e-01 5.594487e-02 5.414271e-01 -2.855619e-01 -5.161440e-01 5.487673e-02 7.446404e-01 4.407621e-01 -2.105907e-01 -5.626620e-01 -1.330238e-01 5.523257e-01 1.458865e-01 -2.893313e-01
<VARIANCE> 25
 7.051369e+00 4.565877e+01 2.864595e+01 5.278976e+01 3.103073e+01 5.272607e+01 3.662257e+01 4.255860e+01 4.061535e+01 5.333895e+01 3.145579e+01 2.817429e+01 4.413654e-01 1.258978e+00 1.184148e+00 1.662097e+00 1.332194e+00 1.680554e+00 1.411655e+00 1.662741e+00 1.847220e+00 1.522788e+00 1.330158e+00 1.505206e+00 4.902035e-01
<GCONST> 9.102634e+01
<STATE> 4
<MEAN> 25
 7.816170e+00 5.390616e+00 -5.709233e+00 -4.034578e+00 3.285383e+00 4.680980e+00 1.233770e-01 -5.733438e+00 -9.568612e+00 -2.664452e+00 5.003685e+00 3.675207e+00 -5.671476e-01 -1.907669e-01 2.721955e-01 6.481847e-01 1.033334e-01 5.946650e-02 -1.403780e-01 2.095609e-01 8.150249e-01 1.577490e-01 -3.595631e-01 -1.305098e-01 -4.474405e-01
<VARIANCE> 25
 2.483670e+01 2.260854e+01 1.835281e+01 5.826304e+01 3.512270e+01 3.338322e+01 5.219987e+01 4.508173e+01 5.680610e+01 4.133222e+01 3.703848e+01 2.265828e+01 6.605759e-01 1.097417e+00 1.094398e+00 1.678553e+00 1.574023e+00 1.719481e+00 1.908784e+00 2.224013e+00 2.299109e+00 1.929256e+00 1.690747e+00 1.238316e+00 4.889442e-01
<GCONST> 9.281750e+01
<TRANSP> 5
 0.000000e+00 1.000000e+00 0.000000e+00 0.000000e+00 0.000000e+00
 0.000000e+00 6.114225e-01 3.885775e-01 0.000000e+00 0.000000e+00
 0.000000e+00 0.000000e+00 7.485471e-01 2.514528e-01 0.000000e+00
 0.000000e+00 0.000000e+00 0.000000e+00 8.716520e-01 1.283480e-01
 0.000000e+00 0.000000e+00 0.000000e+00 0.000000e+00 0.000000e+00
<ENDHMM>
~h "EY"
<BEGINHMM>
<NUMSTATES> 5
<STATE> 2
<MEAN> 25
 7.278610e+00 -3.823889e+00 3.119606e+00 1.142679e+01 2.337314e+00 -1.260487e+01 -9.754392e+00 -5.922624e+00 -9.931424e-01 3.111279e+00 -2.977814e+00 -6.159729e+00 7.201311e-02 -4.475605e-01 2.218056e-01 1.026968e+00 1.707784e-01 -1.165336e+00 -6.370855e-01 1.522025e-01 3.613479e-01 2.062591e-01 -6.048785e-01 -6.925754e-01 3.683079e-01
<VARIANCE> 25
 1.400692e+01 2.741607e+01 3.381782e+01 3.505815e+01 3.120726e+01 4.437451e+01 5.606885e+01 5.068242e+01 5.512018e+01 3.054602e+01 3.254436e+01 2.280058e+01 9.673047e-01 2.440142e+00 2.033779e+00 1.711814e+00 2.147880e+00 3.682177e+00 3.201037e+00 3.326596e+00 2.512864e+00 2.221916e+00 1.324151e+00 1.608091e+00 1.521434e+00
<GCONST> 9.763416e+01
<STATE> 3
<MEAN> 25
 7.759824e+00 -3.302013e+00 2.848398e+00 1.276466e+01 4.065086e+00 -1.384883e+01 -1.021105e+01 -7.040375e+00 -7.968646e-01 3.334177e+00 -4.109227e+00 -6.166624e+00 -8.445594e-02 7.844325e-01 -4.405015e-01 -4.563854e-01 5.614152e-01 1.346451e+00 1.787504e-01 -7.294748e-01 -1.068240e-01 6.030207e-02 2.744792e-01 3.434323e-01 -6.056451e-01
<VARIANCE> 25
 1.056096e+01 1.813344e+01 2.527142e+01 2.070053e+01 2.564218e+01 4.058039e+01 4.553473e+01 4.725708e+01 6.021760e+01 1.631687e+01 3.131684e+01 1.521348e+01 4.319921e-01 9.050589e-01 1.345658e+00 1.390399e+00 1.066704e+00 2.790205e+00 1.533197e+00 1.191664e+00 1.952340e+00 1.112835e+00 1.884460e+00 1.143374e+00 6.465269e-01
<GCONST> 8.762798e+01
<STATE> 4
<MEAN> 25
 5.966445e+00 2.323824e+00 -8.432220e-01 8.840758e+00 6.193477e+00 -4.107833e+00 -8.748067e+00 -7.021962e+00 -1.926580e+00 1.138062e-01 -1.785886e+00 -3.267576e+00 -9.834117e-01 9.420291e-01 -2.998567e-01 -1.730354e+00 7.472584e-02 2.498828e+00 1.656771e+00 9.237919e-01 -1.672162e-01 -8.381866e-01 4.549101e-01 1.081747e+00 -1.300299e+00
<VARIANCE> 25
 2.038197e+01 1.875269e+01 1.459817e+01 2.654534e+01 1.876118e+01 4.682092e+01 3.529499e+01 4.914124e+01 4.276619e+01 2.849804e+01 1.601756e+01 2.011323e+01 1.698195e+00 3.145627e+00 2.163395e+00 2.862176e+00 1.543705e+00 6.854305e+00 2.912548e+00 3.050769e+00 2.660101e+00 1.869275e+00 2.051610e+00 1.387166e+00 1.549358e+00
<GCONST> 9.609985e+01
<TRANSP> 5
 0.000000e+00 1.000000e+00 0.000000e+00 0.000000e+00 0.000000e+00
 0.000000e+00 8.102475e-01 1.897524e-01 0.000000e+00 0.000000e+00
 0.000000e+00 0.000000e+00 7.461588e-01 2.538411e-01 0.000000e+00
 0.000000e+00 0.000000e+00 0.000000e+00 6.263223e-01 3.736777e-01
 0.000000e+00 0.000000e+00 0.000000e+00 0.000000e+00 0.000000e+00
<ENDHMM>
~h "HH"
<BEGINHMM>
<NUMSTATES> 5
<STATE> 2
<MEAN> 25
 -1.568370e+00 -2.541313e+00 -4.820066e+00 1.065292e+00 -2.982727e-01 8.384490e-01 -6.699804e-01 1.452740e+00 1.635118e+00 1.745914e-02 1.183829e+00 9.055377e-01 2.783231e-02 -3.327593e-01 -6.156358e-01 -1.865242e-01 -8.685239e-03 8.034812e-02 1.856752e-01 5.676357e-01 6.660473e-01 3.258415e-01 8.579364e-02 -3.364676e-02 -2.917721e-02
<VARIANCE> 25
 1.966515e+01 3.889741e+01 2.291118e+01 3.653754e+01 2.287286e+01 3.319644e+01 2.728181e+01 3.546206e+01 3.356540e+01 1.947127e+01 2.112766e+01 1.539570e+01 7.043065e-01 2.279281e+00 1.693834e+00 1.962079e+00 1.507714e+00 2.324947e+00 2.140909e+00 2.297184e+00 1.778905e+00 1.710143e+00 1.707798e+00 1.299355e+00 4.475591e-01
<GCONST> 9.071806e+01
<STATE> 3
<MEAN> 25
 2.017059e+00 -1.233363e+01 -8.314179e+00 1.769569e+00 -4.087291e+00 -3.224195e+00 1.366494e+00 5.702224e+00 9.066607e+00 5.665489e+00 1.054232e+00 -6.938490e-01 2.931180e-01 -4.831567e-01 -7.215894e-01 -1.626022e-01 -3.156148e-01 -1.220815e-01 5.849241e-02 -1.604681e-01 9.495839e-02 1.731395e-01 -6.806568e-02 -4.856157e-02 1.581544e-01
<VARIANCE> 25
 2.275774e+01 4.706263e+01 4.030354e+01 4.927660e+01 4.133604e+01 5.637597e+01 3.472326e+01 3.486920e+01 3.253652e+01 3.905232e+01 2.362831e+01 2.043099e+01 7.424197e-01 2.384998e+00 1.960195e+00 2.099468e+00 1.681236e+00 2.143185e+00 1.767603e+00 2.763683e+00 1.595842e+00 1.485830e+00 1.449655e+00 1.332115e+00 6.346564e-01
<GCONST> 9.461763e+01
<STATE> 4
<MEAN> 25
 9.055657e-01 -9.355885e+00 -9.145337e+00 5.718980e-01 -3.882037e+00 -2.004097e+00 1.000300e+00 4.867184e+00 5.847038e+00 3.740736e+00 2.739372e+00 -1.788263e-01 1.267736e+00 1.126328e+00 7.873994e-01 1.836853e-01 1.130345e-01 -1.544789e-01 -1.274937e-01 -1.024247e+00 -6.719466e-01 -8.994132e-03 -1.050292e-02 -3.198198e-01 8.611174e-01
<VARIANCE> 25
 2.767998e+01 7.249352e+01 4.034343e+01 8.952115e+01 4.505478e+01 6.296722e+01 4.616153e+01 6.682748e+01 5.002845e+01 6.749149e+01 4.432176e+01 3.706958e+01 1.920719e+00 6.457798e+00 4.246526e+00 3.089475e+00 3.585018e+00 5.491616e+00 1.970057e+00 4.696844e+00 3.606374e+00 3.462396e+00 3.133849e+00 2.594265e+00 1.208195e+00
<GCONST> 1.083630e+02
<TRANSP> 5
 0.000000e+00 1.000000e+00 0.000000e+00 0.000000e+00 0.000000e+00
 0.000000e+00 7.836475e-01 2.163525e-01 0.000000e+00 0.000000e+00
 0.000000e+00 0.000000e+00 7.098875e-01 2.901125e-01 0.000000e+00
 0.000000e+00 0.000000e+00 0.000000e+00 5.648417e-01 4.351584e-01
 0.000000e+00 0.000000e+00 0.000000e+00 0.000000e+00 0.000000e+00
<ENDHMM>
~h "IH"
<BEGINHMM>
<NUMSTATES> 5
<STATE> 2
<MEAN> 25
 1.275893e+00 -1.232730e-01 3.918217e-01 1.530684e+00 1.370724e+00 -1.878897e+00 -2.922696e+00 -3.282848e+00 -2.188818e+00 -1.053781e+00 -4.437959e-01 6.293994e-01 1.321126e+00 -4.700803e-01 2.328946e-01 1.400214e+00 3.661363e-01 -1.405328e+00 -1.265752e+00 -1.384156e+00 -6.499352e-01 4.445969e-01 -2.840190e-01 -3.539377e-01 1.112152e+00
<VARIANCE> 25
 5.642133e+01 4.148405e+01 5.700985e+01 4.775603e+01 4.519088e+01 6.254250e+01 4.340267e+01 6.625165e+01 5.076247e+01 3.673938e+01 2.521686e+01 2.867606e+01 5.213865e+00 5.532009e+00 5.028775e+00 4.589596e+00 3.625300e+00 9.092560e+00 5.642875e+00 6.615325e+00 5.692550e+00 4.095787e+00 3.205811e+00 3.414347e+00 5.406427e+00
<GCONST> 1.124854e+02
<STATE> 3
<MEAN> 25
 7.362352e+00 -2.929834e+00 9.727039e-01 6.625073e+00 2.061335e+00 -7.389326e+00 -6.248445e+00 -8.345865e+00 -5.303776e+00 7.573305e-01 -7.601147e-01 -2.138075e+00 7.846677e-01 -3.686471e-01 1.328483e-01 1.082911e+00 5.185031e-01 -1.014466e+00 -7.453628e-01 -6.468304e-01 -1.642044e-01 4.529433e-01 -4.893491e-02 -5.036917e-01 9.489644e-01
<VARIANCE> 25
 1.568279e+01 4.755204e+01 3.141497e+01 4.500180e+01 3.813927e+01 4.410590e+01 4.184223e+01 3.896721e+01 3.391826e+01 4.007706e+01 2.704178e+01 2.578968e+01 3.473706e+00 3.734585e+00 3.288231e+00 3.140465e+00 3.224570e+00 5.264118e+00 3.721365e+00 4.480469e+00 4.526802e+00 3.397212e+00 2.623383e+00 2.415146e+00 3.220121e+00
<GCONST> 1.046936e+02
<STATE> 4
<MEAN> 25
 7.698908e+00 -2.519385e+00 1.918129e+00 6.717210e+00 3.911372e+00 -6.774315e+00 -7.585897e+00 -9.696349e+00 -3.996110e+00 2.105822e+00 -7.400942e-01 -2.683081e+00 -3.779158e-01 7.179137e-01 2.182979e-01 -5.665842e-01 2.951475e-01 1.109022e+00 4.675757e-01 4.109147e-01 3.225204e-01 -4.510016e-01 4.509504e-02 2.388490e-01 -4.870299e-01
<VARIANCE> 25
 1.110947e+01 3.323986e+01 3.150034e+01 3.934696e+01 3.584022e+01 5.213935e+01 4.332387e+01 4.105278e+01 4.202516e+01 3.822227e+01 3.647808e+01 3.201952e+01 1.637954e+00 2.672734e+00 2.251847e+00 2.726007e+00 2.751802e+00 3.063158e+00 2.702367e+00 2.814265e+00 3.002140e+00 2.391013e+00 2.560310e+00 1.679364e+00 1.739901e+00
<GCONST> 9.987727e+01
<TRANSP> 5
 0.000000e+00 1.000000e+00 0.000000e+00 0.000000e+00 0.000000e+00
 0.000000e+00 4.898992e-01 5.101008e-01 0.000000e+00 0.000000e+00
 0.000000e+00 0.000000e+00 3.354735e-01 6.645265e-01 0.000000e+00
 0.000000e+00 0.000000e+00 0.000000e+00 6.848837e-01 3.151164e-01
 0.000000e+00 0.000000e+00 0.000000e+00 0.000000e+00 0.000000e+00
<ENDHMM>
~h "IY"
<BEGINHMM>
<NUMSTATES> 5
<STATE> 2
<MEAN> 25
 4.730637e+00 -1.204091e+00 4.043037e+00 7.906139e+00 6.287199e+00 -7.435859e+00 -6.983159e+00 -6.917270e+00 -4.984326e+00 3.145292e-01 -1.374687e+00 -4.439089e+00 3.659641e-01 -7.299794e-01 1.031331e+00 2.458906e+00 9.582914e-01 -2.572830e+00 -2.107948e+00 -1.557101e-01 4.177258e-01 8.500383e-01 -9.433099e-01 -1.678089e+00 8.919347e-01
<VARIANCE> 25
 2.166723e+01 2.323540e+01 4.365388e+01 5.070970e+01 5.186899e+01 6.066570e+01 3.827375e+01 4.607197e+01 5.792899e+01 3.702338e+01 3.398191e+01 3.713869e+01 3.028222e+00 3.782016e+00 2.296961e+00 2.784280e+00 4.485999e+00 5.051410e+00 3.639161e+00 4.859781e+00 5.411466e+00 3.802707e+00 3.648933e+00 2.097577e+00 1.772584e+00
<GCONST> 1.061302e+02
<STATE> 3
<MEAN> 25
 5.008711e+00 -2.952635e+00 7.075411e+00 1.416520e+01 5.628614e+00 -1.416302e+01 -9.343884e+00 -4.079320e+00 -3.542602e+00 1.111709e+00 -5.183792e+00 -8.555902e+00 -8.441328e-02 -6.838524e-02 1.654755e-01 1.821162e-01 -1.313832e-01 -6.788515e-02 -2.633101e-01 1.250396e-01 3.700612e-01 4.831137e-02 -3.208971e-01 -2.360907e-01 -7.876686e-02
<VARIANCE> 25
 1.002029e+01 2.405056e+01 3.569207e+01 2.461875e+01 5.176549e+01 5.120365e+01 3.405811e+01 4.349913e+01 3.106953e+01 2.967465e+01 2.961543e+01 2.631884e+01 2.485337e-01 6.836750e-01 1.052562e+00 1.388047e+00 1.190167e+00 1.698631e+00 1.205933e+00 1.959361e+00 1.362447e+00 1.352673e+00 1.340214e+00 1.251493e+00 2.993584e-01
<GCONST> 8.697147e+01
<STATE> 4
<MEAN> 25
 4.247326e+00 -5.882884e-01 4.121400e+00 9.436422e+00 6.241283e+00 -6.184900e+00 -1.041464e+01 -6.090158e+00 -3.647653e-01 1.109971e+00 -3.751936e+00 -6.762444e+00 -2.945903e-01 6.504891e-01 -8.228840e-01 -1.498237e+00 -1.606529e-01 1.865083e+00 9.746443e-01 -3.765016e-02 9.997302e-02 -2.621931e-01 6.596650e-01 1.161119e+00 -7.000859e-01
<VARIANCE> 25
 1.687169e+01 2.809239e+01 3.270296e+01 3.744326e+01 3.292358e+01 6.623119e+01 4.287268e+01 4.997504e+01 4.956337e+01 3.361293e+01 2.398833e+01 3.601377e+01 9.578835e-01 1.664742e+00 2.075435e+00 1.929718e+00 2.090928e+00 2.931584e+00 2.975458e+00 3.903389e+00 2.973818e+00 2.636892e+00 2.318022e+00 2.073004e+00 1.018200e+00
<GCONST> 9.852185e+01
<TRANSP> 5
 0.000000e+00 1.000000e+00 0.000000e+00 0.000000e+00 0.000000e+00
 0.000000e+00 6.755342e-01 3.244658e-01 0.000000e+00 0.000000e+00
 0.000000e+00 0.000000e+00 8.463230e-01 1.536770e-01 0.000000e+00
 0.000000e+00 0.000000e+00 0.000000e+00 7.815329e-01 2.184672e-01
 0.000000e+00 0.000000e+00 0.000000e+00 0.000000e+00 0.000000e+00
<ENDHMM>
~h "JH"
<BEGINHMM>
<NUMSTATES> 5
<STATE> 2
<MEAN> 25
 1.266734e+00 2.108152e-01 7.560985e-01 9.176020e+00 6.515696e+00 2.532679e+00 -2.472622e+00 5.634128e-01 5.628681e+00 -1.455397e+00 -3.261715e+00 1.114680e+00 -1.609328e+00 -4.460310e+00 6.567966e-01 1.076240e+00 -4.708090e-01 -1.820558e-01 -6.131366e-01 8.333527e-01 2.146044e+00 -3.134216e-01 -2.151960e-01 3.805794e-01 1.250632e+00
<VARIANCE> 25
 2.256669e+01 8.828412e+01 1.898019e+01 4.330815e+01 2.991352e+01 2.664380e+01 3.571564e+01 3.868699e+01 4.871416e+01 2.723797e+01 2.811707e+01 1.577728e+01 2.994101e+00 8.337657e+00 4.952675e+00 3.518869e+00 2.314251e+00 3.837070e+00 3.345759e+00 4.377047e+00 3.443962e+00 3.677853e+00 1.938001e+00 1.274649e+00 3.178006e+00
<GCONST> 1.029961e+02
<STATE> 3
<MEAN> 25
 -7.941339e+00 -1.767667e+01 8.995022e+00 5.907127e+00 -3.609115e+00 -1.596259e+00 -2.288904e+00 4.276679e+00 7.766395e+00 -4.835895e+00 3.204821e-01 2.403994e+00 -1.385711e+00 -3.272186e+00 2.793749e+00 -1.015577e-01 -8.804736e-01 -1.040291e+00 -8.481315e-01 -8.976110e-01 2.340253e-01 -3.198856e-01 2.651857e-01 -6.626360e-01 2.493873e+00
<VARIANCE> 25
 3.388166e+01 3.410594e+01 4.799233e+01 4.652581e+01 8.242954e+01 2.906808e+01 3.835653e+01 6.552956e+01 5.453275e+01 3.631730e+01 3.768046e+01 8.253855e+00 5.337742e+00 7.499417e+00 6.163204e+00 3.187083e+00 6.283519e+00 2.645177e+00 2.246099e+00 4.447585e+00 2.279933e+00 2.506858e+00 2.789944e+00 1.555636e+00 8.320935e+00
<GCONST> 1.067617e+02
<STATE> 4
<MEAN> 25
 -2.685477e+00 -1.551862e+01 8.864483e+00 8.361220e+00 6.137984e+00 -1.897306e+00 -1.299710e+01 -1.346203e+00 7.472247e+00 -2.871177e+00 -2.061544e-01 -4.170892e-02 2.268004e+00 2.716818e+00 -8.147371e-01 -1.246498e-01 7.496349e-01 -3.677388e-01 -1.286942e+00 -1.230550e+00 -1.873070e+00 5.889000e-02 2.595515e-01 -1.318922e-01 -2.881200e-01
<VARIANCE> 25
 6.736751e+01 8.089486e+01 5.424835e+01 3.870833e+01 6.261958e+01 4.132874e+01 1.178673e+02 8.195460e+01 4.420020e+01 2.827669e+01 2.152106e+01 1.552927e+01 3.532848e+00 6.275856e+00 1.978913e+00 3.845698e+00 3.829603e+00 2.446049e+00 4.828935e+00 3.901753e+00 3.930655e+00 2.119911e+00 1.977175e+00 1.997584e+00 7.331682e-01
<GCONST> 1.056618e+02
<TRANSP> 5
 0.000000e+00 1.000000e+00 0.000000e+00 0.000000e+00 0.000000e+00
 0.000000e+00 6.759824e-01 3.240176e-01 0.000000e+00 0.000000e+00
 0.000000e+00 0.000000e+00 6.180335e-01 3.819664e-01 0.000000e+00
 0.000000e+00 0.000000e+00 0.000000e+00 7.551153e-01 2.448847e-01
 0.000000e+00 0.000000e+00 0.000000e+00 0.000000e+00 0.000000e+00
<ENDHMM>
~h "NG"
<BEGINHMM>
<NUMSTATES> 5
<STATE> 2
<MEAN> 25
 5.784047e+00 7.183979e-01 3.332844e+00 3.531229e+00 9.452814e+00 -1.024581e+01 -1.069662e+01 1.304234e+00 9.366228e-01 -1.742555e+00 5.244034e+00 -1.897990e+00 3.730808e-01 -3.070627e-01 9.711624e-01 -1.186410e-01 -4.633543e-01 -2.350292e-01 -9.619681e-01 1.291219e+00 -3.786550e-01 1.788212e+00 3.026466e-01 -1.747139e+00 1.444715e-01
<VARIANCE> 25
 1.861745e+01 7.015613e+01 1.618334e+01 3.216710e+01 6.719695e+01 4.881005e+01 8.257224e+01 6.500791e+01 4.720933e+01 4.869313e+01 3.351493e+01 2.021364e+01 1.427007e+00 3.043238e+00 2.081720e+00 2.130502e+00 4.012450e+00 4.374722e+00 4.633567e+00 6.404563e+00 3.760222e+00 4.614933e+00 2.852647e+00 2.753504e+00 1.145014e+00
<GCONST> 1.045828e+02
<STATE> 3
<MEAN> 25
 7.820263e+00 2.275553e+00 2.002166e+00 4.888767e+00 6.519622e+00 -6.740355e+00 -1.065660e+01 8.021453e-01 -9.392148e-01 2.177109e+00 3.678998e+00 -5.106484e+00 3.468383e-02 7.101678e-01 -2.824913e-01 2.047957e-01 -1.350299e-01 1.190231e+00 2.728780e-01 -8.303648e-01 5.596609e-01 2.961240e-01 -5.571575e-01 -1.643682e-01 -5.547712e-01
<VARIANCE> 25
 5.114223e+00 3.555677e+01 1.629600e+01 1.952397e+01 5.322271e+01 4.072640e+01 4.289469e+01 5.288247e+01 3.635941e+01 3.345209e+01 3.065761e+01 4.531772e+01 5.023269e-01 1.539487e+00 6.818029e-01 8.997739e-01 3.724387e+00 3.370801e+00 2.900675e+00 3.944423e+00 3.382428e+00 1.802736e+00 2.174349e+00 3.026390e+00 5.634646e-01
<GCONST> 9.400092e+01
<STATE> 4
<MEAN> 25
 3.496417e+00 6.848307e+00 2.743858e+00 4.761323e+00 3.169136e+00 1.417360e+00 -5.462353e+00 -2.728048e+00 7.395218e-01 4.315242e-01 8.628944e-02 -1.293577e+00 -3.904521e-01 2.476783e-02 -2.457822e-02 -1.510045e-01 -6.799763e-02 3.411281e-01 5.667418e-01 3.142343e-01 4.576597e-02 -3.420982e-01 -1.783063e-01 2.765414e-01 -3.173057e-01
<VARIANCE> 25
 2.275436e+01 3.165122e+01 2.176806e+01 2.046693e+01 2.207598e+01 2.531135e+01 3.169964e+01 3.363865e+01 2.634614e+01 2.883964e+01 1.824979e+01 2.463963e+01 4.777462e-01 5.866501e-01 9.149251e-01 1.253987e+00 1.242664e+00 1.562651e+00 1.279753e+00 1.958754e+00 2.026967e+00 1.521760e+00 2.119737e+00 1.333024e+00 2.102770e-01
<GCONST> 8.571886e+01
<TRANSP> 5
 0.000000e+00 1.000000e+00 0.000000e+00 0.000000e+00 0.000000e+00
 0.000000e+00 5.565575e-01 4.434425e-01 0.000000e+00 0.000000e+00
 0.000000e+00 0.000000e+00 8.308265e-01 1.691735e-01 0.000000e+00
 0.000000e+00 0.000000e+00 0.000000e+00 9.138737e-01 8.612625e-02
 0.000000e+00 0.000000e+00 0.000000e+00 0.000000e+00 0.000000e+00
<ENDHMM>
~h "OW"
<BEGINHMM>
<NUMSTATES> 5
<STATE> 2
<MEAN> 25
 6.011200e+00 3.544644e+00 7.996804e-01 -4.585442e+00 -4.488554e+00 -5.455752e+00 -2.878171e-01 -1.057314e+00 -1.069218e+00 -2.050913e+00 -3.252704e+00 -1.962872e+00 2.395175e+00 8.655816e-01 8.262712e-01 3.771264e-02 -2.319119e+00 -1.944026e+00 -1.261767e+00 4.814638e-01 1.023353e-02 -1.002637e-01 -1.293170e+00 -4.447540e-01 1.171425e+00
<VARIANCE> 25
 5.035077e+01 1.818816e+01 3.639331e+01 3.203370e+01 6.180034e+01 5.914599e+01 4.108853e+01 3.222732e+01 3.370351e+01 2.314956e+01 2.096432e+01 2.520466e+01 4.273734e+00 4.348079e+00 5.394890e+00 4.776220e+00 1.353207e+01 5.852107e+00 6.914121e+00 4.999763e+00 2.873117e+00 3.835586e+00 4.392798e+00 3.972582e+00 1.685294e+00
<GCONST> 1.080170e+02
<STATE> 3
<MEAN> 25
 1.002222e+01 3.342591e+00 -1.029600e+00 -5.390591e+00 -8.623885e+00 -6.805776e+00 -1.551978e+00 3.395015e+00 -2.296992e+00 -3.973755e+00 -4.692619e+00 -2.645405e+00 4.070840e-01 -3.553326e-02 2.002677e-01 2.997351e-01 -2.015180e-01 -6.962840e-01 -4.122175e-01 8.725896e-01 3.616289e-01 -5.173689e-01 -4.002988e-01 -3.547011e-01 3.424641e-01
<VARIANCE> 25
 1.297942e+01 1.660541e+01 3.356079e+01 2.716594e+01 7.087594e+01 4.776898e+01 6.150099e+01 9.203272e+01 4.614749e+01 2.744965e+01 2.495761e+01 2.100194e+01 8.828270e-01 1.531035e+00 1.941116e+00 2.220165e+00 7.148410e+00 3.347168e+00 3.409538e+00 4.179287e+00 1.579262e+00 2.771384e+00 2.127618e+00 1.411129e+00 1.177323e+00
<GCONST> 9.864267e+01
<STATE> 4
<MEAN> 25
 9.923716e+00 3.132572e+00 -2.983718e-01 -3.503700e+00 -4.202336e+00 -5.138312e+00 -2.484681e+00 1.474778e+00 -6.656489e-01 -2.432354e+00 -5.000548e+00 -4.762630e+00 -3.482106e-01 1.187549e-01 9.316751e-02 3.856282e-01 6.155449e-01 4.281908e-01 -5.291805e-03 -1.896308e-01 -5.436242e-02 7.812880e-02 1.090790e-01 5.525209e-02 -3.917297e-01
<VARIANCE> 25
 9.358134e+00 1.907184e+01 1.482446e+01 2.112534e+01 4.509418e+01 4.472379e+01 6.831860e+01 5.323185e+01 7.126305e+01 3.304500e+01 2.716397e+01 3.018264e+01 3.880679e-01 9.964809e-01 7.999562e-01 1.025199e+00 1.843410e+00 1.931208e+00 1.398233e+00 1.724396e+00 1.592006e+00 1.199296e+00 1.274409e+00 1.653156e+00 3.446242e-01
<GCONST> 8.848768e+01
<TRANSP> 5
 0.000000e+00 1.000000e+00 0.000000e+00 0.000000e+00 0.000000e+00
 0.000000e+00 4.095384e-01 5.904616e-01 0.000000e+00 0.000000e+00
 0.000000e+00 0.000000e+00 4.288759e-01 5.711241e-01 0.000000e+00
 0.000000e+00 0.000000e+00 0.000000e+00 8.421291e-01 1.578708e-01
 0.000000e+00 0.000000e+00 0.000000e+00 0.000000e+00 0.000000e+00
<ENDHMM>
~h "OY"
<BEGINHMM>
<NUMSTATES> 5
<STATE> 2
<MEAN> 25
 9.831620e+00 3.102679e+00 7.770919e-01 -7.815290e+00 -1.145355e+01 -1.241459e+01 -1.343465e-01 2.809098e+00 -2.995135e+00 -2.807344e+00 -3.286539e+00 -6.738873e+00 3.487064e-01 -8.479783e-01 -1.136190e+00 2.588328e-01 9.129390e-02 4.918513e-01 5.737851e-01 1.964118e-01 -4.716611e-01 -8.409013e-01 -2.276419e-01 5.759801e-01 5.096224e-01
<VARIANCE> 25
 9.670819e+00 7.621517e+01 3.084287e+01 1.850317e+01 5.790694e+01 2.900156e+01 6.721642e+01 3.180868e+01 3.079324e+01 2.333181e+01 1.098938e+01 2.022536e+01 3.604073e-01 1.910049e+00 2.159665e+00 1.279174e+00 5.414630e+00 3.780211e+00 2.752889e+00 2.530559e+00 4.421495e+00 1.772228e+00 1.105214e+00 2.135662e+00 5.274379e-01
<GCONST> 9.385181e+01
<STATE> 3
<MEAN> 25
 9.090309e+00 -7.690530e-01 -3.614996e+00 -4.064979e+00 -3.517975e+00 -6.767609e+00 -1.841605e+00 -2.799411e+00 -4.201934e+00 2.542308e-01 2.566875e-01 -2.991019e+00 -6.241519e-02 -1.597126e-01 -1.025510e-01 1.507885e+00 1.950085e+00 3.517869e-01 -1.364918e+00 -1.555603e+00 4.358625e-01 9.776617e-01 3.570237e-01 -3.221036e-01 8.472279e-02
<VARIANCE> 25
 1.145023e+01 4.536519e+01 1.652923e+01 3.450310e+01 5.659042e+01 3.146699e+01 3.327637e+01 8.323753e+01 5.741455e+01 3.883611e+01 1.815603e+01 1.757719e+01 9.025123e-01 2.170686e+00 3.062215e+00 1.590043e+00 2.963688e+00 3.194263e+00 1.740319e+00 5.230876e+00 4.680316e+00 3.474725e+00 2.799139e+00 2.245428e+00 4.084384e-01
<GCONST> 9.787592e+01
<STATE> 4
<MEAN> 25
 4.058158e+00 1.334522e-01 -3.046324e+00 2.756683e+00 2.609411e+00 -2.846563e+00 -5.919922e+00 -2.967333e+00 -7.536178e-01 1.173180e+00 -1.752129e+00 -4.114121e+00 -8.348435e-01 -1.687521e-02 4.200179e-01 5.620251e-01 1.340159e-01 4.532005e-02 -3.290147e-02 1.458487e-01 2.364108e-01 -2.549812e-01 -1.376895e-01 1.593791e-01 -6.300947e-01
<VARIANCE> 25
 4.044205e+01 1.259123e+01 2.103634e+01 4.776768e+01 4.829327e+01 4.720812e+01 5.541664e+01 6.033154e+01 1.793970e+01 1.936468e+01 1.218603e+01 2.142859e+01 5.700055e-01 5.598378e-01 4.701689e-01 1.055335e+00 1.015470e+00 1.461948e+00 1.302290e+00 1.288450e+00 7.906823e-01 1.245560e+00 8.932214e-01 7.412391e-01 3.544430e-01
<GCONST> 8.395929e+01
<TRANSP> 5
 0.000000e+00 1.000000e+00 0.000000e+00 0.000000e+00 0.000000e+00
 0.000000e+00 6.065015e-01 3.934985e-01 0.000000e+00 0.000000e+00
 0.000000e+00 0.000000e+00 8.071278e-01 1.928722e-01 0.000000e+00
 0.000000e+00 0.000000e+00 0.000000e+00 7.957009e-01 2.042991e-01
 0.000000e+00 0.000000e+00 0.000000e+00 0.000000e+00 0.000000e+00
<ENDHMM>
~h "SH"
<BEGINHMM>
<NUMSTATES> 5
<STATE> 2
<MEAN> 25
 -2.900517e-01 -1.373947e+01 7.067508e-01 8.906764e+00 4.048202e+00 -8.360136e-01 -5.432643e+00 -1.471698e+00 4.509773e+00 -1.562598e+00 -5.599269e-01 4.096698e+00 -2.284205e+00 -5.782148e+00 1.801857e+00 1.101022e+00 -1.043980e+00 5.750275e-01 -1.103423e+00 5.890231e-01 3.143940e+00 3.985441e-02 1.898502e-02 6.809818e-01 1.554949e+00
<VARIANCE> 25
 3.514387e+01 1.199078e+02 4.229189e+01 2.800722e+01 4.482069e+01 5.163628e+01 2.694111e+01 8.137518e+01 6.255707e+01 1.600977e+01 2.414809e+01 2.317819e+01 8.201858e-01 4.157147e+00 3.249176e+00 3.211795e+00 3.370101e+00 5.865879e+00 4.376685e+00 3.395710e+00 4.645345e+00 2.273412e+00 2.452432e+00 3.082565e+00 2.226345e+00
<GCONST> 1.044815e+02
<STATE> 3
<MEAN> 25
 -2.046483e+00 -2.660735e+01 -9.116024e-03 8.916519e+00 -2.373555e+00 3.627720e+00 -7.879001e+00 -9.254048e+00 1.111220e+01 2.109524e+00 -4.057817e+00 6.144824e+00 1.079060e-01 1.504358e+00 -4.454679e-01 -5.952233e-01 7.787238e-01 2.160161e-01 7.361417e-01 -1.103730e-01 -7.633588e-01 -6.762290e-02 -1.131278e-01 -1.069308e-01 -4.508027e-01
<VARIANCE> 25
 1.054387e+01 3.471450e+01 3.430241e+01 1.062872e+01 2.601357e+01 2.995384e+01 2.296837e+01 5.645295e+01 2.398976e+01 1.995736e+01 1.381901e+01 2.098926e+01 1.023114e+00 9.755472e+00 2.559040e+00 1.673706e+00 3.055173e+00 1.978015e+00 3.201033e+00 5.817161e+00 2.416778e+00 2.505102e+00 1.809849e+00 2.560664e+00 1.154212e+00
<GCONST> 9.537175e+01
<STATE> 4
<MEAN> 25
 -9.270431e+00 -2.077678e+01 7.667513e+00 8.364655e+00 5.011856e+00 -4.816520e+00 -7.369158e+00 5.415817e+00 1.102371e+01 -4.839972e+00 -9.844959e-01 2.964055e+00 1.035428e+00 1.581328e+00 -2.366946e-01 -1.621150e-01 -3.276324e-01 -4.075089e-01 -3.275765e-01 -5.545984e-02 -4.143251e-01 -1.509275e-01 -5.667533e-02 -3.034967e-01 -1.659992e-01
<VARIANCE> 25
 3.960571e+01 6.811546e+01 4.002434e+01 1.677234e+01 3.329829e+01 3.701344e+01 3.228144e+01 4.653282e+01 3.529840e+01 1.168203e+01 1.168637e+01 1.103108e+01 5.551036e+00 9.437191e+00 2.632968e+00 2.077131e+00 3.091754e+00 2.870298e+00 2.331758e+00 2.295286e+00 2.740007e+00 1.042838e+00 1.158151e+00 1.761982e+00 7.397478e-01
<GCONST> 9.664888e+01
<TRANSP> 5
 0.000000e+00 1.000000e+00 0.000000e+00 0.000000e+00 0.000000e+00
 0.000000e+00 7.469496e-01 2.530504e-01 0.000000e+00 0.000000e+00
 0.000000e+00 0.000000e+00 7.761595e-01 2.238405e-01 0.000000e+00
 0.000000e+00 0.000000e+00 0.000000e+00 8.647888e-01 1.352113e-01
