~o
<STREAMINFO> 1 25
<VECSIZE> 25<NULLD><MFCC_D_N_Z_0><DIAGC>
~s "silst"
<MEAN> 25
 -5.069170e+00 3.124374e+00 -5.479339e+00 2.470532e+00 -2.666342e-01 7.192885e+00 2.293802e-01 5.910823e+00 1.216590e+00 3.503809e-01 -8.058229e-02 2.382953e+00 -6.957323e-03 6.522747e-02 -2.941065e-02 1.261536e-02 -2.048344e-02 1.035395e-03 -5.097176e-04 1.031798e-02 -3.106712e-03 -8.181544e-03 -2.865761e-02 1.493328e-02 -6.015219e-02
<VARIANCE> 25
 3.730121e+00 1.529998e+01 1.258231e+01 6.731433e+00 8.561202e+00 8.747960e+00 1.013177e+01 1.074884e+01 9.659708e+00 1.017416e+01 9.093657e+00 1.032028e+01 7.105993e-02 1.871975e-01 2.667769e-01 3.709156e-01 4.862626e-01 5.978832e-01 7.088737e-01 7.532690e-01 7.859892e-01 7.761433e-01 7.587706e-01 7.326918e-01 3.358847e-02
<GCONST> 5.959573e+01
~h "B"
<BEGINHMM>
<NUMSTATES> 5
<STATE> 2
<MEAN> 25
 -5.199512e+00 3.193320e+00 -1.101131e+00 7.239389e-01 1.706901e+00 5.117085e+00 1.637998e+00 4.306714e+00 2.328678e+00 1.028335e+00 6.556990e-01 1.890052e+00 -1.932580e-01 -2.000594e-02 -4.320316e-02 -6.050438e-03 1.952976e-03 8.160249e-02 2.551625e-02 1.427793e-01 1.104629e-01 5.024221e-02 2.367450e-02 2.726740e-02 -2.530806e-01
<VARIANCE> 25
 2.572038e+01 1.757313e+01 1.989971e+01 2.105094e+01 1.575214e+01 1.559470e+01 1.420094e+01 1.731393e+01 1.947589e+01 1.690448e+01 1.102615e+01 1.194273e+01 6.788734e-01 9.067170e-01 8.481764e-01 9.136020e-01 1.027543e+00 1.164021e+00 1.096175e+00 1.219754e+00 1.234939e+00 1.013017e+00 1.022852e+00 8.591782e-01 7.582605e-01
<GCONST> 7.933139e+01
<STATE> 3
<MEAN> 25
 -2.317535e+00 2.485917e+00 -1.004114e+00 -1.354400e-01 1.026838e+00 3.851896e+00 1.165624e+00 3.245968e+00 1.732750e+00 -6.608728e-01 1.112706e-01 1.453041e+00 1.862399e+00 -1.638247e+00 -3.553669e-01 -6.760682e-01 -1.409547e+00 -2.437230e+00 -6.435701e-01 -1.399135e+00 -6.856068e-01 -3.630743e-01 5.422585e-03 2.008681e-02 2.857649e+00
<VARIANCE> 25
 3.111839e+01 3.070104e+01 2.357032e+01 1.928840e+01 2.011458e+01 1.955769e+01 1.712498e+01 2.128144e+01 1.466391e+01 1.589147e+01 1.291159e+01 1.261754e+01 5.114489e+00 3.794801e+00 3.772947e+00 3.309507e+00 4.134791e+00 6.051005e+00 2.707241e+00 2.788817e+00 2.878942e+00 2.595335e+00 2.094306e+00 2.131413e+00 3.933204e+00
<GCONST> 9.695427e+01
<STATE> 4
<MEAN> 25
 3.919420e+00 9.556539e-01 1.748296e-01 -2.938596e+00 -3.910049e+00 -5.250638e+00 7.985928e-01 8.404728e-01 1.421599e-01 -3.059377e+00 -3.020959e+00 5.050495e-01 2.123923e+00 -2.671905e-01 2.561777e-01 -4.201208e-01 -1.461355e+00 -1.861529e+00 -1.520965e-01 -7.775987e-01 -2.955422e-01 2.626701e-01 -9.271100e-01 -4.533938e-01 2.264587e+00
<VARIANCE> 25
 6.051587e+01 4.946366e+01 3.455759e+01 3.384954e+01 6.255640e+01 7.995721e+01 3.705487e+01 4.624591e+01 4.101861e+01 4.234931e+01 4.871785e+01 2.350012e+01 5.780132e+00 5.710870e+00 4.137957e+00 4.455048e+00 7.671220e+00 9.869062e+00 5.575994e+00 5.886751e+00 5.332639e+00 3.707817e+00 4.951503e+00 3.687196e+00 5.352561e+00
<GCONST> 1.132781e+02
<TRANSP> 5
 0.000000e+00 1.000000e+00 0.000000e+00 0.000000e+00 0.000000e+00
 0.000000e+00 9.456700e-01 5.432999e-02 0.000000e+00 0.000000e+00
 0.000000e+00 0.000000e+00 4.381141e-01 5.618860e-01 0.000000e+00
 0.000000e+00 0.000000e+00 0.000000e+00 4.989304e-01 5.010696e-01
 0.000000e+00 0.000000e+00 0.000000e+00 0.000000e+00 0.000000e+00
<ENDHMM>
~h "D"
<BEGINHMM>
<NUMSTATES> 5
<STATE> 2
<MEAN> 25
 2.985049e+00 4.397385e+00 9.596948e-01 4.439768e+00 4.230821e+00 1.914163e+00 -2.673419e+00 -2.120214e+00 -1.483721e+00 -1.315750e+00 -5.642303e-01 -3.257548e-01 -8.921947e-01 7.387619e-02 -7.235231e-02 -6.194238e-02 3.430399e-01 8.026254e-01 4.646680e-01 6.796277e-01 6.709074e-01 4.749472e-02 2.387138e-01 3.262956e-01 -8.395194e-01
<VARIANCE> 25
 2.836283e+01 3.289132e+01 2.907707e+01 2.979029e+01 2.886022e+01 4.156223e+01 3.183803e+01 3.416034e+01 2.641767e+01 2.015747e+01 2.248832e+01 1.799021e+01 1.668607e+00 3.708414e+00 2.775946e+00 2.523695e+00 3.250595e+00 5.125080e+00 2.961143e+00 3.052785e+00 2.486421e+00 2.053270e+00 2.105896e+00 1.618886e+00 2.040319e+00
<GCONST> 9.826497e+01
<STATE> 3
<MEAN> 25
 -1.910860e+00 1.903633e+00 -7.285303e-01 1.954695e+00 2.622175e+00 4.089568e+00 -3.709114e-02 2.043802e+00 1.657367e+00 2.712290e-01 -2.696168e-02 6.203963e-01 -3.062565e-01 -1.768438e+00 -1.861348e-01 -1.891806e-01 -4.701556e-01 -9.424362e-01 -1.726459e-01 7.301591e-02 2.716569e-01 -1.027789e-01 1.904025e-01 2.757091e-01 8.958662e-01
<VARIANCE> 25
 2.380029e+01 4.485600e+01 3.519313e+01 3.282371e+01 2.323783e+01 2.464631e+01 2.330687e+01 2.799199e+01 1.795563e+01 1.758422e+01 1.756933e+01 1.374945e+01 2.366418e+00 5.950240e+00 3.872936e+00 3.173157e+00 3.169585e+00 6.853068e+00 3.298964e+00 3.346141e+00 2.842358e+00 2.139648e+00 2.042570e+00 1.717325e+00 3.784192e+00
<GCONST> 9.906958e+01
<STATE> 4
<MEAN> 25
 -1.683663e+00 -2.939110e+00 3.278400e-01 2.165799e+00 9.789346e-01 -1.550127e+00 -1.826957e+00 9.363306e-01 8.834876e-01 -1.978487e+00 5.228221e-01 1.690518e+00 2.738115e-01 -4.740098e-02 -2.168129e-02 -2.163955e-01 -2.366761e-01 -2.962865e-01 -1.170782e-01 -1.551396e-01 -3.117657e-01 -1.422381e-01 -4.795080e-02 -1.988901e-02 2.930993e-01
<VARIANCE> 25
 6.262041e+01 7.011739e+01 6.781347e+01 5.804861e+01 5.489125e+01 9.147998e+01 6.316788e+01 5.815448e+01 3.996833e+01 3.489367e+01 3.566357e+01 2.214983e+01 3.504259e+00 4.973517e+00 3.514945e+00 3.111459e+00 3.691784e+00 6.440039e+00 4.351451e+00 4.012399e+00 3.598648e+00 2.700455e+00 2.874474e+00 2.005193e+00 2.990947e+00
<GCONST> 1.096549e+02
<TRANSP> 5
 0.000000e+00 1.000000e+00 0.000000e+00 0.000000e+00 0.000000e+00
 0.000000e+00 5.873910e-01 4.126090e-01 0.000000e+00 0.000000e+00
 0.000000e+00 0.000000e+00 5.896695e-01 4.103305e-01 0.000000e+00
 0.000000e+00 0.000000e+00 0.000000e+00 7.999266e-01 2.000735e-01
 0.000000e+00 0.000000e+00 0.000000e+00 0.000000e+00 0.000000e+00
<ENDHMM>
~h "F"
<BEGINHMM>
<NUMSTATES> 5
<STATE> 2
<MEAN> 25
 -3.124582e+00 -2.999346e-01 -4.021431e+00 1.119801e+00 1.002473e+00 5.799646e+00 7.309420e-01 3.715223e+00 1.096923e+00 -4.073167e-01 6.056969e-01 1.372791e+00 -8.486001e-01 -5.143800e-01 -6.170905e-02 -2.816837e-01 6.513907e-02 3.459464e-02 1.924687e-01 2.628489e-01 3.068394e-01 -3.034296e-02 3.725756e-01 2.438012e-01 -1.330098e-01
<VARIANCE> 25
 2.072280e+01 3.064233e+01 3.155696e+01 1.928640e+01 2.911404e+01 2.170122e+01 2.027900e+01 2.349512e+01 1.872367e+01 1.533275e+01 1.509710e+01 1.386044e+01 2.465544e+00 2.300369e+00 1.351779e+00 1.741531e+00 3.165799e+00 2.902595e+00 1.862764e+00 1.857855e+00 2.276048e+00 1.610843e+00 1.910292e+00 1.527351e+00 5.360907e-01
<GCONST> 9.022771e+01
<STATE> 3
<MEAN> 25
 -7.090010e+00 -2.616597e+00 2.679310e-01 -2.368638e+00 8.396702e-01 3.427421e+00 1.785638e+00 2.442506e+00 4.211864e+00 2.654347e-01 1.901692e+00 2.031375e+00 7.419734e-02 2.087316e-01 -8.023142e-02 -2.087916e-01 1.706303e-01 -2.677084e-01 1.038740e-01 -3.723955e-02 -8.293954e-02 -5.946310e-02 -1.068494e-01 -2.394844e-02 -6.115605e-02
<VARIANCE> 25
 3.295537e+01 4.851270e+01 1.881018e+01 1.694461e+01 3.243338e+01 1.705529e+01 1.562892e+01 2.008780e+01 1.398580e+01 1.873699e+01 1.217671e+01 9.912470e+00 2.701731e+00 2.380774e+00 1.054922e+00 1.562473e+00 2.335464e+00 2.171325e+00 1.704034e+00 1.418422e+00 1.471744e+00 1.331179e+00 1.259096e+00 1.136144e+00 1.104973e+00
<GCONST> 8.751252e+01
<STATE> 4
<MEAN> 25
 -1.233495e+01 2.323236e-01 8.894523e-01 -1.029008e+01 1.105029e+01 -1.142147e+01 7.699479e+00 -3.728544e-01 5.922773e+00 -4.501748e+00 4.584257e+00 -1.522960e+00 6.655192e-01 3.985806e-01 9.422803e-02 -2.291462e-01 -5.269350e-01 -5.132897e-01 -2.137755e-01 -2.404172e-01 -3.016630e-01 4.957313e-02 9.513292e-04 -2.808311e-01 3.068451e-01
<VARIANCE> 25
 6.976964e+01 3.824540e+01 2.821852e+01 5.025093e+01 9.427294e+01 7.661037e+01 4.302158e+01 5.021983e+01 5.044160e+01 3.841027e+01 3.935764e+01 2.910601e+01 1.140589e+01 4.542651e+00 2.109114e+00 4.340193e+00 7.175593e+00 5.550976e+00 4.380242e+00 3.336909e+00 5.125769e+00 4.338956e+00 4.541101e+00 2.981383e+00 1.500965e+00
<GCONST> 1.109112e+02
<TRANSP> 5
 0.000000e+00 1.000000e+00 0.000000e+00 0.000000e+00 0.000000e+00
 0.000000e+00 8.345973e-01 1.654027e-01 0.000000e+00 0.000000e+00
 0.000000e+00 0.000000e+00 8.791929e-01 1.208071e-01 0.000000e+00
 0.000000e+00 0.000000e+00 0.000000e+00 8.170373e-01 1.829626e-01
 0.000000e+00 0.000000e+00 0.000000e+00 0.000000e+00 0.000000e+00
<ENDHMM>
~h "G"
<BEGINHMM>
<NUMSTATES> 5
<STATE> 2
<MEAN> 25
 1.823522e+00 1.989415e+00 7.971265e-01 7.701876e-01 2.806992e+00 -8.949715e-01 -1.511115e+00 -3.265441e+00 -2.771117e+00 -9.874399e-01 1.479617e+00 -9.555335e-01 7.572133e-02 -3.533934e-01 -4.148933e-01 -5.783454e-01 -7.240404e-01 -2.694314e-01 4.260052e-01 1.565807e-01 -8.459446e-02 -1.326100e-01 6.301768e-02 1.743273e-01 1.900950e-01
<VARIANCE> 25
 3.859381e+01 4.958734e+01 4.310254e+01 6.999585e+01 5.647071e+01 8.557504e+01 5.749273e+01 5.255474e+01 5.295010e+01 4.382486e+01 3.451125e+01 2.968282e+01 4.835006e+00 6.063510e+00 5.225502e+00 5.936951e+00 5.388968e+00 1.051816e+01 5.556996e+00 4.156225e+00 4.563730e+00 3.275758e+00 3.358345e+00 2.248958e+00 4.631343e+00
<GCONST> 1.129433e+02
<STATE> 3
<MEAN> 25
 5.238092e+00 1.396932e+00 -1.493687e+00 -8.740139e-01 -2.946335e+00 -2.180011e+00 6.609513e-01 -2.507028e+00 -4.082526e+00 -7.206424e-01 2.200094e-01 -1.867088e+00 -4.515378e-01 2.896606e-01 1.790040e-01 1.215038e-01 -2.748305e-02 6.152685e-01 4.968923e-01 6.820825e-01 7.591614e-01 1.145178e-01 -2.371978e-01 1.856617e-01 -6.449209e-01
<VARIANCE> 25
 3.753055e+01 4.902080e+01 4.092772e+01 5.886693e+01 7.094505e+01 6.517212e+01 4.284769e+01 4.575406e+01 5.263189e+01 2.724512e+01 2.923337e+01 2.542803e+01 2.508440e+00 2.897186e+00 2.513871e+00 2.307418e+00 4.002577e+00 3.857898e+00 3.345090e+00 3.367845e+00 3.787707e+00 1.935909e+00 1.804370e+00 1.624499e+00 3.194584e+00
<GCONST> 1.042800e+02
<STATE> 4
<MEAN> 25
 -5.039834e+00 3.329523e-01 -2.615075e+00 4.582287e-01 -4.389482e-01 4.065997e+00 1.985635e+00 3.689008e+00 2.043115e+00 1.036932e+00 2.960403e-01 1.170987e+00 6.053813e-03 4.159674e-03 -3.636015e-02 -9.766595e-02 -1.021786e-01 -4.516578e-02 7.976973e-02 7.317521e-02 -4.046681e-03 -8.584552e-03 1.943730e-03 8.623570e-03 1.159127e-02
<VARIANCE> 25
 2.775414e+01 2.794910e+01 3.533216e+01 2.391857e+01 3.189170e+01 2.580846e+01 2.953596e+01 2.377779e+01 2.411547e+01 2.008604e+01 2.030493e+01 1.793882e+01 8.236911e-01 1.287337e+00 1.575373e+00 1.899254e+00 1.682297e+00 2.078550e+00 1.652202e+00 1.563729e+00 1.790469e+00 1.452499e+00 1.673680e+00 1.361840e+00 7.137601e-01
<GCONST> 8.948626e+01
<TRANSP> 5
 0.000000e+00 1.000000e+00 0.000000e+00 0.000000e+00 0.000000e+00
 0.000000e+00 7.447831e-01 2.552169e-01 0.000000e+00 0.000000e+00
 0.000000e+00 0.000000e+00 4.945785e-01 5.054216e-01 0.000000e+00
 0.000000e+00 0.000000e+00 0.000000e+00 9.055139e-01 9.448610e-02
 0.000000e+00 0.000000e+00 0.000000e+00 0.000000e+00 0.000000e+00
<ENDHMM>
~h "H"
<BEGINHMM>
<NUMSTATES> 5
<STATE> 2
<MEAN> 25
 -4.708286e-09 -2.380358e-09 -2.372494e-08 1.528358e-08 -2.946087e-08 3.473016e-08 1.492181e-08 -3.820108e-08 5.734750e-08 2.679738e-08 -1.914248e-08 1.106814e-08 5.471014e-04 8.423794e-03 3.429616e-03 4.428091e-03 1.539563e-03 5.235781e-03 2.090586e-03 1.419117e-03 4.312426e-04 -1.874243e-03 -2.989534e-04 1.471570e-03 -7.641797e-03
<VARIANCE> 25
 8.063078e+01 6.151661e+01 6.046933e+01 5.519445e+01 5.593279e+01 6.944777e+01 5.790948e+01 5.952552e+01 5.167271e+01 3.357464e+01 3.076282e+01 2.701398e+01 2.537357e+00 2.994146e+00 2.510378e+00 2.552091e+00 2.884048e+00 3.600144e+00 2.948514e+00 2.837039e+00 2.814359e+00 2.169803e+00 2.113056e+00 1.729323e+00 1.730328e+00
<GCONST> 1.051634e+02
<STATE> 3
<MEAN> 25
 -4.708286e-09 -2.380358e-09 -2.372494e-08 1.528358e-08 -2.946087e-08 3.473016e-08 1.492181e-08 -3.820108e-08 5.734750e-08 2.679738e-08 -1.914248e-08 1.106814e-08 5.471014e-04 8.423794e-03 3.429616e-03 4.428091e-03 1.539563e-03 5.235781e-03 2.090586e-03 1.419117e-03 4.312426e-04 -1.874243e-03 -2.989534e-04 1.471570e-03 -7.641797e-03
<VARIANCE> 25
 8.063078e+01 6.151661e+01 6.046933e+01 5.519445e+01 5.593279e+01 6.944777e+01 5.790948e+01 5.952552e+01 5.167271e+01 3.357464e+01 3.076282e+01 2.701398e+01 2.537357e+00 2.994146e+00 2.510378e+00 2.552091e+00 2.884048e+00 3.600144e+00 2.948514e+00 2.837039e+00 2.814359e+00 2.169803e+00 2.113056e+00 1.729323e+00 1.730328e+00
<GCONST> 1.051634e+02
<STATE> 4
<MEAN> 25
 -4.708286e-09 -2.380358e-09 -2.372494e-08 1.528358e-08 -2.946087e-08 3.473016e-08 1.492181e-08 -3.820108e-08 5.734750e-08 2.679738e-08 -1.914248e-08 1.106814e-08 5.471014e-04 8.423794e-03 3.429616e-03 4.428091e-03 1.539563e-03 5.235781e-03 2.090586e-03 1.419117e-03 4.312426e-04 -1.874243e-03 -2.989534e-04 1.471570e-03 -7.641797e-03
<VARIANCE> 25
 8.063078e+01 6.151661e+01 6.046933e+01 5.519445e+01 5.593279e+01 6.944777e+01 5.790948e+01 5.952552e+01 5.167271e+01 3.357464e+01 3.076282e+01 2.701398e+01 2.537357e+00 2.994146e+00 2.510378e+00 2.552091e+00 2.884048e+00 3.600144e+00 2.948514e+00 2.837039e+00 2.814359e+00 2.169803e+00 2.113056e+00 1.729323e+00 1.730328e+00
<GCONST> 1.051634e+02
<TRANSP> 5
 0.000000e+00 1.000000e+00 0.000000e+00 0.000000e+00 0.000000e+00
 0.000000e+00 6.000000e-01 4.000000e-01 0.000000e+00 0.000000e+00
 0.000000e+00 0.000000e+00 6.000000e-01 4.000000e-01 0.000000e+00
 0.000000e+00 0.000000e+00 0.000000e+00 7.000000e-01 3.000000e-01
 0.000000e+00 0.000000e+00 0.000000e+00 0.000000e+00 0.000000e+00
<ENDHMM>
~h "I"
<BEGINHMM>
<NUMSTATES> 5
<STATE> 2
<MEAN> 25
 3.119645e+00 7.179326e-01 -9.170330e-01 -5.698322e+00 1.089576e+01 -7.172448e-01 1.436518e+00 1.360840e+00 -1.443968e+01 -6.205428e+00 8.923599e+00 -1.132015e+00 -4.008676e-01 1.195474e-01 4.574240e-01 6.558488e-01 7.183407e-01 2.099182e-01 -4.063909e-01 -1.619647e+00 8.682898e-01 -2.588126e-01 -8.284938e-02 2.281873e-01 5.141321e-01
<VARIANCE> 25
 7.254681e+01 3.926736e+01 1.899017e+01 3.370887e+01 5.527280e+01 3.327681e+01 6.597298e+01 5.380874e+01 1.598295e+02 6.201868e+01 4.611089e+01 1.936944e+01 1.129282e+01 2.826409e+00 3.400505e+00 1.514199e+00 1.687506e+00 9.267396e+00 1.073186e+01 1.494905e+00 1.263347e+01 8.911503e+00 7.307339e+00 3.392785e+00 7.931921e-01
<GCONST> 1.103809e+02
<STATE> 3
<MEAN> 25
 -1.430243e+01 -2.236780e+00 1.021349e+00 -2.402977e+00 1.230641e+01 -1.089836e+01 4.863911e+00 -8.318859e+00 2.937222e+00 -5.857138e+00 6.865336e+00 -2.746094e+00 8.349503e-01 -2.289346e-01 -5.613308e-02 7.219376e-01 -5.821789e-01 -4.717972e-01 -1.171178e+00 4.960230e-01 8.066572e-02 4.166442e-01 -2.982873e-01 2.320144e-01 -3.710542e-01
<VARIANCE> 25
 5.623810e+01 4.569364e+01 7.235610e+00 1.692452e+01 3.704083e+01 3.479476e+01 3.658321e+01 2.388637e+01 3.026389e+01 1.909574e+01 8.766623e+00 2.404949e+01 9.777114e+00 4.015845e+00 1.213605e+00 7.451960e-01 1.645238e+00 1.261498e+00 3.275579e+00 1.384261e+00 1.455613e+00 2.087655e+00 1.418530e+00 2.875503e+00 3.725725e-01
<GCONST> 9.159276e+01
<STATE> 4
<MEAN> 25
 -2.325499e+00 -4.064417e+00 2.812090e+00 2.603606e+00 5.813863e+00 -3.341884e+00 -4.401155e+00 -1.326592e+00 2.784414e+00 1.431059e+00 2.204167e+00 1.456246e+00 2.994981e+00 1.081181e+00 3.003357e-01 5.600085e-01 -5.380431e-01 6.598537e-01 -3.217907e-01 -7.756466e-02 -1.596280e+00 5.177301e-01 -1.555822e+00 -7.310694e-01 3.192748e-02
<VARIANCE> 25
 8.205483e+01 2.153708e+01 1.346290e+01 1.841603e+01 3.277196e+01 4.859061e+01 8.387745e+00 1.998252e+01 1.867204e+01 1.503766e+01 1.094087e+01 1.327177e+01 6.270140e+00 3.632828e+00 9.449769e-01 3.050354e+00 4.611833e+00 4.699673e+00 9.667883e-01 5.281581e+00 3.048007e+00 3.591730e+00 1.797145e+00 1.452339e+00 5.895130e-01
<GCONST> 9.376267e+01
<TRANSP> 5
 0.000000e+00 1.000000e+00 0.000000e+00 0.000000e+00 0.000000e+00
 0.000000e+00 7.393695e-01 2.606306e-01 0.000000e+00 0.000000e+00
 0.000000e+00 0.000000e+00 7.425370e-01 2.574630e-01 0.000000e+00
 0.000000e+00 0.000000e+00 0.000000e+00 5.898936e-01 4.101065e-01
 0.000000e+00 0.000000e+00 0.000000e+00 0.000000e+00 0.000000e+00
<ENDHMM>
~h "K"
<BEGINHMM>
<NUMSTATES> 5
<STATE> 2
<MEAN> 25
 -2.155672e+00 -1.199334e+00 -2.641611e+00 7.134726e-01 3.744027e+00 -6.682328e-01 -4.077965e-01 -2.002150e+00 -1.198608e+00 5.145543e-01 2.551505e+00 -4.071169e-01 -7.738401e-01 9.160686e-02 -4.215561e-01 -1.202514e+00 -2.909268e-01 -4.351405e-01 7.602427e-01 7.679073e-01 5.815713e-01 -4.496593e-02 1.126060e-01 3.458863e-01 -4.321090e-01
<VARIANCE> 25
 2.614171e+01 4.230853e+01 3.797783e+01 3.639329e+01 3.076464e+01 1.016023e+02 3.964408e+01 4.630941e+01 3.641885e+01 2.436568e+01 3.124957e+01 3.338002e+01 3.235531e+00 5.183965e+00 3.375999e+00 5.510885e+00 5.758690e+00 1.526393e+01 5.081967e+00 6.513088e+00 3.738557e+00 2.758285e+00 3.738715e+00 3.564313e+00 6.913916e+00
<GCONST> 1.100632e+02
<STATE> 3
<MEAN> 25
 -4.811775e+00 7.073503e-01 -4.237217e+00 -6.735024e-01 6.384294e-01 4.144851e+00 1.388561e+00 3.983423e+00 1.725693e+00 5.384350e-02 1.330808e+00 1.695106e+00 -5.225421e-02 -3.438170e-01 -1.072625e-01 -2.910683e-01 -3.698700e-01 -3.798146e-01 1.486906e-01 2.079086e-02 -7.688511e-03 -1.333413e-01 -3.895412e-02 -1.948583e-02 2.251765e-01
<VARIANCE> 25
 1.826970e+01 2.299387e+01 2.539208e+01 3.784895e+01 2.559789e+01 3.936483e+01 2.234756e+01 2.721452e+01 1.984783e+01 1.789050e+01 1.504729e+01 1.434847e+01 1.240296e+00 2.463239e+00 2.035660e+00 3.395581e+00 2.956325e+00 4.313904e+00 2.438794e+00 2.473400e+00 1.878412e+00 1.688750e+00 1.783677e+00 1.444590e+00 2.582978e+00
<GCONST> 9.387136e+01
<STATE> 4
<MEAN> 25
 -3.621500e+00 -5.797119e+00 9.296919e-01 -3.738122e+00 -1.959988e+00 -2.613073e+00 4.665840e+00 -1.774452e+00 -3.033487e-01 7.833990e-01 8.450128e-01 -1.411411e-01 3.713562e-01 -2.875866e-02 2.340569e-01 5.170528e-01 -4.619854e-02 2.057764e-01 -3.420521e-01 -1.634104e-02 2.167283e-02 2.412173e-01 -1.989341e-01 -9.719752e-02 3.921288e-02
<VARIANCE> 25
 6.517578e+01 5.889361e+01 8.733376e+01 8.455563e+01 7.271005e+01 1.241987e+02 8.773365e+01 6.026626e+01 4.087885e+01 6.265978e+01 5.006010e+01 2.900289e+01 3.558239e+00 3.963069e+00 4.182182e+00 3.939496e+00 4.354263e+00 6.619587e+00 4.043670e+00 3.659195e+00 3.372730e+00 4.017284e+00 3.196626e+00 2.271976e+00 2.503914e+00
<GCONST> 1.129280e+02
<TRANSP> 5
 0.000000e+00 1.000000e+00 0.000000e+00 0.000000e+00 0.000000e+00
 0.000000e+00 5.601420e-01 4.398579e-01 0.000000e+00 0.000000e+00
 0.000000e+00 0.000000e+00 8.748994e-01 1.251006e-01 0.000000e+00
 0.000000e+00 0.000000e+00 0.000000e+00 8.152441e-01 1.847560e-01
 0.000000e+00 0.000000e+00 0.000000e+00 0.000000e+00 0.000000e+00
<ENDHMM>
~h "L"
<BEGINHMM>
<NUMSTATES> 5
<STATE> 2
<MEAN> 25
 6.963147e+00 3.891511e+00 3.566289e+00 -2.301975e+00 -8.004838e+00 -5.509128e+00 3.089427e-01 5.940073e-01 -3.191758e-01 -1.381079e+00 -4.226825e+00 -2.477132e+00 9.019394e-01 6.323989e-01 3.980610e-01 2.307213e-01 -1.204300e+00 -9.388908e-01 -8.212133e-02 2.505957e-01 -8.356891e-02 -1.369666e-01 -6.015879e-01 -4.702734e-01 3.010575e-01
<VARIANCE> 25
 3.736563e+01 3.751870e+01 4.978202e+01 3.638314e+01 7.481826e+01 7.090350e+01 4.312805e+01 5.066629e+01 6.193405e+01 4.773151e+01 3.760627e+01 3.345996e+01 2.515058e+00 3.058154e+00 2.880082e+00 2.933097e+00 5.058053e+00 4.973975e+00 3.882141e+00 3.771028e+00 4.265156e+00 3.547797e+00 3.711465e+00 2.710395e+00 1.643047e+00
<GCONST> 1.076941e+02
<STATE> 3
<MEAN> 25
 9.601970e+00 6.450858e+00 4.198445e+00 -1.517861e+00 -1.265148e+01 -9.571973e+00 -6.604819e-01 1.551776e+00 7.000189e-01 -7.906346e-01 -3.811185e+00 -2.344727e+00 -9.573338e-02 8.152735e-02 7.863045e-02 1.731516e-01 6.357798e-02 9.319804e-02 1.385989e-01 -3.944004e-02 -2.199374e-01 -1.314834e-01 1.216536e-01 1.124098e-01 -1.421377e-01
<VARIANCE> 25
 1.728479e+01 3.210582e+01 2.790898e+01 2.609844e+01 5.605053e+01 6.175677e+01 4.841488e+01 3.703383e+01 3.787378e+01 2.930888e+01 2.962121e+01 2.703655e+01 2.746136e-01 8.003199e-01 8.204265e-01 7.220701e-01 1.510179e+00 1.438135e+00 1.498216e+00 1.481642e+00 1.298613e+00 1.323589e+00 1.180164e+00 1.214823e+00 2.855646e-01
<GCONST> 8.737847e+01
<STATE> 4
<MEAN> 25
 4.659416e+00 3.980564e+00 2.946382e+00 -5.818752e-01 -5.512878e+00 -4.077857e+00 1.085675e+00 1.997319e+00 -1.637214e-01 -2.031216e+00 -3.058148e+00 -1.103794e+00 -6.636318e-01 -1.701987e-01 -3.260444e-01 2.009915e-01 1.583287e+00 9.859559e-01 -1.346420e-01 -1.928095e-01 7.544685e-02 -4.058598e-02 3.161783e-01 2.472899e-01 -3.773688e-01
<VARIANCE> 25
 4.756853e+01 3.681717e+01 3.637075e+01 3.700593e+01 8.239317e+01 6.815857e+01 3.805338e+01 4.596339e+01 4.687934e+01 3.565668e+01 3.573399e+01 2.561278e+01 1.320411e+00 1.836234e+00 1.663889e+00 2.197293e+00 4.572938e+00 4.964330e+00 3.152467e+00 2.677350e+00 2.794981e+00 2.277395e+00 2.563846e+00 1.873716e+00 1.399026e+00
<GCONST> 1.021543e+02
<TRANSP> 5
 0.000000e+00 1.000000e+00 0.000000e+00 0.000000e+00 0.000000e+00
 0.000000e+00 6.603743e-01 3.396257e-01 0.000000e+00 0.000000e+00
 0.000000e+00 0.000000e+00 7.817821e-01 2.182180e-01 0.000000e+00
 0.000000e+00 0.000000e+00 0.000000e+00 7.329177e-01 2.670822e-01
 0.000000e+00 0.000000e+00 0.000000e+00 0.000000e+00 0.000000e+00
<ENDHMM>
~h "M"
<BEGINHMM>
<NUMSTATES> 5
<STATE> 2
<MEAN> 25
 4.364741e+00 4.039219e+00 -1.561714e+00 1.195906e+00 2.390890e+00 3.268607e+00 -6.523827e-01 -1.004243e+00 -1.433940e+00 -1.200175e+00 -2.065682e+00 -2.396287e+00 -2.478555e-01 7.165370e-01 5.424589e-01 8.702358e-01 1.425294e+00 1.452017e+00 -1.820627e-01 -7.143710e-01 -8.114651e-02 9.122968e-02 -5.104754e-01 -6.431209e-01 -6.231890e-01
<VARIANCE> 25
 5.108644e+01 3.343310e+01 3.010838e+01 2.635418e+01 3.130457e+01 3.265067e+01 2.086341e+01 4.341163e+01 2.983588e+01 2.286524e+01 2.241936e+01 2.342120e+01 1.102470e+00 1.709522e+00 1.527942e+00 1.847354e+00 2.697870e+00 2.811669e+00 1.819391e+00 2.352585e+00 1.824120e+00 2.228602e+00 1.972507e+00 1.655566e+00 1.232978e+00
<GCONST> 9.454073e+01
<STATE> 3
<MEAN> 25
 2.983519e+00 6.532228e+00 -4.842346e-01 3.643002e+00 3.442653e+00 6.174702e+00 -9.817486e-01 -7.370839e-01 -1.288432e+00 -4.491271e-01 -2.538507e+00 -1.486106e+00 -5.961994e-02 9.961025e-02 5.553047e-02 1.037074e-01 5.416029e-03 -2.830310e-02 -3.415221e-02 -8.719815e-03 7.230613e-02 -6.508344e-03 -5.609502e-02 -2.939085e-02 -1.006198e-01
<VARIANCE> 25
 4.227692e+01 1.443343e+01 2.011504e+01 1.552166e+01 2.038959e+01 1.979498e+01 1.786998e+01 4.728343e+01 2.267475e+01 1.880881e+01 1.872128e+01 2.936678e+01 2.435826e-01 3.928138e-01 5.141338e-01 6.408566e-01 7.867681e-01 7.619411e-01 8.737217e-01 1.030276e+00 9.788821e-01 8.989166e-01 8.117349e-01 7.653518e-01 1.795970e-01
<GCONST> 7.681451e+01
<STATE> 4
<MEAN> 25
 6.309120e+00 6.936466e+00 4.277219e-01 2.029526e+00 2.493493e+00 3.204054e+00 -1.457742e+00 -3.159300e+00 -1.552311e+00 -1.748296e+00 -3.249343e+00 -2.792955e+00 4.610632e-01 -8.450133e-01 -6.422845e-01 -1.084607e+00 -1.930120e+00 -1.917817e+00 1.965152e-02 8.124823e-01 7.675154e-01 -2.228048e-02 6.886180e-01 8.700392e-01 1.078180e+00
<VARIANCE> 25
 3.122584e+01 1.749887e+01 1.933360e+01 2.758483e+01 3.563739e+01 4.123202e+01 2.230939e+01 3.708558e+01 2.906579e+01 2.113513e+01 2.599364e+01 2.199823e+01 1.631022e+00 2.858206e+00 2.062326e+00 2.980188e+00 4.287721e+00 3.594371e+00 3.292947e+00 2.967300e+00 3.182919e+00 2.605879e+00 2.750542e+00 1.791853e+00 1.950576e+00
<GCONST> 9.805809e+01
<TRANSP> 5
 0.000000e+00 1.000000e+00 0.000000e+00 0.000000e+00 0.000000e+00
 0.000000e+00 6.682174e-01 3.317825e-01 0.000000e+00 0.000000e+00
 0.000000e+00 0.000000e+00 8.399962e-01 1.600039e-01 0.000000e+00
 0.000000e+00 0.000000e+00 0.000000e+00 6.119111e-01 3.880890e-01
 0.000000e+00 0.000000e+00 0.000000e+00 0.000000e+00 0.000000e+00
<ENDHMM>
~h "N"
<BEGINHMM>
<NUMSTATES> 5
<STATE> 2
<MEAN> 25
 6.935341e+00 1.822125e+00 -7.481828e-03 3.612898e+00 3.490513e+00 -1.371635e+00 -3.717546e+00 -4.895773e+00 -1.674899e+00 2.782059e-01 -1.489234e+00 -1.253967e+00 -1.374800e-01 1.303122e+00 4.133651e-01 6.082079e-01 9.056308e-01 1.190776e+00 -2.653060e-01 -4.418128e-01 -1.064919e-01 6.263707e-02 -6.760560e-01 -5.401833e-01 -1.082767e+00
<VARIANCE> 25
 2.204596e+01 2.343283e+01 2.746212e+01 2.996533e+01 2.410611e+01 6.317606e+01 3.950400e+01 3.831888e+01 3.792374e+01 2.541153e+01 2.924993e+01 2.416333e+01 1.183647e+00 1.897214e+00 2.150410e+00 2.752691e+00 2.429572e+00 4.237999e+00 2.896859e+00 2.925016e+00 3.075371e+00 2.156130e+00 2.531466e+00 1.946399e+00 1.439920e+00
<GCONST> 9.789634e+01
<STATE> 3
<MEAN> 25
 6.804847e+00 7.045168e+00 2.438542e+00 6.451151e+00 5.617550e+00 3.298327e+00 -3.946764e+00 -5.786385e+00 -1.882517e+00 -6.060609e-02 -3.130085e+00 -2.579276e+00 -3.708037e-01 4.396172e-01 3.600800e-01 2.117317e-01 1.300756e-01 2.320242e-01 2.157840e-01 2.640046e-01 6.458139e-02 -2.475015e-01 -3.741129e-02 7.893095e-02 -4.281808e-01
<VARIANCE> 25
 1.471769e+01 1.505509e+01 1.760265e+01 2.173523e+01 1.681202e+01 2.606807e+01 2.371756e+01 2.956298e+01 2.332978e+01 2.579722e+01 2.102962e+01 2.058022e+01 3.289593e-01 6.437564e-01 7.381006e-01 8.084782e-01 9.791440e-01 1.244072e+00 1.366421e+00 1.606246e+00 1.154104e+00 1.239965e+00 1.167224e+00 1.072773e+00 2.532763e-01
<GCONST> 8.052534e+01
<STATE> 4
<MEAN> 25
 -4.456807e+00 3.258884e+00 -2.283534e+00 9.580820e-01 1.317169e+00 5.424852e+00 7.180188e-01 3.970221e+00 2.008758e+00 6.301802e-01 3.136988e-01 1.865919e+00 -1.736588e-01 -9.110749e-02 -6.395051e-02 -8.090167e-02 -1.285378e-01 -1.927002e-02 8.682224e-02 1.931480e-01 6.566799e-02 -3.611016e-03 9.294727e-02 7.690513e-02 -1.269219e-01
<VARIANCE> 25
 2.376880e+01 1.690913e+01 2.120537e+01 1.832544e+01 1.680748e+01 1.540747e+01 1.500667e+01 2.094854e+01 1.645204e+01 1.575693e+01 1.211760e+01 1.080672e+01 5.280923e-01 6.871757e-01 7.759343e-01 9.439129e-01 9.734970e-01 1.149804e+00 1.165374e+00 1.211008e+00 1.081780e+00 1.126730e+00 1.087759e+00 9.201791e-01 5.380253e-01
<GCONST> 7.835667e+01
<TRANSP> 5
 0.000000e+00 1.000000e+00 0.000000e+00 0.000000e+00 0.000000e+00
 0.000000e+00 6.748616e-01 3.251384e-01 0.000000e+00 0.000000e+00
 0.000000e+00 0.000000e+00 7.311749e-01 2.688251e-01 0.000000e+00
 0.000000e+00 0.000000e+00 0.000000e+00 9.315269e-01 6.847311e-02
 0.000000e+00 0.000000e+00 0.000000e+00 0.000000e+00 0.000000e+00
<ENDHMM>
~h "P"
<BEGINHMM>
<NUMSTATES> 5
<STATE> 2
<MEAN> 25
 -1.448259e+00 1.725021e+00 1.066701e+00 -8.085407e-01 1.429919e+00 2.672322e+00 -4.128888e-01 -1.108823e+00 -3.222834e-02 -3.460735e-01 6.424436e-01 4.786313e-02 -7.011298e-01 3.372410e-01 -6.303076e-02 -3.883295e-01 -5.819679e-02 6.125817e-01 2.689460e-01 8.864526e-01 6.668331e-01 3.504184e-01 3.733248e-01 7.231673e-01 -1.243150e+00
<VARIANCE> 25
 5.869823e+01 3.512612e+01 5.533488e+01 4.371617e+01 3.613680e+01 3.292628e+01 4.785998e+01 4.293844e+01 4.306032e+01 2.487522e+01 2.421449e+01 1.991305e+01 3.521086e+00 3.342341e+00 2.940894e+00 2.812263e+00 2.886622e+00 2.146973e+00 2.657424e+00 2.957705e+00 3.204475e+00 1.678252e+00 1.978209e+00 1.675366e+00 3.868561e+00
<GCONST> 1.019313e+02
<STATE> 3
<MEAN> 25
 -5.939095e+00 2.565408e+00 -3.144651e+00 6.381446e-01 6.245368e-01 5.230047e+00 1.205546e+00 5.159285e+00 2.854538e+00 1.452121e+00 7.626808e-01 2.088526e+00 -6.088045e-02 -5.852938e-03 -6.445676e-02 -3.069893e-03 -4.506923e-02 -2.348883e-02 -1.380096e-02 2.945886e-02 1.084892e-02 -1.495579e-02 3.497005e-04 1.736762e-02 -9.579241e-02
<VARIANCE> 25
 1.123491e+01 1.595942e+01 2.234056e+01 1.310049e+01 1.081529e+01 1.583011e+01 1.332929e+01 1.562001e+01 1.677518e+01 1.332222e+01 1.041002e+01 1.004424e+01 3.234789e-01 5.159097e-01 5.652214e-01 6.209511e-01 6.963704e-01 1.000890e+00 9.736753e-01 1.058064e+00 9.483809e-01 8.712622e-01 8.395405e-01 8.159779e-01 4.135355e-01
<GCONST> 7.273473e+01
<STATE> 4
<MEAN> 25
 -2.643205e+00 -1.407636e+00 -1.724403e+00 -2.350873e+00 -1.625067e+00 -9.342152e-01 5.761380e-01 1.552396e+00 1.610893e+00 -6.699805e-01 9.892939e-02 1.313980e+00 1.643454e+00 -9.894382e-01 -1.334388e-01 -3.130654e-01 -4.941154e-01 -1.377788e+00 -3.921194e-01 -4.848041e-01 1.208929e-01 -2.741292e-01 -2.957442e-01 2.741180e-02 2.216078e+00
<VARIANCE> 25
 4.141522e+01 3.502463e+01 3.663615e+01 3.524190e+01 2.939761e+01 6.922073e+01 6.003298e+01 3.479152e+01 2.349803e+01 3.060031e+01 2.884171e+01 2.195033e+01 5.843686e+00 4.020209e+00 4.651289e+00 4.939710e+00 3.834221e+00 8.455292e+00 6.501803e+00 5.319901e+00 3.743217e+00 3.611973e+00 3.313135e+00 2.322276e+00 4.861917e+00
<GCONST> 1.082204e+02
<TRANSP> 5
 0.000000e+00 1.000000e+00 0.000000e+00 0.000000e+00 0.000000e+00
 0.000000e+00 7.310945e-01 2.689055e-01 0.000000e+00 0.000000e+00
 0.000000e+00 0.000000e+00 9.509017e-01 4.909829e-02 0.000000e+00
 0.000000e+00 0.000000e+00 0.000000e+00 6.864572e-01 3.135428e-01
 0.000000e+00 0.000000e+00 0.000000e+00 0.000000e+00 0.000000e+00
<ENDHMM>
~h "R"
<BEGINHMM>
<NUMSTATES> 5
<STATE> 2
<MEAN> 25
 7.611432e+00 3.860414e+00 -4.398263e+00 -5.630095e+00 -2.328066e+00 1.548304e+00 1.694481e+00 -1.438369e+00 -5.051981e+00 -2.769833e+00 -1.570485e-01 -7.296863e-02 1.120145e+00 9.402164e-01 -5.540522e-01 -7.325509e-01 -6.252857e-03 1.198269e-01 2.991450e-01 -7.681086e-01 -1.564346e+00 -4.026289e-01 4.124972e-01 3.989719e-01 4.615446e-01
<VARIANCE> 25
 4.538686e+01 5.651176e+01 3.456255e+01 5.472320e+01 4.005345e+01 4.046881e+01 4.264581e+01 6.812989e+01 6.432241e+01 4.571398e+01 4.174334e+01 2.392337e+01 3.061134e+00 4.320592e+00 2.799956e+00 3.785637e+00 3.469549e+00 3.474747e+00 3.408461e+00 3.798918e+00 4.444561e+00 3.141788e+00 2.991765e+00 2.636902e+00 1.675568e+00
<GCONST> 1.068111e+02
<STATE> 3
<MEAN> 25
 1.159787e+01 5.397316e+00 -6.576198e+00 -7.209905e+00 -3.077655e-02 2.971586e+00 1.583634e+00 -7.049314e+00 -1.271077e+01 -3.160602e+00 4.318394e+00 2.668630e+00 -1.187453e-01 -8.822340e-02 -1.192622e-01 4.714046e-01 5.059138e-01 1.105272e-01 -3.367743e-01 -5.379363e-01 -1.616518e-01 5.322929e-02 2.312000e-01 1.536122e-01 -1.130350e-01
<VARIANCE> 25
 2.022484e+01 2.844749e+01 1.813741e+01 4.369513e+01 3.915922e+01 3.077735e+01 3.717571e+01 4.739372e+01 5.910009e+01 4.422240e+01 3.399004e+01 2.637887e+01 4.252378e-01 1.250048e+00 7.516967e-01 1.611550e+00 1.836319e+00 1.474609e+00 2.052477e+00 1.973807e+00 2.075673e+00 2.245131e+00 1.752116e+00 1.340552e+00 4.392532e-01
<GCONST> 9.173804e+01
<STATE> 4
<MEAN> 25
 7.138818e+00 2.244452e+00 -6.401113e+00 -1.299399e+00 3.251375e+00 1.737277e+00 -1.809995e+00 -7.587810e+00 -7.386534e+00 4.564280e-01 4.021906e+00 8.980756e-01 -7.327678e-01 -5.141742e-01 6.013448e-01 1.335823e+00 5.372931e-01 -4.612476e-01 -8.506345e-01 5.007246e-01 1.291459e+00 3.938352e-01 -5.395769e-01 -6.230823e-01 -3.911099e-01
<VARIANCE> 25
 4.159726e+01 2.980159e+01 2.084251e+01 4.263569e+01 3.729950e+01 4.995360e+01 3.937718e+01 7.577076e+01 5.273913e+01 4.527319e+01 2.967161e+01 3.005427e+01 8.806933e-01 1.716502e+00 1.209483e+00 2.496072e+00 1.829132e+00 2.482545e+00 2.900710e+00 2.426809e+00 2.594692e+00 2.520804e+00 1.789560e+00 1.778150e+00 9.577619e-01
<GCONST> 9.793670e+01
<TRANSP> 5
 0.000000e+00 1.000000e+00 0.000000e+00 0.000000e+00 0.000000e+00
 0.000000e+00 6.385163e-01 3.614837e-01 0.000000e+00 0.000000e+00
 0.000000e+00 0.000000e+00 6.988645e-01 3.011356e-01 0.000000e+00
 0.000000e+00 0.000000e+00 0.000000e+00 6.787378e-01 3.212622e-01
 0.000000e+00 0.000000e+00 0.000000e+00 0.000000e+00 0.000000e+00
<ENDHMM>
~h "S"
<BEGINHMM>
<NUMSTATES> 5
<STATE> 2
<MEAN> 25
 -4.911944e+00 -6.183428e+00 6.364030e+00 -9.685801e-01 -3.537459e-01 -2.149107e-01 3.609293e+00 6.056488e-03 -8.017385e-02 -9.577882e-01 8.751647e-01 1.853546e+00 -3.132232e+00 -2.239072e+00 2.817444e+00 -1.404778e+00 -2.582855e-01 -5.773097e-01 1.235049e+00 4.409428e-01 6.875804e-01 -3.670281e-01 9.421698e-01 1.983441e-01 1.192335e+00
<VARIANCE> 25
 5.670002e+01 6.947765e+01 1.012953e+02 9.712532e+01 5.396810e+01 7.612399e+01 7.700882e+01 7.376351e+01 5.145275e+01 3.609108e+01 2.837476e+01 2.472959e+01 4.703969e+00 6.882288e+00 5.056756e+00 6.183689e+00 6.179614e+00 7.520369e+00 6.487257e+00 5.439821e+00 4.469316e+00 2.959489e+00 3.254294e+00 2.388998e+00 1.770297e+00
<GCONST> 1.139922e+02
<STATE> 3
<MEAN> 25
 -1.064814e+01 -6.079683e+00 5.668616e+00 -2.313002e+00 -5.077825e-01 2.676645e+00 1.069490e+00 4.031575e+00 3.426948e+00 -5.487118e-01 3.086448e+00 2.211941e+00 -1.032128e-01 1.481952e-02 -1.189888e-01 -2.143478e-02 9.316310e-02 -7.028924e-02 3.043193e-02 1.403556e-02 1.015903e-01 -7.761084e-03 -2.212164e-02 5.869474e-02 -1.070582e-01
<VARIANCE> 25
 3.201320e+01 1.438772e+02 7.374067e+01 6.038266e+01 8.561781e+01 3.537598e+01 2.997511e+01 2.490567e+01 2.917585e+01 2.444992e+01 1.685918e+01 1.251644e+01 1.403010e+00 1.791762e+00 2.355268e+00 1.572312e+00 1.837479e+00 1.366646e+00 1.570419e+00 1.658904e+00 1.439145e+00 1.208076e+00 1.360427e+00 1.095641e+00 8.681566e-01
<GCONST> 9.425669e+01
<STATE> 4
<MEAN> 25
 -1.627249e+01 -1.019963e+01 1.499682e+01 -6.474895e+00 4.794908e-01 -5.538914e+00 1.414315e+01 -2.112428e+00 1.140882e+00 -1.005947e+00 3.122435e+00 4.404297e-01 9.553708e-01 3.150356e-01 -8.690871e-01 6.736307e-01 -1.199708e-01 4.338598e-01 -6.915604e-01 1.716497e-01 -3.639029e-01 3.075463e-01 -3.601250e-01 -1.454303e-01 -5.995017e-01
<VARIANCE> 25
 4.730888e+01 3.727977e+01 6.362938e+01 4.943637e+01 3.777060e+01 9.798248e+01 9.481736e+01 7.778117e+01 6.377274e+01 4.191471e+01 2.819116e+01 2.436389e+01 3.442628e+00 2.360920e+00 2.722059e+00 1.869637e+00 2.486566e+00 3.110859e+00 4.014397e+00 2.807513e+00 2.793584e+00 2.400770e+00 2.100023e+00 1.650795e+00 9.775527e-01
<GCONST> 1.043351e+02
<TRANSP> 5
 0.000000e+00 1.000000e+00 0.000000e+00 0.000000e+00 0.000000e+00
 0.000000e+00 7.173920e-01 2.826080e-01 0.000000e+00 0.000000e+00
 0.000000e+00 0.000000e+00 8.925188e-01 1.074812e-01 0.000000e+00
 0.000000e+00 0.000000e+00 0.000000e+00 8.218386e-01 1.781614e-01
 0.000000e+00 0.000000e+00 0.000000e+00 0.000000e+00 0.000000e+00
<ENDHMM>
~h "T"
<BEGINHMM>
<NUMSTATES> 5
<STATE> 2
<MEAN> 25
 -4.183696e+00 5.093372e-01 -3.352612e+00 1.172904e+00 4.999979e-01 4.141996e+00 6.016211e-01 3.204808e+00 1.340886e+00 3.795260e-02 2.686328e-01 1.392922e+00 -3.228863e-01 -1.044499e-01 -4.367192e-02 -8.284678e-02 -2.625190e-02 -5.649775e-03 -2.942511e-02 2.902903e-01 3.157586e-01 -7.471293e-04 5.802818e-03 8.755395e-02 -2.297394e-01
<VARIANCE> 25
 2.853330e+01 2.861457e+01 2.637944e+01 2.405820e+01 2.106670e+01 3.609992e+01 1.994821e+01 3.137454e+01 2.307279e+01 1.977635e+01 1.549774e+01 1.377204e+01 1.489794e+00 2.180046e+00 1.740583e+00 1.688291e+00 1.872869e+00 3.085310e+00 1.928678e+00 2.064158e+00 1.920898e+00 1.736734e+00 1.371524e+00 1.246671e+00 1.521146e+00
<GCONST> 9.121686e+01
<STATE> 3
<MEAN> 25
 -4.750662e+00 -7.152160e+00 2.051722e+00 -1.873708e+00 -3.660372e-01 -4.337801e+00 -8.322191e-01 1.177624e+00 3.004323e+00 -1.512970e+00 2.632797e-01 1.200343e+00 -7.029871e-01 -2.687722e+00 1.522938e+00 -3.968240e-01 -6.161672e-01 -1.875107e+00 -4.661429e-01 -9.929031e-01 4.022189e-01 -1.677959e-01 2.144479e-01 1.090207e-01 2.323346e+00
<VARIANCE> 25
 5.060605e+01 7.458421e+01 7.278658e+01 5.982649e+01 5.757814e+01 1.338755e+02 6.098212e+01 5.351518e+01 4.969265e+01 3.358069e+01 2.881192e+01 2.049027e+01 5.977123e+00 7.352380e+00 7.402973e+00 5.848706e+00 6.255111e+00 1.203585e+01 6.432051e+00 4.342583e+00 4.691420e+00 3.561955e+00 2.858368e+00 2.723248e+00 4.875485e+00
<GCONST> 1.150575e+02
<STATE> 4
<MEAN> 25
 -4.787705e+00 -9.349270e+00 2.092543e+00 6.571097e-01 -7.483038e-01 -3.483794e+00 1.657379e-02 2.587025e-01 9.979436e-01 6.000495e-02 1.875831e+00 1.299109e+00 8.128443e-01 8.389328e-01 -6.856331e-01 4.281284e-01 1.266962e-01 6.931723e-01 -9.611085e-03 -4.747053e-02 -4.788913e-01 1.637493e-01 9.210900e-02 -3.074844e-02 -4.790503e-01
<VARIANCE> 25
 5.059958e+01 6.829152e+01 6.840383e+01 5.635067e+01 6.339653e+01 9.668903e+01 9.123853e+01 5.431469e+01 4.460275e+01 3.482293e+01 2.939247e+01 3.017631e+01 3.389254e+00 5.097819e+00 3.466737e+00 3.082344e+00 3.303480e+00 4.066931e+00 3.876641e+00 3.780114e+00 3.552606e+00 3.218060e+00 2.582859e+00 2.038470e+00 1.891502e+00
<GCONST> 1.089526e+02
<TRANSP> 5
 0.000000e+00 1.000000e+00 0.000000e+00 0.000000e+00 0.000000e+00
 0.000000e+00 8.683686e-01 1.316314e-01 0.000000e+00 0.000000e+00
 0.000000e+00 0.000000e+00 4.866747e-01 5.133253e-01 0.000000e+00
 0.000000e+00 0.000000e+00 0.000000e+00 7.521170e-01 2.478831e-01
 0.000000e+00 0.000000e+00 0.000000e+00 0.000000e+00 0.000000e+00
<ENDHMM>
~h "V"
<BEGINHMM>
<NUMSTATES> 5
<STATE> 2
<MEAN> 25
 1.477428e+00 3.785673e+00 -9.217506e-01 2.017028e-01 2.022147e-02 1.921410e+00 -1.695434e+00 7.755610e-01 -6.102425e-01 -9.168042e-01 -2.441575e+00 -5.393248e-01 -4.960889e-01 1.907809e-01 1.191472e-01 9.989029e-02 3.101268e-01 2.526833e-01 3.429060e-01 3.728741e-01 3.224196e-01 -7.104301e-02 9.351092e-02 1.254057e-01 -3.393485e-01
<VARIANCE> 25
 4.878019e+01 1.625903e+01 1.537551e+01 1.704978e+01 3.372452e+01 3.970370e+01 1.765007e+01 2.867611e+01 2.138392e+01 2.238132e+01 2.441678e+01 1.975351e+01 1.325507e+00 1.436101e+00 8.468684e-01 1.056032e+00 1.579903e+00 1.654536e+00 1.541485e+00 1.803919e+00 1.869773e+00 1.637582e+00 1.486439e+00 1.369546e+00 5.649354e-01
<GCONST> 8.774223e+01
<STATE> 3
<MEAN> 25
 -4.603796e+00 -5.824597e-01 1.737334e-01 4.069712e-01 7.102570e-01 3.137692e+00 1.555029e+00 3.109041e+00 2.925312e+00 -2.904081e-02 1.429611e-01 1.740144e+00 -3.834797e-01 -2.277506e-01 1.233046e-01 -1.492108e-01 1.870842e-01 3.482721e-02 1.172867e-01 9.786683e-02 1.244671e-01 5.593497e-02 2.326026e-01 1.705874e-01 3.095755e-02
<VARIANCE> 25
 4.449041e+01 7.056280e+01 2.247906e+01 2.399569e+01 5.021955e+01 2.816492e+01 2.062219e+01 2.986932e+01 3.104556e+01 2.956329e+01 2.205257e+01 1.373553e+01 1.929223e+00 4.125349e+00 1.553150e+00 1.424993e+00 3.198605e+00 1.941832e+00 1.884226e+00 2.252510e+00 2.268886e+00 1.503644e+00 1.736166e+00 1.426048e+00 9.755061e-01
<GCONST> 9.475185e+01
<STATE> 4
<MEAN> 25
 -4.126157e+00 2.932712e+00 2.752307e+00 -4.729353e+00 9.137897e+00 -2.998811e+00 1.343223e+00 2.540281e+00 -7.286067e-01 -1.063083e+00 9.514421e-01 4.264326e-01 1.859972e-01 -1.898370e-01 2.017509e-01 -3.215377e-01 -2.658966e-01 -6.496792e-01 -3.465084e-01 9.814964e-02 -1.403311e-01 2.726524e-02 5.553934e-02 -3.337750e-02 2.841326e-01
<VARIANCE> 25
 6.672830e+01 4.219944e+01 3.647883e+01 6.623594e+01 1.207487e+02 8.492212e+01 6.437576e+01 5.850140e+01 5.467043e+01 3.410878e+01 3.755873e+01 2.237310e+01 6.266906e+00 2.990844e+00 3.391216e+00 5.355878e+00 9.453083e+00 5.806189e+00 4.834064e+00 3.593512e+00 3.181376e+00 2.390436e+00 3.361340e+00 1.872810e+00 1.094067e+00
<GCONST> 1.100626e+02
<TRANSP> 5
 0.000000e+00 1.000000e+00 0.000000e+00 0.000000e+00 0.000000e+00
 0.000000e+00 8.216264e-01 1.783736e-01 0.000000e+00 0.000000e+00
 0.000000e+00 0.000000e+00 8.467436e-01 1.532564e-01 0.000000e+00
 0.000000e+00 0.000000e+00 0.000000e+00 7.301263e-01 2.698738e-01
 0.000000e+00 0.000000e+00 0.000000e+00 0.000000e+00 0.000000e+00
<ENDHMM>
~h "W"
<BEGINHMM>
<NUMSTATES> 5
<STATE> 2
<MEAN> 25
 -4.341883e+00 1.627605e+00 -4.415895e+00 1.386070e+00 6.705933e-01 4.758875e+00 8.769988e-01 4.811458e+00 1.989638e+00 -2.568945e-01 4.634060e-01 1.739299e+00 1.073456e-01 2.773701e-01 7.637569e-02 -2.965526e-02 -2.361819e-01 -1.108029e-01 -1.753480e-01 -3.622144e-02 2.237024e-02 9.638076e-03 -6.739395e-03 -2.704629e-02 -7.172354e-02
<VARIANCE> 25
 1.902717e+01 1.661834e+01 2.102964e+01 1.542410e+01 1.803722e+01 2.082755e+01 1.581019e+01 1.820134e+01 1.728804e+01 1.510192e+01 1.267477e+01 1.267176e+01 9.941615e-01 1.420831e+00 9.798024e-01 1.053308e+00 1.523376e+00 1.799667e+00 1.523066e+00 1.564163e+00 1.399139e+00 1.138449e+00 1.163442e+00 1.041056e+00 4.922290e-01
<GCONST> 8.192171e+01
<STATE> 3
<MEAN> 25
 6.933268e+00 1.176248e+01 3.068220e+00 -8.147116e-01 -5.016637e+00 -6.271871e+00 -6.727256e+00 -2.572095e+00 -5.086596e-01 -4.000242e-02 1.048699e+00 -1.764334e-01 1.049479e+00 7.478926e-01 2.923370e-01 -5.166773e-01 -1.243841e+00 -1.160341e+00 -5.049707e-01 9.001533e-03 2.821473e-01 2.732369e-01 -9.362106e-02 -4.032883e-01 5.914974e-01
<VARIANCE> 25
 1.736913e+01 1.972301e+01 1.469827e+01 2.500905e+01 2.603580e+01 2.990395e+01 3.083647e+01 2.330110e+01 1.721611e+01 1.733414e+01 1.475673e+01 1.916408e+01 2.161569e+00 2.206265e+00 1.697046e+00 2.389920e+00 2.884992e+00 3.029149e+00 2.798773e+00 3.054108e+00 2.373039e+00 1.483112e+00 1.709135e+00 2.098997e+00 1.158875e+00
<GCONST> 9.222727e+01
<STATE> 4
<MEAN> 25
 1.063458e+01 9.799339e+00 4.823498e-01 -6.320835e+00 -9.463428e+00 -7.441643e+00 -3.107345e+00 2.641526e+00 1.511087e+00 -8.142395e-01 -4.871223e+00 -6.242108e+00 5.893834e-01 -1.367375e+00 -5.290812e-01 -6.424935e-01 3.048100e-01 4.915417e-01 8.506104e-01 -1.135119e-01 -7.873945e-01 -5.152414e-01 -1.392960e+00 -5.926769e-01 1.209763e+00
<VARIANCE> 25
 1.745184e+01 2.577517e+01 1.489643e+01 2.054571e+01 3.200213e+01 4.171572e+01 5.187054e+01 2.462380e+01 4.119948e+01 2.398960e+01 3.711972e+01 2.663311e+01 1.024009e+00 2.114681e+00 1.478813e+00 3.520607e+00 4.005160e+00 3.389850e+00 3.244297e+00 4.481768e+00 5.542955e+00 2.582745e+00 4.253918e+00 3.477514e+00 1.055678e+00
<GCONST> 9.903855e+01
<TRANSP> 5
 0.000000e+00 1.000000e+00 0.000000e+00 0.000000e+00 0.000000e+00
 0.000000e+00 9.042084e-01 9.579159e-02 0.000000e+00 0.000000e+00
 0.000000e+00 0.000000e+00 7.344524e-01 2.655476e-01 0.000000e+00
 0.000000e+00 0.000000e+00 0.000000e+00 6.318464e-01 3.681536e-01
 0.000000e+00 0.000000e+00 0.000000e+00 0.000000e+00 0.000000e+00
<ENDHMM>
~h "Y"
<BEGINHMM>
<NUMSTATES> 5
<STATE> 2
<MEAN> 25
 2.709929e+00 -1.627744e+00 8.258904e+00 1.440278e+01 5.696869e-01 -9.327881e+00 -2.281290e+00 -2.113091e+00 -3.231550e+00 -2.681488e+00 -3.913708e+00 -5.666604e+00 4.258779e-01 -6.928151e-01 -5.418136e-01 1.414345e+00 -2.058347e-01 -6.652335e-01 1.961902e-03 -4.518029e-01 -9.206048e-01 5.108672e-01 3.159051e-01 -9.921259e-01 1.772118e-01
<VARIANCE> 25
 1.694178e+01 2.975286e+01 4.842461e+01 6.692330e+01 3.793554e+01 6.156516e+01 3.403639e+01 3.673400e+01 3.708974e+01 2.573669e+01 2.078343e+01 2.968876e+01 2.914607e+00 4.399170e+00 4.633380e+00 8.536337e+00 1.945051e+00 6.706855e+00 3.589766e+00 4.727535e+00 2.913590e+00 4.834009e+00 1.938759e+00 3.254319e+00 1.817431e+00
<GCONST> 1.051397e+02
<STATE> 3
<MEAN> 25
 -1.284441e+00 8.061430e-01 -1.835115e+00 7.553617e+00 1.842479e+00 2.765265e+00 -1.758068e+00 2.414981e+00 -1.493936e+00 -2.582655e+00 -2.519174e-01 -9.487770e-01 1.908429e-01 5.949621e-02 2.066709e-03 2.511203e-01 2.261343e-01 -2.085807e-01 -3.634474e-01 3.619934e-02 1.114656e-01 -3.249815e-02 -1.827264e-01 -6.033791e-02 1.146651e-01
<VARIANCE> 25
 3.405347e+01 2.906445e+01 7.040088e+01 4.875723e+01 2.630401e+01 6.039780e+01 5.746132e+01 5.633904e+01 3.045834e+01 2.016246e+01 2.871596e+01 1.988222e+01 8.250334e-01 1.317780e+00 1.786565e+00 2.001652e+00 1.120811e+00 2.491853e+00 2.457963e+00 2.100611e+00 1.961272e+00 1.209134e+00 2.236093e+00 1.164833e+00 4.142571e-01
<GCONST> 9.417210e+01
<STATE> 4
<MEAN> 25
 6.929224e+00 -6.710079e-01 5.669622e+00 1.687353e+01 1.205521e+01 -1.097152e+01 -1.652937e+01 -1.666649e+00 -6.092836e-01 2.065635e+00 -4.047977e+00 -7.427930e+00 3.403991e-01 1.745320e-01 -6.034312e-01 -6.763190e-01 3.055351e-01 3.238102e-01 -3.015255e-01 -1.022309e+00 -2.783389e-01 8.624471e-01 5.649279e-01 -1.640911e-01 1.996153e-01
<VARIANCE> 25
 1.024123e+01 2.061512e+01 2.222058e+01 3.560297e+01 6.118024e+01 3.806472e+01 6.858314e+01 6.336392e+01 3.000387e+01 4.691507e+01 3.368910e+01 2.930406e+01 2.302328e-01 9.304606e-01 1.404209e+00 1.531052e+00 1.941473e+00 2.069559e+00 3.023664e+00 2.415600e+00 2.711401e+00 2.630627e+00 2.302537e+00 2.068777e+00 3.243560e-01
<GCONST> 9.325108e+01
<TRANSP> 5
 0.000000e+00 1.000000e+00 0.000000e+00 0.000000e+00 0.000000e+00
 0.000000e+00 5.938273e-01 4.061727e-01 0.000000e+00 0.000000e+00
 0.000000e+00 0.000000e+00 9.296252e-01 7.037479e-02 0.000000e+00
 0.000000e+00 0.000000e+00 0.000000e+00 8.525952e-01 1.474048e-01
 0.000000e+00 0.000000e+00 0.000000e+00 0.000000e+00 0.000000e+00
<ENDHMM>
~h "Z"
<BEGINHMM>
<NUMSTATES> 5
<STATE> 2
<MEAN> 25
 9.625993e-01 -2.768003e+00 1.063970e+01 4.321349e+00 -5.016279e-01 3.016326e-01 1.746670e+00 -4.532512e+00 -5.916636e+00 -2.802998e+00 -1.837985e+00 -3.465605e-01 -3.296118e+00 -2.281175e+00 3.645884e+00 -1.045002e+00 -1.021499e+00 4.892974e-01 2.135586e+00 1.245811e+00 5.813996e-01 1.838716e-02 1.132258e+00 4.699555e-01 5.362620e-01
<VARIANCE> 25
 3.581325e+01 6.062378e+01 7.609489e+01 8.093873e+01 5.957436e+01 4.933928e+01 8.773984e+01 6.972113e+01 6.297669e+01 4.732735e+01 4.090716e+01 3.132204e+01 2.181633e+00 6.778785e+00 3.384653e+00 5.809703e+00 6.764214e+00 6.823271e+00 7.646803e+00 5.529939e+00 7.169115e+00 4.627744e+00 3.184208e+00 2.878410e+00 8.601745e-01
<GCONST> 1.130317e+02
<STATE> 3
<MEAN> 25
 -7.363650e+00 -1.402294e+01 1.264469e+01 2.130615e+00 -5.400711e+00 -3.112782e-01 2.096249e+00 2.520467e+00 -1.569787e+00 -3.515891e+00 3.300983e+00 2.126137e+00 -8.417128e-01 3.449032e-01 -6.980653e-01 -9.497473e-01 7.015305e-01 -1.305536e-01 3.618236e-01 1.066290e-02 5.733604e-01 1.972633e-01 5.632829e-02 2.331365e-01 -5.589616e-02
<VARIANCE> 25
 2.167078e+01 1.592489e+02 7.376098e+01 7.389910e+01 9.662503e+01 4.465754e+01 7.240843e+01 4.942454e+01 5.194374e+01 3.174905e+01 2.758265e+01 2.405228e+01 5.628712e+00 7.634052e+00 6.330637e+00 3.590409e+00 4.304285e+00 2.662022e+00 3.818282e+00 4.341341e+00 2.963772e+00 2.571067e+00 2.822813e+00 1.757373e+00 1.574486e+00
<GCONST> 1.093721e+02
<STATE> 4
<MEAN> 25
 -1.058546e+01 -3.011060e+00 1.069796e+01 -4.393231e+00 1.718973e+00 2.011912e-01 6.134065e+00 -1.058748e+00 5.227220e-02 -7.408431e-01 1.053574e+00 9.313644e-01 6.635892e-01 1.580394e-01 -9.706711e-01 3.395720e-01 -2.203978e-01 2.890641e-02 -4.950605e-01 1.050137e-01 -3.282142e-02 1.564755e-02 -8.250599e-02 -8.479111e-02 -4.409888e-01
<VARIANCE> 25
 5.305056e+01 4.405524e+01 1.071463e+02 5.638062e+01 3.514790e+01 7.712696e+01 1.226929e+02 8.068213e+01 7.162140e+01 4.234501e+01 2.933390e+01 2.354837e+01 4.388952e+00 2.644268e+00 3.372507e+00 2.521154e+00 2.368813e+00 3.418339e+00 5.033827e+00 3.336749e+00 3.319406e+00 2.722863e+00 2.534259e+00 1.667308e+00 1.374754e+00
<GCONST> 1.075356e+02
<TRANSP> 5
 0.000000e+00 1.000000e+00 0.000000e+00 0.000000e+00 0.000000e+00
 0.000000e+00 6.712883e-01 3.287117e-01 0.000000e+00 0.000000e+00
 0.000000e+00 0.000000e+00 6.885275e-01 3.114725e-01 0.000000e+00
 0.000000e+00 0.000000e+00 0.000000e+00 8.849812e-01 1.150189e-01
 0.000000e+00 0.000000e+00 0.000000e+00 0.000000e+00 0.000000e+00
<ENDHMM>
~h "AA"
<BEGINHMM>
<NUMSTATES> 5
<STATE> 2
<MEAN> 25
 5.072351e+00 -8.404937e-01 -3.254944e+00 -4.411633e+00 -7.031139e+00 -2.651782e+00 2.541503e+00 5.113903e+00 3.436526e+00 -5.001262e-01 -1.334284e+00 -1.306144e+00 1.337870e+00 3.913826e-01 -3.368407e-01 -4.708553e-01 -8.519038e-01 -1.455021e-01 5.120847e-01 -1.002281e-01 2.410591e-01 1.046877e-01 -7.569874e-01 -5.876234e-01 9.153709e-01
<VARIANCE> 25
 5.674302e+01 4.908532e+01 3.585180e+01 3.533333e+01 6.284865e+01 4.143653e+01 4.243506e+01 7.637336e+01 7.001493e+01 3.402954e+01 4.132029e+01 2.287665e+01 3.207016e+00 4.797497e+00 3.264095e+00 3.285691e+00 3.394324e+00 3.364636e+00 3.298398e+00 5.277742e+00 3.557380e+00 2.826009e+00 3.197927e+00 2.626464e+00 2.640823e+00
<GCONST> 1.074046e+02
<STATE> 3
<MEAN> 25
 1.201044e+01 -1.113014e+00 -5.330358e+00 -6.529637e+00 -1.295479e+01 -6.189173e+00 7.280769e+00 5.821079e+00 3.715896e+00 -1.898567e+00 -5.741277e+00 -3.344542e+00 1.966406e-01 -2.449178e-01 -1.083775e-01 -7.532334e-02 -6.618394e-02 1.077625e-01 1.807407e-01 -3.802301e-01 -2.167363e-01 1.051370e-01 -3.625295e-01 9.591985e-02 2.795033e-01
<VARIANCE> 25
 1.468130e+01 2.892236e+01 3.191375e+01 2.492894e+01 4.270503e+01 3.020020e+01 5.749547e+01 5.455759e+01 4.270625e+01 4.329464e+01 2.960927e+01 1.631563e+01 5.365784e-01 1.146890e+00 1.229204e+00 1.245940e+00 1.854995e+00 1.697356e+00 1.793461e+00 2.427300e+00 1.842377e+00 1.726915e+00 1.361574e+00 1.348573e+00 6.298591e-01
<GCONST> 9.145435e+01
<STATE> 4
<MEAN> 25
 1.009101e+01 2.578200e+00 -2.570953e+00 -6.262850e+00 -9.116235e+00 -2.676144e+00 3.195401e+00 1.833478e+00 2.235029e+00 -1.129377e-01 -5.386822e+00 -2.406164e+00 -5.623984e-01 5.225316e-01 1.691173e-01 6.846812e-01 1.473765e+00 5.942935e-01 -3.023743e-01 -4.363725e-01 -7.354512e-01 -2.074457e-01 6.403881e-01 2.719021e-01 -6.883698e-01
<VARIANCE> 25
 1.849816e+01 3.114190e+01 3.110725e+01 3.046312e+01 4.494569e+01 3.604536e+01 4.846944e+01 4.585156e+01 4.285614e+01 3.560400e+01 4.012444e+01 2.048483e+01 6.770223e-01 1.488181e+00 1.462376e+00 1.596777e+00 2.208822e+00 2.324804e+00 3.272764e+00 2.764662e+00 3.031524e+00 2.020576e+00 1.559414e+00 1.435570e+00 1.016301e+00
<GCONST> 9.562436e+01
<TRANSP> 5
 0.000000e+00 1.000000e+00 0.000000e+00 0.000000e+00 0.000000e+00
 0.000000e+00 7.035909e-01 2.964090e-01 0.000000e+00 0.000000e+00
 0.000000e+00 0.000000e+00 6.948613e-01 3.051387e-01 0.000000e+00
 0.000000e+00 0.000000e+00 0.000000e+00 7.464167e-01 2.535832e-01
 0.000000e+00 0.000000e+00 0.000000e+00 0.000000e+00 0.000000e+00
<ENDHMM>
~h "AE"
<BEGINHMM>
<NUMSTATES> 5
<STATE> 2
<MEAN> 25
 3.467644e+00 -6.560799e+00 -4.029305e+00 -2.162190e+00 -2.144482e+00 -2.198959e+00 6.938880e-01 -2.200055e+00 4.377517e+00 4.096853e+00 -6.833901e-01 -3.930103e-01 1.034022e+00 -3.163281e-01 -6.260998e-01 -4.880265e-01 -3.207465e-01 1.689908e-02 5.158336e-01 -3.036004e-01 2.649003e-01 3.662648e-01 -2.828002e-01 -2.893257e-01 1.049121e+00
<VARIANCE> 25
 5.932132e+01 8.703830e+01 5.884901e+01 5.440543e+01 4.665811e+01 6.035478e+01 6.959657e+01 7.782006e+01 7.083042e+01 6.257610e+01 4.088003e+01 2.347573e+01 3.120192e+00 6.719528e+00 4.790720e+00 3.783887e+00 4.331271e+00 4.953377e+00 4.832344e+00 6.080051e+00 5.657751e+00 4.701330e+00 2.687750e+00 1.956915e+00 3.247457e+00
<GCONST> 1.128766e+02
<STATE> 3
<MEAN> 25
 1.065898e+01 -5.725684e+00 -7.860347e+00 -3.494637e+00 -4.384351e+00 -2.731442e+00 4.757489e+00 -2.702583e+00 1.734159e+00 1.909891e+00 -2.137239e+00 -6.579266e-01 9.196912e-02 4.982182e-02 4.976643e-02 -5.187611e-02 -1.655273e-01 3.049035e-02 1.433347e-01 -1.405332e-01 -1.355709e-01 1.279500e-01 -1.989166e-01 -8.453866e-04 -8.065961e-04
<VARIANCE> 25
 2.047824e+01 3.821387e+01 2.632737e+01 2.963276e+01 2.968410e+01 2.618742e+01 7.041372e+01 3.806025e+01 3.884216e+01 5.155335e+01 1.865945e+01 1.478359e+01 4.684069e-01 9.725273e-01 1.144035e+00 1.380983e+00 1.453393e+00 1.640478e+00 1.696232e+00 1.762904e+00 1.495991e+00 1.331073e+00 9.585826e-01 1.095498e+00 5.207860e-01
<GCONST> 8.876105e+01
<STATE> 4
<MEAN> 25
 5.832588e+00 -2.146758e+00 -6.345548e+00 -3.660819e+00 -1.714787e+00 2.423814e+00 1.878026e+00 -1.826919e+00 1.781147e+00 4.934650e+00 9.530143e-01 -1.355053e+00 -5.600238e-01 6.160691e-01 1.891270e-01 3.493097e-01 4.764314e-01 5.230782e-01 -9.971835e-02 2.269415e-01 -3.310575e-01 -4.395870e-01 2.873439e-01 2.133175e-01 -8.917730e-01
<VARIANCE> 25
 4.297705e+01 2.348011e+01 2.462154e+01 3.599668e+01 4.033195e+01 4.189071e+01 5.351262e+01 6.300934e+01 3.504264e+01 4.795957e+01 3.090189e+01 2.863943e+01 1.076494e+00 1.462709e+00 2.050346e+00 2.223294e+00 2.277220e+00 2.480684e+00 2.545334e+00 2.782495e+00 2.484704e+00 2.593271e+00 1.696355e+00 1.857675e+00 1.085351e+00
<GCONST> 9.817159e+01
<TRANSP> 5
 0.000000e+00 1.000000e+00 0.000000e+00 0.000000e+00 0.000000e+00
 0.000000e+00 7.548671e-01 2.451330e-01 0.000000e+00 0.000000e+00
 0.000000e+00 0.000000e+00 7.720761e-01 2.279240e-01 0.000000e+00
 0.000000e+00 0.000000e+00 0.000000e+00 7.987576e-01 2.012424e-01
 0.000000e+00 0.000000e+00 0.000000e+00 0.000000e+00 0.000000e+00
<ENDHMM>
~h "AH"
<BEGINHMM>
<NUMSTATES> 5
<STATE> 2
<MEAN> 25
 4.225406e+00 -1.513481e+00 2.935150e-01 4.572489e-01 -7.796758e-01 -2.620553e+00 -1.657972e+00 -3.172288e+00 -2.351702e+00 -1.391366e+00 -1.037841e+00 -1.472940e-02 1.364253e+00 5.767541e-02 -4.137781e-01 1.146526e-01 -6.441101e-01 -7.464751e-01 -1.814046e-01 -4.423604e-01 -3.315614e-01 1.779807e-01 -4.929562e-01 -2.943938e-01 7.424608e-01
<VARIANCE> 25
 4.466705e+01 5.517545e+01 4.988433e+01 5.849797e+01 4.875665e+01 5.456612e+01 4.442687e+01 4.766771e+01 4.278191e+01 3.660794e+01 2.936155e+01 2.328163e+01 4.941639e+00 5.980021e+00 4.096327e+00 4.066432e+00 5.215744e+00 4.906761e+00 4.528465e+00 4.602038e+00 4.533851e+00 3.787827e+00 3.291104e+00 2.709376e+00 3.084937e+00
<GCONST> 1.097995e+02
<STATE> 3
<MEAN> 25
 8.803532e+00 -9.855198e-01 -1.352643e+00 3.100570e-01 -3.366630e+00 -5.540485e+00 -1.586535e+00 -3.665779e+00 -3.771886e+00 -1.695757e+00 -2.328718e+00 -1.371343e+00 3.362141e-01 4.646363e-01 3.840131e-02 -1.238379e-01 -1.645457e-01 1.684282e-02 -4.751861e-02 1.275742e-01 3.378329e-01 2.053330e-01 -4.171257e-01 -3.561926e-01 6.817520e-02
<VARIANCE> 25
 2.870447e+01 5.390396e+01 3.600707e+01 5.053435e+01 5.896344e+01 5.112227e+01 5.194592e+01 4.945029e+01 4.766389e+01 3.860391e+01 2.721911e+01 2.636941e+01 2.071536e+00 3.374686e+00 2.486601e+00 2.993135e+00 4.031674e+00 3.685346e+00 2.891836e+00 3.076846e+00 3.151857e+00 2.622111e+00 2.297739e+00 2.174394e+00 1.737953e+00
<GCONST> 1.038630e+02
<STATE> 4
<MEAN> 25
 8.022486e+00 1.494018e+00 3.959602e-02 -1.225935e+00 -3.156888e+00 -1.505521e+00 -2.075717e+00 -3.226778e+00 1.993052e-01 4.117645e-01 -3.938237e+00 -1.596161e+00 -4.843632e-01 5.148580e-01 2.155965e-01 1.988983e-01 5.198195e-01 6.724496e-01 2.940172e-01 3.832017e-01 1.880635e-01 -1.503906e-01 1.610471e-01 1.045063e-01 -6.243142e-01
<VARIANCE> 25
 2.276114e+01 2.685913e+01 3.326710e+01 6.384483e+01 8.697740e+01 5.600200e+01 5.489766e+01 6.032420e+01 6.532114e+01 5.580280e+01 3.813193e+01 3.385078e+01 1.750923e+00 2.365233e+00 2.140602e+00 2.475410e+00 3.554981e+00 3.854919e+00 3.109048e+00 3.231621e+00 3.567341e+00 2.779474e+00 2.347527e+00 2.013337e+00 1.529914e+00
<GCONST> 1.042700e+02
<TRANSP> 5
 0.000000e+00 1.000000e+00 0.000000e+00 0.000000e+00 0.000000e+00
 0.000000e+00 5.398223e-01 4.601777e-01 0.000000e+00 0.000000e+00
 0.000000e+00 0.000000e+00 4.588286e-01 5.411714e-01 0.000000e+00
 0.000000e+00 0.000000e+00 0.000000e+00 6.921563e-01 3.078437e-01
 0.000000e+00 0.000000e+00 0.000000e+00 0.000000e+00 0.000000e+00
<ENDHMM>
~h "AO"
<BEGINHMM>
<NUMSTATES> 5
<STATE> 2
<MEAN> 25
 1.018779e+01 4.933254e+00 3.895314e-01 -7.269994e+00 -9.873662e+00 -6.960288e+00 -1.663276e+00 1.473525e+00 3.347515e+00 3.470623e+00 -4.092009e+00 -4.629571e+00 7.201182e-01 4.996963e-01 -3.702821e-01 -8.867209e-01 -9.748839e-01 -1.958219e-01 3.838117e-01 5.144219e-02 6.411872e-02 5.801890e-01 1.469272e-02 -4.677230e-01 2.226392e-01
<VARIANCE> 25
 2.005312e+01 3.950697e+01 2.127756e+01 4.065472e+01 6.406794e+01 4.994238e+01 5.658495e+01 4.444122e+01 5.681844e+01 6.290770e+01 4.636360e+01 3.742990e+01 2.176515e+00 2.501126e+00 1.692824e+00 2.577105e+00 3.668128e+00 3.762100e+00 3.729834e+00 3.007929e+00 3.919458e+00 2.786683e+00 2.910091e+00 2.049784e+00 1.129006e+00
<GCONST> 1.034337e+02
<STATE> 3
<MEAN> 25
 1.112757e+01 7.097399e+00 -3.077581e+00 -9.836441e+00 -9.175644e+00 -3.800911e+00 1.393464e+00 -4.662932e-01 -2.010573e+00 1.634799e+00 -6.393957e-01 -4.065799e+00 3.899380e-02 -4.254530e-01 -9.579655e-01 -4.837311e-01 6.683366e-01 1.495516e+00 1.244255e+00 -3.393152e-01 -1.528554e+00 -1.008721e+00 2.743354e-01 7.397684e-01 1.099005e-01
<VARIANCE> 25
 1.714980e+01 3.961848e+01 1.885942e+01 2.363607e+01 2.751933e+01 3.641574e+01 5.818862e+01 4.177673e+01 5.518601e+01 3.570047e+01 2.129664e+01 3.351945e+01 3.017879e-01 6.536004e-01 8.087771e-01 1.159861e+00 1.338661e+00 1.623977e+00 1.695114e+00 1.957740e+00 2.039447e+00 2.073231e+00 1.687478e+00 1.690231e+00 2.500359e-01
<GCONST> 8.882305e+01
<STATE> 4
<MEAN> 25
 -5.850935e-01 1.570573e+00 -4.685007e+00 -3.404529e+00 -2.353237e+00 3.880792e+00 4.149145e+00 4.553408e+00 1.321434e+00 -2.864916e-01 7.031679e-01 1.138788e+00 -3.922589e-01 -1.277763e-01 -1.085117e-02 3.046182e-01 4.185825e-01 3.001269e-01 -1.214434e-01 -5.130658e-02 -3.825223e-02 -8.851908e-02 1.244752e-01 1.989822e-01 -3.325069e-01
<VARIANCE> 25
 6.645206e+01 3.106339e+01 2.099696e+01 3.728326e+01 3.308963e+01 3.291832e+01 3.794888e+01 3.448161e+01 4.446001e+01 2.696116e+01 2.184555e+01 1.750267e+01 7.089801e-01 8.954141e-01 8.576874e-01 1.433389e+00 1.544127e+00 1.528043e+00 1.488637e+00 2.019577e+00 1.758510e+00 1.677746e+00 1.555800e+00 1.197742e+00 7.428051e-01
<GCONST> 9.056595e+01
<TRANSP> 5
 0.000000e+00 1.000000e+00 0.000000e+00 0.000000e+00 0.000000e+00
 0.000000e+00 7.237793e-01 2.762207e-01 0.000000e+00 0.000000e+00
 0.000000e+00 0.000000e+00 6.903400e-01 3.096600e-01 0.000000e+00
 0.000000e+00 0.000000e+00 0.000000e+00 8.718500e-01 1.281500e-01
 0.000000e+00 0.000000e+00 0.000000e+00 0.000000e+00 0.000000e+00
<ENDHMM>
~h "AW"
<BEGINHMM>
<NUMSTATES> 5
<STATE> 2
<MEAN> 25
 4.826429e+00 -2.760033e+00 -6.615784e+00 -5.953372e+00 -2.344361e+00 1.453586e+00 2.040263e+00 -1.681530e+00 1.275241e+00 3.423704e+00 -2.677957e+00 -5.659235e-01 1.585743e+00 1.063272e+00 2.892000e-01 -7.033925e-01 -8.717960e-01 -1.834089e-01 5.970632e-01 -1.232717e+00 -7.348882e-01 6.155089e-01 -7.435080e-01 -4.117370e-01 1.065769e+00
<VARIANCE> 25
 5.096903e+01 3.742778e+01 5.040747e+01 4.333855e+01 3.281364e+01 2.658252e+01 4.185614e+01 4.906059e+01 5.639914e+01 6.178817e+01 2.452954e+01 2.961304e+01 4.070247e+00 3.919099e+00 5.475311e+00 4.440180e+00 4.529531e+00 4.447105e+00 3.006558e+00 5.610213e+00 3.677703e+00 5.252415e+00 2.759065e+00 2.388136e+00 1.202931e+00
<GCONST> 1.071523e+02
<STATE> 3
<MEAN> 25
 1.228461e+01 -1.755359e+00 -7.280756e+00 -7.016360e+00 -8.057782e+00 -3.126510e+00 4.350788e+00 -6.161988e-01 8.704193e-01 2.132905e+00 -4.394688e+00 -2.225106e+00 1.616498e-01 4.671478e-01 3.716710e-01 1.348074e-01 -5.909033e-01 -3.841820e-01 -3.549305e-01 2.305499e-01 -4.214107e-01 -2.995076e-01 -1.216191e-01 -1.803792e-01 -2.700166e-01
<VARIANCE> 25
 1.087283e+01 3.043252e+01 1.715801e+01 1.661526e+01 2.868105e+01 2.705475e+01 3.374641e+01 4.143679e+01 1.778146e+01 1.015179e+02 2.470887e+01 1.831397e+01 4.435724e-01 1.131616e+00 1.419046e+00 9.829223e-01 1.508121e+00 1.776800e+00 2.203363e+00 2.293878e+00 1.795710e+00 1.635505e+00 1.586858e+00 1.770623e+00 4.185102e-01
<GCONST> 8.840065e+01
<STATE> 4
<MEAN> 25
 1.025717e+01 4.778716e+00 -2.511630e+00 -5.249193e+00 -7.116735e+00 -6.336104e-01 3.403316e+00 1.801585e-01 -5.514752e-01 2.069047e+00 -2.796131e+00 -2.195750e+00 -1.113117e+00 2.810054e-01 5.352376e-01 1.055849e+00 1.221474e+00 8.665716e-01 1.524004e-01 1.024118e+00 3.664756e-01 -8.245536e-01 6.438610e-01 8.092524e-01 -1.071334e+00
<VARIANCE> 25
 2.218807e+01 3.645065e+01 1.873351e+01 1.893672e+01 3.040230e+01 3.799979e+01 2.968421e+01 3.264119e+01 2.205305e+01 3.670822e+01 2.935090e+01 2.548772e+01 5.711349e-01 2.620664e+00 1.520752e+00 1.531464e+00 1.786975e+00 3.884599e+00 1.783054e+00 3.904214e+00 2.343826e+00 2.840566e+00 2.228977e+00 2.260655e+00 8.278200e-01
<GCONST> 9.420679e+01
<TRANSP> 5
 0.000000e+00 1.000000e+00 0.000000e+00 0.000000e+00 0.000000e+00
 0.000000e+00 7.517563e-01 2.482437e-01 0.000000e+00 0.000000e+00
 0.000000e+00 0.000000e+00 8.750103e-01 1.249897e-01 0.000000e+00
 0.000000e+00 0.000000e+00 0.000000e+00 7.616893e-01 2.383107e-01
 0.000000e+00 0.000000e+00 0.000000e+00 0.000000e+00 0.000000e+00
<ENDHMM>
~h "AY"
<BEGINHMM>
<NUMSTATES> 5
<STATE> 2
<MEAN> 25
 1.081453e+01 -1.357380e+00 -5.213478e+00 -6.375760e+00 -8.767682e+00 -2.376548e+00 4.160969e+00 1.625935e+00 4.339885e+00 8.367985e-01 -4.676587e+00 -1.975681e+00 3.436352e-01 -7.034123e-01 -4.548466e-01 -1.226421e-01 5.969803e-02 1.448780e-01 -1.212081e-01 -2.889895e-01 -1.759472e-02 2.596216e-01 8.652677e-02 -3.376595e-02 7.136658e-01
<VARIANCE> 25
 3.520338e+01 2.934473e+01 2.416906e+01 2.021928e+01 5.900523e+01 2.996911e+01 3.750441e+01 3.735079e+01 4.853579e+01 6.354982e+01 3.502220e+01 2.632800e+01 2.045359e+00 2.214360e+00 2.006977e+00 2.152369e+00 3.276354e+00 3.050658e+00 3.462605e+00 3.267821e+00 2.746751e+00 2.532682e+00 3.119385e+00 1.672413e+00 2.597291e+00
<GCONST> 1.009103e+02
<STATE> 3
<MEAN> 25
 1.104005e+01 -3.223477e+00 -6.896235e+00 -2.239096e+00 -3.475884e+00 -3.626188e+00 1.158797e+00 -3.520097e+00 7.661124e-01 2.304326e+00 -1.696997e+00 -1.481689e+00 -1.432188e-01 -2.971873e-01 1.681704e-01 1.271922e+00 1.056181e+00 -5.061536e-01 -1.018409e+00 -1.132749e+00 -3.675412e-01 6.131602e-01 6.254959e-01 2.266834e-02 -3.839600e-02
<VARIANCE> 25
 2.401518e+01 3.050952e+01 2.547807e+01 2.101370e+01 2.261032e+01 3.613369e+01 4.082090e+01 3.760675e+01 3.843655e+01 4.800610e+01 2.723141e+01 1.569178e+01 2.904778e-01 6.807581e-01 8.649547e-01 1.270007e+00 1.265957e+00 2.088600e+00 1.707255e+00 1.613014e+00 1.422535e+00 1.433677e+00 1.271765e+00 1.203611e+00 1.956741e-01
<GCONST> 8.641209e+01
<STATE> 4
<MEAN> 25
 6.896988e+00 -2.921731e+00 -2.036082e+00 4.176526e+00 2.172863e+00 -4.436404e+00 -6.393466e+00 -6.885350e+00 -8.564919e-01 4.459579e+00 -1.320314e+00 -2.372543e+00 -4.836870e-01 4.290312e-01 5.440788e-01 5.964434e-01 7.848821e-01 2.939600e-01 -2.645339e-01 2.597458e-01 -4.071427e-01 -4.670787e-01 2.758111e-02 -9.384908e-02 -5.953884e-01
<VARIANCE> 25
 3.239209e+01 1.973219e+01 3.065501e+01 2.984381e+01 2.256635e+01 5.251681e+01 4.262492e+01 3.916022e+01 3.762249e+01 2.973819e+01 2.482083e+01 1.527512e+01 4.455089e-01 1.043734e+00 1.644082e+00 1.682853e+00 1.692270e+00 2.903471e+00 2.750689e+00 1.615188e+00 1.905645e+00 1.539859e+00 1.713720e+00 1.249810e+00 3.802561e-01
<GCONST> 9.088799e+01
<TRANSP> 5
 0.000000e+00 1.000000e+00 0.000000e+00 0.000000e+00 0.000000e+00
 0.000000e+00 7.531052e-01 2.468947e-01 0.000000e+00 0.000000e+00
 0.000000e+00 0.000000e+00 7.672268e-01 2.327733e-01 0.000000e+00
 0.000000e+00 0.000000e+00 0.000000e+00 7.893285e-01 2.106716e-01
 0.000000e+00 0.000000e+00 0.000000e+00 0.000000e+00 0.000000e+00
<ENDHMM>
~h "CH"
<BEGINHMM>
<NUMSTATES> 5
<STATE> 2
<MEAN> 25
 -5.121744e+00 -5.568534e+00 -1.569580e+00 2.931162e+00 5.490514e-01 2.274570e+00 -3.690881e+00 4.609345e+00 3.403296e+00 -2.455390e+00 8.051301e-01 1.743869e+00 -1.276000e+00 -2.930649e+00 1.210818e+00 3.916574e-01 -3.863980e-01 -6.241844e-01 -3.791127e-01 6.337166e-01 9.529977e-01 -4.510804e-01 1.934965e-01 3.658577e-01 1.269654e+00
<VARIANCE> 25
 2.443729e+01 1.076396e+02 5.327209e+01 5.098415e+01 2.275782e+01 7.930715e+01 6.392202e+01 3.442016e+01 4.301264e+01 2.475578e+01 2.412591e+01 1.253156e+01 3.787020e+00 9.481911e+00 6.852100e+00 3.319551e+00 4.196056e+00 5.372053e+00 6.671914e+00 3.279005e+00 2.930153e+00 2.790672e+00 2.022307e+00 2.112216e+00 3.736437e+00
<GCONST> 1.073830e+02
<STATE> 3
<MEAN> 25
 -1.183444e+01 -2.401149e+01 1.153998e+01 5.444521e+00 2.356454e+00 -4.815873e+00 -5.334134e+00 5.332582e+00 9.903249e+00 -6.743471e-01 5.137551e-02 1.674904e+00 2.066746e-01 -3.784710e-02 -1.725114e-01 -1.739167e-01 3.415549e-01 3.838245e-01 -1.379327e-01 -5.364811e-01 -1.484833e-02 4.092208e-01 -9.107532e-02 -3.859735e-02 -4.264361e-02
<VARIANCE> 25
 3.762909e+01 7.141310e+01 4.402312e+01 2.307153e+01 6.400520e+01 3.987014e+01 3.785354e+01 7.115890e+01 3.735691e+01 2.368930e+01 2.543306e+01 1.465283e+01 2.227696e+00 1.577617e+00 2.994323e+00 1.966690e+00 3.704117e+00 2.230621e+00 2.684202e+00 1.858850e+00 1.372469e+00 1.914292e+00 1.541623e+00 9.482931e-01 1.338979e+00
<GCONST> 9.760258e+01
<STATE> 4
<MEAN> 25
 -7.562978e+00 -3.818174e+00 1.507729e+00 5.217638e-01 2.367845e+00 9.357269e-01 -1.231499e+00 4.192257e+00 6.703755e+00 2.713485e+00 8.433260e-01 2.330349e+00 8.023177e-01 1.389692e+00 -5.304187e-01 -2.477465e-01 1.021521e-01 8.426131e-02 1.209654e-02 -2.091082e-01 -6.854780e-01 3.815425e-02 1.764532e-01 -7.100195e-02 -4.025461e-01
<VARIANCE> 25
 2.297605e+01 1.148681e+02 3.288596e+01 3.063866e+01 2.136004e+01 1.654344e+01 3.628238e+01 3.128249e+01 2.316599e+01 2.245964e+01 1.113087e+01 1.062268e+01 2.906950e+00 4.592711e+00 1.913251e+00 1.648414e+00 1.496126e+00 1.423083e+00 2.190282e+00 1.938145e+00 2.364194e+00 1.309645e+00 1.560728e+00 1.298035e+00 1.056660e+00
<GCONST> 9.250246e+01
<TRANSP> 5
 0.000000e+00 1.000000e+00 0.000000e+00 0.000000e+00 0.000000e+00
 0.000000e+00 8.336861e-01 1.663138e-01 0.000000e+00 0.000000e+00
 0.000000e+00 0.000000e+00 7.309524e-01 2.690476e-01 0.000000e+00
 0.000000e+00 0.000000e+00 0.000000e+00 8.827717e-01 1.172283e-01
 0.000000e+00 0.000000e+00 0.000000e+00 0.000000e+00 0.000000e+00
<ENDHMM>
~h "DH"
<BEGINHMM>
<NUMSTATES> 5
<STATE> 2
<MEAN> 25
 -3.192491e+00 -2.982720e-01 1.803366e+00 -3.082660e+00 -5.107473e-01 1.203743e+00 6.042328e-01 -1.675094e+00 2.102653e+00 -1.127744e-01 -4.880997e-01 -5.398318e-01 -1.273253e-01 -2.770937e-02 -2.554953e-03 -1.789805e-01 -2.310871e-01 3.249228e-02 2.959661e-02 -7.232401e-02 -1.485136e-01 -1.085824e-01 6.796221e-02 1.391931e-01 -1.853785e-01
<VARIANCE> 25
 6.693348e+01 4.580306e+01 6.455738e+01 7.214014e+01 6.240783e+01 6.691166e+01 5.595031e+01 6.217648e+01 5.362090e+01 4.177961e+01 3.829378e+01 3.491410e+01 4.356166e+00 3.334272e+00 3.312643e+00 3.989853e+00 4.280737e+00 5.311651e+00 4.394978e+00 4.803640e+00 4.731846e+00 4.136420e+00 3.619948e+00 2.539757e+00 3.085615e+00
<GCONST> 1.115758e+02
<STATE> 3
<MEAN> 25
 -3.936255e+00 3.369610e+00 -3.224651e+00 1.642508e+00 -3.662692e-01 5.774737e+00 -5.265850e-01 3.416837e+00 1.354855e+00 1.417847e+00 2.377687e-01 2.536875e+00 3.436656e-02 1.221717e-01 6.223617e-02 6.111103e-02 6.405228e-02 -5.949464e-03 -5.602539e-04 -2.189887e-02 1.752521e-02 -4.711436e-02 3.497618e-02 3.911746e-02 7.703751e-04
<VARIANCE> 25
 1.938522e+01 2.313404e+01 2.864817e+01 2.124221e+01 1.824163e+01 2.174761e+01 1.621581e+01 3.071127e+01 2.267237e+01 1.606546e+01 1.501607e+01 1.177014e+01 5.845773e-01 1.034052e+00 1.159819e+00 1.080735e+00 1.171153e+00 1.258054e+00 1.269300e+00 1.597755e+00 1.445875e+00 1.229870e+00 1.157067e+00 9.397914e-01 4.537334e-01
<GCONST> 8.241648e+01
<STATE> 4
<MEAN> 25
 -2.256946e+00 3.750442e+00 5.995774e+00 -6.545998e-01 4.733753e+00 1.451018e+00 -1.777414e+00 -1.003359e+00 1.669285e-01 -2.396262e+00 -8.060341e-01 5.585889e-01 1.017355e+00 -5.406475e-01 4.177338e-01 -1.824185e-01 -2.293681e-01 -9.500751e-01 -8.647640e-01 -1.010070e+00 -5.736499e-01 -1.709755e-01 -5.759801e-01 -3.987228e-01 1.360522e+00
<VARIANCE> 25
 4.513943e+01 4.795435e+01 5.993080e+01 6.066375e+01 8.073884e+01 5.415260e+01 7.833894e+01 6.187698e+01 4.821901e+01 3.315542e+01 4.588653e+01 3.266618e+01 5.144827e+00 4.279356e+00 3.670001e+00 4.807992e+00 7.000265e+00 5.751119e+00 6.212645e+00 5.998967e+00 5.981704e+00 3.389214e+00 4.750554e+00 3.176231e+00 2.921731e+00
<GCONST> 1.134554e+02
<TRANSP> 5
 0.000000e+00 1.000000e+00 0.000000e+00 0.000000e+00 0.000000e+00
 0.000000e+00 7.516627e-01 2.483373e-01 0.000000e+00 0.000000e+00
 0.000000e+00 0.000000e+00 9.389505e-01 6.104955e-02 0.000000e+00
 0.000000e+00 0.000000e+00 0.000000e+00 7.541577e-01 2.458422e-01
 0.000000e+00 0.000000e+00 0.000000e+00 0.000000e+00 0.000000e+00
<ENDHMM>
~h "EA"
<BEGINHMM>
<NUMSTATES> 5
<STATE> 2
<MEAN> 25
 -4.708286e-09 -2.380358e-09 -2.372494e-08 1.528358e-08 -2.946087e-08 3.473016e-08 1.492181e-08 -3.820108e-08 5.734750e-08 2.679738e-08 -1.914248e-08 1.106814e-08 5.471014e-04 8.423794e-03 3.429616e-03 4.428091e-03 1.539563e-03 5.235781e-03 2.090586e-03 1.419117e-03 4.312426e-04 -1.874243e-03 -2.989534e-04 1.471570e-03 -7.641797e-03
<VARIANCE> 25
 8.063078e+01 6.151661e+01 6.046933e+01 5.519445e+01 5.593279e+01 6.944777e+01 5.790948e+01 5.952552e+01 5.167271e+01 3.357464e+01 3.076282e+01 2.701398e+01 2.537357e+00 2.994146e+00 2.510378e+00 2.552091e+00 2.884048e+00 3.600144e+00 2.948514e+00 2.837039e+00 2.814359e+00 2.169803e+00 2.113056e+00 1.729323e+00 1.730328e+00
<GCONST> 1.051634e+02
<STATE> 3
<MEAN> 25
 -4.708286e-09 -2.380358e-09 -2.372494e-08 1.528358e-08 -2.946087e-08 3.473016e-08 1.492181e-08 -3.820108e-08 5.734750e-08 2.679738e-08 -1.914248e-08 1.106814e-08 5.471014e-04 8.423794e-03 3.429616e-03 4.428091e-03 1.539563e-03 5.235781e-03 2.090586e-03 1.419117e-03 4.312426e-04 -1.874243e-03 -2.989534e-04 1.471570e-03 -7.641797e-03
<VARIANCE> 25
 8.063078e+01 6.151661e+01 6.046933e+01 5.519445e+01 5.593279e+01 6.944777e+01 5.790948e+01 5.952552e+01 5.167271e+01 3.357464e+01 3.076282e+01 2.701398e+01 2.537357e+00 2.994146e+00 2.510378e+00 2.552091e+00 2.884048e+00 3.600144e+00 2.948514e+00 2.837039e+00 2.814359e+00 2.169803e+00 2.113056e+00 1.729323e+00 1.730328e+00
<GCONST> 1.051634e+02
<STATE> 4
<MEAN> 25
 -4.708286e-09 -2.380358e-09 -2.372494e-08 1.528358e-08 -2.946087e-08 3.473016e-08 1.492181e-08 -3.820108e-08 5.734750e-08 2.679738e-08 -1.914248e-08 1.106814e-08 5.471014e-04 8.423794e-03 3.429616e-03 4.428091e-03 1.539563e-03 5.235781e-03 2.090586e-03 1.419117e-03 4.312426e-04 -1.874243e-03 -2.989534e-04 1.471570e-03 -7.641797e-03
<VARIANCE> 25
 8.063078e+01 6.151661e+01 6.046933e+01 5.519445e+01 5.593279e+01 6.944777e+01 5.790948e+01 5.952552e+01 5.167271e+01 3.357464e+01 3.076282e+01 2.701398e+01 2.537357e+00 2.994146e+00 2.510378e+00 2.552091e+00 2.884048e+00 3.600144e+00 2.948514e+00 2.837039e+00 2.814359e+00 2.169803e+00 2.113056e+00 1.729323e+00 1.730328e+00
<GCONST> 1.051634e+02
<TRANSP> 5
 0.000000e+00 1.000000e+00 0.000000e+00 0.000000e+00 0.000000e+00
 0.000000e+00 6.000000e-01 4.000000e-01 0.000000e+00 0.000000e+00
 0.000000e+00 0.000000e+00 6.000000e-01 4.000000e-01 0.000000e+00
 0.000000e+00 0.000000e+00 0.000000e+00 7.000000e-01 3.000000e-01
 0.000000e+00 0.000000e+00 0.000000e+00 0.000000e+00 0.000000e+00
<ENDHMM>
~h "EH"
<BEGINHMM>
<NUMSTATES> 5
<STATE> 2
<MEAN> 25
 2.594141e+00 -4.450779e+00 -2.941483e-01 4.363615e-01 -1.568334e+00 -3.959568e+00 -1.979450e+00 -8.470459e-01 2.413204e+00 2.188111e+00 1.509491e+00 2.720544e-01 2.051645e+00 3.249745e-01 -3.209279e-01 -7.776780e-02 -1.102802e-01 -6.655933e-01 -3.651350e-01 -1.142700e+00 -7.488155e-01 6.021175e-01 -3.616284e-02 -3.450617e-01 1.416258e+00
<VARIANCE> 25
 5.410715e+01 7.628053e+01 4.717842e+01 5.054863e+01 5.352180e+01 5.663664e+01 4.489598e+01 4.960705e+01 5.572850e+01 4.742496e+01 2.731129e+01 2.031403e+01 5.382235e+00 8.487690e+00 6.209299e+00 4.057033e+00 4.631930e+00 6.146765e+00 3.400898e+00 4.875813e+00 4.311283e+00 4.781202e+00 2.984527e+00 2.415307e+00 3.199604e+00
<GCONST> 1.113423e+02
<STATE> 3
<MEAN> 25
 1.003388e+01 -3.169722e+00 -2.708899e+00 1.236261e+00 -1.845018e+00 -6.782520e+00 -2.824700e+00 -7.072657e+00 -5.538592e-01 4.153211e+00 7.350612e-01 -2.656713e+00 1.363115e+00 6.917057e-02 -7.222691e-01 -3.314202e-01 -3.390127e-01 -2.397805e-01 1.824943e-01 -1.030648e+00 -1.155323e+00 2.914878e-01 4.124999e-01 -3.401996e-01 1.109451e+00
<VARIANCE> 25
 1.265523e+01 2.736885e+01 2.697712e+01 4.079956e+01 3.431750e+01 4.314270e+01 3.330696e+01 4.249334e+01 6.003090e+01 4.827356e+01 2.641222e+01 2.141371e+01 1.724235e+00 3.341465e+00 3.002158e+00 3.249117e+00 2.666723e+00 4.186370e+00 3.069093e+00 3.674203e+00 4.121474e+00 2.712475e+00 2.244214e+00 1.862947e+00 1.425788e+00
<GCONST> 1.007266e+02
<STATE> 4
<MEAN> 25
 1.077170e+01 -3.272869e+00 -4.484930e+00 -1.435645e+00 -1.520587e+00 -4.526899e+00 -1.461402e+00 -7.135799e+00 -2.571190e+00 4.133910e+00 2.929368e+00 -7.580205e-01 -1.284383e-01 4.652278e-01 -2.777849e-02 -1.064457e-02 2.622351e-01 4.599831e-01 3.673796e-01 9.160367e-02 -6.489874e-01 -4.130805e-01 1.194137e-01 4.070059e-01 -4.172973e-01
<VARIANCE> 25
 1.023377e+01 2.904447e+01 3.928188e+01 2.935837e+01 4.687143e+01 3.700916e+01 6.514700e+01 5.473498e+01 5.581207e+01 4.623909e+01 3.738401e+01 2.152080e+01 6.948252e-01 1.361428e+00 1.707690e+00 2.053628e+00 1.842674e+00 2.136804e+00 2.569832e+00 2.457283e+00 3.680382e+00 1.977191e+00 1.976704e+00 1.272445e+00 1.059119e+00
<GCONST> 9.625271e+01
<TRANSP> 5
 0.000000e+00 1.000000e+00 0.000000e+00 0.000000e+00 0.000000e+00
 0.000000e+00 5.376472e-01 4.623528e-01 0.000000e+00 0.000000e+00
 0.000000e+00 0.000000e+00 5.074043e-01 4.925957e-01 0.000000e+00
 0.000000e+00 0.000000e+00 0.000000e+00 7.852964e-01 2.147036e-01
 0.000000e+00 0.000000e+00 0.000000e+00 0.000000e+00 0.000000e+00
<ENDHMM>
~h "EN"
<BEGINHMM>
<NUMSTATES> 5
<STATE> 2
<MEAN> 25
 -4.708286e-09 -2.380358e-09 -2.372494e-08 1.528358e-08 -2.946087e-08 3.473016e-08 1.492181e-08 -3.820108e-08 5.734750e-08 2.679738e-08 -1.914248e-08 1.106814e-08 5.471014e-04 8.423794e-03 3.429616e-03 4.428091e-03 1.539563e-03 5.235781e-03 2.090586e-03 1.419117e-03 4.312426e-04 -1.874243e-03 -2.989534e-04 1.471570e-03 -7.641797e-03
<VARIANCE> 25
 8.063078e+01 6.151661e+01 6.046933e+01 5.519445e+01 5.593279e+01 6.944777e+01 5.790948e+01 5.952552e+01 5.167271e+01 3.357464e+01 3.076282e+01 2.701398e+01 2.537357e+00 2.994146e+00 2.510378e+00 2.552091e+00 2.884048e+00 3.600144e+00 2.948514e+00 2.837039e+00 2.814359e+00 2.169803e+00 2.113056e+00 1.729323e+00 1.730328e+00
<GCONST> 1.051634e+02
<STATE> 3
<MEAN> 25
 -4.708286e-09 -2.380358e-09 -2.372494e-08 1.528358e-08 -2.946087e-08 3.473016e-08 1.492181e-08 -3.820108e-08 5.734750e-08 2.679738e-08 -1.914248e-08 1.106814e-08 5.471014e-04 8.423794e-03 3.429616e-03 4.428091e-03 1.539563e-03 5.235781e-03 2.090586e-03 1.419117e-03 4.312426e-04 -1.874243e-03 -2.989534e-04 1.471570e-03 -7.641797e-03
<VARIANCE> 25
 8.063078e+01 6.151661e+01 6.046933e+01 5.519445e+01 5.593279e+01 6.944777e+01 5.790948e+01 5.952552e+01 5.167271e+01 3.357464e+01 3.076282e+01 2.701398e+01 2.537357e+00 2.994146e+00 2.510378e+00 2.552091e+00 2.884048e+00 3.600144e+00 2.948514e+00 2.837039e+00 2.814359e+00 2.169803e+00 2.113056e+00 1.729323e+00 1.730328e+00
<GCONST> 1.051634e+02
<STATE> 4
<MEAN> 25
 -4.708286e-09 -2.380358e-09 -2.372494e-08 1.528358e-08 -2.946087e-08 3.473016e-08 1.492181e-08 -3.820108e-08 5.734750e-08 2.679738e-08 -1.914248e-08 1.106814e-08 5.471014e-04 8.423794e-03 3.429616e-03 4.428091e-03 1.539563e-03 5.235781e-03 2.090586e-03 1.419117e-03 4.312426e-04 -1.874243e-03 -2.989534e-04 1.471570e-03 -7.641797e-03
<VARIANCE> 25
 8.063078e+01 6.151661e+01 6.046933e+01 5.519445e+01 5.593279e+01 6.944777e+01 5.790948e+01 5.952552e+01 5.167271e+01 3.357464e+01 3.076282e+01 2.701398e+01 2.537357e+00 2.994146e+00 2.510378e+00 2.552091e+00 2.884048e+00 3.600144e+00 2.948514e+00 2.837039e+00 2.814359e+00 2.169803e+00 2.113056e+00 1.729323e+00 1.730328e+00
<GCONST> 1.051634e+02
<TRANSP> 5
 0.000000e+00 1.000000e+00 0.000000e+00 0.000000e+00 0.000000e+00
 0.000000e+00 6.000000e-01 4.000000e-01 0.000000e+00 0.000000e+00
 0.000000e+00 0.000000e+00 6.000000e-01 4.000000e-01 0.000000e+00
 0.000000e+00 0.000000e+00 0.000000e+00 7.000000e-01 3.000000e-01
 0.000000e+00 0.000000e+00 0.000000e+00 0.000000e+00 0.000000e+00
<ENDHMM>
~h "ER"
<BEGINHMM>
<NUMSTATES> 5
<STATE> 2
<MEAN> 25
 8.475440e+00 5.803195e-01 -2.583067e+00 -1.183558e+00 2.088138e+00 -2.332739e+00 -3.449226e+00 -5.448924e+00 -7.475314e+00 -1.363073e+00 1.770107e+00 4.383691e-01 1.947165e+00 1.480485e+00 -1.337003e+00 -6.284082e-01 3.298714e-02 1.815395e-01 3.628906e-01 -1.540764e+00 -2.509314e+00 1.878521e-02 8.622257e-01 4.378533e-02 5.662224e-01
<VARIANCE> 25
 3.089939e+01 4.533768e+01 4.379250e+01 5.886010e+01 3.802808e+01 5.759865e+01 5.694535e+01 5.796183e+01 5.214478e+01 3.619967e+01 3.192539e+01 2.347853e+01 3.234536e+00 5.578416e+00 4.679161e+00 3.579071e+00 3.717691e+00 4.726769e+00 3.773168e+00 3.405727e+00 4.262669e+00 4.259153e+00 2.913480e+00 2.385529e+00 1.732976e+00
<GCONST> 1.075210e+02
<STATE> 3
<MEAN> 25
 1.113174e+01 2.866600e+00 -6.154126e+00 -2.044634e+00 1.244529e+00 -1.885919e+00 -9.158584e-01 -9.983540e+00 -1.172301e+01 8.528340e-01 5.926932e+00 3.427050e-02 -1.225513e-02 3.128884e-01 -2.063377e-01 -1.993357e-01 9.456725e-02 4.735877e-01 2.724871e-01 -1.612261e-01 -3.702338e-01 -1.496619e-01 2.608780e-01 1.497176e-01 -2.366398e-01
<VARIANCE> 25
 1.678240e+01 3.910947e+01 2.883360e+01 5.182887e+01 2.943073e+01 5.429934e+01 4.423678e+01 4.770721e+01 4.814529e+01 4.899947e+01 3.349913e+01 3.343756e+01 2.191196e-01 9.709141e-01 8.687134e-01 1.384167e+00 1.133756e+00 1.563024e+00 1.646319e+00 1.328923e+00 1.511309e+00 1.378508e+00 1.433638e+00 1.261198e+00 3.435165e-01
<GCONST> 8.981104e+01
<STATE> 4
<MEAN> 25
 7.132301e+00 5.430781e+00 -4.309247e+00 -1.649864e+00 3.631146e+00 4.260207e+00 -1.284740e+00 -6.051064e+00 -9.206301e+00 -3.189697e+00 3.683855e+00 2.690097e+00 -7.493647e-01 -1.878724e-01 4.189737e-01 8.205872e-01 3.023844e-01 2.531618e-01 -2.538250e-01 4.975895e-01 1.207901e+00 5.589603e-02 -5.500238e-01 -1.686023e-01 -6.218175e-01
<VARIANCE> 25
 4.025899e+01 2.018669e+01 2.061149e+01 5.131296e+01 3.493184e+01 3.901517e+01 5.355507e+01 5.289859e+01 6.106526e+01 3.261402e+01 3.486171e+01 2.406918e+01 9.159921e-01 1.444495e+00 1.227198e+00 1.646049e+00 1.730667e+00 2.171036e+00 2.285254e+00 2.153778e+00 2.483055e+00 1.897898e+00 1.681998e+00 1.411425e+00 6.054305e-01
<GCONST> 9.492006e+01
<TRANSP> 5
 0.000000e+00 1.000000e+00 0.000000e+00 0.000000e+00 0.000000e+00
 0.000000e+00 6.294275e-01 3.705725e-01 0.000000e+00 0.000000e+00
 0.000000e+00 0.000000e+00 7.615744e-01 2.384256e-01 0.000000e+00
 0.000000e+00 0.000000e+00 0.000000e+00 7.882854e-01 2.117146e-01
 0.000000e+00 0.000000e+00 0.000000e+00 0.000000e+00 0.000000e+00
<ENDHMM>
~h "EY"
<BEGINHMM>
<NUMSTATES> 5
<STATE> 2
<MEAN> 25
 7.296565e+00 -2.328971e+00 1.101110e+00 7.099266e+00 3.304475e+00 -7.844567e+00 -9.600369e+00 -6.724371e+00 -2.464164e+00 1.983844e+00 -7.350333e-01 -3.128904e+00 5.596757e-01 -7.932815e-01 3.359595e-01 1.241175e+00 4.298263e-01 -1.830581e+00 -1.312885e+00 2.716698e-02 1.989791e-01 8.802358e-01 -6.033521e-01 -1.271497e+00 1.206608e+00
<VARIANCE> 25
 2.708789e+01 3.333998e+01 3.864252e+01 4.259066e+01 3.606907e+01 5.156812e+01 5.434665e+01 5.644497e+01 5.054625e+01 3.030312e+01 4.061130e+01 2.788318e+01 2.108914e+00 4.199253e+00 3.071460e+00 3.485245e+00 3.655814e+00 4.314705e+00 3.973330e+00 4.811652e+00 4.051471e+00 2.652732e+00 3.184732e+00 1.701708e+00 2.713999e+00
<GCONST> 1.054058e+02
<STATE> 3
<MEAN> 25
 7.028672e+00 -5.154636e+00 4.507388e+00 1.132990e+01 4.125708e+00 -1.456553e+01 -1.083558e+01 -4.960085e+00 -1.638572e+00 3.820222e+00 -4.573298e+00 -7.351209e+00 -1.045754e-01 1.839568e-01 1.425019e-01 1.120588e-01 4.358247e-01 4.082736e-02 -1.598860e-01 -7.756046e-02 2.483832e-02 2.813481e-01 -1.561978e-01 -3.781655e-01 -2.114448e-01
<VARIANCE> 25
 1.412190e+01 1.887226e+01 3.456839e+01 3.747646e+01 3.216804e+01 6.162976e+01 7.163045e+01 3.884368e+01 3.243763e+01 2.812870e+01 3.708734e+01 2.010742e+01 2.228535e-01 6.349005e-01 1.069887e+00 1.230039e+00 8.387642e-01 1.549277e+00 1.254094e+00 1.389449e+00 1.202106e+00 1.139119e+00 1.259265e+00 1.005009e+00 2.195663e-01
<GCONST> 8.582278e+01
<STATE> 4
<MEAN> 25
 6.337420e+00 -3.463492e-01 7.151068e-01 8.760406e+00 7.563188e+00 -5.464344e+00 -1.163341e+01 -7.227207e+00 -1.509310e+00 2.931093e+00 -1.867401e+00 -5.815688e+00 -6.104743e-01 9.951081e-01 -4.390014e-01 -8.383951e-01 -2.428693e-01 1.838616e+00 1.259085e+00 1.165327e-01 9.821488e-03 -8.990307e-01 3.654698e-01 7.652458e-01 -1.222141e+00
<VARIANCE> 25
 2.079769e+01 2.011651e+01 3.268755e+01 3.425822e+01 3.305785e+01 4.668056e+01 5.210666e+01 4.277399e+01 4.860668e+01 3.702479e+01 2.409666e+01 2.863998e+01 1.196265e+00 1.559948e+00 2.025913e+00 2.801257e+00 2.359674e+00 3.122584e+00 2.669670e+00 2.945979e+00 2.990387e+00 2.670015e+00 2.758635e+00 2.256660e+00 9.560481e-01
<GCONST> 9.836797e+01
<TRANSP> 5
 0.000000e+00 1.000000e+00 0.000000e+00 0.000000e+00 0.000000e+00
 0.000000e+00 6.561767e-01 3.438234e-01 0.000000e+00 0.000000e+00
 0.000000e+00 0.000000e+00 7.945344e-01 2.054656e-01 0.000000e+00
 0.000000e+00 0.000000e+00 0.000000e+00 7.690517e-01 2.309483e-01
 0.000000e+00 0.000000e+00 0.000000e+00 0.000000e+00 0.000000e+00
<ENDHMM>
~h "HH"
<BEGINHMM>
<NUMSTATES> 5
<STATE> 2
<MEAN> 25
 -5.181656e+00 4.260747e-01 -3.195441e+00 -3.949875e-01 5.935386e-02 4.369313e+00 9.777472e-01 4.997971e+00 2.328163e+00 8.453481e-01 4.777962e-01 2.223936e+00 5.869827e-02 -7.499284e-02 -2.087982e-01 4.642151e-02 -1.554412e-02 -6.436613e-02 -4.483558e-02 1.616023e-01 1.337112e-01 8.725889e-03 4.891902e-03 2.315600e-02 -6.319267e-02
<VARIANCE> 25
 2.541758e+01 2.817682e+01 2.596985e+01 2.677670e+01 2.625357e+01 3.196555e+01 2.509320e+01 2.356413e+01 2.450109e+01 2.167831e+01 1.709481e+01 1.532499e+01 6.944715e-01 1.278431e+00 1.663406e+00 2.022487e+00 1.791326e+00 2.242268e+00 1.980147e+00 2.196207e+00 1.837536e+00 1.446195e+00 1.555971e+00 1.249078e+00 6.460454e-01
<GCONST> 8.918298e+01
<STATE> 3
<MEAN> 25
 -9.341432e-01 -5.874186e+00 -5.938776e+00 1.606166e+00 -1.824295e+00 -2.094593e+00 -1.257359e+00 5.815925e+00 6.184541e+00 2.372341e+00 5.445088e-01 6.084717e-01 2.320824e-01 -7.615551e-01 -6.561249e-01 4.379077e-02 -2.755808e-01 -4.691088e-01 -1.241481e-01 1.210470e-01 3.948249e-01 3.076386e-01 6.516745e-02 -1.797256e-01 2.980399e-01
<VARIANCE> 25
 1.531913e+01 5.652349e+01 2.663311e+01 3.755709e+01 1.935786e+01 4.601373e+01 2.703778e+01 2.980364e+01 3.099993e+01 1.786874e+01 2.010481e+01 1.612226e+01 5.887242e-01 1.757419e+00 1.303922e+00 1.389227e+00 1.308923e+00 2.106605e+00 1.550535e+00 1.578585e+00 1.379099e+00 1.310317e+00 1.170281e+00 1.218296e+00 5.322145e-01
<GCONST> 8.805407e+01
<STATE> 4
<MEAN> 25
 8.854716e-01 -1.379579e+01 -9.796292e+00 2.534524e+00 -4.755667e+00 -7.154180e+00 -1.586760e+00 6.658707e+00 8.644675e+00 5.475914e+00 1.899170e+00 -1.847653e+00 8.644977e-01 8.064387e-01 4.768508e-01 -4.727680e-02 1.804775e-01 4.078411e-01 8.380185e-02 -7.906517e-01 -1.985675e-01 1.743933e-01 -4.782063e-02 -2.393362e-01 5.219377e-01
<VARIANCE> 25
 1.151035e+01 4.923503e+01 4.061374e+01 5.857906e+01 4.906835e+01 6.883202e+01 5.337201e+01 5.214729e+01 5.392844e+01 4.235877e+01 3.160773e+01 2.429289e+01 1.333327e+00 4.525100e+00 3.527593e+00 1.999378e+00 3.225176e+00 3.497616e+00 1.782493e+00 2.704144e+00 2.785957e+00 2.709461e+00 2.316382e+00 1.657936e+00 6.888065e-01
<GCONST> 1.012357e+02
<TRANSP> 5
 0.000000e+00 1.000000e+00 0.000000e+00 0.000000e+00 0.000000e+00
 0.000000e+00 9.327739e-01 6.722613e-02 0.000000e+00 0.000000e+00
 0.000000e+00 0.000000e+00 7.880924e-01 2.119076e-01 0.000000e+00
 0.000000e+00 0.000000e+00 0.000000e+00 6.924036e-01 3.075964e-01
 0.000000e+00 0.000000e+00 0.000000e+00 0.000000e+00 0.000000e+00
<ENDHMM>
~h "IH"
<BEGINHMM>
<NUMSTATES> 5
<STATE> 2
<MEAN> 25
 1.175825e+00 -1.348435e+00 1.105644e+00 2.770011e+00 1.250465e+00 -2.398685e+00 -3.556152e+00 -3.984820e+00 -1.812935e+00 -3.358930e-01 -1.082817e+00 -3.331084e-01 1.153212e+00 -3.318174e-01 2.279188e-01 1.022739e+00 4.016421e-01 -1.112550e+00 -1.196722e+00 -1.179820e+00 -6.989253e-01 4.397588e-01 -4.441408e-02 -3.887065e-01 1.054096e+00
<VARIANCE> 25
 5.673445e+01 5.320044e+01 6.953902e+01 5.575352e+01 4.718679e+01 6.928574e+01 7.013783e+01 6.973103e+01 5.641914e+01 3.513748e+01 3.368048e+01 2.777124e+01 4.659082e+00 5.701367e+00 4.459847e+00 4.591586e+00 3.748796e+00 6.561510e+00 6.107769e+00 6.402390e+00 5.476000e+00 3.719018e+00 3.576302e+00 2.996480e+00 4.633868e+00
<GCONST> 1.133294e+02
<STATE> 3
<MEAN> 25
 7.918452e+00 -4.660485e+00 -8.880043e-02 7.756307e+00 2.788382e+00 -9.376517e+00 -7.231067e+00 -9.612933e+00 -5.805820e+00 2.451566e+00 2.587102e-01 -4.094610e+00 1.477980e-01 3.893211e-02 8.902848e-02 1.477620e-01 3.810993e-01 -4.299188e-02 -9.932474e-02 -1.460360e-01 -1.397754e-01 2.488172e-01 8.225651e-02 -1.416395e-01 2.593291e-01
<VARIANCE> 25
 1.384389e+01 3.844682e+01 3.568652e+01 4.041474e+01 2.786121e+01 4.262925e+01 4.042525e+01 4.042639e+01 3.986050e+01 3.759029e+01 3.158600e+01 3.062809e+01 1.023174e+00 2.399627e+00 1.837882e+00 2.696386e+00 1.935013e+00 2.584433e+00 2.039801e+00 2.127834e+00 2.489352e+00 2.095167e+00 2.088959e+00 1.602022e+00 1.643860e+00
<GCONST> 9.709646e+01
<STATE> 4
<MEAN> 25
 6.711654e+00 6.354776e-01 2.115363e+00 5.115393e+00 5.310116e+00 -3.058270e+00 -7.510966e+00 -8.295090e+00 -4.953559e+00 8.506798e-01 -2.223620e-01 -1.702876e+00 -6.918584e-01 7.985492e-01 3.686729e-01 -7.141400e-01 -4.248573e-02 1.433563e+00 8.693313e-01 5.564556e-01 3.062718e-01 -5.809103e-01 4.937808e-02 4.759287e-01 -8.137367e-01
<VARIANCE> 25
 1.460359e+01 2.741332e+01 4.099256e+01 3.720019e+01 3.276046e+01 4.823242e+01 4.409906e+01 5.298528e+01 5.130549e+01 4.031046e+01 4.054940e+01 3.832192e+01 1.525211e+00 2.578582e+00 2.564985e+00 2.752505e+00 2.596646e+00 3.150512e+00 2.581961e+00 3.053209e+00 3.299252e+00 2.523444e+00 2.899645e+00 1.805292e+00 1.523761e+00
<GCONST> 1.010598e+02
<TRANSP> 5
 0.000000e+00 1.000000e+00 0.000000e+00 0.000000e+00 0.000000e+00
 0.000000e+00 6.941090e-01 3.058909e-01 0.000000e+00 0.000000e+00
 0.000000e+00 0.000000e+00 6.726894e-01 3.273106e-01 0.000000e+00
 0.000000e+00 0.000000e+00 0.000000e+00 6.773382e-01 3.226617e-01
 0.000000e+00 0.000000e+00 0.000000e+00 0.000000e+00 0.000000e+00
<ENDHMM>
~h "IY"
<BEGINHMM>
<NUMSTATES> 5
<STATE> 2
<MEAN> 25
 4.430285e+00 -1.835191e+00 3.675162e+00 8.704969e+00 4.871638e+00 -7.410755e+00 -6.069720e+00 -6.145411e+00 -4.331483e+00 2.973259e-01 -1.320869e+00 -5.310982e+00 4.874445e-01 -4.751970e-01 8.961933e-01 2.073666e+00 7.167820e-01 -2.032588e+00 -1.727004e+00 -4.765780e-02 1.795802e-01 4.570844e-01 -9.948366e-01 -1.607964e+00 8.458136e-01
<VARIANCE> 25
 3.700045e+01 3.819838e+01 4.279311e+01 5.409340e+01 5.057380e+01 8.321982e+01 4.870761e+01 5.605604e+01 5.080922e+01 3.323449e+01 3.330646e+01 3.500793e+01 3.005719e+00 4.237076e+00 2.687395e+00 3.333851e+00 3.882207e+00 6.297819e+00 4.599680e+00 4.766408e+00 4.388765e+00 3.735668e+00 3.173303e+00 2.521453e+00 2.730427e+00
<GCONST> 1.086001e+02
<STATE> 3
<MEAN> 25
 5.386242e+00 -2.711905e+00 6.075418e+00 1.344401e+01 5.044729e+00 -1.386542e+01 -1.003389e+01 -4.903081e+00 -3.660747e+00 9.632525e-01 -4.776768e+00 -8.973008e+00 -9.968126e-02 -8.024362e-02 1.081460e-01 9.253800e-03 -7.140088e-02 -5.930826e-03 -2.397605e-01 1.099920e-01 3.581918e-01 8.971567e-02 -2.190391e-01 -1.307402e-01 -6.246401e-02
<VARIANCE> 25
 1.423701e+01 2.342271e+01 3.518064e+01 3.048680e+01 4.283253e+01 7.864498e+01 4.099569e+01 4.173521e+01 3.780827e+01 2.907978e+01 2.612363e+01 2.937341e+01 2.192071e-01 7.664529e-01 1.110410e+00 1.467028e+00 1.181139e+00 1.646618e+00 1.480541e+00 1.619767e+00 1.421556e+00 1.439753e+00 1.194909e+00 1.247761e+00 2.435184e-01
<GCONST> 8.789406e+01
<STATE> 4
<MEAN> 25
 3.779958e+00 3.472914e-01 3.284245e+00 9.245486e+00 6.014928e+00 -4.604771e+00 -8.666331e+00 -4.522840e+00 5.816865e-02 9.269334e-01 -3.218487e+00 -5.998401e+00 -4.647557e-01 6.732121e-01 -5.886206e-01 -1.215567e+00 -3.218317e-01 1.851566e+00 1.292293e+00 3.294431e-01 2.013592e-01 -4.267910e-01 5.057293e-01 1.144184e+00 -8.888524e-01
<VARIANCE> 25
 1.926897e+01 2.529763e+01 3.360452e+01 3.957170e+01 3.259077e+01 6.938777e+01 5.116652e+01 5.030794e+01 4.612872e+01 2.460640e+01 2.278717e+01 3.077366e+01 7.426323e-01 1.661317e+00 1.698266e+00 2.132091e+00 1.921066e+00 3.053464e+00 3.012444e+00 2.784647e+00 2.957275e+00 1.949766e+00 2.041454e+00 1.845405e+00 1.080909e+00
<GCONST> 9.704214e+01
<TRANSP> 5
 0.000000e+00 1.000000e+00 0.000000e+00 0.000000e+00 0.000000e+00
 0.000000e+00 6.446622e-01 3.553378e-01 0.000000e+00 0.000000e+00
 0.000000e+00 0.000000e+00 8.120926e-01 1.879074e-01 0.000000e+00
 0.000000e+00 0.000000e+00 0.000000e+00 7.489620e-01 2.510379e-01
 0.000000e+00 0.000000e+00 0.000000e+00 0.000000e+00 0.000000e+00
<ENDHMM>
~h "JH"
<BEGINHMM>
<NUMSTATES> 5
<STATE> 2
<MEAN> 25
 -3.711223e+00 2.126660e-01 -1.538785e+00 3.669838e+00 2.738662e+00 3.401167e+00 -1.128458e+00 4.060236e+00 3.124833e+00 9.129667e-02 1.538231e-01 1.754897e+00 -5.786841e-01 -1.510453e+00 5.703837e-01 4.919562e-01 -2.499453e-01 -1.291582e-01 -3.183315e-01 2.800945e-01 7.536411e-01 -9.110725e-02 -1.389231e-01 3.044805e-01 3.937793e-01
<VARIANCE> 25
 3.702621e+01 7.009595e+01 4.605964e+01 5.233657e+01 2.912736e+01 2.637629e+01 3.677610e+01 3.452943e+01 3.082543e+01 2.933899e+01 2.569791e+01 1.847580e+01 1.898357e+00 9.278883e+00 3.511630e+00 2.579305e+00 2.716522e+00 2.585227e+00 2.178399e+00 3.323240e+00 2.691306e+00 2.384240e+00 1.793274e+00 1.472557e+00 1.466494e+00
<GCONST> 1.005708e+02
<STATE> 3
<MEAN> 25
 -2.495157e+00 -1.629211e+01 1.215295e-01 7.667038e+00 8.930463e-01 1.890160e+00 -5.408509e+00 -2.713876e+00 8.027492e+00 1.627227e+00 -2.686265e+00 2.826653e+00 4.129633e-01 5.989842e-01 5.544869e-02 -8.589823e-01 -2.100863e-01 -3.407951e-01 1.312302e-01 -5.484850e-01 -1.081146e+00 -3.139292e-01 2.793823e-01 7.853930e-02 5.267484e-01
<VARIANCE> 25
 1.884162e+01 1.259496e+02 5.061763e+01 4.796864e+01 4.599141e+01 3.322518e+01 4.534072e+01 9.213156e+01 4.456172e+01 3.822850e+01 2.442329e+01 1.649378e+01 4.490872e+00 2.268362e+01 5.762061e+00 4.830403e+00 5.841567e+00 2.964872e+00 3.865056e+00 4.933838e+00 4.768051e+00 2.278964e+00 3.076047e+00 1.259279e+00 3.931627e+00
<GCONST> 1.094806e+02
<STATE> 4
<MEAN> 25
 -5.662343e+00 -1.205279e+01 1.157871e+01 4.606198e+00 -5.348940e-01 -2.782065e+00 -1.901289e+00 2.115444e+00 2.082706e+00 -3.972834e+00 9.459273e-01 1.754139e+00 1.547917e+00 1.348398e+00 5.454940e-02 3.105643e-01 9.688561e-02 -6.642952e-01 -9.753240e-01 -1.093090e+00 -1.324576e+00 -1.819928e-01 6.342977e-02 -4.388848e-01 2.528325e-01
<VARIANCE> 25
 5.746418e+01 6.192954e+01 8.365956e+01 3.749559e+01 7.599173e+01 5.152325e+01 1.043590e+02 6.135259e+01 5.329622e+01 3.046622e+01 3.328576e+01 3.809048e+01 6.836785e+00 7.987400e+00 7.266245e+00 4.673841e+00 3.940741e+00 3.119872e+00 5.400839e+00 5.866487e+00 3.882394e+00 1.736429e+00 2.553034e+00 2.176216e+00 2.968581e+00
<GCONST> 1.119514e+02
<TRANSP> 5
 0.000000e+00 1.000000e+00 0.000000e+00 0.000000e+00 0.000000e+00
 0.000000e+00 8.614272e-01 1.385728e-01 0.000000e+00 0.000000e+00
 0.000000e+00 0.000000e+00 5.615563e-01 4.384437e-01 0.000000e+00
 0.000000e+00 0.000000e+00 0.000000e+00 6.413261e-01 3.586739e-01
 0.000000e+00 0.000000e+00 0.000000e+00 0.000000e+00 0.000000e+00
<ENDHMM>
~h "NG"
<BEGINHMM>
<NUMSTATES> 5
<STATE> 2
<MEAN> 25
 7.097662e+00 3.894097e+00 -6.169553e-01 5.145143e+00 4.359495e+00 -2.326148e+00 -9.249555e+00 -4.786144e+00 1.463272e+00 4.839500e+00 3.854333e-01 -5.185130e+00 -3.229091e-01 9.851128e-01 1.657318e-01 -3.446537e-02 4.713358e-01 1.035587e+00 4.371378e-01 -2.293092e-01 3.770373e-01 -1.830618e-01 -4.056271e-01 1.723909e-01 -6.776593e-01
<VARIANCE> 25
 1.274214e+01 1.449630e+01 1.725620e+01 2.317238e+01 2.682035e+01 4.180887e+01 7.028865e+01 2.874131e+01 4.164935e+01 3.167182e+01 2.022892e+01 2.600321e+01 5.063749e-01 9.434292e-01 1.002102e+00 1.540576e+00 1.972696e+00 2.104133e+00 2.831975e+00 2.417268e+00 1.679155e+00 2.185713e+00 1.105005e+00 1.860310e+00 2.799254e-01
<GCONST> 8.903018e+01
<STATE> 3
<MEAN> 25
 5.092859e+00 8.307350e+00 3.556399e-01 2.073839e+00 6.276619e+00 2.513727e+00 -2.588141e+00 -4.133371e+00 -8.481556e-02 -6.761782e-01 -1.628605e+00 -1.973586e+00 -8.128731e-01 3.865513e-01 3.904548e-01 1.501356e-01 4.137532e-01 5.339516e-01 3.204437e-01 9.260041e-01 5.922208e-01 -1.569225e-01 1.750880e-01 4.877913e-01 -6.861262e-01
<VARIANCE> 25
 2.229970e+01 8.719384e+00 1.278329e+01 2.728777e+01 2.299034e+01 3.137520e+01 4.810913e+01 3.630387e+01 2.528893e+01 1.173048e+01 1.205917e+01 1.603590e+01 9.604056e-01 7.975807e-01 6.358303e-01 9.139942e-01 1.506605e+00 2.417197e+00 3.981646e+00 2.977129e+00 1.514308e+00 1.784951e+00 1.197032e+00 1.329477e+00 2.643046e-01
<GCONST> 8.515945e+01
<STATE> 4
<MEAN> 25
 -5.872066e+00 2.524479e+00 -1.463537e+00 5.185676e-02 1.023218e+00 4.050196e+00 8.645072e-01 3.727031e+00 3.943872e+00 1.058094e+00 5.154071e-01 2.169380e+00 -1.487014e-01 -1.006548e-01 -5.245676e-02 -2.447265e-02 -4.316460e-02 4.607230e-02 7.983175e-02 1.123745e-01 2.419930e-02 -1.579309e-02 9.781610e-03 3.115489e-02 -1.089461e-01
<VARIANCE> 25
 2.407257e+01 1.428695e+01 3.280538e+01 1.515138e+01 1.062863e+01 1.833312e+01 1.472240e+01 2.021245e+01 1.782143e+01 1.652275e+01 9.801148e+00 8.025545e+00 2.910085e-01 5.285757e-01 4.726440e-01 5.966153e-01 9.681904e-01 7.738299e-01 1.019083e+00 9.264699e-01 9.929802e-01 8.065142e-01 7.580376e-01 7.649855e-01 8.949599e-02
<GCONST> 7.234962e+01
<TRANSP> 5
 0.000000e+00 1.000000e+00 0.000000e+00 0.000000e+00 0.000000e+00
 0.000000e+00 7.136412e-01 2.863588e-01 0.000000e+00 0.000000e+00
 0.000000e+00 0.000000e+00 5.746950e-01 4.253050e-01 0.000000e+00
 0.000000e+00 0.000000e+00 0.000000e+00 9.629157e-01 3.708427e-02
 0.000000e+00 0.000000e+00 0.000000e+00 0.000000e+00 0.000000e+00
<ENDHMM>
~h "OW"
<BEGINHMM>
<NUMSTATES> 5
<STATE> 2
<MEAN> 25
 7.523948e+00 3.715828e+00 2.227736e+00 -3.990231e+00 -6.248291e+00 -6.958385e+00 -2.747551e+00 3.973089e-01 -1.232973e+00 -1.492258e+00 -3.274637e+00 -2.410061e+00 2.130345e+00 9.161664e-01 5.854620e-01 2.058284e-01 -2.633657e+00 -2.128080e+00 -7.997116e-01 2.129891e-01 -6.346104e-02 6.803138e-01 -7.949561e-01 -1.126653e+00 9.038792e-01
<VARIANCE> 25
 3.227888e+01 3.377323e+01 3.821139e+01 2.981169e+01 7.749663e+01 7.273318e+01 4.148989e+01 3.319564e+01 5.610457e+01 1.870051e+01 2.745432e+01 2.594199e+01 3.176301e+00 3.515129e+00 2.937863e+00 3.653127e+00 1.016017e+01 1.032427e+01 3.574603e+00 4.313180e+00 2.953015e+00 2.130505e+00 2.475299e+00 2.078339e+00 1.150987e+00
<GCONST> 1.051604e+02
<STATE> 3
<MEAN> 25
 1.058357e+01 3.353030e+00 1.487290e+00 -3.799107e+00 -8.363226e+00 -6.458178e+00 -1.243182e+00 3.372386e-01 -1.091527e+00 -1.121225e+00 -5.253011e+00 -4.380421e+00 5.866425e-02 3.744969e-01 1.438714e-01 9.371248e-02 -2.658426e-01 -1.761611e-01 -2.042455e-02 4.190848e-01 2.092447e-01 -1.289392e-02 -9.539290e-02 -5.186048e-01 -1.591072e-01
<VARIANCE> 25
 2.005968e+01 2.567460e+01 2.792253e+01 2.139773e+01 7.463176e+01 5.067948e+01 4.687182e+01 4.891605e+01 5.677590e+01 2.460029e+01 3.075519e+01 3.585923e+01 2.936860e-01 7.825341e-01 9.388007e-01 1.056640e+00 1.884955e+00 2.290678e+00 1.338557e+00 1.285386e+00 1.500536e+00 9.413403e-01 1.181781e+00 1.112642e+00 2.788185e-01
<GCONST> 8.867583e+01
<STATE> 4
<MEAN> 25
 8.935491e+00 6.876304e+00 4.952190e-01 -2.372581e+00 -6.261914e+00 -3.658008e+00 -2.967043e+00 1.810876e+00 1.269615e+00 -1.357093e+00 -4.868504e+00 -6.108543e+00 -6.181381e-01 7.922626e-02 -4.757304e-02 6.298999e-01 7.340695e-01 4.982765e-01 2.904845e-01 -2.046656e-01 -4.503040e-02 -1.303217e-01 3.409458e-01 4.501025e-01 -5.822306e-01
<VARIANCE> 25
 2.827602e+01 1.784011e+01 2.840550e+01 2.468657e+01 5.299017e+01 6.437362e+01 3.172935e+01 3.058963e+01 4.110921e+01 3.612818e+01 2.822950e+01 3.510789e+01 5.671057e-01 1.256975e+00 1.185262e+00 1.125749e+00 2.546587e+00 1.856590e+00 1.656464e+00 1.680620e+00 1.718374e+00 1.914111e+00 2.035592e+00 2.326738e+00 7.356906e-01
<GCONST> 9.290426e+01
<TRANSP> 5
 0.000000e+00 1.000000e+00 0.000000e+00 0.000000e+00 0.000000e+00
 0.000000e+00 5.728909e-01 4.271091e-01 0.000000e+00 0.000000e+00
 0.000000e+00 0.000000e+00 6.783720e-01 3.216281e-01 0.000000e+00
 0.000000e+00 0.000000e+00 0.000000e+00 7.178383e-01 2.821617e-01
 0.000000e+00 0.000000e+00 0.000000e+00 0.000000e+00 0.000000e+00
<ENDHMM>
~h "OY"
<BEGINHMM>
<NUMSTATES> 5
<STATE> 2
<MEAN> 25
 1.061164e+01 1.713462e+00 2.251612e+00 -1.129806e+00 -1.230406e+01 -7.841542e+00 3.543606e+00 -1.141347e+00 -4.794458e+00 1.127803e+00 -1.649925e+00 -4.534512e+00 1.998998e-01 -7.463750e-01 -8.583998e-01 4.828941e-01 1.174549e+00 3.896544e-01 -3.384962e-01 -9.918165e-01 -2.811865e-01 2.529819e-01 3.702216e-01 6.033996e-01 3.976833e-01
<VARIANCE> 25
 1.463534e+01 5.106247e+01 7.749739e+01 7.486842e+01 5.964891e+01 4.476064e+01 2.747907e+01 5.356809e+01 2.867119e+01 3.834922e+01 2.308934e+01 2.704346e+01 1.954690e-01 1.124382e+00 1.589069e+00 2.003402e+00 4.471599e+00 2.943713e+00 2.577876e+00 5.067613e+00 2.299639e+00 2.286465e+00 2.122683e+00 1.940938e+00 2.236746e-01
<GCONST> 9.622120e+01
<STATE> 3
<MEAN> 25
 9.398611e+00 -3.654122e+00 -2.740292e+00 4.708575e+00 1.830387e+00 -9.236460e+00 -7.359901e+00 -1.019617e+01 -1.312300e+00 3.420304e+00 9.804089e-01 -3.710999e+00 -5.763847e-01 3.630125e-01 7.134747e-01 9.884917e-01 9.480096e-01 -2.085571e-01 -1.122033e+00 -8.824372e-02 4.460945e-01 -2.529419e-01 -2.273132e-01 -8.731470e-02 -5.006911e-01
<VARIANCE> 25
 1.094715e+01 2.808464e+01 2.555885e+01 3.705737e+01 2.574238e+01 5.661013e+01 3.938311e+01 2.217558e+01 2.508640e+01 1.901355e+01 2.431731e+01 2.330633e+01 1.893680e-01 1.025219e+00 8.874486e-01 1.665485e+00 1.343137e+00 1.886592e+00 1.193230e+00 1.950668e+00 2.020713e+00 1.643252e+00 2.108153e+00 1.886907e+00 5.208644e-01
<GCONST> 8.754752e+01
<STATE> 4
<MEAN> 25
 -2.786479e+00 2.974149e+00 -2.252684e+00 1.760881e+00 2.106678e+00 3.519164e+00 -1.584961e+00 1.145685e+00 3.212941e+00 1.063889e+00 5.352528e-01 1.218805e+00 -2.820981e-01 1.490782e-01 6.159123e-02 -1.086368e-01 -9.901990e-02 2.767868e-01 3.642033e-01 2.788389e-01 6.076676e-02 -9.379320e-03 4.826884e-02 1.017316e-01 -3.334987e-01
<VARIANCE> 25
 3.597919e+01 7.745530e+00 1.888184e+01 2.411245e+01 2.457385e+01 2.670316e+01 3.184149e+01 3.828194e+01 2.500904e+01 1.776919e+01 1.436849e+01 1.081605e+01 5.909762e-01 8.713905e-01 8.251301e-01 9.020712e-01 1.233820e+00 2.032201e+00 2.146668e+00 1.709004e+00 1.182843e+00 1.367397e+00 1.336124e+00 1.050645e+00 7.004403e-01
<GCONST> 8.415700e+01
<TRANSP> 5
 0.000000e+00 1.000000e+00 0.000000e+00 0.000000e+00 0.000000e+00
 0.000000e+00 8.640347e-01 1.359653e-01 0.000000e+00 0.000000e+00
 0.000000e+00 0.000000e+00 8.440588e-01 1.559413e-01 0.000000e+00
 0.000000e+00 0.000000e+00 0.000000e+00 9.482272e-01 5.177285e-02
 0.000000e+00 0.000000e+00 0.000000e+00 0.000000e+00 0.000000e+00
<ENDHMM>
~h "SH"
<BEGINHMM>
<NUMSTATES> 5
<STATE> 2
<MEAN> 25
 -3.210534e-01 -1.332953e+01 1.052876e+00 8.981221e+00 4.074244e+00 -2.029319e+00 -6.815698e+00 -2.751579e+00 3.836642e+00 -1.684760e+00 -1.352157e+00 2.798979e+00 -2.587621e+00 -5.824502e+00 1.714981e+00 6.693690e-01 -1.014048e+00 1.268227e+00 -7.310479e-01 6.031904e-01 2.670123e+00 -2.619352e-01 1.291492e-01 6.237312e-01 1.521391e+00
<VARIANCE> 25
 3.105850e+01 1.070921e+02 4.879438e+01 2.836534e+01 3.596662e+01 3.743647e+01 3.126210e+01 4.938722e+01 4.375090e+01 2.170779e+01 2.633705e+01 2.509013e+01 1.551364e+00 4.094698e+00 3.808052e+00 3.558746e+00 3.530217e+00 4.103677e+00 5.254357e+00 4.609188e+00 4.577496e+00 4.035205e+00 3.123504e+00 2.766902e+00 1.745448e+00
<GCONST> 1.051318e+02
<STATE> 3
<MEAN> 25
 -8.903662e+00 -2.621246e+01 7.462767e+00 9.502821e+00 2.008005e+00 -5.132673e-01 -7.480923e+00 1.552704e-01 1.003613e+01 -2.125181e+00 -1.415647e-01 3.050719e+00 -3.349488e-01 -5.488894e-01 1.779430e-01 9.739394e-02 -1.165093e-01 -7.357199e-02 -1.163413e-02 -1.244188e-01 4.076521e-01 1.469211e-01 -1.557438e-01 6.370658e-03 3.088181e-02
<VARIANCE> 25
 2.137752e+01 2.861057e+01 4.479838e+01 9.868412e+00 4.022681e+01 2.003538e+01 2.791517e+01 7.908569e+01 2.863227e+01 2.672172e+01 2.079386e+01 1.411055e+01 7.703694e-01 1.215232e+00 1.056511e+00 7.920783e-01 1.160175e+00 9.292776e-01 1.385801e+00 1.918225e+00 1.437124e+00 1.000179e+00 9.290306e-01 9.976736e-01 3.643723e-01
<GCONST> 8.525400e+01
<STATE> 4
<MEAN> 25
 -3.330721e+00 -1.905495e+01 6.189108e-01 7.752864e+00 1.215785e+00 7.658457e-01 -6.299123e+00 -3.501505e+00 5.554644e+00 -1.920046e+00 -2.608588e+00 3.580137e+00 1.601048e+00 3.618238e+00 -1.204181e+00 -1.009933e+00 3.171171e-01 -1.576069e-01 3.777946e-01 3.008345e-01 -1.240813e+00 -2.714040e-01 -1.190149e-02 -2.573402e-01 -1.051906e+00
<VARIANCE> 25
 2.628460e+01 9.736276e+01 5.478007e+01 2.185684e+01 2.386378e+01 3.853518e+01 3.135003e+01 9.613226e+01 4.286747e+01 3.712479e+01 1.586718e+01 1.078621e+01 3.933441e+00 6.683203e+00 2.136537e+00 2.115318e+00 2.606855e+00 2.610387e+00 3.106720e+00 6.637447e+00 3.185670e+00 1.427271e+00 1.354415e+00 1.229359e+00 7.033073e-01
<GCONST> 9.962576e+01
<TRANSP> 5
 0.000000e+00 1.000000e+00 0.000000e+00 0.000000e+00 0.000000e+00
 0.000000e+00 7.178876e-01 2.821124e-01 0.000000e+00 0.000000e+00
 0.000000e+00 0.000000e+00 8.527392e-01 1.472609e-01 0.000000e+00
 0.000000e+00 0.000000e+00 0.000000e+00 8.265626e-01 1.734374e-01
 0.000000e+00 0.000000e+00 0.000000e+00 0.000000e+00 0.000000e+00
<ENDHMM>
~h "TH"
<BEGINHMM>
