~o
<STREAMINFO> 1 25
<VECSIZE> 25<NULLD><MFCC_D_N_Z_0><DIAGC>
~h "proto"
<BEGINHMM>
<NUMSTATES> 5
<STATE> 2
<MEAN> 25
 3.090388e-08 1.285477e-08 -9.409127e-09 5.294358e-09 -2.138438e-10 1.291341e-08 1.477764e-08 -3.489965e-08 2.701675e-08 1.899761e-08 -1.694540e-08 2.024187e-08 -3.833088e-04 7.810653e-03 3.162053e-03 4.455171e-03 2.198108e-03 4.565165e-03 3.075237e-03 2.164416e-03 9.570934e-04 -1.524929e-03 5.619581e-04 1.880689e-03 -7.076561e-03
<VARIANCE> 25
 7.821301e+01 6.349000e+01 6.047507e+01 5.479807e+01 5.690730e+01 6.677032e+01 5.647139e+01 6.007010e+01 5.062696e+01 3.354327e+01 3.048210e+01 2.683875e+01 2.475404e+00 3.051824e+00 2.520349e+00 2.528807e+00 2.886364e+00 3.540856e+00 2.901660e+00 2.844723e+00 2.788887e+00 2.150561e+00 2.099838e+00 1.724981e+00 1.686580e+00
<GCONST> 1.049899e+02
<STATE> 3
<MEAN> 25
 3.090388e-08 1.285477e-08 -9.409127e-09 5.294358e-09 -2.138438e-10 1.291341e-08 1.477764e-08 -3.489965e-08 2.701675e-08 1.899761e-08 -1.694540e-08 2.024187e-08 -3.833088e-04 7.810653e-03 3.162053e-03 4.455171e-03 2.198108e-03 4.565165e-03 3.075237e-03 2.164416e-03 9.570934e-04 -1.524929e-03 5.619581e-04 1.880689e-03 -7.076561e-03
<VARIANCE> 25
 7.821301e+01 6.349000e+01 6.047507e+01 5.479807e+01 5.690730e+01 6.677032e+01 5.647139e+01 6.007010e+01 5.062696e+01 3.354327e+01 3.048210e+01 2.683875e+01 2.475404e+00 3.051824e+00 2.520349e+00 2.528807e+00 2.886364e+00 3.540856e+00 2.901660e+00 2.844723e+00 2.788887e+00 2.150561e+00 2.099838e+00 1.724981e+00 1.686580e+00
<GCONST> 1.049899e+02
<STATE> 4
<MEAN> 25
 3.090388e-08 1.285477e-08 -9.409127e-09 5.294358e-09 -2.138438e-10 1.291341e-08 1.477764e-08 -3.489965e-08 2.701675e-08 1.899761e-08 -1.694540e-08 2.024187e-08 -3.833088e-04 7.810653e-03 3.162053e-03 4.455171e-03 2.198108e-03 4.565165e-03 3.075237e-03 2.164416e-03 9.570934e-04 -1.524929e-03 5.619581e-04 1.880689e-03 -7.076561e-03
<VARIANCE> 25
 7.821301e+01 6.349000e+01 6.047507e+01 5.479807e+01 5.690730e+01 6.677032e+01 5.647139e+01 6.007010e+01 5.062696e+01 3.354327e+01 3.048210e+01 2.683875e+01 2.475404e+00 3.051824e+00 2.520349e+00 2.528807e+00 2.886364e+00 3.540856e+00 2.901660e+00 2.844723e+00 2.788887e+00 2.150561e+00 2.099838e+00 1.724981e+00 1.686580e+00
<GCONST> 1.049899e+02
<TRANSP> 5
 0.000000e+00 1.000000e+00 0.000000e+00 0.000000e+00 0.000000e+00
 0.000000e+00 6.000000e-01 4.000000e-01 0.000000e+00 0.000000e+00
 0.000000e+00 0.000000e+00 6.000000e-01 4.000000e-01 0.000000e+00
 0.000000e+00 0.000000e+00 0.000000e+00 7.000000e-01 3.000000e-01
 0.000000e+00 0.000000e+00 0.000000e+00 0.000000e+00 0.000000e+00
<ENDHMM>
