~o
<STREAMINFO> 1 25
<VECSIZE> 25<NULLD><MFCC_D_N_Z_0><DIAGC>
~h "proto"
<BEGINHMM>
<NUMSTATES> 5
<STATE> 2
<MEAN> 25
 2.854864e-08 8.501821e-09 -3.900468e-08 4.608982e-09 -1.104387e-08 1.718051e-08 1.591122e-08 -3.683718e-08 3.541182e-08 2.203225e-08 -9.812728e-09 1.192821e-08 3.942712e-04 8.802812e-03 3.792239e-03 3.444036e-03 1.299015e-03 4.625513e-03 2.529803e-03 2.468554e-03 1.728508e-04 -1.780625e-03 1.499406e-04 1.776003e-03 -7.662173e-03
<VARIANCE> 25
 7.991300e+01 6.243320e+01 6.100996e+01 5.479829e+01 5.700187e+01 6.794075e+01 5.753111e+01 5.950851e+01 5.161738e+01 3.356075e+01 3.064099e+01 2.644629e+01 2.514371e+00 3.025966e+00 2.531945e+00 2.548908e+00 2.867965e+00 3.574076e+00 2.914633e+00 2.826577e+00 2.800937e+00 2.146408e+00 2.102534e+00 1.720425e+00 1.707516e+00
<GCONST> 1.050760e+02
<STATE> 3
<MEAN> 25
 2.854864e-08 8.501821e-09 -3.900468e-08 4.608982e-09 -1.104387e-08 1.718051e-08 1.591122e-08 -3.683718e-08 3.541182e-08 2.203225e-08 -9.812728e-09 1.192821e-08 3.942712e-04 8.802812e-03 3.792239e-03 3.444036e-03 1.299015e-03 4.625513e-03 2.529803e-03 2.468554e-03 1.728508e-04 -1.780625e-03 1.499406e-04 1.776003e-03 -7.662173e-03
<VARIANCE> 25
 7.991300e+01 6.243320e+01 6.100996e+01 5.479829e+01 5.700187e+01 6.794075e+01 5.753111e+01 5.950851e+01 5.161738e+01 3.356075e+01 3.064099e+01 2.644629e+01 2.514371e+00 3.025966e+00 2.531945e+00 2.548908e+00 2.867965e+00 3.574076e+00 2.914633e+00 2.826577e+00 2.800937e+00 2.146408e+00 2.102534e+00 1.720425e+00 1.707516e+00
<GCONST> 1.050760e+02
<STATE> 4
<MEAN> 25
 2.854864e-08 8.501821e-09 -3.900468e-08 4.608982e-09 -1.104387e-08 1.718051e-08 1.591122e-08 -3.683718e-08 3.541182e-08 2.203225e-08 -9.812728e-09 1.192821e-08 3.942712e-04 8.802812e-03 3.792239e-03 3.444036e-03 1.299015e-03 4.625513e-03 2.529803e-03 2.468554e-03 1.728508e-04 -1.780625e-03 1.499406e-04 1.776003e-03 -7.662173e-03
<VARIANCE> 25
 7.991300e+01 6.243320e+01 6.100996e+01 5.479829e+01 5.700187e+01 6.794075e+01 5.753111e+01 5.950851e+01 5.161738e+01 3.356075e+01 3.064099e+01 2.644629e+01 2.514371e+00 3.025966e+00 2.531945e+00 2.548908e+00 2.867965e+00 3.574076e+00 2.914633e+00 2.826577e+00 2.800937e+00 2.146408e+00 2.102534e+00 1.720425e+00 1.707516e+00
<GCONST> 1.050760e+02
<TRANSP> 5
 0.000000e+00 1.000000e+00 0.000000e+00 0.000000e+00 0.000000e+00
 0.000000e+00 6.000000e-01 4.000000e-01 0.000000e+00 0.000000e+00
 0.000000e+00 0.000000e+00 6.000000e-01 4.000000e-01 0.000000e+00
 0.000000e+00 0.000000e+00 0.000000e+00 7.000000e-01 3.000000e-01
 0.000000e+00 0.000000e+00 0.000000e+00 0.000000e+00 0.000000e+00
<ENDHMM>
