~o
<STREAMINFO> 1 25
<VECSIZE> 25<NULLD><MFCC_D_N_Z_0><DIAGC>
~s "silst"
<MEAN> 25
 -7.077644e+00 2.885311e+00 -2.887390e+00 4.435216e-01 8.381154e-01 5.509206e+00 1.116884e+00 5.595852e+00 3.268848e+00 1.851457e+00 6.097863e-01 2.200747e+00 -1.019323e-02 3.248696e-02 -2.598630e-02 9.302921e-04 -2.109012e-02 -2.434853e-03 -5.287817e-03 6.797572e-03 -1.246905e-03 -7.505312e-04 -2.066212e-02 5.678255e-03 -4.337245e-02
<VARIANCE> 25
 9.653680e+00 1.234310e+01 1.657589e+01 1.304188e+01 8.857401e+00 1.036941e+01 9.615163e+00 1.026964e+01 1.506069e+01 1.229588e+01 8.989099e+00 8.160956e+00 7.050529e-02 1.766897e-01 2.644994e-01 3.534813e-01 4.730735e-01 5.572790e-01 6.531016e-01 7.061719e-01 7.408621e-01 7.244442e-01 7.073388e-01 6.658693e-01 2.814118e-02
<GCONST> 6.092475e+01
~h "B"
<BEGINHMM>
<NUMSTATES> 5
<STATE> 2
<MEAN> 25
 -1.772210e+00 4.025542e+00 -3.416034e-01 1.421118e+00 2.716596e+00 4.984028e+00 1.822701e+00 2.911896e+00 1.188069e+00 -1.753750e+00 1.798905e-01 1.416113e+00 -4.865424e-01 -1.206301e-01 -2.112332e-01 -8.957133e-02 -1.225783e-02 2.422037e-01 -5.248599e-03 4.788942e-01 3.420917e-01 1.297222e-01 4.954739e-02 1.733846e-01 -7.603693e-01
<VARIANCE> 25
 2.500076e+01 2.634802e+01 3.432017e+01 2.873601e+01 1.940450e+01 2.220917e+01 1.785922e+01 2.204023e+01 1.817924e+01 1.440038e+01 1.330698e+01 1.426804e+01 1.676705e+00 2.088103e+00 1.587203e+00 1.562905e+00 1.771508e+00 2.075963e+00 1.594190e+00 1.950489e+00 1.844665e+00 1.224366e+00 1.303594e+00 1.028936e+00 2.160553e+00
<GCONST> 8.866341e+01
<STATE> 3
<MEAN> 25
 -1.262039e+00 2.270824e+00 -4.162917e-01 -2.089734e-01 7.362554e-01 2.746808e+00 6.320266e-01 2.619595e+00 1.382069e+00 -1.466702e+00 -2.207816e-01 1.399132e+00 2.026292e+00 -1.470827e+00 -3.669870e-01 -4.023351e-01 -1.510099e+00 -2.660276e+00 -6.888919e-01 -1.293354e+00 -7.816992e-01 -4.739320e-01 -2.304350e-01 -1.162562e-01 2.833244e+00
<VARIANCE> 25
 2.854974e+01 3.175318e+01 2.626749e+01 1.996430e+01 2.107453e+01 2.516836e+01 1.681197e+01 2.203499e+01 1.662626e+01 1.648359e+01 1.215351e+01 1.272003e+01 4.791747e+00 3.686998e+00 3.959050e+00 3.568322e+00 3.767650e+00 5.400517e+00 3.054066e+00 3.490672e+00 3.183712e+00 3.093724e+00 2.400446e+00 2.182243e+00 3.343424e+00
<GCONST> 9.791109e+01
<STATE> 4
<MEAN> 25
 5.657886e+00 1.260625e+00 8.826463e-01 -2.136307e+00 -4.805046e+00 -6.480619e+00 1.517539e-01 -6.631231e-02 -6.962717e-01 -3.131673e+00 -3.299922e+00 1.004794e-01 2.679312e+00 -2.037608e-01 -1.725313e-01 -5.409382e-01 -1.787213e+00 -1.823068e+00 1.511804e-01 -9.563957e-01 -4.746742e-01 5.306268e-01 -1.005190e+00 -6.973868e-01 2.641022e+00
<VARIANCE> 25
 4.006469e+01 3.457609e+01 3.526112e+01 3.349868e+01 6.699231e+01 6.601897e+01 3.781055e+01 4.085884e+01 3.640565e+01 4.549426e+01 4.015627e+01 2.505599e+01 4.041964e+00 5.037061e+00 4.212768e+00 5.092653e+00 7.044663e+00 9.281235e+00 6.573479e+00 6.302341e+00 6.459539e+00 4.687860e+00 5.279887e+00 3.483443e+00 4.823752e+00
<GCONST> 1.121980e+02
<TRANSP> 5
 0.000000e+00 1.000000e+00 0.000000e+00 0.000000e+00 0.000000e+00
 0.000000e+00 8.120319e-01 1.879681e-01 0.000000e+00 0.000000e+00
 0.000000e+00 0.000000e+00 4.736921e-01 5.263079e-01 0.000000e+00
 0.000000e+00 0.000000e+00 0.000000e+00 4.728440e-01 5.271560e-01
 0.000000e+00 0.000000e+00 0.000000e+00 0.000000e+00 0.000000e+00
<ENDHMM>
~h "D"
<BEGINHMM>
<NUMSTATES> 5
<STATE> 2
<MEAN> 25
 4.607613e+00 2.829189e+00 1.370933e+00 4.640049e+00 3.490406e+00 -7.618400e-01 -3.337628e+00 -3.679431e+00 -2.835624e+00 -1.463323e+00 -7.806122e-01 -6.236883e-01 -7.881184e-01 -4.361564e-02 -1.901709e-01 4.954465e-02 6.695653e-01 9.419948e-01 3.147206e-01 6.389433e-01 6.881564e-01 -4.394929e-02 3.332140e-01 4.503068e-01 -7.146409e-01
<VARIANCE> 25
 3.017755e+01 4.353219e+01 3.479726e+01 3.377305e+01 6.257938e+01 5.236442e+01 4.155269e+01 4.014963e+01 3.334001e+01 2.140140e+01 2.121670e+01 2.104112e+01 2.822634e+00 6.844553e+00 4.368208e+00 3.077289e+00 5.530980e+00 8.959866e+00 4.105580e+00 4.733485e+00 3.471734e+00 2.498891e+00 2.629680e+00 2.270414e+00 4.065657e+00
<GCONST> 1.061620e+02
<STATE> 3
<MEAN> 25
 2.371431e+00 3.291383e+00 1.248448e+00 3.891853e+00 4.297029e+00 1.904426e+00 -1.880761e+00 -1.582155e+00 -9.026996e-01 -1.413592e+00 -5.781974e-02 4.173764e-01 -7.051027e-01 -9.139869e-01 -2.264201e-01 -1.064686e-01 -3.122344e-01 -1.242333e-01 4.275892e-01 7.090226e-01 4.217497e-01 -2.151829e-01 2.471944e-01 4.072747e-01 -8.855635e-02
<VARIANCE> 25
 2.200739e+01 5.269500e+01 3.178037e+01 2.994165e+01 3.123375e+01 3.502941e+01 2.530112e+01 2.709767e+01 2.249322e+01 1.752010e+01 2.162613e+01 1.699441e+01 2.514163e+00 6.520391e+00 3.863194e+00 2.724675e+00 3.529614e+00 7.255698e+00 3.106088e+00 4.065096e+00 2.967238e+00 2.220197e+00 1.875212e+00 1.695637e+00 4.214634e+00
<GCONST> 1.006823e+02
<STATE> 4
<MEAN> 25
 -4.236081e-01 -8.883429e-01 -5.531536e-01 3.912521e+00 1.508044e+00 -9.920623e-01 -1.392029e+00 1.701702e+00 -1.443170e-01 -3.283877e+00 1.250749e+00 2.253018e+00 4.995884e-02 -5.770648e-01 -4.804413e-02 -3.372947e-01 -5.275115e-01 -5.601814e-01 -1.674341e-01 -1.225901e-01 -1.827928e-01 -1.386825e-01 -1.014103e-01 -6.170512e-02 4.186987e-01
<VARIANCE> 25
 3.523516e+01 4.383081e+01 4.077043e+01 4.412594e+01 3.965939e+01 9.747729e+01 5.137279e+01 4.515169e+01 4.082106e+01 2.719079e+01 2.199357e+01 1.959656e+01 2.674385e+00 4.128570e+00 3.525126e+00 3.404098e+00 3.367292e+00 9.338123e+00 4.599909e+00 3.986146e+00 4.161227e+00 2.809483e+00 2.180717e+00 2.007777e+00 2.825462e+00
<GCONST> 1.060894e+02
<TRANSP> 5
 0.000000e+00 1.000000e+00 0.000000e+00 0.000000e+00 0.000000e+00
 0.000000e+00 3.702691e-01 6.297309e-01 0.000000e+00 0.000000e+00
 0.000000e+00 0.000000e+00 4.329860e-01 5.670140e-01 0.000000e+00
 0.000000e+00 0.000000e+00 0.000000e+00 7.249361e-01 2.750639e-01
 0.000000e+00 0.000000e+00 0.000000e+00 0.000000e+00 0.000000e+00
<ENDHMM>
~h "F"
<BEGINHMM>
<NUMSTATES> 5
<STATE> 2
<MEAN> 25
 -4.088711e+00 -5.060480e+00 -1.101658e+00 -2.457681e-01 -1.475324e-01 3.507986e+00 1.164580e+00 8.281935e-01 2.991990e+00 -4.596126e-01 1.632583e+00 1.266580e+00 -8.478854e-01 -7.190863e-01 -1.935087e-01 -2.977869e-01 -1.449245e-02 5.813241e-02 1.438512e-01 1.626082e-01 3.536520e-01 -7.707480e-02 3.460695e-01 2.563150e-01 -2.433094e-02
<VARIANCE> 25
 4.127589e+01 4.346120e+01 2.726964e+01 2.077493e+01 4.077794e+01 1.978111e+01 2.065391e+01 2.321855e+01 2.042481e+01 1.813810e+01 1.779919e+01 1.455030e+01 3.052657e+00 3.441058e+00 1.285492e+00 1.751603e+00 3.616527e+00 2.609772e+00 2.242798e+00 2.106370e+00 2.264670e+00 1.693375e+00 1.783580e+00 1.477234e+00 6.561233e-01
<GCONST> 9.296832e+01
<STATE> 3
<MEAN> 25
 -2.974297e+00 -5.479873e+00 -6.974840e-01 -2.459343e+00 9.087943e-01 1.494728e+00 2.582882e+00 1.296551e+00 2.673127e+00 -1.961053e-01 1.023370e+00 1.871832e+00 8.278422e-01 1.537453e+00 1.110363e-01 -7.302555e-01 1.036697e+00 -1.727812e+00 4.686137e-01 -2.388217e-01 -7.015151e-01 -1.397322e-01 -3.494304e-01 -3.236839e-01 4.507904e-02
<VARIANCE> 25
 5.001900e+01 4.047961e+01 2.745035e+01 2.729007e+01 5.541710e+01 3.457941e+01 2.553137e+01 2.771023e+01 2.132778e+01 1.928831e+01 1.921436e+01 1.414806e+01 1.025409e+01 5.718895e+00 2.197611e+00 3.954742e+00 7.269961e+00 6.008702e+00 3.718700e+00 3.323687e+00 3.455303e+00 2.477384e+00 2.602038e+00 1.708685e+00 1.501130e+00
<GCONST> 1.024941e+02
<STATE> 4
<MEAN> 25
 -1.135810e+01 1.361727e+00 9.506482e-01 -1.070529e+01 1.053150e+01 -1.276547e+01 8.397906e+00 -7.575052e-01 5.090946e+00 -3.746162e+00 4.267625e+00 -1.741312e+00 7.649665e-01 3.579708e-01 1.123685e-01 2.526160e-03 -4.939831e-01 -3.093751e-01 -4.855933e-01 -3.955607e-01 -3.472291e-01 1.140905e-01 -6.254362e-02 -2.850628e-01 2.402781e-01
<VARIANCE> 25
 9.068455e+01 4.404917e+01 2.756022e+01 5.192081e+01 8.722052e+01 6.767890e+01 5.232227e+01 5.159652e+01 5.180372e+01 4.786063e+01 4.128654e+01 2.954204e+01 1.169848e+01 4.709698e+00 2.150688e+00 4.374426e+00 7.085548e+00 6.164842e+00 4.736822e+00 3.559473e+00 4.762227e+00 4.666424e+00 4.645044e+00 3.088111e+00 1.249358e+00
<GCONST> 1.118515e+02
<TRANSP> 5
 0.000000e+00 1.000000e+00 0.000000e+00 0.000000e+00 0.000000e+00
 0.000000e+00 8.280627e-01 1.719373e-01 0.000000e+00 0.000000e+00
 0.000000e+00 0.000000e+00 5.528825e-01 4.471174e-01 0.000000e+00
 0.000000e+00 0.000000e+00 0.000000e+00 8.148772e-01 1.851228e-01
 0.000000e+00 0.000000e+00 0.000000e+00 0.000000e+00 0.000000e+00
<ENDHMM>
~h "G"
<BEGINHMM>
<NUMSTATES> 5
<STATE> 2
<MEAN> 25
 3.585820e+00 3.427927e+00 3.308535e-02 1.625210e+00 2.588617e+00 7.760333e-01 -1.196287e+00 -3.774769e+00 -4.061584e+00 -8.397800e-01 3.266018e-01 -2.212304e+00 -6.036581e-01 1.113696e-01 -2.554033e-01 -1.601046e-01 -1.290667e-01 5.351430e-01 5.164573e-01 7.057183e-01 5.588757e-01 -1.973725e-01 6.481653e-02 3.717027e-01 -6.783468e-01
<VARIANCE> 25
 3.464848e+01 4.619776e+01 3.368420e+01 4.167856e+01 4.838255e+01 3.102740e+01 3.435986e+01 3.921927e+01 4.263199e+01 2.399076e+01 2.612593e+01 1.842788e+01 3.434777e+00 6.093328e+00 4.110541e+00 2.975919e+00 4.586422e+00 3.609080e+00 3.629523e+00 3.557544e+00 3.899817e+00 1.891714e+00 1.805729e+00 1.641400e+00 3.680049e+00
<GCONST> 1.034971e+02
<STATE> 3
<MEAN> 25
 -2.672381e-01 2.223491e+00 -1.785278e+00 1.465166e+00 7.450168e-01 2.950213e+00 5.575505e-01 1.360852e+00 1.122718e+00 -3.034270e-01 -3.420039e-02 5.672867e-01 -3.266190e-01 -2.564144e-01 -2.650952e-01 -3.008649e-01 -3.292805e-01 -1.176085e-02 3.581452e-01 4.730822e-01 2.522084e-01 -9.330674e-02 3.057769e-02 2.164008e-01 -2.193728e-01
<VARIANCE> 25
 3.010973e+01 3.194414e+01 2.192761e+01 2.640824e+01 4.425643e+01 3.080491e+01 1.723549e+01 2.829358e+01 2.657457e+01 1.796331e+01 2.321444e+01 1.534303e+01 1.057007e+00 2.061049e+00 1.822335e+00 2.061688e+00 2.215909e+00 2.115967e+00 1.975989e+00 2.110047e+00 2.112259e+00 1.415320e+00 1.294387e+00 1.071621e+00 1.075035e+00
<GCONST> 9.119813e+01
<STATE> 4
<MEAN> 25
 7.535927e-01 2.552396e-02 -2.810880e+00 -3.951676e+00 7.080450e-01 -4.594425e+00 2.958833e+00 1.097531e+00 -3.203618e+00 -1.977883e+00 2.395035e+00 -7.181346e-01 7.788341e-01 -5.799434e-01 -1.534610e-01 -1.069575e+00 -8.714401e-01 -1.522445e+00 3.749835e-01 -4.679259e-01 -1.135778e+00 -3.429678e-01 -7.790074e-03 -4.040426e-01 1.479468e+00
<VARIANCE> 25
 3.749601e+01 4.226355e+01 3.154186e+01 7.969203e+01 6.644493e+01 1.084762e+02 4.980065e+01 4.515300e+01 6.125352e+01 3.931173e+01 4.523816e+01 2.506968e+01 3.916706e+00 4.891606e+00 5.619196e+00 1.032143e+01 7.081820e+00 1.315472e+01 6.689683e+00 5.310750e+00 7.074190e+00 4.519807e+00 4.894725e+00 2.801462e+00 4.353126e+00
<GCONST> 1.152376e+02
<TRANSP> 5
 0.000000e+00 1.000000e+00 0.000000e+00 0.000000e+00 0.000000e+00
 0.000000e+00 6.003318e-01 3.996682e-01 0.000000e+00 0.000000e+00
 0.000000e+00 0.000000e+00 6.785764e-01 3.214236e-01 0.000000e+00
 0.000000e+00 0.000000e+00 0.000000e+00 6.073538e-01 3.926463e-01
 0.000000e+00 0.000000e+00 0.000000e+00 0.000000e+00 0.000000e+00
<ENDHMM>
~h "H"
<BEGINHMM>
<NUMSTATES> 5
<STATE> 2
<MEAN> 25
 1.945418e-08 8.746813e-09 -4.498951e-08 -3.611543e-10 1.363959e-08 -5.515342e-09 1.131617e-08 -8.000427e-09 3.278593e-08 9.066692e-09 -2.122211e-08 1.191809e-08 5.478837e-04 8.524338e-03 3.388704e-03 3.685407e-03 1.560096e-03 4.051044e-03 2.728951e-03 2.291447e-03 7.309044e-04 -1.874549e-03 1.679306e-04 1.469746e-03 -6.471253e-03
<VARIANCE> 25
 7.952613e+01 6.308802e+01 5.964849e+01 5.452956e+01 5.734600e+01 6.678256e+01 5.711662e+01 6.048514e+01 5.090747e+01 3.378843e+01 3.030896e+01 2.667588e+01 2.504539e+00 3.070349e+00 2.508418e+00 2.546605e+00 2.899496e+00 3.530318e+00 2.918622e+00 2.871764e+00 2.785610e+00 2.166140e+00 2.092833e+00 1.717397e+00 1.686906e+00
<GCONST> 1.050440e+02
<STATE> 3
<MEAN> 25
 1.945418e-08 8.746813e-09 -4.498951e-08 -3.611543e-10 1.363959e-08 -5.515342e-09 1.131617e-08 -8.000427e-09 3.278593e-08 9.066692e-09 -2.122211e-08 1.191809e-08 5.478837e-04 8.524338e-03 3.388704e-03 3.685407e-03 1.560096e-03 4.051044e-03 2.728951e-03 2.291447e-03 7.309044e-04 -1.874549e-03 1.679306e-04 1.469746e-03 -6.471253e-03
<VARIANCE> 25
 7.952613e+01 6.308802e+01 5.964849e+01 5.452956e+01 5.734600e+01 6.678256e+01 5.711662e+01 6.048514e+01 5.090747e+01 3.378843e+01 3.030896e+01 2.667588e+01 2.504539e+00 3.070349e+00 2.508418e+00 2.546605e+00 2.899496e+00 3.530318e+00 2.918622e+00 2.871764e+00 2.785610e+00 2.166140e+00 2.092833e+00 1.717397e+00 1.686906e+00
<GCONST> 1.050440e+02
<STATE> 4
<MEAN> 25
 1.945418e-08 8.746813e-09 -4.498951e-08 -3.611543e-10 1.363959e-08 -5.515342e-09 1.131617e-08 -8.000427e-09 3.278593e-08 9.066692e-09 -2.122211e-08 1.191809e-08 5.478837e-04 8.524338e-03 3.388704e-03 3.685407e-03 1.560096e-03 4.051044e-03 2.728951e-03 2.291447e-03 7.309044e-04 -1.874549e-03 1.679306e-04 1.469746e-03 -6.471253e-03
<VARIANCE> 25
 7.952613e+01 6.308802e+01 5.964849e+01 5.452956e+01 5.734600e+01 6.678256e+01 5.711662e+01 6.048514e+01 5.090747e+01 3.378843e+01 3.030896e+01 2.667588e+01 2.504539e+00 3.070349e+00 2.508418e+00 2.546605e+00 2.899496e+00 3.530318e+00 2.918622e+00 2.871764e+00 2.785610e+00 2.166140e+00 2.092833e+00 1.717397e+00 1.686906e+00
<GCONST> 1.050440e+02
<TRANSP> 5
 0.000000e+00 1.000000e+00 0.000000e+00 0.000000e+00 0.000000e+00
 0.000000e+00 6.000000e-01 4.000000e-01 0.000000e+00 0.000000e+00
 0.000000e+00 0.000000e+00 6.000000e-01 4.000000e-01 0.000000e+00
 0.000000e+00 0.000000e+00 0.000000e+00 7.000000e-01 3.000000e-01
 0.000000e+00 0.000000e+00 0.000000e+00 0.000000e+00 0.000000e+00
<ENDHMM>
~h "I"
<BEGINHMM>
<NUMSTATES> 5
<STATE> 2
<MEAN> 25
 5.771761e+00 5.927181e-01 -6.619354e-01 -1.254264e+00 8.560221e+00 1.423880e-01 -3.277290e+00 -5.478777e+00 -1.241976e+01 -3.007698e+00 7.396701e+00 -2.153326e+00 2.587128e-02 -3.004396e-01 -1.566107e-01 6.338638e-01 1.555889e+00 -1.004412e+00 3.770307e-03 -1.412108e+00 -2.735434e-01 5.018266e-01 8.606697e-01 -1.532064e-01 6.861860e-01
<VARIANCE> 25
 5.896893e+01 4.951282e+01 4.693093e+01 4.746556e+01 5.296723e+01 3.509191e+01 5.287532e+01 6.543214e+01 1.227457e+02 5.857401e+01 3.341407e+01 3.250026e+01 9.046716e+00 3.899203e+00 5.051646e+00 3.683380e+00 5.645915e+00 2.722987e+00 7.898805e+00 3.842162e+00 1.401565e+01 5.400420e+00 3.909122e+00 3.347769e+00 2.255658e+00
<GCONST> 1.135259e+02
<STATE> 3
<MEAN> 25
 -8.433148e+00 -1.359107e+00 2.990862e-01 -1.517174e+00 1.321718e+01 -1.039031e+01 4.373159e+00 -1.306021e+01 -8.013356e-01 -2.311117e+00 8.430569e+00 -2.486409e+00 -9.558142e-01 -9.369937e-02 -2.201184e-01 -2.559268e-02 -2.069904e-01 -5.764301e-01 -5.473804e-01 5.847827e-01 1.149092e+00 -5.174160e-01 -3.636225e-01 -9.632163e-02 -2.947433e-01
<VARIANCE> 25
 1.368530e+02 3.622072e+01 1.280674e+01 2.397359e+01 8.245376e+01 5.176031e+01 6.425231e+01 3.098436e+01 5.826323e+01 4.268490e+01 1.407690e+01 2.634920e+01 6.385565e+00 6.293172e+00 1.581420e+00 1.984875e+00 2.069617e+00 1.512447e+00 3.835823e+00 2.558988e+00 3.088588e+00 1.934788e+00 1.777201e+00 3.094994e+00 4.663709e-01
<GCONST> 1.008646e+02
<STATE> 4
<MEAN> 25
 -2.853269e+00 -4.147374e+00 2.402237e+00 9.017543e-01 9.793640e+00 -6.455754e+00 -2.551756e+00 -5.737457e+00 2.420846e+00 -6.785309e-01 4.339385e+00 2.041278e-01 2.956915e+00 9.633176e-01 5.388790e-01 7.486911e-01 -6.667541e-01 4.121451e-01 -8.027983e-01 6.481100e-01 -4.827875e-01 4.144793e-01 -1.358285e+00 -1.302053e-01 -1.579823e-01
<VARIANCE> 25
 7.935844e+01 4.161412e+01 1.621138e+01 1.894692e+01 8.451268e+01 5.332740e+01 2.396263e+01 1.341338e+01 2.512429e+01 1.953306e+01 1.566533e+01 1.347196e+01 8.026977e+00 5.670503e+00 1.142025e+00 1.530051e+00 3.445152e+00 2.268038e+00 3.953704e+00 1.831240e+00 2.489735e+00 2.704732e+00 1.328071e+00 2.328820e+00 7.298940e-01
<GCONST> 9.664393e+01
<TRANSP> 5
 0.000000e+00 1.000000e+00 0.000000e+00 0.000000e+00 0.000000e+00
 0.000000e+00 7.943143e-01 2.056857e-01 0.000000e+00 0.000000e+00
 0.000000e+00 0.000000e+00 6.798517e-01 3.201483e-01 0.000000e+00
 0.000000e+00 0.000000e+00 0.000000e+00 7.453345e-01 2.546655e-01
 0.000000e+00 0.000000e+00 0.000000e+00 0.000000e+00 0.000000e+00
<ENDHMM>
~h "K"
<BEGINHMM>
<NUMSTATES> 5
<STATE> 2
<MEAN> 25
 -8.961716e-01 8.096821e-01 -1.123765e+00 5.095634e-01 3.264692e+00 2.740443e+00 1.778966e-01 -9.903178e-01 -7.942360e-01 4.156786e-01 1.458412e+00 4.004474e-01 -1.004746e+00 4.373921e-01 -3.945471e-01 -8.134767e-01 -4.351543e-01 4.333706e-01 6.363599e-01 1.279044e+00 7.307039e-01 6.687263e-02 2.650400e-02 5.015193e-01 -1.393886e+00
<VARIANCE> 25
 2.307712e+01 4.609308e+01 3.008013e+01 4.488150e+01 3.310636e+01 2.449851e+01 4.120438e+01 3.904681e+01 3.382016e+01 2.693978e+01 2.240048e+01 2.429689e+01 2.721930e+00 5.205031e+00 2.767341e+00 3.740141e+00 3.817426e+00 3.951355e+00 3.867398e+00 3.891527e+00 3.302308e+00 2.260766e+00 2.347072e+00 2.290383e+00 3.701095e+00
<GCONST> 1.027339e+02
<STATE> 3
<MEAN> 25
 -3.554238e+00 -4.326421e-01 -3.804558e+00 -2.049741e+00 -1.647699e-01 3.234606e+00 2.261808e+00 2.784088e+00 1.305243e+00 -4.865775e-01 1.288214e+00 1.713914e+00 4.892750e-02 -8.165109e-01 -4.726176e-01 -5.489653e-01 -6.709198e-01 -8.416907e-01 1.595950e-01 -8.050685e-02 -1.227945e-02 -2.461891e-01 9.058169e-02 -2.959040e-02 6.332234e-01
<VARIANCE> 25
 1.546612e+01 3.110483e+01 2.908382e+01 3.620227e+01 2.864785e+01 2.605550e+01 2.519885e+01 2.694313e+01 2.107493e+01 1.619779e+01 1.680255e+01 1.444586e+01 2.063897e+00 3.823004e+00 3.426366e+00 4.898496e+00 4.727197e+00 5.151330e+00 3.593322e+00 3.353724e+00 2.987798e+00 2.276533e+00 2.554078e+00 2.045219e+00 3.819182e+00
<GCONST> 9.902119e+01
<STATE> 4
<MEAN> 25
 -4.542664e+00 -7.139993e+00 -1.088965e+00 -3.992111e+00 -1.722388e+00 -6.946298e+00 4.492189e+00 -9.096058e-01 -1.130611e+00 1.117262e+00 2.871144e+00 -1.657163e-01 6.239741e-01 -5.056641e-01 2.982120e-01 1.391348e-01 -5.302144e-01 -4.481755e-01 -2.326190e-01 -3.693935e-01 -2.083057e-01 2.577932e-01 -1.430536e-01 -2.475092e-01 7.587720e-01
<VARIANCE> 25
 4.286576e+01 5.607842e+01 7.951020e+01 9.088436e+01 7.014317e+01 1.506929e+02 8.577729e+01 7.361055e+01 5.447204e+01 8.071512e+01 6.433135e+01 4.010744e+01 4.078498e+00 5.791899e+00 4.700444e+00 6.928129e+00 5.926592e+00 1.530182e+01 5.442611e+00 5.112821e+00 4.569176e+00 5.443858e+00 4.882198e+00 3.485991e+00 4.640290e+00
<GCONST> 1.189396e+02
<TRANSP> 5
 0.000000e+00 1.000000e+00 0.000000e+00 0.000000e+00 0.000000e+00
 0.000000e+00 6.206103e-01 3.793897e-01 0.000000e+00 0.000000e+00
 0.000000e+00 0.000000e+00 7.287983e-01 2.712016e-01 0.000000e+00
 0.000000e+00 0.000000e+00 0.000000e+00 7.456112e-01 2.543888e-01
 0.000000e+00 0.000000e+00 0.000000e+00 0.000000e+00 0.000000e+00
<ENDHMM>
~h "L"
<BEGINHMM>
<NUMSTATES> 5
<STATE> 2
<MEAN> 25
 7.894767e+00 3.868866e+00 3.105308e+00 -2.860087e+00 -9.232383e+00 -6.372181e+00 1.256760e+00 1.330372e+00 -2.626557e-01 -2.388570e+00 -5.286348e+00 -2.125566e+00 1.018501e+00 7.853140e-01 4.454351e-01 6.724164e-03 -1.592460e+00 -1.043446e+00 4.758356e-02 3.841266e-01 1.238354e-01 -2.289290e-01 -8.497232e-01 -6.511030e-01 3.496408e-01
<VARIANCE> 25
 2.591015e+01 3.662971e+01 4.468451e+01 3.219501e+01 6.436537e+01 5.233081e+01 4.541119e+01 4.819660e+01 4.691597e+01 3.442307e+01 3.217121e+01 2.986970e+01 2.634576e+00 2.749307e+00 2.487447e+00 2.484308e+00 4.460547e+00 4.553572e+00 4.118593e+00 4.396419e+00 3.738780e+00 3.219238e+00 2.870104e+00 2.372306e+00 1.780143e+00
<GCONST> 1.048337e+02
<STATE> 3
<MEAN> 25
 1.014229e+01 6.316226e+00 3.924133e+00 -2.237659e+00 -1.363533e+01 -1.015207e+01 1.071290e-01 2.011100e+00 9.727484e-01 -1.256362e+00 -4.796014e+00 -2.469680e+00 -8.793250e-02 6.307528e-02 9.268358e-02 1.312813e-01 -2.314369e-02 6.305309e-02 1.219085e-01 -1.060683e-01 -1.718193e-01 -3.436703e-02 1.320929e-01 6.708932e-02 -1.197404e-01
<VARIANCE> 25
 1.007621e+01 3.478511e+01 2.487889e+01 2.335052e+01 5.323233e+01 5.267480e+01 5.266653e+01 3.743554e+01 3.462510e+01 3.015981e+01 3.159579e+01 2.721191e+01 3.681338e-01 9.412823e-01 8.827382e-01 7.829889e-01 1.526003e+00 1.506923e+00 1.553068e+00 1.513201e+00 1.480999e+00 1.313046e+00 1.291835e+00 1.323303e+00 3.884118e-01
<GCONST> 8.791769e+01
<STATE> 4
<MEAN> 25
 7.250947e+00 4.478405e+00 3.662743e+00 -1.158711e+00 -1.022153e+01 -4.705261e+00 1.787529e+00 4.414605e-01 4.048295e-01 -1.416180e+00 -4.651058e+00 -1.785637e+00 -6.790701e-01 -3.221065e-01 -5.603887e-01 3.742903e-01 1.964499e+00 9.967673e-01 -2.753108e-01 -2.170543e-01 -1.406001e-01 -6.551733e-02 6.286486e-01 4.350564e-01 -3.737905e-01
<VARIANCE> 25
 2.238354e+01 3.386768e+01 3.904911e+01 3.104561e+01 6.778086e+01 5.903814e+01 3.929534e+01 4.927768e+01 5.218532e+01 4.503720e+01 3.813376e+01 2.909270e+01 1.122472e+00 1.964983e+00 1.544158e+00 1.938842e+00 3.681880e+00 4.180842e+00 3.177160e+00 2.884365e+00 3.231052e+00 2.619382e+00 2.372390e+00 1.789832e+00 1.427004e+00
<GCONST> 1.010891e+02
<TRANSP> 5
 0.000000e+00 1.000000e+00 0.000000e+00 0.000000e+00 0.000000e+00
 0.000000e+00 6.223207e-01 3.776793e-01 0.000000e+00 0.000000e+00
 0.000000e+00 0.000000e+00 7.944089e-01 2.055912e-01 0.000000e+00
 0.000000e+00 0.000000e+00 0.000000e+00 6.936061e-01 3.063938e-01
 0.000000e+00 0.000000e+00 0.000000e+00 0.000000e+00 0.000000e+00
<ENDHMM>
~h "M"
<BEGINHMM>
<NUMSTATES> 5
<STATE> 2
<MEAN> 25
 7.183529e+00 6.477821e+00 -5.830839e-01 4.894277e-01 2.051021e+00 2.737997e+00 -6.113663e-01 -3.234360e+00 -2.772932e+00 -2.629680e+00 -2.931154e+00 -2.324377e+00 -3.464729e-01 9.018620e-01 8.337158e-01 1.005785e+00 1.538815e+00 1.631897e+00 1.016296e-02 -6.366146e-01 -2.731852e-01 -7.646888e-02 -6.098154e-01 -6.852038e-01 -6.876808e-01
<VARIANCE> 25
 2.628817e+01 1.727445e+01 2.014108e+01 2.586800e+01 3.804008e+01 3.480650e+01 2.476385e+01 3.199616e+01 2.663323e+01 2.028458e+01 2.040349e+01 2.065467e+01 1.645146e+00 1.710501e+00 1.905974e+00 1.984577e+00 2.687542e+00 2.239449e+00 1.720423e+00 2.124105e+00 1.982466e+00 1.795492e+00 1.648964e+00 1.535925e+00 1.044764e+00
<GCONST> 9.221864e+01
<STATE> 3
<MEAN> 25
 4.754424e+00 6.776255e+00 5.278763e-01 3.781989e+00 4.646544e+00 5.663900e+00 -8.737997e-01 -2.521719e+00 -1.852000e+00 -2.293038e+00 -2.787046e+00 -1.942943e+00 -1.016789e-01 1.001602e-01 1.259268e-01 2.039155e-01 1.704039e-01 1.012271e-01 -5.286127e-02 -2.903041e-02 5.392732e-02 8.518443e-03 -6.243196e-02 -1.200994e-01 -1.160447e-01
<VARIANCE> 25
 2.745483e+01 2.090791e+01 2.222834e+01 1.771265e+01 2.127029e+01 1.953477e+01 2.100828e+01 3.807417e+01 2.500125e+01 1.564528e+01 1.657257e+01 1.841406e+01 4.797123e-01 5.991194e-01 7.611634e-01 6.504786e-01 8.112630e-01 7.924851e-01 1.085456e+00 1.265933e+00 9.865835e-01 1.025514e+00 9.515046e-01 9.014868e-01 2.385424e-01
<GCONST> 7.903047e+01
<STATE> 4
<MEAN> 25
 7.453871e+00 8.198671e+00 1.802096e+00 3.658704e+00 4.744686e+00 5.065626e+00 -1.931955e+00 -4.555151e+00 -3.095457e+00 -1.585679e+00 -4.070042e+00 -5.035517e+00 3.260786e-01 -5.534676e-01 -4.543603e-01 -6.509915e-01 -1.203820e+00 -1.159204e+00 -9.621134e-02 5.203589e-01 4.325706e-01 3.848959e-02 4.031895e-01 3.876016e-01 6.453458e-01
<VARIANCE> 25
 1.326681e+01 1.519704e+01 1.642686e+01 3.202967e+01 2.621168e+01 2.894807e+01 3.140522e+01 4.706380e+01 2.823915e+01 3.417094e+01 2.465054e+01 3.058237e+01 1.147125e+00 1.495619e+00 1.176419e+00 2.027277e+00 3.010238e+00 2.560329e+00 2.247638e+00 2.394585e+00 2.331560e+00 1.877086e+00 1.827672e+00 1.882541e+00 1.142875e+00
<GCONST> 9.292604e+01
<TRANSP> 5
 0.000000e+00 1.000000e+00 0.000000e+00 0.000000e+00 0.000000e+00
 0.000000e+00 6.244129e-01 3.755871e-01 0.000000e+00 0.000000e+00
 0.000000e+00 0.000000e+00 7.762403e-01 2.237597e-01 0.000000e+00
 0.000000e+00 0.000000e+00 0.000000e+00 6.698253e-01 3.301747e-01
 0.000000e+00 0.000000e+00 0.000000e+00 0.000000e+00 0.000000e+00
<ENDHMM>
~h "N"
<BEGINHMM>
<NUMSTATES> 5
<STATE> 2
<MEAN> 25
 8.123532e+00 1.792225e+00 -5.367914e-02 2.845930e+00 3.640517e+00 -1.025608e+00 -3.819947e+00 -5.053673e+00 -1.943159e+00 7.447468e-02 -9.358616e-01 -1.544272e+00 -5.189776e-02 1.388622e+00 4.300791e-01 7.204541e-01 1.006358e+00 1.320937e+00 -2.331819e-01 -6.259445e-01 -2.574067e-01 -1.185444e-02 -7.191180e-01 -4.913990e-01 -1.019213e+00
<VARIANCE> 25
 1.452600e+01 2.519529e+01 2.547719e+01 2.939615e+01 2.794545e+01 5.271524e+01 3.750095e+01 3.286892e+01 3.790298e+01 3.034522e+01 3.127723e+01 2.702836e+01 1.248100e+00 1.731850e+00 2.020956e+00 2.734566e+00 2.285025e+00 3.435707e+00 2.852176e+00 2.547964e+00 2.995946e+00 2.137949e+00 2.341389e+00 2.052567e+00 1.174973e+00
<GCONST> 9.678020e+01
<STATE> 3
<MEAN> 25
 7.248562e+00 6.973652e+00 2.122216e+00 6.199054e+00 5.932198e+00 3.577551e+00 -3.807593e+00 -6.175294e+00 -2.580755e+00 -8.430935e-01 -3.023680e+00 -2.074104e+00 -3.600657e-01 4.911844e-01 4.204669e-01 2.410076e-01 1.894720e-01 2.654213e-01 1.153864e-01 1.350726e-01 4.214430e-02 -2.375299e-01 -7.493973e-02 3.091145e-02 -4.357134e-01
<VARIANCE> 25
 1.107443e+01 1.422487e+01 1.903555e+01 1.804048e+01 2.010593e+01 2.430628e+01 2.240881e+01 2.465489e+01 2.056072e+01 2.442093e+01 1.802556e+01 1.845836e+01 4.063284e-01 6.898677e-01 8.497593e-01 8.578246e-01 1.069825e+00 1.362899e+00 1.398029e+00 1.538179e+00 1.271478e+00 1.287142e+00 1.206517e+00 1.062635e+00 3.149979e-01
<GCONST> 8.051846e+01
<STATE> 4
<MEAN> 25
 1.821774e+00 5.155438e+00 1.207246e-01 3.898529e+00 4.452913e+00 4.130554e+00 -3.061241e-01 -7.424960e-01 -2.123117e-04 -1.801059e+00 -1.459479e+00 3.614306e-01 -6.365926e-01 -6.332123e-01 -3.089328e-01 -2.341722e-01 -4.314689e-01 -2.532632e-01 4.714736e-01 7.738231e-01 3.193645e-01 3.305902e-02 3.811290e-01 2.722186e-01 -2.387617e-01
<VARIANCE> 25
 2.887789e+01 1.975839e+01 2.673381e+01 2.161380e+01 2.573001e+01 2.809974e+01 2.648874e+01 3.305128e+01 2.218119e+01 1.692632e+01 1.700452e+01 1.694961e+01 1.084088e+00 1.459408e+00 1.629744e+00 1.689864e+00 1.981176e+00 2.608699e+00 2.449373e+00 2.251665e+00 1.834301e+00 1.759320e+00 1.666014e+00 1.377962e+00 9.137734e-01
<GCONST> 9.033723e+01
<TRANSP> 5
 0.000000e+00 1.000000e+00 0.000000e+00 0.000000e+00 0.000000e+00
 0.000000e+00 6.489955e-01 3.510045e-01 0.000000e+00 0.000000e+00
 0.000000e+00 0.000000e+00 7.663297e-01 2.336703e-01 0.000000e+00
 0.000000e+00 0.000000e+00 0.000000e+00 6.880042e-01 3.119959e-01
 0.000000e+00 0.000000e+00 0.000000e+00 0.000000e+00 0.000000e+00
<ENDHMM>
~h "P"
<BEGINHMM>
<NUMSTATES> 5
<STATE> 2
<MEAN> 25
 -2.586352e+00 2.017006e+00 8.443598e-01 -5.303892e-01 1.006494e+00 1.381855e+00 9.959596e-01 -4.442272e-01 8.474037e-03 -3.668446e-01 -3.600485e-02 -2.645760e-01 -1.002513e+00 2.410152e-01 -5.826076e-02 -3.564828e-01 1.031446e-01 7.377315e-01 2.958119e-01 1.013537e+00 8.909675e-01 2.192235e-01 3.492842e-01 7.714612e-01 -1.366107e+00
<VARIANCE> 25
 5.160100e+01 4.404704e+01 4.081077e+01 4.539586e+01 4.250888e+01 3.231786e+01 3.775284e+01 3.891958e+01 3.984483e+01 2.289887e+01 1.851496e+01 1.738867e+01 4.379580e+00 4.909998e+00 4.697380e+00 3.752008e+00 4.080114e+00 3.978967e+00 3.640305e+00 3.263079e+00 3.379545e+00 2.159501e+00 2.308280e+00 1.638890e+00 4.803779e+00
<GCONST> 1.043954e+02
<STATE> 3
<MEAN> 25
 -2.450774e+00 8.194383e-01 -2.695941e+00 -2.496638e-01 -4.010930e-01 2.609401e+00 1.972587e+00 1.819761e+00 1.406452e+00 3.955191e-02 4.813334e-01 1.309437e+00 5.086970e-01 -8.275459e-01 -5.956360e-01 -4.578611e-02 -1.876474e-01 -4.872352e-02 -3.362733e-02 -7.122738e-03 1.752414e-01 -8.497434e-02 2.847235e-02 9.125180e-02 6.383284e-01
<VARIANCE> 25
 2.791508e+01 2.342472e+01 2.230437e+01 1.726992e+01 1.557894e+01 1.832264e+01 1.944913e+01 2.087642e+01 1.639631e+01 1.295867e+01 1.324772e+01 1.557485e+01 4.668529e+00 2.454433e+00 1.710776e+00 1.514751e+00 1.832942e+00 2.119468e+00 1.867469e+00 2.254412e+00 1.635186e+00 1.275651e+00 1.589018e+00 1.339084e+00 4.059937e+00
<GCONST> 8.980941e+01
<STATE> 4
<MEAN> 25
 -2.610456e+00 -3.462661e+00 -4.569733e+00 -1.878965e-01 -1.422356e+00 2.032301e-01 -2.303530e-01 2.719215e+00 1.107797e+00 -3.561890e-01 1.153948e+00 3.262885e-01 6.858412e-01 -3.589747e-01 1.525053e-01 -2.602273e-01 -2.499563e-01 -1.033688e+00 -4.811082e-01 -1.913151e-01 2.419391e-02 4.128916e-02 -1.411422e-01 -2.263708e-01 9.484034e-01
<VARIANCE> 25
 2.591173e+01 2.371939e+01 3.074174e+01 2.746682e+01 2.247404e+01 8.239300e+01 3.584408e+01 3.183750e+01 2.581685e+01 2.052677e+01 2.421813e+01 1.732479e+01 2.428228e+00 3.366617e+00 3.772215e+00 3.920264e+00 3.051699e+00 8.148993e+00 4.864960e+00 4.582793e+00 3.525814e+00 2.774593e+00 2.925449e+00 1.956682e+00 3.276015e+00
<GCONST> 1.023070e+02
<TRANSP> 5
 0.000000e+00 1.000000e+00 0.000000e+00 0.000000e+00 0.000000e+00
 0.000000e+00 5.777045e-01 4.222955e-01 0.000000e+00 0.000000e+00
 0.000000e+00 0.000000e+00 7.286291e-01 2.713709e-01 0.000000e+00
 0.000000e+00 0.000000e+00 0.000000e+00 7.250893e-01 2.749107e-01
 0.000000e+00 0.000000e+00 0.000000e+00 0.000000e+00 0.000000e+00
<ENDHMM>
~h "R"
<BEGINHMM>
<NUMSTATES> 5
<STATE> 2
<MEAN> 25
 7.441395e+00 3.735216e+00 -4.335331e+00 -6.221679e+00 -2.309382e+00 1.220332e+00 1.601784e+00 -2.305266e+00 -5.495109e+00 -2.847900e+00 -3.786554e-01 -2.707368e-01 1.276184e+00 1.084147e+00 -5.126327e-01 -7.726932e-01 8.248924e-02 2.377099e-01 3.468562e-01 -8.731161e-01 -1.740439e+00 -4.696721e-01 3.612702e-01 3.617461e-01 5.397952e-01
<VARIANCE> 25
 4.465531e+01 6.506725e+01 3.474048e+01 5.475450e+01 4.468172e+01 4.393791e+01 4.917842e+01 6.734904e+01 5.407025e+01 4.610764e+01 3.831163e+01 2.656011e+01 2.924609e+00 4.426913e+00 2.913989e+00 3.646632e+00 4.032268e+00 3.836896e+00 3.296662e+00 3.963331e+00 4.516056e+00 3.409923e+00 3.311006e+00 2.705816e+00 1.785189e+00
<GCONST> 1.076459e+02
<STATE> 3
<MEAN> 25
 1.219426e+01 4.547941e+00 -7.485246e+00 -7.839885e+00 -8.916309e-01 1.886249e+00 2.742923e+00 -7.690934e+00 -1.199911e+01 -2.355708e+00 3.463377e+00 1.681494e+00 4.754443e-02 -4.766348e-02 -2.473861e-01 2.654302e-01 4.796389e-01 9.235376e-02 -2.059670e-01 -6.745556e-01 -4.953816e-01 2.124736e-02 4.666762e-01 2.651951e-01 1.816352e-02
<VARIANCE> 25
 1.246455e+01 3.652837e+01 2.083218e+01 4.068862e+01 3.184137e+01 3.523112e+01 3.665463e+01 5.736714e+01 5.210961e+01 5.692294e+01 3.469915e+01 2.716861e+01 6.112070e-01 1.603803e+00 9.465855e-01 1.806172e+00 1.974908e+00 1.786249e+00 2.289708e+00 2.361831e+00 2.048141e+00 2.346836e+00 2.034008e+00 1.455271e+00 6.275360e-01
<GCONST> 9.398198e+01
<STATE> 4
<MEAN> 25
 9.046446e+00 2.629220e+00 -6.895185e+00 -3.317922e+00 2.821832e+00 1.820649e+00 -8.536462e-01 -8.879019e+00 -9.579009e+00 -4.623477e-01 4.666247e+00 1.244714e+00 -7.324849e-01 -4.780664e-01 5.375305e-01 1.336186e+00 5.578966e-01 -3.884389e-01 -8.925787e-01 3.778755e-01 1.292500e+00 3.667813e-01 -4.477977e-01 -5.209180e-01 -4.128209e-01
<VARIANCE> 25
 2.440448e+01 3.278218e+01 1.986558e+01 4.674223e+01 3.696247e+01 5.347445e+01 4.028275e+01 5.534857e+01 5.435437e+01 5.043298e+01 3.106479e+01 3.733334e+01 8.097113e-01 1.769082e+00 1.152182e+00 2.126705e+00 1.941844e+00 2.332767e+00 2.958499e+00 2.763082e+00 2.491638e+00 2.533709e+00 1.833925e+00 1.673219e+00 9.209097e-01
<GCONST> 9.748480e+01
<TRANSP> 5
 0.000000e+00 1.000000e+00 0.000000e+00 0.000000e+00 0.000000e+00
 0.000000e+00 6.410848e-01 3.589152e-01 0.000000e+00 0.000000e+00
 0.000000e+00 0.000000e+00 6.416373e-01 3.583626e-01 0.000000e+00
 0.000000e+00 0.000000e+00 0.000000e+00 7.146961e-01 2.853039e-01
 0.000000e+00 0.000000e+00 0.000000e+00 0.000000e+00 0.000000e+00
<ENDHMM>
~h "S"
<BEGINHMM>
<NUMSTATES> 5
<STATE> 2
<MEAN> 25
 -3.886475e+00 -7.081461e+00 7.335741e+00 5.109890e-01 -1.116683e+00 -2.296874e-01 2.742966e+00 -1.099934e+00 -5.305549e-01 -8.700546e-01 1.367945e+00 1.572516e+00 -3.473668e+00 -3.112456e+00 3.195781e+00 -1.388214e+00 -8.413582e-01 -4.735003e-01 1.134670e+00 7.590141e-01 7.780434e-01 -3.244959e-01 1.141451e+00 2.529030e-01 1.466186e+00
<VARIANCE> 25
 5.016160e+01 7.998815e+01 7.007103e+01 8.396741e+01 6.232629e+01 6.158082e+01 8.134761e+01 6.125601e+01 5.632393e+01 3.803696e+01 2.870950e+01 2.485248e+01 3.598526e+00 7.353802e+00 3.945909e+00 6.295305e+00 8.046261e+00 7.578992e+00 6.667161e+00 5.357834e+00 4.998630e+00 3.398448e+00 3.138403e+00 2.312867e+00 1.607949e+00
<GCONST> 1.133946e+02
<STATE> 3
<MEAN> 25
 -9.985869e+00 -1.770141e+01 1.141216e+01 2.906626e-02 -7.319036e+00 -9.600833e-01 6.412620e-01 3.405890e+00 7.400874e-01 -3.329364e+00 4.678786e+00 2.128458e+00 -3.407276e-01 3.467061e-01 -5.558441e-01 -1.732645e-01 5.578397e-01 -2.442142e-01 7.844651e-02 8.507517e-03 2.442926e-01 -4.496246e-02 -9.513632e-02 1.763298e-01 -7.430619e-02
<VARIANCE> 25
 2.975353e+01 1.139354e+02 4.165453e+01 7.059005e+01 1.075690e+02 3.660080e+01 4.930285e+01 3.500028e+01 3.503504e+01 2.046835e+01 1.925424e+01 1.646798e+01 2.332828e+00 3.839514e+00 4.293213e+00 2.356821e+00 2.957020e+00 1.758568e+00 2.350197e+00 2.108931e+00 1.705451e+00 1.508983e+00 1.652711e+00 1.450063e+00 1.155431e+00
<GCONST> 9.984763e+01
<STATE> 4
<MEAN> 25
 -1.573359e+01 -8.353765e+00 1.396784e+01 -6.873726e+00 1.289612e+00 -2.645605e+00 1.044482e+01 -1.563682e+00 1.748930e+00 -6.286500e-01 2.960870e+00 4.187239e-01 8.558550e-01 3.548866e-01 -6.640481e-01 5.139851e-01 -9.477955e-02 3.132517e-01 -4.558463e-01 7.200357e-02 -2.693460e-01 1.904719e-01 -2.643688e-01 -1.828730e-01 -6.128220e-01
<VARIANCE> 25
 4.237819e+01 3.532594e+01 5.937906e+01 5.015562e+01 4.835128e+01 1.028250e+02 1.319898e+02 6.491286e+01 6.166121e+01 4.618696e+01 3.031153e+01 2.167390e+01 3.261986e+00 2.627525e+00 2.438972e+00 1.844323e+00 2.278072e+00 2.703906e+00 3.759510e+00 2.786927e+00 2.759001e+00 2.387764e+00 2.161340e+00 1.574225e+00 1.073972e+00
<GCONST> 1.042669e+02
<TRANSP> 5
 0.000000e+00 1.000000e+00 0.000000e+00 0.000000e+00 0.000000e+00
 0.000000e+00 7.066746e-01 2.933254e-01 0.000000e+00 0.000000e+00
 0.000000e+00 0.000000e+00 7.947549e-01 2.052451e-01 0.000000e+00
 0.000000e+00 0.000000e+00 0.000000e+00 8.747167e-01 1.252833e-01
 0.000000e+00 0.000000e+00 0.000000e+00 0.000000e+00 0.000000e+00
<ENDHMM>
~h "T"
<BEGINHMM>
<NUMSTATES> 5
<STATE> 2
<MEAN> 25
 -1.879687e+00 -2.870391e+00 -1.237424e+00 6.329834e-01 1.189882e+00 -1.213048e+00 -5.278487e-01 9.837677e-01 8.403792e-01 -1.553740e+00 -5.002730e-01 6.040657e-01 -8.506793e-01 -2.047564e+00 7.407983e-01 -3.808670e-01 -5.580153e-01 -1.718283e+00 -5.480710e-01 5.672522e-02 9.038568e-01 -3.203744e-01 1.723761e-01 3.478343e-01 1.106729e+00
<VARIANCE> 25
 4.274812e+01 6.150820e+01 4.897342e+01 4.466215e+01 4.217397e+01 8.008202e+01 3.884732e+01 5.111150e+01 4.383067e+01 2.869444e+01 2.513139e+01 2.304478e+01 4.882467e+00 8.113989e+00 6.807497e+00 4.963403e+00 5.717409e+00 1.470004e+01 5.653045e+00 5.189612e+00 4.683900e+00 4.081953e+00 2.969104e+00 2.736187e+00 7.069385e+00
<GCONST> 1.127398e+02
<STATE> 3
<MEAN> 25
 -4.167932e+00 -1.048903e+01 3.788435e+00 -9.937767e-01 -6.721700e-01 -6.859968e+00 -2.317762e+00 -1.368093e+00 2.622875e+00 -2.209949e+00 4.849951e-01 1.178060e+00 -4.249893e-01 -1.690033e+00 9.750983e-01 1.126026e-01 -2.664785e-01 -6.807702e-01 -2.889584e-01 -7.726827e-01 -1.228372e-01 2.024060e-01 5.215073e-01 3.126647e-01 1.182244e+00
<VARIANCE> 25
 6.095414e+01 8.868690e+01 7.592967e+01 5.954510e+01 6.466417e+01 1.504346e+02 5.544465e+01 5.873984e+01 4.836025e+01 3.405109e+01 3.050974e+01 2.214140e+01 6.027123e+00 8.002919e+00 6.502131e+00 4.552835e+00 5.198978e+00 8.125010e+00 4.697308e+00 5.093340e+00 4.099874e+00 3.147093e+00 2.731498e+00 2.200150e+00 5.308189e+00
<GCONST> 1.143543e+02
<STATE> 4
<MEAN> 25
 -4.083322e+00 -9.161746e+00 -1.155536e-01 1.152960e+00 -4.676529e-01 -3.224824e+00 -9.985581e-01 1.111639e+00 5.068454e-01 -8.409258e-01 2.124877e+00 2.213516e+00 8.539103e-01 1.097014e+00 -7.017056e-01 2.585050e-01 1.654193e-01 8.016187e-01 6.557941e-03 6.875999e-02 -4.451348e-01 1.338892e-01 1.714036e-02 -6.875940e-02 -5.523373e-01
<VARIANCE> 25
 3.368699e+01 6.498238e+01 5.283414e+01 4.335522e+01 4.359338e+01 8.641961e+01 5.367102e+01 5.562417e+01 3.132622e+01 2.511352e+01 2.330802e+01 2.065093e+01 3.507222e+00 5.727717e+00 3.727666e+00 3.281407e+00 3.458369e+00 5.114764e+00 3.840865e+00 3.989019e+00 3.365108e+00 2.796520e+00 2.523119e+00 1.817728e+00 1.902012e+00
<GCONST> 1.059690e+02
<TRANSP> 5
 0.000000e+00 1.000000e+00 0.000000e+00 0.000000e+00 0.000000e+00
 0.000000e+00 5.049725e-01 4.950275e-01 0.000000e+00 0.000000e+00
 0.000000e+00 0.000000e+00 3.315059e-01 6.684941e-01 0.000000e+00
 0.000000e+00 0.000000e+00 0.000000e+00 7.443686e-01 2.556314e-01
 0.000000e+00 0.000000e+00 0.000000e+00 0.000000e+00 0.000000e+00
<ENDHMM>
~h "V"
<BEGINHMM>
<NUMSTATES> 5
<STATE> 2
<MEAN> 25
 7.537439e+00 2.290292e+00 -7.441947e-01 -9.073176e-01 -2.012321e+00 -9.556692e-01 -1.757647e+00 -3.570024e+00 -1.681916e+00 -1.085131e+00 -4.589465e+00 -1.991847e+00 -1.050056e+00 3.988177e-01 4.772494e-01 -2.159900e-01 3.517884e-01 6.734680e-01 8.643701e-01 9.155312e-01 6.074381e-01 -3.099445e-01 2.783291e-02 2.345130e-01 -6.286286e-01
<VARIANCE> 25
 3.034335e+01 2.718440e+01 2.080949e+01 2.295162e+01 6.709830e+01 3.141405e+01 2.460362e+01 3.460527e+01 3.950074e+01 2.670033e+01 3.380894e+01 2.070406e+01 2.378260e+00 3.741495e+00 1.811030e+00 1.666560e+00 2.947315e+00 2.967984e+00 2.587662e+00 2.864770e+00 2.890885e+00 2.579927e+00 2.041378e+00 2.007239e+00 1.281673e+00
<GCONST> 9.787373e+01
<STATE> 3
<MEAN> 25
 2.459145e+00 1.123947e+00 -2.394854e-01 -2.252431e-01 -4.963804e-01 8.437461e-01 9.734482e-01 2.546878e-01 5.104747e-01 -1.769239e+00 -2.210481e+00 -8.795073e-03 -8.280504e-01 -2.550837e-01 1.619535e-01 -7.707531e-02 4.882225e-01 1.179560e-01 3.213037e-01 4.742292e-01 3.593479e-01 3.327302e-02 4.079017e-01 2.539258e-01 -1.427524e-01
<VARIANCE> 25
 3.423757e+01 3.608993e+01 2.070350e+01 2.053709e+01 5.080394e+01 2.983043e+01 1.901083e+01 2.499948e+01 2.335262e+01 1.983004e+01 2.257222e+01 1.808368e+01 2.114905e+00 3.287991e+00 1.307574e+00 1.637652e+00 2.915668e+00 2.138633e+00 1.722522e+00 2.155479e+00 2.202427e+00 1.986175e+00 1.557548e+00 1.312113e+00 8.707777e-01
<GCONST> 9.265076e+01
<STATE> 4
<MEAN> 25
 -4.253745e+00 2.105305e+00 3.035720e+00 -6.150785e+00 1.015614e+01 -4.545592e+00 2.398483e+00 2.557740e+00 -5.576205e-01 -1.570270e+00 1.255409e+00 2.660963e-01 -1.802969e-01 -1.877148e-01 1.898938e-01 -4.340476e-01 9.484802e-02 -6.173769e-01 -3.869261e-01 6.011807e-02 -2.319733e-01 -7.994943e-02 3.860031e-01 5.831297e-03 1.877484e-01
<VARIANCE> 25
 6.324178e+01 3.093458e+01 2.590400e+01 6.987436e+01 1.174397e+02 6.312981e+01 5.625807e+01 5.503391e+01 4.945198e+01 3.478931e+01 3.620615e+01 2.400763e+01 6.281142e+00 2.781493e+00 2.230371e+00 5.108861e+00 8.210165e+00 4.881737e+00 4.296994e+00 4.207422e+00 3.548814e+00 2.394320e+00 3.580600e+00 2.278633e+00 9.539816e-01
<GCONST> 1.082648e+02
<TRANSP> 5
 0.000000e+00 1.000000e+00 0.000000e+00 0.000000e+00 0.000000e+00
 0.000000e+00 5.180677e-01 4.819324e-01 0.000000e+00 0.000000e+00
 0.000000e+00 0.000000e+00 6.758041e-01 3.241959e-01 0.000000e+00
 0.000000e+00 0.000000e+00 0.000000e+00 6.757072e-01 3.242928e-01
 0.000000e+00 0.000000e+00 0.000000e+00 0.000000e+00 0.000000e+00
<ENDHMM>
~h "W"
<BEGINHMM>
<NUMSTATES> 5
<STATE> 2
<MEAN> 25
 1.253480e+00 3.297212e+00 -1.642454e+00 -1.060905e+00 -4.500389e-03 -7.160628e-01 -4.421667e-01 7.116305e-01 -1.537654e+00 -2.111707e+00 -1.540443e-01 -8.594891e-01 1.006120e+00 1.594110e+00 4.310638e-01 -3.718940e-01 -9.126735e-01 -8.316759e-01 -6.706964e-01 -1.213666e-01 3.013424e-01 6.963529e-02 -2.797397e-01 -3.610915e-01 8.976269e-02
<VARIANCE> 25
 3.951619e+01 3.386743e+01 3.230113e+01 5.528049e+01 7.660729e+01 4.830202e+01 4.200074e+01 4.004543e+01 4.012064e+01 2.174064e+01 2.839846e+01 2.600364e+01 3.211806e+00 3.888794e+00 2.572912e+00 3.937546e+00 5.051188e+00 5.044313e+00 4.595395e+00 4.662973e+00 3.630572e+00 2.126416e+00 2.663060e+00 2.339599e+00 1.982865e+00
<GCONST> 1.053541e+02
<STATE> 3
<MEAN> 25
 6.879590e+00 9.701149e+00 2.126841e+00 -1.389444e+00 -4.885818e+00 -5.612566e+00 -4.093315e+00 -1.014291e+00 -6.081155e-01 -9.243972e-01 -8.277977e-01 -2.160553e+00 7.747355e-01 8.822666e-01 2.746427e-01 -4.723139e-01 -9.050200e-01 -7.550167e-01 -4.050930e-01 -4.065640e-03 4.622838e-01 4.011601e-01 -5.200578e-02 -2.284553e-01 3.161317e-01
<VARIANCE> 25
 1.785203e+01 3.070350e+01 1.905418e+01 3.773551e+01 3.514624e+01 3.390852e+01 4.632774e+01 2.843062e+01 2.218867e+01 1.972715e+01 2.134698e+01 2.360250e+01 2.068090e+00 2.131140e+00 1.868700e+00 3.069757e+00 2.820621e+00 2.479969e+00 2.761164e+00 3.278697e+00 4.144669e+00 2.024178e+00 2.375863e+00 2.501461e+00 1.920915e+00
<GCONST> 9.734200e+01
<STATE> 4
<MEAN> 25
 9.234719e+00 9.879529e+00 1.357562e+00 -3.451535e+00 -5.852601e+00 -5.705600e+00 -3.976174e+00 -4.025863e-01 3.699525e-02 -9.256787e-01 -2.210628e+00 -3.272361e+00 3.538619e-01 -6.589957e-01 -4.519091e-01 -1.085474e-01 4.207537e-01 3.290278e-01 3.884795e-01 -1.130340e-01 -6.102417e-01 -3.270808e-01 -2.748032e-01 -1.796927e-03 5.559791e-01
<VARIANCE> 25
 1.528092e+01 2.590117e+01 1.803129e+01 3.207265e+01 3.417420e+01 3.415723e+01 4.327337e+01 3.566851e+01 3.422621e+01 2.441065e+01 2.940391e+01 3.008633e+01 7.197818e-01 1.939162e+00 1.285877e+00 2.825196e+00 3.789739e+00 3.000489e+00 2.739962e+00 4.096374e+00 3.873874e+00 2.518998e+00 2.872908e+00 2.971421e+00 9.064696e-01
<GCONST> 9.700226e+01
<TRANSP> 5
 0.000000e+00 1.000000e+00 0.000000e+00 0.000000e+00 0.000000e+00
 0.000000e+00 5.912476e-01 4.087524e-01 0.000000e+00 0.000000e+00
 0.000000e+00 0.000000e+00 5.230001e-01 4.769998e-01 0.000000e+00
 0.000000e+00 0.000000e+00 0.000000e+00 7.430449e-01 2.569551e-01
 0.000000e+00 0.000000e+00 0.000000e+00 0.000000e+00 0.000000e+00
<ENDHMM>
~h "Y"
<BEGINHMM>
<NUMSTATES> 5
<STATE> 2
<MEAN> 25
 1.314180e-01 -2.324523e+00 3.315053e+00 9.273145e+00 2.510934e+00 -3.106726e+00 -2.505130e+00 -7.733233e-01 -1.736117e+00 -2.920045e+00 -2.173186e+00 -3.338310e+00 1.059199e+00 1.422575e-01 8.513256e-01 1.977724e+00 8.717360e-01 -1.683822e+00 -1.271048e+00 -4.593745e-01 -7.041105e-01 -1.916264e-01 -8.410541e-01 -1.198688e+00 7.138930e-01
<VARIANCE> 25
 3.548791e+01 3.188946e+01 8.860034e+01 5.394280e+01 2.197654e+01 7.491015e+01 2.262304e+01 4.530218e+01 2.824856e+01 2.588745e+01 2.240211e+01 2.984593e+01 3.064027e+00 6.140998e+00 5.537130e+00 4.798532e+00 2.412262e+00 4.319438e+00 4.734262e+00 4.364610e+00 3.251822e+00 3.912568e+00 2.698787e+00 2.965178e+00 1.437285e+00
<GCONST> 1.054615e+02
<STATE> 3
<MEAN> 25
 3.530895e+00 -1.460965e+00 6.706387e+00 1.470909e+01 6.618769e+00 -9.879762e+00 -8.197479e+00 -1.163903e+00 -1.510313e+00 -3.670374e+00 -4.590558e+00 -4.244403e+00 4.838585e-01 -8.882078e-01 4.997666e-01 1.389241e+00 6.895369e-01 -1.972273e+00 -1.902504e+00 -1.027225e-01 1.176319e-02 6.039351e-01 -2.654403e-01 -1.063667e+00 1.047800e+00
<VARIANCE> 25
 1.508208e+01 5.966532e+01 6.242663e+01 4.143223e+01 6.942085e+01 5.730388e+01 7.505072e+01 8.382497e+01 4.711982e+01 5.138047e+01 3.091539e+01 2.944795e+01 2.162426e+00 3.097996e+00 5.361109e+00 5.044744e+00 4.469233e+00 5.500598e+00 7.095874e+00 5.740298e+00 4.899355e+00 4.504003e+00 2.984668e+00 2.385706e+00 1.370255e+00
<GCONST> 1.097291e+02
<STATE> 4
<MEAN> 25
 6.398070e+00 -8.623047e-01 5.680200e+00 1.517577e+01 1.152718e+01 -9.473918e+00 -1.698250e+01 -3.155690e+00 -1.907012e+00 1.178189e+00 -1.517649e+00 -7.587924e+00 2.836601e-01 1.361516e-01 -5.655234e-01 -7.557194e-01 9.622011e-03 4.486281e-01 3.955187e-02 -7.568678e-01 -3.053310e-01 4.577604e-01 4.902367e-01 2.024196e-01 1.436336e-01
<VARIANCE> 25
 1.115631e+01 2.987271e+01 2.369355e+01 4.405952e+01 6.409959e+01 4.292830e+01 7.578337e+01 5.946972e+01 3.904363e+01 3.486129e+01 3.470837e+01 3.986757e+01 2.768795e-01 9.704606e-01 1.391945e+00 2.380111e+00 2.037793e+00 2.130600e+00 2.829288e+00 2.301132e+00 2.718443e+00 2.613480e+00 2.496594e+00 2.330961e+00 5.283903e-01
<GCONST> 9.579797e+01
<TRANSP> 5
 0.000000e+00 1.000000e+00 0.000000e+00 0.000000e+00 0.000000e+00
 0.000000e+00 6.245337e-01 3.754663e-01 0.000000e+00 0.000000e+00
 0.000000e+00 0.000000e+00 6.135218e-01 3.864782e-01 0.000000e+00
 0.000000e+00 0.000000e+00 0.000000e+00 8.647816e-01 1.352184e-01
 0.000000e+00 0.000000e+00 0.000000e+00 0.000000e+00 0.000000e+00
<ENDHMM>
~h "Z"
<BEGINHMM>
<NUMSTATES> 5
<STATE> 2
<MEAN> 25
 2.599652e+00 -3.177774e+00 8.956482e+00 6.388168e+00 -5.005524e-01 -1.611707e-02 3.973275e-01 -4.432644e+00 -5.785484e+00 -3.480665e+00 -1.711462e+00 -3.321538e-01 -3.065868e+00 -2.503392e+00 3.607723e+00 -6.524222e-01 -1.507393e+00 7.494609e-01 1.978673e+00 1.434376e+00 4.709818e-01 -4.420161e-03 1.304400e+00 3.948366e-01 4.591258e-01
<VARIANCE> 25
 2.622383e+01 7.358347e+01 5.680339e+01 7.672000e+01 6.182825e+01 4.368316e+01 6.294630e+01 6.451946e+01 4.604470e+01 3.611997e+01 3.924402e+01 2.293202e+01 1.954577e+00 7.233484e+00 3.436252e+00 5.927847e+00 6.799741e+00 5.958864e+00 7.153976e+00 4.621841e+00 6.703623e+00 4.603550e+00 3.008765e+00 2.691428e+00 8.057514e-01
<GCONST> 1.104894e+02
<STATE> 3
<MEAN> 25
 -7.520361e+00 -1.308724e+01 1.377364e+01 7.680488e-01 -4.869299e+00 3.823652e-01 1.442623e+00 1.711583e+00 -1.664049e+00 -3.287209e+00 3.410102e+00 1.424100e+00 -1.233295e+00 1.223639e-01 -3.307598e-01 -1.122606e+00 6.399099e-01 -2.473225e-01 5.397329e-01 3.991208e-02 4.535914e-01 2.129934e-01 7.809997e-02 2.723122e-01 1.233890e-01
<VARIANCE> 25
 2.821963e+01 1.515129e+02 5.625238e+01 8.216691e+01 1.180509e+02 4.353233e+01 6.097553e+01 4.908567e+01 5.029732e+01 2.840952e+01 2.715635e+01 2.270981e+01 6.889342e+00 6.559719e+00 7.847067e+00 3.841943e+00 4.054132e+00 2.801592e+00 4.868207e+00 4.624358e+00 3.192729e+00 2.627616e+00 2.889588e+00 1.780849e+00 1.563191e+00
<GCONST> 1.099569e+02
<STATE> 4
<MEAN> 25
 -1.141473e+01 -5.664993e+00 1.489223e+01 -4.858527e+00 9.878318e-01 -1.302801e+00 9.222491e+00 -3.589076e+00 -2.306762e+00 -1.054890e-01 1.257098e+00 1.442982e-01 7.275559e-01 1.679944e-01 -1.153284e+00 3.219928e-01 -2.148116e-01 -3.230047e-02 -5.753609e-01 8.474222e-02 -6.736505e-03 -3.215744e-02 -1.049629e-01 -6.331468e-02 -5.529050e-01
<VARIANCE> 25
 5.010880e+01 3.423684e+01 8.552272e+01 5.954647e+01 4.484634e+01 9.236936e+01 1.446655e+02 8.175203e+01 8.399398e+01 4.586112e+01 3.652576e+01 3.055376e+01 5.375840e+00 3.084394e+00 4.085182e+00 3.518542e+00 3.084450e+00 4.242982e+00 6.421676e+00 4.199659e+00 4.362431e+00 3.286218e+00 3.065612e+00 2.204082e+00 1.556183e+00
<GCONST> 1.112666e+02
<TRANSP> 5
 0.000000e+00 1.000000e+00 0.000000e+00 0.000000e+00 0.000000e+00
 0.000000e+00 6.538118e-01 3.461881e-01 0.000000e+00 0.000000e+00
 0.000000e+00 0.000000e+00 7.237632e-01 2.762368e-01 0.000000e+00
 0.000000e+00 0.000000e+00 0.000000e+00 8.632589e-01 1.367411e-01
 0.000000e+00 0.000000e+00 0.000000e+00 0.000000e+00 0.000000e+00
<ENDHMM>
~h "AA"
<BEGINHMM>
<NUMSTATES> 5
<STATE> 2
<MEAN> 25
 -2.161703e+00 -1.033617e+00 -5.145796e+00 4.215843e-01 -4.363179e-01 2.814651e+00 1.183636e+00 4.299531e+00 1.552545e+00 -1.064939e+00 1.241138e+00 7.017888e-01 1.703567e-01 1.617791e-01 -1.678150e-01 -1.124908e-01 -2.099520e-01 1.971484e-02 1.031425e-01 2.015682e-01 1.957620e-01 -9.314569e-03 -1.866839e-01 -5.695386e-02 -3.699713e-02
<VARIANCE> 25
 3.762436e+01 2.961427e+01 1.816065e+01 2.317961e+01 3.310152e+01 3.258605e+01 2.525193e+01 2.800007e+01 2.326862e+01 1.617843e+01 1.508023e+01 1.488262e+01 8.572732e-01 1.297110e+00 1.200301e+00 1.384063e+00 1.662975e+00 1.801509e+00 1.799957e+00 2.251209e+00 1.571837e+00 1.357005e+00 1.498804e+00 1.207930e+00 3.742198e-01
<GCONST> 8.737270e+01
<STATE> 3
<MEAN> 25
 7.411926e+00 1.922807e+00 -2.575367e+00 -3.416653e+00 -9.151594e+00 -4.906279e+00 8.959249e-01 4.806445e+00 3.257591e+00 -5.488861e-01 -1.751903e+00 -1.813547e+00 2.001195e+00 8.178968e-01 4.894044e-03 -9.184660e-01 -1.574863e+00 -9.985691e-01 2.307607e-01 -1.741735e-01 3.479483e-01 2.893838e-01 -1.071621e+00 -8.845446e-01 1.512069e+00
<VARIANCE> 25
 3.752045e+01 8.915800e+01 4.293942e+01 3.375849e+01 4.973381e+01 4.089725e+01 7.347038e+01 6.159119e+01 4.110907e+01 3.567526e+01 2.693410e+01 1.971286e+01 2.927878e+00 5.937208e+00 4.000872e+00 3.630931e+00 3.872776e+00 4.605973e+00 4.309740e+00 3.986110e+00 2.944343e+00 2.909444e+00 3.322894e+00 2.158750e+00 2.392667e+00
<GCONST> 1.071889e+02
<STATE> 4
<MEAN> 25
 1.119512e+01 1.302837e+00 -2.514299e+00 -8.337522e+00 -1.297459e+01 -4.423519e+00 4.107445e+00 4.553080e+00 4.663222e+00 -6.417107e-02 -6.267249e+00 -3.189410e+00 -2.371609e-01 -1.254008e-01 5.451153e-02 2.335109e-01 6.795537e-01 4.800925e-01 8.071648e-02 -4.401401e-01 -5.121427e-01 -1.461568e-01 1.455744e-02 1.970728e-01 -7.778095e-02
<VARIANCE> 25
 1.353767e+01 3.506845e+01 3.239749e+01 3.269696e+01 4.313543e+01 3.825029e+01 6.672533e+01 5.017310e+01 4.839086e+01 5.472873e+01 3.640888e+01 2.863981e+01 6.925556e-01 1.898028e+00 1.427623e+00 2.142957e+00 2.703076e+00 2.322416e+00 2.549738e+00 2.799543e+00 2.570045e+00 2.267661e+00 2.420513e+00 2.046279e+00 1.049805e+00
<GCONST> 9.803631e+01
<TRANSP> 5
 0.000000e+00 1.000000e+00 0.000000e+00 0.000000e+00 0.000000e+00
 0.000000e+00 8.120100e-01 1.879899e-01 0.000000e+00 0.000000e+00
 0.000000e+00 0.000000e+00 6.797528e-01 3.202472e-01 0.000000e+00
 0.000000e+00 0.000000e+00 0.000000e+00 8.682896e-01 1.317103e-01
 0.000000e+00 0.000000e+00 0.000000e+00 0.000000e+00 0.000000e+00
<ENDHMM>
~h "AE"
<BEGINHMM>
<NUMSTATES> 5
<STATE> 2
<MEAN> 25
 4.814620e+00 -4.462982e+00 -4.189273e+00 -1.566750e+00 -2.544396e+00 -1.537009e+00 4.653114e-02 -1.740712e+00 3.016653e+00 1.915556e+00 -1.886335e-01 -5.535853e-01 1.034613e+00 -9.390631e-01 -8.072317e-01 -6.121065e-01 -7.543439e-01 -3.528205e-01 6.181670e-01 -2.434159e-01 6.902342e-01 6.559430e-01 -3.669774e-01 -2.896047e-01 1.383717e+00
<VARIANCE> 25
 5.120139e+01 6.912991e+01 4.261470e+01 4.282212e+01 4.994134e+01 4.072082e+01 5.199772e+01 6.800540e+01 7.394684e+01 5.968032e+01 3.252266e+01 2.071935e+01 2.927989e+00 5.670413e+00 4.463958e+00 4.465348e+00 5.373634e+00 4.365401e+00 5.083411e+00 6.794238e+00 6.778593e+00 4.885647e+00 3.352369e+00 2.355822e+00 3.600234e+00
<GCONST> 1.116685e+02
<STATE> 3
<MEAN> 25
 1.007649e+01 -6.161523e+00 -9.188873e+00 -3.491081e+00 -3.102986e+00 -1.596376e+00 5.789435e+00 -2.043622e+00 2.508791e+00 2.595916e-02 -2.119538e+00 -5.014946e-01 1.483227e-01 1.053170e-01 1.024444e-01 -7.942249e-02 -7.978653e-02 -7.474731e-02 1.317597e-01 -2.809022e-01 -4.417956e-03 3.878663e-02 -2.373734e-01 1.139478e-01 1.200178e-01
<VARIANCE> 25
 1.494744e+01 3.303259e+01 2.706351e+01 2.642473e+01 2.460299e+01 2.263651e+01 5.857889e+01 4.367421e+01 3.585682e+01 4.123548e+01 1.721919e+01 1.373377e+01 7.760738e-01 1.384832e+00 1.208491e+00 1.370782e+00 1.484873e+00 1.599386e+00 1.736570e+00 2.133528e+00 1.423612e+00 1.260042e+00 1.001523e+00 1.004508e+00 8.238694e-01
<GCONST> 8.880381e+01
<STATE> 4
<MEAN> 25
 8.769514e+00 -3.106504e+00 -4.617270e+00 -6.010381e+00 -3.676403e+00 8.017063e-01 2.144333e+00 -4.452177e+00 3.568182e+00 6.378887e+00 -1.563460e+00 -1.680572e+00 -5.161774e-01 6.960874e-01 2.804634e-01 4.202478e-01 6.618704e-01 4.689960e-01 -3.375042e-01 3.543710e-01 -4.624481e-01 -4.762037e-01 4.053117e-01 1.686120e-01 -8.983629e-01
<VARIANCE> 25
 1.903518e+01 2.194477e+01 2.726627e+01 4.426329e+01 4.625702e+01 4.416916e+01 4.951279e+01 4.913446e+01 5.786742e+01 6.828954e+01 3.299455e+01 3.607061e+01 1.110685e+00 1.606566e+00 2.324094e+00 2.630527e+00 2.557043e+00 3.003171e+00 2.733890e+00 3.347481e+00 2.972975e+00 2.912631e+00 2.109519e+00 1.874105e+00 1.169348e+00
<GCONST> 1.001920e+02
<TRANSP> 5
 0.000000e+00 1.000000e+00 0.000000e+00 0.000000e+00 0.000000e+00
 0.000000e+00 6.776707e-01 3.223293e-01 0.000000e+00 0.000000e+00
 0.000000e+00 0.000000e+00 7.913385e-01 2.086615e-01 0.000000e+00
 0.000000e+00 0.000000e+00 0.000000e+00 7.917510e-01 2.082490e-01
 0.000000e+00 0.000000e+00 0.000000e+00 0.000000e+00 0.000000e+00
<ENDHMM>
~h "AH"
<BEGINHMM>
<NUMSTATES> 5
<STATE> 2
<MEAN> 25
 7.218273e+00 -1.566279e+00 2.354802e-01 9.388793e-01 -1.473878e+00 -4.898635e+00 -2.763038e+00 -5.753876e+00 -4.521152e+00 -1.758405e+00 -1.704525e+00 -2.397558e-01 1.002424e+00 1.229134e-01 -5.961280e-01 8.179833e-02 -4.210814e-01 -4.901322e-01 3.831553e-02 -1.598480e-01 -3.440461e-01 5.851124e-02 -2.863244e-01 -1.057323e-01 4.063662e-01
<VARIANCE> 25
 2.444732e+01 4.142234e+01 4.233992e+01 5.426062e+01 5.374068e+01 4.900050e+01 5.753519e+01 5.393129e+01 3.979382e+01 3.968359e+01 2.788570e+01 2.757512e+01 3.227968e+00 4.666910e+00 3.164353e+00 3.492913e+00 4.548247e+00 4.699155e+00 3.956638e+00 3.958860e+00 3.606767e+00 3.097731e+00 2.750509e+00 2.407049e+00 2.458717e+00
<GCONST> 1.066644e+02
<STATE> 3
<MEAN> 25
 6.751181e+00 3.681186e-01 -1.167768e+00 6.886151e-01 -1.493140e+00 -3.044515e+00 -1.632903e+00 -3.644780e+00 -3.580559e+00 -2.354090e+00 -2.105706e+00 -2.607234e-01 -3.238993e-01 5.870535e-01 1.251174e-01 -7.391058e-02 1.840006e-01 5.289412e-01 1.574987e-01 5.173260e-01 5.167425e-01 -8.868966e-03 -1.366047e-01 -6.419558e-02 -5.749321e-01
<VARIANCE> 25
 3.298653e+01 3.688013e+01 2.799573e+01 3.793528e+01 4.569344e+01 4.575919e+01 4.428905e+01 4.700395e+01 3.685029e+01 3.456199e+01 2.583339e+01 2.393443e+01 1.825791e+00 2.849049e+00 2.044379e+00 2.564488e+00 3.378735e+00 2.956599e+00 2.649459e+00 2.834159e+00 2.685220e+00 2.138524e+00 2.005456e+00 1.796527e+00 1.519648e+00
<GCONST> 9.995314e+01
<STATE> 4
<MEAN> 25
 6.439735e+00 8.766787e-01 -2.506726e-02 -2.063712e+00 -3.109217e+00 -1.702534e+00 -1.851812e+00 -2.813582e+00 6.321005e-01 2.913484e-01 -3.379105e+00 -9.148587e-01 -4.041286e-01 4.703642e-01 5.142957e-01 4.852954e-04 2.854907e-01 7.071154e-01 2.404738e-01 4.023983e-01 5.126945e-01 1.441572e-01 7.763164e-02 -3.427153e-02 -3.972777e-01
<VARIANCE> 25
 3.629433e+01 3.501118e+01 3.225248e+01 4.860727e+01 8.376162e+01 4.681439e+01 5.312374e+01 5.288865e+01 5.706987e+01 5.036037e+01 3.834824e+01 3.114668e+01 3.999087e+00 3.707324e+00 2.947499e+00 3.560815e+00 5.606068e+00 4.868858e+00 4.368757e+00 4.130554e+00 4.022847e+00 3.856780e+00 3.278919e+00 2.627324e+00 3.013363e+00
<GCONST> 1.089608e+02
<TRANSP> 5
 0.000000e+00 1.000000e+00 0.000000e+00 0.000000e+00 0.000000e+00
 0.000000e+00 4.475924e-01 5.524077e-01 0.000000e+00 0.000000e+00
 0.000000e+00 0.000000e+00 5.124229e-01 4.875772e-01 0.000000e+00
 0.000000e+00 0.000000e+00 0.000000e+00 5.143440e-01 4.856560e-01
 0.000000e+00 0.000000e+00 0.000000e+00 0.000000e+00 0.000000e+00
<ENDHMM>
~h "AO"
<BEGINHMM>
<NUMSTATES> 5
<STATE> 2
<MEAN> 25
 9.738653e+00 4.688229e+00 3.413378e-01 -6.196211e+00 -7.552524e+00 -7.264197e+00 -2.236070e+00 1.053665e+00 1.058344e+00 2.819618e-01 -3.799089e+00 -3.706961e+00 1.337809e+00 8.545195e-01 -3.030654e-01 -9.067859e-01 -1.633845e+00 -7.374001e-01 2.391203e-02 -9.819462e-02 2.534779e-01 6.953381e-01 -2.760578e-01 -6.281587e-01 4.476412e-01
<VARIANCE> 25
 1.904491e+01 4.046010e+01 2.436370e+01 4.086454e+01 7.194058e+01 5.177454e+01 6.220848e+01 5.672924e+01 6.048936e+01 4.972796e+01 4.174041e+01 3.413683e+01 2.800956e+00 3.481848e+00 2.765375e+00 3.372643e+00 4.476338e+00 5.435182e+00 4.900527e+00 4.556870e+00 4.671906e+00 2.912901e+00 3.687578e+00 2.667565e+00 1.416789e+00
<GCONST> 1.072131e+02
<STATE> 3
<MEAN> 25
 1.191063e+01 7.585655e+00 -1.445625e+00 -8.434869e+00 -1.102029e+01 -6.012951e+00 -7.003998e-01 5.324322e-01 9.485673e-01 2.241340e+00 -2.057170e+00 -5.383877e+00 8.915301e-02 -1.531865e-01 -7.287599e-01 -5.054527e-01 1.714402e-01 9.168665e-01 9.498280e-01 -3.572952e-02 -7.312322e-01 -4.117835e-01 7.961206e-02 2.182985e-01 2.607818e-02
<VARIANCE> 25
 8.240041e+00 3.501310e+01 1.700815e+01 2.269418e+01 3.956578e+01 4.229213e+01 5.013473e+01 4.257668e+01 5.033872e+01 3.608857e+01 2.597734e+01 2.616622e+01 2.455345e-01 6.369688e-01 9.094542e-01 1.090888e+00 1.396925e+00 1.836635e+00 1.903181e+00 1.845667e+00 2.146511e+00 2.039387e+00 1.341989e+00 1.391527e+00 2.254359e-01
<GCONST> 8.762910e+01
<STATE> 4
<MEAN> 25
 7.892496e+00 3.687780e+00 -5.178763e+00 -8.047694e+00 -7.321317e+00 3.551521e-01 4.829387e+00 2.818003e+00 -4.473721e-01 -1.001844e+00 -2.244671e+00 -1.114227e+00 -5.813474e-01 -2.376384e-01 -1.596628e-01 4.492592e-01 9.755086e-01 7.363645e-01 3.680097e-02 -3.129520e-01 -4.719006e-01 -4.208928e-01 3.572757e-01 5.910537e-01 -3.916856e-01
<VARIANCE> 25
 3.632570e+01 3.353580e+01 2.196816e+01 3.175153e+01 3.710144e+01 4.036967e+01 4.585185e+01 5.868906e+01 6.838435e+01 5.134182e+01 2.736045e+01 2.436355e+01 6.950426e-01 1.077135e+00 1.063864e+00 1.568703e+00 2.004749e+00 2.539768e+00 1.982389e+00 2.663023e+00 2.542929e+00 2.442595e+00 1.788767e+00 1.805472e+00 5.998613e-01
<GCONST> 9.547654e+01
<TRANSP> 5
 0.000000e+00 1.000000e+00 0.000000e+00 0.000000e+00 0.000000e+00
 0.000000e+00 6.768625e-01 3.231375e-01 0.000000e+00 0.000000e+00
 0.000000e+00 0.000000e+00 7.782311e-01 2.217688e-01 0.000000e+00
 0.000000e+00 0.000000e+00 0.000000e+00 7.343546e-01 2.656454e-01
 0.000000e+00 0.000000e+00 0.000000e+00 0.000000e+00 0.000000e+00
<ENDHMM>
~h "AW"
<BEGINHMM>
<NUMSTATES> 5
<STATE> 2
<MEAN> 25
 8.943116e+00 -3.734107e+00 -7.508461e+00 -7.495071e+00 -4.203557e+00 -9.960752e-01 6.391138e+00 -4.623381e+00 3.365878e+00 7.693261e+00 -4.905255e+00 -6.379553e-01 1.152458e+00 1.065381e+00 2.722397e-01 -7.181261e-01 -6.175722e-01 -5.931305e-01 4.927752e-01 -8.355034e-01 -1.097068e+00 3.517143e-01 -4.057972e-01 -2.255788e-01 7.108924e-01
<VARIANCE> 25
 4.204876e+01 4.093122e+01 4.541011e+01 3.452002e+01 4.326660e+01 3.940197e+01 4.283474e+01 4.817103e+01 6.394267e+01 1.152829e+02 4.117036e+01 3.538903e+01 3.241281e+00 4.087285e+00 4.845237e+00 3.805027e+00 4.535320e+00 5.245557e+00 2.979658e+00 5.711123e+00 4.739931e+00 4.269690e+00 3.512408e+00 3.666988e+00 1.380536e+00
<GCONST> 1.094051e+02
<STATE> 3
<MEAN> 25
 1.058092e+01 1.776619e+00 -5.957974e+00 -5.893476e+00 -6.436512e+00 -1.972697e+00 3.323946e+00 6.194395e-01 3.405048e-01 1.026246e+00 -3.192373e+00 -1.885197e+00 -3.056540e-01 4.848430e-01 4.312631e-01 4.140712e-01 -3.510347e-02 1.027211e-01 -2.421021e-01 6.408615e-01 5.881265e-02 -6.118978e-01 1.225241e-01 1.920358e-01 -6.175274e-01
<VARIANCE> 25
 2.536471e+01 4.814778e+01 1.752751e+01 1.534107e+01 3.373091e+01 3.834405e+01 2.133189e+01 3.669036e+01 2.675563e+01 5.595367e+01 1.851429e+01 2.260966e+01 8.097141e-01 1.561284e+00 1.197110e+00 1.162953e+00 1.799115e+00 2.498600e+00 1.881373e+00 2.854623e+00 2.016234e+00 2.316542e+00 1.471885e+00 1.852367e+00 7.664884e-01
<GCONST> 9.185244e+01
<STATE> 4
<MEAN> 25
 -4.975647e+00 -7.504169e+00 7.659186e+00 -1.506238e+00 -1.873347e+00 -1.154004e+01 1.011173e+01 9.909546e+00 -4.906309e+00 -3.655238e+00 4.666321e-01 5.361443e+00 -1.132546e+00 -9.910237e-01 1.049318e+00 6.045713e-01 6.864177e-01 -3.079811e-01 3.105298e-01 -8.660006e-02 -4.758827e-01 -3.110301e-01 2.742104e-01 3.622174e-01 6.204176e-02
<VARIANCE> 25
 1.243306e+02 1.137438e+02 9.810445e+01 2.555020e+01 2.595792e+01 1.212814e+02 5.905090e+01 7.443427e+01 5.617391e+01 2.018641e+01 2.779700e+01 3.777178e+01 5.440166e+00 7.027555e+00 5.550292e+00 3.062027e+00 2.739972e+00 9.600163e+00 3.053495e+00 5.333851e+00 3.123436e+00 2.052791e+00 1.785559e+00 2.667432e+00 1.095623e+00
<GCONST> 1.098103e+02
<TRANSP> 5
 0.000000e+00 1.000000e+00 0.000000e+00 0.000000e+00 0.000000e+00
 0.000000e+00 7.891187e-01 2.108813e-01 0.000000e+00 0.000000e+00
 0.000000e+00 0.000000e+00 9.099346e-01 9.006537e-02 0.000000e+00
 0.000000e+00 0.000000e+00 0.000000e+00 6.518250e-01 3.481750e-01
 0.000000e+00 0.000000e+00 0.000000e+00 0.000000e+00 0.000000e+00
<ENDHMM>
~h "AY"
<BEGINHMM>
<NUMSTATES> 5
<STATE> 2
<MEAN> 25
 1.172940e+01 -1.505267e+00 -4.698887e+00 -8.046770e+00 -1.111343e+01 -1.976247e+00 3.911000e+00 -7.281765e-01 4.667212e+00 3.942397e+00 -4.745602e+00 -3.660225e+00 2.664587e-01 -8.480822e-01 -7.075989e-01 -3.459265e-01 3.094076e-02 1.947481e-01 8.793971e-02 -3.879781e-01 2.238624e-01 5.055732e-01 1.558855e-01 -9.009667e-03 8.329175e-01
<VARIANCE> 25
 1.201572e+01 2.952799e+01 2.482170e+01 2.141439e+01 4.691929e+01 3.164920e+01 4.073170e+01 4.076434e+01 3.974981e+01 8.479547e+01 3.094622e+01 2.798720e+01 1.268087e+00 2.346061e+00 2.258543e+00 2.944642e+00 4.058088e+00 3.662610e+00 3.495465e+00 3.201429e+00 2.978389e+00 2.405333e+00 3.081828e+00 2.076205e+00 2.066157e+00
<GCONST> 1.003488e+02
<STATE> 3
<MEAN> 25
 1.198898e+01 -2.210316e+00 -7.041474e+00 -3.372001e+00 -4.536024e+00 -3.671853e+00 5.298961e-01 -3.743492e+00 -8.506090e-02 2.125382e+00 -2.273175e+00 -1.384005e+00 -1.844895e-01 -3.467786e-01 1.879126e-01 1.190688e+00 9.849787e-01 -3.326457e-01 -9.361852e-01 -1.152359e+00 -4.683560e-01 5.053070e-01 6.590357e-01 3.243572e-02 -2.477596e-02
<VARIANCE> 25
 7.542142e+00 3.093557e+01 1.546254e+01 1.898488e+01 2.669326e+01 3.177197e+01 2.736548e+01 2.863348e+01 3.519590e+01 5.485192e+01 2.365799e+01 1.623191e+01 2.488315e-01 6.622622e-01 7.978064e-01 1.189269e+00 1.411049e+00 2.057181e+00 1.705895e+00 1.570496e+00 1.513801e+00 1.539762e+00 1.393057e+00 1.276096e+00 1.862097e-01
<GCONST> 8.394070e+01
<STATE> 4
<MEAN> 25
 9.414390e+00 -1.804816e+00 -1.879056e+00 3.087284e+00 1.260243e+00 -4.874754e+00 -8.180060e+00 -9.121652e+00 -1.050938e+00 6.116220e+00 -3.163030e-01 -2.798245e+00 -5.316951e-01 4.814739e-01 6.358474e-01 8.253379e-01 1.100674e+00 -2.080021e-02 -5.391518e-01 9.576503e-02 -3.739980e-01 -5.286424e-01 1.084938e-01 8.157262e-02 -5.816157e-01
<VARIANCE> 25
 1.012761e+01 2.390126e+01 2.246687e+01 3.179876e+01 4.253442e+01 3.904080e+01 3.991563e+01 4.323912e+01 3.713996e+01 4.720543e+01 2.283940e+01 1.745681e+01 3.979803e-01 1.152564e+00 1.204366e+00 1.399382e+00 1.792013e+00 3.028857e+00 2.455781e+00 1.901888e+00 1.859171e+00 1.633578e+00 1.732761e+00 1.445506e+00 3.832471e-01
<GCONST> 9.037888e+01
<TRANSP> 5
 0.000000e+00 1.000000e+00 0.000000e+00 0.000000e+00 0.000000e+00
 0.000000e+00 7.650455e-01 2.349546e-01 0.000000e+00 0.000000e+00
 0.000000e+00 0.000000e+00 7.742693e-01 2.257307e-01 0.000000e+00
 0.000000e+00 0.000000e+00 0.000000e+00 8.098000e-01 1.902000e-01
 0.000000e+00 0.000000e+00 0.000000e+00 0.000000e+00 0.000000e+00
<ENDHMM>
~h "CH"
<BEGINHMM>
<NUMSTATES> 5
<STATE> 2
<MEAN> 25
 -1.645480e+00 -5.561367e+00 -1.962157e-01 5.474218e+00 3.079463e+00 -2.373335e+00 -3.843898e+00 1.648339e+00 4.229977e+00 -2.878558e+00 -2.609359e+00 1.236775e+00 -1.890090e+00 -5.017201e+00 1.131478e+00 7.905970e-01 -9.590971e-01 -3.244042e-01 -7.089659e-01 7.233424e-01 2.299211e+00 3.974958e-02 1.964306e-01 6.968756e-01 1.577299e+00
<VARIANCE> 25
 1.792463e+01 9.262418e+01 6.452627e+01 4.401293e+01 3.477406e+01 5.031968e+01 3.917715e+01 4.008285e+01 4.145745e+01 3.050937e+01 2.607118e+01 1.537269e+01 2.912828e+00 9.443204e+00 8.151445e+00 4.935904e+00 4.860159e+00 7.002453e+00 5.155282e+00 4.740856e+00 4.122369e+00 3.748119e+00 2.621035e+00 1.838861e+00 5.868207e+00
<GCONST> 1.090883e+02
<STATE> 3
<MEAN> 25
 -7.493537e+00 -2.439610e+01 6.902507e+00 7.628727e+00 -1.419691e+00 -1.576755e+00 -6.887955e+00 6.718434e-01 1.087525e+01 -9.282583e-01 -1.704791e+00 2.516177e+00 -1.076877e+00 -2.303335e+00 1.387245e+00 -3.149433e-01 -7.100875e-02 2.156439e-01 -2.209210e-02 -7.466122e-01 4.059056e-01 7.642003e-01 4.347334e-01 4.743404e-02 1.385835e+00
<VARIANCE> 25
 2.287403e+01 3.599717e+01 4.906663e+01 3.295177e+01 3.795274e+01 3.293239e+01 4.958741e+01 8.700325e+01 3.669383e+01 4.069130e+01 3.068701e+01 1.743504e+01 3.321671e+00 5.281600e+00 6.183624e+00 1.854084e+00 3.693934e+00 2.981397e+00 2.900775e+00 3.054154e+00 2.579628e+00 1.712777e+00 1.675094e+00 1.398491e+00 1.358709e+00
<GCONST> 1.016681e+02
<STATE> 4
<MEAN> 25
 -6.529613e+00 -1.603654e+01 4.558040e+00 4.760029e+00 1.486059e+00 -2.412941e+00 -5.303483e+00 2.322675e+00 6.657194e+00 -1.205940e+00 -1.356436e-01 2.223765e+00 1.154246e+00 2.035166e+00 -9.911069e-01 -2.728753e-01 3.004964e-01 2.171164e-01 -3.426374e-02 -3.364560e-01 -8.516136e-01 8.446275e-02 -3.143421e-02 -5.161962e-02 -7.474443e-01
<VARIANCE> 25
 4.071630e+01 1.098871e+02 7.565049e+01 2.562897e+01 4.025798e+01 4.119025e+01 4.538031e+01 7.142889e+01 3.315927e+01 2.606049e+01 2.746258e+01 1.649414e+01 3.166005e+00 5.259604e+00 2.145823e+00 2.092453e+00 2.131978e+00 2.310963e+00 2.865511e+00 3.147601e+00 2.928848e+00 1.613078e+00 2.188689e+00 1.667404e+00 1.530878e+00
<GCONST> 1.016794e+02
<TRANSP> 5
 0.000000e+00 1.000000e+00 0.000000e+00 0.000000e+00 0.000000e+00
 0.000000e+00 7.098669e-01 2.901331e-01 0.000000e+00 0.000000e+00
 0.000000e+00 0.000000e+00 6.475006e-01 3.524993e-01 0.000000e+00
 0.000000e+00 0.000000e+00 0.000000e+00 8.722261e-01 1.277740e-01
 0.000000e+00 0.000000e+00 0.000000e+00 0.000000e+00 0.000000e+00
<ENDHMM>
~h "DH"
<BEGINHMM>
<NUMSTATES> 5
<STATE> 2
<MEAN> 25
 -3.181593e+00 1.136236e+00 -8.474520e-02 -9.343333e-01 -2.260280e+00 2.707590e+00 -2.579278e-01 4.752009e-02 9.788928e-01 -5.758522e-01 -1.670330e+00 8.942583e-01 2.837725e-02 1.507567e-01 1.340154e-01 2.089038e-02 -8.484721e-04 4.747760e-02 -3.244265e-02 1.138766e-01 4.757325e-02 -1.556542e-01 2.218097e-01 1.109227e-01 2.114220e-02
<VARIANCE> 25
 3.378752e+01 3.355990e+01 5.264229e+01 3.949649e+01 4.176840e+01 4.082518e+01 2.727654e+01 5.661737e+01 3.353736e+01 2.711560e+01 2.630527e+01 1.806635e+01 2.575723e+00 3.329530e+00 3.928854e+00 3.275192e+00 3.248151e+00 4.182929e+00 2.825353e+00 4.458868e+00 3.854713e+00 2.797227e+00 2.317062e+00 2.009668e+00 1.985396e+00
<GCONST> 1.028288e+02
<STATE> 3
<MEAN> 25
 1.339942e+00 6.500672e+00 4.019173e+00 2.379991e+00 7.285069e-01 4.099062e+00 -2.575652e+00 -1.689663e+00 -6.383421e-01 -2.540008e+00 -1.268950e+00 1.730124e+00 4.984322e-01 -2.756031e-02 6.187074e-01 4.043901e-02 2.291219e-01 -5.178772e-01 -3.944164e-01 -5.239657e-01 -3.533363e-01 -3.362805e-01 3.776257e-02 9.317145e-02 9.036095e-01
<VARIANCE> 25
 2.970490e+01 4.314343e+01 4.275554e+01 3.464116e+01 2.889517e+01 2.421995e+01 2.268886e+01 3.232073e+01 2.543128e+01 1.912959e+01 2.239916e+01 1.332881e+01 2.657086e+00 3.505321e+00 2.793466e+00 2.430875e+00 2.781467e+00 2.507293e+00 2.525455e+00 4.109658e+00 2.862476e+00 1.749904e+00 1.698262e+00 1.236120e+00 2.262386e+00
<GCONST> 9.703614e+01
<STATE> 4
<MEAN> 25
 -1.262252e+00 2.546570e+00 8.361172e+00 -1.462143e+00 5.456299e+00 -1.335699e+00 -2.276417e+00 -2.929217e+00 1.249460e-01 -2.736438e+00 -2.214716e+00 -4.478681e-01 9.924132e-01 -6.708457e-01 -1.158848e-01 -1.317193e-01 -3.153141e-01 -1.031008e+00 -5.492258e-01 -7.797830e-01 -5.583385e-01 -2.305716e-02 -5.422160e-01 -3.327840e-01 1.213783e+00
<VARIANCE> 25
 6.616257e+01 5.292770e+01 4.769653e+01 8.716386e+01 9.626265e+01 6.500926e+01 8.546541e+01 6.285012e+01 5.505666e+01 3.842999e+01 4.989734e+01 3.850494e+01 5.532888e+00 3.233124e+00 3.481601e+00 5.609367e+00 7.597212e+00 6.334892e+00 7.044643e+00 5.650938e+00 5.838318e+00 4.202719e+00 4.341978e+00 3.411788e+00 2.538245e+00
<GCONST> 1.152303e+02
<TRANSP> 5
 0.000000e+00 1.000000e+00 0.000000e+00 0.000000e+00 0.000000e+00
 0.000000e+00 6.746495e-01 3.253505e-01 0.000000e+00 0.000000e+00
 0.000000e+00 0.000000e+00 6.586933e-01 3.413067e-01 0.000000e+00
 0.000000e+00 0.000000e+00 0.000000e+00 7.797457e-01 2.202543e-01
 0.000000e+00 0.000000e+00 0.000000e+00 0.000000e+00 0.000000e+00
<ENDHMM>
~h "EA"
<BEGINHMM>
<NUMSTATES> 5
<STATE> 2
<MEAN> 25
 1.945418e-08 8.746813e-09 -4.498951e-08 -3.611543e-10 1.363959e-08 -5.515342e-09 1.131617e-08 -8.000427e-09 3.278593e-08 9.066692e-09 -2.122211e-08 1.191809e-08 5.478837e-04 8.524338e-03 3.388704e-03 3.685407e-03 1.560096e-03 4.051044e-03 2.728951e-03 2.291447e-03 7.309044e-04 -1.874549e-03 1.679306e-04 1.469746e-03 -6.471253e-03
<VARIANCE> 25
 7.952613e+01 6.308802e+01 5.964849e+01 5.452956e+01 5.734600e+01 6.678256e+01 5.711662e+01 6.048514e+01 5.090747e+01 3.378843e+01 3.030896e+01 2.667588e+01 2.504539e+00 3.070349e+00 2.508418e+00 2.546605e+00 2.899496e+00 3.530318e+00 2.918622e+00 2.871764e+00 2.785610e+00 2.166140e+00 2.092833e+00 1.717397e+00 1.686906e+00
<GCONST> 1.050440e+02
<STATE> 3
<MEAN> 25
 1.945418e-08 8.746813e-09 -4.498951e-08 -3.611543e-10 1.363959e-08 -5.515342e-09 1.131617e-08 -8.000427e-09 3.278593e-08 9.066692e-09 -2.122211e-08 1.191809e-08 5.478837e-04 8.524338e-03 3.388704e-03 3.685407e-03 1.560096e-03 4.051044e-03 2.728951e-03 2.291447e-03 7.309044e-04 -1.874549e-03 1.679306e-04 1.469746e-03 -6.471253e-03
<VARIANCE> 25
 7.952613e+01 6.308802e+01 5.964849e+01 5.452956e+01 5.734600e+01 6.678256e+01 5.711662e+01 6.048514e+01 5.090747e+01 3.378843e+01 3.030896e+01 2.667588e+01 2.504539e+00 3.070349e+00 2.508418e+00 2.546605e+00 2.899496e+00 3.530318e+00 2.918622e+00 2.871764e+00 2.785610e+00 2.166140e+00 2.092833e+00 1.717397e+00 1.686906e+00
<GCONST> 1.050440e+02
<STATE> 4
<MEAN> 25
 1.945418e-08 8.746813e-09 -4.498951e-08 -3.611543e-10 1.363959e-08 -5.515342e-09 1.131617e-08 -8.000427e-09 3.278593e-08 9.066692e-09 -2.122211e-08 1.191809e-08 5.478837e-04 8.524338e-03 3.388704e-03 3.685407e-03 1.560096e-03 4.051044e-03 2.728951e-03 2.291447e-03 7.309044e-04 -1.874549e-03 1.679306e-04 1.469746e-03 -6.471253e-03
<VARIANCE> 25
 7.952613e+01 6.308802e+01 5.964849e+01 5.452956e+01 5.734600e+01 6.678256e+01 5.711662e+01 6.048514e+01 5.090747e+01 3.378843e+01 3.030896e+01 2.667588e+01 2.504539e+00 3.070349e+00 2.508418e+00 2.546605e+00 2.899496e+00 3.530318e+00 2.918622e+00 2.871764e+00 2.785610e+00 2.166140e+00 2.092833e+00 1.717397e+00 1.686906e+00
<GCONST> 1.050440e+02
<TRANSP> 5
 0.000000e+00 1.000000e+00 0.000000e+00 0.000000e+00 0.000000e+00
 0.000000e+00 6.000000e-01 4.000000e-01 0.000000e+00 0.000000e+00
 0.000000e+00 0.000000e+00 6.000000e-01 4.000000e-01 0.000000e+00
 0.000000e+00 0.000000e+00 0.000000e+00 7.000000e-01 3.000000e-01
 0.000000e+00 0.000000e+00 0.000000e+00 0.000000e+00 0.000000e+00
<ENDHMM>
~h "EH"
<BEGINHMM>
<NUMSTATES> 5
<STATE> 2
<MEAN> 25
 4.156805e+00 -4.773797e+00 -1.925143e+00 3.723444e-01 -1.314660e+00 -4.782632e+00 -2.494127e+00 -2.216953e+00 1.638032e+00 2.453126e+00 1.115948e+00 -1.345381e-01 2.197482e+00 9.827077e-02 -6.249884e-01 1.966199e-01 -4.052730e-01 -9.932998e-01 -2.912721e-01 -1.373006e+00 -5.275154e-01 7.399141e-01 1.424012e-02 -2.239670e-01 1.686763e+00
<VARIANCE> 25
 3.694481e+01 6.669870e+01 4.252185e+01 4.230175e+01 4.112778e+01 4.915079e+01 4.041271e+01 4.646943e+01 6.154987e+01 4.676439e+01 2.727259e+01 2.135035e+01 4.190444e+00 9.785411e+00 6.218637e+00 3.713747e+00 4.923823e+00 6.303832e+00 3.987083e+00 4.885521e+00 4.359664e+00 4.781048e+00 3.184516e+00 2.624001e+00 3.334032e+00
<GCONST> 1.103549e+02
<STATE> 3
<MEAN> 25
 9.322341e+00 -3.796423e+00 -3.636878e+00 1.308228e+00 -2.200496e+00 -6.742906e+00 -2.187646e+00 -6.533653e+00 2.853716e-01 4.520663e+00 1.007741e+00 -1.418011e+00 1.357211e+00 3.712916e-01 -3.185884e-01 -2.087245e-01 -1.719694e-01 -2.562194e-01 -8.988373e-02 -1.163848e+00 -8.425109e-01 3.153963e-01 1.041013e-01 -2.117890e-01 1.073558e+00
<VARIANCE> 25
 1.612577e+01 3.876325e+01 2.648286e+01 3.531498e+01 3.050437e+01 3.448225e+01 3.520737e+01 3.776044e+01 6.321600e+01 4.790853e+01 2.585131e+01 2.258154e+01 2.018967e+00 4.042037e+00 3.231495e+00 2.902879e+00 2.672564e+00 3.806986e+00 3.220969e+00 4.201558e+00 3.826338e+00 2.754942e+00 2.488855e+00 1.864821e+00 1.329363e+00
<GCONST> 1.011998e+02
<STATE> 4
<MEAN> 25
 1.041570e+01 -2.773240e+00 -3.620981e+00 -1.232287e+00 -1.071355e+00 -5.019718e+00 -3.114430e+00 -7.179439e+00 -1.968949e+00 4.709391e+00 2.068013e+00 -7.846040e-02 -1.411421e-01 4.652890e-01 -2.790951e-02 -7.383038e-02 3.222867e-01 5.093476e-01 4.228811e-01 6.585298e-02 -6.926354e-01 -5.493313e-01 1.563536e-01 4.011925e-01 -4.013528e-01
<VARIANCE> 25
 1.040043e+01 2.747839e+01 3.520191e+01 3.253946e+01 4.399606e+01 3.310996e+01 5.798450e+01 4.697765e+01 5.374936e+01 4.948409e+01 3.052283e+01 2.886582e+01 1.045140e+00 1.352885e+00 1.903534e+00 2.222671e+00 2.124439e+00 2.511255e+00 2.870177e+00 2.664981e+00 3.590493e+00 2.279788e+00 1.933103e+00 1.571243e+00 1.093604e+00
<GCONST> 9.730712e+01
<TRANSP> 5
 0.000000e+00 1.000000e+00 0.000000e+00 0.000000e+00 0.000000e+00
 0.000000e+00 4.455590e-01 5.544410e-01 0.000000e+00 0.000000e+00
 0.000000e+00 0.000000e+00 4.757152e-01 5.242847e-01 0.000000e+00
 0.000000e+00 0.000000e+00 0.000000e+00 7.569228e-01 2.430771e-01
 0.000000e+00 0.000000e+00 0.000000e+00 0.000000e+00 0.000000e+00
<ENDHMM>
~h "EN"
<BEGINHMM>
<NUMSTATES> 5
<STATE> 2
<MEAN> 25
 1.945418e-08 8.746813e-09 -4.498951e-08 -3.611543e-10 1.363959e-08 -5.515342e-09 1.131617e-08 -8.000427e-09 3.278593e-08 9.066692e-09 -2.122211e-08 1.191809e-08 5.478837e-04 8.524338e-03 3.388704e-03 3.685407e-03 1.560096e-03 4.051044e-03 2.728951e-03 2.291447e-03 7.309044e-04 -1.874549e-03 1.679306e-04 1.469746e-03 -6.471253e-03
<VARIANCE> 25
 7.952613e+01 6.308802e+01 5.964849e+01 5.452956e+01 5.734600e+01 6.678256e+01 5.711662e+01 6.048514e+01 5.090747e+01 3.378843e+01 3.030896e+01 2.667588e+01 2.504539e+00 3.070349e+00 2.508418e+00 2.546605e+00 2.899496e+00 3.530318e+00 2.918622e+00 2.871764e+00 2.785610e+00 2.166140e+00 2.092833e+00 1.717397e+00 1.686906e+00
<GCONST> 1.050440e+02
<STATE> 3
<MEAN> 25
 1.945418e-08 8.746813e-09 -4.498951e-08 -3.611543e-10 1.363959e-08 -5.515342e-09 1.131617e-08 -8.000427e-09 3.278593e-08 9.066692e-09 -2.122211e-08 1.191809e-08 5.478837e-04 8.524338e-03 3.388704e-03 3.685407e-03 1.560096e-03 4.051044e-03 2.728951e-03 2.291447e-03 7.309044e-04 -1.874549e-03 1.679306e-04 1.469746e-03 -6.471253e-03
<VARIANCE> 25
 7.952613e+01 6.308802e+01 5.964849e+01 5.452956e+01 5.734600e+01 6.678256e+01 5.711662e+01 6.048514e+01 5.090747e+01 3.378843e+01 3.030896e+01 2.667588e+01 2.504539e+00 3.070349e+00 2.508418e+00 2.546605e+00 2.899496e+00 3.530318e+00 2.918622e+00 2.871764e+00 2.785610e+00 2.166140e+00 2.092833e+00 1.717397e+00 1.686906e+00
<GCONST> 1.050440e+02
<STATE> 4
<MEAN> 25
 1.945418e-08 8.746813e-09 -4.498951e-08 -3.611543e-10 1.363959e-08 -5.515342e-09 1.131617e-08 -8.000427e-09 3.278593e-08 9.066692e-09 -2.122211e-08 1.191809e-08 5.478837e-04 8.524338e-03 3.388704e-03 3.685407e-03 1.560096e-03 4.051044e-03 2.728951e-03 2.291447e-03 7.309044e-04 -1.874549e-03 1.679306e-04 1.469746e-03 -6.471253e-03
<VARIANCE> 25
 7.952613e+01 6.308802e+01 5.964849e+01 5.452956e+01 5.734600e+01 6.678256e+01 5.711662e+01 6.048514e+01 5.090747e+01 3.378843e+01 3.030896e+01 2.667588e+01 2.504539e+00 3.070349e+00 2.508418e+00 2.546605e+00 2.899496e+00 3.530318e+00 2.918622e+00 2.871764e+00 2.785610e+00 2.166140e+00 2.092833e+00 1.717397e+00 1.686906e+00
<GCONST> 1.050440e+02
<TRANSP> 5
 0.000000e+00 1.000000e+00 0.000000e+00 0.000000e+00 0.000000e+00
 0.000000e+00 6.000000e-01 4.000000e-01 0.000000e+00 0.000000e+00
 0.000000e+00 0.000000e+00 6.000000e-01 4.000000e-01 0.000000e+00
 0.000000e+00 0.000000e+00 0.000000e+00 7.000000e-01 3.000000e-01
 0.000000e+00 0.000000e+00 0.000000e+00 0.000000e+00 0.000000e+00
<ENDHMM>
~h "ER"
<BEGINHMM>
<NUMSTATES> 5
<STATE> 2
<MEAN> 25
 6.996796e+00 -9.823450e-01 -3.171991e+00 -1.601315e-02 2.221350e+00 -1.394783e+00 -3.964242e+00 -6.838159e+00 -6.564734e+00 -4.236714e-01 1.901734e+00 6.055318e-02 1.794891e+00 1.431316e+00 -1.333956e+00 -6.783122e-01 2.432918e-01 2.844496e-01 2.236923e-01 -1.452402e+00 -2.182859e+00 1.390168e-01 9.583983e-01 7.826471e-02 5.134913e-01
<VARIANCE> 25
 3.507746e+01 4.527869e+01 4.365078e+01 5.790493e+01 3.336348e+01 6.272767e+01 4.993615e+01 5.022281e+01 4.331091e+01 3.963403e+01 3.398855e+01 2.524167e+01 3.273178e+00 5.877306e+00 4.443223e+00 4.362638e+00 3.463097e+00 4.891775e+00 3.892355e+00 3.798474e+00 4.175817e+00 4.550611e+00 2.798995e+00 2.488786e+00 2.090032e+00
<GCONST> 1.078959e+02
<STATE> 3
<MEAN> 25
 1.109628e+01 9.749740e-01 -6.925528e+00 -1.160018e+00 1.742516e+00 -2.552456e+00 -1.331203e+00 -1.158686e+01 -1.164408e+01 1.455554e+00 5.939377e+00 -4.918022e-01 1.002081e-01 5.142218e-01 -3.041430e-01 -4.927845e-01 1.956376e-02 5.111790e-01 4.872292e-01 -2.572529e-01 -6.747857e-01 -1.797423e-01 4.436681e-01 2.110966e-01 -2.091725e-01
<VARIANCE> 25
 7.017905e+00 4.341094e+01 2.528420e+01 5.276840e+01 2.735339e+01 4.973970e+01 4.561490e+01 3.925780e+01 3.094102e+01 4.614871e+01 3.084543e+01 2.970691e+01 4.450125e-01 1.178077e+00 1.007877e+00 1.461044e+00 1.351040e+00 1.665013e+00 1.600902e+00 1.471097e+00 1.768060e+00 1.644916e+00 1.414857e+00 1.224409e+00 5.212303e-01
<GCONST> 9.002655e+01
<STATE> 4
<MEAN> 25
 8.084197e+00 4.998839e+00 -5.559076e+00 -2.496954e+00 4.465639e+00 3.646120e+00 -1.471422e+00 -6.964597e+00 -9.934932e+00 -2.290069e+00 5.020298e+00 2.809735e+00 -6.105392e-01 -1.520381e-01 2.805779e-01 6.366935e-01 2.426700e-01 1.173770e-01 -1.803624e-01 5.150542e-01 9.721219e-01 8.316310e-02 -4.907975e-01 -1.538957e-01 -5.281448e-01
<VARIANCE> 25
 2.484259e+01 2.266951e+01 1.928769e+01 5.181699e+01 3.397593e+01 3.481714e+01 4.790307e+01 4.541771e+01 5.460054e+01 4.015990e+01 3.539301e+01 2.586459e+01 7.365884e-01 1.352028e+00 1.131240e+00 1.622010e+00 1.703548e+00 1.848246e+00 2.194373e+00 2.254610e+00 2.316496e+00 1.913552e+00 1.589691e+00 1.325849e+00 5.653898e-01
<GCONST> 9.347390e+01
<TRANSP> 5
 0.000000e+00 1.000000e+00 0.000000e+00 0.000000e+00 0.000000e+00
 0.000000e+00 6.659715e-01 3.340285e-01 0.000000e+00 0.000000e+00
 0.000000e+00 0.000000e+00 7.587147e-01 2.412853e-01 0.000000e+00
 0.000000e+00 0.000000e+00 0.000000e+00 8.532029e-01 1.467971e-01
 0.000000e+00 0.000000e+00 0.000000e+00 0.000000e+00 0.000000e+00
<ENDHMM>
~h "EY"
<BEGINHMM>
<NUMSTATES> 5
<STATE> 2
<MEAN> 25
 8.445673e+00 -3.042449e+00 6.028578e-03 8.124093e+00 3.799500e+00 -8.873223e+00 -9.763865e+00 -8.536566e+00 -3.933041e+00 2.573158e+00 3.475941e-01 -3.960095e+00 2.859707e-01 -8.577871e-01 5.463444e-01 1.677318e+00 3.133776e-01 -1.923116e+00 -1.228240e+00 2.071340e-01 5.853037e-01 5.104367e-01 -7.971246e-01 -1.196049e+00 8.705382e-01
<VARIANCE> 25
 1.348894e+01 2.912540e+01 3.799822e+01 3.262489e+01 3.614518e+01 3.994175e+01 4.692118e+01 4.340316e+01 5.422535e+01 3.147163e+01 3.899282e+01 3.017426e+01 1.736471e+00 3.175005e+00 2.584235e+00 2.858514e+00 2.745395e+00 3.552405e+00 3.261365e+00 4.317032e+00 3.497325e+00 2.607666e+00 2.508994e+00 1.740593e+00 1.961863e+00
<GCONST> 1.014372e+02
<STATE> 3
<MEAN> 25
 7.631780e+00 -5.108276e+00 3.474641e+00 1.311271e+01 3.750252e+00 -1.469775e+01 -1.031838e+01 -6.281321e+00 -2.172167e+00 2.420968e+00 -4.361858e+00 -7.166729e+00 -1.691131e-01 1.780211e-01 2.691313e-01 1.078035e-01 3.618598e-01 8.167837e-03 -2.160078e-01 8.311890e-02 1.850255e-01 1.134968e-01 -4.031959e-01 -2.971764e-01 -1.974728e-01
<VARIANCE> 25
 8.825574e+00 2.024689e+01 3.198816e+01 2.540681e+01 3.122699e+01 4.612527e+01 5.346828e+01 2.909784e+01 3.844308e+01 2.656251e+01 3.787017e+01 1.747632e+01 2.245688e-01 5.815431e-01 1.043348e+00 1.078115e+00 8.194190e-01 1.234845e+00 1.049552e+00 1.387055e+00 1.291046e+00 1.186639e+00 1.299147e+00 9.635689e-01 2.319744e-01
<GCONST> 8.353845e+01
<STATE> 4
<MEAN> 25
 6.613132e+00 -5.263891e-01 1.839556e+00 9.346989e+00 7.619263e+00 -6.335282e+00 -1.162349e+01 -7.127114e+00 -1.241335e+00 2.516343e+00 -2.345435e+00 -6.227584e+00 -6.051771e-01 1.028486e+00 -3.791844e-01 -9.812487e-01 5.842208e-02 2.021288e+00 1.334767e+00 7.978390e-02 -1.356804e-01 -5.771774e-01 4.644278e-01 8.511907e-01 -1.114442e+00
<VARIANCE> 25
 1.322036e+01 2.134019e+01 3.517335e+01 2.683208e+01 3.076691e+01 4.860851e+01 4.800844e+01 4.354020e+01 4.902729e+01 3.067521e+01 2.709899e+01 2.241194e+01 1.060521e+00 1.420437e+00 1.693477e+00 2.398885e+00 2.043967e+00 2.910071e+00 2.475931e+00 2.759246e+00 2.510557e+00 2.389078e+00 2.603357e+00 2.034409e+00 7.610190e-01
<GCONST> 9.582087e+01
<TRANSP> 5
 0.000000e+00 1.000000e+00 0.000000e+00 0.000000e+00 0.000000e+00
 0.000000e+00 7.081458e-01 2.918542e-01 0.000000e+00 0.000000e+00
 0.000000e+00 0.000000e+00 7.952482e-01 2.047518e-01 0.000000e+00
 0.000000e+00 0.000000e+00 0.000000e+00 7.789623e-01 2.210377e-01
 0.000000e+00 0.000000e+00 0.000000e+00 0.000000e+00 0.000000e+00
<ENDHMM>
~h "HH"
<BEGINHMM>
<NUMSTATES> 5
<STATE> 2
<MEAN> 25
 -3.032543e+00 -3.349023e+00 -1.640547e+00 -2.036956e-01 1.104744e+00 1.252360e+00 9.502710e-01 3.422819e+00 1.646961e+00 6.149006e-01 1.300843e+00 1.028326e+00 2.045860e-01 -5.410209e-01 -7.422190e-01 -3.560205e-02 -1.525972e-01 8.194567e-02 8.093435e-02 6.305628e-01 6.250072e-01 1.878270e-01 1.450169e-01 -7.047480e-02 4.061068e-02
<VARIANCE> 25
 4.206755e+01 3.764814e+01 3.229251e+01 5.267112e+01 4.526906e+01 5.244093e+01 3.832556e+01 3.614851e+01 4.630770e+01 2.930997e+01 2.799445e+01 2.213276e+01 2.008085e+00 2.982723e+00 4.150856e+00 4.493425e+00 3.872488e+00 4.434766e+00 3.652269e+00 4.363282e+00 3.313663e+00 2.767922e+00 2.472813e+00 1.980599e+00 1.037555e+00
<GCONST> 1.035714e+02
<STATE> 3
<MEAN> 25
 -1.313292e+00 -4.448954e+00 -6.045807e+00 -5.776116e-01 -1.359825e+00 5.984245e-02 3.568194e-01 4.628051e+00 4.328577e+00 1.392408e+00 9.676298e-01 1.161143e+00 2.242663e-01 -4.480506e-01 -4.621364e-01 -1.063856e-01 -2.322562e-01 -3.115763e-01 -9.738275e-02 9.962811e-02 2.281563e-01 1.406355e-01 5.565920e-02 -1.534033e-02 2.340023e-01
<VARIANCE> 25
 1.872456e+01 3.939238e+01 1.573358e+01 2.448936e+01 2.942056e+01 3.436942e+01 2.936897e+01 2.768645e+01 3.057321e+01 1.957984e+01 2.128385e+01 1.605274e+01 4.841989e-01 1.442559e+00 1.109080e+00 1.169087e+00 1.355012e+00 1.668607e+00 1.613997e+00 1.697458e+00 1.392881e+00 1.363627e+00 1.472531e+00 1.225359e+00 4.129847e-01
<GCONST> 8.642452e+01
<STATE> 4
<MEAN> 25
 1.287804e+00 -1.312405e+01 -9.792974e+00 1.862310e+00 -4.809137e+00 -5.327689e+00 -3.302965e-01 6.741518e+00 8.779201e+00 4.577040e+00 9.428926e-01 -1.664476e+00 8.336322e-01 2.676683e-01 8.165242e-02 1.524206e-01 -9.534435e-02 2.066174e-02 1.020069e-01 -6.287920e-01 -3.650542e-02 1.951909e-01 -2.794796e-01 -3.097187e-01 5.531688e-01
<VARIANCE> 25
 1.727058e+01 4.921555e+01 3.616003e+01 5.428440e+01 4.977337e+01 5.915988e+01 4.408586e+01 4.251072e+01 4.533621e+01 4.975552e+01 3.090585e+01 2.588234e+01 1.200565e+00 4.401863e+00 3.281892e+00 2.344759e+00 2.919874e+00 4.596725e+00 2.096272e+00 3.133620e+00 2.619262e+00 2.320421e+00 2.262298e+00 1.865659e+00 6.151424e-01
<GCONST> 1.011471e+02
<TRANSP> 5
 0.000000e+00 1.000000e+00 0.000000e+00 0.000000e+00 0.000000e+00
 0.000000e+00 7.337256e-01 2.662744e-01 0.000000e+00 0.000000e+00
 0.000000e+00 0.000000e+00 7.988495e-01 2.011505e-01 0.000000e+00
 0.000000e+00 0.000000e+00 0.000000e+00 7.171825e-01 2.828175e-01
 0.000000e+00 0.000000e+00 0.000000e+00 0.000000e+00 0.000000e+00
<ENDHMM>
~h "IH"
<BEGINHMM>
<NUMSTATES> 5
<STATE> 2
<MEAN> 25
 3.215412e+00 -1.417195e+00 4.993582e-01 3.327637e+00 1.658629e+00 -3.500957e+00 -4.235389e+00 -4.623060e+00 -2.865350e+00 -1.043693e+00 -6.642815e-01 -2.421032e-01 1.454355e+00 -4.870600e-01 3.439685e-01 1.458475e+00 4.378463e-01 -1.534501e+00 -1.470463e+00 -1.598202e+00 -8.645366e-01 5.181057e-01 -1.153126e-01 -3.917437e-01 1.401160e+00
<VARIANCE> 25
 4.771595e+01 4.693737e+01 5.249531e+01 5.028451e+01 4.044461e+01 5.955780e+01 4.934495e+01 5.703436e+01 4.750508e+01 3.682645e+01 2.786099e+01 2.660437e+01 4.544531e+00 6.564449e+00 4.432528e+00 3.972295e+00 4.385866e+00 7.786881e+00 5.625210e+00 6.008443e+00 5.764861e+00 4.132376e+00 3.651291e+00 2.937968e+00 4.691371e+00
<GCONST> 1.117485e+02
<STATE> 3
<MEAN> 25
 7.723329e+00 -4.366315e+00 4.942381e-01 7.645482e+00 2.135453e+00 -8.548680e+00 -6.586330e+00 -9.463943e+00 -5.512668e+00 1.795752e+00 -5.765980e-01 -2.933949e+00 2.475100e-01 -5.889463e-02 2.943872e-01 4.028107e-01 4.947321e-01 -2.039643e-01 -3.584205e-01 -3.615709e-01 -1.093570e-01 3.556922e-01 -3.880968e-02 -2.427136e-01 4.332032e-01
<VARIANCE> 25
 1.371492e+01 4.654589e+01 3.119839e+01 4.391715e+01 3.019641e+01 4.395755e+01 3.638890e+01 3.893043e+01 3.903333e+01 4.542773e+01 2.620029e+01 2.613268e+01 1.934869e+00 3.288327e+00 2.444630e+00 3.051798e+00 2.650494e+00 3.414943e+00 2.854209e+00 3.004004e+00 3.131665e+00 2.662688e+00 2.224667e+00 1.835953e+00 2.382196e+00
<GCONST> 1.006928e+02
<STATE> 4
<MEAN> 25
 6.894260e+00 -1.071492e+00 2.850734e+00 5.720539e+00 5.108539e+00 -5.111102e+00 -8.180483e+00 -8.627507e+00 -3.709713e+00 1.636854e+00 -8.841730e-01 -2.466236e+00 -6.123183e-01 7.106830e-01 3.635570e-01 -6.663117e-01 1.448719e-01 1.326995e+00 7.662995e-01 4.745056e-01 2.308463e-01 -4.078738e-01 6.791934e-03 3.102691e-01 -6.879687e-01
<VARIANCE> 25
 1.529142e+01 3.129849e+01 3.989837e+01 4.257875e+01 3.988137e+01 5.618551e+01 4.776953e+01 5.146821e+01 5.337642e+01 4.131200e+01 3.891344e+01 3.592880e+01 1.886050e+00 2.796032e+00 2.743037e+00 3.179477e+00 2.767747e+00 3.458033e+00 3.069905e+00 3.418221e+00 3.437049e+00 3.025206e+00 2.945854e+00 1.921826e+00 1.821766e+00
<GCONST> 1.031318e+02
<TRANSP> 5
 0.000000e+00 1.000000e+00 0.000000e+00 0.000000e+00 0.000000e+00
 0.000000e+00 5.163869e-01 4.836131e-01 0.000000e+00 0.000000e+00
 0.000000e+00 0.000000e+00 5.368057e-01 4.631943e-01 0.000000e+00
 0.000000e+00 0.000000e+00 0.000000e+00 6.625454e-01 3.374545e-01
 0.000000e+00 0.000000e+00 0.000000e+00 0.000000e+00 0.000000e+00
<ENDHMM>
~h "IY"
<BEGINHMM>
<NUMSTATES> 5
<STATE> 2
<MEAN> 25
 5.750071e+00 -9.901008e-01 3.279787e+00 8.786022e+00 6.473190e+00 -6.817047e+00 -7.532182e+00 -7.734282e+00 -5.223754e+00 4.451133e-02 -1.120740e+00 -5.356698e+00 5.966024e-01 -5.324871e-01 8.753430e-01 2.599436e+00 9.719602e-01 -2.506819e+00 -2.071366e+00 -2.254334e-02 4.125862e-01 6.945568e-01 -1.040935e+00 -1.858069e+00 8.845713e-01
<VARIANCE> 25
 2.062489e+01 2.832973e+01 4.829621e+01 4.177525e+01 3.902713e+01 5.921888e+01 3.575029e+01 4.788482e+01 5.191721e+01 3.287268e+01 3.967495e+01 3.125864e+01 2.768051e+00 4.172903e+00 2.114118e+00 2.613123e+00 3.915943e+00 5.173388e+00 3.920097e+00 4.359713e+00 4.667005e+00 3.833313e+00 3.586761e+00 2.170306e+00 1.636304e+00
<GCONST> 1.051150e+02
<STATE> 3
<MEAN> 25
 6.689356e+00 -2.525853e+00 4.389456e+00 1.423572e+01 6.128603e+00 -1.353771e+01 -1.034357e+01 -6.458203e+00 -4.907522e+00 1.005823e+00 -3.432323e+00 -9.889680e+00 -1.822323e-01 -2.165333e-01 4.309954e-01 4.124927e-01 -1.900556e-01 -4.790511e-01 -2.891042e-01 4.204109e-01 4.201403e-01 -4.602989e-03 -5.197661e-01 -2.790459e-01 -7.643266e-03
<VARIANCE> 25
 9.648388e+00 2.344842e+01 3.702259e+01 2.418870e+01 4.825064e+01 5.649263e+01 2.770619e+01 4.469195e+01 3.308325e+01 2.579922e+01 2.745576e+01 2.137746e+01 2.675455e-01 6.386981e-01 1.112540e+00 1.655629e+00 1.190991e+00 1.790219e+00 1.443411e+00 1.574013e+00 1.444718e+00 1.308364e+00 1.309818e+00 1.260600e+00 2.334578e-01
<GCONST> 8.642740e+01
<STATE> 4
<MEAN> 25
 3.640480e+00 -1.019470e+00 5.121755e+00 1.118160e+01 6.269749e+00 -8.195790e+00 -9.374738e+00 -3.891062e+00 3.567683e-01 7.933919e-01 -4.622704e+00 -7.099677e+00 -3.492165e-01 4.592365e-01 -5.901270e-01 -1.001121e+00 -1.328238e-01 1.410819e+00 8.051882e-01 1.239267e-01 1.584003e-01 -1.787399e-01 4.584750e-01 8.744589e-01 -6.620105e-01
<VARIANCE> 25
 1.329607e+01 2.756347e+01 3.899476e+01 3.100952e+01 3.345145e+01 8.626759e+01 4.869575e+01 4.148472e+01 4.158826e+01 2.772215e+01 2.771983e+01 3.413435e+01 6.710941e-01 1.485274e+00 1.558543e+00 1.936223e+00 1.704106e+00 2.924624e+00 2.878245e+00 2.681398e+00 2.395549e+00 2.050263e+00 1.779923e+00 2.065005e+00 9.281892e-01
<GCONST> 9.599931e+01
<TRANSP> 5
 0.000000e+00 1.000000e+00 0.000000e+00 0.000000e+00 0.000000e+00
 0.000000e+00 6.142465e-01 3.857535e-01 0.000000e+00 0.000000e+00
 0.000000e+00 0.000000e+00 7.864605e-01 2.135395e-01 0.000000e+00
 0.000000e+00 0.000000e+00 0.000000e+00 8.386810e-01 1.613189e-01
 0.000000e+00 0.000000e+00 0.000000e+00 0.000000e+00 0.000000e+00
<ENDHMM>
~h "JH"
<BEGINHMM>
<NUMSTATES> 5
<STATE> 2
<MEAN> 25
 -3.680251e-01 -2.606427e+00 1.843904e+00 6.958532e+00 4.779170e+00 4.209132e-01 -3.025882e+00 2.332474e+00 4.960097e+00 -2.822383e+00 -2.981241e+00 1.681799e+00 -1.806007e+00 -4.372078e+00 1.598152e+00 1.122618e+00 -6.018205e-01 -6.168947e-01 -9.065965e-01 7.876568e-01 1.891229e+00 -2.670968e-01 -3.296176e-01 5.252783e-01 1.476784e+00
<VARIANCE> 25
 2.697886e+01 9.750217e+01 3.464768e+01 4.142926e+01 4.635151e+01 3.163414e+01 3.470267e+01 5.347694e+01 3.385658e+01 2.787075e+01 2.846212e+01 1.947491e+01 3.318737e+00 8.907991e+00 6.568554e+00 3.848792e+00 3.751198e+00 3.844338e+00 4.320133e+00 6.139601e+00 3.423900e+00 3.978856e+00 2.582123e+00 2.226020e+00 4.533291e+00
<GCONST> 1.075104e+02
<STATE> 3
<MEAN> 25
 -5.115514e+00 -2.052800e+01 4.876318e+00 9.566528e+00 1.208119e+00 -8.253600e-01 -5.960406e+00 -1.287026e+00 9.206068e+00 -2.905115e-01 -3.592057e+00 3.009416e+00 -3.906134e-01 -9.600822e-01 6.484156e-01 -3.946205e-01 1.075650e-01 -2.196042e-01 -5.012231e-01 -8.231917e-01 -2.693876e-01 2.300783e-01 6.310889e-01 -8.561379e-02 8.018620e-01
<VARIANCE> 25
 3.804700e+01 4.804310e+01 9.199529e+01 4.523118e+01 4.551927e+01 3.440926e+01 2.919373e+01 1.172462e+02 3.818638e+01 4.804085e+01 2.423047e+01 1.795953e+01 3.171742e+00 1.206100e+01 4.871530e+00 3.416717e+00 4.456269e+00 2.070162e+00 1.966807e+00 3.077610e+00 2.760425e+00 1.716562e+00 1.790078e+00 1.368345e+00 1.815239e+00
<GCONST> 1.044030e+02
<STATE> 4
<MEAN> 25
 -5.136432e+00 -1.362936e+01 6.977435e+00 6.948358e+00 4.468635e+00 -1.777044e+00 -6.316198e+00 2.449948e+00 5.892454e+00 -3.718506e+00 -5.871526e-01 1.861937e+00 1.945246e+00 2.346159e+00 -1.120506e+00 -3.793237e-01 1.937095e-01 7.737099e-02 -3.562011e-01 -1.124300e+00 -1.679939e+00 -1.864678e-01 1.415339e-01 -5.882595e-02 -4.563062e-01
<VARIANCE> 25
 5.145812e+01 6.231094e+01 8.584064e+01 2.675076e+01 2.954896e+01 3.861131e+01 6.588510e+01 8.304324e+01 4.608575e+01 2.792664e+01 1.859615e+01 1.652370e+01 3.915841e+00 5.504663e+00 3.180363e+00 3.297410e+00 2.620080e+00 2.274751e+00 3.778463e+00 4.239533e+00 3.942977e+00 2.076659e+00 1.594234e+00 1.685128e+00 1.273186e+00
<GCONST> 1.036056e+02
<TRANSP> 5
 0.000000e+00 1.000000e+00 0.000000e+00 0.000000e+00 0.000000e+00
 0.000000e+00 7.438655e-01 2.561345e-01 0.000000e+00 0.000000e+00
 0.000000e+00 0.000000e+00 5.360994e-01 4.639005e-01 0.000000e+00
 0.000000e+00 0.000000e+00 0.000000e+00 7.532565e-01 2.467434e-01
 0.000000e+00 0.000000e+00 0.000000e+00 0.000000e+00 0.000000e+00
<ENDHMM>
~h "NG"
<BEGINHMM>
<NUMSTATES> 5
<STATE> 2
<MEAN> 25
 7.862597e+00 3.272470e+00 1.023974e+00 7.019600e+00 5.540987e+00 -6.148685e+00 -9.064256e+00 -3.978238e+00 1.291079e+00 3.212657e+00 -2.735376e-01 -5.704731e+00 -2.843272e-01 1.089333e+00 1.564146e-01 -3.031315e-01 2.224135e-01 1.208346e+00 4.702187e-01 -3.299611e-01 2.251936e-01 -7.408622e-02 -2.273353e-01 9.561592e-02 -7.470509e-01
<VARIANCE> 25
 8.660213e+00 2.792059e+01 1.916651e+01 2.516195e+01 2.924074e+01 5.291202e+01 5.851836e+01 3.178122e+01 3.077367e+01 2.836101e+01 1.767253e+01 2.488731e+01 6.500320e-01 1.296732e+00 1.130081e+00 1.972849e+00 2.713575e+00 4.093262e+00 3.213552e+00 2.524235e+00 2.206938e+00 1.841500e+00 1.155131e+00 2.166745e+00 3.715020e-01
<GCONST> 9.180521e+01
<STATE> 3
<MEAN> 25
 6.473932e+00 8.395342e+00 1.771871e+00 3.491171e+00 5.844226e+00 1.363632e+00 -4.026637e+00 -5.666914e+00 -1.955009e+00 -2.074652e-01 -1.174254e+00 -3.175138e+00 -5.857064e-01 4.546789e-01 4.089512e-01 -1.089090e-01 7.404136e-02 7.695065e-01 5.433828e-01 3.523722e-01 -8.006766e-02 -2.693503e-01 5.581249e-03 4.155801e-01 -5.730191e-01
<VARIANCE> 25
 1.152623e+01 1.063017e+01 9.188926e+00 1.063346e+01 1.576551e+01 1.830907e+01 2.949876e+01 2.907354e+01 3.550603e+01 1.050875e+01 1.327024e+01 1.242265e+01 4.592468e-01 5.914066e-01 5.226046e-01 8.881125e-01 1.309402e+00 1.414161e+00 1.785939e+00 1.791694e+00 1.658316e+00 1.211581e+00 1.026952e+00 1.043844e+00 2.208741e-01
<GCONST> 7.774888e+01
<STATE> 4
<MEAN> 25
 1.174592e+00 5.756849e+00 1.096381e+00 3.813665e+00 2.665218e+00 2.714848e+00 -1.752668e+00 -9.405946e-01 -4.364702e-01 -1.942032e+00 -2.862859e-01 1.103231e+00 -5.119674e-01 -4.392490e-01 -3.086858e-01 -1.722889e-01 -1.786430e-01 1.411832e-01 4.001544e-01 4.585247e-01 8.109813e-02 -2.613971e-02 1.165586e-01 1.522491e-01 -2.946572e-01
<VARIANCE> 25
 2.278785e+01 2.768474e+01 2.626639e+01 1.165403e+01 2.153292e+01 2.581194e+01 2.679113e+01 2.831648e+01 1.917395e+01 1.392494e+01 1.246250e+01 1.044738e+01 8.259001e-01 1.298753e+00 8.632938e-01 1.077977e+00 1.663718e+00 1.971786e+00 2.075410e+00 1.909032e+00 1.361467e+00 1.218693e+00 1.077633e+00 9.290667e-01 3.368235e-01
<GCONST> 8.350851e+01
<TRANSP> 5
 0.000000e+00 1.000000e+00 0.000000e+00 0.000000e+00 0.000000e+00
 0.000000e+00 7.831773e-01 2.168227e-01 0.000000e+00 0.000000e+00
 0.000000e+00 0.000000e+00 7.215198e-01 2.784802e-01 0.000000e+00
 0.000000e+00 0.000000e+00 0.000000e+00 8.185211e-01 1.814788e-01
 0.000000e+00 0.000000e+00 0.000000e+00 0.000000e+00 0.000000e+00
<ENDHMM>
~h "OW"
<BEGINHMM>
<NUMSTATES> 5
<STATE> 2
<MEAN> 25
 7.872780e+00 2.741642e+00 1.306819e+00 -4.739207e+00 -4.544840e+00 -5.165315e+00 -2.591884e+00 -3.423564e-01 -9.427981e-01 -2.037784e+00 -3.472500e+00 -1.856606e+00 1.902163e+00 8.722345e-01 5.339197e-01 5.928195e-02 -2.280594e+00 -1.597787e+00 -1.168479e+00 3.312527e-01 4.532274e-01 5.271876e-01 -9.454243e-01 -6.778753e-01 6.981496e-01
<VARIANCE> 25
 2.973761e+01 3.225241e+01 2.772906e+01 3.133955e+01 8.734841e+01 6.740820e+01 6.017142e+01 4.866456e+01 5.298043e+01 2.310217e+01 2.964859e+01 2.059214e+01 3.159226e+00 3.594854e+00 3.373128e+00 4.895627e+00 9.403143e+00 8.872585e+00 5.073019e+00 4.972312e+00 3.619265e+00 2.587633e+00 3.885536e+00 2.580870e+00 1.278953e+00
<GCONST> 1.074416e+02
<STATE> 3
<MEAN> 25
 1.125740e+01 2.654434e+00 9.376740e-01 -4.287109e+00 -8.628369e+00 -7.180908e+00 -1.290086e+00 4.857838e-01 -1.410411e+00 -1.859280e+00 -5.557597e+00 -4.738082e+00 -2.930267e-02 4.089193e-01 2.064975e-01 1.310208e-01 -1.355687e-01 -1.428899e-01 -4.559147e-02 3.339579e-01 1.823948e-01 -3.519451e-02 -4.499288e-02 -3.162436e-01 -2.193845e-01
<VARIANCE> 25
 8.049282e+00 3.244809e+01 1.829265e+01 1.969553e+01 5.585695e+01 4.430889e+01 5.488367e+01 4.054670e+01 6.093657e+01 2.868813e+01 2.546025e+01 2.801365e+01 3.765146e-01 9.538165e-01 8.612148e-01 1.041286e+00 1.907924e+00 1.944703e+00 1.569655e+00 1.617582e+00 1.485109e+00 1.085564e+00 1.165222e+00 1.063907e+00 3.232444e-01
<GCONST> 8.762980e+01
<STATE> 4
<MEAN> 25
 3.675472e+00 4.592873e+00 -8.971967e-01 -1.276354e+00 -2.122851e+00 -3.960414e-01 -2.705629e+00 3.509115e+00 2.099933e+00 -2.294008e+00 -1.688110e+00 -1.867105e+00 -4.633193e-01 -1.285791e-01 -1.518496e-01 3.125987e-01 4.951978e-01 3.514760e-01 2.079066e-01 -4.479691e-02 -1.560380e-01 -9.658359e-02 2.244872e-01 2.561981e-01 -3.493737e-01
<VARIANCE> 25
 5.304182e+01 2.564613e+01 2.354596e+01 3.120004e+01 5.606574e+01 5.331784e+01 4.061231e+01 3.924429e+01 2.832916e+01 2.632996e+01 2.282031e+01 2.998030e+01 8.131825e-01 1.028010e+00 7.925283e-01 1.297845e+00 2.309671e+00 1.646120e+00 1.867415e+00 1.978496e+00 1.416617e+00 1.613704e+00 1.336993e+00 1.735611e+00 6.464342e-01
<GCONST> 9.200495e+01
<TRANSP> 5
 0.000000e+00 1.000000e+00 0.000000e+00 0.000000e+00 0.000000e+00
 0.000000e+00 6.234718e-01 3.765283e-01 0.000000e+00 0.000000e+00
 0.000000e+00 0.000000e+00 7.656706e-01 2.343294e-01 0.000000e+00
 0.000000e+00 0.000000e+00 0.000000e+00 8.626531e-01 1.373469e-01
 0.000000e+00 0.000000e+00 0.000000e+00 0.000000e+00 0.000000e+00
<ENDHMM>
~h "OY"
<BEGINHMM>
<NUMSTATES> 5
<STATE> 2
<MEAN> 25
 8.432197e+00 6.727585e+00 1.584108e+00 -8.857043e+00 -1.207224e+01 -8.486543e+00 -1.563468e+00 4.782867e+00 1.872151e+00 -1.763200e+00 -7.553656e-01 -3.610556e+00 9.204578e-01 2.017024e-01 -8.234323e-01 -1.112068e-01 -2.316372e-02 7.729198e-01 3.174171e-01 -3.371220e-01 -2.276418e-01 1.611869e-01 -6.075094e-01 1.528658e-02 3.467612e-01
<VARIANCE> 25
 4.572419e+01 4.211287e+01 3.502226e+01 3.100609e+01 7.014857e+01 5.414098e+01 5.033745e+01 5.251617e+01 5.618042e+01 7.356750e+01 2.730350e+01 2.496194e+01 1.991955e+00 2.653292e+00 2.482738e+00 2.528530e+00 6.160449e+00 3.072576e+00 2.658539e+00 6.666689e+00 3.080551e+00 4.906436e+00 2.290072e+00 2.140485e+00 1.105202e+00
<GCONST> 1.051961e+02
<STATE> 3
<MEAN> 25
 1.219856e+01 7.417560e+00 -5.062850e+00 -8.780117e+00 -4.854077e+00 -1.065421e+00 -2.749135e+00 -4.849994e+00 -6.833371e+00 -3.785375e+00 8.575469e-03 -7.297623e-02 -2.287751e-01 -6.793727e-01 -6.257684e-02 1.091078e+00 1.260525e+00 2.323916e-01 -7.272142e-01 -1.043102e+00 -8.554154e-02 8.918549e-01 5.655369e-01 8.053422e-02 2.165737e-02
<VARIANCE> 25
 5.798719e+00 2.044365e+01 1.122969e+01 3.654320e+01 2.790057e+01 1.408656e+01 2.365719e+01 2.370648e+01 2.393845e+01 2.618075e+01 1.336945e+01 1.661002e+01 1.146941e-01 6.037756e-01 5.622236e-01 1.407607e+00 1.925266e+00 1.151331e+00 1.681504e+00 1.855798e+00 1.956227e+00 1.492123e+00 9.393170e-01 1.288546e+00 6.748215e-02
<GCONST> 7.848228e+01
<STATE> 4
<MEAN> 25
 7.330684e+00 1.373715e+00 5.804757e-01 6.658684e+00 2.641032e+00 -1.815918e+00 -7.117690e+00 -8.471869e+00 -3.177830e+00 2.604824e+00 1.720545e+00 -1.327149e+00 -4.526789e-01 2.022545e-02 3.122697e-01 6.014284e-01 3.528423e-01 1.808166e-01 -2.465953e-02 8.896341e-02 2.642026e-01 -8.907118e-02 2.578125e-02 2.692371e-02 -3.631016e-01
<VARIANCE> 25
 1.225001e+01 1.459032e+01 4.612426e+01 4.012318e+01 7.713562e+01 3.523554e+01 5.582362e+01 3.668879e+01 2.229191e+01 2.913468e+01 1.798527e+01 2.214682e+01 8.700888e-01 1.030506e+00 1.565531e+00 2.531128e+00 3.452048e+00 2.464674e+00 3.011252e+00 3.085410e+00 2.328161e+00 2.566402e+00 1.966816e+00 1.964246e+00 7.175043e-01
<GCONST> 9.509678e+01
<TRANSP> 5
 0.000000e+00 1.000000e+00 0.000000e+00 0.000000e+00 0.000000e+00
 0.000000e+00 8.036188e-01 1.963812e-01 0.000000e+00 0.000000e+00
 0.000000e+00 0.000000e+00 8.739109e-01 1.260891e-01 0.000000e+00
 0.000000e+00 0.000000e+00 0.000000e+00 8.935321e-01 1.064678e-01
 0.000000e+00 0.000000e+00 0.000000e+00 0.000000e+00 0.000000e+00
<ENDHMM>
~h "SH"
<BEGINHMM>
<NUMSTATES> 5
<STATE> 2
<MEAN> 25
 -4.046494e+00 -2.069168e+01 3.599444e+00 9.145023e+00 4.945166e+00 -3.241447e-01 -6.913907e+00 -2.768342e+00 6.915175e+00 -1.199751e+00 -1.103269e+00 3.179252e+00 -2.045482e+00 -3.987082e+00 1.457909e+00 6.652588e-02 -7.582897e-01 4.605714e-01 -3.276590e-01 1.156983e-01 1.983925e+00 1.491208e-01 1.028906e-01 3.321153e-01 1.045426e+00
<VARIANCE> 25
 4.135231e+01 9.914736e+01 3.953709e+01 4.252300e+01 5.607835e+01 3.796754e+01 2.516696e+01 6.613306e+01 4.211868e+01 1.913045e+01 1.885390e+01 2.852068e+01 1.875314e+00 7.069237e+00 3.684627e+00 3.818495e+00 3.743499e+00 3.735641e+00 3.668297e+00 4.354446e+00 3.829410e+00 2.096568e+00 2.682650e+00 3.283824e+00 9.285140e-01
<GCONST> 1.045748e+02
<STATE> 3
<MEAN> 25
 -5.247039e+00 -2.613037e+01 3.440779e+00 8.213014e+00 1.728073e+00 6.692523e-01 -8.852318e+00 -7.226160e+00 9.271012e+00 4.937143e-01 -2.148805e+00 4.259376e+00 8.982624e-01 2.163681e+00 -5.957270e-01 -1.569910e-01 -4.120278e-02 9.655454e-02 6.999470e-02 2.061453e-01 -1.040333e+00 -1.824423e-01 1.123772e-01 2.538033e-01 -5.533194e-01
<VARIANCE> 25
 4.712103e+01 4.960469e+01 4.343111e+01 1.314929e+01 5.446926e+01 3.739925e+01 2.472413e+01 6.309877e+01 2.812708e+01 1.777755e+01 1.889643e+01 1.367288e+01 3.752506e+00 7.539016e+00 1.461125e+00 1.695685e+00 4.771625e+00 2.285501e+00 2.769780e+00 3.192941e+00 1.509554e+00 1.148108e+00 1.269305e+00 1.575395e+00 9.921837e-01
<GCONST> 9.684593e+01
<STATE> 4
<MEAN> 25
 -7.682901e+00 -1.668868e+01 9.724023e+00 8.504255e+00 2.051860e+00 -3.441578e+00 -5.600738e+00 4.378152e+00 5.601559e+00 -4.557703e+00 1.014396e+00 1.821757e+00 1.495676e+00 1.866485e+00 -6.682126e-01 -3.932009e-01 -1.259746e-01 -4.492038e-01 -1.367372e-02 -2.645397e-01 -4.928787e-01 -2.681465e-01 -2.782233e-01 -2.633672e-01 -4.157341e-01
<VARIANCE> 25
 5.750887e+01 6.120132e+01 4.371652e+01 1.489450e+01 2.310957e+01 2.011202e+01 3.508795e+01 3.980860e+01 4.607737e+01 1.404616e+01 1.589849e+01 1.384135e+01 5.235324e+00 6.482471e+00 2.092096e+00 1.612391e+00 2.574152e+00 1.966685e+00 2.336054e+00 4.497454e+00 3.174192e+00 1.203370e+00 1.201085e+00 1.112919e+00 8.575323e-01
<GCONST> 9.603277e+01
<TRANSP> 5
 0.000000e+00 1.000000e+00 0.000000e+00 0.000000e+00 0.000000e+00
 0.000000e+00 8.029807e-01 1.970192e-01 0.000000e+00 0.000000e+00
 0.000000e+00 0.000000e+00 8.019757e-01 1.980243e-01 0.000000e+00
 0.000000e+00 0.000000e+00 0.000000e+00 8.036704e-01 1.963296e-01
