~o
<STREAMINFO> 1 25
<VECSIZE> 25<NULLD><MFCC_D_N_Z_0><DIAGC>
~h "proto"
<BEGINHMM>
<NUMSTATES> 5
<STATE> 2
<MEAN> 25
 9.891549e-08 5.752151e-08 -1.923143e-08 -7.398182e-08 9.727713e-10 3.901325e-08 -5.565276e-08 -9.970906e-08 3.299103e-08 7.352104e-08 -3.394460e-08 -1.427158e-08 2.493806e-04 8.209550e-03 1.823753e-03 3.501276e-03 1.368263e-03 6.217001e-03 3.172293e-03 3.399258e-03 -8.407679e-04 -4.044591e-03 -1.932915e-03 2.533881e-03 -8.617302e-03
<VARIANCE> 25
 7.713570e+01 5.899093e+01 5.416556e+01 5.556073e+01 5.827679e+01 7.005918e+01 5.513616e+01 5.935222e+01 5.279861e+01 3.472456e+01 3.100705e+01 2.663700e+01 2.397169e+00 2.899452e+00 2.462151e+00 2.535250e+00 2.901621e+00 3.692186e+00 2.801730e+00 2.841486e+00 2.829321e+00 2.159678e+00 2.115867e+00 1.740265e+00 1.777347e+00
<GCONST> 1.049225e+02
<STATE> 3
<MEAN> 25
 9.891549e-08 5.752151e-08 -1.923143e-08 -7.398182e-08 9.727713e-10 3.901325e-08 -5.565276e-08 -9.970906e-08 3.299103e-08 7.352104e-08 -3.394460e-08 -1.427158e-08 2.493806e-04 8.209550e-03 1.823753e-03 3.501276e-03 1.368263e-03 6.217001e-03 3.172293e-03 3.399258e-03 -8.407679e-04 -4.044591e-03 -1.932915e-03 2.533881e-03 -8.617302e-03
<VARIANCE> 25
 7.713570e+01 5.899093e+01 5.416556e+01 5.556073e+01 5.827679e+01 7.005918e+01 5.513616e+01 5.935222e+01 5.279861e+01 3.472456e+01 3.100705e+01 2.663700e+01 2.397169e+00 2.899452e+00 2.462151e+00 2.535250e+00 2.901621e+00 3.692186e+00 2.801730e+00 2.841486e+00 2.829321e+00 2.159678e+00 2.115867e+00 1.740265e+00 1.777347e+00
<GCONST> 1.049225e+02
<STATE> 4
<MEAN> 25
 9.891549e-08 5.752151e-08 -1.923143e-08 -7.398182e-08 9.727713e-10 3.901325e-08 -5.565276e-08 -9.970906e-08 3.299103e-08 7.352104e-08 -3.394460e-08 -1.427158e-08 2.493806e-04 8.209550e-03 1.823753e-03 3.501276e-03 1.368263e-03 6.217001e-03 3.172293e-03 3.399258e-03 -8.407679e-04 -4.044591e-03 -1.932915e-03 2.533881e-03 -8.617302e-03
<VARIANCE> 25
 7.713570e+01 5.899093e+01 5.416556e+01 5.556073e+01 5.827679e+01 7.005918e+01 5.513616e+01 5.935222e+01 5.279861e+01 3.472456e+01 3.100705e+01 2.663700e+01 2.397169e+00 2.899452e+00 2.462151e+00 2.535250e+00 2.901621e+00 3.692186e+00 2.801730e+00 2.841486e+00 2.829321e+00 2.159678e+00 2.115867e+00 1.740265e+00 1.777347e+00
<GCONST> 1.049225e+02
<TRANSP> 5
 0.000000e+00 1.000000e+00 0.000000e+00 0.000000e+00 0.000000e+00
 0.000000e+00 6.000000e-01 4.000000e-01 0.000000e+00 0.000000e+00
 0.000000e+00 0.000000e+00 6.000000e-01 4.000000e-01 0.000000e+00
 0.000000e+00 0.000000e+00 0.000000e+00 7.000000e-01 3.000000e-01
 0.000000e+00 0.000000e+00 0.000000e+00 0.000000e+00 0.000000e+00
<ENDHMM>
