~o
<STREAMINFO> 1 25
<VECSIZE> 25<NULLD><MFCC_D_N_Z_0><DIAGC>
~h "proto"
<BEGINHMM>
<NUMSTATES> 5
<STATE> 2
<MEAN> 25
 5.808182e-08 -5.244507e-08 -1.491658e-07 -1.683230e-08 -1.654656e-08 9.013592e-09 4.514588e-08 -3.174239e-08 8.790200e-08 4.306782e-08 3.013189e-09 2.776810e-08 -4.845900e-04 9.130878e-03 4.145268e-03 3.300752e-03 1.066416e-03 3.797280e-03 5.270037e-03 4.600091e-04 2.370831e-03 9.140436e-04 4.690391e-03 2.408009e-03 -4.373113e-03
<VARIANCE> 25
 8.203166e+01 6.480824e+01 6.311519e+01 5.560979e+01 5.719418e+01 6.730087e+01 5.714178e+01 6.099831e+01 5.121333e+01 3.494102e+01 3.031362e+01 2.587275e+01 2.597829e+00 3.092456e+00 2.481103e+00 2.585832e+00 2.804095e+00 3.547018e+00 2.937834e+00 2.975904e+00 2.926800e+00 2.165969e+00 2.128236e+00 1.717754e+00 1.745205e+00
<GCONST> 1.053630e+02
<STATE> 3
<MEAN> 25
 5.808182e-08 -5.244507e-08 -1.491658e-07 -1.683230e-08 -1.654656e-08 9.013592e-09 4.514588e-08 -3.174239e-08 8.790200e-08 4.306782e-08 3.013189e-09 2.776810e-08 -4.845900e-04 9.130878e-03 4.145268e-03 3.300752e-03 1.066416e-03 3.797280e-03 5.270037e-03 4.600091e-04 2.370831e-03 9.140436e-04 4.690391e-03 2.408009e-03 -4.373113e-03
<VARIANCE> 25
 8.203166e+01 6.480824e+01 6.311519e+01 5.560979e+01 5.719418e+01 6.730087e+01 5.714178e+01 6.099831e+01 5.121333e+01 3.494102e+01 3.031362e+01 2.587275e+01 2.597829e+00 3.092456e+00 2.481103e+00 2.585832e+00 2.804095e+00 3.547018e+00 2.937834e+00 2.975904e+00 2.926800e+00 2.165969e+00 2.128236e+00 1.717754e+00 1.745205e+00
<GCONST> 1.053630e+02
<STATE> 4
<MEAN> 25
 5.808182e-08 -5.244507e-08 -1.491658e-07 -1.683230e-08 -1.654656e-08 9.013592e-09 4.514588e-08 -3.174239e-08 8.790200e-08 4.306782e-08 3.013189e-09 2.776810e-08 -4.845900e-04 9.130878e-03 4.145268e-03 3.300752e-03 1.066416e-03 3.797280e-03 5.270037e-03 4.600091e-04 2.370831e-03 9.140436e-04 4.690391e-03 2.408009e-03 -4.373113e-03
<VARIANCE> 25
 8.203166e+01 6.480824e+01 6.311519e+01 5.560979e+01 5.719418e+01 6.730087e+01 5.714178e+01 6.099831e+01 5.121333e+01 3.494102e+01 3.031362e+01 2.587275e+01 2.597829e+00 3.092456e+00 2.481103e+00 2.585832e+00 2.804095e+00 3.547018e+00 2.937834e+00 2.975904e+00 2.926800e+00 2.165969e+00 2.128236e+00 1.717754e+00 1.745205e+00
<GCONST> 1.053630e+02
<TRANSP> 5
 0.000000e+00 1.000000e+00 0.000000e+00 0.000000e+00 0.000000e+00
 0.000000e+00 6.000000e-01 4.000000e-01 0.000000e+00 0.000000e+00
 0.000000e+00 0.000000e+00 6.000000e-01 4.000000e-01 0.000000e+00
 0.000000e+00 0.000000e+00 0.000000e+00 7.000000e-01 3.000000e-01
 0.000000e+00 0.000000e+00 0.000000e+00 0.000000e+00 0.000000e+00
<ENDHMM>
