~o
<STREAMINFO> 1 25
<VECSIZE> 25<NULLD><MFCC_D_N_Z_0><DIAGC>
~h "proto"
<BEGINHMM>
<NUMSTATES> 5
<STATE> 2
<MEAN> 25
 1.075846e-07 -7.216663e-09 -4.605741e-08 -4.951859e-08 -6.799529e-08 -1.392151e-08 -3.897510e-08 2.646110e-08 4.631972e-08 7.958802e-09 -2.974954e-08 2.518155e-08 -4.860638e-04 8.153617e-03 4.905981e-03 4.193924e-03 1.800585e-03 6.714790e-03 3.175257e-03 4.129817e-03 -1.605180e-03 -3.525185e-03 3.068766e-04 1.045863e-03 -9.411350e-03
<VARIANCE> 25
 8.362540e+01 6.506919e+01 6.022692e+01 5.937751e+01 5.605918e+01 6.612122e+01 5.843021e+01 6.047647e+01 5.068079e+01 3.617085e+01 3.064270e+01 2.652356e+01 2.619987e+00 3.038342e+00 2.477234e+00 2.576151e+00 2.849354e+00 3.578285e+00 2.923781e+00 2.949938e+00 2.840692e+00 2.177858e+00 2.038671e+00 1.752875e+00 1.698887e+00
<GCONST> 1.053634e+02
<STATE> 3
<MEAN> 25
 1.075846e-07 -7.216663e-09 -4.605741e-08 -4.951859e-08 -6.799529e-08 -1.392151e-08 -3.897510e-08 2.646110e-08 4.631972e-08 7.958802e-09 -2.974954e-08 2.518155e-08 -4.860638e-04 8.153617e-03 4.905981e-03 4.193924e-03 1.800585e-03 6.714790e-03 3.175257e-03 4.129817e-03 -1.605180e-03 -3.525185e-03 3.068766e-04 1.045863e-03 -9.411350e-03
<VARIANCE> 25
 8.362540e+01 6.506919e+01 6.022692e+01 5.937751e+01 5.605918e+01 6.612122e+01 5.843021e+01 6.047647e+01 5.068079e+01 3.617085e+01 3.064270e+01 2.652356e+01 2.619987e+00 3.038342e+00 2.477234e+00 2.576151e+00 2.849354e+00 3.578285e+00 2.923781e+00 2.949938e+00 2.840692e+00 2.177858e+00 2.038671e+00 1.752875e+00 1.698887e+00
<GCONST> 1.053634e+02
<STATE> 4
<MEAN> 25
 1.075846e-07 -7.216663e-09 -4.605741e-08 -4.951859e-08 -6.799529e-08 -1.392151e-08 -3.897510e-08 2.646110e-08 4.631972e-08 7.958802e-09 -2.974954e-08 2.518155e-08 -4.860638e-04 8.153617e-03 4.905981e-03 4.193924e-03 1.800585e-03 6.714790e-03 3.175257e-03 4.129817e-03 -1.605180e-03 -3.525185e-03 3.068766e-04 1.045863e-03 -9.411350e-03
<VARIANCE> 25
 8.362540e+01 6.506919e+01 6.022692e+01 5.937751e+01 5.605918e+01 6.612122e+01 5.843021e+01 6.047647e+01 5.068079e+01 3.617085e+01 3.064270e+01 2.652356e+01 2.619987e+00 3.038342e+00 2.477234e+00 2.576151e+00 2.849354e+00 3.578285e+00 2.923781e+00 2.949938e+00 2.840692e+00 2.177858e+00 2.038671e+00 1.752875e+00 1.698887e+00
<GCONST> 1.053634e+02
<TRANSP> 5
 0.000000e+00 1.000000e+00 0.000000e+00 0.000000e+00 0.000000e+00
 0.000000e+00 6.000000e-01 4.000000e-01 0.000000e+00 0.000000e+00
 0.000000e+00 0.000000e+00 6.000000e-01 4.000000e-01 0.000000e+00
 0.000000e+00 0.000000e+00 0.000000e+00 7.000000e-01 3.000000e-01
 0.000000e+00 0.000000e+00 0.000000e+00 0.000000e+00 0.000000e+00
<ENDHMM>
