~o
<STREAMINFO> 1 25
<VECSIZE> 25<NULLD><MFCC_D_N_Z_0><DIAGC>
~h "proto"
<BEGINHMM>
<NUMSTATES> 5
<STATE> 2
<MEAN> 25
 8.451750e-09 3.422959e-08 -3.833661e-08 7.949927e-09 8.459673e-08 6.840635e-08 -3.253924e-08 2.973959e-08 -5.810578e-10 6.388995e-08 7.685810e-09 -1.897682e-08 1.080703e-03 9.049289e-03 2.500975e-03 6.420065e-03 -8.845145e-04 5.387512e-03 3.369061e-03 3.076511e-03 -1.673857e-03 -1.497576e-03 -8.182780e-04 3.298508e-03 -1.043650e-02
<VARIANCE> 25
 7.991972e+01 6.313716e+01 6.253840e+01 5.520694e+01 5.751891e+01 6.522283e+01 5.823029e+01 6.054656e+01 4.808183e+01 3.471592e+01 3.065595e+01 2.762039e+01 2.490213e+00 2.973683e+00 2.553576e+00 2.508925e+00 2.784818e+00 3.285937e+00 2.931005e+00 2.726715e+00 2.597788e+00 2.133513e+00 2.017332e+00 1.706458e+00 1.566640e+00
<GCONST> 1.047287e+02
<STATE> 3
<MEAN> 25
 8.451750e-09 3.422959e-08 -3.833661e-08 7.949927e-09 8.459673e-08 6.840635e-08 -3.253924e-08 2.973959e-08 -5.810578e-10 6.388995e-08 7.685810e-09 -1.897682e-08 1.080703e-03 9.049289e-03 2.500975e-03 6.420065e-03 -8.845145e-04 5.387512e-03 3.369061e-03 3.076511e-03 -1.673857e-03 -1.497576e-03 -8.182780e-04 3.298508e-03 -1.043650e-02
<VARIANCE> 25
 7.991972e+01 6.313716e+01 6.253840e+01 5.520694e+01 5.751891e+01 6.522283e+01 5.823029e+01 6.054656e+01 4.808183e+01 3.471592e+01 3.065595e+01 2.762039e+01 2.490213e+00 2.973683e+00 2.553576e+00 2.508925e+00 2.784818e+00 3.285937e+00 2.931005e+00 2.726715e+00 2.597788e+00 2.133513e+00 2.017332e+00 1.706458e+00 1.566640e+00
<GCONST> 1.047287e+02
<STATE> 4
<MEAN> 25
 8.451750e-09 3.422959e-08 -3.833661e-08 7.949927e-09 8.459673e-08 6.840635e-08 -3.253924e-08 2.973959e-08 -5.810578e-10 6.388995e-08 7.685810e-09 -1.897682e-08 1.080703e-03 9.049289e-03 2.500975e-03 6.420065e-03 -8.845145e-04 5.387512e-03 3.369061e-03 3.076511e-03 -1.673857e-03 -1.497576e-03 -8.182780e-04 3.298508e-03 -1.043650e-02
<VARIANCE> 25
 7.991972e+01 6.313716e+01 6.253840e+01 5.520694e+01 5.751891e+01 6.522283e+01 5.823029e+01 6.054656e+01 4.808183e+01 3.471592e+01 3.065595e+01 2.762039e+01 2.490213e+00 2.973683e+00 2.553576e+00 2.508925e+00 2.784818e+00 3.285937e+00 2.931005e+00 2.726715e+00 2.597788e+00 2.133513e+00 2.017332e+00 1.706458e+00 1.566640e+00
<GCONST> 1.047287e+02
<TRANSP> 5
 0.000000e+00 1.000000e+00 0.000000e+00 0.000000e+00 0.000000e+00
 0.000000e+00 6.000000e-01 4.000000e-01 0.000000e+00 0.000000e+00
 0.000000e+00 0.000000e+00 6.000000e-01 4.000000e-01 0.000000e+00
 0.000000e+00 0.000000e+00 0.000000e+00 7.000000e-01 3.000000e-01
 0.000000e+00 0.000000e+00 0.000000e+00 0.000000e+00 0.000000e+00
<ENDHMM>
