~o
<STREAMINFO> 1 25
<VECSIZE> 25<NULLD><MFCC_D_N_Z_0><DIAGC>
~h "proto"
<BEGINHMM>
<NUMSTATES> 5
<STATE> 2
<MEAN> 25
 -1.871907e-09 2.774062e-08 -3.216951e-08 -1.969662e-08 -1.088826e-08 3.015850e-09 -1.633239e-08 -3.857169e-08 1.666517e-08 1.730474e-08 -1.373252e-08 1.497006e-08 3.858816e-04 7.950105e-03 3.984512e-03 4.536148e-03 1.500850e-03 4.183555e-03 3.857277e-03 1.163799e-03 1.256238e-03 -2.337973e-03 5.189491e-04 1.953271e-03 -5.252861e-03
<VARIANCE> 25
 8.004063e+01 6.331430e+01 6.015380e+01 5.385136e+01 5.662334e+01 6.614755e+01 5.572231e+01 6.048108e+01 5.091856e+01 3.445134e+01 2.939697e+01 2.662071e+01 2.476098e+00 3.051553e+00 2.477599e+00 2.522906e+00 2.881533e+00 3.566572e+00 2.873508e+00 2.869488e+00 2.785882e+00 2.174111e+00 2.027776e+00 1.715250e+00 1.676397e+00
<GCONST> 1.049030e+02
<STATE> 3
<MEAN> 25
 -1.871907e-09 2.774062e-08 -3.216951e-08 -1.969662e-08 -1.088826e-08 3.015850e-09 -1.633239e-08 -3.857169e-08 1.666517e-08 1.730474e-08 -1.373252e-08 1.497006e-08 3.858816e-04 7.950105e-03 3.984512e-03 4.536148e-03 1.500850e-03 4.183555e-03 3.857277e-03 1.163799e-03 1.256238e-03 -2.337973e-03 5.189491e-04 1.953271e-03 -5.252861e-03
<VARIANCE> 25
 8.004063e+01 6.331430e+01 6.015380e+01 5.385136e+01 5.662334e+01 6.614755e+01 5.572231e+01 6.048108e+01 5.091856e+01 3.445134e+01 2.939697e+01 2.662071e+01 2.476098e+00 3.051553e+00 2.477599e+00 2.522906e+00 2.881533e+00 3.566572e+00 2.873508e+00 2.869488e+00 2.785882e+00 2.174111e+00 2.027776e+00 1.715250e+00 1.676397e+00
<GCONST> 1.049030e+02
<STATE> 4
<MEAN> 25
 -1.871907e-09 2.774062e-08 -3.216951e-08 -1.969662e-08 -1.088826e-08 3.015850e-09 -1.633239e-08 -3.857169e-08 1.666517e-08 1.730474e-08 -1.373252e-08 1.497006e-08 3.858816e-04 7.950105e-03 3.984512e-03 4.536148e-03 1.500850e-03 4.183555e-03 3.857277e-03 1.163799e-03 1.256238e-03 -2.337973e-03 5.189491e-04 1.953271e-03 -5.252861e-03
<VARIANCE> 25
 8.004063e+01 6.331430e+01 6.015380e+01 5.385136e+01 5.662334e+01 6.614755e+01 5.572231e+01 6.048108e+01 5.091856e+01 3.445134e+01 2.939697e+01 2.662071e+01 2.476098e+00 3.051553e+00 2.477599e+00 2.522906e+00 2.881533e+00 3.566572e+00 2.873508e+00 2.869488e+00 2.785882e+00 2.174111e+00 2.027776e+00 1.715250e+00 1.676397e+00
<GCONST> 1.049030e+02
<TRANSP> 5
 0.000000e+00 1.000000e+00 0.000000e+00 0.000000e+00 0.000000e+00
 0.000000e+00 6.000000e-01 4.000000e-01 0.000000e+00 0.000000e+00
 0.000000e+00 0.000000e+00 6.000000e-01 4.000000e-01 0.000000e+00
 0.000000e+00 0.000000e+00 0.000000e+00 7.000000e-01 3.000000e-01
 0.000000e+00 0.000000e+00 0.000000e+00 0.000000e+00 0.000000e+00
<ENDHMM>
