~o
<STREAMINFO> 1 25
<VECSIZE> 25<NULLD><MFCC_D_N_Z_0><DIAGC>
~h "proto"
<BEGINHMM>
<NUMSTATES> 5
<STATE> 2
<MEAN> 25
 -4.708286e-09 -2.380358e-09 -2.372494e-08 1.528358e-08 -2.946087e-08 3.473016e-08 1.492181e-08 -3.820108e-08 5.734750e-08 2.679738e-08 -1.914248e-08 1.106814e-08 5.471014e-04 8.423794e-03 3.429616e-03 4.428091e-03 1.539563e-03 5.235781e-03 2.090586e-03 1.419117e-03 4.312426e-04 -1.874243e-03 -2.989534e-04 1.471570e-03 -7.641797e-03
<VARIANCE> 25
 8.063078e+01 6.151660e+01 6.046933e+01 5.519445e+01 5.593279e+01 6.944777e+01 5.790948e+01 5.952552e+01 5.167271e+01 3.357464e+01 3.076282e+01 2.701398e+01 2.537357e+00 2.994146e+00 2.510378e+00 2.552091e+00 2.884048e+00 3.600144e+00 2.948514e+00 2.837039e+00 2.814359e+00 2.169803e+00 2.113056e+00 1.729323e+00 1.730328e+00
<GCONST> 1.051634e+02
<STATE> 3
<MEAN> 25
 -4.708286e-09 -2.380358e-09 -2.372494e-08 1.528358e-08 -2.946087e-08 3.473016e-08 1.492181e-08 -3.820108e-08 5.734750e-08 2.679738e-08 -1.914248e-08 1.106814e-08 5.471014e-04 8.423794e-03 3.429616e-03 4.428091e-03 1.539563e-03 5.235781e-03 2.090586e-03 1.419117e-03 4.312426e-04 -1.874243e-03 -2.989534e-04 1.471570e-03 -7.641797e-03
<VARIANCE> 25
 8.063078e+01 6.151660e+01 6.046933e+01 5.519445e+01 5.593279e+01 6.944777e+01 5.790948e+01 5.952552e+01 5.167271e+01 3.357464e+01 3.076282e+01 2.701398e+01 2.537357e+00 2.994146e+00 2.510378e+00 2.552091e+00 2.884048e+00 3.600144e+00 2.948514e+00 2.837039e+00 2.814359e+00 2.169803e+00 2.113056e+00 1.729323e+00 1.730328e+00
<GCONST> 1.051634e+02
<STATE> 4
<MEAN> 25
 -4.708286e-09 -2.380358e-09 -2.372494e-08 1.528358e-08 -2.946087e-08 3.473016e-08 1.492181e-08 -3.820108e-08 5.734750e-08 2.679738e-08 -1.914248e-08 1.106814e-08 5.471014e-04 8.423794e-03 3.429616e-03 4.428091e-03 1.539563e-03 5.235781e-03 2.090586e-03 1.419117e-03 4.312426e-04 -1.874243e-03 -2.989534e-04 1.471570e-03 -7.641797e-03
<VARIANCE> 25
 8.063078e+01 6.151660e+01 6.046933e+01 5.519445e+01 5.593279e+01 6.944777e+01 5.790948e+01 5.952552e+01 5.167271e+01 3.357464e+01 3.076282e+01 2.701398e+01 2.537357e+00 2.994146e+00 2.510378e+00 2.552091e+00 2.884048e+00 3.600144e+00 2.948514e+00 2.837039e+00 2.814359e+00 2.169803e+00 2.113056e+00 1.729323e+00 1.730328e+00
<GCONST> 1.051634e+02
<TRANSP> 5
 0.000000e+00 1.000000e+00 0.000000e+00 0.000000e+00 0.000000e+00
 0.000000e+00 6.000000e-01 4.000000e-01 0.000000e+00 0.000000e+00
 0.000000e+00 0.000000e+00 6.000000e-01 4.000000e-01 0.000000e+00
 0.000000e+00 0.000000e+00 0.000000e+00 7.000000e-01 3.000000e-01
 0.000000e+00 0.000000e+00 0.000000e+00 0.000000e+00 0.000000e+00
<ENDHMM>
