~o
<STREAMINFO> 1 25
<VECSIZE> 25<NULLD><MFCC_D_N_Z_0><DIAGC>
~h "proto"
<BEGINHMM>
<NUMSTATES> 5
<STATE> 2
<MEAN> 25
 3.746794e-09 5.162452e-09 -5.053322e-08 -1.176178e-09 -4.129961e-08 1.156777e-08 -2.488769e-09 -2.842228e-08 1.939481e-08 -4.165126e-09 -2.501501e-08 2.303551e-08 3.577962e-03 6.938920e-03 6.624806e-03 1.065556e-02 4.005769e-03 1.077135e-02 5.376180e-03 6.932783e-03 1.001439e-04 2.247728e-03 -5.551362e-03 1.996089e-03 -1.058563e-02
<VARIANCE> 25
 8.398923e+01 5.361852e+01 7.980668e+01 6.500343e+01 7.038336e+01 7.871307e+01 8.644672e+01 6.166912e+01 5.608315e+01 4.237015e+01 3.861844e+01 3.055560e+01 2.481388e+00 2.277276e+00 2.680743e+00 2.911283e+00 3.184309e+00 4.598707e+00 3.945391e+00 3.126148e+00 3.124175e+00 2.684262e+00 2.548065e+00 1.997868e+00 1.357808e+00
<GCONST> 1.080039e+02
<STATE> 3
<MEAN> 25
 3.746794e-09 5.162452e-09 -5.053322e-08 -1.176178e-09 -4.129961e-08 1.156777e-08 -2.488769e-09 -2.842228e-08 1.939481e-08 -4.165126e-09 -2.501501e-08 2.303551e-08 3.577962e-03 6.938920e-03 6.624806e-03 1.065556e-02 4.005769e-03 1.077135e-02 5.376180e-03 6.932783e-03 1.001439e-04 2.247728e-03 -5.551362e-03 1.996089e-03 -1.058563e-02
<VARIANCE> 25
 8.398923e+01 5.361852e+01 7.980668e+01 6.500343e+01 7.038336e+01 7.871307e+01 8.644672e+01 6.166912e+01 5.608315e+01 4.237015e+01 3.861844e+01 3.055560e+01 2.481388e+00 2.277276e+00 2.680743e+00 2.911283e+00 3.184309e+00 4.598707e+00 3.945391e+00 3.126148e+00 3.124175e+00 2.684262e+00 2.548065e+00 1.997868e+00 1.357808e+00
<GCONST> 1.080039e+02
<STATE> 4
<MEAN> 25
 3.746794e-09 5.162452e-09 -5.053322e-08 -1.176178e-09 -4.129961e-08 1.156777e-08 -2.488769e-09 -2.842228e-08 1.939481e-08 -4.165126e-09 -2.501501e-08 2.303551e-08 3.577962e-03 6.938920e-03 6.624806e-03 1.065556e-02 4.005769e-03 1.077135e-02 5.376180e-03 6.932783e-03 1.001439e-04 2.247728e-03 -5.551362e-03 1.996089e-03 -1.058563e-02
<VARIANCE> 25
 8.398923e+01 5.361852e+01 7.980668e+01 6.500343e+01 7.038336e+01 7.871307e+01 8.644672e+01 6.166912e+01 5.608315e+01 4.237015e+01 3.861844e+01 3.055560e+01 2.481388e+00 2.277276e+00 2.680743e+00 2.911283e+00 3.184309e+00 4.598707e+00 3.945391e+00 3.126148e+00 3.124175e+00 2.684262e+00 2.548065e+00 1.997868e+00 1.357808e+00
<GCONST> 1.080039e+02
<TRANSP> 5
 0.000000e+00 1.000000e+00 0.000000e+00 0.000000e+00 0.000000e+00
 0.000000e+00 6.000000e-01 4.000000e-01 0.000000e+00 0.000000e+00
 0.000000e+00 0.000000e+00 6.000000e-01 4.000000e-01 0.000000e+00
 0.000000e+00 0.000000e+00 0.000000e+00 7.000000e-01 3.000000e-01
 0.000000e+00 0.000000e+00 0.000000e+00 0.000000e+00 0.000000e+00
<ENDHMM>
