~o
<STREAMINFO> 1 25
<VECSIZE> 25<NULLD><MFCC_D_N_Z_0><DIAGC>
~h "proto"
<BEGINHMM>
<NUMSTATES> 5
<STATE> 2
<MEAN> 25
 3.693521e-08 4.633504e-08 5.231211e-08 -3.754824e-08 -4.019673e-08 -7.049874e-08 -6.794444e-09 1.650079e-08 -7.088189e-08 9.348747e-09 -3.048560e-08 2.212026e-08 -3.986550e-04 9.141141e-03 5.018681e-03 3.614077e-03 5.161828e-03 5.333092e-03 3.036869e-03 1.072555e-03 3.013522e-03 -3.665317e-03 -6.805169e-04 1.574275e-03 -4.503616e-03
<VARIANCE> 25
 8.031953e+01 6.218571e+01 6.422903e+01 5.577568e+01 5.806849e+01 7.112688e+01 5.941258e+01 6.350023e+01 5.577360e+01 3.346004e+01 3.243616e+01 2.846444e+01 2.422819e+00 2.937447e+00 2.502517e+00 2.586747e+00 2.858016e+00 3.740688e+00 3.075710e+00 2.811555e+00 2.924975e+00 2.155936e+00 2.064756e+00 1.787023e+00 1.758954e+00
<GCONST> 1.056367e+02
<STATE> 3
<MEAN> 25
 3.693521e-08 4.633504e-08 5.231211e-08 -3.754824e-08 -4.019673e-08 -7.049874e-08 -6.794444e-09 1.650079e-08 -7.088189e-08 9.348747e-09 -3.048560e-08 2.212026e-08 -3.986550e-04 9.141141e-03 5.018681e-03 3.614077e-03 5.161828e-03 5.333092e-03 3.036869e-03 1.072555e-03 3.013522e-03 -3.665317e-03 -6.805169e-04 1.574275e-03 -4.503616e-03
<VARIANCE> 25
 8.031953e+01 6.218571e+01 6.422903e+01 5.577568e+01 5.806849e+01 7.112688e+01 5.941258e+01 6.350023e+01 5.577360e+01 3.346004e+01 3.243616e+01 2.846444e+01 2.422819e+00 2.937447e+00 2.502517e+00 2.586747e+00 2.858016e+00 3.740688e+00 3.075710e+00 2.811555e+00 2.924975e+00 2.155936e+00 2.064756e+00 1.787023e+00 1.758954e+00
<GCONST> 1.056367e+02
<STATE> 4
<MEAN> 25
 3.693521e-08 4.633504e-08 5.231211e-08 -3.754824e-08 -4.019673e-08 -7.049874e-08 -6.794444e-09 1.650079e-08 -7.088189e-08 9.348747e-09 -3.048560e-08 2.212026e-08 -3.986550e-04 9.141141e-03 5.018681e-03 3.614077e-03 5.161828e-03 5.333092e-03 3.036869e-03 1.072555e-03 3.013522e-03 -3.665317e-03 -6.805169e-04 1.574275e-03 -4.503616e-03
<VARIANCE> 25
 8.031953e+01 6.218571e+01 6.422903e+01 5.577568e+01 5.806849e+01 7.112688e+01 5.941258e+01 6.350023e+01 5.577360e+01 3.346004e+01 3.243616e+01 2.846444e+01 2.422819e+00 2.937447e+00 2.502517e+00 2.586747e+00 2.858016e+00 3.740688e+00 3.075710e+00 2.811555e+00 2.924975e+00 2.155936e+00 2.064756e+00 1.787023e+00 1.758954e+00
<GCONST> 1.056367e+02
<TRANSP> 5
 0.000000e+00 1.000000e+00 0.000000e+00 0.000000e+00 0.000000e+00
 0.000000e+00 6.000000e-01 4.000000e-01 0.000000e+00 0.000000e+00
 0.000000e+00 0.000000e+00 6.000000e-01 4.000000e-01 0.000000e+00
 0.000000e+00 0.000000e+00 0.000000e+00 7.000000e-01 3.000000e-01
 0.000000e+00 0.000000e+00 0.000000e+00 0.000000e+00 0.000000e+00
<ENDHMM>
