~o
<STREAMINFO> 1 25
<VECSIZE> 25<NULLD><MFCC_D_N_Z_0><DIAGC>
~h "proto"
<BEGINHMM>
<NUMSTATES> 5
<STATE> 2
<MEAN> 25
 1.060339e-07 8.912426e-08 -3.828346e-08 7.410804e-08 -2.295824e-08 -9.014989e-08 4.899336e-08 -9.041287e-08 5.015048e-08 3.757999e-08 -5.606755e-08 7.980159e-08 -1.324768e-03 7.084788e-03 4.342358e-03 5.536422e-04 -1.141821e-03 4.935549e-03 5.069812e-03 3.688128e-03 1.163761e-03 -3.169432e-03 7.303278e-04 2.605143e-03 -5.347603e-03
<VARIANCE> 25
 8.010637e+01 6.399277e+01 6.113208e+01 5.435951e+01 5.483123e+01 6.718074e+01 5.829683e+01 6.035304e+01 4.884544e+01 3.371654e+01 3.057831e+01 2.564671e+01 2.487791e+00 3.083973e+00 2.465802e+00 2.500625e+00 2.803977e+00 3.440103e+00 2.861621e+00 2.739603e+00 2.758053e+00 2.097594e+00 2.018175e+00 1.670558e+00 1.634282e+00
<GCONST> 1.046908e+02
<STATE> 3
<MEAN> 25
 1.060339e-07 8.912426e-08 -3.828346e-08 7.410804e-08 -2.295824e-08 -9.014989e-08 4.899336e-08 -9.041287e-08 5.015048e-08 3.757999e-08 -5.606755e-08 7.980159e-08 -1.324768e-03 7.084788e-03 4.342358e-03 5.536422e-04 -1.141821e-03 4.935549e-03 5.069812e-03 3.688128e-03 1.163761e-03 -3.169432e-03 7.303278e-04 2.605143e-03 -5.347603e-03
<VARIANCE> 25
 8.010637e+01 6.399277e+01 6.113208e+01 5.435951e+01 5.483123e+01 6.718074e+01 5.829683e+01 6.035304e+01 4.884544e+01 3.371654e+01 3.057831e+01 2.564671e+01 2.487791e+00 3.083973e+00 2.465802e+00 2.500625e+00 2.803977e+00 3.440103e+00 2.861621e+00 2.739603e+00 2.758053e+00 2.097594e+00 2.018175e+00 1.670558e+00 1.634282e+00
<GCONST> 1.046908e+02
<STATE> 4
<MEAN> 25
 1.060339e-07 8.912426e-08 -3.828346e-08 7.410804e-08 -2.295824e-08 -9.014989e-08 4.899336e-08 -9.041287e-08 5.015048e-08 3.757999e-08 -5.606755e-08 7.980159e-08 -1.324768e-03 7.084788e-03 4.342358e-03 5.536422e-04 -1.141821e-03 4.935549e-03 5.069812e-03 3.688128e-03 1.163761e-03 -3.169432e-03 7.303278e-04 2.605143e-03 -5.347603e-03
<VARIANCE> 25
 8.010637e+01 6.399277e+01 6.113208e+01 5.435951e+01 5.483123e+01 6.718074e+01 5.829683e+01 6.035304e+01 4.884544e+01 3.371654e+01 3.057831e+01 2.564671e+01 2.487791e+00 3.083973e+00 2.465802e+00 2.500625e+00 2.803977e+00 3.440103e+00 2.861621e+00 2.739603e+00 2.758053e+00 2.097594e+00 2.018175e+00 1.670558e+00 1.634282e+00
<GCONST> 1.046908e+02
<TRANSP> 5
 0.000000e+00 1.000000e+00 0.000000e+00 0.000000e+00 0.000000e+00
 0.000000e+00 6.000000e-01 4.000000e-01 0.000000e+00 0.000000e+00
 0.000000e+00 0.000000e+00 6.000000e-01 4.000000e-01 0.000000e+00
 0.000000e+00 0.000000e+00 0.000000e+00 7.000000e-01 3.000000e-01
 0.000000e+00 0.000000e+00 0.000000e+00 0.000000e+00 0.000000e+00
<ENDHMM>
