~o
<STREAMINFO> 1 25
<VECSIZE> 25<NULLD><MFCC_D_N_Z_0><DIAGC>
~h "proto"
<BEGINHMM>
<NUMSTATES> 5
<STATE> 2
<MEAN> 25
 7.742576e-08 2.608548e-08 -4.596697e-08 -1.306103e-10 -4.168557e-08 -1.715174e-08 1.974827e-09 -3.430348e-08 2.521301e-08 2.077226e-08 -3.588386e-08 4.122060e-09 6.710609e-04 8.534377e-03 4.158931e-03 4.570134e-03 2.142526e-03 4.762691e-03 2.902188e-03 3.166840e-03 1.093819e-03 -6.032337e-04 -4.860947e-04 1.390739e-03 -7.010208e-03
<VARIANCE> 25
 7.974989e+01 6.286578e+01 6.175368e+01 5.464267e+01 5.695158e+01 6.742101e+01 5.695770e+01 6.098878e+01 5.189890e+01 3.368930e+01 2.992576e+01 2.685706e+01 2.488051e+00 3.084158e+00 2.531936e+00 2.556339e+00 2.903121e+00 3.561957e+00 2.926527e+00 2.854993e+00 2.800099e+00 2.141585e+00 2.072464e+00 1.723467e+00 1.676648e+00
<GCONST> 1.050981e+02
<STATE> 3
<MEAN> 25
 7.742576e-08 2.608548e-08 -4.596697e-08 -1.306103e-10 -4.168557e-08 -1.715174e-08 1.974827e-09 -3.430348e-08 2.521301e-08 2.077226e-08 -3.588386e-08 4.122060e-09 6.710609e-04 8.534377e-03 4.158931e-03 4.570134e-03 2.142526e-03 4.762691e-03 2.902188e-03 3.166840e-03 1.093819e-03 -6.032337e-04 -4.860947e-04 1.390739e-03 -7.010208e-03
<VARIANCE> 25
 7.974989e+01 6.286578e+01 6.175368e+01 5.464267e+01 5.695158e+01 6.742101e+01 5.695770e+01 6.098878e+01 5.189890e+01 3.368930e+01 2.992576e+01 2.685706e+01 2.488051e+00 3.084158e+00 2.531936e+00 2.556339e+00 2.903121e+00 3.561957e+00 2.926527e+00 2.854993e+00 2.800099e+00 2.141585e+00 2.072464e+00 1.723467e+00 1.676648e+00
<GCONST> 1.050981e+02
<STATE> 4
<MEAN> 25
 7.742576e-08 2.608548e-08 -4.596697e-08 -1.306103e-10 -4.168557e-08 -1.715174e-08 1.974827e-09 -3.430348e-08 2.521301e-08 2.077226e-08 -3.588386e-08 4.122060e-09 6.710609e-04 8.534377e-03 4.158931e-03 4.570134e-03 2.142526e-03 4.762691e-03 2.902188e-03 3.166840e-03 1.093819e-03 -6.032337e-04 -4.860947e-04 1.390739e-03 -7.010208e-03
<VARIANCE> 25
 7.974989e+01 6.286578e+01 6.175368e+01 5.464267e+01 5.695158e+01 6.742101e+01 5.695770e+01 6.098878e+01 5.189890e+01 3.368930e+01 2.992576e+01 2.685706e+01 2.488051e+00 3.084158e+00 2.531936e+00 2.556339e+00 2.903121e+00 3.561957e+00 2.926527e+00 2.854993e+00 2.800099e+00 2.141585e+00 2.072464e+00 1.723467e+00 1.676648e+00
<GCONST> 1.050981e+02
<TRANSP> 5
 0.000000e+00 1.000000e+00 0.000000e+00 0.000000e+00 0.000000e+00
 0.000000e+00 6.000000e-01 4.000000e-01 0.000000e+00 0.000000e+00
 0.000000e+00 0.000000e+00 6.000000e-01 4.000000e-01 0.000000e+00
 0.000000e+00 0.000000e+00 0.000000e+00 7.000000e-01 3.000000e-01
 0.000000e+00 0.000000e+00 0.000000e+00 0.000000e+00 0.000000e+00
<ENDHMM>
