~o
<STREAMINFO> 1 25
<VECSIZE> 25<NULLD><MFCC_D_N_Z_0><DIAGC>
~h "proto"
<BEGINHMM>
<NUMSTATES> 5
<STATE> 2
<MEAN> 25
 -2.419522e-09 -8.949130e-09 -1.986800e-08 -1.254222e-08 -5.531814e-09 2.690426e-08 2.295444e-09 -4.011857e-08 4.197974e-08 1.053630e-08 -2.036948e-08 7.765219e-09 1.473060e-04 7.534961e-03 2.886468e-03 3.253820e-03 1.348369e-03 4.502606e-03 3.364784e-03 2.478264e-03 1.795239e-03 -1.363033e-03 1.271263e-04 1.846739e-03 -6.332552e-03
<VARIANCE> 25
 7.954418e+01 6.513613e+01 6.141933e+01 5.620707e+01 5.666026e+01 6.765120e+01 5.702005e+01 5.906216e+01 5.120472e+01 3.338319e+01 3.039116e+01 2.688250e+01 2.550443e+00 3.170629e+00 2.557929e+00 2.557647e+00 2.884878e+00 3.578452e+00 2.938464e+00 2.824021e+00 2.830157e+00 2.165056e+00 2.085563e+00 1.708376e+00 1.709090e+00
<GCONST> 1.052077e+02
<STATE> 3
<MEAN> 25
 -2.419522e-09 -8.949130e-09 -1.986800e-08 -1.254222e-08 -5.531814e-09 2.690426e-08 2.295444e-09 -4.011857e-08 4.197974e-08 1.053630e-08 -2.036948e-08 7.765219e-09 1.473060e-04 7.534961e-03 2.886468e-03 3.253820e-03 1.348369e-03 4.502606e-03 3.364784e-03 2.478264e-03 1.795239e-03 -1.363033e-03 1.271263e-04 1.846739e-03 -6.332552e-03
<VARIANCE> 25
 7.954418e+01 6.513613e+01 6.141933e+01 5.620707e+01 5.666026e+01 6.765120e+01 5.702005e+01 5.906216e+01 5.120472e+01 3.338319e+01 3.039116e+01 2.688250e+01 2.550443e+00 3.170629e+00 2.557929e+00 2.557647e+00 2.884878e+00 3.578452e+00 2.938464e+00 2.824021e+00 2.830157e+00 2.165056e+00 2.085563e+00 1.708376e+00 1.709090e+00
<GCONST> 1.052077e+02
<STATE> 4
<MEAN> 25
 -2.419522e-09 -8.949130e-09 -1.986800e-08 -1.254222e-08 -5.531814e-09 2.690426e-08 2.295444e-09 -4.011857e-08 4.197974e-08 1.053630e-08 -2.036948e-08 7.765219e-09 1.473060e-04 7.534961e-03 2.886468e-03 3.253820e-03 1.348369e-03 4.502606e-03 3.364784e-03 2.478264e-03 1.795239e-03 -1.363033e-03 1.271263e-04 1.846739e-03 -6.332552e-03
<VARIANCE> 25
 7.954418e+01 6.513613e+01 6.141933e+01 5.620707e+01 5.666026e+01 6.765120e+01 5.702005e+01 5.906216e+01 5.120472e+01 3.338319e+01 3.039116e+01 2.688250e+01 2.550443e+00 3.170629e+00 2.557929e+00 2.557647e+00 2.884878e+00 3.578452e+00 2.938464e+00 2.824021e+00 2.830157e+00 2.165056e+00 2.085563e+00 1.708376e+00 1.709090e+00
<GCONST> 1.052077e+02
<TRANSP> 5
 0.000000e+00 1.000000e+00 0.000000e+00 0.000000e+00 0.000000e+00
 0.000000e+00 6.000000e-01 4.000000e-01 0.000000e+00 0.000000e+00
 0.000000e+00 0.000000e+00 6.000000e-01 4.000000e-01 0.000000e+00
 0.000000e+00 0.000000e+00 0.000000e+00 7.000000e-01 3.000000e-01
 0.000000e+00 0.000000e+00 0.000000e+00 0.000000e+00 0.000000e+00
<ENDHMM>
