~o
<STREAMINFO> 1 25
<VECSIZE> 25<NULLD><MFCC_D_N_Z_0><DIAGC>
~h "proto"
<BEGINHMM>
<NUMSTATES> 5
<STATE> 2
<MEAN> 25
 1.945418e-08 8.746813e-09 -4.498951e-08 -3.611543e-10 1.363959e-08 -5.515342e-09 1.131617e-08 -8.000427e-09 3.278593e-08 9.066692e-09 -2.122211e-08 1.191809e-08 5.478837e-04 8.524338e-03 3.388704e-03 3.685407e-03 1.560096e-03 4.051044e-03 2.728951e-03 2.291447e-03 7.309044e-04 -1.874549e-03 1.679306e-04 1.469746e-03 -6.471253e-03
<VARIANCE> 25
 7.952613e+01 6.308802e+01 5.964849e+01 5.452956e+01 5.734600e+01 6.678256e+01 5.711662e+01 6.048514e+01 5.090747e+01 3.378843e+01 3.030896e+01 2.667588e+01 2.504539e+00 3.070349e+00 2.508418e+00 2.546605e+00 2.899496e+00 3.530318e+00 2.918622e+00 2.871764e+00 2.785610e+00 2.166140e+00 2.092833e+00 1.717397e+00 1.686906e+00
<GCONST> 1.050440e+02
<STATE> 3
<MEAN> 25
 1.945418e-08 8.746813e-09 -4.498951e-08 -3.611543e-10 1.363959e-08 -5.515342e-09 1.131617e-08 -8.000427e-09 3.278593e-08 9.066692e-09 -2.122211e-08 1.191809e-08 5.478837e-04 8.524338e-03 3.388704e-03 3.685407e-03 1.560096e-03 4.051044e-03 2.728951e-03 2.291447e-03 7.309044e-04 -1.874549e-03 1.679306e-04 1.469746e-03 -6.471253e-03
<VARIANCE> 25
 7.952613e+01 6.308802e+01 5.964849e+01 5.452956e+01 5.734600e+01 6.678256e+01 5.711662e+01 6.048514e+01 5.090747e+01 3.378843e+01 3.030896e+01 2.667588e+01 2.504539e+00 3.070349e+00 2.508418e+00 2.546605e+00 2.899496e+00 3.530318e+00 2.918622e+00 2.871764e+00 2.785610e+00 2.166140e+00 2.092833e+00 1.717397e+00 1.686906e+00
<GCONST> 1.050440e+02
<STATE> 4
<MEAN> 25
 1.945418e-08 8.746813e-09 -4.498951e-08 -3.611543e-10 1.363959e-08 -5.515342e-09 1.131617e-08 -8.000427e-09 3.278593e-08 9.066692e-09 -2.122211e-08 1.191809e-08 5.478837e-04 8.524338e-03 3.388704e-03 3.685407e-03 1.560096e-03 4.051044e-03 2.728951e-03 2.291447e-03 7.309044e-04 -1.874549e-03 1.679306e-04 1.469746e-03 -6.471253e-03
<VARIANCE> 25
 7.952613e+01 6.308802e+01 5.964849e+01 5.452956e+01 5.734600e+01 6.678256e+01 5.711662e+01 6.048514e+01 5.090747e+01 3.378843e+01 3.030896e+01 2.667588e+01 2.504539e+00 3.070349e+00 2.508418e+00 2.546605e+00 2.899496e+00 3.530318e+00 2.918622e+00 2.871764e+00 2.785610e+00 2.166140e+00 2.092833e+00 1.717397e+00 1.686906e+00
<GCONST> 1.050440e+02
<TRANSP> 5
 0.000000e+00 1.000000e+00 0.000000e+00 0.000000e+00 0.000000e+00
 0.000000e+00 6.000000e-01 4.000000e-01 0.000000e+00 0.000000e+00
 0.000000e+00 0.000000e+00 6.000000e-01 4.000000e-01 0.000000e+00
 0.000000e+00 0.000000e+00 0.000000e+00 7.000000e-01 3.000000e-01
 0.000000e+00 0.000000e+00 0.000000e+00 0.000000e+00 0.000000e+00
<ENDHMM>
