~o
<STREAMINFO> 1 25
<VECSIZE> 25<NULLD><MFCC_D_N_Z_0><DIAGC>
~h "proto"
<BEGINHMM>
<NUMSTATES> 5
<STATE> 2
<MEAN> 25
 4.895706e-08 5.076081e-09 -1.264615e-08 -1.239821e-08 1.680221e-09 -1.071540e-08 -3.051177e-09 -1.586750e-08 1.878219e-08 1.421925e-08 -2.732238e-08 2.722044e-08 3.771409e-04 8.000820e-03 2.929726e-03 3.659504e-03 1.566812e-03 4.612614e-03 2.093330e-03 1.978985e-03 6.350414e-04 -1.866405e-03 5.988384e-04 1.840518e-03 -7.231131e-03
<VARIANCE> 25
 8.019868e+01 6.425425e+01 6.170112e+01 5.474755e+01 5.721574e+01 6.726498e+01 5.709329e+01 5.988584e+01 5.147332e+01 3.365235e+01 3.042003e+01 2.671571e+01 2.531703e+00 3.121265e+00 2.552349e+00 2.542973e+00 2.903971e+00 3.553263e+00 2.928286e+00 2.850567e+00 2.801052e+00 2.164194e+00 2.094235e+00 1.716475e+00 1.694484e+00
<GCONST> 1.051717e+02
<STATE> 3
<MEAN> 25
 4.895706e-08 5.076081e-09 -1.264615e-08 -1.239821e-08 1.680221e-09 -1.071540e-08 -3.051177e-09 -1.586750e-08 1.878219e-08 1.421925e-08 -2.732238e-08 2.722044e-08 3.771409e-04 8.000820e-03 2.929726e-03 3.659504e-03 1.566812e-03 4.612614e-03 2.093330e-03 1.978985e-03 6.350414e-04 -1.866405e-03 5.988384e-04 1.840518e-03 -7.231131e-03
<VARIANCE> 25
 8.019868e+01 6.425425e+01 6.170112e+01 5.474755e+01 5.721574e+01 6.726498e+01 5.709329e+01 5.988584e+01 5.147332e+01 3.365235e+01 3.042003e+01 2.671571e+01 2.531703e+00 3.121265e+00 2.552349e+00 2.542973e+00 2.903971e+00 3.553263e+00 2.928286e+00 2.850567e+00 2.801052e+00 2.164194e+00 2.094235e+00 1.716475e+00 1.694484e+00
<GCONST> 1.051717e+02
<STATE> 4
<MEAN> 25
 4.895706e-08 5.076081e-09 -1.264615e-08 -1.239821e-08 1.680221e-09 -1.071540e-08 -3.051177e-09 -1.586750e-08 1.878219e-08 1.421925e-08 -2.732238e-08 2.722044e-08 3.771409e-04 8.000820e-03 2.929726e-03 3.659504e-03 1.566812e-03 4.612614e-03 2.093330e-03 1.978985e-03 6.350414e-04 -1.866405e-03 5.988384e-04 1.840518e-03 -7.231131e-03
<VARIANCE> 25
 8.019868e+01 6.425425e+01 6.170112e+01 5.474755e+01 5.721574e+01 6.726498e+01 5.709329e+01 5.988584e+01 5.147332e+01 3.365235e+01 3.042003e+01 2.671571e+01 2.531703e+00 3.121265e+00 2.552349e+00 2.542973e+00 2.903971e+00 3.553263e+00 2.928286e+00 2.850567e+00 2.801052e+00 2.164194e+00 2.094235e+00 1.716475e+00 1.694484e+00
<GCONST> 1.051717e+02
<TRANSP> 5
 0.000000e+00 1.000000e+00 0.000000e+00 0.000000e+00 0.000000e+00
 0.000000e+00 6.000000e-01 4.000000e-01 0.000000e+00 0.000000e+00
 0.000000e+00 0.000000e+00 6.000000e-01 4.000000e-01 0.000000e+00
 0.000000e+00 0.000000e+00 0.000000e+00 7.000000e-01 3.000000e-01
 0.000000e+00 0.000000e+00 0.000000e+00 0.000000e+00 0.000000e+00
<ENDHMM>
