~o
<STREAMINFO> 1 25
<VECSIZE> 25<NULLD><MFCC_D_N_Z_0><DIAGC>
~s "silst"
<MEAN> 25
 -6.991444e+00 2.970713e+00 -2.972333e+00 4.090959e-01 8.037351e-01 5.543783e+00 1.111030e+00 5.523503e+00 3.198632e+00 1.915659e+00 6.659396e-01 2.211329e+00 -9.963306e-03 3.415114e-02 -2.946223e-02 2.141350e-03 -2.237399e-02 -5.190508e-03 -7.644199e-03 6.573396e-03 -1.185126e-03 2.030927e-03 -2.054476e-02 5.322232e-03 -4.730980e-02
<VARIANCE> 25
 9.346732e+00 1.179849e+01 1.702360e+01 1.356471e+01 9.194913e+00 1.053576e+01 9.562866e+00 9.972299e+00 1.501397e+01 1.225522e+01 9.047821e+00 8.095923e+00 7.194635e-02 1.794380e-01 2.678258e-01 3.597815e-01 4.827546e-01 5.518925e-01 6.475099e-01 7.072664e-01 7.473341e-01 7.197983e-01 6.999317e-01 6.672567e-01 2.879266e-02
<GCONST> 6.100988e+01
~h "B"
<BEGINHMM>
<NUMSTATES> 5
<STATE> 2
<MEAN> 25
 -5.004406e+00 3.483376e+00 -1.443468e+00 4.622414e-01 1.869311e+00 5.151390e+00 1.402360e+00 4.294040e+00 2.325883e+00 1.000308e+00 5.904905e-01 1.846879e+00 -2.000750e-01 -1.181660e-02 -6.468183e-02 -2.785778e-02 -2.007440e-02 8.219770e-02 3.974560e-02 1.969822e-01 1.299658e-01 5.731467e-02 2.510657e-02 3.382393e-02 -2.842494e-01
<VARIANCE> 25
 2.452006e+01 1.801151e+01 2.114302e+01 1.973060e+01 1.403539e+01 1.531476e+01 1.433725e+01 1.636703e+01 1.885806e+01 1.574466e+01 1.154852e+01 1.084493e+01 6.945767e-01 8.719447e-01 8.709155e-01 9.408531e-01 1.014914e+00 1.173544e+00 1.087136e+00 1.245192e+00 1.166664e+00 9.504275e-01 9.660277e-01 8.174562e-01 9.136814e-01
<GCONST> 7.897707e+01
<STATE> 3
<MEAN> 25
 -2.854899e+00 2.824038e+00 -5.911171e-01 -2.255320e-01 1.110731e+00 3.894231e+00 1.173983e+00 3.552589e+00 2.388963e+00 -6.098980e-01 8.718044e-03 1.521586e+00 1.695834e+00 -1.433578e+00 -2.857898e-01 -6.747030e-01 -1.415227e+00 -2.453885e+00 -6.826194e-01 -1.306951e+00 -7.426262e-01 -4.157333e-01 -5.110165e-02 -9.775585e-02 2.738204e+00
<VARIANCE> 25
 2.836584e+01 2.746292e+01 2.384570e+01 2.057536e+01 1.777196e+01 2.219579e+01 1.610389e+01 2.130701e+01 1.604919e+01 1.533554e+01 1.247328e+01 1.255896e+01 4.913086e+00 3.588122e+00 3.963590e+00 3.521071e+00 3.678169e+00 5.767009e+00 3.195686e+00 3.099930e+00 2.930368e+00 2.783354e+00 2.202485e+00 2.231760e+00 3.820311e+00
<GCONST> 9.706081e+01
<STATE> 4
<MEAN> 25
 3.643839e+00 1.268135e+00 -1.902300e-02 -2.134049e+00 -3.436553e+00 -4.590398e+00 4.415630e-01 5.218904e-01 -7.673962e-01 -3.245733e+00 -2.195532e+00 2.201092e-01 2.658176e+00 -4.883171e-01 -7.832970e-02 -6.441593e-01 -1.871795e+00 -2.056590e+00 -8.654866e-03 -1.180190e+00 -6.591380e-01 4.132862e-01 -7.759197e-01 -5.137176e-01 2.890747e+00
<VARIANCE> 25
 5.101210e+01 3.769232e+01 3.123564e+01 3.040153e+01 5.087943e+01 7.476764e+01 3.427029e+01 3.414893e+01 3.619809e+01 3.978899e+01 3.145510e+01 2.255142e+01 4.826575e+00 4.651724e+00 4.235955e+00 4.099959e+00 6.601172e+00 7.352556e+00 4.796378e+00 4.935082e+00 5.758064e+00 4.200362e+00 4.442437e+00 2.838530e+00 4.659230e+00
<GCONST> 1.097819e+02
<TRANSP> 5
 0.000000e+00 1.000000e+00 0.000000e+00 0.000000e+00 0.000000e+00
 0.000000e+00 9.426889e-01 5.731113e-02 0.000000e+00 0.000000e+00
 0.000000e+00 0.000000e+00 4.272138e-01 5.727862e-01 0.000000e+00
 0.000000e+00 0.000000e+00 0.000000e+00 3.489983e-01 6.510016e-01
 0.000000e+00 0.000000e+00 0.000000e+00 0.000000e+00 0.000000e+00
<ENDHMM>
~h "D"
<BEGINHMM>
<NUMSTATES> 5
<STATE> 2
<MEAN> 25
 3.949749e+00 3.654999e+00 1.538967e+00 4.971528e+00 4.178915e+00 -1.798794e-02 -3.303883e+00 -3.758241e+00 -2.548485e+00 -1.493142e+00 -5.611488e-01 -6.212049e-01 -8.612251e-01 5.032355e-02 1.183168e-01 -6.029186e-02 4.109605e-01 7.865449e-01 4.073216e-01 7.670687e-01 6.469390e-01 -4.913971e-02 1.216125e-01 3.069459e-01 -7.623413e-01
<VARIANCE> 25
 3.033193e+01 3.824012e+01 2.961668e+01 3.371992e+01 3.645031e+01 5.357154e+01 4.071431e+01 4.765566e+01 3.889074e+01 2.430549e+01 2.531770e+01 2.194427e+01 2.156946e+00 4.819153e+00 3.098014e+00 2.846464e+00 4.049946e+00 7.131043e+00 3.846423e+00 4.539668e+00 3.703655e+00 2.419781e+00 2.759802e+00 2.116732e+00 2.602209e+00
<GCONST> 1.038841e+02
<STATE> 3
<MEAN> 25
 -1.124122e-01 1.826335e+00 1.256933e+00 3.206285e+00 3.586411e+00 2.572260e+00 -9.931898e-01 1.733330e-01 7.679902e-01 -9.440395e-01 -3.046850e-01 3.255566e-01 -5.929803e-01 -1.910028e+00 -3.192830e-01 -2.694536e-01 -5.799620e-01 -8.254740e-01 1.253809e-01 4.695763e-01 3.464776e-01 -2.257478e-01 3.287992e-01 4.725514e-01 6.356472e-01
<VARIANCE> 25
 2.965069e+01 6.800985e+01 3.927869e+01 3.762354e+01 3.184423e+01 3.645126e+01 2.893627e+01 3.471201e+01 2.381640e+01 2.142595e+01 2.183643e+01 1.640431e+01 2.812921e+00 7.297626e+00 4.776193e+00 3.929589e+00 4.230156e+00 8.988148e+00 4.432214e+00 4.413412e+00 3.148055e+00 2.608406e+00 2.058503e+00 1.857742e+00 4.930447e+00
<GCONST> 1.045474e+02
<STATE> 4
<MEAN> 25
 -3.739635e+00 -1.083326e+00 -1.224289e+00 1.679727e+00 7.168877e-01 1.987849e+00 1.447055e-01 2.804165e+00 1.366004e+00 -9.828537e-01 9.379623e-01 1.979544e+00 1.292403e-01 -1.291136e-01 -4.360402e-02 -1.101943e-01 -1.743033e-01 -1.915201e-01 -9.871422e-02 -8.646280e-02 -1.141871e-01 -2.837038e-02 -7.865611e-02 -1.196446e-02 1.426880e-01
<VARIANCE> 25
 4.125571e+01 4.623547e+01 5.212547e+01 4.530497e+01 3.685264e+01 7.031847e+01 4.553875e+01 4.510078e+01 2.997780e+01 2.977231e+01 2.141083e+01 1.694059e+01 1.760587e+00 2.937683e+00 2.507602e+00 2.339652e+00 2.482597e+00 4.734384e+00 3.104230e+00 2.585576e+00 2.380253e+00 2.047860e+00 1.791045e+00 1.457560e+00 2.062634e+00
<GCONST> 1.006696e+02
<TRANSP> 5
 0.000000e+00 1.000000e+00 0.000000e+00 0.000000e+00 0.000000e+00
 0.000000e+00 5.363190e-01 4.636810e-01 0.000000e+00 0.000000e+00
 0.000000e+00 0.000000e+00 3.912754e-01 6.087246e-01 0.000000e+00
 0.000000e+00 0.000000e+00 0.000000e+00 8.569304e-01 1.430696e-01
 0.000000e+00 0.000000e+00 0.000000e+00 0.000000e+00 0.000000e+00
<ENDHMM>
~h "F"
<BEGINHMM>
<NUMSTATES> 5
<STATE> 2
<MEAN> 25
 -2.428615e+00 -4.960601e-01 -1.957319e+00 9.602200e-01 -1.460151e-01 4.564226e+00 7.825838e-01 2.846609e+00 2.588510e+00 6.059955e-01 -3.679858e-01 1.199867e+00 -1.041968e+00 -8.313062e-01 -7.691484e-02 -2.174594e-01 1.881286e-02 2.317668e-01 1.409639e-01 2.740167e-01 5.199305e-01 3.451840e-02 5.028911e-01 3.600733e-01 -8.065300e-02
<VARIANCE> 25
 2.775879e+01 5.026668e+01 2.915712e+01 2.365679e+01 3.791201e+01 2.137214e+01 2.037931e+01 2.634151e+01 2.272015e+01 1.723434e+01 2.295027e+01 1.478694e+01 2.781294e+00 3.014308e+00 1.413857e+00 1.692081e+00 3.507026e+00 2.465450e+00 2.003230e+00 2.146493e+00 2.311716e+00 1.639856e+00 1.886906e+00 1.457824e+00 6.884391e-01
<GCONST> 9.308989e+01
<STATE> 3
<MEAN> 25
 -6.403879e+00 -2.530194e+00 -1.399697e+00 -1.652536e+00 5.689520e-01 3.843688e+00 2.048405e+00 2.556329e+00 3.515589e+00 7.278163e-01 1.819268e+00 2.253046e+00 1.422410e-01 2.948657e-01 -7.163060e-02 -1.179897e-01 1.547811e-01 -1.913029e-01 8.285639e-02 -3.327242e-02 -1.712533e-01 -7.212935e-02 -1.010163e-01 -3.281675e-02 -1.124273e-01
<VARIANCE> 25
 3.238837e+01 4.213240e+01 2.153883e+01 1.565883e+01 2.848058e+01 1.926243e+01 1.487364e+01 1.916940e+01 1.685203e+01 1.839246e+01 1.197337e+01 1.006038e+01 2.024686e+00 2.323928e+00 9.055880e-01 1.263142e+00 2.125498e+00 1.746054e+00 1.491282e+00 1.240979e+00 1.357332e+00 1.259362e+00 1.218681e+00 9.792736e-01 7.200934e-01
<GCONST> 8.546899e+01
<STATE> 4
<MEAN> 25
 -1.135293e+01 4.068513e-01 2.109086e+00 -9.517861e+00 9.678377e+00 -1.050386e+01 7.722287e+00 -7.286578e-01 4.902360e+00 -4.281947e+00 4.117859e+00 -1.291386e+00 6.226549e-01 3.739318e-01 1.625475e-01 -1.731235e-01 -4.200201e-01 -5.557601e-01 -2.131014e-01 -2.547203e-01 -2.433258e-01 2.516173e-02 -9.928265e-02 -3.216665e-01 2.960602e-01
<VARIANCE> 25
 8.916405e+01 5.101883e+01 4.903655e+01 5.206498e+01 1.112872e+02 9.524845e+01 5.504806e+01 5.187154e+01 5.540646e+01 4.437172e+01 4.410993e+01 2.696154e+01 1.103708e+01 4.742422e+00 2.486021e+00 4.300134e+00 7.734256e+00 6.878826e+00 4.946473e+00 3.197585e+00 4.947484e+00 4.361073e+00 4.526109e+00 2.765085e+00 1.410355e+00
<GCONST> 1.133333e+02
<TRANSP> 5
 0.000000e+00 1.000000e+00 0.000000e+00 0.000000e+00 0.000000e+00
 0.000000e+00 7.921475e-01 2.078526e-01 0.000000e+00 0.000000e+00
 0.000000e+00 0.000000e+00 8.983806e-01 1.016193e-01 0.000000e+00
 0.000000e+00 0.000000e+00 0.000000e+00 8.118315e-01 1.881685e-01
 0.000000e+00 0.000000e+00 0.000000e+00 0.000000e+00 0.000000e+00
<ENDHMM>
~h "G"
<BEGINHMM>
<NUMSTATES> 5
<STATE> 2
<MEAN> 25
 -1.206887e+00 3.833825e+00 -7.959409e-01 1.323659e+00 2.099989e+00 3.238900e+00 -8.329166e-01 3.861833e-01 2.034209e-01 2.768818e-01 4.403805e-01 4.472167e-01 -4.526327e-01 2.116142e-01 1.653045e-02 -1.510023e-01 -2.133428e-02 3.615254e-01 2.492843e-01 3.989017e-01 3.895556e-01 -7.880442e-02 8.614905e-03 2.299043e-01 -5.236300e-01
<VARIANCE> 25
 3.776042e+01 2.895974e+01 2.576138e+01 2.307409e+01 3.114945e+01 2.513246e+01 2.290730e+01 4.096279e+01 3.407204e+01 2.110745e+01 1.781508e+01 1.909229e+01 1.556081e+00 2.501969e+00 1.729208e+00 1.735719e+00 2.027038e+00 2.200669e+00 1.969110e+00 2.341231e+00 2.428064e+00 1.610699e+00 1.491216e+00 1.466749e+00 1.393528e+00
<GCONST> 9.320636e+01
<STATE> 3
<MEAN> 25
 -7.194347e-01 1.214581e+00 -7.831908e-01 -3.597550e-01 5.089775e-01 2.926858e+00 1.741787e+00 8.631214e-01 -1.410422e-01 -8.267393e-01 5.257984e-01 -5.643818e-01 3.497142e-01 -2.213668e+00 -1.599726e+00 -1.572952e+00 -2.040725e+00 -1.549332e+00 1.204935e+00 4.166002e-02 -7.146722e-01 -4.813064e-01 8.305978e-01 -1.126420e-01 1.748020e+00
<VARIANCE> 25
 2.976761e+01 6.899149e+01 5.233383e+01 4.022620e+01 5.104995e+01 2.739656e+01 3.198518e+01 3.285407e+01 3.309977e+01 2.203916e+01 2.098865e+01 1.738396e+01 4.124082e+00 5.886518e+00 5.627061e+00 7.784904e+00 7.202296e+00 8.178555e+00 5.700082e+00 4.166048e+00 4.763146e+00 2.688754e+00 3.376697e+00 2.102040e+00 3.276160e+00
<GCONST> 1.078280e+02
<STATE> 4
<MEAN> 25
 1.617443e+00 -1.776213e+00 -1.887921e+00 -5.050170e+00 -1.401817e+00 -4.770432e+00 3.481000e+00 -3.197062e-01 -4.535413e+00 -1.983899e+00 2.681957e+00 -2.154203e+00 1.137577e+00 3.974821e-02 5.232719e-01 1.330558e-01 -4.784093e-01 -7.460369e-01 -3.898142e-01 -7.046561e-01 -8.765192e-01 1.017666e-01 -3.502491e-01 -3.447132e-01 9.370161e-01
<VARIANCE> 25
 4.412621e+01 7.473227e+01 5.158746e+01 1.020097e+02 1.141078e+02 1.021848e+02 6.872985e+01 6.230790e+01 7.731747e+01 5.657756e+01 4.328052e+01 4.072005e+01 3.441448e+00 4.680488e+00 4.417083e+00 7.945461e+00 7.630837e+00 9.931371e+00 6.141041e+00 4.827570e+00 6.687088e+00 4.297837e+00 4.227331e+00 3.239488e+00 3.798842e+00
<GCONST> 1.175650e+02
<TRANSP> 5
 0.000000e+00 1.000000e+00 0.000000e+00 0.000000e+00 0.000000e+00
 0.000000e+00 8.670840e-01 1.329160e-01 0.000000e+00 0.000000e+00
 0.000000e+00 0.000000e+00 4.512171e-01 5.487828e-01 0.000000e+00
 0.000000e+00 0.000000e+00 0.000000e+00 6.187769e-01 3.812231e-01
 0.000000e+00 0.000000e+00 0.000000e+00 0.000000e+00 0.000000e+00
<ENDHMM>
~h "H"
<BEGINHMM>
<NUMSTATES> 5
<STATE> 2
<MEAN> 25
 4.895706e-08 5.076081e-09 -1.264615e-08 -1.239821e-08 1.680221e-09 -1.071540e-08 -3.051177e-09 -1.586750e-08 1.878219e-08 1.421925e-08 -2.732238e-08 2.722044e-08 3.771409e-04 8.000820e-03 2.929726e-03 3.659504e-03 1.566812e-03 4.612614e-03 2.093330e-03 1.978985e-03 6.350414e-04 -1.866405e-03 5.988384e-04 1.840518e-03 -7.231131e-03
<VARIANCE> 25
 8.019868e+01 6.425425e+01 6.170111e+01 5.474755e+01 5.721574e+01 6.726498e+01 5.709329e+01 5.988584e+01 5.147332e+01 3.365235e+01 3.042003e+01 2.671571e+01 2.531703e+00 3.121265e+00 2.552349e+00 2.542973e+00 2.903971e+00 3.553263e+00 2.928286e+00 2.850567e+00 2.801052e+00 2.164194e+00 2.094235e+00 1.716475e+00 1.694484e+00
<GCONST> 1.051717e+02
<STATE> 3
<MEAN> 25
 4.895706e-08 5.076081e-09 -1.264615e-08 -1.239821e-08 1.680221e-09 -1.071540e-08 -3.051177e-09 -1.586750e-08 1.878219e-08 1.421925e-08 -2.732238e-08 2.722044e-08 3.771409e-04 8.000820e-03 2.929726e-03 3.659504e-03 1.566812e-03 4.612614e-03 2.093330e-03 1.978985e-03 6.350414e-04 -1.866405e-03 5.988384e-04 1.840518e-03 -7.231131e-03
<VARIANCE> 25
 8.019868e+01 6.425425e+01 6.170111e+01 5.474755e+01 5.721574e+01 6.726498e+01 5.709329e+01 5.988584e+01 5.147332e+01 3.365235e+01 3.042003e+01 2.671571e+01 2.531703e+00 3.121265e+00 2.552349e+00 2.542973e+00 2.903971e+00 3.553263e+00 2.928286e+00 2.850567e+00 2.801052e+00 2.164194e+00 2.094235e+00 1.716475e+00 1.694484e+00
<GCONST> 1.051717e+02
<STATE> 4
<MEAN> 25
 4.895706e-08 5.076081e-09 -1.264615e-08 -1.239821e-08 1.680221e-09 -1.071540e-08 -3.051177e-09 -1.586750e-08 1.878219e-08 1.421925e-08 -2.732238e-08 2.722044e-08 3.771409e-04 8.000820e-03 2.929726e-03 3.659504e-03 1.566812e-03 4.612614e-03 2.093330e-03 1.978985e-03 6.350414e-04 -1.866405e-03 5.988384e-04 1.840518e-03 -7.231131e-03
<VARIANCE> 25
 8.019868e+01 6.425425e+01 6.170111e+01 5.474755e+01 5.721574e+01 6.726498e+01 5.709329e+01 5.988584e+01 5.147332e+01 3.365235e+01 3.042003e+01 2.671571e+01 2.531703e+00 3.121265e+00 2.552349e+00 2.542973e+00 2.903971e+00 3.553263e+00 2.928286e+00 2.850567e+00 2.801052e+00 2.164194e+00 2.094235e+00 1.716475e+00 1.694484e+00
<GCONST> 1.051717e+02
<TRANSP> 5
 0.000000e+00 1.000000e+00 0.000000e+00 0.000000e+00 0.000000e+00
 0.000000e+00 6.000000e-01 4.000000e-01 0.000000e+00 0.000000e+00
 0.000000e+00 0.000000e+00 6.000000e-01 4.000000e-01 0.000000e+00
 0.000000e+00 0.000000e+00 0.000000e+00 7.000000e-01 3.000000e-01
 0.000000e+00 0.000000e+00 0.000000e+00 0.000000e+00 0.000000e+00
<ENDHMM>
~h "I"
<BEGINHMM>
<NUMSTATES> 5
<STATE> 2
<MEAN> 25
 4.034687e+00 1.483401e+00 -1.699976e+00 -4.073609e+00 9.587002e+00 7.555628e-02 8.091702e-01 -1.141745e+00 -1.403359e+01 -5.323387e+00 7.961965e+00 -6.242691e-01 -8.940713e-01 -3.239756e-01 2.882967e-01 3.745281e-01 1.217857e+00 -7.172855e-01 -6.535256e-02 -1.727646e+00 9.065466e-01 9.689908e-02 4.322734e-01 5.756262e-02 7.023512e-01
<VARIANCE> 25
 8.632757e+01 5.150678e+01 2.306203e+01 3.683214e+01 5.922255e+01 3.859412e+01 5.033566e+01 7.685191e+01 1.897955e+02 5.289564e+01 3.989021e+01 2.568262e+01 9.413646e+00 3.464340e+00 3.722479e+00 2.996139e+00 2.355239e+00 3.909237e+00 9.372871e+00 2.052901e+00 1.456471e+01 6.857614e+00 5.637750e+00 3.073671e+00 6.650870e-01
<GCONST> 1.113545e+02
<STATE> 3
<MEAN> 25
 -1.348906e+01 -1.933112e+00 5.087478e-01 -3.192270e+00 1.274451e+01 -1.115711e+01 5.139829e+00 -9.757796e+00 2.624985e+00 -4.620251e+00 7.773066e+00 -2.672519e+00 8.693522e-01 -4.796748e-01 -6.293818e-02 4.746839e-01 -4.797143e-01 -3.072841e-01 -1.437325e+00 7.966630e-01 2.380829e-01 3.405659e-01 -4.137508e-01 2.513061e-02 -3.145815e-01
<VARIANCE> 25
 4.952805e+01 5.094887e+01 8.073720e+00 2.059912e+01 5.427477e+01 5.443851e+01 4.538732e+01 4.846109e+01 2.432609e+01 2.231498e+01 1.216026e+01 2.751303e+01 9.435033e+00 5.076606e+00 1.016294e+00 1.482288e+00 2.072251e+00 1.412275e+00 2.939136e+00 1.905686e+00 1.084892e+00 1.556061e+00 1.538955e+00 2.867437e+00 6.133854e-01
<GCONST> 9.528593e+01
<STATE> 4
<MEAN> 25
 1.045100e-01 -5.279148e+00 8.553787e-01 2.284976e+00 5.748996e+00 -3.495192e+00 -4.671829e+00 -3.449587e+00 1.779952e+00 3.440031e-01 1.602354e+00 4.908566e-01 2.976995e+00 2.207128e+00 6.478369e-01 6.707845e-01 -6.867247e-01 -3.462103e-02 -5.665400e-01 3.143279e-01 -1.360407e+00 -2.581677e-01 -1.652601e+00 -7.241240e-01 -9.832334e-02
<VARIANCE> 25
 4.580872e+01 7.628403e+01 2.157437e+01 2.307537e+01 4.233526e+01 6.058337e+01 1.504516e+01 2.223736e+01 1.509764e+01 1.976674e+01 1.204111e+01 1.286668e+01 5.244639e+00 5.244362e+00 1.923335e+00 2.048446e+00 3.594874e+00 4.689396e+00 2.047106e+00 3.300262e+00 1.784053e+00 3.728028e+00 1.715333e+00 2.551372e+00 1.119494e+00
<GCONST> 9.762474e+01
<TRANSP> 5
 0.000000e+00 1.000000e+00 0.000000e+00 0.000000e+00 0.000000e+00
 0.000000e+00 6.773228e-01 3.226772e-01 0.000000e+00 0.000000e+00
 0.000000e+00 0.000000e+00 7.031741e-01 2.968259e-01 0.000000e+00
 0.000000e+00 0.000000e+00 0.000000e+00 5.876225e-01 4.123774e-01
 0.000000e+00 0.000000e+00 0.000000e+00 0.000000e+00 0.000000e+00
<ENDHMM>
~h "K"
<BEGINHMM>
<NUMSTATES> 5
<STATE> 2
<MEAN> 25
 2.757592e-01 5.182821e-01 -8.965703e-01 5.908591e-01 1.826509e+00 1.688473e+00 -9.191828e-02 -3.107296e+00 -1.444555e+00 1.133755e+00 1.719995e+00 -2.345508e-01 -7.820438e-01 4.106240e-01 -1.304831e-01 -4.066382e-01 -2.055943e-01 5.660794e-01 4.202741e-01 8.789069e-01 5.145679e-01 8.829609e-03 4.514578e-02 4.152681e-01 -1.067222e+00
<VARIANCE> 25
 4.123864e+01 5.519575e+01 3.899156e+01 4.767847e+01 5.561784e+01 4.527652e+01 5.368188e+01 4.510062e+01 4.511712e+01 3.482636e+01 3.042007e+01 2.638811e+01 2.695534e+00 3.886660e+00 2.339155e+00 3.112659e+00 3.039710e+00 3.586283e+00 3.176189e+00 4.139395e+00 3.182101e+00 2.384285e+00 2.440841e+00 2.013600e+00 2.854944e+00
<GCONST> 1.048432e+02
<STATE> 3
<MEAN> 25
 -6.203143e+00 2.103323e+00 -3.186043e+00 -2.939683e-01 1.011657e+00 5.163869e+00 1.170165e+00 4.596782e+00 2.987592e+00 1.207324e+00 1.003146e+00 2.037908e+00 -8.213423e-02 -6.612691e-02 -8.738637e-02 -6.480867e-02 -7.046056e-02 -5.735630e-02 -2.279773e-03 7.958858e-02 4.778198e-02 -4.746448e-02 -2.495772e-02 7.879101e-04 -5.753119e-02
<VARIANCE> 25
 1.269201e+01 1.627665e+01 2.209273e+01 1.924489e+01 1.300117e+01 1.535537e+01 1.310451e+01 1.748660e+01 1.754856e+01 1.465499e+01 1.189812e+01 9.823139e+00 4.052282e-01 8.029399e-01 8.155591e-01 1.110644e+00 1.126175e+00 1.310255e+00 1.125019e+00 1.223580e+00 1.186980e+00 1.063937e+00 1.071789e+00 9.010980e-01 7.151162e-01
<GCONST> 7.772208e+01
<STATE> 4
<MEAN> 25
 -3.580165e+00 -5.100943e+00 -6.953493e-01 -3.712778e+00 -9.968166e-01 -5.475414e+00 2.453204e+00 -1.306290e-01 3.686647e-01 6.649074e-02 1.912425e+00 -4.819199e-01 5.127114e-01 -7.403732e-01 1.262573e-01 -4.250503e-02 -4.659138e-01 -7.696337e-01 -1.739454e-01 -2.606848e-01 -1.292147e-01 1.293348e-01 1.287188e-02 -1.876213e-01 1.001908e+00
<VARIANCE> 25
 5.245133e+01 6.111474e+01 6.653524e+01 8.043758e+01 6.774079e+01 1.548579e+02 6.644954e+01 6.424743e+01 4.826307e+01 5.336105e+01 4.034859e+01 4.010940e+01 4.274703e+00 5.997191e+00 5.161427e+00 7.047000e+00 6.021150e+00 1.504198e+01 5.572509e+00 5.011999e+00 4.688067e+00 4.353636e+00 4.091392e+00 3.365249e+00 5.230771e+00
<GCONST> 1.174317e+02
<TRANSP> 5
 0.000000e+00 1.000000e+00 0.000000e+00 0.000000e+00 0.000000e+00
 0.000000e+00 7.709808e-01 2.290193e-01 0.000000e+00 0.000000e+00
 0.000000e+00 0.000000e+00 9.446337e-01 5.536624e-02 0.000000e+00
 0.000000e+00 0.000000e+00 0.000000e+00 7.809376e-01 2.190624e-01
 0.000000e+00 0.000000e+00 0.000000e+00 0.000000e+00 0.000000e+00
<ENDHMM>
~h "L"
<BEGINHMM>
<NUMSTATES> 5
<STATE> 2
<MEAN> 25
 6.684896e+00 2.950758e+00 2.859545e+00 -2.637749e+00 -8.226915e+00 -5.261594e+00 6.813808e-01 1.413327e+00 8.635250e-02 -2.332027e+00 -4.799674e+00 -1.625483e+00 9.938973e-01 7.629902e-01 4.074247e-01 9.962568e-02 -1.366563e+00 -1.022553e+00 -6.233571e-02 3.021816e-01 -1.989928e-02 -2.017198e-01 -6.475638e-01 -5.530109e-01 3.644314e-01
<VARIANCE> 25
 4.276338e+01 3.863999e+01 5.555740e+01 3.350766e+01 6.757137e+01 6.136398e+01 5.147665e+01 5.288551e+01 6.338256e+01 3.851536e+01 3.846178e+01 2.762860e+01 2.779257e+00 3.240338e+00 2.980852e+00 2.401796e+00 4.488682e+00 5.044313e+00 3.931467e+00 4.236969e+00 3.856373e+00 3.437786e+00 3.300867e+00 2.481367e+00 1.754233e+00
<GCONST> 1.072427e+02
<STATE> 3
<MEAN> 25
 9.796156e+00 6.582698e+00 4.090851e+00 -1.303085e+00 -1.272736e+01 -9.425826e+00 -4.532843e-01 1.260781e+00 8.413394e-01 -8.698093e-01 -4.597602e+00 -2.503620e+00 -1.047681e-01 1.177859e-01 8.737089e-02 1.598680e-01 1.046100e-02 3.080563e-02 1.246811e-01 -2.890114e-02 -1.407555e-01 -2.472488e-02 1.138628e-01 3.711490e-02 -1.574963e-01
<VARIANCE> 25
 1.624617e+01 3.234088e+01 2.677291e+01 2.592990e+01 5.930506e+01 6.431274e+01 4.606395e+01 3.719183e+01 3.469783e+01 3.101021e+01 3.197914e+01 2.754128e+01 2.773862e-01 8.139575e-01 8.247576e-01 7.323617e-01 1.489810e+00 1.399585e+00 1.417583e+00 1.440989e+00 1.309691e+00 1.232752e+00 1.279042e+00 1.258506e+00 2.887095e-01
<GCONST> 8.737777e+01
<STATE> 4
<MEAN> 25
 7.518363e+00 5.316405e+00 4.319624e+00 -1.334051e+00 -9.176108e+00 -5.290627e+00 1.071096e+00 8.076537e-01 4.093732e-01 -1.742784e+00 -5.230815e+00 -2.232430e+00 -7.661135e-01 -3.265605e-01 -4.974360e-01 2.032755e-01 2.027735e+00 1.144683e+00 -1.468491e-01 -1.573068e-01 -1.063096e-01 -1.204985e-01 5.372900e-01 4.383211e-01 -3.489974e-01
<VARIANCE> 25
 2.573334e+01 3.084273e+01 3.561890e+01 3.947561e+01 7.289384e+01 7.388988e+01 4.032877e+01 5.286633e+01 5.398386e+01 4.198108e+01 4.031672e+01 2.649946e+01 1.649697e+00 2.267771e+00 1.929990e+00 2.652142e+00 4.627795e+00 5.843696e+00 3.747190e+00 3.178911e+00 3.983277e+00 2.827266e+00 2.883494e+00 2.034894e+00 1.676500e+00
<GCONST> 1.042632e+02
<TRANSP> 5
 0.000000e+00 1.000000e+00 0.000000e+00 0.000000e+00 0.000000e+00
 0.000000e+00 6.608884e-01 3.391116e-01 0.000000e+00 0.000000e+00
 0.000000e+00 0.000000e+00 7.973350e-01 2.026650e-01 0.000000e+00
 0.000000e+00 0.000000e+00 0.000000e+00 6.653299e-01 3.346702e-01
 0.000000e+00 0.000000e+00 0.000000e+00 0.000000e+00 0.000000e+00
<ENDHMM>
~h "M"
<BEGINHMM>
<NUMSTATES> 5
<STATE> 2
<MEAN> 25
 -8.406572e-01 4.128280e+00 -3.295689e+00 1.102780e+00 8.608922e-01 5.132183e+00 2.318420e-01 2.895942e+00 -1.728916e-02 -3.625820e-01 -1.064890e+00 6.569010e-01 -5.361833e-02 4.374398e-01 3.331402e-01 3.424399e-01 5.351738e-01 5.604227e-01 -7.831927e-02 -2.443220e-01 -8.243082e-02 -2.251361e-02 -2.508026e-01 -2.566757e-01 -2.962771e-01
<VARIANCE> 25
 4.293189e+01 2.176352e+01 2.430344e+01 2.071408e+01 2.099005e+01 2.621109e+01 1.569598e+01 3.641275e+01 2.106957e+01 1.648682e+01 1.902374e+01 1.837742e+01 9.215097e-01 1.273237e+00 1.349124e+00 1.475730e+00 2.114560e+00 2.064316e+00 1.334268e+00 1.745369e+00 1.501802e+00 1.374536e+00 1.564824e+00 1.299350e+00 1.049754e+00
<GCONST> 8.802436e+01
<STATE> 3
<MEAN> 25
 6.790308e+00 8.352792e+00 1.598796e+00 3.558542e+00 5.269898e+00 5.430211e+00 -1.344340e+00 -4.350519e+00 -2.457001e+00 -1.954244e+00 -4.113369e+00 -3.850410e+00 -6.754774e-02 1.115451e-01 1.033178e-01 1.849219e-01 1.603138e-01 1.224035e-01 -3.938464e-02 -9.250366e-02 6.479760e-02 -4.141590e-02 -7.775700e-02 -1.000367e-01 -7.886814e-02
<VARIANCE> 25
 1.768206e+01 1.182398e+01 1.634673e+01 2.031841e+01 2.322994e+01 2.660710e+01 2.464683e+01 3.312958e+01 2.585137e+01 2.107919e+01 1.927285e+01 2.000520e+01 4.035558e-01 4.978592e-01 7.296472e-01 6.719971e-01 9.910744e-01 9.150534e-01 1.143950e+00 1.272030e+00 1.067754e+00 1.061199e+00 9.575692e-01 8.205230e-01 2.477668e-01
<GCONST> 7.893051e+01
<STATE> 4
<MEAN> 25
 6.443730e+00 7.507080e+00 1.011269e+00 2.416410e+00 4.381404e+00 4.210349e+00 -1.327760e+00 -4.293905e+00 -2.398180e+00 -1.723777e+00 -3.769766e+00 -3.880869e+00 4.502074e-01 -1.074602e+00 -7.666619e-01 -1.011450e+00 -2.054889e+00 -1.960270e+00 1.963692e-02 8.148589e-01 6.217301e-01 -3.980677e-02 8.660477e-01 9.327366e-01 1.193031e+00
<VARIANCE> 25
 2.497578e+01 1.522151e+01 1.908445e+01 2.522641e+01 2.871179e+01 2.852231e+01 1.937115e+01 3.949209e+01 2.828923e+01 3.156161e+01 2.435386e+01 2.712655e+01 1.525875e+00 2.545524e+00 1.839637e+00 2.955605e+00 3.699250e+00 3.272460e+00 2.981797e+00 2.363055e+00 2.871546e+00 2.027204e+00 2.111131e+00 1.743334e+00 1.841593e+00
<GCONST> 9.587130e+01
<TRANSP> 5
 0.000000e+00 1.000000e+00 0.000000e+00 0.000000e+00 0.000000e+00
 0.000000e+00 8.499656e-01 1.500344e-01 0.000000e+00 0.000000e+00
 0.000000e+00 0.000000e+00 7.321851e-01 2.678149e-01 0.000000e+00
 0.000000e+00 0.000000e+00 0.000000e+00 4.888437e-01 5.111563e-01
 0.000000e+00 0.000000e+00 0.000000e+00 0.000000e+00 0.000000e+00
<ENDHMM>
~h "N"
<BEGINHMM>
<NUMSTATES> 5
<STATE> 2
<MEAN> 25
 6.878721e+00 2.332108e+00 -7.024719e-02 2.684956e+00 4.060991e+00 -6.893126e-01 -4.159257e+00 -4.686668e+00 -2.252743e+00 -4.586196e-01 -8.814265e-01 -1.032629e+00 -1.662629e-01 1.406682e+00 4.651942e-01 7.375157e-01 9.928136e-01 1.395379e+00 -2.609873e-01 -5.871312e-01 -9.415030e-02 9.580210e-02 -8.074945e-01 -5.847849e-01 -1.169682e+00
<VARIANCE> 25
 2.263681e+01 2.461062e+01 3.045030e+01 3.161641e+01 3.158614e+01 5.360830e+01 4.558064e+01 3.963740e+01 4.038776e+01 3.014330e+01 3.306705e+01 2.676000e+01 1.078372e+00 1.831339e+00 2.171108e+00 2.734207e+00 2.542924e+00 3.437177e+00 3.132381e+00 2.746453e+00 3.160731e+00 2.299107e+00 2.334270e+00 1.866585e+00 1.143822e+00
<GCONST> 9.833421e+01
<STATE> 3
<MEAN> 25
 6.498312e+00 6.995275e+00 2.307824e+00 6.503996e+00 5.569829e+00 3.461382e+00 -3.991373e+00 -5.971348e+00 -1.802957e+00 -3.229791e-01 -3.082685e+00 -2.378750e+00 -3.490385e-01 4.221890e-01 3.717694e-01 2.349650e-01 1.479792e-01 2.154966e-01 1.822618e-01 2.092261e-01 3.781677e-02 -2.441918e-01 -5.247102e-02 4.683015e-02 -4.004778e-01
<VARIANCE> 25
 1.654084e+01 1.404367e+01 1.944827e+01 2.150079e+01 1.962128e+01 2.497513e+01 2.612086e+01 2.891611e+01 2.260590e+01 2.515516e+01 1.962168e+01 1.979611e+01 3.603836e-01 6.900790e-01 8.150145e-01 8.087550e-01 1.032168e+00 1.187307e+00 1.462854e+00 1.559454e+00 1.181149e+00 1.220740e+00 1.110533e+00 1.083760e+00 2.432712e-01
<GCONST> 8.091517e+01
<STATE> 4
<MEAN> 25
 -4.101787e+00 3.429797e+00 -2.260248e+00 1.504587e+00 1.908508e+00 5.017152e+00 3.219023e-01 3.436529e+00 1.736396e+00 5.285095e-01 1.000870e-01 1.690611e+00 -2.126012e-01 -1.762117e-01 -9.336951e-02 -1.040649e-01 -1.547690e-01 -7.955465e-02 1.260419e-01 2.388792e-01 8.280075e-02 -1.336826e-02 1.085849e-01 9.051737e-02 -9.460968e-02
<VARIANCE> 25
 2.650371e+01 1.814134e+01 2.458040e+01 2.096645e+01 1.826589e+01 1.981306e+01 1.890177e+01 2.806628e+01 1.995594e+01 1.673343e+01 1.358040e+01 1.290575e+01 6.545588e-01 9.891977e-01 9.357105e-01 1.229714e+00 1.202212e+00 1.566672e+00 1.473283e+00 1.578071e+00 1.371054e+00 1.350432e+00 1.288383e+00 1.059139e+00 6.651146e-01
<GCONST> 8.321125e+01
<TRANSP> 5
 0.000000e+00 1.000000e+00 0.000000e+00 0.000000e+00 0.000000e+00
 0.000000e+00 6.479907e-01 3.520093e-01 0.000000e+00 0.000000e+00
 0.000000e+00 0.000000e+00 7.474465e-01 2.525535e-01 0.000000e+00
 0.000000e+00 0.000000e+00 0.000000e+00 9.071199e-01 9.288016e-02
 0.000000e+00 0.000000e+00 0.000000e+00 0.000000e+00 0.000000e+00
<ENDHMM>
~h "P"
<BEGINHMM>
<NUMSTATES> 5
<STATE> 2
<MEAN> 25
 -2.316847e+00 5.741866e-01 1.363520e+00 -1.712009e+00 1.729058e+00 1.707983e+00 4.214960e-01 -8.415974e-01 3.003048e-01 -3.272327e-01 5.660716e-01 3.686942e-01 -5.784053e-01 2.986605e-01 -6.719919e-02 -2.285649e-01 3.885061e-02 5.455284e-01 2.019724e-01 5.779349e-01 4.215967e-01 1.723516e-01 2.352195e-01 3.998833e-01 -9.359863e-01
<VARIANCE> 25
 7.269054e+01 5.160273e+01 5.087563e+01 5.965374e+01 5.020012e+01 4.244763e+01 5.657154e+01 4.353783e+01 4.579176e+01 2.557901e+01 2.467443e+01 1.848010e+01 3.567240e+00 3.917222e+00 2.925725e+00 3.093184e+00 3.097890e+00 2.855127e+00 2.951729e+00 2.928801e+00 3.133811e+00 1.826287e+00 1.972994e+00 1.674969e+00 3.218421e+00
<GCONST> 1.041419e+02
<STATE> 3
<MEAN> 25
 -5.317250e+00 2.155932e+00 -3.984034e+00 1.137321e+00 6.163175e-01 5.232407e+00 1.111023e+00 4.554428e+00 1.934505e+00 8.461285e-01 6.152895e-01 1.744064e+00 -4.869566e-02 -1.312083e-02 -7.980870e-02 -1.937866e-03 -8.797616e-03 -1.026802e-04 -2.133851e-02 4.046100e-02 3.410270e-02 -8.425333e-03 1.609956e-02 1.564299e-02 -8.266026e-02
<VARIANCE> 25
 1.024326e+01 1.831768e+01 1.981978e+01 1.497258e+01 1.180245e+01 1.485154e+01 1.450133e+01 1.746860e+01 1.640560e+01 1.373942e+01 1.066622e+01 1.121700e+01 3.706642e-01 6.261359e-01 6.556706e-01 6.572200e-01 7.571998e-01 1.076056e+00 1.107669e+00 1.125694e+00 1.042919e+00 9.379949e-01 9.249846e-01 9.183653e-01 4.592094e-01
<GCONST> 7.452774e+01
<STATE> 4
<MEAN> 25
 -2.898762e+00 -3.038118e+00 -1.496294e+00 -1.611052e+00 -1.072662e+00 -2.540786e+00 -1.091401e+00 2.495202e+00 3.160355e+00 5.330104e-01 6.442448e-01 9.044347e-01 1.330670e+00 -8.115889e-01 -1.187573e-02 -1.612712e-01 -3.137164e-01 -1.181293e+00 -3.487931e-01 -2.772406e-01 2.082220e-01 -5.750974e-02 -2.277323e-01 -1.060554e-01 1.839108e+00
<VARIANCE> 25
 3.238403e+01 5.204331e+01 4.518469e+01 4.950991e+01 3.685828e+01 1.009240e+02 4.426986e+01 4.167416e+01 3.989891e+01 3.526530e+01 3.015433e+01 2.362906e+01 4.969192e+00 5.707214e+00 5.708009e+00 5.963681e+00 4.465594e+00 9.743065e+00 5.305926e+00 5.129146e+00 4.534585e+00 3.953071e+00 3.413967e+00 2.464546e+00 4.559652e+00
<GCONST> 1.111319e+02
<TRANSP> 5
 0.000000e+00 1.000000e+00 0.000000e+00 0.000000e+00 0.000000e+00
 0.000000e+00 8.028525e-01 1.971475e-01 0.000000e+00 0.000000e+00
 0.000000e+00 0.000000e+00 9.486198e-01 5.138018e-02 0.000000e+00
 0.000000e+00 0.000000e+00 0.000000e+00 7.302341e-01 2.697659e-01
 0.000000e+00 0.000000e+00 0.000000e+00 0.000000e+00 0.000000e+00
<ENDHMM>
~h "R"
<BEGINHMM>
<NUMSTATES> 5
<STATE> 2
<MEAN> 25
 7.422765e+00 3.099382e+00 -4.375529e+00 -5.428149e+00 -1.958729e+00 9.574280e-01 1.951315e+00 -2.173237e+00 -4.926985e+00 -2.022866e+00 -4.392976e-02 -1.981721e-01 1.117268e+00 1.026765e+00 -5.521510e-01 -6.268520e-01 3.778248e-02 1.214974e-01 3.571658e-01 -7.424248e-01 -1.450305e+00 -3.277465e-01 3.329941e-01 3.044639e-01 3.802638e-01
<VARIANCE> 25
 4.619008e+01 5.885344e+01 3.347083e+01 5.314029e+01 4.552039e+01 4.565844e+01 4.730905e+01 7.052061e+01 6.322367e+01 4.753683e+01 3.901450e+01 2.594102e+01 3.107412e+00 4.477314e+00 2.597071e+00 2.974136e+00 3.674156e+00 3.736829e+00 3.565866e+00 4.000065e+00 4.759615e+00 3.480095e+00 3.168705e+00 2.407733e+00 1.692988e+00
<GCONST> 1.073384e+02
<STATE> 3
<MEAN> 25
 1.148465e+01 4.115934e+00 -7.446197e+00 -7.236796e+00 -4.973582e-01 2.063754e+00 3.231253e+00 -7.032221e+00 -1.183651e+01 -1.506147e+00 4.054939e+00 1.806667e+00 -8.535855e-02 -7.320257e-02 -1.913183e-01 4.326806e-01 5.291679e-01 1.401618e-01 -2.636397e-01 -5.504107e-01 -2.192681e-01 8.511650e-02 3.520454e-01 2.046263e-01 -8.835241e-02
<VARIANCE> 25
 2.193286e+01 3.711380e+01 2.115704e+01 3.939400e+01 3.778106e+01 3.363281e+01 3.805418e+01 5.224457e+01 7.367976e+01 5.379157e+01 3.440208e+01 2.623759e+01 4.313237e-01 1.399534e+00 7.869528e-01 1.715994e+00 1.866674e+00 1.677634e+00 2.263719e+00 2.035218e+00 2.176895e+00 2.199483e+00 1.754491e+00 1.319413e+00 4.493860e-01
<GCONST> 9.327731e+01
<STATE> 4
<MEAN> 25
 8.001701e+00 1.865214e+00 -6.834885e+00 -1.562185e+00 3.107996e+00 9.705328e-01 -8.795923e-01 -8.366276e+00 -7.911669e+00 6.678448e-01 4.140740e+00 3.157558e-01 -7.356398e-01 -3.897496e-01 6.129550e-01 1.289880e+00 5.503261e-01 -4.594293e-01 -9.151610e-01 4.859008e-01 1.338501e+00 2.605870e-01 -5.814382e-01 -5.063147e-01 -4.091896e-01
<VARIANCE> 25
 3.511337e+01 3.594117e+01 2.288691e+01 4.494915e+01 3.647593e+01 5.885149e+01 4.023036e+01 6.541460e+01 5.605630e+01 4.827192e+01 2.958517e+01 3.302387e+01 7.838805e-01 1.862236e+00 1.192315e+00 2.270572e+00 1.850421e+00 2.465390e+00 2.821300e+00 2.325675e+00 2.397077e+00 2.271061e+00 1.600140e+00 1.643213e+00 9.130310e-01
<GCONST> 9.770168e+01
<TRANSP> 5
 0.000000e+00 1.000000e+00 0.000000e+00 0.000000e+00 0.000000e+00
 0.000000e+00 6.451634e-01 3.548366e-01 0.000000e+00 0.000000e+00
 0.000000e+00 0.000000e+00 6.746697e-01 3.253303e-01 0.000000e+00
 0.000000e+00 0.000000e+00 0.000000e+00 6.638720e-01 3.361280e-01
 0.000000e+00 0.000000e+00 0.000000e+00 0.000000e+00 0.000000e+00
<ENDHMM>
~h "S"
<BEGINHMM>
<NUMSTATES> 5
<STATE> 2
<MEAN> 25
 -4.424473e+00 -5.616129e+00 4.193261e+00 6.398961e-02 -7.199224e-01 7.761310e-01 2.335656e+00 1.335306e-01 -3.140755e-01 -5.549362e-01 7.442472e-01 1.077143e+00 -2.589906e+00 -2.181254e+00 2.392520e+00 -1.076160e+00 -6.003566e-01 -2.746539e-01 8.712757e-01 5.872721e-01 6.564033e-01 -1.906618e-01 8.304038e-01 2.122072e-01 1.003778e+00
<VARIANCE> 25
 5.039194e+01 7.344566e+01 1.041596e+02 8.175630e+01 5.329200e+01 6.608338e+01 7.478980e+01 6.275375e+01 5.172769e+01 3.536140e+01 2.765822e+01 2.389458e+01 5.088696e+00 7.479332e+00 5.574108e+00 5.612682e+00 6.336664e+00 6.866714e+00 5.604501e+00 4.819394e+00 4.621520e+00 3.140577e+00 3.515543e+00 2.198261e+00 1.790296e+00
<GCONST> 1.132927e+02
<STATE> 3
<MEAN> 25
 -8.237898e+00 -1.613377e+01 9.431085e+00 1.129155e+00 -7.667732e+00 -3.249424e-01 1.124584e+00 4.188605e+00 5.974532e-01 -2.355423e+00 4.192904e+00 2.235893e+00 -2.208870e-01 1.734309e-01 -4.583403e-01 -1.056745e-01 3.450091e-01 -2.173392e-01 3.735963e-02 -1.314675e-01 1.745545e-01 -1.775133e-02 -4.445309e-02 1.668192e-01 -8.823784e-02
<VARIANCE> 25
 2.420315e+01 1.567371e+02 7.042722e+01 4.954755e+01 8.308276e+01 4.078991e+01 4.453432e+01 3.674782e+01 3.176967e+01 2.655839e+01 2.202222e+01 1.721027e+01 1.925862e+00 3.763480e+00 4.312711e+00 2.230964e+00 3.001637e+00 1.614354e+00 2.123660e+00 1.941418e+00 1.828822e+00 1.531154e+00 1.752084e+00 1.474445e+00 8.928590e-01
<GCONST> 9.965434e+01
<STATE> 4
<MEAN> 25
 -1.568968e+01 -7.128780e+00 1.279138e+01 -6.984253e+00 2.023117e+00 -2.590454e+00 9.269301e+00 -6.304908e-01 2.790685e+00 -6.745269e-01 3.039480e+00 9.451329e-01 6.360201e-01 2.812164e-01 -5.544094e-01 4.167680e-01 -6.353171e-02 2.718948e-01 -3.676478e-01 8.676992e-02 -1.877030e-01 1.681007e-01 -2.323203e-01 -1.352572e-01 -4.916951e-01
<VARIANCE> 25
 5.090153e+01 4.882037e+01 7.007835e+01 4.543795e+01 4.122931e+01 9.506653e+01 1.212251e+02 6.422302e+01 5.922847e+01 4.203251e+01 2.494955e+01 1.969480e+01 2.925884e+00 2.384665e+00 2.292766e+00 1.741908e+00 2.075732e+00 2.544246e+00 3.265320e+00 2.371998e+00 2.420591e+00 2.196505e+00 1.853082e+00 1.442346e+00 9.207068e-01
<GCONST> 1.026917e+02
<TRANSP> 5
 0.000000e+00 1.000000e+00 0.000000e+00 0.000000e+00 0.000000e+00
 0.000000e+00 7.547296e-01 2.452704e-01 0.000000e+00 0.000000e+00
 0.000000e+00 0.000000e+00 7.665386e-01 2.334614e-01 0.000000e+00
 0.000000e+00 0.000000e+00 0.000000e+00 8.672653e-01 1.327347e-01
 0.000000e+00 0.000000e+00 0.000000e+00 0.000000e+00 0.000000e+00
<ENDHMM>
~h "T"
<BEGINHMM>
<NUMSTATES> 5
<STATE> 2
<MEAN> 25
 -1.661310e+00 -2.816164e+00 -5.268353e-01 3.777760e-02 9.899909e-01 -1.887882e+00 -8.128092e-01 4.752700e-01 3.102074e-01 -1.425931e+00 4.361977e-02 9.195006e-01 -9.467999e-01 -1.828280e+00 9.201268e-01 -4.187517e-01 -4.663950e-01 -1.235462e+00 -3.504662e-01 5.652286e-02 8.179421e-01 -1.856439e-01 1.772970e-01 2.293210e-01 1.013629e+00
<VARIANCE> 25
 5.152260e+01 7.144109e+01 4.768054e+01 4.896560e+01 4.784302e+01 9.148038e+01 4.652124e+01 5.543112e+01 4.372079e+01 3.105724e+01 2.778755e+01 2.446688e+01 4.903352e+00 8.765265e+00 6.684549e+00 5.379039e+00 5.697586e+00 1.213242e+01 4.988147e+00 5.483296e+00 4.055799e+00 3.862477e+00 3.401872e+00 2.966450e+00 6.659101e+00
<GCONST> 1.137350e+02
<STATE> 3
<MEAN> 25
 -6.610269e+00 -9.492642e+00 7.336578e+00 -2.018248e+00 -9.174802e-01 -3.147678e+00 1.202030e-01 -1.831769e+00 2.305629e+00 -6.296631e-01 1.076674e+00 1.598788e+00 2.482065e-01 -1.087546e-01 -2.840192e-01 3.818165e-01 -5.580847e-02 4.187969e-01 -1.065639e-01 -6.822582e-02 -2.216524e-01 2.726591e-01 2.533438e-01 1.655238e-01 -1.505615e-01
<VARIANCE> 25
 8.546629e+01 9.390999e+01 8.473376e+01 8.253540e+01 7.240244e+01 1.085567e+02 1.061295e+02 6.712844e+01 5.269137e+01 4.252854e+01 4.339981e+01 2.434448e+01 4.429220e+00 4.660051e+00 4.486468e+00 3.568562e+00 3.468771e+00 4.610903e+00 4.738040e+00 4.054620e+00 3.697520e+00 3.036598e+00 2.774570e+00 1.924418e+00 2.779196e+00
<GCONST> 1.129522e+02
<STATE> 4
<MEAN> 25
 -5.841851e+00 -5.671926e-01 -2.652063e+00 9.878056e-01 5.087332e-01 3.888496e+00 1.035758e+00 4.581281e+00 2.683952e+00 7.787483e-01 1.000344e+00 1.837380e+00 1.036637e-01 3.338838e-01 -1.680975e-01 -1.167376e-02 8.738328e-02 1.655779e-01 2.688997e-02 5.990236e-02 -1.471479e-02 -5.997262e-03 -3.288929e-02 -2.999635e-02 -2.217011e-01
<VARIANCE> 25
 1.912377e+01 3.872905e+01 2.413176e+01 2.368522e+01 2.093045e+01 3.062867e+01 2.248545e+01 2.173016e+01 2.186356e+01 1.782999e+01 1.554324e+01 1.247139e+01 1.051661e+00 1.863868e+00 1.255811e+00 1.229903e+00 1.467097e+00 1.760552e+00 1.461969e+00 1.511462e+00 1.453067e+00 1.253083e+00 1.316125e+00 1.041928e+00 7.781830e-01
<GCONST> 8.630409e+01
<TRANSP> 5
 0.000000e+00 1.000000e+00 0.000000e+00 0.000000e+00 0.000000e+00
 0.000000e+00 5.952719e-01 4.047281e-01 0.000000e+00 0.000000e+00
 0.000000e+00 0.000000e+00 7.349599e-01 2.650400e-01 0.000000e+00
 0.000000e+00 0.000000e+00 0.000000e+00 9.142488e-01 8.575124e-02
 0.000000e+00 0.000000e+00 0.000000e+00 0.000000e+00 0.000000e+00
<ENDHMM>
~h "V"
<BEGINHMM>
<NUMSTATES> 5
<STATE> 2
<MEAN> 25
 6.262849e+00 3.670191e+00 -1.011792e+00 2.910250e-01 1.699472e+00 3.704091e-01 -2.042789e+00 -4.079054e+00 -3.660446e+00 -2.517688e+00 -2.635396e+00 -1.312501e+00 -1.684359e+00 2.973214e-01 6.252030e-01 -8.830655e-02 5.939416e-01 1.174053e+00 8.693622e-01 1.041939e+00 9.325016e-01 -1.027396e-01 3.225194e-01 5.430890e-01 -1.000658e+00
<VARIANCE> 25
 3.461712e+01 2.001351e+01 2.561447e+01 2.108114e+01 3.607569e+01 2.929933e+01 1.911502e+01 3.882384e+01 3.405048e+01 2.218013e+01 3.115378e+01 1.959901e+01 1.896411e+00 3.226533e+00 1.713818e+00 1.703426e+00 3.048132e+00 2.705993e+00 2.863142e+00 2.854368e+00 3.377882e+00 2.760466e+00 2.432883e+00 1.940659e+00 1.096918e+00
<GCONST> 9.636413e+01
<STATE> 3
<MEAN> 25
 -4.498492e+00 1.509919e+00 -1.164095e+00 1.273660e-01 9.821657e-01 3.747695e+00 7.041732e-01 3.114571e+00 2.089627e+00 8.631999e-01 6.392920e-02 1.340583e+00 -2.863706e-01 -8.560473e-02 3.288204e-02 -2.457617e-03 9.561476e-02 5.977950e-02 1.230709e-01 1.582161e-01 1.577413e-01 6.019668e-02 1.256701e-01 9.278637e-02 -1.072427e-01
<VARIANCE> 25
 3.180707e+01 3.106493e+01 1.793412e+01 1.665085e+01 2.118008e+01 1.878624e+01 1.368471e+01 2.059721e+01 1.783425e+01 1.853356e+01 1.570369e+01 1.083589e+01 1.070905e+00 1.632366e+00 9.114227e-01 1.011029e+00 1.481266e+00 1.251976e+00 1.210401e+00 1.320701e+00 1.479715e+00 1.247533e+00 1.178388e+00 1.014382e+00 4.650440e-01
<GCONST> 8.269626e+01
<STATE> 4
<MEAN> 25
 -4.831430e+00 1.912694e+00 2.588818e+00 -3.808917e+00 6.333745e+00 -1.442597e+00 2.877440e+00 3.325676e+00 1.320504e+00 -9.503450e-01 8.529190e-01 9.679354e-01 -6.302071e-02 -1.678702e-01 1.881139e-01 -3.385136e-01 2.688863e-02 -4.670461e-01 -1.932510e-01 -1.804763e-02 -2.006878e-01 -6.503522e-02 1.177314e-01 -2.780193e-02 1.669017e-01
<VARIANCE> 25
 5.479201e+01 2.641365e+01 3.162464e+01 6.351849e+01 1.177394e+02 6.868620e+01 4.828639e+01 4.676977e+01 4.654296e+01 3.097309e+01 3.640132e+01 2.027956e+01 4.512664e+00 2.671948e+00 2.156937e+00 4.263863e+00 6.865394e+00 4.585536e+00 3.946325e+00 2.932549e+00 3.271591e+00 2.147019e+00 3.082577e+00 2.048194e+00 1.025869e+00
<GCONST> 1.058520e+02
<TRANSP> 5
 0.000000e+00 1.000000e+00 0.000000e+00 0.000000e+00 0.000000e+00
 0.000000e+00 4.760773e-01 5.239227e-01 0.000000e+00 0.000000e+00
 0.000000e+00 0.000000e+00 9.066269e-01 9.337311e-02 0.000000e+00
 0.000000e+00 0.000000e+00 0.000000e+00 7.468279e-01 2.531721e-01
 0.000000e+00 0.000000e+00 0.000000e+00 0.000000e+00 0.000000e+00
<ENDHMM>
~h "W"
<BEGINHMM>
<NUMSTATES> 5
<STATE> 2
<MEAN> 25
 -3.406193e+00 7.097679e-01 -3.740924e+00 2.332232e-01 1.199969e+00 3.526879e+00 1.588912e+00 3.403535e+00 1.034149e+00 -8.704164e-01 3.320882e-01 9.750678e-01 2.348013e-01 5.296212e-01 1.179236e-01 -2.543375e-03 -1.950174e-01 -1.063130e-01 -2.128235e-01 2.159099e-03 4.161476e-02 -1.598155e-02 -6.378244e-02 -2.687483e-02 -1.314078e-01
<VARIANCE> 25
 3.320177e+01 1.966341e+01 2.460039e+01 3.105159e+01 3.315778e+01 2.974221e+01 2.371834e+01 2.601651e+01 2.670068e+01 1.574980e+01 1.612826e+01 1.702970e+01 1.830579e+00 2.454418e+00 1.553832e+00 2.095288e+00 2.419291e+00 2.628808e+00 2.450118e+00 2.457252e+00 1.849704e+00 1.397705e+00 1.709353e+00 1.451551e+00 8.552198e-01
<GCONST> 9.207291e+01
<STATE> 3
<MEAN> 25
 6.941767e+00 1.075231e+01 2.755462e+00 8.222503e-01 -3.107198e+00 -4.681807e+00 -5.644965e+00 -2.418807e+00 -1.452611e+00 -7.577440e-01 2.370314e-01 -7.008978e-01 1.152458e+00 1.392128e+00 7.599076e-01 -3.001355e-01 -1.129033e+00 -1.360477e+00 -1.073413e+00 -2.750882e-01 4.129588e-01 3.968638e-01 -5.073584e-02 -2.915660e-01 4.411741e-01
<VARIANCE> 25
 1.375184e+01 1.986782e+01 1.518726e+01 3.714388e+01 2.691888e+01 2.922187e+01 4.046653e+01 2.379378e+01 2.011657e+01 1.794806e+01 2.210139e+01 2.511073e+01 2.789636e+00 2.188043e+00 1.598080e+00 2.661347e+00 2.749030e+00 3.020856e+00 3.097541e+00 3.417770e+00 3.560289e+00 1.803550e+00 1.990603e+00 2.187973e+00 1.517844e+00
<GCONST> 9.511931e+01
<STATE> 4
<MEAN> 25
 9.985215e+00 1.107676e+01 1.807348e+00 -4.035987e+00 -6.582063e+00 -7.074310e+00 -4.657088e+00 -1.221116e-01 -5.129062e-02 -6.078979e-01 -2.382121e+00 -3.805131e+00 5.016196e-01 -7.628102e-01 -5.004305e-01 -6.404814e-01 -6.315005e-02 8.396242e-02 5.837631e-01 2.904429e-01 -4.710529e-01 -4.210621e-01 -7.915455e-01 -4.063425e-01 7.912160e-01
<VARIANCE> 25
 1.237827e+01 2.154959e+01 1.642269e+01 2.615985e+01 3.407551e+01 3.083571e+01 4.758529e+01 3.923236e+01 3.121319e+01 2.391610e+01 3.036000e+01 3.118112e+01 8.718323e-01 1.664979e+00 1.331127e+00 3.219397e+00 3.869812e+00 2.869711e+00 2.635895e+00 4.702336e+00 4.597863e+00 2.608312e+00 3.335598e+00 3.444260e+00 8.882434e-01
<GCONST> 9.711344e+01
<TRANSP> 5
 0.000000e+00 1.000000e+00 0.000000e+00 0.000000e+00 0.000000e+00
 0.000000e+00 8.652605e-01 1.347395e-01 0.000000e+00 0.000000e+00
 0.000000e+00 0.000000e+00 6.333417e-01 3.666583e-01 0.000000e+00
 0.000000e+00 0.000000e+00 0.000000e+00 7.184672e-01 2.815328e-01
 0.000000e+00 0.000000e+00 0.000000e+00 0.000000e+00 0.000000e+00
<ENDHMM>
~h "Y"
<BEGINHMM>
<NUMSTATES> 5
<STATE> 2
<MEAN> 25
 1.603054e+00 -3.529823e+00 7.902194e+00 1.297410e+01 2.999735e+00 -7.926418e+00 -4.243637e+00 -8.076714e-01 -2.162796e+00 -2.969341e+00 -3.498473e+00 -4.282882e+00 9.834340e-01 -4.966513e-01 4.552700e-01 1.605968e+00 5.623837e-01 -1.777735e+00 -1.309667e+00 -5.235406e-01 -7.968056e-01 6.115375e-01 -3.366641e-01 -1.536557e+00 8.709183e-01
<VARIANCE> 25
 3.222382e+01 2.822246e+01 8.649344e+01 6.703049e+01 3.696097e+01 8.131589e+01 4.750419e+01 5.089704e+01 3.779767e+01 2.861949e+01 3.412242e+01 2.949315e+01 3.207761e+00 4.125269e+00 6.511275e+00 5.815160e+00 3.218431e+00 6.551835e+00 5.476707e+00 4.438982e+00 3.376047e+00 4.344359e+00 3.198375e+00 2.774763e+00 2.244112e+00
<GCONST> 1.092576e+02
<STATE> 3
<MEAN> 25
 6.095579e+00 -2.791625e+00 1.625347e+00 1.349646e+01 5.998113e+00 -7.276988e+00 -7.469957e+00 -5.130356e+00 -4.983949e+00 -1.386958e-01 -5.198929e-01 -7.658726e+00 4.660632e-01 5.034609e-03 -3.774143e-01 -4.401284e-02 6.271554e-01 1.238096e-01 -4.024645e-01 -6.760477e-01 -1.063409e-01 6.515974e-01 3.154723e-01 -3.885694e-01 3.014678e-01
<VARIANCE> 25
 3.731384e+01 2.517246e+01 3.192614e+01 3.748540e+01 3.829858e+01 6.836676e+01 3.996006e+01 8.361243e+01 3.221338e+01 2.975513e+01 2.200981e+01 4.634907e+01 1.234675e+00 1.373581e+00 4.140849e+00 4.737666e+00 1.805689e+00 2.292083e+00 2.671693e+00 4.386918e+00 2.900115e+00 2.874678e+00 3.110909e+00 1.881736e+00 4.493611e-01
<GCONST> 1.001312e+02
<STATE> 4
<MEAN> 25
 5.664738e+00 -2.320145e+00 5.223081e+00 1.422346e+01 1.226365e+01 -8.683344e+00 -1.478023e+01 -2.887331e+00 -2.798041e+00 1.976286e+00 -2.727169e-01 -7.871083e+00 3.244195e-01 4.271501e-01 -6.006362e-01 -9.003721e-01 -9.346828e-04 5.833393e-01 2.315256e-01 -9.360844e-01 -1.872023e-01 3.924615e-01 3.268395e-01 3.505231e-01 7.025849e-02
<VARIANCE> 25
 1.441507e+01 3.138259e+01 3.258758e+01 5.238544e+01 7.325097e+01 6.024002e+01 7.997644e+01 8.054295e+01 3.600147e+01 4.517252e+01 3.504850e+01 4.499006e+01 3.443092e-01 1.002179e+00 1.235050e+00 2.824753e+00 1.993069e+00 1.687583e+00 2.839388e+00 1.763095e+00 2.536078e+00 2.260988e+00 2.424293e+00 1.936787e+00 5.562860e-01
<GCONST> 9.713963e+01
<TRANSP> 5
 0.000000e+00 1.000000e+00 0.000000e+00 0.000000e+00 0.000000e+00
 0.000000e+00 7.065646e-01 2.934354e-01 0.000000e+00 0.000000e+00
 0.000000e+00 0.000000e+00 5.397269e-01 4.602732e-01 0.000000e+00
 0.000000e+00 0.000000e+00 0.000000e+00 7.654784e-01 2.345215e-01
 0.000000e+00 0.000000e+00 0.000000e+00 0.000000e+00 0.000000e+00
<ENDHMM>
~h "Z"
<BEGINHMM>
<NUMSTATES> 5
<STATE> 2
<MEAN> 25
 1.893136e+00 -2.389356e+00 9.870488e+00 5.012406e+00 -5.952983e-01 1.218865e-01 1.649899e+00 -4.678895e+00 -6.147088e+00 -2.544531e+00 -1.605274e+00 -3.327926e-01 -3.225371e+00 -2.242358e+00 3.780185e+00 -9.036909e-01 -1.024935e+00 6.120379e-01 2.060373e+00 1.204701e+00 5.301657e-01 -2.546703e-02 1.228711e+00 4.449545e-01 5.054320e-01
<VARIANCE> 25
 3.045559e+01 5.521595e+01 7.049731e+01 7.852796e+01 5.691715e+01 4.630882e+01 8.143218e+01 6.693906e+01 5.269447e+01 4.352226e+01 3.652102e+01 2.540298e+01 2.324507e+00 7.168100e+00 3.389534e+00 6.132153e+00 7.210194e+00 6.625338e+00 7.909760e+00 5.350886e+00 6.150059e+00 4.998461e+00 2.947709e+00 2.638856e+00 9.034519e-01
<GCONST> 1.118791e+02
<STATE> 3
<MEAN> 25
 -9.585714e+00 -7.958965e+00 1.210553e+01 -1.947933e+00 -1.212762e+00 1.860469e+00 6.406403e-01 2.157753e+00 5.082368e-01 -2.464922e+00 3.099422e+00 1.271532e+00 -8.383592e-01 -2.677568e-01 -2.850654e-01 -6.502604e-01 1.966542e-01 -1.352729e-01 3.674026e-01 1.379324e-01 4.149987e-01 1.414570e-01 1.097688e-01 1.731568e-01 3.592360e-02
<VARIANCE> 25
 3.192221e+01 1.589506e+02 6.771789e+01 7.651813e+01 1.098167e+02 3.722365e+01 5.789904e+01 3.955902e+01 4.400737e+01 2.995802e+01 1.997637e+01 1.826690e+01 4.964358e+00 3.653902e+00 4.313498e+00 3.203083e+00 2.985667e+00 2.049441e+00 2.995145e+00 3.385286e+00 2.343178e+00 1.945750e+00 2.069428e+00 1.378325e+00 1.188249e+00
<GCONST> 1.045573e+02
<STATE> 4
<MEAN> 25
 -1.031326e+01 -6.076664e+00 1.327224e+01 -3.314772e+00 2.322467e-01 -2.446659e+00 9.685769e+00 -3.456961e+00 -2.425868e+00 2.498786e-01 1.031030e+00 9.350005e-02 9.460021e-01 3.717727e-01 -1.360402e+00 4.759197e-01 -1.415453e-01 1.071879e-02 -8.297815e-01 1.093237e-01 -7.121484e-02 -3.768561e-02 -1.541703e-01 -1.011082e-01 -6.211240e-01
<VARIANCE> 25
 5.345721e+01 4.259351e+01 1.121328e+02 5.800312e+01 4.229053e+01 8.689485e+01 1.406783e+02 8.637366e+01 7.327372e+01 4.463491e+01 3.276472e+01 2.909845e+01 5.165050e+00 3.738106e+00 3.902999e+00 3.160855e+00 3.110719e+00 4.501641e+00 6.436814e+00 4.285342e+00 4.582440e+00 3.298178e+00 2.921779e+00 2.157236e+00 1.496671e+00
<GCONST> 1.114143e+02
<TRANSP> 5
 0.000000e+00 1.000000e+00 0.000000e+00 0.000000e+00 0.000000e+00
 0.000000e+00 6.611546e-01 3.388454e-01 0.000000e+00 0.000000e+00
 0.000000e+00 0.000000e+00 7.910191e-01 2.089809e-01 0.000000e+00
 0.000000e+00 0.000000e+00 0.000000e+00 8.266270e-01 1.733730e-01
 0.000000e+00 0.000000e+00 0.000000e+00 0.000000e+00 0.000000e+00
<ENDHMM>
~h "AA"
<BEGINHMM>
<NUMSTATES> 5
<STATE> 2
<MEAN> 25
 -6.091332e-01 4.368343e-01 -3.512796e+00 -1.100450e+00 -1.444579e+00 1.714176e+00 1.184425e+00 3.991126e+00 1.563713e+00 -3.852267e-01 3.715517e-01 8.890559e-01 5.361183e-01 2.182247e-01 -2.316014e-01 -1.511496e-01 -4.339647e-01 -1.656146e-01 2.546203e-01 1.834814e-01 1.179693e-01 -5.925920e-02 -3.613325e-01 -2.389484e-01 2.057838e-01
<VARIANCE> 25
 5.302756e+01 5.225066e+01 3.930407e+01 3.317852e+01 3.879535e+01 4.104141e+01 2.911942e+01 4.515209e+01 3.414091e+01 1.959900e+01 2.190159e+01 1.606396e+01 2.042804e+00 2.546457e+00 1.969509e+00 1.972037e+00 2.367447e+00 2.284844e+00 2.150333e+00 2.787601e+00 2.275818e+00 1.793653e+00 1.984890e+00 1.570094e+00 1.354685e+00
<GCONST> 9.730211e+01
<STATE> 3
<MEAN> 25
 1.010563e+01 9.289907e-01 -3.440541e+00 -5.655685e+00 -1.125970e+01 -5.662612e+00 3.709414e+00 4.912114e+00 3.534322e+00 -9.769139e-02 -4.142353e+00 -3.779502e+00 1.343539e+00 -3.683284e-01 -4.138621e-01 -7.476202e-01 -1.051477e+00 -4.207694e-01 8.297477e-01 -2.988126e-01 2.530862e-01 3.055499e-01 -1.031471e+00 -7.655618e-01 1.530470e+00
<VARIANCE> 25
 2.258972e+01 5.574320e+01 4.039537e+01 3.948458e+01 5.201607e+01 4.288302e+01 6.727374e+01 5.891133e+01 5.835535e+01 5.213381e+01 3.566061e+01 2.998960e+01 2.573801e+00 4.655728e+00 2.886224e+00 3.925993e+00 4.045813e+00 4.162872e+00 3.054287e+00 4.261375e+00 3.448999e+00 3.468469e+00 3.552010e+00 2.800622e+00 3.066223e+00
<GCONST> 1.076506e+02
<STATE> 4
<MEAN> 25
 1.105044e+01 1.110407e+00 -3.089966e+00 -7.171925e+00 -1.169143e+01 -4.217169e+00 4.681616e+00 4.183756e+00 3.413904e+00 -8.800958e-01 -6.119148e+00 -3.127082e+00 -3.229679e-01 1.286533e-01 8.124214e-02 4.183924e-01 8.141209e-01 4.843283e-01 -1.168730e-01 -4.741951e-01 -5.568933e-01 -1.647299e-01 2.337065e-01 2.177560e-01 -3.218713e-01
<VARIANCE> 25
 1.486906e+01 3.271945e+01 3.262969e+01 3.404367e+01 4.569131e+01 3.467370e+01 5.949731e+01 5.142995e+01 4.629816e+01 5.174938e+01 3.453889e+01 2.558340e+01 5.255482e-01 1.464213e+00 1.305038e+00 1.611751e+00 2.363304e+00 2.100081e+00 2.384647e+00 2.550609e+00 2.314788e+00 2.120186e+00 1.749287e+00 1.593602e+00 8.149437e-01
<GCONST> 9.540700e+01
<TRANSP> 5
 0.000000e+00 1.000000e+00 0.000000e+00 0.000000e+00 0.000000e+00
 0.000000e+00 7.939909e-01 2.060091e-01 0.000000e+00 0.000000e+00
 0.000000e+00 0.000000e+00 6.298274e-01 3.701726e-01 0.000000e+00
 0.000000e+00 0.000000e+00 0.000000e+00 8.570300e-01 1.429700e-01
 0.000000e+00 0.000000e+00 0.000000e+00 0.000000e+00 0.000000e+00
<ENDHMM>
~h "AE"
<BEGINHMM>
<NUMSTATES> 5
<STATE> 2
<MEAN> 25
 5.207838e+00 -5.544244e+00 -4.678012e+00 -1.259999e+00 -1.805526e+00 -1.634284e+00 6.609592e-01 -1.213184e+00 3.163614e+00 2.253005e+00 7.473738e-02 -3.804982e-01 1.000097e+00 -2.829759e-01 -6.102051e-01 -5.313900e-01 -4.309292e-01 3.879992e-02 4.973651e-01 -1.396202e-01 3.301426e-01 2.800782e-01 -3.053454e-01 -2.931062e-01 1.034076e+00
<VARIANCE> 25
 4.593130e+01 7.597556e+01 4.934885e+01 4.752483e+01 4.550003e+01 4.481347e+01 4.734587e+01 6.249749e+01 6.384224e+01 6.396912e+01 3.046054e+01 2.149792e+01 2.924057e+00 6.170103e+00 4.097847e+00 3.261707e+00 4.326483e+00 4.177204e+00 4.240453e+00 6.044919e+00 4.818491e+00 4.046594e+00 2.716666e+00 2.101959e+00 3.086503e+00
<GCONST> 1.097400e+02
<STATE> 3
<MEAN> 25
 1.041266e+01 -5.196189e+00 -8.346795e+00 -3.603732e+00 -3.439651e+00 -1.987390e+00 4.823977e+00 -2.301460e+00 1.688450e+00 6.509933e-01 -2.385609e+00 -4.167465e-01 6.727268e-02 9.988952e-02 7.763702e-02 -7.811947e-02 -1.112973e-01 -3.408001e-02 7.596757e-02 -2.113487e-01 -5.893609e-02 8.451407e-02 -2.081329e-01 9.847046e-02 3.181629e-03
<VARIANCE> 25
 1.943762e+01 4.002232e+01 2.797266e+01 3.060065e+01 2.602952e+01 2.683714e+01 6.421104e+01 3.823259e+01 3.937562e+01 4.437233e+01 1.514042e+01 1.605638e+01 4.194038e-01 9.960659e-01 1.014909e+00 1.193234e+00 1.361442e+00 1.350933e+00 1.675552e+00 1.729203e+00 1.432532e+00 1.247543e+00 1.006530e+00 1.005491e+00 4.167216e-01
<GCONST> 8.737897e+01
<STATE> 4
<MEAN> 25
 7.623776e+00 -1.820827e+00 -5.437201e+00 -4.997140e+00 -3.096100e+00 1.370080e+00 2.743365e+00 -2.638076e+00 2.463632e+00 4.761415e+00 -1.219473e+00 -6.663382e-01 -6.964689e-01 7.672964e-01 5.198801e-01 4.768729e-01 6.985196e-01 5.503760e-01 -3.138441e-01 2.417364e-01 -3.348804e-01 -4.903403e-01 3.241309e-01 1.654842e-01 -1.006490e+00
<VARIANCE> 25
 3.247932e+01 3.018392e+01 2.953759e+01 4.029182e+01 3.857533e+01 4.851845e+01 4.665014e+01 5.705095e+01 4.645020e+01 5.484084e+01 3.062396e+01 2.993777e+01 1.050455e+00 1.646814e+00 2.394480e+00 2.170222e+00 2.661294e+00 3.002641e+00 2.812279e+00 3.177263e+00 2.721127e+00 2.931224e+00 2.075464e+00 1.802903e+00 9.230164e-01
<GCONST> 9.978188e+01
<TRANSP> 5
 0.000000e+00 1.000000e+00 0.000000e+00 0.000000e+00 0.000000e+00
 0.000000e+00 7.026231e-01 2.973769e-01 0.000000e+00 0.000000e+00
 0.000000e+00 0.000000e+00 7.818471e-01 2.181529e-01 0.000000e+00
 0.000000e+00 0.000000e+00 0.000000e+00 7.312036e-01 2.687964e-01
 0.000000e+00 0.000000e+00 0.000000e+00 0.000000e+00 0.000000e+00
<ENDHMM>
~h "AH"
<BEGINHMM>
<NUMSTATES> 5
<STATE> 2
<MEAN> 25
 5.139120e+00 -1.360925e+00 7.971907e-01 2.609245e-01 -1.799005e+00 -3.801414e+00 -1.588841e+00 -3.756259e+00 -3.204839e+00 -1.854035e+00 -1.105763e+00 -2.054425e-01 1.431762e+00 7.130276e-02 -5.729047e-01 -8.152723e-03 -6.144533e-01 -7.051211e-01 -8.397402e-02 -5.313920e-01 -4.449624e-01 1.695256e-01 -4.396304e-01 -2.988375e-01 8.091781e-01
<VARIANCE> 25
 4.313408e+01 6.405273e+01 5.414394e+01 6.647779e+01 6.485753e+01 5.627174e+01 5.444165e+01 5.411368e+01 4.869286e+01 4.156406e+01 3.437623e+01 2.527031e+01 4.853250e+00 6.838539e+00 4.542378e+00 4.456756e+00 6.313586e+00 5.212167e+00 4.825403e+00 4.588882e+00 4.760522e+00 3.839431e+00 3.513131e+00 2.804895e+00 2.989703e+00
<GCONST> 1.120199e+02
<STATE> 3
<MEAN> 25
 7.974876e+00 -2.550267e-01 -2.233390e+00 5.292659e-01 -1.909486e+00 -4.317465e+00 -1.631399e+00 -3.642170e+00 -3.541681e+00 -1.783759e+00 -1.830862e+00 -8.126284e-01 -3.839518e-02 3.836555e-01 3.063377e-03 -2.806767e-02 8.312936e-02 2.865185e-01 1.026592e-01 2.336010e-01 2.421373e-01 1.555925e-02 -1.658947e-01 -1.387165e-01 -2.566150e-01
<VARIANCE> 25
 3.032139e+01 5.039357e+01 3.134935e+01 4.606073e+01 5.671652e+01 4.545528e+01 5.353772e+01 5.657410e+01 4.205815e+01 3.620861e+01 2.997345e+01 2.507715e+01 1.169279e+00 2.304154e+00 1.708738e+00 2.225876e+00 2.661663e+00 2.646972e+00 2.406930e+00 2.348437e+00 2.364584e+00 1.941652e+00 1.678787e+00 1.556948e+00 1.011420e+00
<GCONST> 9.888292e+01
<STATE> 4
<MEAN> 25
 6.602024e+00 1.316909e+00 -9.664384e-02 -2.392239e+00 -3.649480e+00 -1.290623e+00 -9.792384e-01 -1.887263e+00 8.390195e-01 8.865426e-01 -3.515684e+00 -1.489347e+00 -4.383324e-01 4.834329e-01 3.421274e-01 2.157869e-01 5.945764e-01 6.831083e-01 1.561638e-01 3.725278e-01 2.000680e-01 -2.508986e-02 1.917668e-01 5.026399e-02 -5.560926e-01
<VARIANCE> 25
 4.157614e+01 3.652850e+01 3.591418e+01 5.025358e+01 8.404469e+01 5.038001e+01 5.793258e+01 5.977519e+01 6.901495e+01 5.319908e+01 4.633421e+01 3.311847e+01 2.325619e+00 2.882039e+00 2.518917e+00 2.815546e+00 3.872144e+00 3.994291e+00 3.308688e+00 3.647427e+00 3.864559e+00 3.239213e+00 2.680223e+00 2.244035e+00 2.176033e+00
<GCONST> 1.070055e+02
<TRANSP> 5
 0.000000e+00 1.000000e+00 0.000000e+00 0.000000e+00 0.000000e+00
 0.000000e+00 5.576616e-01 4.423384e-01 0.000000e+00 0.000000e+00
 0.000000e+00 0.000000e+00 6.677320e-01 3.322680e-01 0.000000e+00
 0.000000e+00 0.000000e+00 0.000000e+00 6.459624e-01 3.540376e-01
 0.000000e+00 0.000000e+00 0.000000e+00 0.000000e+00 0.000000e+00
<ENDHMM>
~h "AO"
<BEGINHMM>
<NUMSTATES> 5
<STATE> 2
<MEAN> 25
 9.441160e+00 4.938206e+00 -9.925072e-02 -5.611664e+00 -7.025040e+00 -6.979209e+00 -2.311976e+00 4.838803e-01 4.985856e-01 3.621051e-01 -3.025167e+00 -3.691684e+00 1.292049e+00 8.333946e-01 -3.563952e-01 -9.913040e-01 -1.535707e+00 -7.369446e-01 1.308647e-01 -6.875269e-02 3.076861e-01 6.730657e-01 -2.935319e-01 -6.867125e-01 5.132338e-01
<VARIANCE> 25
 2.557725e+01 4.421145e+01 2.577236e+01 3.519062e+01 6.917499e+01 5.483318e+01 5.538746e+01 4.766445e+01 5.591500e+01 5.015393e+01 3.235419e+01 2.958415e+01 2.507166e+00 3.872329e+00 3.088515e+00 2.946752e+00 4.191635e+00 4.441641e+00 4.567072e+00 4.191930e+00 4.059725e+00 3.076328e+00 3.081075e+00 2.276769e+00 1.536972e+00
<GCONST> 1.059703e+02
<STATE> 3
<MEAN> 25
 1.132484e+01 7.506547e+00 -1.375515e+00 -8.376746e+00 -1.051722e+01 -5.585814e+00 -7.431874e-01 1.351408e-01 7.803252e-01 2.383074e+00 -1.935946e+00 -5.266066e+00 7.261363e-02 -1.992193e-01 -7.319549e-01 -5.014924e-01 2.105378e-01 1.000555e+00 9.878560e-01 -1.503615e-01 -8.871819e-01 -4.547992e-01 1.118990e-01 3.297598e-01 3.329205e-02
<VARIANCE> 25
 1.833951e+01 3.784237e+01 1.857978e+01 2.443086e+01 4.099166e+01 4.097823e+01 5.388490e+01 3.819482e+01 5.285647e+01 3.766997e+01 2.814779e+01 2.819821e+01 1.975740e-01 6.227998e-01 8.491233e-01 1.068655e+00 1.309478e+00 1.742380e+00 1.764630e+00 1.858798e+00 2.107803e+00 2.288534e+00 1.488058e+00 1.476887e+00 1.957572e-01
<GCONST> 8.848696e+01
<STATE> 4
<MEAN> 25
 5.179587e+00 3.416606e+00 -4.935723e+00 -6.142692e+00 -5.291593e+00 1.100274e+00 3.666412e+00 2.529636e+00 -2.875134e-01 -1.261373e+00 -1.624239e+00 4.829168e-03 -5.222750e-01 -2.016767e-01 -1.288095e-01 4.182630e-01 8.596447e-01 6.391358e-01 1.008839e-01 -2.178929e-01 -3.882312e-01 -2.794186e-01 3.596342e-01 5.018300e-01 -3.771197e-01
<VARIANCE> 25
 5.676173e+01 3.461823e+01 2.165250e+01 3.603081e+01 4.109261e+01 3.934402e+01 3.803030e+01 4.991334e+01 6.276684e+01 3.603962e+01 2.256685e+01 2.192158e+01 6.688430e-01 9.982153e-01 9.554381e-01 1.263520e+00 1.604580e+00 2.099056e+00 1.795617e+00 2.123529e+00 2.252780e+00 1.994224e+00 1.431754e+00 1.648855e+00 4.209129e-01
<GCONST> 9.288769e+01
<TRANSP> 5
 0.000000e+00 1.000000e+00 0.000000e+00 0.000000e+00 0.000000e+00
 0.000000e+00 6.396152e-01 3.603848e-01 0.000000e+00 0.000000e+00
 0.000000e+00 0.000000e+00 7.454613e-01 2.545387e-01 0.000000e+00
 0.000000e+00 0.000000e+00 0.000000e+00 7.244788e-01 2.755212e-01
 0.000000e+00 0.000000e+00 0.000000e+00 0.000000e+00 0.000000e+00
<ENDHMM>
~h "AW"
<BEGINHMM>
<NUMSTATES> 5
<STATE> 2
<MEAN> 25
 5.972213e+00 -3.705986e+00 -7.211427e+00 -5.452623e+00 -3.388286e+00 1.644235e+00 3.561664e+00 -2.107080e+00 2.180370e+00 5.330186e+00 -3.921732e+00 -1.403146e+00 1.437549e+00 1.238356e+00 7.520134e-01 -5.990564e-01 -6.839343e-01 -5.684512e-01 4.435920e-01 -1.119599e+00 -7.515707e-01 4.107766e-01 -7.779035e-01 -7.896663e-02 1.015604e+00
<VARIANCE> 25
 5.448427e+01 4.651437e+01 3.663732e+01 3.743134e+01 3.859626e+01 3.585095e+01 4.753839e+01 4.695481e+01 6.688580e+01 1.014386e+02 3.730520e+01 2.125190e+01 2.467174e+00 4.474929e+00 5.539749e+00 3.493963e+00 4.517952e+00 5.537070e+00 1.942235e+00 5.782070e+00 5.064092e+00 3.853184e+00 2.425788e+00 2.155601e+00 1.134786e+00
<GCONST> 1.072039e+02
<STATE> 3
<MEAN> 25
 1.230112e+01 1.505564e+00 -6.102654e+00 -6.296487e+00 -6.649786e+00 -3.429876e+00 3.117427e+00 7.277974e-01 5.957139e-01 1.019961e+00 -4.063522e+00 -2.501409e+00 -1.804839e-01 5.916698e-01 4.461101e-01 4.216038e-01 -1.279647e-01 9.286222e-03 -2.686610e-01 4.929054e-01 -8.529118e-02 -5.983610e-01 1.616204e-01 4.601919e-02 -5.840146e-01
<VARIANCE> 25
 1.673738e+01 4.572269e+01 2.065642e+01 1.628967e+01 3.365967e+01 3.416468e+01 2.511460e+01 3.783974e+01 2.012942e+01 6.315247e+01 2.270306e+01 2.168783e+01 6.884330e-01 1.159383e+00 1.258662e+00 1.204407e+00 1.796307e+00 2.027411e+00 2.065157e+00 2.687786e+00 1.662268e+00 2.071036e+00 1.896619e+00 1.836411e+00 6.052088e-01
<GCONST> 9.083595e+01
<STATE> 4
<MEAN> 25
 3.133375e+00 3.737549e-01 2.707042e+00 -1.827848e+00 -3.141892e+00 -6.975608e+00 6.062728e+00 9.080001e+00 -2.385895e+00 -3.246635e+00 -2.383337e+00 3.376171e+00 -3.212334e+00 -2.881868e+00 2.878613e+00 2.078807e-02 1.462378e+00 -2.162358e+00 1.605758e+00 6.971126e-01 -8.164718e-01 -6.412342e-01 -7.859744e-02 1.500015e+00 7.735534e-01
<VARIANCE> 25
 6.766269e+01 7.326783e+01 6.782491e+01 2.580828e+01 2.951589e+01 1.164446e+02 4.558020e+01 1.104163e+02 3.810192e+01 2.126542e+01 2.587537e+01 3.849258e+01 4.468513e+00 5.326143e+00 6.236320e+00 4.384511e+00 3.424453e+00 1.759992e+01 3.160684e+00 6.457790e+00 4.146427e+00 2.251471e+00 3.182759e+00 2.409596e+00 1.952129e+00
<GCONST> 1.107234e+02
<TRANSP> 5
 0.000000e+00 1.000000e+00 0.000000e+00 0.000000e+00 0.000000e+00
 0.000000e+00 7.651677e-01 2.348323e-01 0.000000e+00 0.000000e+00
 0.000000e+00 0.000000e+00 8.926480e-01 1.073519e-01 0.000000e+00
 0.000000e+00 0.000000e+00 0.000000e+00 5.644709e-01 4.355291e-01
 0.000000e+00 0.000000e+00 0.000000e+00 0.000000e+00 0.000000e+00
<ENDHMM>
~h "AY"
<BEGINHMM>
<NUMSTATES> 5
<STATE> 2
<MEAN> 25
 1.008299e+01 -5.041292e-01 -3.833526e+00 -6.424470e+00 -9.510975e+00 -3.369472e+00 2.758103e+00 8.566664e-01 4.813149e+00 2.236364e+00 -3.418157e+00 -2.142239e+00 9.219667e-01 -7.844142e-01 -8.719731e-01 -6.501653e-01 -5.234243e-01 2.886358e-01 3.729663e-01 -3.075694e-01 3.754706e-01 5.957117e-01 -3.975060e-01 -4.043696e-01 1.131318e+00
<VARIANCE> 25
 3.422969e+01 2.572508e+01 2.906214e+01 2.785942e+01 5.810086e+01 3.039459e+01 3.860414e+01 3.928651e+01 5.323011e+01 7.039800e+01 4.249212e+01 3.462815e+01 2.901705e+00 2.923476e+00 3.239055e+00 3.083301e+00 4.433356e+00 4.563087e+00 4.258763e+00 3.764315e+00 4.611094e+00 3.553894e+00 4.295779e+00 2.922487e+00 2.850083e+00
<GCONST> 1.063426e+02
<STATE> 3
<MEAN> 25
 1.172612e+01 -3.124973e+00 -6.676970e+00 -5.149993e+00 -6.506952e+00 -2.138778e+00 2.271452e+00 -2.678518e+00 1.964664e+00 3.772020e+00 -2.387287e+00 -2.786829e+00 -8.459383e-02 -2.987540e-01 -1.061748e-02 9.453216e-01 9.582246e-01 -1.942787e-01 -8.315050e-01 -1.152146e+00 -4.556209e-01 5.403284e-01 5.883449e-01 1.573625e-01 -1.829835e-03
<VARIANCE> 25
 1.680915e+01 2.765270e+01 2.423756e+01 2.595418e+01 3.725760e+01 4.154710e+01 4.147300e+01 3.936975e+01 3.760867e+01 7.010079e+01 2.925632e+01 2.420087e+01 3.121698e-01 7.341675e-01 8.495367e-01 1.605701e+00 1.290412e+00 2.006683e+00 1.721521e+00 1.663087e+00 1.424112e+00 1.484424e+00 1.520904e+00 1.261644e+00 2.288800e-01
<GCONST> 8.848151e+01
<STATE> 4
<MEAN> 25
 8.543965e+00 -2.173030e+00 -2.363870e+00 3.744718e+00 1.666604e+00 -5.046987e+00 -7.426761e+00 -8.789487e+00 -1.253771e+00 6.004350e+00 -2.680843e-01 -2.673402e+00 -4.897781e-01 4.383113e-01 5.892282e-01 7.790062e-01 9.309430e-01 -2.598153e-02 -4.947206e-01 1.071210e-02 -3.149847e-01 -4.668728e-01 -3.277510e-03 -5.023577e-02 -5.688851e-01
<VARIANCE> 25
 2.224778e+01 2.294166e+01 2.576382e+01 2.399602e+01 3.257468e+01 4.790577e+01 4.164602e+01 3.762490e+01 3.699090e+01 3.708729e+01 2.306989e+01 1.617210e+01 4.537402e-01 9.701624e-01 1.424937e+00 1.677878e+00 1.668624e+00 2.724528e+00 2.688473e+00 1.945597e+00 1.789478e+00 1.583604e+00 1.636776e+00 1.396849e+00 3.736064e-01
<GCONST> 9.056837e+01
<TRANSP> 5
 0.000000e+00 1.000000e+00 0.000000e+00 0.000000e+00 0.000000e+00
 0.000000e+00 6.676515e-01 3.323486e-01 0.000000e+00 0.000000e+00
 0.000000e+00 0.000000e+00 8.041412e-01 1.958589e-01 0.000000e+00
 0.000000e+00 0.000000e+00 0.000000e+00 8.233266e-01 1.766734e-01
 0.000000e+00 0.000000e+00 0.000000e+00 0.000000e+00 0.000000e+00
<ENDHMM>
~h "CH"
<BEGINHMM>
<NUMSTATES> 5
<STATE> 2
<MEAN> 25
 -2.174398e+00 -6.876802e+00 1.346165e+00 5.531871e+00 1.905391e+00 -2.436628e+00 -3.420562e+00 1.732000e+00 4.452090e+00 -3.392274e+00 -2.014271e+00 1.251600e+00 -2.007069e+00 -4.779037e+00 1.507481e+00 5.534165e-01 -1.068556e+00 -2.319476e-01 -5.786611e-01 5.936927e-01 2.034525e+00 -1.198122e-01 4.764918e-01 6.565265e-01 1.774524e+00
<VARIANCE> 25
 2.081362e+01 1.059793e+02 6.657461e+01 4.696403e+01 3.787226e+01 4.637748e+01 4.558285e+01 4.104594e+01 4.396618e+01 3.614321e+01 2.772006e+01 1.624554e+01 2.734335e+00 8.520195e+00 8.256470e+00 3.928787e+00 5.015207e+00 5.790771e+00 4.357283e+00 4.540198e+00 3.866870e+00 3.901258e+00 2.281588e+00 1.875985e+00 5.580247e+00
<GCONST> 1.090478e+02
<STATE> 3
<MEAN> 25
 -1.019112e+01 -2.389900e+01 9.462019e+00 6.555759e+00 1.668955e+00 -3.699242e+00 -6.291502e+00 3.049415e+00 1.074454e+01 -2.047121e+00 9.345841e-02 2.010101e+00 -3.821383e-01 -8.439438e-01 2.338405e-01 -1.120643e-01 2.186912e-01 8.441944e-02 -5.657421e-02 -6.086730e-01 1.914663e-01 5.512663e-01 2.466510e-01 3.818865e-02 4.826575e-01
<VARIANCE> 25
 2.546636e+01 5.055785e+01 4.020770e+01 3.029742e+01 6.184928e+01 3.458681e+01 5.452412e+01 6.092884e+01 2.798694e+01 3.363415e+01 2.363599e+01 1.597336e+01 1.675106e+00 2.801561e+00 3.275266e+00 1.567948e+00 2.485806e+00 1.947529e+00 2.324486e+00 1.937343e+00 1.759501e+00 1.363341e+00 1.181705e+00 1.028284e+00 1.174805e+00
<GCONST> 9.626514e+01
<STATE> 4
<MEAN> 25
 -4.603426e+00 -1.266086e+01 1.921853e+00 4.896428e+00 1.752442e-01 -1.070090e+00 -4.793806e+00 2.251560e+00 6.689200e+00 -1.624834e+00 -1.245058e+00 2.050694e+00 1.462543e+00 2.452104e+00 -1.082297e+00 -2.991207e-01 4.712304e-01 1.079393e-01 -6.199689e-02 -2.640439e-01 -1.167915e+00 1.057361e-01 -2.197055e-01 -1.458162e-01 -9.211800e-01
<VARIANCE> 25
 2.657402e+01 1.203067e+02 8.356051e+01 3.135332e+01 3.389775e+01 3.913481e+01 4.540632e+01 6.609604e+01 2.905271e+01 2.623609e+01 2.362584e+01 1.907129e+01 2.751425e+00 5.192899e+00 2.397398e+00 2.431887e+00 2.186702e+00 2.427491e+00 3.385957e+00 3.630765e+00 2.792155e+00 1.714315e+00 2.255623e+00 1.915846e+00 1.061335e+00
<GCONST> 1.015214e+02
<TRANSP> 5
 0.000000e+00 1.000000e+00 0.000000e+00 0.000000e+00 0.000000e+00
 0.000000e+00 7.463437e-01 2.536564e-01 0.000000e+00 0.000000e+00
 0.000000e+00 0.000000e+00 7.339520e-01 2.660479e-01 0.000000e+00
 0.000000e+00 0.000000e+00 0.000000e+00 8.190727e-01 1.809274e-01
 0.000000e+00 0.000000e+00 0.000000e+00 0.000000e+00 0.000000e+00
<ENDHMM>
~h "DH"
<BEGINHMM>
<NUMSTATES> 5
<STATE> 2
<MEAN> 25
 -4.838524e+00 2.203421e+00 -3.288182e+00 8.324940e-01 -5.687774e-01 5.298051e+00 -1.683128e-01 4.024866e+00 1.667370e+00 8.009191e-01 1.826321e-01 2.085840e+00 -5.111675e-02 8.445920e-02 3.377421e-02 8.417081e-03 1.937477e-02 4.494561e-02 2.918683e-02 1.709132e-02 4.292336e-02 -3.669307e-02 5.617478e-02 7.496376e-02 -8.300454e-02
<VARIANCE> 25
 1.927586e+01 2.329659e+01 3.193038e+01 2.400786e+01 2.055566e+01 2.553225e+01 1.992079e+01 3.039501e+01 2.187264e+01 1.968243e+01 1.803848e+01 1.434277e+01 9.187031e-01 1.267988e+00 1.545666e+00 1.368075e+00 1.464385e+00 1.680889e+00 1.667157e+00 2.024569e+00 1.894866e+00 1.453488e+00 1.412312e+00 1.201111e+00 9.615177e-01
<GCONST> 8.750696e+01
<STATE> 3
<MEAN> 25
 1.733197e+00 8.376245e+00 6.399322e+00 3.853301e+00 2.413791e+00 4.985627e+00 -3.640826e+00 -1.586886e+00 -1.689070e+00 -3.123432e+00 -5.750272e-01 1.445046e+00 5.152764e-01 1.640290e-02 7.502146e-01 -8.416255e-02 2.578227e-01 -6.021903e-01 -3.988854e-01 -5.015944e-01 -4.202152e-01 -2.741769e-01 -7.989241e-03 1.236987e-02 9.911561e-01
<VARIANCE> 25
 3.101599e+01 4.714286e+01 3.153703e+01 3.869242e+01 2.387541e+01 3.133601e+01 2.998214e+01 3.228962e+01 2.423692e+01 1.778650e+01 2.060933e+01 1.423737e+01 2.938214e+00 4.187109e+00 3.343107e+00 3.314032e+00 3.218660e+00 2.961983e+00 2.972791e+00 4.427285e+00 2.894510e+00 1.880850e+00 1.917520e+00 1.430856e+00 2.089028e+00
<GCONST> 9.876985e+01
<STATE> 4
<MEAN> 25
 -2.693546e+00 1.913165e+00 8.839409e+00 -2.864392e+00 5.676902e+00 -2.142232e+00 -7.690090e-01 -3.500269e+00 1.716981e+00 -1.660709e+00 -2.139094e+00 -1.045829e+00 8.136968e-01 -6.882404e-01 -1.577533e-01 -2.042610e-01 -5.464760e-01 -9.049432e-01 -4.741963e-01 -8.229545e-01 -4.467072e-01 4.333422e-02 -4.776564e-01 -2.996002e-01 9.824319e-01
<VARIANCE> 25
 7.597242e+01 5.269722e+01 5.442611e+01 1.116969e+02 1.007056e+02 6.844436e+01 9.939758e+01 7.014059e+01 5.447846e+01 4.835884e+01 5.136019e+01 4.178193e+01 6.444996e+00 3.281066e+00 3.195751e+00 6.178832e+00 7.189839e+00 6.866851e+00 6.639634e+00 6.028519e+00 6.018058e+00 4.596940e+00 4.593945e+00 3.146473e+00 2.848458e+00
<GCONST> 1.168514e+02
<TRANSP> 5
 0.000000e+00 1.000000e+00 0.000000e+00 0.000000e+00 0.000000e+00
 0.000000e+00 9.322264e-01 6.777357e-02 0.000000e+00 0.000000e+00
 0.000000e+00 0.000000e+00 6.566508e-01 3.433492e-01 0.000000e+00
 0.000000e+00 0.000000e+00 0.000000e+00 7.632008e-01 2.367992e-01
 0.000000e+00 0.000000e+00 0.000000e+00 0.000000e+00 0.000000e+00
<ENDHMM>
~h "EA"
<BEGINHMM>
<NUMSTATES> 5
<STATE> 2
<MEAN> 25
 4.895706e-08 5.076081e-09 -1.264615e-08 -1.239821e-08 1.680221e-09 -1.071540e-08 -3.051177e-09 -1.586750e-08 1.878219e-08 1.421925e-08 -2.732238e-08 2.722044e-08 3.771409e-04 8.000820e-03 2.929726e-03 3.659504e-03 1.566812e-03 4.612614e-03 2.093330e-03 1.978985e-03 6.350414e-04 -1.866405e-03 5.988384e-04 1.840518e-03 -7.231131e-03
<VARIANCE> 25
 8.019868e+01 6.425425e+01 6.170111e+01 5.474755e+01 5.721574e+01 6.726498e+01 5.709329e+01 5.988584e+01 5.147332e+01 3.365235e+01 3.042003e+01 2.671571e+01 2.531703e+00 3.121265e+00 2.552349e+00 2.542973e+00 2.903971e+00 3.553263e+00 2.928286e+00 2.850567e+00 2.801052e+00 2.164194e+00 2.094235e+00 1.716475e+00 1.694484e+00
<GCONST> 1.051717e+02
<STATE> 3
<MEAN> 25
 4.895706e-08 5.076081e-09 -1.264615e-08 -1.239821e-08 1.680221e-09 -1.071540e-08 -3.051177e-09 -1.586750e-08 1.878219e-08 1.421925e-08 -2.732238e-08 2.722044e-08 3.771409e-04 8.000820e-03 2.929726e-03 3.659504e-03 1.566812e-03 4.612614e-03 2.093330e-03 1.978985e-03 6.350414e-04 -1.866405e-03 5.988384e-04 1.840518e-03 -7.231131e-03
<VARIANCE> 25
 8.019868e+01 6.425425e+01 6.170111e+01 5.474755e+01 5.721574e+01 6.726498e+01 5.709329e+01 5.988584e+01 5.147332e+01 3.365235e+01 3.042003e+01 2.671571e+01 2.531703e+00 3.121265e+00 2.552349e+00 2.542973e+00 2.903971e+00 3.553263e+00 2.928286e+00 2.850567e+00 2.801052e+00 2.164194e+00 2.094235e+00 1.716475e+00 1.694484e+00
<GCONST> 1.051717e+02
<STATE> 4
<MEAN> 25
 4.895706e-08 5.076081e-09 -1.264615e-08 -1.239821e-08 1.680221e-09 -1.071540e-08 -3.051177e-09 -1.586750e-08 1.878219e-08 1.421925e-08 -2.732238e-08 2.722044e-08 3.771409e-04 8.000820e-03 2.929726e-03 3.659504e-03 1.566812e-03 4.612614e-03 2.093330e-03 1.978985e-03 6.350414e-04 -1.866405e-03 5.988384e-04 1.840518e-03 -7.231131e-03
<VARIANCE> 25
 8.019868e+01 6.425425e+01 6.170111e+01 5.474755e+01 5.721574e+01 6.726498e+01 5.709329e+01 5.988584e+01 5.147332e+01 3.365235e+01 3.042003e+01 2.671571e+01 2.531703e+00 3.121265e+00 2.552349e+00 2.542973e+00 2.903971e+00 3.553263e+00 2.928286e+00 2.850567e+00 2.801052e+00 2.164194e+00 2.094235e+00 1.716475e+00 1.694484e+00
<GCONST> 1.051717e+02
<TRANSP> 5
 0.000000e+00 1.000000e+00 0.000000e+00 0.000000e+00 0.000000e+00
 0.000000e+00 6.000000e-01 4.000000e-01 0.000000e+00 0.000000e+00
 0.000000e+00 0.000000e+00 6.000000e-01 4.000000e-01 0.000000e+00
 0.000000e+00 0.000000e+00 0.000000e+00 7.000000e-01 3.000000e-01
 0.000000e+00 0.000000e+00 0.000000e+00 0.000000e+00 0.000000e+00
<ENDHMM>
~h "EH"
<BEGINHMM>
<NUMSTATES> 5
<STATE> 2
<MEAN> 25
 1.961395e+00 -4.115379e+00 -1.375140e+00 1.225939e-01 -1.214288e+00 -2.557185e+00 -1.058833e+00 -6.679669e-01 1.973247e+00 1.848528e+00 1.280695e+00 2.357316e-01 1.858239e+00 3.599721e-01 -2.868775e-01 -9.393382e-03 -1.605897e-01 -4.977764e-01 -3.975303e-01 -1.109321e+00 -4.168948e-01 5.448440e-01 -1.313827e-01 -1.859793e-01 1.243149e+00
<VARIANCE> 25
 5.979134e+01 7.848332e+01 6.263280e+01 5.073145e+01 5.242315e+01 5.624981e+01 3.899734e+01 5.240854e+01 5.590223e+01 4.449342e+01 2.795457e+01 2.032779e+01 5.606037e+00 9.140561e+00 6.104158e+00 3.901519e+00 4.966940e+00 5.680950e+00 3.968404e+00 4.346773e+00 3.935148e+00 4.077802e+00 2.844280e+00 2.388536e+00 3.084521e+00
<GCONST> 1.113503e+02
<STATE> 3
<MEAN> 25
 9.829683e+00 -2.100511e+00 -3.226605e+00 9.701778e-01 -1.624166e+00 -5.756133e+00 -2.538258e+00 -7.283160e+00 -3.937253e-01 3.806294e+00 4.663130e-01 -1.836629e+00 1.258129e+00 1.546607e-02 -5.682020e-01 -2.094084e-01 -2.716742e-01 -4.475343e-01 -9.897597e-02 -1.058937e+00 -1.000126e+00 1.649448e-01 1.952774e-01 -1.516672e-01 1.111917e+00
<VARIANCE> 25
 1.827787e+01 2.989994e+01 2.706640e+01 4.181584e+01 3.406540e+01 3.815644e+01 3.597482e+01 4.021062e+01 6.347942e+01 4.357292e+01 2.575446e+01 2.448513e+01 1.784779e+00 3.133958e+00 2.449879e+00 2.585355e+00 2.410916e+00 3.329742e+00 3.210899e+00 3.839586e+00 3.950648e+00 2.636548e+00 2.384443e+00 1.775024e+00 1.269053e+00
<GCONST> 1.002875e+02
<STATE> 4
<MEAN> 25
 1.022481e+01 -2.328505e+00 -3.620687e+00 -6.025804e-01 -5.922248e-01 -4.389283e+00 -3.101722e+00 -7.176992e+00 -2.425553e+00 3.965762e+00 2.262026e+00 -4.489187e-01 -1.192851e-01 4.983156e-01 -2.219290e-02 -3.570396e-03 3.101957e-01 4.142694e-01 4.038445e-01 1.140996e-01 -7.041739e-01 -4.951117e-01 1.316922e-01 3.599960e-01 -4.169405e-01
<VARIANCE> 25
 1.367288e+01 3.387899e+01 3.421234e+01 3.674324e+01 4.150384e+01 3.749654e+01 6.123574e+01 4.664880e+01 5.887436e+01 4.561497e+01 3.598027e+01 2.961120e+01 6.437331e-01 1.329703e+00 1.514151e+00 1.983125e+00 1.712213e+00 2.093125e+00 2.316771e+00 2.277660e+00 3.160791e+00 1.987620e+00 1.926440e+00 1.548026e+00 8.581217e-01
<GCONST> 9.605704e+01
<TRANSP> 5
 0.000000e+00 1.000000e+00 0.000000e+00 0.000000e+00 0.000000e+00
 0.000000e+00 5.825952e-01 4.174048e-01 0.000000e+00 0.000000e+00
 0.000000e+00 0.000000e+00 4.937757e-01 5.062243e-01 0.000000e+00
 0.000000e+00 0.000000e+00 0.000000e+00 7.772379e-01 2.227621e-01
 0.000000e+00 0.000000e+00 0.000000e+00 0.000000e+00 0.000000e+00
<ENDHMM>
~h "EN"
<BEGINHMM>
<NUMSTATES> 5
<STATE> 2
<MEAN> 25
 4.895706e-08 5.076081e-09 -1.264615e-08 -1.239821e-08 1.680221e-09 -1.071540e-08 -3.051177e-09 -1.586750e-08 1.878219e-08 1.421925e-08 -2.732238e-08 2.722044e-08 3.771409e-04 8.000820e-03 2.929726e-03 3.659504e-03 1.566812e-03 4.612614e-03 2.093330e-03 1.978985e-03 6.350414e-04 -1.866405e-03 5.988384e-04 1.840518e-03 -7.231131e-03
<VARIANCE> 25
 8.019868e+01 6.425425e+01 6.170111e+01 5.474755e+01 5.721574e+01 6.726498e+01 5.709329e+01 5.988584e+01 5.147332e+01 3.365235e+01 3.042003e+01 2.671571e+01 2.531703e+00 3.121265e+00 2.552349e+00 2.542973e+00 2.903971e+00 3.553263e+00 2.928286e+00 2.850567e+00 2.801052e+00 2.164194e+00 2.094235e+00 1.716475e+00 1.694484e+00
<GCONST> 1.051717e+02
<STATE> 3
<MEAN> 25
 4.895706e-08 5.076081e-09 -1.264615e-08 -1.239821e-08 1.680221e-09 -1.071540e-08 -3.051177e-09 -1.586750e-08 1.878219e-08 1.421925e-08 -2.732238e-08 2.722044e-08 3.771409e-04 8.000820e-03 2.929726e-03 3.659504e-03 1.566812e-03 4.612614e-03 2.093330e-03 1.978985e-03 6.350414e-04 -1.866405e-03 5.988384e-04 1.840518e-03 -7.231131e-03
<VARIANCE> 25
 8.019868e+01 6.425425e+01 6.170111e+01 5.474755e+01 5.721574e+01 6.726498e+01 5.709329e+01 5.988584e+01 5.147332e+01 3.365235e+01 3.042003e+01 2.671571e+01 2.531703e+00 3.121265e+00 2.552349e+00 2.542973e+00 2.903971e+00 3.553263e+00 2.928286e+00 2.850567e+00 2.801052e+00 2.164194e+00 2.094235e+00 1.716475e+00 1.694484e+00
<GCONST> 1.051717e+02
<STATE> 4
<MEAN> 25
 4.895706e-08 5.076081e-09 -1.264615e-08 -1.239821e-08 1.680221e-09 -1.071540e-08 -3.051177e-09 -1.586750e-08 1.878219e-08 1.421925e-08 -2.732238e-08 2.722044e-08 3.771409e-04 8.000820e-03 2.929726e-03 3.659504e-03 1.566812e-03 4.612614e-03 2.093330e-03 1.978985e-03 6.350414e-04 -1.866405e-03 5.988384e-04 1.840518e-03 -7.231131e-03
<VARIANCE> 25
 8.019868e+01 6.425425e+01 6.170111e+01 5.474755e+01 5.721574e+01 6.726498e+01 5.709329e+01 5.988584e+01 5.147332e+01 3.365235e+01 3.042003e+01 2.671571e+01 2.531703e+00 3.121265e+00 2.552349e+00 2.542973e+00 2.903971e+00 3.553263e+00 2.928286e+00 2.850567e+00 2.801052e+00 2.164194e+00 2.094235e+00 1.716475e+00 1.694484e+00
<GCONST> 1.051717e+02
<TRANSP> 5
 0.000000e+00 1.000000e+00 0.000000e+00 0.000000e+00 0.000000e+00
 0.000000e+00 6.000000e-01 4.000000e-01 0.000000e+00 0.000000e+00
 0.000000e+00 0.000000e+00 6.000000e-01 4.000000e-01 0.000000e+00
 0.000000e+00 0.000000e+00 0.000000e+00 7.000000e-01 3.000000e-01
 0.000000e+00 0.000000e+00 0.000000e+00 0.000000e+00 0.000000e+00
<ENDHMM>
~h "ER"
<BEGINHMM>
<NUMSTATES> 5
<STATE> 2
<MEAN> 25
 6.792078e+00 -4.471239e-02 -2.513248e+00 -6.958600e-01 2.238719e+00 -1.300914e+00 -3.463787e+00 -5.427626e+00 -6.281540e+00 -1.267367e+00 1.148506e+00 2.539073e-01 1.953401e+00 1.421672e+00 -1.347953e+00 -6.348132e-01 2.321887e-01 8.617467e-02 1.203380e-01 -1.417682e+00 -2.213615e+00 6.559274e-02 7.367595e-01 -4.485968e-02 5.990899e-01
<VARIANCE> 25
 4.526033e+01 5.044103e+01 4.726807e+01 6.586340e+01 3.350924e+01 6.133078e+01 5.828893e+01 5.993743e+01 5.293071e+01 3.834970e+01 3.312088e+01 2.601889e+01 3.832053e+00 6.352139e+00 5.270020e+00 4.322697e+00 3.965551e+00 5.174532e+00 4.026923e+00 4.021584e+00 4.556635e+00 4.137634e+00 3.049675e+00 2.894398e+00 1.956880e+00
<GCONST> 1.097952e+02
<STATE> 3
<MEAN> 25
 1.082698e+01 9.955185e-01 -6.663287e+00 -7.292147e-01 2.189692e+00 -2.871200e+00 -2.014986e+00 -1.063837e+01 -1.095749e+01 1.504811e+00 5.510100e+00 -9.422252e-01 3.891442e-02 3.505647e-01 -2.962633e-01 -2.195331e-01 1.280691e-01 4.282909e-01 3.058959e-01 -2.436355e-01 -4.235324e-01 -5.868079e-02 3.571517e-01 1.422002e-01 -2.272768e-01
<VARIANCE> 25
 1.872705e+01 3.508752e+01 2.545374e+01 5.526138e+01 2.615793e+01 5.703539e+01 4.755886e+01 5.644778e+01 4.693145e+01 4.396501e+01 3.377839e+01 3.546786e+01 3.130186e-01 1.012460e+00 1.043490e+00 1.554559e+00 1.140623e+00 1.645636e+00 1.681293e+00 1.340301e+00 1.539300e+00 1.493137e+00 1.393003e+00 1.366577e+00 3.583964e-01
<GCONST> 9.083398e+01
<STATE> 4
<MEAN> 25
 7.482996e+00 5.690039e+00 -5.358277e+00 -2.433864e+00 3.724216e+00 4.186784e+00 -1.511640e+00 -5.433662e+00 -9.658523e+00 -3.130834e+00 3.871307e+00 3.074341e+00 -5.820717e-01 -1.411000e-01 2.857589e-01 6.969831e-01 2.177083e-01 1.603343e-01 -1.747779e-01 3.402268e-01 8.924819e-01 8.464132e-02 -4.448216e-01 -1.374335e-01 -5.110816e-01
<VARIANCE> 25
 3.537517e+01 1.886339e+01 1.952429e+01 6.240134e+01 3.250282e+01 3.451934e+01 4.331439e+01 5.983180e+01 5.671130e+01 3.366359e+01 3.236542e+01 2.696255e+01 8.300012e-01 1.271510e+00 1.078544e+00 1.611689e+00 1.754882e+00 1.959458e+00 2.115546e+00 2.209336e+00 2.378529e+00 1.835435e+00 1.621004e+00 1.415271e+00 5.695375e-01
<GCONST> 9.388927e+01
<TRANSP> 5
 0.000000e+00 1.000000e+00 0.000000e+00 0.000000e+00 0.000000e+00
 0.000000e+00 6.654863e-01 3.345137e-01 0.000000e+00 0.000000e+00
 0.000000e+00 0.000000e+00 7.386147e-01 2.613853e-01 0.000000e+00
 0.000000e+00 0.000000e+00 0.000000e+00 8.072624e-01 1.927376e-01
 0.000000e+00 0.000000e+00 0.000000e+00 0.000000e+00 0.000000e+00
<ENDHMM>
~h "EY"
<BEGINHMM>
<NUMSTATES> 5
<STATE> 2
<MEAN> 25
 7.717701e+00 -1.283919e+00 1.190696e+00 6.830098e+00 4.084286e+00 -7.660144e+00 -9.088336e+00 -6.711607e+00 -2.854809e+00 1.687090e+00 -4.635739e-01 -3.424937e+00 8.008978e-01 -9.666415e-01 2.325748e-02 1.335967e+00 1.463256e-01 -2.210693e+00 -1.305428e+00 3.099835e-02 5.668561e-02 6.177271e-01 -4.839508e-01 -1.200772e+00 1.288282e+00
<VARIANCE> 25
 2.503593e+01 3.527995e+01 3.728074e+01 3.793851e+01 4.004285e+01 5.011673e+01 4.986002e+01 5.522802e+01 5.175071e+01 3.114322e+01 3.970872e+01 2.562342e+01 2.629830e+00 4.118038e+00 2.624605e+00 3.324953e+00 3.217422e+00 4.011841e+00 3.819153e+00 5.275442e+00 3.817182e+00 2.610206e+00 3.051378e+00 1.843193e+00 2.245069e+00
<GCONST> 1.047645e+02
<STATE> 3
<MEAN> 25
 7.377711e+00 -4.550066e+00 3.771070e+00 1.177077e+01 3.817312e+00 -1.467317e+01 -1.010228e+01 -5.298428e+00 -2.024212e+00 2.205868e+00 -3.894933e+00 -7.310415e+00 -1.395798e-01 1.293813e-01 2.416173e-01 1.936726e-01 3.190932e-01 -9.254313e-02 -1.943581e-01 7.727414e-02 1.901465e-01 1.498646e-01 -3.779103e-01 -3.485313e-01 -1.693852e-01
<VARIANCE> 25
 1.500359e+01 2.104356e+01 3.600261e+01 3.069760e+01 3.568448e+01 5.635205e+01 5.661119e+01 3.525089e+01 3.979556e+01 2.534406e+01 3.497271e+01 1.892783e+01 2.175785e-01 6.252488e-01 9.895626e-01 1.108584e+00 8.162465e-01 1.341506e+00 1.113252e+00 1.371219e+00 1.294019e+00 1.336348e+00 1.494045e+00 9.285806e-01 2.175174e-01
<GCONST> 8.528725e+01
<STATE> 4
<MEAN> 25
 6.849046e+00 -5.908046e-01 1.177334e+00 8.630521e+00 7.795560e+00 -7.733578e+00 -1.196596e+01 -5.492248e+00 -8.337513e-01 2.842762e+00 -2.109178e+00 -6.170311e+00 -4.809107e-01 1.148473e+00 -4.739745e-01 -8.069569e-01 8.749475e-02 2.046523e+00 1.219639e+00 -1.566796e-01 -2.740298e-01 -6.303146e-01 4.569567e-01 7.629427e-01 -1.198982e+00
<VARIANCE> 25
 1.797724e+01 1.899776e+01 3.365368e+01 3.402963e+01 3.473594e+01 5.153040e+01 6.399386e+01 5.257838e+01 5.302163e+01 3.005781e+01 2.190565e+01 2.603140e+01 1.111329e+00 1.421283e+00 1.858183e+00 2.976391e+00 2.188423e+00 3.531763e+00 2.762627e+00 2.844798e+00 2.800797e+00 2.580980e+00 2.487309e+00 2.040370e+00 9.191316e-01
<GCONST> 9.794678e+01
<TRANSP> 5
 0.000000e+00 1.000000e+00 0.000000e+00 0.000000e+00 0.000000e+00
 0.000000e+00 6.304473e-01 3.695528e-01 0.000000e+00 0.000000e+00
 0.000000e+00 0.000000e+00 7.955270e-01 2.044731e-01 0.000000e+00
 0.000000e+00 0.000000e+00 0.000000e+00 7.388572e-01 2.611428e-01
 0.000000e+00 0.000000e+00 0.000000e+00 0.000000e+00 0.000000e+00
<ENDHMM>
~h "HH"
<BEGINHMM>
<NUMSTATES> 5
<STATE> 2
<MEAN> 25
 -2.178004e+00 -2.001858e+00 -1.385445e+00 -8.437612e-01 3.038397e-01 2.065884e+00 -2.685392e-02 2.085095e+00 1.967690e+00 2.748601e-01 2.307487e-01 8.709418e-01 1.212586e-02 -1.134825e-01 -2.943836e-01 2.218646e-02 -7.070453e-02 4.686755e-02 6.338955e-02 3.063581e-01 1.511766e-01 9.338643e-02 9.483789e-02 3.378773e-02 -2.073357e-01
<VARIANCE> 25
 6.531522e+01 4.692268e+01 7.204684e+01 6.227843e+01 5.707428e+01 5.529315e+01 5.626928e+01 5.353734e+01 4.613149e+01 3.346991e+01 2.814548e+01 2.525379e+01 2.061064e+00 2.883626e+00 3.772418e+00 3.795852e+00 3.484282e+00 3.679399e+00 3.381897e+00 3.739927e+00 3.054975e+00 2.316276e+00 2.402901e+00 1.776648e+00 1.745337e+00
<GCONST> 1.058571e+02
<STATE> 3
<MEAN> 25
 -4.969274e+00 1.543801e+00 -3.501902e+00 1.623891e-01 3.275493e-01 4.353893e+00 8.227124e-01 5.093603e+00 2.771563e+00 1.923374e+00 6.968280e-01 2.182303e+00 5.644904e-02 -8.079585e-02 -1.422635e-01 3.376447e-03 -6.871758e-02 -1.085857e-01 -4.307056e-02 4.622088e-02 8.799334e-02 1.927631e-02 9.211788e-03 -9.455737e-04 3.036824e-02
<VARIANCE> 25
 1.759033e+01 2.883013e+01 1.628720e+01 1.811971e+01 1.710122e+01 2.280615e+01 1.676767e+01 1.701961e+01 2.124508e+01 1.406986e+01 1.292678e+01 1.231005e+01 2.978014e-01 7.450812e-01 6.800882e-01 7.435652e-01 8.519551e-01 1.029537e+00 1.095423e+00 1.237066e+00 1.051703e+00 9.388154e-01 1.059821e+00 9.090620e-01 2.120897e-01
<GCONST> 7.663757e+01
<STATE> 4
<MEAN> 25
 3.158889e-01 -1.235906e+01 -9.683676e+00 3.167525e+00 -4.357061e+00 -5.359053e+00 -1.046412e+00 7.198637e+00 8.486626e+00 4.105949e+00 1.217898e+00 -1.343658e+00 6.638836e-01 -1.862856e-02 1.563299e-03 -1.916081e-02 2.127105e-02 -6.612374e-02 4.181143e-02 -4.278370e-01 4.008188e-02 2.306047e-01 -9.169182e-02 -2.883251e-01 6.038638e-01
<VARIANCE> 25
 1.866808e+01 5.631662e+01 3.869103e+01 5.759635e+01 4.758936e+01 7.147614e+01 4.646641e+01 4.690887e+01 4.408873e+01 4.350621e+01 3.233051e+01 2.684529e+01 1.034122e+00 4.281597e+00 3.268264e+00 2.604610e+00 2.866257e+00 4.818180e+00 2.291704e+00 3.231359e+00 2.507877e+00 2.437596e+00 2.265865e+00 1.855609e+00 7.016099e-01
<GCONST> 1.019072e+02
<TRANSP> 5
 0.000000e+00 1.000000e+00 0.000000e+00 0.000000e+00 0.000000e+00
 0.000000e+00 8.670269e-01 1.329731e-01 0.000000e+00 0.000000e+00
 0.000000e+00 0.000000e+00 9.433120e-01 5.668796e-02 0.000000e+00
 0.000000e+00 0.000000e+00 0.000000e+00 7.556930e-01 2.443070e-01
 0.000000e+00 0.000000e+00 0.000000e+00 0.000000e+00 0.000000e+00
<ENDHMM>
~h "IH"
<BEGINHMM>
<NUMSTATES> 5
<STATE> 2
<MEAN> 25
 5.813708e-01 -8.279170e-01 2.947332e-01 2.143047e+00 9.912432e-01 -1.532235e+00 -2.698089e+00 -2.655394e+00 -1.621794e+00 -4.803884e-01 -5.490564e-01 2.413025e-01 1.031435e+00 -2.985609e-01 1.849703e-01 7.964248e-01 3.508379e-01 -9.721695e-01 -9.705547e-01 -1.049656e+00 -5.659450e-01 3.489586e-01 -1.112104e-01 -2.628813e-01 9.741734e-01
<VARIANCE> 25
 6.177046e+01 6.142428e+01 5.779799e+01 5.843784e+01 5.230790e+01 7.344448e+01 5.452088e+01 6.464270e+01 4.921586e+01 3.641743e+01 3.126126e+01 2.515227e+01 4.292277e+00 5.700695e+00 3.896638e+00 4.078541e+00 3.913107e+00 6.365806e+00 4.965513e+00 5.625237e+00 4.868152e+00 3.604730e+00 3.118380e+00 2.678933e+00 3.994094e+00
<GCONST> 1.117736e+02
<STATE> 3
<MEAN> 25
 8.090522e+00 -4.085345e+00 -2.427302e-01 7.175385e+00 2.305735e+00 -8.943768e+00 -6.302135e+00 -9.221362e+00 -5.710875e+00 2.205036e+00 -2.529693e-01 -3.597031e+00 2.327709e-01 -1.096769e-01 1.048244e-01 3.365687e-01 3.497173e-01 -1.744528e-01 -3.064148e-01 -2.400881e-01 -9.597681e-02 2.449647e-01 -4.532600e-02 -1.794106e-01 3.283676e-01
<VARIANCE> 25
 1.858279e+01 4.422536e+01 3.495071e+01 4.622857e+01 3.113038e+01 5.099873e+01 3.728775e+01 4.183792e+01 3.878756e+01 4.271442e+01 2.944728e+01 2.988003e+01 1.372763e+00 2.413945e+00 2.192949e+00 2.761182e+00 2.316626e+00 2.769545e+00 2.378097e+00 2.432227e+00 2.727036e+00 2.399906e+00 2.021693e+00 1.781992e+00 1.547448e+00
<GCONST> 9.917069e+01
<STATE> 4
<MEAN> 25
 7.118399e+00 -6.726409e-01 1.156562e+00 5.020910e+00 5.290771e+00 -3.876237e+00 -7.445714e+00 -8.143090e+00 -4.403553e+00 1.417125e+00 -4.312997e-01 -1.905586e+00 -6.060010e-01 7.601559e-01 3.034423e-01 -5.541160e-01 5.941295e-02 1.451665e+00 8.316782e-01 4.724433e-01 2.203142e-01 -4.649775e-01 4.021285e-02 3.781064e-01 -7.940879e-01
<VARIANCE> 25
 1.720937e+01 2.707559e+01 4.031210e+01 4.260592e+01 3.994871e+01 5.239563e+01 4.446759e+01 5.381239e+01 5.823812e+01 4.117792e+01 4.044108e+01 3.864581e+01 1.366325e+00 2.523350e+00 2.524112e+00 2.935234e+00 2.645736e+00 2.688458e+00 2.510241e+00 2.782727e+00 3.270710e+00 2.364680e+00 2.557616e+00 1.722816e+00 1.341442e+00
<GCONST> 1.010716e+02
<TRANSP> 5
 0.000000e+00 1.000000e+00 0.000000e+00 0.000000e+00 0.000000e+00
 0.000000e+00 7.010185e-01 2.989815e-01 0.000000e+00 0.000000e+00
 0.000000e+00 0.000000e+00 5.912015e-01 4.087985e-01 0.000000e+00
 0.000000e+00 0.000000e+00 0.000000e+00 6.506543e-01 3.493458e-01
 0.000000e+00 0.000000e+00 0.000000e+00 0.000000e+00 0.000000e+00
<ENDHMM>
~h "IY"
<BEGINHMM>
<NUMSTATES> 5
<STATE> 2
<MEAN> 25
 4.429918e+00 -9.611257e-01 3.440598e+00 8.387942e+00 5.865632e+00 -6.034256e+00 -6.213537e+00 -5.782543e+00 -4.565207e+00 -4.122096e-02 -1.210723e+00 -4.318083e+00 6.525357e-01 -4.298237e-01 8.332462e-01 2.373305e+00 9.894421e-01 -2.292085e+00 -1.992416e+00 -2.203565e-01 2.950584e-01 6.268416e-01 -9.091376e-01 -1.623431e+00 9.394616e-01
<VARIANCE> 25
 3.335393e+01 3.236996e+01 4.561412e+01 5.187506e+01 5.104787e+01 6.686536e+01 4.420250e+01 5.643727e+01 5.718926e+01 3.559507e+01 3.619695e+01 3.349744e+01 3.379226e+00 5.081882e+00 2.596983e+00 3.327654e+00 4.571997e+00 5.027615e+00 4.387836e+00 4.584754e+00 4.696817e+00 4.030571e+00 3.262951e+00 2.344626e+00 2.473462e+00
<GCONST> 1.083943e+02
<STATE> 3
<MEAN> 25
 6.140113e+00 -1.974071e+00 4.646721e+00 1.406114e+01 6.725332e+00 -1.247097e+01 -1.014762e+01 -5.457528e+00 -4.822496e+00 1.220462e+00 -3.347762e+00 -8.962481e+00 -1.825973e-01 -2.065752e-01 4.689161e-01 4.135996e-01 -2.292686e-01 -4.178593e-01 -3.219518e-01 3.391386e-01 4.227157e-01 2.718166e-02 -4.785366e-01 -3.649503e-01 -2.134087e-02
<VARIANCE> 25
 1.501439e+01 2.360106e+01 3.276092e+01 2.881990e+01 5.224535e+01 6.622051e+01 3.735266e+01 4.623415e+01 3.393937e+01 2.637759e+01 2.401136e+01 2.893890e+01 2.800456e-01 6.716185e-01 1.159662e+00 1.577124e+00 1.395674e+00 1.978596e+00 1.513168e+00 1.674048e+00 1.490714e+00 1.356643e+00 1.256410e+00 1.345814e+00 2.247558e-01
<GCONST> 8.822626e+01
<STATE> 4
<MEAN> 25
 3.251006e+00 -7.970920e-01 4.732133e+00 1.033706e+01 5.257444e+00 -7.956067e+00 -9.066546e+00 -3.845324e+00 -2.745278e-01 5.691684e-01 -4.005039e+00 -6.685420e+00 -2.787823e-01 4.102389e-01 -5.108057e-01 -9.780732e-01 -1.573478e-01 1.305225e+00 6.872786e-01 -1.445548e-02 8.506166e-02 -1.937323e-01 4.224110e-01 7.703649e-01 -5.476873e-01
<VARIANCE> 25
 1.958877e+01 2.758603e+01 3.889580e+01 3.790879e+01 3.757978e+01 1.076707e+02 5.536154e+01 4.683131e+01 3.990585e+01 2.782476e+01 2.487305e+01 3.728575e+01 5.762157e-01 1.486293e+00 1.322353e+00 1.904101e+00 1.670264e+00 3.191375e+00 2.972387e+00 2.392537e+00 2.305197e+00 2.138056e+00 1.647327e+00 1.955735e+00 8.471448e-01
<GCONST> 9.654878e+01
<TRANSP> 5
 0.000000e+00 1.000000e+00 0.000000e+00 0.000000e+00 0.000000e+00
 0.000000e+00 5.912138e-01 4.087861e-01 0.000000e+00 0.000000e+00
 0.000000e+00 0.000000e+00 7.582175e-01 2.417825e-01 0.000000e+00
 0.000000e+00 0.000000e+00 0.000000e+00 8.156148e-01 1.843852e-01
 0.000000e+00 0.000000e+00 0.000000e+00 0.000000e+00 0.000000e+00
<ENDHMM>
~h "JH"
<BEGINHMM>
<NUMSTATES> 5
<STATE> 2
<MEAN> 25
 -2.958024e+00 -2.510211e-01 -1.020080e+00 3.927355e+00 3.043880e+00 2.907755e+00 -6.738796e-01 3.608295e+00 3.280230e+00 -5.454817e-01 -3.386246e-01 1.582940e+00 -9.255867e-01 -2.284542e+00 6.746623e-01 5.459366e-01 -4.092354e-01 -3.034715e-01 -4.987798e-01 5.930532e-01 1.111555e+00 -2.139845e-01 -1.058988e-01 2.547449e-01 7.269276e-01
<VARIANCE> 25
 3.306032e+01 6.229097e+01 3.943456e+01 5.080192e+01 3.233622e+01 3.195491e+01 3.459541e+01 3.352455e+01 3.472649e+01 2.993566e+01 2.630554e+01 1.471342e+01 2.938644e+00 1.014476e+01 3.950340e+00 3.362764e+00 3.013150e+00 2.882211e+00 3.270893e+00 4.188030e+00 3.567613e+00 2.506740e+00 2.037159e+00 1.770185e+00 2.664832e+00
<GCONST> 1.032952e+02
<STATE> 3
<MEAN> 25
 -7.372219e+00 -1.725279e+01 8.505959e+00 6.860919e+00 -8.853334e-02 -9.524928e-01 -4.073565e+00 4.298430e+00 7.676781e+00 -2.569029e+00 -9.706645e-01 1.784548e+00 -8.032663e-01 -1.571818e+00 1.150512e+00 -1.587729e-01 -5.770174e-02 -9.154198e-02 -3.176116e-01 -6.163841e-01 6.663203e-04 2.488892e-01 5.064183e-01 -6.321044e-02 6.737064e-01
<VARIANCE> 25
 3.232929e+01 7.693930e+01 6.907108e+01 5.603335e+01 6.856333e+01 3.588258e+01 4.234783e+01 7.954720e+01 5.880340e+01 3.850801e+01 3.209906e+01 1.801082e+01 3.420567e+00 7.772230e+00 5.352872e+00 3.562067e+00 4.718394e+00 2.019168e+00 2.231105e+00 3.218788e+00 1.814756e+00 1.707827e+00 1.566657e+00 1.346520e+00 2.708374e+00
<GCONST> 1.053701e+02
<STATE> 4
<MEAN> 25
 -3.582631e+00 -1.101030e+01 6.131901e+00 6.891742e+00 3.777863e+00 2.139862e-01 -7.551710e+00 1.489600e+00 5.060745e+00 -2.660948e+00 -8.506620e-02 1.619307e+00 2.194297e+00 2.706909e+00 -1.358050e+00 -3.688056e-01 2.469648e-01 -1.455160e-01 -6.823458e-01 -1.475177e+00 -1.741323e+00 -5.918096e-02 2.499325e-02 -6.597711e-02 -4.170874e-01
<VARIANCE> 25
 3.843599e+01 1.212374e+02 7.827895e+01 3.313099e+01 3.485255e+01 4.560746e+01 7.933764e+01 7.700550e+01 4.131531e+01 3.123393e+01 2.071418e+01 1.911316e+01 4.652720e+00 5.544206e+00 3.105881e+00 3.409816e+00 2.992493e+00 2.605357e+00 4.671124e+00 5.266706e+00 4.495785e+00 2.043060e+00 1.792036e+00 2.033571e+00 1.228578e+00
<GCONST> 1.060704e+02
<TRANSP> 5
 0.000000e+00 1.000000e+00 0.000000e+00 0.000000e+00 0.000000e+00
 0.000000e+00 8.069638e-01 1.930362e-01 0.000000e+00 0.000000e+00
 0.000000e+00 0.000000e+00 5.551184e-01 4.448816e-01 0.000000e+00
 0.000000e+00 0.000000e+00 0.000000e+00 6.604140e-01 3.395860e-01
 0.000000e+00 0.000000e+00 0.000000e+00 0.000000e+00 0.000000e+00
<ENDHMM>
~h "NG"
<BEGINHMM>
<NUMSTATES> 5
<STATE> 2
<MEAN> 25
 7.179147e+00 1.514127e+00 8.166088e-01 7.684713e+00 5.002720e+00 -6.378807e+00 -8.982574e+00 -2.728196e+00 1.381377e+00 4.734145e+00 1.440310e-01 -6.833419e+00 -3.072923e-01 1.384034e+00 2.556117e-01 -2.241429e-01 3.352475e-01 1.368879e+00 3.242353e-01 -1.322791e-01 4.097079e-01 -3.148938e-01 -3.974167e-01 2.195206e-01 -9.282536e-01
<VARIANCE> 25
 1.088562e+01 2.204071e+01 2.057772e+01 2.401369e+01 2.223510e+01 4.627367e+01 4.125961e+01 3.160010e+01 3.267132e+01 3.155363e+01 2.601129e+01 4.084974e+01 5.897616e-01 9.192661e-01 1.060643e+00 2.077290e+00 2.411612e+00 3.388483e+00 2.537127e+00 3.241700e+00 2.004735e+00 1.517655e+00 9.722847e-01 2.300944e+00 3.340110e-01
<GCONST> 9.085284e+01
<STATE> 3
<MEAN> 25
 5.935984e+00 7.930012e+00 2.261500e+00 5.104753e+00 6.400907e+00 1.488500e+00 -5.629306e+00 -6.081214e+00 -1.622997e+00 8.754048e-01 -9.608855e-02 -3.132107e+00 -5.228322e-01 4.447285e-01 2.695396e-01 -2.192144e-01 1.657975e-01 7.283402e-01 6.177495e-01 1.842460e-01 -2.515607e-03 -2.392536e-01 -9.417497e-02 2.933352e-01 -4.783511e-01
<VARIANCE> 25
 1.243228e+01 1.094772e+01 1.042136e+01 1.360077e+01 2.226867e+01 2.161141e+01 2.924109e+01 2.655355e+01 3.126099e+01 2.067294e+01 1.752008e+01 1.634775e+01 4.706318e-01 9.581218e-01 6.719616e-01 1.100257e+00 1.295833e+00 2.638995e+00 2.097112e+00 2.284664e+00 2.419564e+00 1.815192e+00 1.614358e+00 1.459198e+00 2.705467e-01
<GCONST> 8.350127e+01
<STATE> 4
<MEAN> 25
 -5.790056e+00 3.421303e+00 -9.693617e-01 3.601253e-01 1.435173e+00 4.898921e+00 1.282648e+00 4.645329e+00 3.681492e+00 1.439010e+00 4.552222e-01 1.835614e+00 -1.764519e-01 -1.152541e-01 -7.448789e-02 -7.739171e-02 -1.197341e-01 4.581833e-02 1.163421e-01 1.569187e-01 5.647753e-02 2.100931e-02 3.204092e-02 4.366168e-02 -1.419425e-01
<VARIANCE> 25
 2.229987e+01 1.284114e+01 1.465849e+01 1.653609e+01 1.215840e+01 1.507187e+01 1.494994e+01 1.837061e+01 1.748313e+01 1.332780e+01 9.356990e+00 8.571828e+00 3.243694e-01 5.100366e-01 5.661588e-01 7.939744e-01 8.522733e-01 8.168871e-01 1.095452e+00 1.030266e+00 9.714438e-01 9.047122e-01 9.169035e-01 8.194972e-01 4.662653e-01
<GCONST> 7.373895e+01
<TRANSP> 5
 0.000000e+00 1.000000e+00 0.000000e+00 0.000000e+00 0.000000e+00
 0.000000e+00 6.457010e-01 3.542990e-01 0.000000e+00 0.000000e+00
 0.000000e+00 0.000000e+00 7.878261e-01 2.121739e-01 0.000000e+00
 0.000000e+00 0.000000e+00 0.000000e+00 9.547428e-01 4.525723e-02
 0.000000e+00 0.000000e+00 0.000000e+00 0.000000e+00 0.000000e+00
<ENDHMM>
~h "OW"
<BEGINHMM>
<NUMSTATES> 5
<STATE> 2
<MEAN> 25
 6.108096e+00 1.927668e+00 1.284923e+00 -5.321728e+00 -4.238777e+00 -4.926809e+00 -2.603137e+00 6.804913e-01 -3.061521e-01 -2.351714e+00 -3.309969e+00 -1.469647e+00 1.941392e+00 6.026623e-01 5.834248e-01 -2.152719e-01 -2.486699e+00 -1.514503e+00 -1.139365e+00 1.899036e-01 2.456218e-01 2.888912e-01 -9.221585e-01 -7.957468e-01 9.212870e-01
<VARIANCE> 25
 4.235196e+01 4.008575e+01 3.540440e+01 4.591718e+01 9.725116e+01 7.863434e+01 7.081800e+01 5.340695e+01 5.566063e+01 2.262144e+01 3.373664e+01 2.133803e+01 3.820230e+00 4.304864e+00 3.521034e+00 5.106875e+00 1.065626e+01 9.992333e+00 5.928320e+00 4.492140e+00 4.345678e+00 2.503026e+00 3.407351e+00 2.668215e+00 1.835146e+00
<GCONST> 1.105156e+02
<STATE> 3
<MEAN> 25
 2.884073e-01 1.511072e+00 -2.607419e+00 -5.045202e-01 -2.426709e+00 7.752237e-01 3.451000e-01 2.975458e+00 4.847047e-01 -1.010205e+00 -1.466927e+00 -1.280451e-01 1.771339e-02 4.397102e-02 2.815981e-02 -2.538227e-04 -1.591302e-01 -1.021931e-01 -1.741296e-02 1.717438e-01 6.582604e-02 -2.719582e-02 -7.600140e-02 -1.202773e-01 -3.077009e-02
<VARIANCE> 25
 7.190085e+01 2.239838e+01 1.852488e+01 2.842248e+01 4.409649e+01 5.736756e+01 2.525576e+01 2.674622e+01 3.543615e+01 1.795019e+01 2.032052e+01 1.979959e+01 5.768643e-01 6.283994e-01 6.927037e-01 1.164857e+00 1.346608e+00 1.332256e+00 1.134324e+00 1.494446e+00 1.209060e+00 9.294921e-01 1.034122e+00 9.835485e-01 4.677739e-01
<GCONST> 8.565834e+01
<STATE> 4
<MEAN> 25
 9.646168e+00 5.570656e+00 1.102870e+00 -4.690472e+00 -6.001579e+00 -3.505780e+00 -3.260072e+00 2.655416e+00 5.791692e-01 -2.201352e+00 -4.621475e+00 -5.677760e+00 -4.197370e-01 2.628786e-01 -2.028513e-02 5.472369e-01 6.657117e-01 3.579501e-01 2.242904e-01 -3.567565e-01 -2.723330e-01 -3.273675e-03 2.374775e-01 2.430875e-01 -4.977255e-01
<VARIANCE> 25
 1.964115e+01 3.321651e+01 2.582252e+01 3.252789e+01 8.067391e+01 5.972172e+01 5.383368e+01 5.446833e+01 5.281374e+01 3.598434e+01 3.458427e+01 3.238847e+01 4.804161e-01 1.290900e+00 1.005570e+00 1.194921e+00 2.368551e+00 2.225996e+00 2.352062e+00 2.163334e+00 1.893744e+00 1.851426e+00 1.876872e+00 1.809182e+00 5.522755e-01
<GCONST> 9.507422e+01
<TRANSP> 5
 0.000000e+00 1.000000e+00 0.000000e+00 0.000000e+00 0.000000e+00
 0.000000e+00 6.169713e-01 3.830287e-01 0.000000e+00 0.000000e+00
 0.000000e+00 0.000000e+00 8.722445e-01 1.277555e-01 0.000000e+00
 0.000000e+00 0.000000e+00 0.000000e+00 7.822031e-01 2.177969e-01
 0.000000e+00 0.000000e+00 0.000000e+00 0.000000e+00 0.000000e+00
<ENDHMM>
~h "OY"
<BEGINHMM>
<NUMSTATES> 5
<STATE> 2
<MEAN> 25
 1.195519e+01 5.677841e+00 1.749701e-01 -6.959096e+00 -1.373784e+01 -1.100369e+01 1.550332e+00 4.458834e+00 -2.970696e+00 -3.552775e+00 -3.036275e+00 -5.526992e+00 3.225168e-01 -7.633590e-01 -1.239627e+00 3.014841e-01 5.497589e-01 9.187042e-01 4.824353e-01 -5.748739e-01 -7.651304e-01 -3.704739e-01 9.169301e-02 6.772640e-01 3.378150e-01
<VARIANCE> 25
 1.514421e+01 6.042093e+01 2.951970e+01 1.656811e+01 5.312871e+01 3.499839e+01 3.714854e+01 3.999378e+01 3.570943e+01 5.538477e+01 1.688192e+01 2.258286e+01 1.525851e-01 1.227198e+00 7.555773e-01 1.310070e+00 3.131230e+00 1.972726e+00 1.806061e+00 4.435746e+00 2.363643e+00 2.623327e+00 1.775080e+00 1.528173e+00 3.513002e-01
<GCONST> 9.131586e+01
<STATE> 3
<MEAN> 25
 1.209223e+01 5.061553e+00 -5.137163e+00 -7.199111e+00 -4.801686e+00 -2.275451e+00 -2.413745e+00 -5.570784e+00 -7.373672e+00 -2.738719e+00 1.134670e+00 -3.562748e-01 -2.561728e-01 -6.635735e-01 6.143060e-02 1.261269e+00 1.314774e+00 -5.940606e-02 -9.102227e-01 -1.225817e+00 2.191063e-01 1.061242e+00 6.320367e-01 -6.136462e-02 6.395713e-02
<VARIANCE> 25
 8.547149e+00 4.492707e+01 1.209422e+01 4.188494e+01 2.532962e+01 1.907220e+01 2.346498e+01 2.166837e+01 1.509873e+01 2.366552e+01 1.091115e+01 1.562213e+01 1.068375e-01 5.179734e-01 4.562939e-01 1.240177e+00 1.959788e+00 1.146854e+00 1.513745e+00 2.251032e+00 1.797603e+00 1.729459e+00 1.040056e+00 1.243123e+00 7.081113e-02
<GCONST> 7.886952e+01
<STATE> 4
<MEAN> 25
 7.765211e+00 -1.112884e+00 -1.044347e-01 7.110682e+00 3.126785e+00 -6.035156e+00 -7.686094e+00 -9.922455e+00 -3.243996e+00 1.742654e+00 2.431330e+00 -2.131751e+00 -6.349154e-01 2.441191e-01 5.989021e-01 3.571286e-01 2.484013e-01 2.509646e-01 -9.250384e-02 2.331167e-01 1.586164e-01 -2.218149e-01 -2.362924e-01 5.656280e-02 -5.497456e-01
<VARIANCE> 25
 1.009688e+01 3.551717e+01 1.502061e+01 2.901896e+01 2.830209e+01 6.661797e+01 2.643033e+01 2.659810e+01 2.600101e+01 2.131147e+01 2.188799e+01 3.079696e+01 7.305515e-01 1.121838e+00 9.946674e-01 2.132263e+00 1.814624e+00 2.905491e+00 2.374599e+00 2.729946e+00 2.440985e+00 1.893109e+00 2.161179e+00 1.821866e+00 8.031297e-01
<GCONST> 9.160087e+01
<TRANSP> 5
 0.000000e+00 1.000000e+00 0.000000e+00 0.000000e+00 0.000000e+00
 0.000000e+00 7.671239e-01 2.328760e-01 0.000000e+00 0.000000e+00
 0.000000e+00 0.000000e+00 8.624367e-01 1.375634e-01 0.000000e+00
 0.000000e+00 0.000000e+00 0.000000e+00 8.893281e-01 1.106720e-01
 0.000000e+00 0.000000e+00 0.000000e+00 0.000000e+00 0.000000e+00
<ENDHMM>
~h "SH"
<BEGINHMM>
<NUMSTATES> 5
<STATE> 2
<MEAN> 25
 -3.374832e+00 -1.826390e+01 2.190776e+00 8.449969e+00 5.727504e+00 -4.422593e-02 -6.762048e+00 -3.200097e+00 4.477106e+00 -1.314469e+00 -2.652306e-01 2.228612e+00 -2.078209e+00 -4.234067e+00 1.532340e+00 4.865566e-01 -7.588349e-01 8.486201e-01 -4.425313e-02 4.596673e-01 1.890108e+00 8.920400e-02 2.201493e-01 4.643577e-01 1.121347e+00
<VARIANCE> 25
 4.226458e+01 1.123182e+02 5.366120e+01 3.836591e+01 4.943340e+01 3.634897e+01 3.717058e+01 5.120325e+01 3.215426e+01 2.168330e+01 2.309311e+01 2.126492e+01 1.645329e+00 7.893582e+00 3.420851e+00 3.101485e+00 4.160454e+00 4.563863e+00 5.177731e+00 3.731260e+00 2.733462e+00 2.496297e+00 2.385451e+00 2.283656e+00 1.391758e+00
<GCONST> 1.046076e+02
<STATE> 3
<MEAN> 25
 -6.019578e+00 -2.614951e+01 4.095806e+00 9.509651e+00 1.557652e+00 6.489806e-01 -8.871892e+00 -3.882318e+00 9.787218e+00 -7.426172e-01 -1.090467e+00 3.935962e+00 5.598338e-01 1.487415e+00 -4.091673e-01 -5.130067e-02 -1.826963e-01 -3.011611e-01 -8.665305e-02 1.739707e-01 -6.430604e-01 -1.963312e-01 -4.488174e-02 2.107939e-01 -4.916438e-01
<VARIANCE> 25
 3.269145e+01 4.047813e+01 3.954557e+01 1.041158e+01 4.463261e+01 2.285472e+01 2.202999e+01 8.136803e+01 2.356879e+01 2.158149e+01 1.528677e+01 1.501892e+01 2.079513e+00 6.114033e+00 1.330954e+00 1.199415e+00 3.522982e+00 1.380352e+00 1.848425e+00 2.181592e+00 1.838305e+00 9.176062e-01 1.113825e+00 1.191257e+00 6.059717e-01
<GCONST> 9.153347e+01
<STATE> 4
<MEAN> 25
 -5.705325e+00 -1.212148e+01 5.376658e+00 8.169536e+00 2.266028e+00 -2.834968e+00 -4.040910e+00 2.880030e+00 2.205353e+00 -4.186581e+00 7.302113e-01 2.561201e+00 1.436316e+00 2.554670e+00 -7.628089e-01 -6.969371e-01 2.496197e-01 -3.284703e-01 2.319231e-01 -2.017869e-01 -6.953409e-01 -1.968371e-01 -1.807060e-01 -5.360662e-01 -7.119548e-01
<VARIANCE> 25
 4.346384e+01 6.282325e+01 7.705935e+01 1.577843e+01 1.884707e+01 1.267921e+01 2.676561e+01 3.535233e+01 1.801341e+01 1.675279e+01 1.204443e+01 1.719942e+01 4.926662e+00 8.478330e+00 2.545051e+00 1.407489e+00 2.487651e+00 1.715730e+00 2.543546e+00 4.478602e+00 3.197290e+00 1.180642e+00 1.246925e+00 1.442547e+00 8.157888e-01
<GCONST> 9.493839e+01
<TRANSP> 5
 0.000000e+00 1.000000e+00 0.000000e+00 0.000000e+00 0.000000e+00
 0.000000e+00 7.739378e-01 2.260622e-01 0.000000e+00 0.000000e+00
 0.000000e+00 0.000000e+00 8.262342e-01 1.737658e-01 0.000000e+00
 0.000000e+00 0.000000e+00 0.000000e+00 7.409881e-01 2.590120e-01
 0.000000e+00 0.000000e+00 0.000000e+00 0.000000e+00 0.000000e+00
<ENDHMM>
~h "TH"
