~o
<STREAMINFO> 1 25
<VECSIZE> 25<NULLD><MFCC_D_N_Z_0><DIAGC>
~h "proto"
<BEGINHMM>
<NUMSTATES> 5
<STATE> 2
<MEAN> 25
 2.446372e-08 1.164834e-08 -2.834823e-08 -4.236704e-10 -1.085688e-08 1.242420e-08 7.726137e-09 -2.048953e-08 2.815719e-08 5.239997e-09 -2.099118e-08 1.729511e-08 2.782783e-04 8.105593e-03 3.354382e-03 3.784899e-03 1.671901e-03 4.445545e-03 2.719841e-03 2.226485e-03 9.320646e-04 -1.759582e-03 3.273661e-04 1.619057e-03 -6.761073e-03
<VARIANCE> 25
 7.968267e+01 6.358541e+01 6.087243e+01 5.505609e+01 5.724388e+01 6.726206e+01 5.734312e+01 6.000549e+01 5.110052e+01 3.368565e+01 3.032968e+01 2.671291e+01 2.506404e+00 3.079669e+00 2.529822e+00 2.541275e+00 2.896638e+00 3.554356e+00 2.927224e+00 2.849123e+00 2.789011e+00 2.151500e+00 2.086599e+00 1.716910e+00 1.698386e+00
<GCONST> 1.050969e+02
<STATE> 3
<MEAN> 25
 2.446372e-08 1.164834e-08 -2.834823e-08 -4.236704e-10 -1.085688e-08 1.242420e-08 7.726137e-09 -2.048953e-08 2.815719e-08 5.239997e-09 -2.099118e-08 1.729511e-08 2.782783e-04 8.105593e-03 3.354382e-03 3.784899e-03 1.671901e-03 4.445545e-03 2.719841e-03 2.226485e-03 9.320646e-04 -1.759582e-03 3.273661e-04 1.619057e-03 -6.761073e-03
<VARIANCE> 25
 7.968267e+01 6.358541e+01 6.087243e+01 5.505609e+01 5.724388e+01 6.726206e+01 5.734312e+01 6.000549e+01 5.110052e+01 3.368565e+01 3.032968e+01 2.671291e+01 2.506404e+00 3.079669e+00 2.529822e+00 2.541275e+00 2.896638e+00 3.554356e+00 2.927224e+00 2.849123e+00 2.789011e+00 2.151500e+00 2.086599e+00 1.716910e+00 1.698386e+00
<GCONST> 1.050969e+02
<STATE> 4
<MEAN> 25
 2.446372e-08 1.164834e-08 -2.834823e-08 -4.236704e-10 -1.085688e-08 1.242420e-08 7.726137e-09 -2.048953e-08 2.815719e-08 5.239997e-09 -2.099118e-08 1.729511e-08 2.782783e-04 8.105593e-03 3.354382e-03 3.784899e-03 1.671901e-03 4.445545e-03 2.719841e-03 2.226485e-03 9.320646e-04 -1.759582e-03 3.273661e-04 1.619057e-03 -6.761073e-03
<VARIANCE> 25
 7.968267e+01 6.358541e+01 6.087243e+01 5.505609e+01 5.724388e+01 6.726206e+01 5.734312e+01 6.000549e+01 5.110052e+01 3.368565e+01 3.032968e+01 2.671291e+01 2.506404e+00 3.079669e+00 2.529822e+00 2.541275e+00 2.896638e+00 3.554356e+00 2.927224e+00 2.849123e+00 2.789011e+00 2.151500e+00 2.086599e+00 1.716910e+00 1.698386e+00
<GCONST> 1.050969e+02
<TRANSP> 5
 0.000000e+00 1.000000e+00 0.000000e+00 0.000000e+00 0.000000e+00
 0.000000e+00 6.000000e-01 4.000000e-01 0.000000e+00 0.000000e+00
 0.000000e+00 0.000000e+00 6.000000e-01 4.000000e-01 0.000000e+00
 0.000000e+00 0.000000e+00 0.000000e+00 7.000000e-01 3.000000e-01
 0.000000e+00 0.000000e+00 0.000000e+00 0.000000e+00 0.000000e+00
<ENDHMM>
