~o
<STREAMINFO> 1 25
<VECSIZE> 25<NULLD><MFCC_D_N_Z_0><DIAGC>
~h "proto"
<BEGINHMM>
<NUMSTATES> 5
<STATE> 2
<MEAN> 25
 1.819443e-08 1.145990e-08 -2.898634e-08 -1.866229e-09 -4.127537e-09 1.151448e-08 8.494202e-09 -1.933808e-08 2.178654e-08 9.175194e-09 -2.164618e-08 1.411368e-08 2.782769e-04 8.105576e-03 3.354349e-03 3.784880e-03 1.671885e-03 4.445587e-03 2.719855e-03 2.226473e-03 9.320599e-04 -1.759569e-03 3.273707e-04 1.619052e-03 -6.761021e-03
<VARIANCE> 25
 7.968267e+01 6.358524e+01 6.087283e+01 5.505526e+01 5.724409e+01 6.726180e+01 5.734271e+01 6.000499e+01 5.110018e+01 3.368564e+01 3.032982e+01 2.671312e+01 2.506419e+00 3.079672e+00 2.529847e+00 2.541258e+00 2.896661e+00 3.554332e+00 2.927214e+00 2.849125e+00 2.789004e+00 2.151489e+00 2.086596e+00 1.716883e+00 1.698381e+00
<GCONST> 1.050969e+02
<STATE> 3
<MEAN> 25
 1.819443e-08 1.145990e-08 -2.898634e-08 -1.866229e-09 -4.127537e-09 1.151448e-08 8.494202e-09 -1.933808e-08 2.178654e-08 9.175194e-09 -2.164618e-08 1.411368e-08 2.782769e-04 8.105576e-03 3.354349e-03 3.784880e-03 1.671885e-03 4.445587e-03 2.719855e-03 2.226473e-03 9.320599e-04 -1.759569e-03 3.273707e-04 1.619052e-03 -6.761021e-03
<VARIANCE> 25
 7.968267e+01 6.358524e+01 6.087283e+01 5.505526e+01 5.724409e+01 6.726180e+01 5.734271e+01 6.000499e+01 5.110018e+01 3.368564e+01 3.032982e+01 2.671312e+01 2.506419e+00 3.079672e+00 2.529847e+00 2.541258e+00 2.896661e+00 3.554332e+00 2.927214e+00 2.849125e+00 2.789004e+00 2.151489e+00 2.086596e+00 1.716883e+00 1.698381e+00
<GCONST> 1.050969e+02
<STATE> 4
<MEAN> 25
 1.819443e-08 1.145990e-08 -2.898634e-08 -1.866229e-09 -4.127537e-09 1.151448e-08 8.494202e-09 -1.933808e-08 2.178654e-08 9.175194e-09 -2.164618e-08 1.411368e-08 2.782769e-04 8.105576e-03 3.354349e-03 3.784880e-03 1.671885e-03 4.445587e-03 2.719855e-03 2.226473e-03 9.320599e-04 -1.759569e-03 3.273707e-04 1.619052e-03 -6.761021e-03
<VARIANCE> 25
 7.968267e+01 6.358524e+01 6.087283e+01 5.505526e+01 5.724409e+01 6.726180e+01 5.734271e+01 6.000499e+01 5.110018e+01 3.368564e+01 3.032982e+01 2.671312e+01 2.506419e+00 3.079672e+00 2.529847e+00 2.541258e+00 2.896661e+00 3.554332e+00 2.927214e+00 2.849125e+00 2.789004e+00 2.151489e+00 2.086596e+00 1.716883e+00 1.698381e+00
<GCONST> 1.050969e+02
<TRANSP> 5
 0.000000e+00 1.000000e+00 0.000000e+00 0.000000e+00 0.000000e+00
 0.000000e+00 6.000000e-01 4.000000e-01 0.000000e+00 0.000000e+00
 0.000000e+00 0.000000e+00 6.000000e-01 4.000000e-01 0.000000e+00
 0.000000e+00 0.000000e+00 0.000000e+00 7.000000e-01 3.000000e-01
 0.000000e+00 0.000000e+00 0.000000e+00 0.000000e+00 0.000000e+00
<ENDHMM>
