~o
<STREAMINFO> 1 25
<VECSIZE> 25<NULLD><MFCC_D_N_Z_0><DIAGC>
~h "proto"
<BEGINHMM>
<NUMSTATES> 5
<STATE> 2
<MEAN> 25
 -2.572355e-09 2.729206e-09 -8.624185e-09 -2.947751e-08 -1.691375e-08 4.159686e-08 9.944347e-09 -6.117185e-08 9.107808e-09 -6.587737e-09 -2.139446e-08 -6.969408e-09 1.080488e-03 8.224407e-03 3.301890e-03 4.073195e-03 1.471296e-03 4.699196e-03 3.505766e-03 1.979452e-03 3.308396e-04 -2.074464e-03 5.438066e-04 2.103275e-03 -6.346934e-03
<VARIANCE> 25
 7.909794e+01 6.313234e+01 6.037905e+01 5.544737e+01 5.745712e+01 6.644697e+01 5.681861e+01 5.941270e+01 5.107438e+01 3.277536e+01 3.016376e+01 2.617859e+01 2.438503e+00 3.023945e+00 2.495417e+00 2.514088e+00 2.883454e+00 3.512950e+00 2.895285e+00 2.825493e+00 2.751185e+00 2.104899e+00 2.089335e+00 1.683085e+00 1.700625e+00
<GCONST> 1.048416e+02
<STATE> 3
<MEAN> 25
 -2.572355e-09 2.729206e-09 -8.624185e-09 -2.947751e-08 -1.691375e-08 4.159686e-08 9.944347e-09 -6.117185e-08 9.107808e-09 -6.587737e-09 -2.139446e-08 -6.969408e-09 1.080488e-03 8.224407e-03 3.301890e-03 4.073195e-03 1.471296e-03 4.699196e-03 3.505766e-03 1.979452e-03 3.308396e-04 -2.074464e-03 5.438066e-04 2.103275e-03 -6.346934e-03
<VARIANCE> 25
 7.909794e+01 6.313234e+01 6.037905e+01 5.544737e+01 5.745712e+01 6.644697e+01 5.681861e+01 5.941270e+01 5.107438e+01 3.277536e+01 3.016376e+01 2.617859e+01 2.438503e+00 3.023945e+00 2.495417e+00 2.514088e+00 2.883454e+00 3.512950e+00 2.895285e+00 2.825493e+00 2.751185e+00 2.104899e+00 2.089335e+00 1.683085e+00 1.700625e+00
<GCONST> 1.048416e+02
<STATE> 4
<MEAN> 25
 -2.572355e-09 2.729206e-09 -8.624185e-09 -2.947751e-08 -1.691375e-08 4.159686e-08 9.944347e-09 -6.117185e-08 9.107808e-09 -6.587737e-09 -2.139446e-08 -6.969408e-09 1.080488e-03 8.224407e-03 3.301890e-03 4.073195e-03 1.471296e-03 4.699196e-03 3.505766e-03 1.979452e-03 3.308396e-04 -2.074464e-03 5.438066e-04 2.103275e-03 -6.346934e-03
<VARIANCE> 25
 7.909794e+01 6.313234e+01 6.037905e+01 5.544737e+01 5.745712e+01 6.644697e+01 5.681861e+01 5.941270e+01 5.107438e+01 3.277536e+01 3.016376e+01 2.617859e+01 2.438503e+00 3.023945e+00 2.495417e+00 2.514088e+00 2.883454e+00 3.512950e+00 2.895285e+00 2.825493e+00 2.751185e+00 2.104899e+00 2.089335e+00 1.683085e+00 1.700625e+00
<GCONST> 1.048416e+02
<TRANSP> 5
 0.000000e+00 1.000000e+00 0.000000e+00 0.000000e+00 0.000000e+00
 0.000000e+00 6.000000e-01 4.000000e-01 0.000000e+00 0.000000e+00
 0.000000e+00 0.000000e+00 6.000000e-01 4.000000e-01 0.000000e+00
 0.000000e+00 0.000000e+00 0.000000e+00 7.000000e-01 3.000000e-01
 0.000000e+00 0.000000e+00 0.000000e+00 0.000000e+00 0.000000e+00
<ENDHMM>
