~o
<STREAMINFO> 1 25
<VECSIZE> 25<NULLD><MFCC_D_N_Z_0><DIAGC>
~h "proto"
<BEGINHMM>
<NUMSTATES> 5
<STATE> 2
<MEAN> 25
 1.285530e-08 1.375630e-08 -4.478049e-09 1.735773e-08 -1.668327e-08 2.251218e-08 1.699836e-08 -2.273293e-08 2.604944e-08 1.556087e-08 -5.724305e-10 2.230169e-08 2.793206e-05 8.298210e-03 4.432840e-03 4.022324e-03 1.844439e-03 3.442008e-03 2.965866e-03 1.190981e-03 1.413456e-03 -1.308816e-03 1.668320e-03 1.801741e-03 -5.680419e-03
<VARIANCE> 25
 8.024582e+01 6.576259e+01 6.071886e+01 5.581397e+01 5.796288e+01 6.805020e+01 5.736544e+01 6.026453e+01 5.121546e+01 3.389548e+01 3.047397e+01 2.692008e+01 2.547740e+00 3.208386e+00 2.549843e+00 2.585164e+00 2.958116e+00 3.629243e+00 2.969251e+00 2.878456e+00 2.825727e+00 2.177480e+00 2.104602e+00 1.749483e+00 1.738038e+00
<GCONST> 1.054227e+02
<STATE> 3
<MEAN> 25
 1.285530e-08 1.375630e-08 -4.478049e-09 1.735773e-08 -1.668327e-08 2.251218e-08 1.699836e-08 -2.273293e-08 2.604944e-08 1.556087e-08 -5.724305e-10 2.230169e-08 2.793206e-05 8.298210e-03 4.432840e-03 4.022324e-03 1.844439e-03 3.442008e-03 2.965866e-03 1.190981e-03 1.413456e-03 -1.308816e-03 1.668320e-03 1.801741e-03 -5.680419e-03
<VARIANCE> 25
 8.024582e+01 6.576259e+01 6.071886e+01 5.581397e+01 5.796288e+01 6.805020e+01 5.736544e+01 6.026453e+01 5.121546e+01 3.389548e+01 3.047397e+01 2.692008e+01 2.547740e+00 3.208386e+00 2.549843e+00 2.585164e+00 2.958116e+00 3.629243e+00 2.969251e+00 2.878456e+00 2.825727e+00 2.177480e+00 2.104602e+00 1.749483e+00 1.738038e+00
<GCONST> 1.054227e+02
<STATE> 4
<MEAN> 25
 1.285530e-08 1.375630e-08 -4.478049e-09 1.735773e-08 -1.668327e-08 2.251218e-08 1.699836e-08 -2.273293e-08 2.604944e-08 1.556087e-08 -5.724305e-10 2.230169e-08 2.793206e-05 8.298210e-03 4.432840e-03 4.022324e-03 1.844439e-03 3.442008e-03 2.965866e-03 1.190981e-03 1.413456e-03 -1.308816e-03 1.668320e-03 1.801741e-03 -5.680419e-03
<VARIANCE> 25
 8.024582e+01 6.576259e+01 6.071886e+01 5.581397e+01 5.796288e+01 6.805020e+01 5.736544e+01 6.026453e+01 5.121546e+01 3.389548e+01 3.047397e+01 2.692008e+01 2.547740e+00 3.208386e+00 2.549843e+00 2.585164e+00 2.958116e+00 3.629243e+00 2.969251e+00 2.878456e+00 2.825727e+00 2.177480e+00 2.104602e+00 1.749483e+00 1.738038e+00
<GCONST> 1.054227e+02
<TRANSP> 5
 0.000000e+00 1.000000e+00 0.000000e+00 0.000000e+00 0.000000e+00
 0.000000e+00 6.000000e-01 4.000000e-01 0.000000e+00 0.000000e+00
 0.000000e+00 0.000000e+00 6.000000e-01 4.000000e-01 0.000000e+00
 0.000000e+00 0.000000e+00 0.000000e+00 7.000000e-01 3.000000e-01
 0.000000e+00 0.000000e+00 0.000000e+00 0.000000e+00 0.000000e+00
<ENDHMM>
