~o
<STREAMINFO> 1 25
<VECSIZE> 25<NULLD><MFCC_D_N_Z_0><DIAGC>
~h "proto"
<BEGINHMM>
<NUMSTATES> 5
<STATE> 2
<MEAN> 25
 3.396824e-08 8.711037e-08 -4.371541e-08 -8.831208e-08 1.580912e-08 6.865750e-08 -2.136367e-08 5.282168e-08 -3.495631e-08 7.413194e-08 -7.066034e-08 9.293197e-09 2.484949e-04 9.646621e-03 1.537330e-03 3.977521e-03 1.875401e-03 4.905889e-03 -4.942872e-04 2.623611e-03 -4.721173e-03 -7.528648e-04 1.127467e-03 3.031248e-03 -1.442076e-02
<VARIANCE> 25
 8.109475e+01 6.328043e+01 5.892728e+01 5.511348e+01 5.553206e+01 6.777943e+01 5.750231e+01 5.890852e+01 5.064045e+01 3.149846e+01 3.245617e+01 2.657063e+01 2.664857e+00 3.086296e+00 2.513167e+00 2.490665e+00 2.902265e+00 3.514967e+00 2.985838e+00 2.863897e+00 2.753825e+00 2.109129e+00 2.156407e+00 1.708428e+00 1.770985e+00
<GCONST> 1.051159e+02
<STATE> 3
<MEAN> 25
 3.396824e-08 8.711037e-08 -4.371541e-08 -8.831208e-08 1.580912e-08 6.865750e-08 -2.136367e-08 5.282168e-08 -3.495631e-08 7.413194e-08 -7.066034e-08 9.293197e-09 2.484949e-04 9.646621e-03 1.537330e-03 3.977521e-03 1.875401e-03 4.905889e-03 -4.942872e-04 2.623611e-03 -4.721173e-03 -7.528648e-04 1.127467e-03 3.031248e-03 -1.442076e-02
<VARIANCE> 25
 8.109475e+01 6.328043e+01 5.892728e+01 5.511348e+01 5.553206e+01 6.777943e+01 5.750231e+01 5.890852e+01 5.064045e+01 3.149846e+01 3.245617e+01 2.657063e+01 2.664857e+00 3.086296e+00 2.513167e+00 2.490665e+00 2.902265e+00 3.514967e+00 2.985838e+00 2.863897e+00 2.753825e+00 2.109129e+00 2.156407e+00 1.708428e+00 1.770985e+00
<GCONST> 1.051159e+02
<STATE> 4
<MEAN> 25
 3.396824e-08 8.711037e-08 -4.371541e-08 -8.831208e-08 1.580912e-08 6.865750e-08 -2.136367e-08 5.282168e-08 -3.495631e-08 7.413194e-08 -7.066034e-08 9.293197e-09 2.484949e-04 9.646621e-03 1.537330e-03 3.977521e-03 1.875401e-03 4.905889e-03 -4.942872e-04 2.623611e-03 -4.721173e-03 -7.528648e-04 1.127467e-03 3.031248e-03 -1.442076e-02
<VARIANCE> 25
 8.109475e+01 6.328043e+01 5.892728e+01 5.511348e+01 5.553206e+01 6.777943e+01 5.750231e+01 5.890852e+01 5.064045e+01 3.149846e+01 3.245617e+01 2.657063e+01 2.664857e+00 3.086296e+00 2.513167e+00 2.490665e+00 2.902265e+00 3.514967e+00 2.985838e+00 2.863897e+00 2.753825e+00 2.109129e+00 2.156407e+00 1.708428e+00 1.770985e+00
<GCONST> 1.051159e+02
<TRANSP> 5
 0.000000e+00 1.000000e+00 0.000000e+00 0.000000e+00 0.000000e+00
 0.000000e+00 6.000000e-01 4.000000e-01 0.000000e+00 0.000000e+00
 0.000000e+00 0.000000e+00 6.000000e-01 4.000000e-01 0.000000e+00
 0.000000e+00 0.000000e+00 0.000000e+00 7.000000e-01 3.000000e-01
 0.000000e+00 0.000000e+00 0.000000e+00 0.000000e+00 0.000000e+00
<ENDHMM>
